1899 128
1712 0.07127554 -0.08230169 0.2667045 -0.16935362 0.12806264 0.15431084 0.17568855 -0.16914803 0.06038498 -0.26261106 0.03429768 0.018320294 0.36169326 -0.05501968 0.5470795 0.08316626 -0.35539037 -0.27185985 0.07910511 -0.020979257 -0.2505322 0.41096613 -0.055752575 -0.3052249 -0.31598127 0.28391504 -0.23063417 0.30355608 -0.14510712 0.16203254 -0.38643524 -0.5580463 0.13573031 -0.46558765 0.22113077 -0.07869439 -0.0052225254 0.0056987666 0.10647685 0.15967165 0.15997438 0.17071731 0.28246766 -0.10951339 -0.42828166 -0.12071711 0.10535544 0.2813691 -0.00919373 0.010802352 -0.040828604 0.23096786 0.32343107 -0.16060501 0.39349237 0.044747047 0.17375632 -0.13475971 -0.41802055 -0.1367769 0.30903336 0.2893517 -0.3097252 -0.1761199 0.06389156 -0.12528789 0.08498035 0.21521159 0.0973518 -0.09261063 -0.13984106 -0.37065458 -0.20608889 0.22910678 -0.11306145 0.16368355 -0.15329225 0.056200113 0.12519068 -0.10568923 0.06904075 -0.31410256 0.29574227 0.07170304 0.21319708 -0.44255492 -0.046321254 -0.16603261 -0.3155736 0.10302147 0.41132104 0.35882276 -0.05296149 0.2673912 0.034385115 -0.0914504 0.17677958 0.19304657 -0.4133386 -0.5326369 0.05859508 -0.060994525 0.11902715 -0.375226 0.4105818 -0.1870535 -0.1181556 -0.3829698 -0.052563094 -0.13773002 0.012739606 0.31953362 0.14097257 0.17675631 -0.12597273 -0.118340984 -0.032008957 0.5827606 0.17424436 -0.055680767 -0.53143066 -0.19514155 -0.254027 0.33339176 0.23094077 0.39756516 0.035519764 0.5346822
248 -0.109803855 0.3673206 0.06969787 -0.04266986 0.2082916 0.13113056 -0.08887962 -0.05932187 0.053075816 -0.07518252 -0.04514709 0.081830084 0.042385634 -0.19044748 0.32197005 0.28377917 -0.12297792 -0.13766105 -0.0028746063 0.3181105 -0.5880163 0.4418316 -0.5111026 -0.35315773 -0.07482497 0.35874453 -0.5953984 0.31414405 0.025639877 0.17720005 -0.108991824 -0.46041727 -0.0021303168 -0.5708887 0.20685916 0.26055878 -0.22968902 0.45731956 0.60143036 0.055054147 -0.029282626 -0.02059074 0.23521155 0.09285914 -0.41620213 0.19434117 -0.092948414 0.3683881 -0.032523293 -0.011642065 -0.04904258 0.16543825 0.165549 -0.21817008 0.10195167 -0.05636692 0.2825328 -0.26422584 -0.628076 -0.16698314 0.20425566 0.5266407 -0.34762093 -0.26437408 0.23810357 -0.28995225 -0.003875569 0.48112243 0.13564117 0.007022353 -0.29238176 -0.07404788 -0.14195144 0.12286455 -0.025963305 0.14663239 -0.23929414 -0.03170506 -0.17215553 -0.039213564 0.0998486 -0.049485337 0.18162219 -0.22542042 0.24857557 -0.37410846 -0.0033359546 -0.24529944 -0.2729319 0.24571711 0.10496118 0.32751703 -0.16783614 0.03363279 -0.07423416 -0.06659334 -0.094313696 0.055922195 -0.14792785 -0.111678265 0.06168534 -0.17769572 0.16557585 -0.2768665 0.3334846 -0.14193484 -0.34530553 -0.27294397 0.02132143 0.012438752 0.16464192 0.55082464 -0.1259319 -0.029788641 -0.21584706 -0.30281994 0.13704967 0.4941407 0.11612457 0.21861207 -0.18739909 0.078969456 -0.15618013 0.011143766 0.15583384 0.5024868 0.12837729 0.34842223
8 -0.13364847 0.47978255 0.09501189 -0.06381094 0.54280746 0.30551532 0.19043534 -0.3204204 -0.20621307 -0.14671184 -0.27367806 0.02708385 0.12883845 -0.096640445 -0.112197764 0.07264385 -0.04699175 -0.004994633 -0.1480139 0.13374805 -0.6011595 0.509517 -0.34345722 0.07493899 -0.26835138 0.36316848 -0.11794001 0.6917141 -0.18452962 0.06801987 -0.3118006 -0.6346887 -0.21896933 -0.15070048 0.28101653 -0.127436 0.0651823 0.46967348 0.51447463 0.15347093 0.33639154 -0.022670515 0.34155777 -0.13383293 -0.43426958 0.28557813 0.30112928 0.13919897 -0.06298467 -0.098105066 0.19378725 0.1486184 -0.06282792 -0.05483496 0.18704815 -0.06527072 0.23235811 -0.26325014 -0.4248628 -0.18476453 0.29669097 0.15496501 -0.02369295 -0.20144626 0.30244958 -0.18231525 -0.012948185 0.13874115 0.11675979 -0.15090317 -0.20711629 -0.0765057 -0.19701499 0.15133789 -0.17140162 -0.016841898 -0.24080597 -0.0626774 0.08533875 0.14558211 0.039691076 -0.12831308 0.29064962 -0.024237022 0.17743824 -0.5391029 0.10157632 -0.3608396 -0.42609242 0.22199695 0.5263554 -0.018974345 -0.13580753 0.25220045 0.11790631 0.039437026 0.11325129 0.3581933 -0.35980865 -0.6985527 -0.06856618 -0.19207196 -0.05815585 -0.10886128 0.18667199 -0.3657558 -0.6349274 -0.14631096 0.088836804 -0.0700951 0.4464465 -0.0202931 -0.1489653 0.33409214 0.22181948 -0.06271309 -0.1270722 0.22567876 0.10206153 0.0032496403 -0.11468517 -0.16731654 -0.31185606 0.3018658 0.17052215 0.5745819 -0.008127252 0.41643834
11 0.0007381968 0.76674557 0.4348626 -0.045540296 0.50960624 0.39032674 0.124620155 -0.25440255 0.1408808 -0.10886458 0.09624452 0.040535536 0.04037615 -0.05873549 -0.039810266 -0.0043879314 -0.23290688 0.035411585 0.040242195 -9.9494835e-05 -0.49180207 0.2125562 -0.3328503 -0.07805 -0.22785062 0.36965072 -0.29136902 0.32218665 -0.27381957 0.102906294 -0.120089605 -0.41388762 -0.00093544484 0.07421123 0.2297049 -0.07343248 0.19955802 0.3415796 0.16138788 0.4819329 0.60999024 0.091907874 0.1686097 -0.0026172067 -0.38454142 0.12685421 0.24654979 0.17420208 -0.011871708 0.00059978815 -0.021829456 0.18087807 0.2153069 -0.24762198 0.31416157 -0.05243928 0.47423625 -0.2408314 -0.38837564 -0.25429958 0.38288397 0.29582855 -0.34603688 -0.10242479 0.15258199 -0.11449622 -0.09384 0.44820043 0.22113724 -0.24264252 -0.30619174 -0.19659992 -0.23982166 0.2602473 -0.21884485 0.33901644 -0.035066467 -0.07018131 -0.12147434 -0.045236453 0.2511182 -0.0775916 0.383103 -0.084438264 0.1503092 -0.47065964 0.016502332 -0.22735123 -0.6649371 0.08116715 0.5166738 0.07751644 0.032309018 0.03069783 0.12185321 -0.031086914 -0.00381837 0.30303156 -0.24575223 -0.6350233 -0.13388334 -0.11270924 0.051999275 -0.28502086 0.40861955 -0.17007954 -0.5846999 -0.033737324 -0.00048219596 0.21335965 0.3763699 0.19125293 -0.04237333 0.09098889 0.15242039 -0.23804508 -0.1849951 0.38995466 0.10384961 0.11536786 -0.23998657 -0.34497297 -0.2686046 0.5110408 0.044285152 0.47042304 -0.11882637 0.1128023
1643 0.024173059 0.36950234 0.15735045 0.040177822 0.3893823 0.43659037 0.19892272 -0.069099456 -0.06233053 0.065051585 -0.09535965 0.023480706 0.12084498 -0.27864683 0.22189334 0.08926481 -0.21769987 -0.036986385 -0.009725869 0.2572469 -0.4106506 0.2692799 -0.3081568 -0.08333462 -0.22308235 0.1746987 -0.12593411 0.18769526 0.02651866 0.10935079 -0.14858526 -0.3367761 0.07304664 -0.122347705 0.45618278 -0.049768455 -0.013701106 0.31727165 0.43060878 0.45771167 0.3839271 0.3541108 -0.0039998307 0.15739685 -0.20536263 0.15118086 0.2147455 0.11759229 0.06230086 -0.20436858 -0.0086822305 0.034760177 0.13054688 -0.24105084 0.10882082 -0.06605783 0.39517316 -0.28897274 -0.42858085 -0.33676055 0.0211086 0.45703912 -0.29588634 -0.1717608 0.15570447 -0.25362995 0.04122181 0.32943 -0.021073578 -0.012038658 -0.31896234 -0.07779502 0.021053983 0.30231935 0.049389612 0.08921278 -0.16021268 -0.07563371 -0.21328253 -0.26773775 0.106901556 0.092321366 0.10866655 0.10433874 0.2933829 -0.4419389 0.05114128 0.0049147257 -0.60241157 0.0009141642 0.35893828 0.6231719 -0.041927774 0.09168125 -0.11123761 -0.1761098 0.12607282 0.4474854 -0.2533238 -0.5987918 0.09732079 -0.2807345 0.0790845 -0.23967382 0.43886206 -0.047400415 -0.59345573 -0.38916218 0.017678674 0.03510735 0.4100139 0.5154104 0.22747141 0.09103062 -0.06997271 -0.2912411 0.11469282 0.6984805 0.1927203 0.4230723 -0.13633871 -0.029127788 -0.04303359 0.0864321 0.057643734 0.36232126 0.10348201 0.2847894
2 -0.10725751 0.21047212 0.06937826 0.20802179 0.41923591 0.25187662 0.21303678 -0.1690307 -0.15575649 -0.21292967 0.30055055 -0.031485006 -0.07513717 -0.18249947 0.13006221 -0.30221626 -0.16036703 -0.32914546 -0.002954743 0.039091818 -0.31155396 -0.042632286 -0.3686342 -0.13978647 -0.15031236 0.3316346 -0.25833565 0.56679213 -0.33291292 0.2628032 -0.02831573 0.060017418 -0.14561304 -0.19704776 0.06627405 -0.1317573 -0.06779895 0.06835109 0.5375156 0.053711034 -0.10952746 -0.07315048 0.30403438 -0.21457607 -0.14915709 0.20551477 0.26047447 0.03075604 -0.22085458 0.025021205 0.3447361 0.014088475 0.5634543 -0.09523921 0.0054520834 0.1392073 0.11799139 0.10989997 -0.21270838 -0.2220452 0.39515325 0.30400747 -0.106027655 -0.30857155 0.299112 -0.33200705 0.13702254 0.07081824 0.2212751 0.18751584 -0.37615725 -0.10381416 -0.18602732 0.20740528 -0.12007557 0.16669752 -0.16815585 0.20346229 -0.30272722 -0.27692267 0.33487254 -0.1047747 0.35392642 0.047213178 0.5403986 -0.38896376 0.043156616 -0.5374921 -0.35708523 -0.12652697 0.16690947 0.18513678 -0.44569293 0.003123501 0.09025087 0.08047495 -0.11851439 0.538036 0.24892952 -0.6885712 0.13428365 -0.02862002 0.09700212 -0.001978367 0.06684338 -0.18272905 -0.0994204 -0.17496324 -0.26095468 -0.29893482 0.24468723 0.39953846 -0.07174606 0.14110164 -0.079632595 -0.18524098 0.53127074 0.35606626 0.011484266 0.24717999 -0.17256244 -0.2901121 -0.24376924 0.26988652 0.078979544 0.4896348 -0.031875823 0.68109834
1345 0.0076597207 0.35961333 0.5120769 -0.053269982 0.76948863 0.5609382 0.29256257 -0.4545839 0.06326572 -0.23111132 -0.3530858 -0.16515513 0.24543048 -0.0023950245 0.26809707 -0.06196771 -0.26269498 -0.123320304 -0.15848675 0.329973 -0.33234996 0.552916 -0.0800608 -0.21313745 -0.18249491 0.25371665 -0.3090163 0.30958802 -0.022728756 0.18243024 -0.30813873 -0.1705153 0.15050876 -0.31687495 0.09320064 -0.17088702 -0.17270313 0.25729033 0.31986067 0.4743923 0.24594387 0.5176674 0.31486264 -0.24333833 -0.4430923 0.4254587 -0.12194101 0.40739015 0.08282839 -0.37305444 0.07652559 0.14934637 0.18702798 -0.3210519 0.11059662 -0.049091715 0.437303 -0.23167536 -0.231453 0.067258894 0.6211543 0.35506475 -0.1494236 -0.20431574 0.20786388 -0.61359143 -0.16793203 0.17897074 0.02876346 0.15975428 -0.37470406 -0.2624901 -0.2552655 0.1027147 -0.21389896 -0.23670492 0.093630984 0.0006929931 0.10577452 -0.29622644 0.019049652 -0.21128668 0.17010483 0.16781756 0.23450421 -0.28578767 -0.09786428 -0.33247486 -0.24124533 0.0050751236 0.31144327 0.31468228 -0.26135913 0.1757967 -0.024061445 -0.0037578254 0.14035487 0.06490757 -0.15217668 -0.33441827 -0.017163016 -0.24501495 0.20210616 -0.23778526 0.21942675 -0.16390918 -0.47601092 -0.38852537 0.009290134 0.09679914 0.14807978 0.41804257 0.003744877 0.18680927 -0.077958636 0.09714791 0.06738794 0.62787217 0.14639275 0.099005595 -0.16162877 -0.033469208 -0.49313626 0.41184595 0.37118295 0.45725793 0.14138402 0.43274182
1342 0.13201603 0.46086824 0.34014174 -0.029207291 0.47750506 0.47124082 0.04393981 -0.2748085 0.039646152 -0.2160762 -0.06280093 -0.019467477 0.076553755 -0.10166139 0.13788973 0.19095159 -0.15273309 -0.029265786 -0.25915262 0.21221082 -0.4250991 0.26691362 -0.3432933 -0.11765585 -0.3262229 0.4180598 -0.18282725 0.3654964 -0.25167215 0.13027748 -0.18998437 -0.557513 -0.08445437 0.009302664 0.25485712 -0.049615435 0.09636778 0.2126676 0.3885263 0.2459071 0.26252252 -0.009744116 0.19598132 -0.14783697 -0.49808168 0.16381508 0.20021391 0.2174196 -0.0025631068 -0.045019753 -0.10949411 0.16802976 -0.04237428 -0.31709203 0.45518932 -0.057542223 0.3949733 -0.29677448 -0.5656651 -0.3121819 0.21838243 0.2615297 -0.405847 -0.17778246 0.22136484 -0.0674631 0.054849844 0.21342406 0.20520772 -0.13198233 -0.47143573 -0.22636628 -0.24866633 0.23191598 -0.05105953 0.2488684 -0.24375574 0.11947075 -0.043713298 -0.050391126 0.052010644 -0.12388331 0.34280765 0.123649925 0.15178023 -0.48610377 0.112734005 -0.47757483 -0.31338507 0.13591082 0.40804875 0.049793217 -0.10727623 0.17992064 0.09780414 0.27771497 0.085361205 0.09582294 -0.44056836 -0.5880753 -0.10227667 -0.34010157 0.10092481 -0.18921785 0.21758261 -0.31092492 -0.45575467 -0.20642737 -0.012297764 0.08677459 0.264906 0.2533166 -0.17736356 0.04307266 0.10737137 -0.13946478 -0.26494047 0.18617724 0.24321002 0.04156478 -0.09063067 -0.19145349 -0.5171632 0.2576278 0.25678623 0.45399287 -0.07245286 0.2765804
26 -0.15915453 0.50797355 0.17755248 0.13587274 0.3967206 0.34280482 0.43647236 -0.4445991 0.10421197 -0.19669051 -0.32073525 0.34441757 0.20077154 -0.19629537 0.14395672 -0.17231387 0.03708688 0.013506926 0.07094511 0.27927536 -0.37853038 0.1784763 -0.43100676 0.14744316 -0.34274668 0.3008729 -0.34125438 0.01423077 -0.3542484 -0.0055065225 -0.50358063 -0.44948062 0.1293926 -0.35886946 0.35951242 -0.18722743 0.1482569 0.27901113 0.42065668 0.54980683 0.1418418 0.26682526 0.10922366 0.1076552 -0.32717055 0.103291616 0.2344957 0.04344042 0.33293834 0.08760115 -0.013222941 0.22611044 -0.0867971 -0.45761093 0.39941466 0.079051346 0.47906825 -0.2817228 -0.4323052 -0.23754498 0.081651434 0.014423118 -0.32850826 -0.25866327 0.29974762 0.049585078 -0.06418841 0.3620523 -0.037432715 -0.09226367 -0.17867395 -0.3535867 -0.20179302 0.012166348 0.08035951 0.16829222 0.06633206 -0.019575484 -0.3491744 0.008846646 0.030611672 -0.12380402 0.14519934 0.13268152 0.25071624 -0.4677611 -0.04282849 -0.083169505 -0.6735977 0.051118642 0.20623381 0.49170676 -0.5098042 0.22708389 0.023002405 0.029788408 0.08450856 0.00932724 -0.18529442 -0.42910764 -0.1907885 -0.03567593 0.2978243 -0.32246432 0.37937987 -0.4000984 -0.4269141 -0.49999252 -0.10040387 0.31216553 0.40149957 0.42218482 -0.026311198 -0.24468373 0.049157415 -0.066342734 0.06790616 0.6490887 0.09175638 0.00583807 -0.36207935 -0.11239662 -0.24896714 0.5220938 0.18838252 0.50837106 0.12553969 0.4234323
1646 -0.6073905 0.28010827 0.20111188 -0.034887355 0.4952485 0.10623408 0.30145395 -0.15206502 0.15631951 -0.12822424 -0.09923176 0.13846464 0.30491418 -0.09869303 0.25091 -0.14973319 -0.20815761 -0.16890037 0.15401363 0.17328492 -0.26806477 0.077616535 -0.18192333 -0.3291536 -0.36852306 0.18526873 -0.24680552 0.32396933 -0.23544405 -0.1712898 -0.42750138 -0.47613782 0.45016378 -0.23985805 0.1275448 -0.055970713 -0.11529813 -0.13793136 0.5162307 0.17972131 0.36514586 0.21807778 0.3519203 -0.004301069 -0.5625972 -0.14937676 0.030371785 0.57059306 0.047503587 0.049118906 -0.24129565 0.1369288 0.18663956 -0.21611936 0.33651543 0.33935446 0.19132584 -0.12285073 -0.17961417 -0.07374334 -0.041053884 0.466323 -0.050768763 -0.0118945325 0.19085643 -0.314392 0.10448785 0.31909844 0.115729995 -0.14403412 0.041845806 -0.42247662 -0.13746433 -0.019709503 0.10406126 0.5202168 -0.32087737 0.0061637913 0.12747669 0.058482017 0.23655252 -0.41747344 0.14180736 -0.2413202 0.33902323 -0.40814248 -0.10811162 -0.33028668 -0.4880824 0.1492093 0.31174675 0.32161355 -0.18905623 0.3558694 0.12038234 0.023096375 0.07403632 0.2864712 -0.23530093 -0.35882762 0.1759468 -0.029881597 0.096506156 0.16080174 0.5073925 -0.33532998 0.01571964 -0.26938352 -0.11762935 -0.20751089 0.32474178 -0.10259281 -0.055889588 0.13166669 -0.1592362 -0.18930797 -0.07186202 0.6239673 0.28881148 -0.28196183 -0.49932978 0.0037622212 -0.18451557 0.5287856 0.36891654 0.37881342 -0.094360135 0.6172542
430 0.037478916 0.6045839 0.406839 -0.46661383 0.6336672 0.26025116 -0.32929373 0.04891536 0.106166005 -0.16177127 0.0501137 0.17730427 0.5076679 -0.4664339 0.436304 0.17667536 -0.32017595 -0.13468708 0.18227726 0.23431316 -0.28586325 0.27206406 -0.40096444 0.26000687 -0.055182476 0.28844833 -0.102201656 0.23820513 0.03273378 0.050194748 -0.22524795 -0.43129534 0.11473126 -0.13681564 0.42644778 0.10138236 -0.109047145 0.14153166 0.42949182 0.085386954 0.33398402 0.3269287 0.13020247 0.045504447 -0.12261025 0.07835247 0.058318187 0.33460483 -0.018222427 -0.17460167 -0.028452292 -0.08623014 0.12555619 -0.044165157 0.23152061 0.21862502 0.13423228 -0.2650362 -0.25111553 -0.3522612 0.049883448 0.40847635 -0.1924505 -0.4067841 -0.024912553 -0.60179824 -0.07746375 0.38646767 0.1495736 0.17317066 -0.029298563 -0.027117848 -0.07279704 0.3457915 0.00289279 0.03864126 -0.06424665 0.07444771 -0.17280917 0.022130799 0.24113746 -0.19254014 0.13334596 0.006990536 -0.004322579 -0.41035336 0.11911097 -0.12238522 -0.6110543 0.05338759 0.3566917 0.513144 -0.20056064 0.33053917 -0.2636499 -0.0523482 -0.101099685 0.16433859 -0.11254924 -0.7976191 0.36240664 -0.042318314 0.1859932 -0.30444652 0.48728135 -0.064871214 -0.36117736 -0.36178908 -0.11791562 -0.048145097 0.17079636 0.050387092 0.1744131 0.093446314 0.062609315 -0.2829502 0.38763085 0.6800303 0.19122475 0.01616023 -0.29189512 -0.011438991 -0.22699334 0.20415343 -0.09288191 0.2710471 -0.38639104 0.5550824
1311 0.19002876 0.4836351 0.28336608 0.11153375 0.49005976 0.32718197 0.1335524 -0.19357708 0.095170856 -0.2030268 0.0700857 -0.009605618 0.05033511 -0.22197866 -0.13435756 0.11071032 -0.1660279 -0.045648072 -0.12604107 0.15181665 -0.40918946 0.2187615 -0.16874829 -0.008025416 -0.2334817 0.41392004 -0.2457986 0.35324183 -0.25094524 0.1346134 -0.19945768 -0.5205702 0.11602519 -0.235421 0.32797226 -0.03489505 0.15845676 0.05010397 0.17374606 0.26959014 0.44530544 0.0014247994 0.3047317 0.102627404 -0.4056734 0.1416721 0.45842165 0.23501395 -0.04431544 -0.119968146 -0.07474255 0.17392628 0.206434 -0.33654305 0.3955669 -0.0050955163 0.39464766 -0.28839245 -0.37081248 -0.3350795 0.05997341 0.30549186 -0.31801605 0.06960385 0.022360582 0.005313213 0.044403348 0.29157487 0.066252366 -0.1514418 -0.20193167 -0.23043622 -0.14035009 0.22027673 -0.103742875 0.40120885 -0.041293047 -0.12092697 -0.1752109 -0.1222295 0.28359437 0.032517757 0.32595363 -0.091431476 0.12861796 -0.5448385 -0.0388315 -0.22281317 -0.6669832 0.04600647 0.47384104 0.15119746 0.0069026635 0.05710484 0.064267136 0.07775708 0.06775193 0.36439142 -0.43906432 -0.69763887 -0.057373058 -0.22089395 0.06300069 -0.28929582 0.5378764 -0.16059777 -0.71721596 -0.2346865 -0.02071838 0.45717928 0.26499903 0.18202092 0.033939462 -0.032518625 -0.04579844 -0.230805 -0.057500713 0.38403487 0.2710755 0.082039274 -0.17439042 -0.088823095 -0.43099883 0.57121944 0.206987 0.6887833 -0.117921285 0.14467381
1312 -0.10190594 0.50962794 0.26720655 0.038811702 0.40880397 0.487941 0.35430393 -0.15837559 0.10902958 -0.036426447 0.010919756 0.12152941 0.16730572 -0.055443615 -0.2470853 0.07806251 0.048680514 0.057706416 -0.14265399 0.10695466 -0.3671284 0.343919 -0.3013413 -0.0067265313 -0.32475823 0.30125076 -0.2192384 0.2840586 -0.09837712 0.027357105 0.05615429 -0.5066367 0.06362689 -0.32728255 0.11811986 0.040462326 0.3060391 0.2933626 0.2858118 0.25818476 0.48569965 0.08763649 0.24111533 0.011289996 -0.36197156 0.04100474 0.2862762 0.1670806 0.010763453 -0.11720696 -0.15024643 0.06846751 0.2701325 -0.1738094 0.46448377 0.09352727 0.322386 -0.29117545 -0.38238233 -0.37868497 0.20975052 0.19662054 -0.27043468 -0.03097987 0.17710768 -0.1397339 0.05090195 0.43202388 0.18457156 -0.19527815 -0.2602704 -0.20174608 -0.19770288 0.21155281 -0.1623291 0.26078135 -0.2498671 -0.23490016 0.009524571 0.03486 0.24446514 0.060446765 0.32567498 0.038438182 0.22898975 -0.64321536 0.038568813 -0.18367454 -0.72773397 0.028237404 0.44280165 0.07346109 -0.1305917 0.046848956 0.030262846 0.012556514 -0.09704668 0.26518854 -0.40742177 -0.6217408 -0.091467075 -0.26627725 0.24738173 -0.28004608 0.6053753 -0.22098733 -0.7352411 -0.2556838 0.03616731 0.24587457 0.4013624 0.113683015 -0.12441812 0.10955461 0.008038858 -0.13040444 0.031073414 0.39704442 0.32169515 0.085946456 -0.3250025 -0.13007613 -0.40222943 0.5330471 0.104054295 0.42351958 -0.2330081 0.21116185
560 -0.18530226 0.41385305 0.28279558 -0.5366392 0.6326943 0.33179846 -0.2529157 -0.14212348 -0.11871749 -0.1672736 -0.17247623 0.17346214 0.34399655 -0.12735844 0.34501296 0.22411177 -0.26097104 -0.07580621 0.0445538 0.2836528 -0.28865528 0.19841875 -0.45020032 -0.09131852 -0.2049582 0.31360275 -0.07007878 0.42479166 -0.09813653 0.013893015 -0.33637655 -0.39693278 0.19143388 -0.28697616 0.17390117 0.11586344 -0.179375 -0.006592789 0.33426076 0.09776154 0.1124315 0.5081898 0.096657805 -0.17336743 -0.44372654 0.13332641 -0.12191198 0.40914464 0.05219129 0.0153826 -0.21116582 0.06351959 0.0817145 -0.07335015 0.16503984 0.06514232 0.085011214 -0.24068369 -0.43844926 -0.25521398 0.11900422 0.38237324 -0.19049256 -0.113465235 0.32720274 -0.4095002 0.06318391 0.38983598 -0.08599126 0.100084476 -0.33430228 -0.2294365 -0.15740547 0.46639112 0.1204311 0.15597892 -0.13126259 0.006062267 -0.10155084 0.09380327 0.09971211 -0.21909837 0.05539516 0.006886733 0.13805817 -0.3900457 0.0848505 -0.06211702 -0.42717782 0.15128557 0.40369022 0.5375817 -0.12849258 0.3091742 0.10862851 -0.0038270543 0.022818971 0.07337614 -0.038054634 -0.55417633 0.3308457 -0.16172738 0.18436757 0.012891011 0.50439227 -0.31303656 -0.3132075 -0.45400843 -0.28289083 -0.06653137 0.043493863 -0.021654734 0.32429597 0.080610245 -0.028826991 -0.35991335 0.32631555 0.55215526 0.18748042 -0.13277145 -0.14388213 -0.012139745 -0.1230095 0.22511008 0.22548364 0.07094304 -0.1471052 0.57086563
104 0.051791508 0.40051708 0.30800426 -0.22293536 0.43673873 0.2711508 0.39577731 0.11056413 0.099013485 0.09642673 0.0468248 0.11900976 0.4108699 -0.12755065 0.13742904 0.34960192 -0.28210202 0.005979568 -0.07659813 0.22792129 -0.32611293 0.313762 -0.2930317 -0.16327128 -0.032309864 0.3771825 -0.20342201 0.52575374 0.26785836 0.1848614 0.04265504 -0.42016506 -0.17629938 -0.16703776 0.5974138 0.2670369 0.07768568 0.34257594 0.45316258 -0.008028153 0.28490284 0.23189537 0.25772685 0.19420786 -0.10358112 0.20361206 0.016177071 0.079161085 -0.0076240865 -0.12499795 0.03418201 0.06419137 0.10626475 -0.12222151 0.17361727 0.2706503 0.06703862 -0.19570075 -0.37746793 -0.38657156 0.105688214 0.3749686 -0.14190766 -0.24550274 0.21732129 -0.33504128 0.006965662 0.5389399 0.09358781 -0.045008168 -0.31631327 -0.034006134 -0.044000693 0.111959256 -0.07683467 0.15891999 -0.35269928 0.2624946 -0.24746823 -0.11757139 0.1751315 0.05017508 -0.054685127 0.10054124 0.30015248 -0.4330352 0.042365834 -0.17001939 -0.65569097 0.32653347 0.39317203 0.25762597 -0.10542419 0.38607153 -0.17321946 -0.10486211 0.07243391 0.08472536 -0.18094689 -0.5875194 0.02422548 0.09546738 0.37389004 -0.12994343 0.26789188 0.0016247793 -0.35255376 -0.3966077 0.07460795 0.03432721 0.7272905 0.19340228 -0.03564591 0.25778505 -0.0909327 0.0036323117 0.059750047 0.7323763 0.27248743 0.23136726 -0.20952824 -0.10707773 -0.21606988 0.30166835 -0.0043207896 0.35535085 -0.2399004 0.36497882
1623 -0.10226098 0.48969302 0.48546788 -0.081634015 0.517881 0.34927723 0.13509415 -0.086211614 0.18767335 -0.081283785 -0.017265767 0.30084696 0.5605236 -0.06822364 0.18231122 0.3267481 -0.2106017 0.08173858 -0.19841382 0.52366203 -0.4662482 0.25037497 -0.2962012 -0.06685603 -0.20985422 0.3838036 -0.3154752 0.44748604 -0.032787755 0.15520684 -0.13241993 -0.35662904 0.0787306 -0.13161507 0.28707933 0.24609898 0.077738985 0.37605187 0.3970567 -0.0725846 0.11986556 0.213567 0.057623398 0.18388581 -0.14688647 0.0018201455 0.18806207 0.21281394 -0.13302799 -0.14088319 -0.11211555 0.1710585 0.29309452 0.19214156 0.37150636 -0.09268654 0.19131628 -0.11593673 -0.26118147 -0.39119688 0.14836253 0.48196575 -0.2544624 -0.24982625 0.039006744 -0.28928205 0.04979333 0.40763837 -0.10151393 0.11540412 -0.38199863 0.07014091 0.06936437 0.19461605 0.059602365 0.048961274 -0.19724502 0.03842881 -0.01684339 -0.12714997 -0.0121852 0.062666215 0.0037295804 0.039961133 0.14178553 -0.3779697 0.059197012 -0.12305957 -0.64325285 0.2316939 0.6519045 0.15217385 -0.12860991 0.43564385 -0.2875045 -0.43540138 0.32759148 -0.047603894 -0.02384627 -0.7076313 0.03651988 -0.22738908 0.1411594 -0.13032927 0.45688108 -0.10080867 -0.44889688 -0.4850701 -0.10165542 0.19598007 0.46422988 0.31975332 0.2839596 0.21994896 0.032576624 -0.10791165 0.21415208 0.4617677 0.17054956 0.20345381 -0.3244867 0.01388221 -0.15710075 0.26504263 0.07148202 0.14670959 -0.23728372 0.35073277
1284 -0.17393701 0.5585833 0.1937738 0.07403584 0.54225385 0.1442771 0.20157087 -0.10080834 0.028909963 -0.21924193 -0.2244595 0.26207405 0.26069915 -0.087674946 -0.050787088 0.009338162 -0.25437847 -0.1433729 0.22616787 0.1751546 -0.38452175 0.13864286 -0.3230793 -0.13923548 -0.17230754 0.31853813 -0.25050905 0.33915484 -0.35177234 -0.118314154 -0.32541752 -0.39917004 0.15401945 -0.09968287 0.4819823 -0.15446022 -0.13784184 0.3341022 0.37078956 0.4067868 0.4461547 0.28677833 0.36065906 -0.07373397 -0.30427137 0.2051537 0.3428698 0.12775269 0.3165187 -0.024273613 -0.08022383 0.27676243 0.13935034 -0.06069832 0.31560588 0.00854292 0.41354328 -0.13581799 -0.3720021 -0.17215812 0.10006158 0.31350255 -0.23763716 -0.12775375 0.30971023 -0.020751057 -0.012015984 0.6668197 -0.05990663 0.040507816 -0.27969208 -0.3857996 -0.24845073 0.16924481 0.18598394 0.29831615 -0.056738272 0.008548276 -0.23675294 0.23562863 0.20625444 -0.19182116 0.122841984 -0.13330056 -0.067821644 -0.3947356 0.029230196 -0.27328137 -0.78355217 0.08334553 0.344728 0.3140751 -0.30906934 0.42152214 0.2409615 -0.04162459 0.05084917 0.23800948 -0.050407533 -0.55221814 0.23201925 -0.00911974 0.040486228 -0.34166378 0.47577614 -0.22354388 -0.48884648 -0.38031366 -0.15237227 0.18422464 0.46590906 0.31502658 -0.06839941 -0.0028429609 0.2311925 -0.17619672 -0.09802979 0.7090179 0.09864661 0.06505379 -0.045950565 -0.054849666 0.021885809 0.37272227 0.10217374 0.4062541 0.029557982 0.43840805
524 -0.050783608 0.28116137 0.21060082 -0.020484028 0.18601553 0.5574312 0.098899245 -0.123785935 0.005166293 -0.3210905 -0.059638366 -0.05818165 0.11590827 -0.16709493 0.08563469 0.3343725 -0.21758495 -0.302324 0.045282118 0.11002015 -0.2534584 0.47849298 -0.32911497 -0.41480106 -0.059417307 0.24421555 -0.20351055 0.19070636 0.050005037 0.120242834 -0.34687966 -0.4552271 0.0036163817 -0.30567726 0.3928664 0.3262939 0.095451266 -0.015314053 0.30933204 0.33633217 0.33610877 0.32818186 0.34307003 -0.19579919 -0.32908493 0.04125428 0.09169293 0.13702485 -0.0427648 0.21159323 -0.11605134 0.1267779 0.36110446 -0.1723669 0.5067864 -0.044210903 0.18931907 -0.16626349 -0.3521197 -0.1352895 0.14981373 0.27458116 -0.3500731 -0.13439453 -0.02820821 -0.13212702 0.15004145 0.55606484 0.050191894 -0.08420814 0.028012931 -0.106084645 -0.14143527 0.13601543 -0.12947601 0.18860076 -0.13315654 -0.030808976 0.04579476 -0.41540667 0.31875297 0.010236738 0.31979427 -0.105333716 0.34827623 -0.3742178 0.1055734 -0.19787472 -0.37118626 0.063433275 0.045225326 0.24508911 -0.15649615 0.05494704 -0.0007656992 -0.11061637 -0.25544512 0.29009795 -0.13812333 -0.42255738 0.23260005 -0.14694954 0.045697287 -0.16768605 0.5892936 -0.110430434 -0.1535797 -0.2459232 -0.018997455 -0.2632439 0.080156125 0.22210039 -0.07845549 0.2974668 -0.059329182 -0.15432912 0.19909489 0.57006526 0.26109466 0.11413485 -0.15313621 -0.20011476 -0.40070593 0.3310969 0.099753134 0.715024 0.013921082 0.44466367
31 0.30146986 0.38167664 0.11961025 0.18110217 0.50325936 0.43310466 0.34082574 -0.368072 -0.0977287 -0.17464055 -0.019358627 0.019217564 0.018695133 0.1990276 0.17667781 0.0653495 0.11915546 -0.22553566 -0.08705744 0.3198938 -0.42103332 0.31072864 -0.2711921 0.013756742 -0.1192645 0.28644508 -0.12537888 0.48151103 -0.26887694 0.17152774 -0.17607574 -0.22329056 0.03352653 -0.03083193 0.48790297 -0.19696882 0.03621943 0.098469995 0.88640445 0.121466525 0.1960174 -0.15749115 0.614446 -0.15048292 -0.3227699 0.3571462 0.1835406 0.13784312 0.11051519 -0.023811037 0.28331462 0.19224058 0.08609665 -0.017567627 0.05865529 0.18464471 0.13198116 -0.10450494 -0.129315 -0.18158653 0.37460893 0.40954432 0.12138784 -0.15075111 0.32955217 -0.25574106 0.10455085 0.16487612 0.2148381 0.15134151 -0.42371616 -0.11825423 -0.112527885 0.11392926 -0.043736354 -0.051851943 -0.21584229 0.048366927 -0.1284901 -0.08914403 0.14959468 -0.09824364 0.23396476 -0.06954708 0.31850567 -0.472113 0.013192469 -0.26777986 -0.36455968 -0.083087265 0.28908506 0.36367124 -0.40165263 0.22537959 -0.089389995 0.07651316 -0.18073626 0.30445856 0.16204157 -0.5823948 0.1286621 -0.091063045 -0.00031492813 -0.13054743 0.11114758 -0.20078534 -0.13864936 -0.016541615 -0.24825148 -0.28755155 0.14533822 0.35247052 -0.0014248668 -0.01473826 -0.088444695 -0.14015114 0.45960498 0.40745354 0.09312486 -0.14126647 0.02694939 -0.056271747 -0.3940515 0.29427636 -0.027738249 0.5556612 -0.26063913 0.2915324
1668 -0.20692709 0.3579913 0.14288692 0.09217706 0.45797542 -0.111884624 -0.058517385 -0.021295123 0.090644844 -0.3652046 -0.22349359 0.053735524 0.31520453 -0.1055693 0.2075486 0.15725474 -0.14850569 -0.18940221 -0.13341548 0.085619114 -0.27641279 0.2232215 -0.40020594 -0.22243226 -0.17516471 0.047239214 -0.15001181 0.28330466 -0.09321761 -0.056013945 -0.06885762 -0.37790063 0.20096019 0.077307984 0.22704172 0.1655905 -0.0492547 0.05808642 0.76009935 -0.0034565986 0.48473188 0.14942013 0.14769796 0.09888858 -0.47173703 -0.12007999 0.06300056 0.6428152 0.23124805 0.07968764 -0.12525335 0.040534135 0.18186969 -0.15094875 0.42335084 0.3534572 0.16600443 -0.046608683 -0.09914049 0.08081217 0.049537465 0.7119297 0.0015432688 -0.14992589 0.08405066 -0.54232395 0.015561136 0.32627696 0.038401913 0.26287025 0.08813288 -0.21367355 -0.11863833 -0.051781192 -0.03598059 0.3762953 -0.274034 0.35088453 0.13752115 -0.01146559 0.10962004 -0.4274656 0.18391891 -0.028095827 0.02776111 -0.454985 -0.02557512 -0.3622321 -0.56960404 0.081522174 0.6421955 0.26410964 -0.19987917 0.2046108 0.13506338 -0.3596509 0.19740286 0.0013311971 0.0874719 -0.45372906 0.31010756 0.14014079 0.111747384 0.2398063 0.45408225 -0.37652972 -0.35256362 -0.45272547 -0.009987166 -0.09913215 0.34412837 -0.0719932 0.4708235 0.10715069 -0.5149616 -0.20189808 0.23840566 0.62723523 0.27878016 -0.07937711 -0.48580343 -0.01007546 -0.29479557 0.4349948 0.3929821 0.22535308 0.066589445 0.5919553
94 -0.14960672 0.6369977 0.30838227 -0.43397346 0.56514215 0.66663766 -0.16825816 -0.2806416 -0.010785839 -0.43915898 -0.3388645 -0.09911625 0.19772029 -0.034951847 0.42512184 0.20772438 -0.0700594 -0.088864245 0.12242256 0.2625117 -0.015343031 0.056574367 -0.23978518 -0.12607297 -0.21312226 0.17291139 -0.3229824 0.2686509 -0.16343015 0.0115328 -0.30595997 -0.62737525 0.14413516 -0.45036873 0.31012905 0.097271994 -0.049936473 -0.10009836 0.46948338 0.34701207 0.09775065 0.45154178 0.03431013 -0.09204304 -0.54850894 0.08139031 0.09169328 0.39152235 0.13549922 -0.018545689 -0.3440403 -0.035113662 0.08667566 -0.0159012 0.4523155 0.0022529648 0.057433434 -0.09891607 -0.47202313 -0.23198697 0.3127706 0.43819982 -0.28972578 -0.2695767 0.31979328 -0.39913672 0.19439708 0.49477378 -0.21902284 0.14510922 -0.2318768 -0.03456876 -0.14827554 0.4092863 0.048457406 0.08993112 -0.22416933 0.031079393 -0.32492945 0.38701248 0.03610213 -0.25271305 0.11123382 -0.009585354 0.26558033 -0.52231276 -0.03447066 -0.48516482 -0.41561547 -0.12398077 0.49326542 0.630543 -0.22944754 0.2786158 -0.06125568 0.02598505 -0.14571032 0.13788563 0.130654 -0.522379 0.31357569 0.129409 0.21155147 -0.24297404 0.17844377 -0.2929473 -0.19833364 -0.3142662 -0.21880966 -0.028047001 0.18753704 0.022320459 0.32066944 0.12658712 -0.24827276 -0.26581526 0.09803492 0.6544006 -0.057749446 -0.06151617 -0.1584489 -0.08355805 -0.0684077 0.34299436 0.11753242 0.1392548 0.09107875 0.25787774
232 -0.19233862 0.2205216 0.42117608 0.07459494 0.6133456 0.3523206 0.020488452 -0.32475 0.025640225 -0.085816294 0.031364147 0.4078694 0.106295146 -0.45171955 0.2488961 -0.009875862 -0.059476595 -0.27161267 0.20600857 0.2500591 -0.24036804 0.319903 -0.19379662 -0.25228786 0.16393131 0.5367911 -0.54842955 0.20263812 -0.21801491 0.30404246 -0.16906244 -0.503516 0.3335448 -0.28323087 0.121593736 0.0743191 0.25677118 0.04944651 0.4685417 0.24352567 0.124603674 0.12113296 -0.0009493695 -0.030925183 -0.5234497 -0.081415474 -0.14060932 0.4006013 -0.018337285 -0.040089015 -0.032040194 -0.005721777 0.1798478 0.16303948 0.0684718 0.06014669 -0.060353965 0.17198882 -0.30936795 -0.121217914 0.18626764 0.2207479 -0.3497754 0.00052645034 0.11900683 -0.35085228 0.070007764 0.18666117 0.14806432 -0.02532294 -0.39073005 -0.2675742 -0.3186676 0.18322423 -0.07801694 0.25886565 -0.1362796 0.22722597 0.08246506 -0.10686945 0.03775133 -0.3209896 0.4964687 -0.29565313 0.22351749 -0.5950699 -0.2876103 -0.22776213 -0.42711857 0.30197722 0.5921864 0.22908157 -0.28133377 0.26096815 -0.2008253 -0.29788488 0.20571057 0.30967867 -0.22658947 -0.3727749 0.09522559 -0.064320125 0.171869 -0.29676795 0.34664953 -0.055245884 -0.12301642 -0.5715872 -0.26687825 0.12519729 -0.12522668 0.27609596 0.08659172 0.21030635 -0.3651972 -0.5238813 0.23731987 0.5526894 0.028208882 -0.27890703 -0.21378197 -0.068820246 -0.19112849 0.5609931 0.22442919 0.63396865 0.1485767 0.32140887
1755 -0.12885861 0.27840102 0.04115124 -0.24123025 0.33701044 0.0598471 0.15650408 -0.031522796 0.16577533 0.18949261 -0.06629033 -0.037120517 0.052149083 -0.024742855 -0.11927446 0.49054554 -0.33880857 0.006964299 -0.09607089 0.03300853 -0.45446485 0.23519237 -0.21488203 -0.18379346 -0.1860142 0.30809182 -0.46956664 0.32456562 0.23159903 0.22078729 -0.13759845 -0.35521674 -0.02882687 -0.4422786 0.6665197 -0.02391523 -0.084536 0.219111 0.3548824 0.43806347 0.42178324 0.4493122 0.2969628 0.1711987 -0.3037245 0.24864262 0.343324 0.10944415 0.07992349 -0.00031673696 0.05435919 0.23896669 0.078753464 -0.17719164 0.26550773 -0.152918 0.21960615 -0.26179343 -0.41564226 -0.19533928 0.19910374 0.40575868 -0.14206456 -0.19139728 -0.063111 -0.09814671 -0.065543234 0.37521616 -0.032883577 -0.21403198 -0.05223983 -0.35622206 0.07723747 0.3231151 -0.06316681 0.2442616 -0.26126906 0.015861414 -0.11270078 -0.31389165 0.26943007 0.06777562 0.2540141 0.027813142 0.20905676 -0.38232175 0.10254826 -0.111552246 -0.84333473 0.07362813 0.45787027 0.25604123 -0.048752546 0.13267806 -0.07237209 -0.0002839419 -0.011016865 0.5485912 -0.10116126 -0.7182815 -0.0961638 -0.08798462 0.12931606 -0.31890395 0.5706125 -0.117097445 -0.5846425 -0.08272922 0.13670895 0.2509872 0.49492356 0.2156605 -0.17241484 0.16268256 0.013540864 -0.16995116 -0.15186077 0.6758478 0.42152423 0.06911741 -0.07999031 -0.20343868 -0.09442334 0.3310237 0.17376056 0.5467858 -0.019439243 0.06425594
1666 -0.022403229 0.30616078 0.31623825 -0.3228721 0.27102146 0.4296499 0.15995078 -0.0766175 -0.316175 -0.43295914 0.05444257 -0.04275807 0.16827059 -0.20566264 0.43625486 0.22305845 -0.3294301 0.20955957 0.083370015 0.2775793 -0.31327492 0.28690985 -0.60443383 -0.24436274 -0.24879871 0.586526 -0.40737233 0.30536938 -0.20008333 -0.2326804 -0.15181266 -0.34764814 0.04108775 -0.2654215 0.11802699 -0.03035172 0.000974581 0.17591895 0.5414003 -0.010653768 0.23916943 0.40680015 -0.029648622 -0.27033615 -0.081392266 0.20802076 -0.1608443 0.2086583 0.24342835 -0.2791475 -0.2729413 -0.14376526 -0.018759893 -0.2998792 0.24472894 0.06875678 0.17722605 -0.30963492 -0.2084083 -0.036738314 0.4461409 0.10199966 -0.42815116 -0.10458242 0.3062603 -0.44507816 0.009530055 0.36480471 -0.027003862 -0.30161986 -0.22471833 -0.14377744 -0.3044064 0.23491381 -0.20341854 0.15039256 -0.036976222 -0.2133329 -0.124519914 -0.069900766 0.027548537 -0.25781244 0.05878429 -0.1402026 0.1295462 -0.5450863 -0.32057568 -0.12517086 -0.3107915 0.14567238 0.10532497 0.40372464 -0.067835085 0.2778217 -0.18108812 0.10061627 0.00085644115 0.21943717 -0.21769348 -0.55578613 0.21863845 -0.15974265 0.56300247 -0.19766861 0.35118628 -0.025391806 -0.2083162 -0.30617028 -0.08140002 -0.010999879 0.24071628 0.28910297 -0.36108753 0.19854844 -0.23553696 0.01205278 0.03785591 0.63035095 0.2447923 -0.063982196 -0.17437087 -0.049446546 -0.4175849 0.4082955 -0.25464082 0.19369182 0.052867293 0.7580516
1492 -0.24131863 0.5215327 0.3577936 -0.21481685 0.5091887 0.34160486 0.13490854 -0.09579423 0.10861258 -0.21795972 0.07464529 0.013006177 0.021690974 -0.23847207 0.4393687 0.023116848 -0.15044647 -0.1037344 -0.11287203 -0.001534109 -0.24910615 0.2658395 -0.08786478 -0.42992944 -0.33385572 0.24976152 -0.40657976 0.34240997 -0.25080296 -0.020405661 -0.21929978 -0.6414203 0.33702964 -0.42662865 0.18277763 -0.16230646 -0.20983778 -0.046723403 0.29755792 0.06781267 0.10239106 0.18661824 0.081154294 -0.5642433 -0.52277446 -0.09808432 0.06530064 0.41222093 0.012262237 0.004276833 -0.04756373 0.27311316 0.24637161 -0.27552205 0.41879377 -0.17315534 0.24151567 -0.1512219 -0.448514 -0.16960387 0.3368184 0.24211203 -0.33529383 -0.3044165 0.08060557 0.03481783 -0.07946995 0.1631331 0.41308334 -0.06698874 -0.42491865 -0.24570902 -0.10674773 0.36542603 -0.0125964945 0.032517917 -0.23675191 0.12635623 0.21514711 -0.4535461 0.25030527 -0.031387262 0.30055454 0.27756813 0.06792693 -0.36537778 0.0718398 -0.15365432 -0.29949743 0.09715043 0.1158128 0.13048477 0.0908816 0.044570044 -0.1835024 0.046699557 0.12930593 0.23347738 -0.35857385 -0.5866276 0.2103678 -0.23835231 0.1914556 -0.27694717 0.47183967 -0.33425137 -0.2689671 -0.17022336 -0.07201007 0.19880223 0.09310644 0.47125217 -0.015713047 0.12185789 0.04738598 -0.17316481 -0.0225708 0.33663493 0.44972882 -0.008740789 -0.4201021 -0.3862147 -0.38484645 0.25660828 0.34927496 0.3467982 0.0062344586 0.5484073
66 -0.0023328355 0.26049244 -0.091249354 -0.12527561 0.4378002 0.30900267 0.39766622 -0.17210773 0.023158126 -0.009824524 -0.34240314 0.19336188 -0.12616304 0.08965429 0.20627923 0.026353719 -0.12400335 -0.06721638 -0.26278913 0.2630966 -0.38717273 0.47953168 0.08622666 0.18153138 -0.09525373 0.0060154237 0.14014728 0.48211303 0.0057590054 0.21608475 -0.0760935 -0.15406634 -0.057546005 -0.25389084 0.22363424 -0.011415115 -0.10216484 0.13867567 0.14253935 0.077364735 0.13973609 -0.015494979 0.36589748 0.15064906 -0.30029985 0.5673999 0.12689194 0.051722642 0.13671583 0.06990984 0.291028 0.024511646 0.299019 -0.03734309 0.29366642 0.13318609 0.29167417 -0.30578694 -0.25033668 -0.3393307 0.46106306 0.36094424 -0.27844396 0.0664685 0.17358956 -0.31420016 0.3076482 0.42295927 0.1179409 -0.20076838 -0.42255905 -0.015792398 -0.19079691 0.42601797 -0.058798186 0.17134897 -0.6223138 -0.02427284 -0.033332627 -0.068663426 -0.11271247 -0.081128746 0.24597843 -0.075949915 0.22313346 -0.27343678 -0.2880483 -0.12245666 -0.37379575 0.025690615 0.40630338 0.36223805 -0.096639894 0.6280208 -0.17794032 0.35274172 -0.0443534 0.38237423 -0.0195706 -0.58265626 -0.12769492 -0.20989598 0.30796382 -0.22178188 0.36699536 -0.31974658 -0.37790352 -0.3033329 0.08191496 0.3187053 0.26563552 0.6467563 0.025565498 0.2601858 0.17781107 -0.17451483 0.044664923 0.40532643 0.14782746 -0.04050422 -0.35247347 -0.1003472 -0.3658514 0.2814009 -0.10277542 0.56530005 -0.017763212 0.45404357
808 0.20366003 0.2690735 0.18787612 -0.12138 0.62649906 0.42635095 -0.06569596 -0.15763335 0.22474866 -0.3555486 -0.052488167 0.02076494 0.35239676 -0.117432326 0.13321623 0.23583788 -0.169576 -0.12744693 0.30695552 -0.07348655 -0.29018998 0.5167342 -0.38173366 -0.22652008 -0.047288075 0.25062826 -0.47743323 0.5247448 -0.16488734 0.122560434 -0.43952563 -0.5788067 0.36397648 -0.619557 0.08656843 0.14216892 0.01653403 0.14541341 0.35118452 0.109807774 -0.021833176 0.05166527 0.34945494 -0.16438268 -0.4187679 0.03016744 -0.032456927 0.22679345 0.33827105 -0.073939815 0.028577292 0.33878314 0.13530761 -0.060876716 0.104046255 0.1792615 0.44386777 -0.46859506 -0.53141177 -0.31270105 0.026660958 0.34573215 -0.29517564 -0.1967548 0.20393437 -0.09051366 -0.053968806 0.30436203 0.1893254 0.06565193 -0.09130951 -0.45687228 -0.20160411 0.30342764 0.00046751206 0.15075833 -0.11892822 0.19748114 -0.055646963 -0.35528174 0.20430365 -0.058354985 0.12874798 0.16304986 0.35626853 -0.14605981 0.09517377 -0.13668527 -0.23482388 0.13027793 0.54471874 0.3261831 0.0892929 0.18124606 0.22248279 -0.17456354 -0.21417488 0.15365997 -0.18637939 -0.26178223 -0.09203395 -0.20656879 0.072353385 -0.002676728 0.37783003 -0.39618608 -0.20551407 -0.45749566 -0.115873225 -0.0558053 0.014994527 0.3595408 0.04987073 -0.10269806 -0.08821723 -0.3950327 0.25582358 0.34259015 0.1888105 0.15553218 -0.17922506 -0.024854477 -0.37585726 0.24480097 0.118713595 0.312373 -0.050775796 0.30769703
428 -0.45401865 0.048697714 -0.050875545 0.4488496 0.2816463 0.0075247223 -0.09603539 -0.4695385 -0.06881001 -0.44850814 -0.26486638 0.0864877 0.51381 -0.3719866 -0.27036333 0.12992239 -0.020801466 0.18639836 0.29840034 0.487745 -0.13561006 0.10804278 -0.83516556 -0.029927941 -0.5615776 0.42155486 -0.51427424 0.18373123 -0.16468278 -0.07935907 -0.2767671 -0.26544303 0.08264599 0.027298564 -0.037438873 -0.039854743 0.4036602 0.17263758 0.8272139 0.21021731 0.5322338 0.23284708 -0.2606199 -0.19790174 -0.2634212 -0.19614564 0.29965436 0.5813814 0.23746175 -0.11343328 -0.57704836 -0.1150418 0.1851478 -0.09462844 0.4234318 0.37504777 0.6476867 0.07421091 0.0031204096 -0.109728545 0.042978812 0.5332175 -0.11993987 -0.429813 0.33490077 -0.61679417 -0.10822631 0.12759064 0.45791486 0.19031392 -0.2191266 -0.21332304 -0.22895478 0.13889155 -0.09991273 0.4436855 -0.3007121 0.44138986 -0.0048499634 -0.16761158 0.27419624 -0.08815182 -0.06912737 -0.032843646 -0.14685449 -0.3411715 -0.08712246 -0.20472392 -0.74000126 0.061131544 0.6976006 0.26176634 0.100027055 -0.026609074 0.08557845 -0.42064333 0.17916101 -0.06013882 0.34678084 -0.61388713 0.2487715 0.35353804 0.35119838 0.22256339 0.8169608 -0.21289554 -0.69571775 -0.21885404 -0.2982137 -0.14191878 0.51680356 -0.06832536 0.34589413 0.098489754 -0.6944041 -0.0081330575 0.1994188 0.62747496 0.38224196 0.23147021 -0.5372906 -0.18014635 -0.26340795 0.562852 0.20644435 0.43234533 -0.4270908 0.83546084
842 -0.04130683 0.23793748 0.2854383 0.16171414 0.286403 0.58423036 0.29138836 0.00643157 -0.14829174 0.054609023 -0.17412326 -0.1912554 0.1999315 -0.3216459 0.18997306 0.35569993 -0.26641083 0.02790284 0.29159358 0.3170579 -0.22252592 0.3138238 -0.2975393 -0.23522706 0.049815398 0.46931982 -0.37460622 0.35879162 -0.249987 0.06712716 -0.44456208 -0.42636654 0.2475305 -0.2055612 0.3758863 0.47038856 -0.2087041 0.49162194 0.5481793 0.20162603 0.059922803 0.1733691 0.29533166 -0.11197483 -0.34429806 0.26057392 0.15046418 0.19071224 -0.05622931 -0.26878834 -0.22929342 0.11720138 0.37358275 0.072664164 0.022126984 -0.017945549 0.31153762 -0.28885838 -0.36941892 -0.25057748 0.0092831645 0.4136777 -0.20203786 -0.11260638 0.26500615 -0.04094061 -0.021778468 0.33568242 0.09305155 0.017001875 -0.33784324 -0.21923372 -0.20019385 0.1595247 0.019171732 0.27325255 -0.29219332 0.28591815 0.051504023 -0.31320053 0.12143969 0.22893389 -0.019901449 -0.2467921 0.27976796 -0.4106261 0.14096159 -0.2871344 -0.56268 0.24202374 0.30489078 0.52153283 0.029890602 -0.035140403 0.054841243 -0.11496023 0.02512944 0.17633532 -0.06051581 -0.3106153 0.23060784 -0.01516668 0.1263062 -0.09755999 0.115004264 0.12720273 0.014818781 -0.48028016 -0.32100445 -0.23478805 0.57948315 0.26711494 -0.22918893 0.22917068 -0.14430057 -0.2333588 0.03522496 0.54047513 0.11826473 0.1977181 -0.12586355 -0.15416606 -0.24603827 0.346566 0.100382045 0.3338793 0.34712353 0.44940746
1279 -0.09875944 -0.0364505 -0.077875435 -0.16783112 0.3327691 0.5034121 -0.21648332 -0.06525941 -0.121032074 -0.12329679 -0.07376954 0.17177407 0.058636624 -0.11435886 0.38470277 0.25859264 -0.26492974 -0.01807838 -0.20862104 0.3703616 -0.4294169 0.22853829 -0.34418917 -0.36315262 -0.090908006 0.31339273 -0.43557367 0.2568764 0.12815492 0.051810186 -0.3480127 -0.3791772 0.22134386 -0.062920496 0.51321 0.5426432 -0.07048164 0.009955499 0.40028238 0.23756592 0.37168476 0.18347183 0.026310362 -0.30341056 -0.40840897 0.20726532 -0.08150088 0.20598803 -0.1100026 -0.01461022 -0.15001683 -0.09026154 0.29142842 -0.2299879 0.40792456 -0.012681502 0.1578845 -0.08177069 -0.21994828 0.017854344 0.013106099 -0.023775548 -0.45342323 -0.0671039 -0.23783833 -0.3933617 -0.12370151 0.48618215 -0.06833229 -0.3477509 -0.2070286 0.004770905 -0.27604762 0.30371624 -0.07683636 -0.001104287 -0.018706314 0.042195804 -0.11592395 -0.42456856 0.21717896 -0.09718085 0.576605 -0.3690979 0.31410417 -0.23391274 -0.18829353 -0.20984937 -0.3662718 -0.11947845 0.36882457 0.43834564 -0.359607 0.30372503 0.113487855 -0.076322414 0.12279327 0.25741848 -0.07412586 -0.19491231 0.17919591 -0.33254874 0.16787444 -0.033360146 0.6098902 -0.10282027 -0.3186865 -0.46631455 -0.25064158 -0.23145095 0.047233794 0.41792932 0.12335096 0.4166028 -0.02554136 -0.20327114 0.19671363 0.09794711 0.13224632 0.06762936 -0.3527455 -0.31651312 -0.52024 0.35131612 0.10171746 0.4073641 0.12926438 0.32962343
190 -0.53626704 0.06044524 -0.16624464 0.5262559 0.3345581 -0.049397595 -0.07342454 -0.6008251 -0.023688365 -0.50755084 -0.3632961 0.134524 0.5623976 -0.38318616 -0.16624783 0.06526705 -0.053685885 0.14031912 0.3531594 0.5761039 -0.12822166 0.19330963 -0.75279665 -0.0074638235 -0.6639624 0.41447937 -0.605463 0.26595187 -0.2728679 -0.08274537 -0.2697887 -0.30494198 0.115786664 -0.040227924 -0.065861836 -0.093585834 0.29820368 0.04157982 0.99936956 0.14450268 0.45988208 0.28244215 -0.26750907 -0.27839893 -0.30662534 -0.18292573 0.24328116 0.5960439 0.3302792 -0.15491423 -0.5806927 -0.056778707 0.22911039 -0.14322375 0.5210686 0.3471294 0.69941115 0.17336604 0.10597413 -0.07270012 0.16389348 0.5437881 -0.08086121 -0.5754757 0.30677125 -0.7074865 -0.12540652 0.15570857 0.55568147 0.2640507 -0.23835978 -0.22034247 -0.3008172 0.1241745 -0.03576684 0.41154262 -0.36938763 0.56502867 0.048721645 -0.19078816 0.20472457 -0.16800056 -0.15368564 0.10316079 -0.23010372 -0.32872584 -0.092437014 -0.2987518 -0.6976727 0.018781064 0.7569519 0.27158126 0.13772759 -0.032028127 0.049661744 -0.41124913 0.14371943 -0.13369146 0.4888005 -0.5971628 0.31314516 0.4437398 0.44418943 0.21862824 0.84790564 -0.2180296 -0.7095541 -0.20844325 -0.36411935 -0.0937552 0.42973882 -0.0075516393 0.38546458 0.037188895 -0.66032743 0.05458987 0.22434704 0.666079 0.4150471 0.31272313 -0.5277007 -0.2080333 -0.18686889 0.5597709 0.21542515 0.3757228 -0.47118476 0.9376423
556 -0.19299142 0.49560115 0.27324978 0.04957024 0.09787005 0.5180036 0.310456 0.021077393 -0.07257264 -0.016104883 -0.20553747 -0.2573914 0.18132567 -0.25037122 0.33565688 0.4057497 -0.3082917 -0.059603855 0.33672515 0.31895596 -0.40214157 0.20534638 -0.4004181 -0.28102538 0.053039096 0.44384548 -0.45739502 0.38468406 -0.31483915 0.022719262 -0.41455224 -0.44083598 0.14246008 -0.31698 0.482376 0.39084473 -0.106764816 0.44745353 0.40983105 0.4095911 0.11151549 0.22117828 0.30104062 -0.14423901 -0.36025605 0.25451365 0.14377639 0.2817886 0.005089389 -0.12955204 -0.31256253 0.24108297 0.33083802 0.025434988 0.015787018 -0.10044059 0.20432502 -0.19470504 -0.49336395 -0.27774048 -0.043767054 0.332699 -0.2334674 -0.09695585 0.26889223 -0.037419766 -0.06575314 0.2960205 0.03955128 0.038897105 -0.29186118 -0.26913497 -0.14832427 0.23788588 0.09401399 0.3260001 -0.097333804 0.22238225 0.02457655 -0.10870755 0.19226767 0.25720233 0.07638624 -0.25470042 0.32888362 -0.36957443 0.15817459 -0.14297464 -0.5405686 0.23774296 0.12733544 0.43251812 0.04488667 -0.05779287 0.15017045 -0.32518184 0.028758956 0.20898041 -0.106539965 -0.45700452 0.23548535 -0.066993296 0.14951555 -0.1961553 0.27152514 0.14948882 -0.14642543 -0.37326068 -0.25981998 -0.1837642 0.5950314 0.3366106 -0.08075361 0.18948378 -0.12208664 -0.16174473 0.10274133 0.5845823 0.2712136 0.3088484 -0.13071965 -0.083149225 -0.24292924 0.2913245 0.055172317 0.30526096 0.20634502 0.26132667
143 0.102738634 0.55024123 0.5037151 -0.11084731 0.25403163 0.46682066 0.24534519 -0.06518091 -8.564566e-05 -0.007834581 -0.029603226 -0.03258033 0.033627886 -0.025576891 0.2416086 0.10845672 0.0054867575 0.11397755 -0.10478715 0.23456867 -0.64631367 -0.06077381 -0.31546664 0.009371954 -0.19338551 0.40339994 -0.14167175 0.20373562 -0.37522352 0.3018516 -0.14113398 -0.57314074 0.06393247 0.048179436 0.4089427 -0.23345552 0.063547514 0.40512696 0.23903443 0.47104022 0.59912544 0.03372561 0.13273607 0.06676955 -0.25129572 0.32530665 0.43797833 0.39067462 -0.028756648 -0.08656797 -0.03538918 -0.04473729 -0.12594959 -0.1550761 0.26674417 -0.2018867 0.42730218 -0.18141966 -0.2831359 -0.271558 0.04888231 0.27860194 -0.22418654 -0.009672931 0.40722293 -0.18975599 0.023442756 0.17459126 -0.049425703 -0.025981408 -0.44882867 0.008214723 -0.1533653 0.27530012 -0.089306824 0.29129803 0.1535048 0.012448991 -0.18258308 -0.14513358 0.3065142 -0.12600143 0.54083204 0.036242068 0.34614643 -0.5947278 -0.17713623 -0.07571095 -0.669067 -0.12818466 0.31882057 -0.042999383 0.045321718 0.080395155 -0.024325706 0.115897164 -0.035404842 0.29170123 -0.16631413 -0.68010056 -0.113096416 -0.197767 0.05469365 -0.0074924896 0.42778867 -0.020127887 -0.7103584 -0.05995173 -0.08777515 0.18098795 0.26328176 -0.09961468 0.012149029 -0.03609742 -0.09802052 -0.1424766 0.196986 0.48830405 0.3406295 0.0077685574 -0.19486073 -0.34425768 -0.45486045 0.35578385 0.31921738 0.70488435 0.04467121 0.30942726
1740 -0.48525575 0.2692431 -0.04833943 0.228887 0.59735864 0.12293597 0.23082985 -0.31531063 0.015558168 -0.33396012 0.23081358 0.016517118 0.17993051 -0.21429716 0.1060241 0.2634962 -0.04309954 0.095215544 0.19047649 0.4386632 -0.3792895 -0.011960654 -0.2647984 -0.44813448 -0.31706512 0.17878431 -0.650356 0.47477943 -0.12074351 0.06911816 -0.21386115 -0.47128808 0.30353186 -0.36532912 0.4339819 -0.30654797 0.046892647 0.16414373 0.4435111 -0.13461706 0.10102896 0.20610863 0.10721413 -0.34657472 -0.58791083 0.116818726 0.32218555 0.55389947 0.04309497 -0.2608796 -0.011624651 0.31546935 -0.1674605 -0.23091017 0.24878077 0.24419372 0.5955522 -0.32924962 -0.7033375 -0.09168358 0.023690566 0.66696775 -0.3225563 -0.34070766 0.39107743 -0.05865688 0.030788263 0.28032935 0.45962423 -0.12070753 -0.1872461 0.2982033 0.066877976 0.31420964 0.141297 -0.0075030187 -0.49927852 0.17638047 -0.14850369 -0.24986218 0.32886246 -0.42427966 -0.16750678 -0.0772162 0.15798292 0.021057643 -0.08682245 -0.26167613 -0.2914757 -0.08127215 0.13893306 0.30627504 0.017432965 0.48852172 -0.37798905 0.09001064 0.13275348 0.12940618 0.058629487 -0.29892683 0.2504153 0.1311354 0.15178947 0.09109401 0.18887733 -0.33228686 -0.0038473273 0.28578344 -0.3168158 -0.043387223 0.30058458 -0.014575503 -0.08400889 -0.15293397 -0.33309782 -0.22256406 -0.16357143 0.4537003 0.24185106 -0.2577184 -0.4465438 -0.20953327 -0.21119276 0.5896424 0.29287672 0.6960946 -0.25034228 0.3585166
1112 -0.21732636 0.5449983 0.21303475 -0.1777305 0.629231 0.3405557 0.30734742 -0.26480138 -0.15106717 -0.28067815 -0.12192043 0.035260517 0.05825117 -0.2848083 0.61521924 0.09199341 -0.29992533 0.03195122 -0.090501614 0.18432678 -0.54262984 0.3179533 -0.282186 -0.20728827 -0.30536783 0.18271504 -0.26173744 0.43272987 -0.26760244 0.009693219 -0.22592285 -0.69216484 0.28455287 -0.29501718 0.10666471 0.06631023 -0.06776518 0.044317238 0.33682433 -0.050553136 0.36841184 -0.11391198 0.16676874 -0.36362287 -0.49303412 0.118192114 0.0059682652 0.30269742 0.019232344 -0.13117471 -0.07495799 -0.026958564 0.12594734 -0.5212252 0.49001616 -0.19068702 0.42374003 -0.18763517 -0.5383919 -0.33890948 0.34524617 0.3435811 -0.35532373 -0.4276133 0.07077205 0.16346471 -0.0012855125 0.19726224 0.42702067 -0.34002897 -0.38177496 0.0033192527 -0.24604237 0.22148973 0.11900174 0.19798775 -0.3895883 0.022760037 0.06899319 -0.24768825 -0.2683792 0.051889148 0.29584342 0.21332322 0.10983579 -0.49332252 0.040941454 -0.19416396 -0.3984297 0.06724866 -0.04414337 0.049132343 0.016754879 0.12156307 -0.13533671 0.19689871 0.106255054 0.19116786 -0.4707219 -0.20628414 0.08000304 -0.37825307 0.17906451 -0.21620932 0.34419662 -0.27255893 -0.30109677 -0.14819172 0.123054214 0.06714425 0.37719148 0.49606994 -0.077777304 -0.06811914 0.2053103 -0.2979451 -0.20247135 0.20175458 0.21646585 -0.12734671 -0.17845891 -0.25431708 -0.39404452 0.0782875 0.1791076 0.22965309 0.048249878 0.60481
1254 -0.059966683 0.58382016 0.3096389 0.034456737 0.34708518 0.34625518 -0.09635043 -0.26018417 0.015433482 -0.43702176 0.087237276 0.090543054 0.29681942 -0.07152024 0.08457415 0.22247435 -0.15489402 -0.02706119 0.019051265 0.24373002 -0.46426055 0.09636491 -0.2295296 -0.25116017 -0.13142507 0.607117 -0.3709971 0.6213123 -0.060554445 -0.05598192 -0.2106943 -0.39202958 -0.19342676 -0.048512347 0.37145606 -0.11165958 0.276974 0.44811445 0.3772044 0.36155796 0.16506141 -0.2677376 0.0599098 -0.27402604 -0.26412946 0.105111584 0.16751754 0.2261552 0.012719729 -0.015574954 -0.051043063 0.07874127 0.107048355 -0.22062734 0.22755843 0.39564383 0.24041705 -0.1548144 -0.53811806 -0.38745368 0.041821167 0.2508914 -0.40249994 -0.13860355 0.34187648 -0.35110223 0.09656599 0.2486899 0.25799507 -0.1045024 -0.51313007 -0.017380761 -0.04640311 0.23628186 -0.07709205 -0.08503074 -0.25562492 0.15604573 -0.14755718 -0.043606214 0.06519962 0.06728652 0.070868194 0.010607332 0.32443893 -0.16928194 -0.1492771 -0.29936576 -0.33924112 0.1911032 0.8014322 0.14797989 -0.054369077 0.5308214 -0.10719119 -0.010351602 0.22558892 0.12525004 -0.24712501 -0.8962629 0.04068109 -0.13324143 0.1600868 0.041395344 -0.044095114 -0.14570676 -0.11758273 -0.15305139 -0.012748857 -0.045018416 0.44943562 0.37138134 -0.06886713 0.30633938 -0.16436549 -0.042581953 -0.28468028 0.28257155 0.10960119 0.03572403 0.029681515 -0.07360919 -0.4338635 0.34416822 0.021656528 0.26603314 -0.28423375 0.26690534
1747 0.03064593 0.05403713 -0.085953906 -0.20947522 0.47127658 0.37943238 0.31073892 0.03271893 -0.15209147 -0.42783803 0.06311655 0.1748265 -0.09694137 -0.10557205 0.28948957 0.26137373 -0.29636908 -0.039945953 -0.028762782 -0.022226587 -0.40955538 -0.069849595 -0.118857875 0.06899604 -0.13295555 0.51791596 -0.13807638 0.8554311 -0.5203803 0.1207604 -0.2417661 -0.49325502 0.5524949 -0.25325042 0.1222992 -0.065832324 -0.19250597 -0.035815895 0.34976444 0.09449676 -0.015323353 -0.18474548 0.22838652 -0.13939609 -0.050086677 0.3936212 -0.10547463 0.48265097 0.4456668 0.04344436 0.1738441 0.1946921 0.16893287 -0.30402586 0.11118839 0.1748443 0.27806625 0.07197203 -0.10071574 -0.08623097 0.35354853 0.13138983 -0.7635217 0.21413796 0.3830878 -0.34844476 0.042938463 0.44065794 -0.010214142 0.0019698082 -0.259472 -0.19962636 -0.29096708 0.33255598 -0.030765407 0.5509595 -0.21800204 0.21095885 0.40942293 -0.18640067 0.23375747 -0.09329339 0.5194921 0.018996999 0.29657984 -0.11230308 -0.42177996 -0.11060443 -0.24255602 0.3602329 0.37197697 0.1495929 0.021243032 0.3812728 -0.1812827 -0.2581191 0.16157292 0.5208282 0.045109697 -0.8596094 0.06398818 -0.0770685 0.14254346 0.31382266 0.2521451 -0.4532567 -0.13492154 -0.5697154 0.15783286 0.38458982 0.13911743 0.5208716 0.11429067 0.33218434 0.1076678 -0.019866055 0.029437155 0.4158531 0.33116326 -0.09605812 -0.3773195 -0.1915278 -0.5598656 0.45927688 -0.22837476 0.41916236 0.18122971 0.65638626
7 -0.09303116 0.72050804 0.06717526 0.00605315 0.11998123 0.3820928 0.045199014 -0.11855439 -0.12961301 -0.089755625 -0.1013952 -0.07560672 0.08478769 0.08361729 -0.18099643 0.24689865 0.032484755 -0.004157611 -0.18276256 0.3115534 -0.37380162 0.39991996 -0.2581238 -0.06266734 -0.27278408 0.5858937 -0.33301187 0.34873033 0.048357077 -0.08514706 -0.31767341 -0.56274116 0.005507742 -0.30671856 0.5429334 -0.04258292 -0.02472708 0.18133815 0.4493376 0.43013686 0.34197536 0.3277416 0.19383965 -0.17915508 -0.40082732 0.22572355 0.37351465 0.18484537 0.20091866 0.08886118 -0.059605323 0.098190084 0.055956937 -0.20235093 0.4242885 -0.0060317568 0.28316346 -0.059040383 -0.50992113 -0.14827698 0.14227617 -0.04577347 -0.2078419 -0.043710805 0.22555637 -0.14809969 0.09695025 0.47063452 -0.012869051 -0.15887061 -0.26431018 -0.21686144 -0.17223561 0.38888675 -0.17882699 -0.063402206 -0.07350352 -0.099313386 -0.028502647 -0.020370489 0.31454888 2.1253072e-08 0.3749624 0.026439026 0.14951362 -0.42440492 0.026450593 -0.36618876 -0.516997 -0.091296844 0.40868735 0.32064956 -0.48230037 0.3500297 -0.12194349 0.09274183 -0.13084202 0.2481103 -0.22638546 -0.40427908 0.10817471 -0.27658948 0.13583316 -0.13700065 0.37199447 -0.39898032 -0.829622 -0.09182165 0.07569206 0.071887486 0.3584742 0.17751661 -0.13446541 0.16524996 0.0026086003 -0.08288854 -0.020095961 0.4197123 0.24913697 0.088548176 0.023431731 -0.11344439 -0.22515227 0.37749097 0.016860623 0.43458915 -0.09111783 0.093566194
1519 -0.50146693 0.5305695 0.31124955 0.10263491 0.41395196 0.22842136 0.26172036 -0.3860532 -0.26267618 -0.23002282 0.4815331 0.3098618 0.08166239 -0.24607347 0.03795109 0.03392989 -0.12545258 0.17061941 0.1898456 0.43051463 -0.4164708 0.25120142 -0.738624 0.014510805 -0.075466745 0.89292073 -0.2558528 0.59201515 -0.42015773 -0.01459244 -0.12272681 -0.54246354 0.59046507 0.060340732 0.42877638 0.28422502 0.36190307 -0.11509689 0.33162892 0.082001336 0.43703085 -0.014885168 -0.0334204 -0.021197949 -0.12315123 0.28932926 -0.02072876 0.44274926 0.62047935 -0.17084843 -0.03817399 -0.13233148 0.4893549 -0.23611382 0.5688511 0.14243361 0.22182986 -0.061632056 -0.060803592 -0.02922423 0.16856343 0.5565598 -0.39622012 0.01965743 -0.07200198 -0.2032035 -0.030185394 0.42420506 -0.035933826 0.15249647 -0.13719133 -0.061719466 0.16587397 -0.22698428 0.03864376 0.27066633 0.16119827 0.3773544 0.48027533 -0.2130776 -0.104232416 0.08975065 0.10625074 -0.12234991 0.39022818 -0.40571508 -0.251857 -0.1972528 -0.55412817 0.048583437 0.5233542 0.22316955 -0.29996768 0.100763045 -0.2955825 -0.39570415 0.42564687 0.08218037 0.0703999 -0.19485612 0.20846577 0.12363891 0.4729113 0.13883397 0.082220644 -0.043532163 -0.49948695 -0.3803834 0.019973064 0.5226848 0.5359985 0.31787658 0.30347452 0.1510902 -0.36540857 -0.25039214 -0.024875008 0.41748232 0.22203606 -0.25053158 -0.37804574 -0.1619812 -0.8094622 0.6618368 0.069984674 0.43476486 -0.4086207 0.36084652
175 -0.2385118 0.34639582 0.16197006 -0.13939242 0.55946803 0.27682853 0.07966611 -0.032472674 -0.0019429751 -0.39115494 0.04848012 -0.09236659 0.14655629 -0.30466545 0.50704217 0.16693564 -0.29700708 -0.13986732 0.050472926 0.045864757 -0.34981635 0.30553702 -0.19700481 -0.44958106 -0.37684038 0.24936827 -0.43340358 0.4955039 -0.23110378 -0.02274899 -0.33382076 -0.70429116 0.30754718 -0.5381286 0.15094106 -0.12815872 -0.27316532 -0.029465206 0.50683117 0.008003861 0.1317008 0.18602887 0.14557686 -0.47029537 -0.36457834 -0.07784392 0.080703504 0.34306678 -0.06209932 -0.08522432 -0.02049435 0.24119042 0.10341985 -0.22310024 0.44111446 -0.17386962 0.118875094 -0.13582063 -0.386795 -0.19969714 0.20176576 0.29915673 -0.28540757 -0.30193403 0.052566703 0.16001673 -0.05520003 0.1779461 0.42518592 -0.07719754 -0.28765765 -0.08232767 -0.30710152 0.52807325 0.13639739 0.12887856 -0.10869731 0.15440892 0.12788938 -0.46813986 0.17161508 -0.1207808 0.2698782 0.22402345 -0.02493032 -0.32809898 -0.050196093 -0.13837673 -0.38502535 0.15309039 0.07622987 0.07837901 0.16297872 -0.0009109224 -0.22745456 -0.07836696 0.0686546 0.20548241 -0.18524078 -0.530759 0.214843 -0.27194813 0.08820457 -0.041684717 0.6554993 -0.26786187 -0.17988804 -0.2533138 -0.1115578 0.1555492 -0.095358424 0.42778054 -0.02995417 0.048634734 -0.08269022 -0.32959467 0.046888266 0.36598414 0.43906844 0.0114226695 -0.22095765 -0.37500697 -0.32983136 0.14594558 0.33945245 0.37849405 0.17124684 0.72605383
494 0.0724327 0.11225 -0.014809646 -0.018891944 0.5201028 0.46613297 0.30559528 0.03739441 -0.03893152 -0.54389876 -0.035859864 0.3882692 0.114244565 -0.056510676 0.30230764 0.09824298 -0.41036198 -0.2804245 -0.16967316 -0.06931651 -0.20412499 0.25509205 -0.17477931 -0.16613676 -0.036951505 0.64845324 -0.2894264 0.5708444 -0.5092191 0.19535367 -0.1983131 -0.4452759 0.49030626 -0.20055728 0.11966467 0.10509299 -0.2660262 0.13290808 0.15237984 0.028580602 0.17187949 -0.008461924 0.061600298 -0.05431683 -0.18806422 0.13521619 -0.10526354 0.4502172 0.31125677 0.029104378 -0.11531339 0.56577355 0.41380733 -0.24470134 0.17385904 -0.089934856 0.4619675 0.11237533 -0.20851769 -0.11403907 0.24425422 0.07691823 -0.67779636 0.15697761 0.24944536 -0.2318115 -0.1513286 0.49626845 0.14034908 0.09924343 -0.20075308 -0.120785624 -0.15553576 0.09274175 0.05062208 0.4340583 -0.30223158 0.12383718 0.3254816 -0.13538258 0.1196151 -0.1892323 0.42725697 0.015452835 0.20070364 -0.15115836 0.028558519 -0.049936924 -0.2622905 0.29614982 0.40891606 0.23496418 0.22885332 0.2733182 -0.2111353 -0.44381124 0.24233918 0.33552235 -0.3086529 -0.61168414 0.18135166 0.044798173 0.077310644 0.056515437 0.262715 -0.26356345 -0.32619423 -0.60409117 0.107359014 0.2873381 0.19267398 0.36607522 0.2501336 0.08903141 0.18601073 -0.05427376 0.111085266 0.47170663 0.18000947 0.03702147 -0.37151515 -0.1292358 -0.42308444 0.42806926 0.090272576 0.33211112 0.06522302 0.2815947
1230 0.3238296 0.4825414 0.45250925 -0.06860795 0.2582065 0.3161011 -0.2095358 -0.25914234 -0.34743 -0.29955947 0.22324446 0.13958469 0.124148756 -0.14687364 0.5271629 0.27379555 -0.16068795 0.061282795 0.117252514 0.521338 -0.31188712 0.29030555 -0.44350234 -0.072976224 -0.13293114 0.62538 -0.52440435 0.41146243 -0.005109911 -0.02065602 -0.40945417 -0.3124836 0.02365042 -0.1612205 0.4123376 -0.07893553 0.031383544 0.35051426 0.7009967 0.08660312 0.15732484 0.14223658 0.10792818 -0.16594636 -0.17227855 -0.0042021857 0.038440824 0.1044523 -0.022975937 -0.38024735 -0.19597404 -0.16480146 0.084732346 -0.10698346 0.029960845 0.19478622 0.11166936 -0.101981655 -0.06290816 -0.20207009 0.2199873 0.056733962 -0.28660288 -0.3564077 0.11822343 -0.5483494 0.117433175 0.04809219 0.049558107 -0.13148116 -0.41256434 -0.22613096 -0.10059963 0.09736379 -0.18002996 -0.14073479 -0.13570797 -0.0019697254 -0.16297024 -0.25337777 0.11014813 -0.10259857 0.067105316 -0.22280936 0.33369464 -0.5269991 -0.3657949 -0.15594521 -0.4580987 0.24234311 0.56620055 0.27618584 -0.14807057 0.47093815 -0.13798596 0.054988336 0.2121075 0.29076418 -0.19757004 -0.8582455 0.19726628 -0.1907045 0.14321057 -0.048791274 0.2953799 -0.1409565 -0.05458258 -0.38024795 -0.444672 0.098368175 -0.0031213982 0.42477465 -0.22398318 0.39530936 -0.23616302 -0.16434565 0.09988695 0.5787987 0.021423763 -0.10132331 -0.0646821 -0.20626345 -0.2452285 0.2956816 -0.054346986 0.34756923 -0.08670527 0.67407686
473 -0.18084818 0.5085463 0.1777259 0.07853833 0.46445012 0.21704902 0.3228289 0.05353437 0.034021758 0.015776424 -0.042723805 0.15083829 0.36840743 -0.15405318 0.02387887 0.4164477 -0.23665792 -0.114832856 0.06856481 0.41834518 -0.4254632 0.11359691 -0.13564023 -0.1383877 -0.386671 0.31033644 -0.22292984 0.76273537 -0.09668519 0.1427863 0.00036281007 -0.6310601 0.10641949 -0.2772512 0.4801235 -0.05484768 0.14353693 0.17089517 0.58725 -0.0025320693 0.32031214 0.018433632 0.4621415 0.09243173 -0.2278585 0.19423492 -0.013038786 0.09064669 0.04688411 -0.051904663 -0.05852071 0.27447668 -0.089272715 -0.32162803 0.26407754 0.27585524 0.14703968 -0.19102333 -0.17580427 -0.24385677 0.09277677 0.3785804 -0.20010793 -0.17473152 0.07971915 -0.18711753 0.069590226 0.5168268 0.23671974 0.004176365 -0.24493529 -0.32414338 -0.28815225 0.33082184 0.08562641 0.26185557 -0.34903225 -0.109394886 0.05992986 -0.00017548598 0.21711493 -0.14238591 0.008053936 -0.042594638 0.24735913 -0.49272665 -0.062958 -0.37679672 -0.51770633 0.13053836 0.26064593 0.49179867 -0.1914601 0.31968105 -0.059136108 -0.16785918 0.014112489 0.21314953 0.026192747 -0.5677201 0.11056435 -0.035925157 -0.027547294 -0.28081885 0.41087142 -0.015448593 -0.07513017 -0.26471725 -0.087798946 -0.15947887 0.18769872 0.12919734 -0.11446952 0.13967192 0.02409018 -0.005226145 -0.030628812 0.5198559 0.23828784 0.13293171 -0.253019 -0.070818 -0.07451064 0.34914076 0.075779505 0.366816 -0.13638668 0.23454456
968 -0.012914243 0.37431484 0.13579646 -0.37514317 0.39768448 0.24320623 -0.19227274 0.11605484 0.03823535 -0.49293965 -0.09870382 0.004953138 0.06437155 -0.09103524 0.45806313 0.33537805 -0.3913008 0.17223945 0.17344329 0.025727438 -0.39525238 0.26318738 -0.37739316 -0.19689664 -0.18489693 0.15966065 -0.38375038 0.52469087 -0.10289932 -0.1425878 -0.24657334 -0.738329 0.24877024 -0.48970714 0.078558765 0.016870301 -0.19022714 0.16303398 0.46459928 -0.24179469 0.1456263 0.07604063 0.21337959 -0.26437387 -0.033062503 0.11691951 -0.32827526 0.35547236 0.3698636 -0.021318143 -0.0049581407 0.3022039 0.094805285 -0.3649982 0.2801478 0.03895672 0.4867486 -0.2352946 -0.3437014 -0.26823115 0.45562333 0.26341724 -0.31179157 -0.27790323 0.025354572 -0.19062357 -0.098377876 0.28097585 0.26073387 -0.14945523 -0.35995948 -0.3668394 -0.27072862 0.25352618 0.14966814 0.21315727 -0.2900176 0.031094799 0.06779845 -0.36691272 -0.094262116 -0.08776138 0.13300961 0.24379994 0.17704186 -0.36127424 -0.010057328 -0.24523577 -0.36703557 0.21463591 0.27572542 0.17693953 0.15203638 0.12870294 -0.080465324 0.03918276 -0.26258013 0.44296908 -0.16682497 -0.731928 0.15186828 -0.109708145 0.37839785 0.14895374 0.279101 -0.2797436 -0.24842359 -0.39676607 -0.16833164 0.054829147 -0.12689337 0.5729098 -0.2149312 0.18267353 -0.11657601 -0.48700607 0.12937123 0.40697515 0.40410325 0.0007230811 -0.071032874 -0.23331445 -0.30316305 0.12185183 0.0024430412 0.21625976 0.14012405 0.80151993
1405 0.0268437 0.19622946 -0.14617491 -0.086746804 0.46436244 0.48892686 0.3245458 0.017937757 -0.13421157 -0.5805599 0.06056772 0.37688982 -0.029765489 0.030458147 0.24231137 0.16386168 -0.4112534 -0.2543869 -0.15494533 -0.0132968435 -0.25674492 0.2287742 -0.1521441 -0.08460619 -0.016833825 0.57408744 -0.2002181 0.6847306 -0.46458212 0.094548725 -0.20518662 -0.44199792 0.51046336 -0.15266582 0.06878184 0.055045247 -0.2432591 0.05224509 0.26038796 0.04275045 0.09607581 -0.09135316 0.08567896 -0.15493706 -0.123404846 0.2355345 -0.15502071 0.5340721 0.42219788 0.11797371 0.06461036 0.48237407 0.37336016 -0.27375084 0.16028768 0.13582517 0.38591707 0.118116744 -0.14926745 -0.02770609 0.25531298 0.035017222 -0.7156145 0.28039375 0.2022971 -0.3259593 -0.04097113 0.4814619 0.18906812 -0.021770485 -0.23799658 -0.004129895 -0.19329302 0.17356373 -0.10366845 0.40509015 -0.30389592 0.118930906 0.3257308 -0.18128702 0.098915175 -0.22894837 0.53049284 -0.029607298 0.2936707 -0.10186629 -0.2667346 -0.06208384 -0.15761599 0.2947066 0.47032353 0.30701482 0.11970486 0.38712636 -0.31929192 -0.41651785 0.1859654 0.31381962 -0.17017084 -0.66202855 0.19251938 0.028011872 0.11490757 0.3818349 0.18800378 -0.30619964 -0.32865423 -0.4632382 0.13534437 0.36939308 0.13902082 0.4869914 0.17587787 0.22270034 0.15690991 -0.10109393 0.10529406 0.4850811 0.23596014 -0.0797937 -0.3862501 -0.14482349 -0.59683675 0.5578033 -0.12789087 0.43181407 0.07874661 0.55321443
1433 0.06726703 0.3261178 0.39962357 -0.23803464 0.55792 0.2327334 -0.24332334 -0.23971754 0.18953055 0.07517619 0.35439807 -0.09283924 0.010968564 -0.22380064 0.07566472 0.12159116 -0.17480278 -0.035899222 0.2801373 -0.27771354 -0.5179517 0.5101696 -0.35301402 0.24133082 -0.3588712 0.37653482 -0.17791712 0.5366985 -0.3749398 0.37568456 -0.41300437 -0.30967018 0.67338234 -0.18294363 -0.014119049 0.2291693 0.09670721 -0.039701033 0.32963297 0.58523166 0.17207949 -0.006696612 0.22457063 -0.057821456 -0.4898376 -0.02543728 0.1650646 0.31302324 0.6755449 -0.16933481 0.23109825 0.10826485 -0.0546378 0.11772598 0.056039307 0.19151905 0.115657695 -0.49058527 -0.56074876 -0.47385785 -0.1095485 0.4740737 -0.6544348 -0.031313322 0.24296391 -0.18051827 0.15632415 0.5053442 0.05416198 -0.058124594 -0.082201466 -0.44051003 -0.07108231 0.5595625 -0.30357212 0.42207402 -0.2552033 0.36200503 0.11358083 -0.44921675 0.24924614 0.2627412 0.33520228 0.10167603 0.22644475 -0.4998671 -0.14998616 0.15505897 -0.33227974 0.18942362 0.67619836 0.40145043 -0.047310643 0.09451201 0.11959688 -0.39580274 0.04784963 0.24574327 -0.10556226 -0.30729356 -0.004639071 -0.05587469 -0.09876862 -0.08229139 0.5272599 -0.22208543 -0.1317639 -0.41667548 -0.046850007 0.31467164 0.07577025 0.29656985 0.09209522 -0.0022598298 -0.25997818 -0.5227561 -0.017957166 0.4238722 0.09427523 -0.21546671 -0.3245315 -0.012820946 -0.5693096 0.48600593 0.102557965 0.46849403 -0.11299546 0.5910408
1394 -0.008787251 0.26302868 -0.10149224 -0.019831285 0.48731872 0.39588726 0.08772753 -0.13064095 -0.018270643 -0.024185615 -0.12780291 0.34443167 -0.14776994 -0.28178653 0.5042529 0.14639422 -0.15592292 -0.08343246 -0.28681076 0.39652872 -0.5323761 0.39580697 -0.33195627 -0.17208451 -0.2569026 0.17236058 -0.4556757 0.5313063 -0.3702448 0.3429837 -0.0020822685 -0.45638195 0.32786143 -0.27026936 0.33877462 0.15915947 -0.16452767 0.12407226 0.3986224 0.018077003 0.38273036 -0.08153256 0.06781736 -0.17388684 -0.6915081 0.06731552 -0.1979814 0.25702938 -0.036870662 0.101896845 0.024195896 0.07757247 0.14393944 -0.64117104 0.32323706 -0.17097045 0.45027003 -0.26830068 -0.5418193 -0.41911426 0.34128073 0.4633331 -0.37287223 -0.3792619 0.18058267 0.010744599 0.13659486 0.29947665 0.34888595 -0.10232906 -0.58036715 -0.0072213938 -0.076363534 0.049069107 0.30967686 0.19437976 -0.6495459 -0.03588732 -0.022160653 -0.36341116 -0.25428343 0.13967703 0.29986158 0.103114404 0.17528737 -0.4709679 0.078128435 -0.048651844 -0.55608267 -0.07199494 0.02438763 0.3034789 -0.17483038 0.0383021 -0.06381538 0.06410228 0.1298237 0.15308535 -0.24205674 -0.1434882 0.09050326 -0.1532011 0.10719773 -0.37070233 0.40970656 -0.30882767 -0.18306611 -0.32528198 -0.13501178 0.13566305 0.31880248 0.5375973 0.058193754 -0.21763553 0.16684118 -0.36302614 0.029596461 0.20804986 0.18176797 0.05501844 -0.32387957 -0.16188727 -0.3708348 0.1687757 0.03414524 0.1670668 0.0949404 0.2202832
174 -0.22202905 0.50694746 0.1585207 -0.33225298 0.6405675 0.7874604 -0.3309715 -0.40683493 -0.023334378 -0.07966188 -0.07316507 0.17680426 0.02083137 -0.12222263 0.41493922 -0.08111492 0.06781118 -0.10306889 0.112188146 0.33097956 -0.13635294 0.22021616 -0.112446 -0.06749951 -0.15578611 0.37689635 -0.4607975 0.3630802 -0.44091603 0.2824591 -0.20173194 -0.8080144 0.2046069 -0.458466 0.20676495 0.11856248 -0.19436982 -0.2506669 0.4398116 0.30928916 -0.10651249 0.41233426 -0.17119887 0.05557121 -0.67788047 0.09900996 -0.08102652 0.39754227 -0.086141676 0.19313902 -0.09036391 -0.18727574 0.076688945 0.100964285 0.34170473 -0.26524708 -0.035851363 -0.12491649 -0.38623294 -0.28009722 0.3380894 0.2868091 -0.26786435 -0.07998604 0.38608527 -0.41657174 0.4649057 0.37171522 -0.1674988 0.10984944 -0.42174268 0.008932576 -0.24578504 0.48598543 0.18887603 0.24225737 -0.2720206 0.21977091 -0.29784343 0.06635082 -0.02072114 -0.38966852 0.23344207 0.01646607 0.22122233 -0.4869821 -0.037839916 -0.34541813 -0.5833912 -0.19547705 0.85123247 0.45146468 -0.35002282 0.12666067 -0.19762002 0.10245602 -0.22036497 0.10564423 0.12019934 -0.50321114 0.102199346 0.07905702 0.41368875 -0.040949386 0.19406113 -0.24828878 -0.2554636 -0.25397667 -0.40453577 0.048212238 0.022319319 -0.18947804 0.26420632 -0.051611613 -0.23870578 -0.51697063 0.3329791 0.47786042 0.18176512 -0.15841798 0.017153734 -0.26127765 -0.18106419 0.39768377 0.08273867 0.23457463 0.0065252306 0.13206455
1189 0.090553105 0.3778949 0.0018026658 0.22679545 0.35076663 0.4779395 0.030569172 -0.0458079 0.0860714 -0.28127968 -0.18855204 0.11681816 -0.015710445 -0.30765364 -0.14088553 0.1895914 -0.111620456 -0.24021904 0.1107136 0.37527308 -0.42920163 0.27954295 -0.3347537 0.043052714 -0.3188368 0.28813836 -0.1890295 0.4462371 -0.30287904 0.15816984 -0.058433246 0.011380494 0.06554657 -0.20187567 0.4138807 -0.25345588 -0.39347136 0.29205415 0.7055699 0.23794015 0.090806544 0.17822997 0.43836606 0.055890054 -0.43477926 0.3257008 0.34717155 0.12774387 0.3188604 -0.23254752 0.1556123 0.16588677 0.3338341 -0.1673806 0.15817374 0.07904832 0.41482288 -0.09913417 -0.53880733 -0.058734074 0.21336746 0.43176916 -0.39385083 0.00022139165 0.19643298 -0.110635266 0.08341757 0.5938965 0.073512346 0.21059348 -0.37728095 -0.20359743 -0.2862583 0.019732177 0.08897118 0.058824092 -0.2142988 0.04214819 -0.15030181 0.122112304 0.30820265 -0.15943167 0.18957621 -0.1898172 -0.043486096 -0.6852588 -0.17294692 -0.4553784 -0.37765044 -0.13222054 0.09951473 0.3298269 -0.4437488 0.28184217 -0.016517837 0.02988947 0.0070125205 0.2144822 0.16164446 -0.41972244 0.39855745 0.03202414 0.033041343 -0.40021572 0.51704824 -0.45962638 -0.52028906 -0.37512007 -0.13399355 0.31422868 0.23317154 0.5700951 -0.12154052 -0.108599894 0.10754079 -0.3972745 0.16847648 0.53338665 0.14970624 0.19867024 -0.27983463 0.19188794 0.020844555 0.47964558 -0.07073785 0.5139642 0.21405348 0.66913694
1761 0.06010167 0.48778555 0.43165144 -0.37852997 0.8849855 0.53474677 0.080758095 -0.6194614 -0.40748572 -0.040204376 0.18981105 0.31570733 0.216577 -0.22426057 0.36746573 0.3332634 -0.50476664 0.0012188451 -0.13256145 0.44460756 -0.2608205 0.36258036 -0.72199756 0.5594008 -0.34352803 0.37523144 0.026504915 0.25897205 -0.10899915 0.32792848 -0.45230296 -0.026577964 -0.01869827 0.18802866 0.1857262 0.050747715 -0.2684832 -0.04382417 0.6503489 0.23292303 0.13244766 0.516396 0.41166973 0.11982272 -0.3556403 0.26166806 0.118804984 0.11425338 -0.28712317 -0.2582001 0.28278866 0.075160034 -0.015778063 -0.28699505 0.30671597 -0.060727116 0.3249992 -0.13774225 -0.44585106 -0.13680667 0.2887291 0.52833015 -0.10264081 -0.6685389 0.014296141 -0.44250715 0.016525302 0.18631892 0.19241199 0.13030468 -0.14576119 -0.011572356 0.20075333 0.06150224 -0.31475255 -0.02523228 -0.13849925 0.304031 -0.02793691 -0.13577135 0.096807875 -0.2155437 0.40690058 -0.013486345 0.26113835 -0.5967125 0.3508733 -0.2786673 -0.14937964 0.07377482 0.33414277 0.5959676 -0.44668248 0.09235584 -0.039174143 -0.022385938 0.15347561 0.06874373 -0.15398698 -0.75100183 0.23164068 -0.20460123 -0.04991478 -0.07113359 0.47906563 -0.17956159 -0.5528661 -0.17566857 -0.20955037 -0.16047439 0.27013487 -0.07603212 0.16823523 0.23722301 0.3554647 0.022622535 0.42442665 0.37733763 0.14737782 -0.04489159 -0.21138985 -0.003127685 -0.3680048 0.15105665 0.025754107 0.5087966 -0.40246478 0.75733495
1539 -0.23022597 0.3755051 0.2819125 0.13255826 0.3707054 0.1660367 0.23814455 -0.18977807 0.17706832 -0.10280361 0.35918263 0.3823453 0.34273705 -0.065283984 0.09161839 -0.07538498 -0.21336809 -0.15604432 0.02372717 0.4720198 -0.4735539 0.46475202 -0.46628028 -0.122472644 -0.027459841 0.53342545 -0.41608247 0.616204 -0.2924197 0.05349322 -0.027757647 -0.35677516 0.43550405 0.053619087 0.34278986 0.09335734 0.17877282 -0.057781745 0.6249639 -0.022532245 0.38594142 0.08823442 -0.0440181 0.04712789 -0.32138446 -0.01959487 -0.12674977 0.4513458 0.036817994 -0.15578204 0.039138637 0.08121587 0.5628535 -0.16402213 0.3863355 0.25376993 0.15619008 0.08506208 0.03156096 0.03399278 0.14724688 0.47119 -0.14516242 0.010652358 -0.07238121 -0.49770862 -0.007977155 0.27119952 0.03956083 0.11084589 -0.3599889 0.14982001 -0.036819506 -0.24749044 -0.17287116 0.13545951 -0.057838954 0.2422227 0.28559265 -0.2370713 -0.02337205 -0.17075174 0.14634478 0.017800145 0.23984213 -0.4399014 -0.30485603 -0.17266631 -0.4959342 0.19100639 0.63260245 0.14359565 -0.17374301 0.08776736 -0.2914039 -0.6298758 0.45519462 -0.19534642 -0.25485295 -0.3773929 0.21421212 0.01598216 0.30850112 0.18442357 0.3140017 0.06324731 -0.38142136 -0.4868162 -0.10765895 0.359496 0.34432694 0.19944996 0.34883207 0.124110125 -0.11843828 -0.07778357 0.1581817 0.6225054 0.08667766 -0.05860094 -0.29039145 0.029860971 -0.45075083 0.7781754 0.10220169 0.24779104 -0.09160979 0.46237466
619 -0.15646456 0.32450935 0.2509446 -0.0077909958 0.415129 0.33961588 0.2618464 -0.2668651 -0.2563501 -0.26331362 0.06583031 0.15862577 0.122241944 -0.28142485 -0.0923205 -0.095598534 -0.10624468 0.42072996 0.124569744 0.24650261 -0.32619908 0.37436152 -0.83663875 0.06461156 -0.45987383 0.6125343 -0.32939273 0.25241983 -0.29835618 -0.13126066 -0.21882674 -0.46611658 0.19512598 0.0067076893 0.49804968 -0.04419849 0.2296765 0.2643068 0.42265624 0.2237901 0.60277796 0.4086299 0.057289142 -0.04733376 -0.10667574 0.13685448 0.080384225 0.16421255 0.53767246 -0.24340989 -0.15642782 -0.09410891 0.028019454 -0.5453181 0.31692865 0.10002552 0.33221734 -0.22472668 -0.22733569 0.0015036081 0.42723045 0.16779406 -0.27064672 -0.10342714 0.13816302 -0.027602436 -0.09709432 0.42782563 -0.078578174 -0.15133454 -0.19259132 -0.28861547 -0.16882673 -0.16306938 -0.018790865 0.17462118 0.25622255 0.07693431 -0.027899522 -0.11205934 0.046827935 0.05466158 0.06475904 -0.0067512826 0.17788249 -0.52277154 -0.18878473 -0.22662376 -0.7655299 0.09119771 0.23242314 0.29319638 -0.4510958 0.0701829 -0.02682106 -0.037917405 0.12947474 0.21614572 -0.001053311 -0.2705054 -0.051470574 0.08445307 0.5021683 -0.24901679 0.37353995 -0.41516984 -0.54342586 -0.48510137 -0.084651306 0.30756408 0.49343792 0.33448997 -0.09008058 -0.025935205 -0.35023272 -0.262227 -0.09418675 0.49391595 0.119504154 -0.0070780325 -0.37630466 -0.18894774 -0.3966945 0.46131328 -0.18139562 0.37955666 -0.011156614 0.5579748
707 -0.09237634 0.47257918 0.445708 0.31095624 0.30354604 0.65128905 0.44326732 0.13873124 -0.108155236 -0.025798758 -0.2810117 0.01983992 0.20541488 -0.57061 0.31950906 0.35711104 -0.14347184 -0.053289026 0.1494426 0.22437367 -0.44519 0.083904766 -0.21273738 -0.035614792 0.13315022 0.495579 -0.27826804 0.2513269 -0.2692167 0.0029924707 -0.20966846 -0.45354056 0.22632615 -0.30556595 0.34465602 0.25158527 -0.17990233 0.6219703 0.24874286 0.43957603 0.17886494 0.18516302 0.4280662 -0.13809213 -0.38260326 0.23207211 0.2888568 0.36314029 0.2967528 -0.22726011 -0.29410833 0.347655 0.33771315 -0.0030176765 0.25557673 -0.18030894 0.4121896 -0.22038676 -0.46670696 -0.10508469 -0.092122 0.15597694 -0.47952676 -0.07541732 0.3363255 0.013362217 -0.12691833 0.36676103 -0.12002263 0.16440079 -0.22860146 -0.24509235 -0.29678515 0.10629305 0.04250866 0.3377897 -0.004670329 0.2819856 0.038969666 0.12356147 0.33884743 -0.013594171 0.123925194 -0.22538842 0.41159627 -0.54042757 0.07187288 -0.23376112 -0.56707656 0.0023419969 0.20591013 0.096111484 -0.19399115 0.085088715 0.1663187 -0.21437943 0.13640378 0.14611845 -0.14308119 -0.38085303 0.26909697 -0.3659102 0.06592604 -0.28198865 0.40370187 -0.099108934 -0.2689295 -0.5182831 -0.26619217 -0.07937205 0.5352041 0.24314494 -0.25851607 0.32680422 -0.00940144 -0.12052975 0.18477054 0.68382037 0.30685416 0.07858131 -0.23651661 -0.2740176 -0.40384147 0.3305596 0.3285947 0.39056215 0.4116105 0.40681365
1547 -0.11304535 0.22706428 0.35757953 -0.20733078 0.44980735 0.2749365 0.05922341 -0.14805654 0.008916239 -0.14984635 -0.036819037 0.0697963 0.11012021 -0.24632199 0.3053884 0.016466988 -0.22154368 -0.22396515 -0.04168791 0.08053777 -0.21118788 0.2732675 0.06714468 -0.31393042 -0.24922508 0.1255414 -0.29235435 0.19401169 -0.120636255 0.10897695 -0.25795838 -0.36110544 0.37153408 -0.29407716 0.17622821 0.022446128 -0.059299935 0.042757 0.22993697 0.25162143 0.19366257 0.27517512 0.28564456 -0.15996437 -0.4387595 -0.14882402 -0.04576467 0.48780668 0.040569074 -0.05799008 -0.18793374 0.14360467 0.1100816 -0.2620009 0.042791832 0.24882571 0.16901554 -0.09880571 -0.24150045 -0.03726086 0.12931132 0.16953447 -0.32992458 -0.17403537 0.18488054 -0.40380108 0.05776701 0.32714313 0.19819897 -0.013510837 -0.041061997 -0.31135786 -0.21288684 0.07011326 -0.065911755 0.26435032 -0.26940504 -0.041529443 0.036238424 -0.09595257 0.2603245 -0.31852993 0.20347384 -0.121582545 0.37707406 -0.3201174 -0.12662017 -0.074434906 -0.4086535 0.13836439 0.23890945 0.35939372 -0.18154931 0.25229606 -0.072911404 -0.07219099 0.04706566 0.281212 -0.25887254 -0.380512 0.11225984 -0.054960527 0.035488278 -0.22835572 0.42277613 -0.4208789 0.000507434 -0.31973884 -0.13262416 -0.1399928 0.12734221 0.18000998 0.05181482 0.20104589 -0.31099603 -0.044790637 0.07622508 0.51917034 0.16843793 -0.064961955 -0.53364635 -0.16981365 -0.24269252 0.39310467 0.19077684 0.4608608 -0.04895577 0.55263495
446 0.008416683 0.3132063 0.2550094 -0.18104649 0.4853786 0.72315764 0.03468676 -0.46734646 -0.31034133 -0.5085848 -0.26606452 0.052284878 0.0071817874 -0.17737727 0.25381935 0.38780183 -0.07584851 0.11058918 -0.124544814 0.25841475 -0.2074396 0.21846429 -0.6025542 -0.16492914 -0.08409628 0.4814636 -0.49399748 0.18094458 -0.18969123 0.2208724 -0.39016393 -0.6095337 0.027541121 -0.45241743 0.3835667 0.08763179 0.033180576 0.2679993 0.57952166 0.15673858 0.060381036 0.46721765 -0.1864733 0.051052842 -0.30722737 0.09331071 -0.029805742 0.34528697 0.28797314 -0.092417 -0.34249797 -0.06281706 -0.09240327 -0.342691 0.37085512 0.0692472 0.12220174 -0.30089545 -0.40064266 -0.27770755 0.43764848 0.30480212 -0.5449056 -0.3145744 0.4232591 -0.50451255 0.13186206 0.41757387 -0.17075776 -0.22034813 -0.12960178 0.015086655 -0.22446042 0.15268624 -0.039647266 0.12906456 -0.31993297 -0.23706572 -0.22438827 0.17926846 0.034119833 -0.27332893 0.0652885 -0.098265685 0.21856335 -0.6359018 0.031803235 -0.23750482 -0.5858569 0.14765152 0.39618954 0.51230794 -0.31273177 0.030298721 -0.27504888 0.06305462 -0.073657416 0.110972054 0.080438055 -0.75297755 0.2789828 0.056319434 0.35505915 -0.16696331 0.22418885 -0.31381407 -0.07852028 -0.35971084 -0.33849636 0.13732103 -0.11244668 0.1827592 -0.022583308 -0.0048538176 -0.29998562 -0.31022173 0.13586503 0.50265574 0.0005974577 -0.24364212 -0.057739124 -0.24591117 -0.22365654 0.44073316 0.072602585 0.19725905 0.12730183 0.2932712
210 -0.15163755 0.4659966 0.18835106 0.022889344 0.18796995 0.85844505 0.05112934 -0.2723956 0.08858411 -0.3398639 -0.26749822 0.02940585 0.13332921 0.14364238 0.43566874 0.2547024 -0.16638337 -0.42270005 -0.24923249 -0.24030419 -0.41349927 0.6036188 -0.40987113 -0.3958572 -0.21368627 0.23722228 -0.1309299 0.31364492 -0.011246154 0.2341769 -0.22549462 -0.5102689 0.18866175 -0.20177923 0.57392824 0.54769003 0.20710026 -0.016042396 0.23964523 0.2640527 0.3981115 0.44468117 0.26192018 -0.14596097 -0.40298027 -0.012175063 0.08002324 0.34518465 0.5637946 0.51520413 -0.022902 0.18201594 0.21004783 -0.02653843 0.40927455 -0.21994261 0.22451943 -0.07174546 -0.25182548 -0.060912598 0.15134294 0.34988382 -0.2715816 -0.07905659 0.24611497 -0.3639331 -0.1131665 0.49512726 0.07590103 -0.06763426 -0.07338809 -0.3668957 0.14505716 0.10500416 -0.19753453 0.27133623 -0.3176822 -0.092389636 0.2055498 -0.25579065 0.30020186 -0.1460318 0.4330792 -0.2965889 0.5282488 -0.42879084 0.0841447 0.044201113 -0.5363733 0.22090128 0.32363945 0.06311891 -0.05372691 -0.11415384 0.06538897 0.060573418 -0.11238115 0.21617635 -0.013073529 -0.54213893 0.32945952 0.14257488 0.17453434 -0.22510676 0.3185039 -0.16583994 -0.32920277 -0.27976614 -0.037529908 -0.21521464 0.05667159 0.25972232 0.0554847 0.21579733 -0.5409182 -0.18470037 0.21313788 0.38477528 0.50401914 0.18362434 -0.39340284 -0.2772907 -0.42475387 0.29828063 0.40157932 0.79765 -0.20253581 0.3532748
1337 0.25041875 0.5421485 0.072382234 -0.009779497 0.58290714 0.56080544 0.3285694 -0.22263747 0.082150735 0.14676467 -0.13975455 0.3547364 0.080398634 0.0039284695 0.55718744 -0.027067726 0.016885834 -0.029548869 -0.3723649 0.42811358 -0.3726928 0.77217394 0.04390677 0.31947237 -0.070161924 0.3363647 -0.28673476 0.69061255 -0.41433284 0.23583226 -0.17562091 -0.5170415 0.31496128 -0.15993385 0.36604178 0.23665872 -0.22626057 -0.06273937 0.34993085 -0.026017934 0.1151044 0.05007608 0.36674187 -0.08636703 -0.6394234 0.37112102 0.0026693589 0.14770459 -0.10811706 0.07278803 0.18461573 0.11070919 0.1357786 -0.09151701 0.39263695 -0.1595545 0.1505004 -0.13157351 -0.14012693 -0.2879079 0.69668907 0.26384297 -0.10117691 -0.16831706 0.24446285 -0.21477275 0.2918976 0.17849196 0.07045311 0.031172825 -0.5395025 -0.10209263 -0.13650082 0.25496334 -0.043375146 -0.013074354 -0.44271925 0.21339615 0.18984568 -0.17607206 -0.085695304 0.059210613 0.3738368 -0.11564593 0.11825964 -0.19585335 -0.079040244 -0.20026067 -0.43784148 -0.03178426 0.5696836 0.25991207 -0.34589538 0.5410888 -0.01571293 0.19559531 0.13574989 0.10184077 -0.107260674 -0.45814052 -0.23743296 -0.30097684 0.30185217 -0.22756937 0.30705366 -0.41143823 -0.42301056 -0.34809616 -0.09105493 0.05200269 0.3554107 0.27108416 0.14723329 0.18529108 0.2935932 -0.041416157 0.17718 0.1683415 0.22961701 -0.006395799 -0.18429947 -0.0721621 -0.5979667 0.20765013 -0.3146745 0.40352893 -0.22438931 0.012900645
1180 -0.10065507 0.38980684 0.27263194 -0.0028135981 0.40424427 0.50136656 0.27019238 -0.27475494 -0.3668146 -0.26192054 0.12175833 0.015399563 0.15306045 -0.2137329 -0.14419508 -0.019264841 -0.06432441 0.44575715 0.007505345 0.20775859 -0.29341415 0.36028585 -0.6845472 -0.08765576 -0.51857835 0.5957416 -0.29864147 0.3434864 -0.22629236 -0.07254322 -0.21254608 -0.43975508 0.12741372 0.007370178 0.34518692 -0.0875282 0.27846715 0.23701453 0.48344636 0.14623098 0.61940455 0.35244972 0.101041466 -0.051643282 -0.026874475 0.13987938 0.010311898 0.20077676 0.5354349 -0.28639162 -0.29641145 -0.09661453 -0.030890714 -0.3917848 0.2643383 0.07231645 0.24931501 -0.31455076 -0.07151949 0.0038549074 0.5325425 0.06480211 -0.31561044 -0.12627225 0.2522395 -0.12775749 -0.13679391 0.35143992 -0.010712471 -0.16857521 -0.2515414 -0.2587912 -0.22464436 0.050591562 -0.100282796 0.15358336 0.1652434 -0.059553083 0.020717952 -0.12078346 0.14321257 0.043216914 0.0015978722 -0.016782587 0.11314707 -0.5278562 -0.13395168 -0.17283598 -0.76015615 0.12115039 0.35598457 0.2066838 -0.32994565 -0.0400407 -0.169921 -0.078495234 0.13705403 0.3083608 0.0755372 -0.4236977 -0.098755576 0.064522654 0.41082832 -0.24282493 0.38474482 -0.38309115 -0.5253181 -0.32427743 -0.042440694 0.138728 0.3573182 0.2909974 -0.112047456 0.12377606 -0.47756487 -0.17092441 -0.15150477 0.3685176 0.16532248 -0.028757162 -0.27918428 -0.26130876 -0.44205087 0.34366962 -0.18785761 0.3660343 -0.13832195 0.4210757
311 -0.051772736 0.12583442 0.1690486 -0.07089046 0.37283084 0.18167718 0.19711894 -0.24591745 -0.028041998 -0.026697151 0.11740323 -0.161216 -0.21210022 0.032271616 -0.15368257 0.0329911 -0.2593595 -0.29956836 -0.18664654 0.28561437 -0.41403514 0.029207041 -0.5569553 -0.06485511 -0.23168719 0.32914 -0.32781562 0.8183794 -0.20337431 0.6100564 -0.24337225 -0.34494832 -0.007952805 -0.17509557 0.07919383 -0.07759232 -0.21039388 0.3256131 0.68837816 0.20095481 -0.08573143 -0.061390165 0.16459444 -0.088191435 -0.11334004 0.18699281 0.3428838 0.14918527 -0.35044143 -0.05056529 0.30810767 -0.021698702 0.27960363 -0.18041216 0.20744605 -0.1683401 0.10342776 0.10480435 -0.009243778 -0.42901608 0.2739048 0.5615232 -0.054420535 -0.5086925 0.43150234 -0.33116847 0.18100819 0.079822965 0.19380678 0.27836314 -0.41044512 -0.4083207 -0.19058053 0.073782414 -0.093970604 0.32924485 -0.25855768 0.33666787 -0.16799161 -0.39058864 0.2158512 -0.21081184 0.49534634 0.16284668 0.57654065 -0.6629016 0.16412272 -0.54936814 -0.5375982 0.13214149 0.12281188 0.08920787 -0.32878664 -0.08622981 0.2517794 0.16702826 -0.08919231 0.36041307 0.39163455 -0.63830596 0.04648035 0.11734018 -0.09824537 0.13119863 0.33508775 -0.2166383 -0.23624332 -0.20345503 -0.1897936 0.035432074 0.24860404 0.16573493 -0.055438578 0.18702215 -0.0008433579 -0.03076762 0.40296122 0.28115445 -0.010216965 0.1959665 -0.12955196 -0.58014077 -0.1997208 0.3340716 0.38183406 0.43216848 0.04293205 0.8126451
1117 0.0030820582 0.54064864 0.3784637 -0.049606424 0.7460821 0.501364 0.45243567 -0.31929126 -0.18057016 -0.16703857 0.0201207 0.06123476 0.40275708 -0.14711823 0.024317905 0.26999566 -0.41123277 0.079382055 -0.038005866 0.23944312 -0.18552028 0.2861772 -0.51956236 0.033846788 -0.14817859 0.33279163 -0.22936995 0.26828146 0.04171661 0.17106241 -0.38557184 -0.28771672 -0.109530166 0.024405446 0.041729834 0.017915187 -0.03818054 0.10116809 0.5519238 0.1873376 0.017155584 0.4034941 0.25139728 0.036613654 -0.22212666 0.18498637 0.038172774 0.25478968 -0.18608323 -0.105701916 0.12186146 0.16882502 -0.16767403 -0.23136473 0.072290435 0.06635204 0.30856964 -0.22407088 -0.49108997 -0.1833035 0.30255932 0.11365304 -0.23307851 -0.40379232 0.08376713 -0.30795008 -0.005508224 0.09463976 0.15222523 -0.18608503 -0.23622645 -0.098935865 -0.18101043 0.28103465 -0.25568438 0.0080454415 -0.051701676 0.25032035 -0.101851486 -0.23581436 0.17185304 -0.18928841 0.27629656 0.17409146 0.22122201 -0.2778376 0.26946765 -0.44013453 -0.11853407 0.35200974 0.3941733 0.18322197 -0.33637372 0.44624898 -0.30874497 -0.121431 0.21920866 0.045016576 -0.29167852 -0.74059135 -0.15980284 -0.32726017 0.13701068 -0.007250702 0.33880872 -0.27560994 -0.37239388 -0.1580243 0.047073804 -0.3430688 0.36335954 0.054688107 -0.07957762 0.3887346 0.04618994 -0.05651861 0.08552073 0.27900988 0.25046957 0.15181503 -0.08278652 0.03715764 -0.27958304 0.2108372 -0.03873238 0.44911492 -0.15818083 0.3540362
1512 -0.5623036 0.6199994 0.4097321 0.007992409 0.47574037 0.31908184 0.31194758 -0.4844782 -0.2885857 -0.26137945 0.53546625 0.2616162 0.12287378 -0.328633 0.0058922097 0.072960325 -0.10136427 0.19852063 0.2893192 0.47848576 -0.48269245 0.089593895 -0.7241928 -0.04796188 -0.12951621 0.86741805 -0.22233012 0.60312366 -0.47219786 -0.031674724 -0.23373803 -0.50888693 0.57622015 0.031845722 0.3961755 0.28166005 0.36966625 -0.15189014 0.2596034 0.1656964 0.3040825 -0.060575187 -0.048665907 -0.107015975 -0.17304711 0.29708076 0.015715182 0.3958127 0.5691726 -0.21237206 -0.033202652 -0.20962246 0.55618846 -0.18790448 0.5909629 0.22407779 0.28857315 -0.17360032 -0.19568682 -0.10707658 0.047373556 0.51490015 -0.54852986 0.016903523 -0.024475677 -0.088218525 0.07262165 0.49719608 -0.009564132 0.08128791 -0.18545713 0.034248166 0.15918314 -0.06714608 0.050918676 0.34728423 0.14910583 0.4044596 0.4156078 -0.25989285 0.001746911 0.13619024 0.065440424 -0.023086 0.4697457 -0.2838505 -0.27730107 -0.25511944 -0.5026162 0.06815485 0.51342666 0.17524475 -0.31195214 0.16320018 -0.3308582 -0.3301808 0.42027438 -0.0021815365 0.104419276 -0.19807379 0.1708813 0.07126364 0.4358271 0.19696146 0.024472874 -0.12962806 -0.3854534 -0.34039682 0.011968649 0.6090426 0.5832493 0.40256232 0.33063924 0.110190876 -0.22907461 -0.22693719 -0.12432913 0.37601554 0.18274677 -0.22207135 -0.4032598 -0.25945237 -0.8809241 0.6944568 0.065990105 0.4644605 -0.4386599 0.41609356
142 0.060662363 0.46165323 0.08574953 -0.2260714 0.49757877 0.2998275 0.30117327 -0.36417872 -0.10746323 -0.4260301 -0.16238545 -0.023031294 0.046039637 0.10510476 0.056707334 0.090654396 -0.07529328 -0.16803354 -0.1360378 -0.00069053343 -0.32557133 0.48472515 -0.16401264 -0.37670627 -0.364764 0.42116916 -0.20100798 -0.07890044 0.04923714 -0.27349877 -0.37331703 -0.5107124 0.04098393 -0.24593535 0.1841729 0.14669226 0.14426844 -0.17658539 0.23985687 0.64219844 0.50667423 0.18932877 0.36260518 -0.13065448 -0.5769014 -0.08434868 0.25165927 0.300855 0.12597331 0.027906058 -0.15025906 0.23130614 0.37803474 -0.09595951 0.513357 0.025077594 0.18469055 -0.078270085 -0.3762183 -0.25471625 0.2098591 -0.084507756 -0.23077288 0.08758461 -0.24778895 -0.098485775 0.22237158 0.55442065 0.37265334 -0.35192728 0.10725271 -0.1231639 -0.3827415 0.35629955 -0.10151393 0.34523684 0.08189197 -0.08965993 -0.20901631 -0.02304521 0.35060865 -0.0810855 0.45789522 0.043872792 0.44942388 -0.47287095 -0.028692594 -0.16352 -0.36396927 0.11177728 0.65878904 0.28639618 -0.13436776 0.3427368 0.014288441 -0.14631096 -0.11713868 0.33827168 -0.31384414 -0.33683926 -0.031503305 -0.22298992 -0.013463816 -0.072339036 0.66749865 -0.31181672 -0.7016569 0.010451864 -0.25291935 0.23826894 0.015042668 0.2516452 0.25319433 0.29996702 0.13304149 -0.22411019 0.032314852 0.57751244 -0.05478302 0.02903211 -0.2841112 -0.39971757 -0.301791 0.4425129 0.33012688 0.52148205 -0.03124687 0.18535239
1685 -0.1764642 0.36251807 0.11691322 -0.029336138 0.33988184 0.40250278 0.34324712 -0.17193338 -0.15880334 -0.12320795 -0.24997337 0.34712863 -0.005013112 -0.40390968 0.20925318 -0.12184541 -0.24571265 -0.101623334 0.037832648 0.287859 -0.46736574 0.34871486 -0.40578422 -0.11438622 -0.321442 0.24680457 -0.21817504 0.35132134 -0.29840326 0.4368178 -0.15179947 -0.39029214 -0.014732546 -0.3658835 0.46130785 -0.15033926 -0.0015234987 0.02956689 -0.055918567 0.5471956 0.44216982 0.36547107 -0.045128603 0.104478 -0.4003991 0.075745404 -0.06134252 0.17591654 0.21309106 0.29567605 0.10882782 -0.055428017 -0.072902404 -0.6796565 0.21014716 -0.011916386 0.33051616 -0.15343603 -0.6835227 -0.3430639 0.28160807 0.23144591 -0.26791915 -0.17875662 0.21599865 -0.07080428 0.34167415 0.21150154 0.14190814 -0.067209914 -0.34301013 -0.23143815 -0.19116369 -0.071905695 0.10914921 0.2620428 -0.18049215 0.10877311 -0.13859224 -0.25165844 -0.20795313 0.1952328 0.16473264 0.2847017 0.28644472 -0.39720234 -0.119724326 0.11557056 -0.5799071 0.010341392 0.051776126 0.19271101 -0.43124852 0.30047676 -0.100158416 -0.031473015 0.21711549 0.19311193 -0.23417546 -0.3569821 -0.03792882 0.05542949 0.15627006 -0.5195722 0.49714476 -0.38447315 -0.23856974 -0.40584913 -0.029624624 0.24101391 0.30894393 0.48562232 -0.03236366 -0.06031201 0.06181691 -0.20006874 0.036861867 0.67783046 0.2803988 0.062708326 -0.3001307 -0.15453061 -0.24286 0.3187661 -0.050806694 0.23134881 0.092240766 0.4648878
1435 -0.25011516 0.4878039 0.38635015 -0.15078154 0.5082413 0.28290895 0.16386719 -0.35945424 0.11205546 -0.26961344 -0.13706806 0.04242844 0.27366522 -0.17924625 0.46968976 -0.058610674 -0.26052675 -0.017578283 -0.052843325 0.1583091 -0.47987777 0.28344685 -0.32544002 -0.20422035 -0.46602613 0.19862351 -0.3600213 0.008531015 -0.20330933 -0.03489044 -0.3689025 -0.8447648 0.16769394 -0.10005601 0.21678688 0.06074885 0.06383397 0.05853769 0.5446986 0.19261472 0.40355584 0.030953174 0.114748664 -0.44736004 -0.35528788 0.13899082 -0.14460793 0.1763414 0.051410954 -0.16324805 -0.16753455 0.118664585 0.16629428 -0.583638 0.539059 -0.08221753 0.34234715 -0.15482372 -0.07036866 -0.4010432 0.41000602 -0.017054886 -0.45673943 -0.5611375 0.008687077 0.03246248 -0.05434846 0.39137998 0.4328841 -0.25017074 -0.3714147 -0.41968158 -0.49519196 0.22600819 0.25240308 0.27422848 -0.1871079 0.1425265 0.069819465 -0.3605984 -0.06877899 -0.0878626 0.22133833 0.46099213 0.1627695 -0.4527862 0.12053091 -0.44427502 -0.45036706 0.117735215 0.026732514 0.15743132 -0.10182419 0.101840734 -0.121059045 0.18925904 -0.07593655 0.16917004 -0.20488341 -0.3068089 -0.019569714 -0.25553516 0.29076198 -0.23101926 0.35687506 -0.1883806 -0.17933738 -0.3663803 0.10616036 -0.023169022 0.18456398 0.41712087 -0.040795896 -0.077329844 0.046622775 -0.23037381 -0.28499222 0.37597308 0.14221437 0.16233434 -0.40181056 -0.4511911 -0.40973446 0.04854567 0.33428547 0.29600736 0.020970503 0.50260264
41 0.021582225 0.43307814 -0.01832624 0.11809781 0.4032441 0.37351325 0.067253135 -0.11731543 0.121164866 -0.43411434 -0.12403141 0.31929404 0.358163 -0.12953691 0.07693799 0.19430278 -0.12703978 -0.19634221 -0.029483266 0.34506768 -0.5592396 0.15677653 -0.4240476 -0.24675837 -0.062386353 0.6355391 -0.2596208 0.60704434 -0.12360854 0.015339165 -0.100564554 -0.4602435 -0.30951658 0.13805008 0.58206964 -0.06517912 0.27658755 0.3362406 0.827776 0.2960243 0.31968772 -0.31577244 0.0019119764 -0.05607152 -0.31192127 0.15246288 0.21284711 0.12081511 0.15839888 0.015355651 0.0040318887 0.27426624 -0.055816647 -0.16463609 0.058275983 0.5274728 0.1103545 0.027663898 -0.38386902 -0.22128548 -0.16810577 0.11355295 -0.13328886 -0.13061723 0.28150705 -0.4436999 -0.049784854 0.36345232 0.2853792 0.056883503 -0.51766044 0.15059075 -0.2715191 0.032312796 -0.1192672 -0.09491206 -0.14244166 0.46277243 -0.19921087 0.0077382647 0.3243913 0.061962422 0.01167305 0.124103315 0.34610775 -0.29897565 -0.21365115 -0.3164309 -0.31361714 0.23573935 0.6522399 0.07372783 0.07310347 0.32474494 -0.20047592 -0.28531724 0.22914594 -0.20274353 -0.15735887 -0.6998301 0.1795705 -0.20344521 0.0029776907 0.22492017 0.27704817 -0.1384023 -0.24576555 -0.1781028 0.064858355 0.07067168 0.46840772 0.32064405 0.047656834 0.21896589 -0.080898605 0.091289885 -0.05413025 0.4789173 0.107762635 0.23889211 -0.11787772 -0.02780047 -0.29004738 0.19536127 -0.030606087 0.26893273 -0.24919935 0.31051207
1307 -0.003651186 0.62029886 0.3140129 -0.15392554 0.5625989 0.51577705 0.09124566 -0.31522954 -0.09579439 -0.17999311 -0.2034792 -0.060133353 0.17627749 -0.10582787 -0.06069678 -0.034595497 -0.18514888 -0.1629409 -0.114105865 0.19846086 -0.29844704 0.418106 -0.33236924 -0.13990618 -0.16764581 0.38120708 -0.1507452 0.6774775 -0.24221532 0.2961145 -0.26445302 -0.40227592 -0.035454746 -0.27924797 0.16037858 -0.18037066 0.09190399 0.12446908 0.12862343 0.3659405 0.42557767 0.16614053 0.20229504 -0.16235307 -0.54075617 0.17017621 0.19158538 0.18899384 0.027726922 0.1537507 0.17552222 0.006371119 -0.22191596 -0.17487766 0.24713384 -0.065733075 0.30056483 -0.12342881 -0.6651664 -0.28449318 0.19708747 0.20014787 -0.0723605 -0.089796856 0.48443705 -0.12728995 0.16054045 -0.0533052 0.22921076 -0.044164658 -0.40945917 -0.33361706 -0.1849187 0.28605974 -0.2090641 0.10385261 -0.31141114 0.051110666 -0.014287025 -0.011897617 -0.079955794 -0.09581357 0.44260553 0.17367113 0.32403636 -0.54324263 0.04916151 -0.281098 -0.24537778 0.112321824 0.5590436 0.038254324 -0.17182797 0.39927357 0.22374709 0.12964888 0.10199797 0.31699827 -0.46041498 -0.5711225 -0.13947932 -0.22977154 -0.038849644 -0.20011884 0.26803738 -0.55425245 -0.6489486 -0.30232173 0.056383528 -0.10043819 0.49564266 0.13637245 -0.18212941 0.29777542 0.0462799 -0.04851467 0.099374175 0.3849234 0.18215361 0.15480259 0.04830776 -0.1831959 -0.4780389 0.50797486 0.13933662 0.4267409 -0.07696584 0.36911014
1386 -0.18513912 0.6759085 0.2898335 -0.11605786 0.5150698 0.50220037 0.0487556 -0.28854308 -0.093172014 -0.2953653 -0.32851085 0.055314913 0.0749836 -0.13543206 0.05366162 0.2102338 -0.07830033 -0.15651897 0.08531958 0.16837865 -0.15353397 0.11143935 -0.30462894 0.027082395 -0.21576573 0.36057222 -0.1539164 0.22418281 -0.2725076 -0.021017374 -0.38851118 -0.5133096 0.06020666 -0.41718256 0.17905007 0.12377736 -0.089703195 0.10007365 0.35165748 0.36389792 0.023466231 0.25172845 0.17421247 -0.11153697 -0.527583 0.17829728 0.21574613 0.30342734 0.014096273 0.16160345 -0.14794871 0.04741913 0.2517893 -0.19662553 0.35029966 -0.06289987 0.11270839 -0.108418584 -0.5196174 -0.29254326 0.14369707 0.23525114 -0.31396407 -0.039295767 0.30976778 -0.065299146 0.15961662 0.49683088 0.012711074 0.014503878 -0.23906782 -0.2635593 -0.23283386 0.33694094 0.04539124 0.25289673 -0.2033677 -0.046591677 -0.07993316 0.36848304 0.18489589 -0.0763166 0.18060216 -0.114473395 0.105010435 -0.5319569 0.1349551 -0.3346343 -0.52240586 0.13226783 0.36685506 0.47664037 -0.2553749 0.13301049 0.07550458 0.018130107 -0.043694556 0.055185203 -0.088952295 -0.593348 0.27073804 -0.106599204 0.19331247 -0.27193516 0.38593194 -0.31336856 -0.34536746 -0.4428582 -0.17004526 0.16420265 0.3618111 0.12260015 0.1082109 0.047987472 0.08185349 -0.328307 0.018649472 0.51301765 0.19523796 0.014257559 -0.21074542 -0.06861962 -0.17301561 0.43518475 0.18130557 0.22105685 0.1079792 0.34485304
517 0.041650433 0.31752113 0.2574713 0.20436375 0.5707702 0.6227555 0.11417149 -0.45367703 0.19147943 -0.032180704 -0.17020811 0.08018867 0.14106724 0.010155685 0.077238716 0.093513004 -0.20141949 -0.17517717 -0.065968 0.36379617 -0.67066014 0.51529145 -0.04364339 -0.13077275 -0.23120373 0.22375701 -0.40197185 0.640812 -0.13049789 0.39190564 -0.09980082 -0.21054459 0.28261885 -0.4196457 0.45191932 -0.05156187 -0.17287564 0.18319872 0.57139957 0.25079533 0.18183355 0.13893867 0.3957195 -0.08462293 -0.34195504 0.49166635 -0.031525206 0.036385942 0.07473867 -0.30791363 0.30032983 0.2395274 0.19919537 -0.3518279 0.26296675 0.16475631 0.42436782 -0.296067 -0.25243008 0.08289256 0.19367912 0.42224395 -0.09773828 -0.18235664 0.15910524 -0.45935935 -0.24491909 0.40872744 0.015720153 0.15898298 -0.44081086 -0.10518927 -0.16072059 0.112389244 -0.16740318 -0.36779982 -0.0679045 -0.049461383 0.10013531 -0.3577355 -0.12367373 -0.20571516 0.14098218 0.09797544 0.22300802 -0.4421715 -0.18688594 -0.31296667 -0.22426373 -0.22260246 0.27845204 0.25956008 -0.22989517 0.11657206 -0.008337402 0.03631657 0.10636985 0.095852025 -0.12717254 -0.26164022 0.111659676 -0.19861172 0.11315205 -0.40175083 0.23221833 -0.0011620409 -0.39981884 -0.4319154 -0.011484804 0.07248181 0.00030121242 0.34547037 -0.08076098 -0.07433924 -0.11317368 0.043103497 0.10191732 0.4847835 0.1829449 0.23967305 -0.0029008468 0.02611487 -0.3499278 0.46536145 0.34149414 0.44543585 0.056384392 0.44253474
