1899 128
322 0.1636467 -0.13163973 -0.25727496 -0.293991 0.101899296 -0.03336029 -0.011397048 0.20563419 -0.30166197 -0.39237478 -0.33663207 0.19547775 -0.19629116 -0.037058625 -0.014930979 -0.34544668 0.023193646 0.24935529 -0.22876862 0.38556418 0.0975096 -0.2474694 0.21945438 0.20576014 0.33831096 0.01870222 -0.15561323 0.015694357 -0.15004283 0.2833114 -0.16932692 0.40382195 0.09570203 0.39123213 0.06728905 -0.23227297 0.14800468 0.12408873 0.058153532 -0.10463358 -0.083565734 -0.07689771 -0.15692745 -0.03553996 -0.0058074924 -0.14461593 0.003283869 -0.37570596 0.24439412 -0.12920196 -0.15642236 0.10885006 -0.08210022 0.1922317 0.053973902 0.007177756 -0.0017272038 -0.10726018 -0.11391275 -0.11567448 -0.19639266 -0.2999964 0.3760357 -0.09964862 0.34553066 0.15491387 -0.087975316 -0.117989756 0.2492991 0.52693343 0.1366312 0.2350046 -0.13795595 0.3308912 -0.12404878 -0.19184342 0.049487237 0.16071582 -0.34481663 -0.10006964 0.4462405 0.3474447 -0.10613483 0.31124383 -0.23419058 0.058691535 0.3676733 0.026714396 -0.36793998 -0.009812734 -0.11941155 -0.045867205 0.37553954 0.43143344 -0.18014666 -0.13063149 0.29145288 -0.11809012 -0.14368454 0.034739196 0.3155851 0.01090222 0.04465633 0.39421093 0.24572878 0.15548241 -0.058247924 0.4309069 0.21426515 -0.20815597 0.027195424 0.3765199 -0.05436717 -0.19705364 0.09975693 0.42676026 0.0013173578 -0.054901067 0.1556995 -0.03549422 0.02293278 0.11274556 -0.38931853 0.08719938 -0.10538292 -0.11883014 -0.06190654 -0.23806153
102 -0.14672369 -0.1706643 0.36617738 0.020463027 -0.036281426 0.14848793 -0.0716524 0.19736898 -0.5545246 -0.34109542 0.032455377 0.17535624 0.24633798 -0.23805238 0.37461346 -0.32095462 0.19256563 0.1604012 0.08199196 0.11037895 0.333953 0.20727864 0.045318075 0.0009903966 0.18720885 0.36090958 -0.00029954084 -0.2962287 0.18265088 0.26271263 -0.109810024 0.5061425 0.20382978 0.07233953 -0.14736876 -0.05958141 0.076742835 0.23991992 -0.24801205 0.19599985 0.09943362 -0.0361847 0.12854017 -0.06169946 0.032683235 -0.17800058 0.47171545 0.18154684 -0.15667835 -0.027280783 -0.39739046 0.24937852 -0.12782103 0.16278803 0.329073 0.3434743 -0.07050289 0.10873382 0.02829546 -0.1245108 0.07134204 -0.0059239753 -0.059351847 -0.24686979 0.11420592 0.23794805 0.18247099 0.15820935 0.11684528 0.38362733 0.17737447 -0.07874056 0.13572782 0.075669415 -0.1528975 -0.20398125 0.30950332 0.10935807 -0.21367991 -0.19909124 -0.058865353 0.09037782 0.23165898 -0.17884858 -0.21502215 0.31340995 0.51461667 0.22634883 -0.35941198 -0.16431065 0.18874599 0.06997876 0.23554422 -0.29965928 0.031946022 -0.16128178 -0.18355736 -0.16913258 -0.21953337 -0.12390826 0.14614937 0.41578397 0.15643269 0.11465976 0.36428326 0.07053811 -0.118268706 0.09407185 0.039794225 0.13691027 0.120142914 0.1758876 -0.0008266691 -0.05077857 0.0527054 0.16261292 -0.14869496 0.13107774 -0.24337977 -0.036198616 -0.041291744 0.081031315 -0.13665667 0.11868992 -0.20389211 0.08664298 0.17347358 0.23976712
604 -0.05074123 -0.1649897 0.1259198 0.30566147 0.18820229 0.18765518 -0.22021878 0.21910402 -0.31516317 -0.6726115 -0.24741246 0.18093976 0.16904035 0.004396824 -0.1952668 0.06080973 -0.0431988 0.3099433 -0.0978471 0.4039916 0.11516953 0.16295284 -0.02871575 0.026133323 0.42523164 0.22600251 0.056416363 0.17756417 0.05717658 0.009347354 -0.1781016 0.5056877 -0.0059078066 0.012199427 -0.18803465 -0.057038143 -0.28808373 -0.017539166 -0.073013134 0.21586345 0.27187145 -0.35926554 -0.022133762 0.1316711 0.068656914 -0.08299251 0.088404916 0.17127526 0.10508584 -0.35803312 -0.03491088 0.066662416 -0.110897824 -0.046033107 -0.04919332 0.32188717 -0.16207242 0.11361799 0.1857861 -0.3174299 -0.30391952 -0.043771468 0.0091606295 -0.18753807 -0.07486735 -0.010263264 0.07356742 0.21552116 -0.116941534 0.3619316 0.3355259 0.03418324 0.0013034057 0.037436187 -0.46993077 -0.16600892 0.2704304 0.38470116 -0.1630547 -0.12757827 0.14605439 0.21855128 -0.11308095 0.19309042 -0.22177437 0.23439682 0.24999894 -0.1838031 0.107006505 0.09872698 -0.13234363 0.15892614 -0.020941557 0.20207025 0.13951337 -0.25380835 -0.095759965 -0.23800154 -0.25090563 -0.12843248 0.27579832 0.03708124 0.09642592 0.1296214 -0.012064844 -0.24052115 0.16599569 0.13735753 -0.08478205 -0.11788816 0.0064214584 0.34623832 -0.35764194 0.07064821 0.09850752 0.16069095 -0.24398315 0.15752718 -0.43363947 0.026316054 0.036706958 0.11683024 -0.462593 0.19539194 -0.106044635 -0.07520018 -0.20433469 0.19924687
371 -0.09348004 -0.10143951 0.17784198 -0.14857997 0.108543664 -0.086133435 0.019107759 0.16656208 -0.7337057 -0.25556856 -0.08470117 -0.039849 -0.19737211 -0.06565422 0.3284782 -0.35391983 -0.34524107 -0.038604524 -0.005636346 0.24764587 -0.062171068 0.16100629 0.046780676 0.28903675 0.19287206 0.19263199 0.322427 0.11031514 0.13031662 0.0058460874 -0.42116514 -0.06453721 -0.14819781 0.24258246 0.06773009 0.15255108 -0.23997934 0.39325202 0.33369964 0.32193002 0.068178765 -0.17620534 0.18788365 0.08012655 0.24392886 -0.1693387 -0.20317976 -0.072904356 0.002282257 -0.30305532 -0.2131922 0.0149212945 -0.33593413 0.020164791 0.16754517 0.23184566 -0.2398202 -0.113044366 0.41133618 0.019068226 -0.43067884 -0.26892713 0.27156356 -0.17110631 -0.0749483 -0.16059951 0.14586164 0.2465083 0.039554976 0.330323 -0.13375142 0.2264477 -0.1470994 0.015262924 0.22514401 -0.15117306 0.14775924 0.10061056 0.11501038 0.025330644 0.16825096 0.16717902 0.2765747 -0.21534413 -0.2042598 -0.31468353 0.13918227 -0.13128285 0.16226697 -0.0968795 -0.12584773 0.088964306 0.39722282 -0.19611053 -0.026787622 -0.2082081 -0.07091718 -0.13431157 -0.3322027 -0.4606047 -0.009646752 0.054108717 0.034212325 -0.10487336 0.22785932 0.1944583 0.042413715 0.038448542 0.079047285 -0.02214346 0.30649558 0.25550726 -0.21404803 -0.026577033 -0.1409586 0.343892 0.13743651 -0.20376506 -0.19899894 -0.27529946 -0.068124466 0.28523034 -0.072919756 0.021253577 -0.096212186 0.017671132 0.18788736 0.44447568
11 0.29878816 0.10938148 0.22905865 -0.025683276 0.1284537 -0.18982626 -0.014240062 0.41633886 -0.40587172 -0.9208199 0.097252704 -0.062824175 0.39251363 0.08872885 0.4477207 -0.18942054 0.23968808 -0.16695586 -0.10425406 0.19514817 0.13781074 -0.0064411433 0.10754715 -0.1356404 0.30884877 0.42708543 0.19889134 0.0551028 -0.20205756 0.27758613 -0.39816162 0.005833971 -0.13509716 0.685564 0.09405049 0.24567237 -0.0040174387 0.19036113 0.067110695 -0.029668946 0.036848433 0.06078551 -0.12283968 -0.19182116 0.14660433 -0.08514972 0.20747489 -0.020181788 -0.17921123 0.14095375 0.20971715 0.04524136 -0.090977244 0.0635859 0.13069078 0.14279069 -0.16599068 -0.018230585 0.13812536 -0.1942758 -0.4133027 0.00058639905 0.18356189 -0.043519005 -0.011571431 0.059437647 0.19456033 0.26779783 -0.12222475 0.18855482 -0.22019562 0.06411955 -0.114953406 -0.16314264 -0.36657736 -0.37765825 0.24311063 -0.21160012 -0.118076086 -0.10860975 0.20826825 0.028617285 0.2058826 -0.18062063 0.14233181 -0.14574069 0.3486099 0.16850513 0.04129185 0.08638584 0.12468245 -0.045129042 0.34972623 0.17308651 -0.03504494 -0.18743515 0.10154061 0.09322987 -0.17959395 -0.3218154 0.12823601 -0.03849473 -0.116899304 0.30909553 0.123454936 0.1839452 -0.26365504 0.075697266 0.04430914 -0.2811494 -0.03764353 0.17028672 -0.35223117 0.12053493 0.24826898 -0.020972403 -0.20929709 -0.34675127 -0.37309882 -0.15448149 -0.055910412 -0.14227074 -0.16110002 0.074811675 -0.11856719 -0.2109464 0.2136653 -0.070577964
678 -0.02337582 -0.62786436 -0.123581044 0.20444529 -0.13874222 0.22168651 0.10630273 0.040984202 -0.31128088 -0.42644408 -0.35213488 0.30663627 -0.4477704 -0.17282693 -0.35959008 -0.055529445 0.039818924 -0.37355375 -0.09033802 0.22767861 0.3326526 0.20855507 0.11810734 0.20565696 0.16556618 0.073058926 -0.15461726 -0.3792303 0.14866406 0.025960525 -0.17780633 0.11596003 0.038664076 0.20987365 0.13206808 -0.08212353 -0.19095434 0.43024895 -0.068057045 0.13535696 -0.059588775 -0.3535769 0.07440441 0.026699059 0.07981313 0.060881406 0.5232095 -0.12546441 0.25336587 0.05456026 0.04208524 -0.060139038 -0.2802768 -0.19617797 0.12912866 0.27559203 -0.23373078 0.1931614 0.06390896 -0.27786228 -0.15925261 0.12041666 -0.114065625 -0.010551287 0.29843032 -0.3909076 0.2578576 0.3433764 -0.24524876 0.29336092 0.08166423 0.3119764 -0.22216272 0.17497721 -0.04986843 -0.21620986 0.24770345 0.24979888 -0.19927661 -0.25771737 0.16818462 0.10784465 0.20421125 -0.08424807 -0.15447396 -0.072123565 0.097581446 0.19275755 -0.42532378 0.2005403 0.09595009 0.17052653 0.3690986 0.21586856 -0.31107944 0.18141553 -0.071166955 -0.3254626 -0.01600738 -0.16517767 0.1673615 -0.05413671 -0.103564665 0.17521492 0.3882209 -0.20393014 -0.16840662 0.14539269 0.0621143 -0.014320798 0.07846276 0.37050396 0.049107566 -0.376835 0.09461625 0.013765294 0.15709679 -0.15659882 0.046356145 -0.06910019 0.110470444 0.05211892 -0.26421136 0.08592996 -0.36605346 0.23420699 0.15070216 0.11490428
637 0.14525227 0.07460662 0.14082803 0.10988351 -0.0946117 -0.25040695 0.28674558 0.4183764 -0.43178692 -0.24646753 -0.3292866 0.063949704 0.2891334 0.038934793 -0.037520226 -0.033949155 0.33839545 0.029489394 -0.0991382 -0.0014906756 0.14250106 -0.05025204 -0.1851395 0.26299283 -0.03781412 0.02166671 -0.102973014 -0.22010088 -0.3008516 -0.015509208 -0.37114632 0.16052231 -0.09656869 0.18146396 -0.06445842 0.11250836 0.016819876 0.08209415 -0.06381645 -0.11610083 -0.16237338 -0.3305799 0.017659152 -0.16456474 0.075313956 0.22519182 0.12220778 0.005852929 0.05775692 -0.15700577 -0.22206323 0.30051264 -0.32377473 0.1485564 0.111974396 0.3089892 0.031083046 0.002629987 0.05900625 -0.018057028 0.06396688 -0.2593691 0.38591337 -0.3101028 0.019478703 -0.18584022 0.15594272 0.1092867 0.05836881 0.5182875 0.20597506 -0.029335378 -0.31442007 0.05737837 -0.4964988 0.20037556 0.14771263 0.506759 -0.19032706 0.0075542293 0.085888594 -0.33433923 0.09667389 0.15875302 0.15049765 0.31556165 0.37234658 0.07153375 -0.14963768 -0.02490675 0.25172278 0.22350964 0.27115092 0.16355488 -0.10605167 -0.09269645 0.36524203 -0.028380182 -0.11987323 -0.29550186 0.36073524 -0.195689 0.32010874 -0.09260709 -0.044891454 -0.1419261 0.2062284 0.29700613 0.20201378 -0.05895554 0.13916138 0.20353504 -0.15151036 -0.05803214 -0.07848364 0.3006768 -0.13744777 -0.13721785 0.115138404 0.023047421 0.121678434 0.2931383 -0.34195507 0.15880638 -0.2924752 -0.41688886 -0.22057374 -0.2940675
276 0.0043582125 -0.10611076 0.16008647 0.30129665 0.15860982 0.28351608 0.23645684 0.02626815 -0.21733417 -0.2167727 0.05141282 0.32816985 -0.21793835 0.14406171 0.11333503 -0.17900075 0.1560177 0.17108002 -0.14570276 -0.04067078 0.092613295 0.16077906 -0.0075182714 -0.20312542 0.13692056 0.22548118 0.072678186 0.051535018 0.27202109 0.2537407 -0.42260474 0.15067309 0.07339494 0.1109604 -0.43041986 -0.009821739 -0.14021656 -0.055495527 -0.24364905 0.3243875 -0.07712701 0.12181592 -0.18838906 -0.24174985 -0.068829395 -0.29151306 -0.3028249 0.08740165 -0.28472847 -0.25515768 0.18906786 0.022374688 -0.42044485 -0.3700925 0.22579955 0.19853078 0.29025492 -0.14439575 0.048451237 -0.015431611 -0.20524086 -0.14552867 -0.07155221 -0.026679019 0.24574724 -0.2592553 0.36062646 0.24719508 -0.09402155 0.7809376 0.51181704 0.28294805 -0.06232037 -0.2525232 -0.19002667 0.15588085 0.44287917 0.29738054 -0.29891652 -0.13612656 0.34640288 0.14094974 0.011437213 0.18010241 -0.04416624 0.3116065 0.11532322 -0.3075187 0.14525871 -0.054274533 0.24403681 -0.020578062 0.324752 0.1946073 0.25642845 -0.11278417 -0.06648302 -0.058726277 -0.17120406 -0.23005298 0.12782624 -0.10226909 0.25129837 0.030222433 0.06931759 -0.011864443 -0.016915064 0.4940656 -0.22745618 0.03051682 0.11856818 0.027923144 -0.25356954 0.25418198 -0.12291299 0.07370351 -0.0627497 -0.10549424 -0.13083142 -0.41949794 -0.004485133 0.42026347 -0.19708996 0.3467061 -0.10801537 -0.23736261 -0.008105386 0.23843442
616 -0.062280532 -0.16838653 -0.09420295 0.065532796 0.11282559 0.30654716 -0.12098027 0.33285144 -0.2977761 -0.6754245 -0.36792853 0.24108383 0.17406493 0.110318534 0.106232285 -0.18629423 -0.055461843 0.23223698 0.07871494 0.2744485 0.24778442 0.29545784 0.16614212 0.10465532 0.31383047 0.19379519 0.04157354 0.10552917 -0.31103227 0.05852804 0.01738322 0.2850078 -0.10938106 0.34027097 -0.112010606 0.034006048 -0.103452735 -0.09688781 -0.27410936 -0.08893234 0.21272801 -0.08617638 0.10383397 -0.123618536 -0.02397331 0.119040065 0.2979855 -0.16820842 0.0567689 -0.2771424 -0.12990761 -0.1145323 -0.25913584 0.10173249 -0.015555015 0.42174563 -0.074439876 0.07058705 -0.0029503228 -0.35537446 -0.10179102 0.06649168 0.2593212 -0.117947474 -0.06675529 -0.0800285 0.19015872 0.17454508 0.030531522 0.46204296 0.14552239 0.115824796 0.03203086 0.0011136219 -0.3202206 -0.5244992 0.23750545 0.29298148 -0.2064706 -0.099845506 0.30131936 0.3926124 0.042009432 -0.04918496 -0.16227087 0.14560537 0.33246377 -0.20820166 0.060792476 0.25770554 0.11616043 -0.19284573 0.19121209 0.03441888 -0.34153566 -0.20931797 -0.16176914 -0.19928916 -0.36518547 -0.02728548 0.28311285 -0.056439504 0.019259743 0.16320214 0.0919523 -0.056207553 0.12684192 0.17905456 -0.056252073 0.14835453 0.14056143 0.14868513 -0.25020587 0.017291969 0.0704323 0.18657954 -0.034498475 0.20151165 -0.3984868 0.24605253 0.3936206 0.0041269157 -0.21067666 0.050888576 0.03055887 -0.13673732 0.14723155 0.12877779
8 -0.29921076 -0.046542436 -0.018658686 -0.01645002 -0.11513521 -0.095237546 -0.17510615 0.13334653 -0.43201807 -0.44621402 0.19919375 0.20663577 -0.18421121 -0.15593371 0.28666118 -0.007103873 0.34021932 -0.010047007 -0.29754847 0.24909154 0.27617726 0.23213977 0.42092848 0.016859638 0.119897045 0.44534475 -0.00257399 0.30095798 0.066615716 0.24509923 -0.43653834 -0.06912777 -0.26702225 0.35758722 -0.01181494 0.15507229 0.07199065 0.46303725 0.11915168 0.16851205 0.040787254 -0.1301598 0.07639468 -0.25481355 -0.10069434 -0.12313036 0.007647025 0.055323854 0.09527529 -0.262967 -0.099908695 -0.15228358 -0.13716426 0.29760575 0.17802666 0.13968019 -0.45161605 0.009709912 -0.45843837 0.102021776 -0.29550344 -0.15557812 0.24025561 -0.3851014 0.21015544 -0.12050561 0.019666562 0.05470892 0.020810077 0.34132937 -0.10650603 0.31316164 -0.1611338 -0.28229222 -0.093055524 -0.39165717 -0.013681561 -0.23073463 -0.35809904 -0.019600444 -0.011254921 -0.12683111 0.040466465 -0.09501454 0.10985408 0.01534405 0.34642145 0.031558156 0.03814248 0.31736153 0.1963937 -0.02920129 0.44706747 -0.086414255 0.021176036 0.08337288 0.1725087 0.15261331 -0.22185639 -0.22677252 0.091016576 -0.012580101 -0.19229825 0.3767357 0.19753194 -0.14668319 -0.061995152 0.11815553 -0.04826708 -0.13291362 0.07748649 0.24293084 -0.13778642 -0.045268208 -0.077401474 -0.012190392 -0.2838123 -0.017828714 -0.23516253 -0.20117553 0.2991647 -0.2250478 -0.28011334 -0.03229501 -0.2948576 -0.07167718 -0.30546305 0.014068563
399 -0.1021742 -0.27432135 0.19351254 -0.1467886 -0.05544659 0.26702616 -0.514464 0.11912191 -0.33025253 -0.14625546 0.11324303 0.11768113 -0.11143389 -0.027910426 0.08414991 -0.44608873 0.13634366 0.06518449 -0.15345879 0.31640446 0.4858272 0.24559258 0.37623966 0.51972103 0.04235528 0.46407133 0.2655416 -0.19219162 0.20565192 0.35564592 -0.19772269 0.5792733 0.08865405 0.34357643 0.2719403 0.05212322 0.13604054 -0.020850297 0.3331816 0.06546794 0.17971174 -0.0719763 0.061926547 -0.1725673 0.37757167 -0.22321977 0.14775443 -0.088775836 -0.012217815 -0.5031865 -0.3925816 -0.13742502 -0.218184 0.07757179 0.1573557 0.45775214 0.035972483 -0.04742674 0.16782728 -0.22923306 -0.21711361 -0.21524546 -0.46200565 -0.0032013922 -0.34281692 -0.06686142 0.32371223 0.18705633 -0.23579648 -0.13322172 0.26640126 0.24777645 -0.23852482 0.3735504 0.04221259 0.021528427 -0.20728283 -0.14758043 -0.1236115 -0.1930289 0.16270185 0.08001435 0.039925907 0.16208242 -0.01388996 0.29725724 -0.16131571 -0.31610456 -0.33309096 -0.23612115 0.32680866 0.2532369 -0.05176674 -0.12767889 -0.15976712 -0.084085226 -0.09711375 -0.11676764 0.08251888 0.13275756 0.04509995 0.23652677 -0.04492154 0.09784267 -0.15813106 -0.30665904 -0.026853023 0.15641207 -0.06929286 -0.028737934 0.12120863 0.13390863 -0.1708953 -0.36589542 0.0007077156 0.17596415 -0.04706267 0.100719586 -0.14175002 0.26689923 -0.34440768 -0.029430637 -0.08121075 0.042109832 -0.586826 -0.35187125 0.059182126 0.25279424
453 -0.17088869 0.16488622 0.22497751 0.26886466 0.1847516 0.30680457 -0.19687212 -0.17175457 -0.09312232 -0.4901798 -0.30787218 0.0032674596 0.023527155 -0.030562628 0.053128034 -0.075923055 -0.18765108 -0.11364735 0.040073127 0.0073540825 0.07878904 -0.24365291 0.05815581 0.17864393 0.18913262 0.4442422 -0.26659313 0.041554496 0.34633738 0.2851868 -0.5432848 0.13677764 0.1567464 -0.08986947 0.08870271 -0.3890267 -0.1732409 0.06405565 0.4297308 0.23074794 -0.11357175 -0.64171207 0.02361768 0.021157114 -0.033973932 -0.17600088 -0.11254875 0.10274808 -0.07015295 -0.05028869 -0.09859863 0.32732418 -0.3197296 0.02775778 0.2897976 0.20640358 -0.09657317 0.27740997 -0.028276663 -0.09910426 0.08711511 -0.16351356 0.052625723 -0.18324578 0.0847863 0.14933257 0.11321259 0.18481627 -0.28789988 0.4719798 0.1251114 0.18822 -0.43036413 0.25481272 -0.30420044 -0.21276583 0.18025371 0.2327701 0.26429844 -0.049526732 0.24132237 0.089136615 -0.12127813 -0.24499087 0.32918298 0.19819584 -0.3150698 -0.056325644 0.30772278 0.31530124 0.24000795 -0.07598111 0.4331913 0.27241036 0.12725632 -0.28790355 0.21599263 -0.24972127 -0.59178025 -0.48231515 0.07774394 0.06552414 0.10533446 -0.026447317 -0.18982686 -0.07382572 -0.2687993 0.3489356 0.10237227 -0.13209416 -0.120179616 -0.08403942 0.05266879 0.1256797 0.10412513 0.32856163 0.079961084 -0.28055513 -0.1771998 0.34635308 -0.21165062 0.33992913 -0.51054305 0.028086333 -0.33550593 0.14178684 0.20511518 0.19755594
104 -0.11581611 -0.28848207 -0.035938382 -0.2741507 0.35253885 0.15493692 0.2922674 0.025181066 -0.3313614 -0.4435674 -0.021662403 0.47030178 0.16522437 -0.11642876 -0.22842295 0.14171162 0.02833709 0.016502742 -0.3333253 0.04548582 0.25573683 0.30650216 0.08092994 -0.09905841 0.5280238 0.11426929 0.03658421 0.2067218 -0.055331532 0.30557597 -0.3480668 -0.021792514 -0.38102338 0.56626993 0.02647707 -0.04337671 0.11990196 0.16145985 0.24415638 0.09927032 0.037233658 0.021929372 0.023564566 -0.13120052 0.144787 0.18860139 -0.1087076 0.032901444 0.3249174 -0.13345921 -0.2614249 -0.10238355 -0.106150515 0.26177618 0.28604862 -0.00457892 -0.38945767 -0.1265999 -0.030848322 -0.20597702 -0.06750442 -0.34080458 0.061942115 -0.3500278 0.19433396 0.007479039 0.39653715 -0.033848822 -0.30683044 0.055512838 0.073117346 0.5902828 -0.16132377 -0.20966157 -0.00053617806 0.24205966 0.120483644 0.3723632 -0.1880534 -0.17571187 0.24791737 0.15397821 0.006023831 -0.16627452 -0.0060837553 -0.38366818 0.047762647 0.33380574 -0.099426664 -0.04721231 -0.00095893006 -0.19887865 0.09637254 0.22747302 0.027710566 -0.08045505 0.044532966 -0.1373428 -0.37655592 -0.17718612 0.17337067 0.2076494 0.2451558 0.12945849 0.3730516 0.097403 -0.051718496 0.18240102 -0.03387301 -0.010766984 -0.16128376 0.01798473 -0.11836966 -0.099703714 0.2223451 0.05743754 0.18004814 -0.25144994 0.071501516 -0.023279801 0.23222952 -0.12242966 -0.2597061 -0.0627024 0.01995822 0.08885828 -0.00031654816 -0.016283184
712 -0.2838053 0.018736353 0.009038647 0.18619141 0.17883506 0.11284996 0.13399819 -0.014392019 -0.42577147 -0.3701514 -0.38468707 0.4305139 0.26283255 -0.3522843 -0.04066006 -0.3129929 -0.11385048 -0.02194391 0.11702041 0.12343087 -0.06856221 -0.084103785 0.13555501 0.45196712 0.050747156 -0.020882754 0.38556606 0.20593284 0.07322995 -0.03951728 -0.18140739 -0.15288052 0.26689956 0.19805615 -0.17207195 0.19779588 0.21110445 -0.2017259 0.06815872 -0.11749628 -0.19587772 -0.42552274 0.06792351 0.09925106 -0.17215194 -0.009169653 -0.034879528 0.12828073 -0.24353504 -0.32709083 -0.057301875 0.10569832 -0.16095668 -0.34284434 0.48390996 0.28162646 -0.003463214 0.15538807 0.44589695 -0.054062605 0.048830457 0.31313118 0.06825772 -0.1971995 0.17923258 0.060750466 0.24297997 0.16330902 0.054742094 0.45514026 -0.059255384 -0.2274515 -0.42635897 0.25013524 -0.21438254 -0.08893477 -0.10124714 0.116796285 0.29259044 0.15754406 0.07804871 0.07662472 -0.08524705 -0.20312965 0.1188764 -0.052687906 0.22672245 0.1192972 -0.39289352 0.011286391 0.16463359 -0.27447227 0.27136743 0.08304958 -0.08080055 -0.12062624 0.31948313 -0.08521554 -0.17291956 -0.0006821205 0.11931179 0.009476045 0.62633806 0.3065926 0.08049466 0.19452593 -0.48904985 0.1270936 0.18258816 -0.040517 -0.18904522 0.31128326 -0.19225852 0.103063926 -0.04680043 0.2291722 0.3449549 -0.28466552 -0.25755084 -0.083978444 -0.14077696 0.12658556 -0.3293216 0.22283678 -0.49324358 -0.32008213 -0.23839937 -0.061398406
541 -0.314055 -0.538461 0.16943304 0.024324955 0.41086692 0.2910966 0.09707716 0.2080221 -0.13689128 -0.47233355 0.00321851 0.13125065 -0.0271032 -0.20279011 0.14984193 -0.37419868 0.15689704 -0.1041181 -0.16304608 -0.05236009 0.5994378 0.25743416 0.19454451 0.35936025 0.06405051 0.4976832 0.3526474 -0.21190606 -0.048440784 0.05969656 -0.4249586 -0.08600454 0.21484469 0.55828214 -0.29776624 -0.1017467 0.11440399 0.2825759 0.28555357 -0.4221355 -0.03614185 -0.34064385 0.105140865 -0.026133534 0.018961102 -0.25080517 -0.049293533 -0.13553329 -0.053290144 -0.3023437 0.21305366 0.46298084 -0.24023488 -0.08741577 -0.20547192 0.16660275 -0.011988709 0.008643284 -0.27514443 0.04203116 -0.003979298 -0.17694734 0.2943165 -0.21972917 -0.035390127 0.04204934 -0.014908633 0.10219507 0.29125437 0.29480502 0.010711715 -0.29906166 0.012925865 0.27793363 -0.26737553 -0.061568975 0.35808808 0.250093 -0.025976354 0.16535321 0.37753764 -0.014568184 -0.07926823 0.008385846 0.22625256 0.11497469 -0.2585135 -0.042341016 -0.04529093 0.3152618 0.18587373 -0.027294556 -0.0043127034 -0.007639967 0.14396518 -0.41252726 0.05910679 -0.15391228 -0.18520619 -0.13320227 0.3159595 -0.22190313 -0.0032213943 -0.048098564 0.056938995 -0.21003598 -0.108397454 0.10970987 -0.25977236 -0.17672046 -0.2007448 -0.05786004 -0.19254833 -0.29215088 -0.09009167 0.3620144 -0.37358105 -0.22050662 -0.18574084 -0.031354222 0.10669219 0.17659481 -0.15169276 0.14642568 0.010549136 -0.22318211 0.059876822 0.05714591
597 -0.03575363 0.06715677 0.19064943 0.0034587607 0.31057322 0.24370523 0.06926371 0.30468097 -0.38532335 -0.512112 -0.25034624 0.32056904 0.059443176 -0.40061316 0.26781663 0.10360269 0.13247195 0.12951875 -0.19375293 0.4114965 0.30011317 -0.055058125 0.017975647 0.3161008 0.12391717 0.4039983 0.16937289 -0.20564392 0.14428984 -0.15731962 -0.19123511 0.096089125 -0.027489403 0.53087974 -0.047353644 -0.28518474 0.19577405 0.22310463 -0.085425496 0.06656878 0.10769307 -0.16195099 0.10786548 0.019478848 0.08484588 0.14889662 0.06800407 -0.017536541 -0.1212015 -0.109073356 0.05780983 0.33045527 -0.18700798 0.04844052 -0.36686936 -0.05710719 -0.128569 -0.18478677 -0.2103109 0.012064996 -0.2515627 0.047383722 0.32693848 -0.3057484 0.070732184 0.19186488 0.06816427 -0.123489805 -0.29347667 0.24412476 -0.033610903 0.21849829 0.01899872 -0.080245115 0.006642122 -0.16024534 0.056077763 0.17952043 0.38190573 0.23137625 0.21757622 -0.0015307594 0.35452387 0.059160326 -0.029526167 0.07631971 0.011450115 -0.047868732 -0.3983389 -0.13612062 0.25924703 0.08360869 0.23098393 0.2412462 0.06930945 -0.15485388 -0.13923624 0.08408813 -0.15573733 -0.016998291 0.28066593 -0.00087001175 0.11785773 0.15437843 0.2336982 -0.1984298 -0.04210185 0.118026055 0.008764371 -0.009242035 0.09027048 0.16380875 -0.22014372 0.15410106 -0.2385943 0.13677166 -0.20553704 -0.19149077 -0.030226372 -0.39347282 0.2548693 0.16711655 -0.020543767 -0.13445154 -0.48671818 -0.17225663 0.059841342 0.065074936
474 0.076880015 -0.09104146 -0.105474435 0.58605385 0.24049109 0.037556447 -0.18676609 0.17642674 -0.49542868 -0.23276779 -0.31710038 -0.07629227 -0.20946123 -0.02427837 0.12354097 0.0912594 0.007839918 0.35889852 0.21216205 0.42784062 0.5565451 0.11512152 0.38926002 -0.095660195 0.08764663 0.27579919 -0.055353373 -0.19654521 -0.23756789 0.30114082 -0.41980565 0.1460208 0.1763967 0.14603049 -0.3120198 0.14726731 0.2142682 0.04584068 0.1268044 -0.15814932 -0.18932764 -0.09755708 0.027209867 -0.009659137 -0.11205147 -0.32312605 0.2803957 0.0780478 -0.13443185 0.037919875 0.19662698 0.3217115 -0.13511303 0.011551294 0.14486745 -0.012539452 -0.089569084 -0.21426977 -0.22864284 -0.23894331 -0.11709295 0.28582576 0.12100684 -0.300015 -0.095900565 0.080823615 0.14374337 0.071072966 -0.18707769 0.47111604 -0.038912755 0.09024523 -0.26113215 -0.14632747 0.061602082 -0.051248144 0.41315085 0.08730303 -0.4905423 -0.30655938 0.19687778 -0.08065633 -0.12898433 -0.006542297 0.15039341 0.20175952 0.060882155 -0.015920954 -0.1254139 -0.10886987 0.05319519 -0.45358083 0.1985584 0.09312822 0.0029609273 -0.050011907 -0.04059423 -0.5860682 -0.33534744 -0.39776927 0.29669526 -0.16965722 0.19182001 0.18755959 -0.030469317 0.07722175 -0.13615945 0.41498712 -0.0280095 0.2726786 -0.2676262 0.17952734 0.026977496 0.08484748 0.08483621 0.24821761 0.18488511 -0.38496253 -0.01473072 -0.20055166 -0.23503777 0.043680813 -0.2654209 -0.37191695 -0.21997789 -0.024975568 -0.09339275 -0.17387325
31 0.43332806 0.10909988 0.036554072 -0.070593484 -0.20711525 -0.18247068 0.1305228 0.30165935 -0.12556022 -0.5358945 -0.64558905 0.3433943 -0.109453835 -0.17051294 0.1394117 -0.16543546 0.108074404 0.21010731 -0.18194698 0.095190525 0.5886223 0.31707674 -0.03318 -0.13436437 0.072122976 0.073899046 0.10931964 -0.22995402 0.19631137 0.09245295 -0.23937762 0.19598247 -0.20109536 0.018311583 0.2358051 0.016277373 0.04756153 0.14149979 0.15086319 0.0278938 -0.0887685 -0.32794753 0.2860281 -0.21834275 0.2889421 -0.17104273 -0.25779843 -0.21826766 0.00040317382 0.1811808 -0.003014807 0.03532458 -0.09400162 0.08035244 0.13285889 0.32183453 -0.36440992 -0.16943371 -0.008635108 -0.437672 -0.0016075673 -0.100743726 -0.03300883 -0.18658817 -0.097324625 -0.21530084 0.017236296 0.07330911 -0.18976401 0.06446912 0.12704957 0.13440025 -0.0505516 0.26774397 -0.19440782 -0.12596393 0.1068636 0.11504467 -0.44970265 0.17935707 0.11783051 0.22174293 0.033041008 0.14960527 0.10476526 -0.092993 0.34109783 -0.063003525 0.095442675 -0.0035929335 0.24086888 -0.13964218 0.21276131 -0.026686972 -0.05864914 -0.33068767 0.049519647 0.2305737 -0.26407853 -0.21856128 0.33672437 0.1916931 -0.04635466 0.17782106 0.16542439 -0.21585912 -0.38662893 0.30803937 0.03502345 -0.2547362 0.28344184 0.19195035 -0.25698608 0.29293886 0.33282468 0.19924752 0.11611516 0.044188328 -0.3272552 -0.060415354 0.05149842 -0.16743556 -0.08129843 0.17289658 -0.026768794 -0.240615 -0.25009128 0.30757344
41 0.008640716 -0.5225004 -0.35799336 0.054455962 -0.00027553132 -0.20538832 -0.009436417 0.03315801 -0.14000456 -0.119393304 -0.10662603 0.28822154 0.28711516 0.021463806 0.17253818 -0.22157058 0.15663387 -0.074782245 0.13539921 0.27348202 0.24019445 -0.09340317 0.06868404 0.097852625 0.09580876 -0.02442125 -0.03673583 0.19838211 0.009493346 0.33234137 -0.013868835 0.3192216 -0.3332488 0.24287386 0.12206273 0.23074622 0.115209654 0.38858563 0.04397292 0.3531659 -0.45258516 -0.22600056 -0.15605423 0.1493209 0.38042676 0.11255147 -0.0038614706 0.07255115 0.29497465 -0.24510047 -0.22612172 0.4058868 -0.00028994802 -0.012499955 -0.14682083 -0.21217105 -0.108883426 0.037645314 -0.34455648 -0.0018275331 -0.10440665 0.13617398 0.24945866 -0.2806141 -0.044878323 -0.3188105 0.11056719 0.31382674 -0.0832826 0.63128126 0.053049248 0.39602828 -0.70075357 0.14899893 -0.10626645 -0.08390352 -0.3148453 0.28746456 -0.15253994 0.1271454 0.53910893 0.11062037 -0.024852406 0.15215656 0.14895034 0.14342001 0.09424884 -0.1277977 -0.24405862 0.06193415 -0.10131621 0.09048848 0.15954082 0.04189291 -0.033844825 -0.016220147 0.10430012 -0.21523935 -0.47466496 -0.1316134 0.19895735 0.116186365 -0.07333655 0.091619864 0.25230807 0.25235486 -0.30494505 0.18192531 0.33056393 0.08369195 0.17953913 0.05857913 0.10237925 0.030729529 0.16411321 0.12731227 -0.023231598 -0.26553547 -0.12114904 0.20269494 -0.41709757 0.19684441 -0.21974616 -0.21367994 -0.18488467 0.12734048 -0.27011806 -0.035465524
127 0.11184832 -0.4958024 0.015138523 -0.15778871 0.36959937 0.08185338 -0.033167403 0.009495825 -0.5558614 -0.3160495 -0.47113347 0.030410737 -0.17543714 -0.37854728 0.09900306 -0.29671574 0.21514417 0.14248326 -0.32511392 0.25372553 0.057670306 0.077889815 0.17970446 -0.25987744 0.37585336 0.29344806 -0.01170077 0.19566019 -0.27635542 0.35656685 -0.3922145 -0.13765244 0.2206867 0.12293182 -0.4888524 0.10276765 0.051745076 0.04925737 0.24944389 0.16922379 0.061313815 -0.18369384 0.3463979 -0.024261942 0.161377 -0.12318247 0.022380907 -0.38151178 -0.31634817 -0.28427398 -0.24756025 0.361798 -0.2931624 0.069543295 -0.010959638 -0.1562454 -0.014268683 -0.03261236 0.35260165 -0.16124946 -0.30909997 -0.2887985 0.0424012 -0.12304929 -0.39803836 -0.018694628 0.1513461 0.48184142 -0.081331834 0.58228856 0.16646248 -0.20129861 -0.32140887 -0.14061187 0.13957906 -0.19688657 0.25946957 0.009514518 -0.19134173 0.20941992 0.1202612 0.021092571 -0.15920988 0.108650915 0.27399662 -0.08664475 -0.01853072 0.4583991 -0.12055799 0.3022149 0.08436701 -0.26559308 0.295125 -0.30245507 0.060520235 0.11279514 -0.04647958 0.073205166 -0.34506083 -0.107080914 0.21440282 -0.26630875 0.09551307 0.024072831 0.018698232 -0.10844589 -0.20068868 0.20521781 -0.073870964 -0.27400756 0.081595846 0.29060766 -0.16585448 0.2940669 -0.22137772 0.24750513 0.036990337 -0.26154706 0.33306146 0.174933 -0.046536807 0.08597994 -0.15057963 -0.081066445 -0.17414099 -0.15380025 0.2979884 -0.054231256
40 0.1375616 0.022875344 0.024080798 0.115920044 0.40264907 -0.1949965 -0.056581553 -0.0015981755 -0.16609536 -0.5444793 -0.012279892 0.22160539 0.07650887 -0.07600267 0.5352892 0.078931555 -0.022092136 0.016130162 0.17806977 0.0635756 0.0015221791 -0.0030031202 -0.0070711514 -0.050932225 -0.0025446923 -0.06476576 0.15723328 -0.17546384 0.1034038 0.1436862 -0.19959976 0.033322677 -0.08326661 0.1806138 -0.3084637 0.0658104 -0.15979522 -0.143454 0.08897068 -0.07624664 -0.05466364 -0.21005504 0.16411391 -0.32892826 0.07477341 -0.16163321 0.031972732 -0.002507957 -0.26853317 -0.37426767 0.017394502 0.028108895 -0.40197623 0.053416498 -0.0657073 0.48311692 0.06277179 0.12019351 -0.0143409325 -0.10393349 -0.29117692 -0.13982968 0.21193068 0.042809978 -0.20241748 -0.13164239 0.15938455 -0.11010482 -0.07358206 0.46591535 0.24594288 0.2281578 -0.17220598 0.514722 -0.11915101 -0.03441441 0.37520897 0.24116439 -0.15122947 -0.12667562 0.598517 -0.059276145 0.2360872 0.29588503 0.24729346 -0.16007227 -0.06861954 0.14501734 -0.02630382 0.3940359 0.2563307 0.19583467 0.35767943 -0.17396536 0.039353162 0.016346764 -0.0013794447 0.11796265 -0.34602004 -0.27047154 -0.13762483 0.27919826 -0.031325545 0.24261746 0.26319075 0.037253406 -0.17807655 0.266239 0.3224916 0.22228841 -0.3059944 0.2796771 0.13280581 -0.1456212 -0.06393059 0.16516913 -0.110977076 -0.49217778 -0.17437273 -0.4648879 -0.2652747 0.25429243 -0.40814766 0.21330874 -0.3827062 0.0070175226 0.14005196 0.17803738
703 -0.117292255 -0.04014649 0.29006594 -0.1589477 0.13772824 -0.06335806 -0.18825433 -0.02540881 -0.0650648 -0.43590844 -0.08406993 0.397888 0.18542469 -0.2637822 0.18604957 -0.31649965 -0.36007866 0.37371513 0.006222529 0.03511193 0.1604493 -0.017875154 -0.060896423 0.25653857 0.4836753 0.26622283 -0.13481465 0.12625523 -0.22840884 0.10916666 -0.18490596 0.23976704 0.13412711 0.08534463 0.105814986 -0.23363347 -0.05449217 0.3317947 -0.25768632 0.09606395 0.22659187 -0.14008296 -0.0005349217 0.13176432 -0.06488775 -0.272978 0.1769064 0.15122277 -0.1720819 -0.5998178 -0.13209732 -0.079973005 0.15410137 0.23082916 -0.041014183 0.3045951 -0.19847642 0.017515436 -0.29772443 -0.3083429 -0.35424468 -0.22154042 -0.21089752 0.0748261 -0.23372431 -0.10014209 0.044315994 0.14454357 -0.15981299 0.25488806 0.057271488 -0.08615961 -0.28705683 0.21033223 -0.23272601 0.27435338 0.41039866 0.3499621 -0.27436456 -0.015300179 0.3796303 0.44037956 -0.3300067 0.026378186 -0.119239345 0.38310763 0.37195802 0.06519894 0.08806715 0.11947974 0.09206054 0.01757392 0.26177594 0.0076033655 0.05982442 -0.090808205 -0.15270971 -0.48300755 -0.33677 -0.15064676 0.27977207 0.22280705 -0.041715417 0.29539385 0.15734462 0.048172396 -0.15986371 -0.043169864 -0.14163995 -0.2337965 0.049381755 0.3058806 -0.1330367 0.06962708 0.5487369 -0.009201992 -0.007848774 0.18134513 -0.12112705 -0.13582185 0.1368929 -0.099330984 -0.1851652 -0.17725238 -0.09781046 -0.023123987 -0.26509613 0.41572458
296 -0.28676456 -0.3584533 0.07934864 0.050785244 0.33163154 0.010757136 -0.10276504 0.1702361 -0.048302025 -0.3909259 -0.12685569 0.2209233 -0.26494318 -0.24587013 0.027811492 -0.25137883 -0.0806558 -0.09869321 0.35507694 0.22530131 0.15290898 -0.15299943 0.21863829 0.2637415 0.41065356 0.13145253 0.03810156 -0.17668135 -0.024888098 0.3302305 -0.57972354 0.12117788 -0.22019376 0.3410677 -0.1661182 0.20258865 -0.04421062 -0.071688466 0.15341493 -0.092666864 -0.30561125 -0.20757128 0.19187526 -0.16984922 -0.106244236 0.03431269 -0.0020379396 0.17639928 -0.19543462 -0.19181323 0.10200465 0.20541923 -0.23763423 -0.20413725 0.12284131 0.71370226 0.25993076 0.05017984 -0.055749666 0.1398794 -0.30807632 -0.3184908 -0.15764749 -0.4209134 0.024168594 -0.040616047 -0.19586393 0.27541846 -0.20137662 0.52766013 0.04795735 -0.06584724 -0.21437205 -0.06892706 -0.049236536 -0.12386904 0.21569438 0.20207839 0.16387534 0.02626733 0.040429607 0.31265214 -0.14970893 0.021746583 -0.05211071 0.13932997 0.12878685 0.12306484 0.24181733 -0.14630663 0.24969094 -0.07763223 0.42256367 0.10813571 0.5817516 -0.051487707 0.28154817 -0.14328526 -0.010170778 0.008236156 0.2426756 -0.15200639 0.0114172045 0.2804589 0.05471458 0.1333939 -0.2128655 0.10439133 -0.16160415 0.29480335 -0.01615059 0.4985928 0.058994144 0.13852665 -0.176216 -0.009718261 -0.1707953 -0.3092744 -0.27667427 0.33528027 -0.07277064 0.15168871 -0.27542686 0.09349966 -0.36523536 -0.15608688 0.06775056 0.052291192
1280 0.09909527 -0.34405592 -0.18144207 0.070288815 0.25772887 0.05930213 0.14284857 -0.08803822 -0.12329569 -0.2851234 -0.23899381 0.49143767 0.28017923 -0.24920705 -0.1515189 -0.019040225 0.1983546 0.1604046 0.20022283 -0.17468782 0.338861 0.17110083 0.07670828 0.4310058 0.13364075 -0.043564565 0.12374393 -0.10469711 -0.064345695 0.2605087 -0.03776966 0.19776878 -0.026040718 0.31130558 0.16241647 0.13552013 0.2820221 -0.10848732 0.11033118 0.21221058 0.19823514 0.0104778735 0.20520434 -0.18365502 0.042527806 -0.18811738 0.13142923 -0.3713976 0.054738555 -0.07302163 0.1894107 0.07571849 -0.28933018 -0.28483686 0.098552465 0.05765638 -0.26511824 -0.3258063 -0.18677197 -0.319064 -0.008719511 -0.41743866 0.31448564 -0.34823906 0.17732583 0.01665046 0.297255 0.53017545 -0.04649888 0.13566472 -0.021112585 0.31349617 -0.101771824 0.16412772 -0.20702755 -0.33993843 0.2683111 0.11198273 -0.19247772 -0.24282818 -0.051468123 -0.2964685 0.24120899 -0.17614886 -0.42652676 0.039955005 0.06635623 -0.045360282 0.14817567 -0.089572705 -0.069910824 -0.15647602 0.045090765 -0.057538897 0.02876793 -0.008254709 0.37605405 -0.19452415 -0.10180306 -0.14951187 0.38543686 -0.14638264 -0.05714018 0.014863212 0.49905786 -0.14279728 -0.19647716 -0.3609094 0.09526589 -0.19374633 0.045713168 0.47742522 0.045869526 -0.013040606 0.52326435 0.27397975 -0.013526334 -0.030014126 -0.1905307 -0.1130298 0.0054024393 0.2741318 -0.3229344 0.19645663 -0.44463047 0.15237741 -0.067195185 0.05712417
1188 0.12993391 -0.24598472 -0.09488683 0.11257054 -0.13372463 0.13970782 0.28962496 0.21071517 -0.46506223 -0.4570868 0.06667831 0.16522335 0.27195796 -0.22209188 0.1392572 -0.2577844 -0.14519218 0.26770857 -0.05226329 0.38714573 0.4774929 0.042157758 0.26813793 0.5093384 -0.011934009 0.16422297 -0.036683902 -0.11774876 0.09853667 -0.16136554 -0.38658875 -0.17229576 0.14585206 0.2489048 0.035954516 -0.0752176 -0.08865128 0.3764516 0.1205753 0.09464763 -0.33225387 -0.049114823 0.17555332 -0.011668377 -0.10753305 0.020768791 -0.17543323 -0.07116458 0.04694286 0.4066675 -0.2118556 -0.03457765 -0.4014633 0.054521017 -0.26452723 0.103937835 -0.21333046 -0.21942797 0.05911148 -0.43578622 -0.17861518 -0.30292383 0.07871783 -0.10837038 0.15852983 0.1553754 0.24151592 -0.15961018 -0.36343497 0.53068995 -0.16509463 0.083269015 -0.29736677 0.09124396 -0.066825226 0.18257773 0.32908028 0.15989836 0.0059279716 -0.07009396 0.27646986 0.20758449 0.012832294 0.12579612 0.24082713 0.25396582 -0.25964826 -0.42617285 -0.031791247 -0.02414832 0.18845147 -0.54975086 0.36584017 -0.16319388 0.29776126 0.09978861 0.059598587 0.32578212 -0.21125497 -0.35759073 0.00928504 -0.22500607 0.2339909 0.08736377 0.2737702 -0.16991435 -0.38893637 -0.1722893 0.0049484223 0.3359274 0.08353124 0.31733286 -0.4191851 -0.021159053 -0.13342464 -0.12989627 -0.242859 -0.18276545 -0.3325986 -0.09365583 0.035499882 0.33061197 -0.42369676 0.022074778 -0.16126034 0.24337931 0.005789765 -0.13784336
193 -0.21779439 -0.254095 0.14543636 0.19393937 0.059916623 0.09383534 -0.13031687 0.3432245 0.16393 -0.2912247 0.22972412 -0.025818892 -0.08236093 -0.55116016 0.10548019 -0.33021298 0.38333723 0.102663636 -0.08802937 0.15408856 0.13114075 0.12129133 -0.20748295 -0.11000055 0.15738301 0.09093508 0.12920265 -0.11626176 -0.06767038 0.29351908 -0.25470218 0.12335944 -0.17260379 0.48403022 -0.29554278 -0.02222469 -0.21296021 0.21958795 0.22451833 0.15090221 -0.1451768 -0.20590506 0.101092406 -0.034512673 0.30700013 0.01053063 -0.009121957 -0.19496392 -0.026810696 0.18277514 0.043453794 -0.034376323 -0.3736993 0.025548093 -0.0706887 0.074063085 -0.16361186 -0.14803347 -0.113201246 -0.027352447 -0.17077287 -0.32094947 -0.15476713 -0.3707504 0.12674399 -0.17367321 0.47196615 -0.0136073455 -0.050138883 0.45816574 -0.024285225 0.07527636 0.11944648 0.113792054 0.009425979 -0.056548 0.05599501 0.6800292 -0.06915248 -0.34024143 -0.0036667697 -0.19552116 -0.12498565 0.24558696 -0.07317114 -0.34023246 -0.1980674 0.035751097 -0.14630379 0.10823992 0.15735833 0.13288133 0.2665775 -0.052566253 -0.26778466 0.117091194 0.27840066 -0.14490432 0.034466427 0.3108649 0.18005456 -0.29245663 0.106883705 0.1336191 0.12026036 -0.10198957 -0.4955539 0.2835466 -0.30325663 0.18476781 -0.052976605 0.115601964 -0.13424961 -0.013023262 -0.111108854 0.25991148 0.25163573 -0.26415065 -0.071550295 -0.012290342 -0.12680285 0.19954485 -0.5852984 0.095794834 -0.32054967 -0.04317213 0.1505944 0.27226108
324 -0.1927293 -0.3673068 -0.030686522 -0.092674494 0.13920742 0.20848247 0.10486809 0.046075586 -0.2294795 -0.39446524 -0.071439415 0.034774866 -0.16104914 -0.453651 0.3509599 -0.100041 -0.1949749 0.18771154 -0.33152696 0.006347756 0.46093398 -0.09855677 0.22009118 0.13764614 -0.0859585 0.11984406 0.4320989 -0.1992034 0.05759944 0.32342893 -0.21257623 -0.1761339 0.22339109 0.49629274 -0.23207574 -0.2649 0.034288593 0.21618856 0.19251971 -0.3554522 0.056374047 -0.37645087 0.044237744 -0.004344043 0.047624983 -0.10321368 -0.016542116 -0.22880766 0.30457917 -0.2519509 0.032582268 0.32265186 0.005967987 -0.07608253 0.19120859 0.5069894 -0.15218106 -0.06785013 -0.057646453 0.02888147 0.36685497 -0.35822043 0.13746902 -0.6151907 0.06949743 -0.19616473 0.21958101 0.4302151 0.031681735 0.40918264 -0.14409357 -0.108976856 -0.085996516 0.15278797 0.044423938 -0.12406946 -0.20268242 0.40442434 -0.0995715 0.01269129 0.16899678 0.116571374 0.19293901 0.11446547 0.19979766 0.05267236 -0.03231316 -0.15295208 0.039250527 0.035002146 0.23468985 -0.011157828 0.23826115 0.31131408 -0.121896885 -0.2977234 -0.050976593 -0.019148286 -0.08295729 -0.21393315 0.16174114 -0.18658604 -0.07761518 -0.079246745 0.09097041 0.5120727 -0.30762944 -0.28566784 -0.13682854 0.05499136 0.20870493 0.106845684 -0.05983508 -0.2277323 -0.03165705 0.27130383 -0.1459193 -0.15604533 -0.16154075 -0.41380537 -0.09871438 -0.03535792 -0.34481853 0.18165855 -0.14514138 -0.4760112 -0.11146341 0.009253338
71 -0.10102987 -0.083489805 -0.04380098 0.22911192 0.044464838 0.28566292 0.12187611 0.38460818 -0.2817605 -0.19881155 -0.46247855 0.4051224 -0.18176456 -0.16973624 -0.0011672858 0.2148046 -0.006069002 -0.24306802 -0.22106914 0.155287 0.110820666 -0.0434737 0.107485995 0.28109977 0.026827268 0.06986536 0.15267578 -0.2640692 0.07351612 0.31377828 -0.25961405 0.14518778 -0.040819164 0.31118876 -0.14883794 0.11720257 -0.20245545 0.27425572 -0.036930516 0.25751534 -0.03416436 -0.26804182 -0.018845417 0.11486164 0.1721138 -0.40411374 0.39120835 0.20986663 0.55935454 -0.25276095 0.29360664 0.035344455 -0.20290358 0.11278384 -0.09957918 0.062334068 -0.10260429 -0.18125662 -0.17349283 -0.31339288 -0.35400003 0.054082073 -0.03756828 -0.21566011 -0.03672801 0.10813143 0.18828745 0.30567747 -0.030516397 0.12324452 -0.17318574 0.02554492 -0.098426975 0.02338723 -0.4671637 -0.17248973 0.2929348 0.2878411 -0.39883965 -0.38107038 0.32067242 0.089528844 0.17316338 0.17095801 -0.0638997 0.052397706 0.123395704 -0.13533066 -0.2566121 -0.14787053 0.3107086 0.06887781 0.5305798 0.13019517 -0.5322044 0.0873607 -0.2921637 -0.09930779 0.07446191 -0.20446615 -0.05195963 0.0016080076 0.119999066 0.43689242 0.07916974 -0.22537014 -0.63170004 0.07240198 0.06711252 0.015788091 -0.099360205 0.29968283 -0.11446105 0.09887918 -0.25020102 0.44459975 0.21805911 0.19441067 -0.19214323 0.11838563 0.08954676 -0.15464757 -0.1502227 -0.1127321 -0.32156333 0.083027035 0.04308077 -0.13562833
253 -0.06454576 -0.13408907 0.109585926 -0.12783764 0.12719895 0.18455952 0.103007175 0.37451282 -0.31436405 -0.64647186 -0.44501662 0.19724663 0.105467424 0.12970927 0.12152116 -0.461639 0.08762465 0.32514074 -0.2769261 -0.096589275 0.6509906 0.06476026 -0.07125264 -0.03942301 0.18671373 0.06661481 -0.023788247 0.00095843535 -0.013877889 0.18671109 -0.49215308 0.533366 -0.03206371 0.12487107 -0.13156365 0.16582239 -0.022081742 -0.2109209 0.097566575 0.31865904 -0.23444389 -0.482311 -0.11542349 -0.18502744 0.19908282 0.16137274 0.07336623 0.07222325 0.30111003 -0.06983191 -0.09564013 -0.10345796 -0.038141668 -0.3723551 0.15018061 0.22022149 0.14089708 0.18121079 0.4005797 -0.09957568 -0.34877214 -0.15834078 -0.16285905 -0.27541673 0.2493429 -0.09987345 -0.2967931 0.0030788316 -0.3120025 0.35496405 -0.09564955 0.019993927 0.18477099 0.2570454 -0.10064858 -0.22685538 0.44348758 0.55855083 -0.46294937 -0.3046016 -0.087090366 -0.08253488 -0.06347711 0.109051034 -0.21631764 0.08553251 -0.035379287 -0.08844891 -0.24120702 0.11553937 0.11644232 -0.02948796 0.5669123 0.30893305 0.10216105 -0.16011375 -0.020671796 -0.21241277 -0.007260363 -0.49215955 0.07718094 -0.09219557 -0.12541488 0.019484116 0.091897875 0.09202014 -0.14214425 0.00035208932 -0.086528435 0.035645235 -0.07689804 0.16934459 -0.32109672 0.04428555 -0.052231595 0.25739843 -0.008368604 0.15807846 0.09879419 -0.03004468 0.023154894 -0.032358486 0.0915595 0.101943135 0.016640604 -0.03237257 -0.050485957 -0.029844193
494 -0.16298644 -0.3332679 0.16419767 -0.10402643 -0.12848353 0.13043684 -0.08160924 0.30180407 -0.21506342 -0.4551297 -0.070492364 -0.0137199545 0.13501632 -0.097094975 0.40667287 -0.16809611 -0.1993152 -0.26306683 -0.0719641 0.008930416 0.03465408 0.16221939 -0.10647892 0.12272805 0.1207356 0.16791117 -0.082064934 -0.07322389 0.123288326 0.21141219 -0.48197493 0.09465457 0.16071789 0.48796242 -0.1897582 -0.27434957 0.115163505 -0.11807242 0.2879185 0.16981086 0.039602146 -0.09032594 -0.29589775 0.11030006 0.30371654 -0.097420916 0.010669514 -0.3766723 -0.21270823 0.21624157 -0.12834 0.3459019 -0.4058412 -0.38959727 0.07227764 0.05807139 0.24651279 -0.040474083 0.100202 -0.26013365 -0.25124568 -0.33622766 -0.07433091 -0.15728717 0.010113521 -0.11902194 -0.09260647 0.118237324 -0.10099058 0.39769435 0.07694677 0.11075093 -0.31012103 0.162956 -0.0701039 0.20523334 0.25162283 0.44085628 0.255056 0.092666715 0.09262575 -0.29881433 0.08358266 0.02534253 0.22102161 -0.0033176895 0.31979698 -0.09161745 -0.005952819 0.33080274 -0.041804034 0.21853118 0.46944433 0.19494091 -0.4024154 -0.47531143 -0.02227139 -0.005287193 -0.49189502 -0.09189016 0.2908435 -0.37003073 0.09918028 0.23654729 0.23874427 -0.22937216 0.0812485 0.15537861 0.061329816 -0.17152254 0.010765087 0.017670387 0.07784032 0.095591694 0.049246326 0.42358056 0.102680914 -0.17980967 -0.1707825 -0.15357679 -0.093365416 0.24159607 -0.40937743 -0.29181355 -0.11065678 -0.18140547 -0.057970893 -0.18045938
535 -0.38546166 0.08415493 0.44791377 0.39663184 -0.11091587 -0.06996683 0.08612582 -0.29290795 -0.41157424 -0.7284052 -0.035656437 0.13807529 0.10546305 -0.09594387 0.21164021 -0.47618183 -0.103349656 0.018609036 0.056681734 0.002231885 -0.24163096 -0.027841525 0.34923664 0.13104199 0.007935443 0.14114967 0.27529863 -0.186097 0.07796032 -0.11305967 -0.32554564 0.050766375 -0.10937782 -0.03680407 0.026402699 -0.0835007 0.19588575 0.05158378 -0.07832192 0.25262856 -0.11521279 0.20050174 -0.0597915 0.074071564 0.43544635 -0.0815886 -0.17123759 -0.23717843 -0.08251833 -0.32679787 -0.2925185 0.16612928 -0.2666093 -0.11888647 -0.006772755 0.30185774 -0.008968012 0.25181675 -0.0866133 -0.33498272 -0.35869217 -0.13304928 0.18915342 -0.3837139 0.19888401 -0.026661072 0.16175054 -0.082177624 -0.2940881 0.2698758 0.22413819 0.23828448 0.04582866 -0.0047538094 0.22162178 0.061073873 -0.1891061 0.172083 -0.32951918 -0.2647944 0.47509676 0.14685287 -0.15122373 -0.16302326 0.40021315 -0.027193183 0.28054586 0.17836283 -0.023613567 -0.22016388 0.039771 -0.26940092 0.14968047 0.06677298 -0.041918807 -0.1494057 0.016156659 -0.28491455 -0.20862733 -0.4263008 0.43385273 -0.44212312 -0.09166322 -0.1775544 0.25950983 -0.28874725 -0.3513503 0.10762133 -0.03757323 0.057148065 -0.071147285 0.4520872 -0.10691121 0.15584578 -0.27709666 0.36965758 0.019091943 -0.5457902 -0.48745674 0.030261675 -0.30571997 0.12474537 -0.18467908 -0.04471365 -0.2522921 -0.22649227 0.12587337 0.18223754
822 0.37713373 0.011319981 0.19925274 -0.10454301 0.24126981 0.22146626 -0.050722945 0.1820239 0.0043021445 -0.5410551 0.29881668 0.1666841 -0.056325916 -0.21679722 -0.0010501423 -0.012212847 -0.19399615 -0.1488401 0.07937504 -0.115344375 0.26625687 0.19917998 0.2838443 0.13016523 0.22361745 0.112451054 0.019784357 -0.1344559 0.11853296 -0.09747036 -0.44783252 0.17681348 -0.122955136 0.6454496 -0.0556287 -0.10060961 0.2083422 -0.22575063 0.07434189 0.21205781 -0.3972833 0.10415084 0.3106583 -0.08332235 -0.043104973 -0.12144752 0.12866575 -0.05497589 -0.08231483 -0.18060021 -0.09289833 0.029015431 -0.045234196 -0.40098208 -0.09325173 0.21635687 -0.16942933 -0.15839356 -0.0047088224 0.13616157 -0.48936418 -0.5824125 -0.0034808463 -0.28947216 0.06977289 0.02191588 0.04024916 0.057662915 -0.34245238 0.37353802 0.23797859 -0.013581617 -0.23650017 0.14363906 -0.24027081 -0.07149899 0.23304458 0.24433032 0.11534779 0.10298653 -0.10764846 -0.16552806 -0.12423091 -0.00078767235 0.035267543 0.31856933 -0.13615933 0.13037153 0.090904385 0.09734997 0.26495087 0.31051618 0.6071664 0.17943539 -0.2614663 -0.12064205 -0.08014682 -0.11066036 -0.5871146 0.16362871 0.078660175 -0.22588637 0.121885754 -0.42784938 0.25106254 0.1488533 -0.24043252 0.357912 0.15546376 -0.24628694 0.016631054 0.35134023 -0.12775151 0.20586874 0.112389326 -0.006334298 0.22159451 -0.27478868 -0.2988461 -0.35789004 -0.354302 0.41356686 -0.21274462 0.22350706 -0.1736669 0.028593054 0.11898465 0.05572963
568 -0.11823626 -0.17588787 -0.053036053 -0.1973365 0.39703777 -0.0842683 -0.079505034 0.026975676 -0.48553172 -0.4038935 0.03371762 -0.031327464 -0.19515441 -0.38528043 0.2292659 -0.22465931 0.13248788 -0.3452463 -0.36203524 0.0020153043 0.2508621 0.14355911 0.42661366 -0.050105125 0.41351247 0.49696514 0.05033254 0.012297624 -0.05016079 0.15670815 -0.38223636 -0.15790114 0.04257148 0.4787367 0.0023863763 0.014771637 0.12913463 0.12907897 0.071965754 0.16190502 0.25388917 -0.010511999 0.11246095 0.22482972 0.12892714 0.16365877 -0.076404855 0.19279988 -0.085419044 -0.10763464 0.03548443 -0.2815874 -0.19068299 0.32604885 0.019748101 0.054691564 -0.5520372 0.046259098 -0.09594309 -0.14341015 -0.24577491 -0.017107362 0.111133754 -0.13656163 0.19031265 -0.051585414 0.0598839 0.1742948 -0.23330516 0.23998885 -0.07092407 0.20164302 -0.13889435 -0.23113132 -0.21634871 -0.16124487 0.14411256 0.044530123 -0.30570528 -0.06321088 -0.2034315 0.12757468 0.1302038 0.06754034 0.03646742 -0.3956363 0.26029748 -0.024543686 0.06685019 0.22085185 0.095819026 -0.0622243 0.4373342 -0.04288995 0.048567172 -0.060132496 -0.15952933 0.042669356 -0.37527242 -0.43404454 0.21901107 -0.1657711 -0.1648011 0.1541918 0.15821609 -0.14701152 -0.43981597 0.1720571 0.13936016 -0.13082728 -0.10494959 0.19538014 -0.19756502 0.17412116 -0.064740084 0.21679345 -0.12089406 -0.20623931 -0.1050411 -0.1579396 0.03842527 0.17294963 -0.12823153 0.16673681 -0.21949147 -0.15146065 0.05780921 0.25403354
1235 0.22760707 0.114572704 -0.0640544 -0.09086547 0.18732572 0.2875809 0.0863268 -0.0465208 -0.20323956 -0.14128809 -0.0434204 0.19388917 0.083825625 -0.06782389 0.27375412 -0.16833274 0.1484239 -0.12283216 0.080909185 0.1742967 0.27003568 -0.03277514 0.27112913 0.120604776 0.2000696 0.31886172 -0.12687002 0.16593203 0.16263802 -0.25402382 -0.23658615 0.21926197 -0.019071095 0.1809516 -0.094156325 0.016870804 0.012742335 0.42293417 -0.08351778 0.3423551 0.06304304 -0.5355637 -0.28266016 0.25216377 0.32927367 0.16895975 -0.3186236 -0.2828395 -0.28437075 -0.22446997 0.064651884 0.06973751 -0.109527744 -0.19521625 -0.25587913 0.37644812 -0.43130085 -0.10027821 -0.12371491 -0.4535268 -0.3189024 -0.34320366 0.21524407 0.00822491 0.23257256 -0.03840468 0.24180974 0.21767883 0.07265304 0.5354478 0.014495355 0.19696267 -0.34876433 0.020873377 -0.20533109 -0.19839565 0.2544517 -0.011721874 0.18709303 -0.01282163 0.2940826 -0.47665828 -0.10354264 0.24423023 0.19470927 0.120988525 0.43136644 0.28588498 -0.09113326 -0.15629008 0.08930882 -0.012013637 0.39604318 0.3170155 0.051304374 -0.097144075 0.29599696 -0.21277937 -0.34614152 -0.10587137 -0.086206086 0.1203529 0.054572254 -0.3431334 -0.21535774 0.14827266 -0.37234285 0.07330309 -0.21603687 -0.1909405 0.17621936 0.48020837 -0.54936826 0.01301675 -0.084380165 0.39521676 -0.18290679 -0.08790233 0.3562586 0.26228592 -0.07018881 0.3088031 -0.04241958 -0.032139745 -0.19190101 0.10266958 -0.25360426 0.29286367
625 0.11031274 -0.42413586 0.2780827 0.19575648 0.2362992 -0.086439155 -0.25468564 0.32620963 -0.5078877 -0.56959635 -0.30167106 0.13465893 0.16124433 0.38658667 -0.16464452 -0.29876578 -0.15491334 -0.15857501 -0.18860969 0.1602433 0.18925522 -0.024842964 -0.031536307 0.04348693 -0.20639129 0.3216908 0.1053411 0.08327618 -0.16458705 -0.03222969 -0.23150355 -0.08323645 -0.016087173 0.6941753 -0.21916707 0.1791243 -0.15648463 -0.05750702 0.20674443 0.32324013 0.043010518 -0.1955919 -0.25598288 0.019740175 0.028972592 0.037622876 -0.08410694 0.1674481 0.112330966 0.04972142 -0.48534185 -0.23073825 -0.20054136 0.12991731 -0.003523293 0.044415765 -0.14413026 -0.06993944 -0.06423015 -0.16442096 0.2807264 -0.115113206 0.18821079 -0.20673953 0.17410952 0.14606398 0.113899946 -0.014339338 -0.10299663 0.40034792 0.15143771 -0.074939564 -0.312055 0.22687854 0.21532057 -0.03464896 0.08973665 -0.022095455 -0.17269574 0.088623725 0.46511063 0.2267715 0.084407784 0.10614634 -0.12487042 0.15768844 -0.21026312 -0.10477884 0.32854867 0.046118416 0.08554831 -0.09280029 0.58177423 0.13501106 -0.19291966 0.08173005 0.02687198 -0.35170653 -0.13171892 -0.00825281 0.10809827 -0.2672513 0.22896257 0.20734213 0.22282489 -0.29820648 -0.3736087 0.053108305 -0.17860095 0.04253894 -0.102128565 0.30814004 -0.07940149 0.14048743 0.24576841 0.026802173 0.2865184 -0.01760203 -0.16001047 -0.04455983 0.17629766 0.01308625 -0.19947681 0.38107488 -0.30335012 -0.13293074 -0.31042707 -0.14065707
497 -0.13890366 -0.2794722 0.27614093 -0.21652502 0.047129564 0.33540735 -0.110001564 0.2549593 -0.14224441 -0.3370289 0.035761412 -0.21512286 -0.13007858 -0.23665243 0.059746113 -0.3425877 -0.0509028 -0.24994259 0.1293115 0.044985346 0.00997004 0.020280352 -0.28731585 0.38914454 0.23527628 0.105931595 -0.13994819 -0.23167726 0.18595076 -0.09664084 -0.22640525 0.07288657 0.14728925 0.6620211 -0.14324756 0.12181014 0.17257383 0.11230879 0.28449687 0.21065985 -0.080595665 -0.11673378 -0.22852172 -0.1668827 0.37939107 -0.20699401 0.168471 -0.16140151 -0.13216671 0.0010626863 -0.043090813 0.17627133 -0.3261502 -0.29760975 0.12672137 -0.04001895 -0.016005985 -0.15737468 0.27566397 -0.18265523 -0.24693185 -0.34026167 -0.031191722 -0.084796086 0.10088979 -0.082797445 -0.021354355 0.0708179 -0.07111546 0.37861747 0.26086202 0.041827247 -0.22122797 -0.03537965 -0.08621782 0.1307365 0.030108752 0.54284114 -0.27337998 0.15048702 0.04388744 -0.19276428 -0.12054757 -0.0029492085 0.011278313 -0.10838896 -0.018524291 -0.071882755 0.14153457 0.2639316 0.26211336 -0.063136 0.58396494 0.33580282 -0.30510136 -0.21820539 -0.3093108 -0.057090886 -0.5219422 -0.175391 0.21512456 -0.31670278 0.28378457 0.12974961 0.16527943 0.033677492 0.18657275 0.0412774 0.025202516 -0.2012385 0.034393266 0.27900273 0.039094556 -0.017599888 -0.27541327 0.2674093 -0.084678374 -0.013516952 -0.32516533 -0.21354277 -0.26152456 0.20332389 -0.43563545 0.09675015 -0.35896805 0.084624276 0.030997586 -0.056731556
1282 -0.0863242 -0.28340712 0.10241619 -0.1329182 -0.016605075 -0.11395239 0.03392002 0.16355255 -0.07619327 -0.15849592 0.09022167 0.073226675 0.3546156 -0.19414172 0.07165519 0.08825753 -0.10454888 0.23785055 -0.03761322 -0.25318688 0.4010445 -0.09617818 0.11042845 -0.14896484 0.5123259 0.16528882 0.029490061 -0.13346647 -0.1148926 -0.021933697 -0.44236073 0.3205334 0.0022390133 0.2367646 -0.16708083 0.39893985 0.0773496 0.022589667 0.10229992 0.090304546 -0.1749971 -0.20573145 0.21562922 -0.10096232 -0.2029176 -0.054167267 -0.013276509 -0.20495175 -0.08997975 -0.2881626 -0.089662544 0.5745498 -0.106752425 -0.31791857 -0.18291448 -0.28811473 -0.23588926 -0.10759208 0.029531084 0.021548165 -0.17243424 -0.33664218 -0.0078017768 -0.017979154 0.006399033 0.15084738 -0.11321062 -0.2624492 0.052242443 0.5808688 -0.033472 0.39374748 -0.4599344 -0.02055475 -0.14569463 -0.28443393 0.34118092 0.07298351 0.014338613 -0.17784017 0.53720725 0.24181905 -0.027631829 0.033841643 0.028782802 0.058568157 0.12063119 0.10269706 -0.08199318 0.1011463 0.2439435 0.3221471 0.46179357 0.20037498 0.29096633 0.35994878 -0.07321541 -0.33543947 -0.3470744 -0.34946465 0.16521512 -0.07554262 0.22925344 0.21036348 0.3386201 -0.14106439 -0.10762451 -0.3898709 -0.32388127 -0.073846385 -0.30108002 0.44137445 -0.19620591 -0.22591901 0.18517818 0.08516816 0.07992053 0.09755644 -0.2649363 0.023429852 -0.052352324 -0.16380376 -0.25446248 0.22023337 -0.20613688 -0.20699973 0.037539024 0.21538095
388 0.115827896 0.018840421 0.12801635 0.20353262 0.28567308 0.008098478 0.002068945 -0.044505116 0.09762572 -0.6424849 -0.09413219 0.15971838 -0.07242711 -0.30415973 0.17751762 -0.22518952 0.14181623 -0.08309164 -0.040463332 0.21527594 0.17100479 -0.016790371 -0.12453577 0.18258156 0.34155613 0.058545835 0.3393362 -0.10416298 0.068134256 0.38728598 -0.16618308 -0.16318375 -0.14406349 0.18528931 -0.31465313 -0.07587296 0.084364384 -0.053250726 0.1426796 0.019101609 0.20795883 -0.07733025 0.21303971 -0.11039078 -0.037432794 -0.20906593 -0.10495659 0.20572495 -0.068804175 -0.2774159 -0.0724409 0.23087423 -0.15769297 -0.055545215 0.06577575 0.702519 0.07555345 0.35217175 0.040414046 -0.3382213 -0.3556354 -0.3612362 0.4067193 -0.10288059 0.034358203 -0.08766748 0.20300254 0.00821544 0.01781546 0.4853813 0.35383445 0.19734119 -0.03589534 0.060445007 0.035999343 -0.43622264 0.20642358 0.5108992 0.16890192 0.050718475 0.20679873 -0.022029195 0.1915993 0.04461219 0.27982286 0.1856943 -0.16793343 0.15279883 0.0880128 0.29286277 0.32399648 -0.08767173 0.389471 0.30542022 0.17568691 -0.19072972 0.11662889 -0.11226789 -0.40271637 -0.029044632 0.08273771 0.265395 0.03334451 0.009379034 0.039072484 -0.13091025 -0.20826423 -0.124585785 -0.1326699 0.08572061 0.053452305 0.07071473 -0.09208754 0.18633725 -0.14867389 0.07307838 -0.21249112 -0.15443781 -0.1455066 -0.24372493 -0.16998982 0.09024514 -0.28334752 0.00061814237 -0.4308072 -0.09786532 0.33678994 -0.3186998
175 -0.07889774 -0.029058162 -0.1756079 -0.09171185 0.20056303 0.08313053 -0.09739349 0.28712815 -0.09644288 -0.23589158 0.23146081 0.24447177 -0.103087 0.34163606 0.1393519 0.01136769 0.13524432 0.30869144 0.09670931 0.06500807 0.34004843 0.100863986 0.10211745 0.0049228864 0.26062155 0.23190527 0.20639561 0.17455913 -0.060076494 0.0627384 -0.4177261 0.11462166 0.4483908 -0.016737001 -0.04450553 -0.20131698 -0.11526476 -0.045011587 0.005376324 0.2487974 -0.1360602 0.21480303 -0.03563328 0.06383051 0.28042555 0.16360612 -0.38022637 -0.19141518 -0.4027541 -0.2905653 -0.079179645 -0.033200055 -0.27224812 -0.02761394 0.23436375 0.21986654 0.15557656 0.011657879 -0.19991267 0.05213889 -0.060428873 -0.14060295 0.2074543 -0.021218576 0.040388126 0.03171402 -0.17032503 0.13497636 0.023351192 0.63008285 0.025868457 0.2397544 -0.5368135 9.1678754e-05 -0.18768816 -0.2709694 0.14268959 0.47451016 -0.19684608 -0.2770543 0.22472194 -0.18341684 0.32744333 0.06282888 0.24838893 0.3447275 0.24390714 -0.03165363 -0.13845281 -0.24136686 0.37084442 -0.21983802 0.6418585 0.032646764 0.2597701 0.004650856 -0.3216657 -0.07161926 -0.33058515 -0.33597246 0.042180814 -0.077675685 0.09663863 -0.019649817 0.121899605 -0.17052549 -0.1649741 0.51513803 -0.19271533 -0.013818195 -0.05018239 0.2408134 0.11072777 -0.0055347546 0.09094515 -0.2484797 -0.09073754 -0.34048593 -0.052697018 -0.5265581 0.060385924 0.40751877 -0.30199212 0.1673309 0.0034802968 0.058194976 0.13394248 0.03386904
769 -0.13300432 0.14447089 0.105949305 -0.051420603 -0.050778538 0.33670518 -0.10862624 0.046154268 -0.27381095 -0.5144049 -0.1363245 0.18782036 -0.07900511 -0.13114639 0.62562925 0.037477385 0.018712347 0.031676702 -0.09193177 0.22993381 0.32790563 0.12996607 -0.09633689 0.10829852 0.104630925 0.41502413 0.13315207 -0.049644183 0.20773861 0.10646989 0.108845174 0.40761602 0.2423631 0.08172997 -0.21802774 -0.5464041 0.033382766 -0.0005923953 0.23042789 0.24684519 -0.018020133 -0.10603584 -0.40875998 -0.3243598 -0.21004276 0.020229183 0.04587204 -0.112363964 0.13537242 -0.10881734 0.015624504 -0.4727279 -0.31638002 0.020377208 0.31288344 0.065413505 0.05366094 -0.3007919 0.04611643 -0.21162438 -0.20842154 -0.12394188 0.04364615 -0.45646584 -0.014571626 0.17322786 0.12034152 0.42964026 -0.03700718 0.4206071 0.54967254 0.41400078 -0.121592976 0.15819527 -0.13540815 -0.35752362 0.28662297 0.15284115 -0.2565457 -0.10620533 0.24915618 0.16587181 0.042455025 0.08436088 0.15944144 -0.005593801 0.12947649 0.06400217 0.2605692 -0.054215387 0.32225564 -0.03453216 0.42152107 0.015880533 0.258102 -0.26138258 -0.2080802 0.035935275 -0.23262252 -0.009283952 0.25414303 -0.115559116 0.15825208 -0.099665314 0.28165781 -0.093753815 -0.09183885 0.21266785 -0.014809518 -0.00146946 -0.31351092 0.26728967 -0.045397487 -0.10730718 0.018515928 0.23989679 -0.2514452 -0.054418396 -0.0047550597 -0.19182059 -0.084232576 0.07490477 -0.037833817 0.22525072 -0.2563554 0.2578538 -0.04887047 0.45580855
833 0.041895885 -0.253296 -0.00041816055 0.22070128 -0.004689108 0.0011511651 -0.027184362 0.2812216 -0.15897194 -0.53624356 -0.28862914 0.5928048 -0.1312384 0.06288898 0.069055416 -0.3313388 -0.06918224 -0.13685142 -0.3269123 0.26690403 0.1743026 0.21709326 0.1416776 0.10714892 0.037139792 0.35918793 0.32820848 0.012964753 -0.26249143 -0.08906989 -0.08665541 -0.04566468 0.122842714 0.5916648 0.057117365 0.09929105 0.35971048 0.41945943 -0.040419824 0.36697254 -0.0007352254 -0.12555988 -0.065757886 0.03255951 -0.17347582 -0.67115 0.28114092 0.15972088 0.27189806 -0.026351027 -0.06687735 0.085093334 -0.2521636 -0.101732954 0.0967556 -0.018066645 -0.26486364 0.013651351 -0.15873379 -0.20247994 -0.30499116 0.023462676 0.11203302 -0.07180109 -0.115301214 -0.13873295 0.19453582 0.26686504 0.045667768 -0.12215709 0.3920245 0.41746724 -0.05322128 0.2590274 0.16469836 -0.14247786 0.18691915 0.18177043 -0.027008574 0.094079204 0.22767773 -0.0054366337 0.017464362 0.03612286 -0.2028175 -0.0317846 0.25745183 -0.12632263 -0.056897715 -0.3060702 -0.0389639 -0.08389942 0.41313714 -0.034094855 -0.006006061 0.062728345 -0.0333112 0.042973194 -0.17888205 -0.423131 0.279395 0.13349606 0.27290326 0.35814136 0.20127705 -0.09309322 -0.21697226 0.13792126 0.00531611 0.17057507 -0.33471775 0.42015186 -0.023880672 -0.30424738 0.16197668 0.17178835 0.12160938 0.16487655 -0.23469466 -0.08693726 0.11974193 0.10355555 -0.22987688 -0.045043167 0.050800312 -0.3614949 -0.16584492 0.025144663
1401 -0.014300777 0.057995565 0.12275203 -0.089118816 0.2906712 0.026527423 -0.1147538 0.009402409 -0.43827575 0.0967844 -0.24350597 -0.0647208 0.2267254 0.047461715 0.11594866 -0.25332165 0.17464668 0.05241097 -0.28575993 0.25102323 -0.01992651 0.10916398 0.19991316 -0.03934811 0.51206565 0.007211301 0.081066 -0.06961087 0.21926245 0.11917377 -0.3533181 0.013139008 -0.065645754 0.512872 0.1084696 -0.22349837 -0.05844701 -0.005448603 0.17635193 0.22410704 0.34716445 0.10903556 -0.08519266 -0.34240708 0.08125646 0.25284708 -0.24509841 0.089316614 0.16834849 -0.229187 -0.010120936 0.04676965 -0.31209582 0.07690234 -0.033658434 -0.27110028 0.0102194045 0.1717279 0.034868922 -0.42372885 -0.21844873 -0.21009585 0.081140175 -0.37460044 0.18133123 -0.35164028 0.114387244 0.16788647 -0.32481954 0.3145991 -0.10622846 0.09879538 0.01207493 0.1450044 0.028269362 0.23837048 0.10268127 -0.056436177 -0.18875115 -0.058746785 0.35084847 0.10618601 0.21925835 0.09918996 -0.32119414 0.060476366 0.1924951 -0.08521952 0.13116488 -0.09436731 -0.18068804 0.053047728 0.49835914 0.3641359 -0.035684023 -0.13727368 -0.048122466 -0.3693524 -0.11459703 -0.21327959 0.5987395 0.25298128 0.31818742 0.05744563 0.06809371 0.14243548 -0.24166031 0.22634064 0.0340588 -0.028568693 -0.18224722 0.13872992 -0.354705 -0.2746683 0.15097459 0.33793846 -0.30142143 -0.20970467 -0.24797152 -0.028143633 0.38412058 0.27449083 -0.3468213 0.23583357 -0.36093304 -0.063258454 -0.05174965 0.19095044
782 -0.23008198 -0.2812275 0.3814981 -0.15174724 0.39926392 0.27758393 -0.027584841 0.26037732 -0.57686114 -0.34224328 -0.121662825 0.27010423 0.14861955 -0.19931732 0.2144302 -0.026247729 -0.047615007 0.021942645 -0.11505512 0.44181964 0.27273914 0.08492472 0.059286326 0.34476292 0.053540364 -0.21913616 0.004785107 -0.09683365 -0.011929916 0.13445385 -0.41489655 0.40350348 0.08075841 0.24553677 -0.2184797 -0.33058718 0.022360759 -0.119146526 0.03977848 0.20711112 -0.21590248 -0.25330448 -0.08457114 -0.13333283 -0.020981692 -0.23413186 0.39822978 -0.18908295 -0.68791133 0.020704849 -0.10239226 0.17326458 -0.19757785 -0.3331131 0.308913 -0.11959034 0.07882489 -0.18286307 -0.14012615 0.06396295 -0.39535394 -0.54769397 0.017485587 -0.23954062 0.021837357 -0.42031705 0.18740568 -0.37918884 0.1845214 0.42234623 -0.022051884 0.29915485 0.014689723 0.2309569 -0.09331151 -0.10462939 0.23200566 -0.0044199354 -0.05300872 0.2062341 0.12243287 0.026148558 0.3354826 0.16258836 0.10144882 0.32925075 -0.08348881 0.17667218 0.09725994 -0.060104605 -0.052284926 0.055761375 0.033278238 0.23909894 -0.12300017 -0.3113149 -0.26913005 -0.23487891 -0.24455366 -0.1986778 0.2698294 -0.04905963 0.17956981 0.1318463 -0.17674704 0.07934677 -0.56228805 0.28158715 0.09187974 -0.24142312 -0.2619816 0.21952632 -0.08256194 -0.06883247 0.021463474 0.085169904 0.087573834 -0.04772971 -0.06711951 0.11801801 0.03685712 0.06089559 -0.1066991 0.16280726 -0.33251664 -0.3734752 0.16819689 0.09321432
340 0.33201775 -0.07857749 -0.22074969 -0.14665763 0.032693937 -0.23111011 -0.1411102 0.41312903 -0.31937864 -0.39131835 -0.4576705 0.45710754 0.035382092 -0.04123456 0.20728973 -0.207037 -0.09431689 0.11196402 -0.15095465 0.2821981 0.39472204 -0.30087253 0.047972713 0.040789697 0.35767052 0.04178013 -0.20623565 -0.16394545 -0.060182195 0.22045407 -0.29136625 0.24803615 0.28300157 0.38319612 -0.07599699 0.19653818 0.1170577 0.04397198 0.1677515 0.14546439 0.060122166 -0.14151983 0.07942209 -0.27069065 -0.057566404 0.28801596 -0.017990787 -0.5586077 0.051965754 -0.35075068 0.040465906 0.042574465 0.17085108 -0.02364279 0.014571655 -0.1831042 -0.08237611 0.06125124 -0.056636494 0.27394038 -0.36502692 -0.47933817 -0.07114091 -0.20521118 0.19482526 -0.060011536 -0.21408346 -0.006326783 0.020524032 0.5020026 0.008398784 0.010533398 -0.12424828 -0.0679589 -0.095377795 0.014338476 0.030413462 0.1533394 -0.1849832 -0.050159566 0.42893267 0.23483928 -0.09609955 0.4356863 -0.17219803 0.059137985 0.14869723 -0.11059113 -0.6502293 -0.02783119 -0.019856058 0.027282419 0.041348632 0.20138362 0.11479056 -0.4824717 0.27382937 -0.12312523 -0.6295247 -0.4524432 0.36926717 -0.07184989 0.043798294 0.32542643 0.48442274 0.25003245 0.03211254 0.18213445 0.09891554 -0.28467572 0.06671524 0.19314587 0.0016932064 0.057876106 0.20285906 -0.056760047 -0.22676024 0.08618335 0.061529923 -0.03262792 0.064494215 0.20583911 -0.3453309 0.024847452 -0.28042716 -0.25928319 -0.046548925 -0.034201298
752 -0.015961744 0.13979301 -0.19844224 -0.16334046 -0.053386707 -0.008198552 -0.17357278 -0.026603637 -0.07222282 -0.4683223 -0.35947707 0.15026282 0.067056485 -0.040842257 -0.09963359 -0.21778055 0.01904807 0.04802597 0.09675953 0.43601796 0.36279324 0.12046123 0.19389582 0.42080465 0.2801459 0.5105833 0.19937164 -0.09835944 -0.5268149 0.0742468 -0.19195 0.15067519 -0.21904676 0.5112991 0.2539077 0.28303117 0.21172063 0.20146765 0.19925748 0.20533119 -0.058440868 -0.3068659 -0.22673927 -0.11153433 -0.040272877 -0.19660096 0.02740356 -0.3087367 0.053778686 -0.1514695 -0.10135424 -0.0071625444 0.006680585 0.07334401 -0.114735074 -0.01772024 0.20130682 0.06830526 0.12441136 -0.2880907 -0.3930518 -0.18738492 -0.09356417 -0.2593699 0.1069858 0.08135138 0.3311235 0.13367821 0.21497323 0.37295353 -0.0921653 0.030670617 0.18768685 -0.15986563 -0.1928754 -0.09280748 0.28959295 0.54712874 -0.037247565 -0.12551972 0.2733364 0.17011066 0.3248621 0.25244233 0.21897075 0.15043123 0.3497565 0.004459145 0.0004218172 -0.078232236 -0.14736654 0.23170573 0.43510076 0.025265573 -0.14993887 -0.115438305 0.30053598 -0.020941665 -0.19810326 -0.35891846 0.0529565 -0.098793305 0.09387317 0.27055338 0.29011616 0.008719839 -0.018462125 -0.05679818 -0.0010733795 0.024459414 -0.009414367 -0.04518317 0.20575072 -0.18388957 0.08660257 0.17372268 -0.03316726 -0.18958287 0.27372897 -0.27880767 0.34503663 0.16379581 -0.31004432 0.22850442 -0.010216078 -0.18161097 0.047766484 -0.067230344
96 -0.3155585 -0.3542932 0.11138584 0.058982927 0.41236293 0.32981285 0.18620402 -0.003849858 -0.13582188 -0.38761553 -0.27394956 0.10754611 0.043397173 -0.1874673 0.11847776 -0.45669696 0.10320792 0.08442584 -0.24483238 0.025171198 0.4095993 0.15065919 0.09017988 0.22654694 0.09947385 0.3229983 0.32300532 -0.24445151 0.181627 -0.003580725 -0.26490733 -0.17515595 0.23620129 0.42972666 -0.034821853 -0.3447766 0.058193777 0.38317406 0.37473446 -0.20886272 0.06319284 -0.17601103 0.23981965 -0.13707496 0.18749918 -0.15927227 0.15673997 -0.1032367 0.015467587 -0.41439596 0.22196649 0.5387571 -0.36857307 -0.2393733 -0.11443413 0.08916435 0.12664244 0.08809975 -0.08216194 0.074045494 -0.026533779 -0.06725416 0.3521689 -0.5773956 0.15556422 -0.03689265 0.1722575 -0.16917795 0.14015648 0.65567213 -0.008557511 -0.13123451 -0.042903855 0.2914652 -0.2579538 0.022475373 0.08989195 0.4013977 0.1195793 0.2740502 0.16733722 -0.23828523 0.11541018 -0.015858594 0.38011646 0.10185326 -0.011797582 0.073616676 0.09834423 0.13264415 0.32747355 -0.02007211 -0.0787423 0.15088618 0.022941511 -0.25702488 -0.010224105 -0.07588547 0.042258177 -0.07272263 0.40563443 0.023739206 -0.14248392 -0.032577373 0.12574357 0.23465498 -0.2894866 0.2434675 -0.13671951 -0.20170057 -0.04085683 -0.0034302918 -0.18778561 -0.02870277 -0.021253586 0.39269647 -0.3139939 -0.2580173 -0.074266136 -0.2229692 0.17512235 -0.14177953 -0.29157975 -0.059477173 -0.16960105 -0.29074976 0.055684432 0.014654487
473 -0.25647745 -0.38960207 -0.071549594 0.118760675 -0.076951765 0.25033134 -0.14926596 0.27506965 -0.40066457 -0.49814534 -0.4770001 0.34601253 0.02484823 -0.13077894 0.08724026 0.055410843 0.090640105 -0.09641484 0.07696327 -0.24695835 0.13538669 -0.15181138 0.22251293 0.26410753 0.13174708 0.10363815 0.05306036 0.029917255 -0.0048169806 -0.4229977 -0.02543807 0.0978489 -0.03575578 0.47027296 -0.01194442 0.07279613 0.103477605 0.35634434 -0.02813159 0.3536863 -0.110336736 -0.17206626 0.080771506 -0.20212398 0.05714626 0.047903456 0.2510867 -0.11920539 0.28339675 -0.05208798 0.12726596 -0.0016863194 -0.0048214346 -0.116476655 -0.118246846 0.113993794 -0.16733676 0.03933874 -0.0659152 -0.20475718 -0.24930349 0.014769371 -0.01749916 -0.07567874 0.30021638 -0.343464 0.3649217 0.41241682 -0.13635865 0.09703867 0.1804972 -0.00669001 -0.3558434 0.06687334 -0.11361406 -0.06400839 0.23447174 0.028537167 -0.075010814 -0.22871293 0.3435502 0.30790687 0.092086725 0.05489547 -0.27015895 -0.085602276 -0.0064266315 -0.045792818 -0.2035323 -0.10987395 0.14540502 0.013319986 0.44038722 0.18059404 -0.20746179 0.08225155 0.1354444 -0.13317762 -0.037111614 -0.3367098 0.44607577 0.10418298 -0.24439402 0.31277487 0.22532283 -0.20323165 -0.30255565 0.2822054 0.008845661 -0.037559032 -0.08495101 0.38786197 0.061237525 -0.49582306 0.08615783 0.1873718 -0.07593326 -0.07850079 0.08477567 0.06652859 0.2939874 -0.0103631625 -0.23930667 0.22132264 -0.15733515 -0.039987143 0.15324378 -0.3243927
501 0.19287622 -0.3456066 -0.19009155 0.45929557 0.17667255 -0.2579251 -0.17907041 -0.31061524 -0.24058902 -0.1450303 -0.007838083 0.2908655 0.13910748 -0.13834316 0.3000026 0.07707283 0.042017475 -0.020105269 -0.1520068 0.2575645 0.5516189 0.14729409 0.06997344 0.2777238 0.17477944 0.16777343 -0.071110345 -0.16000868 -0.17090687 -0.066805996 -0.3670759 0.060150106 0.14935964 0.23655608 -0.40074956 0.107324705 -0.06481412 -0.22206664 0.08356261 0.115104996 -0.17493562 -0.2080315 -0.38396212 -0.14424309 0.14364837 -0.23289296 0.08836578 -0.38326675 -0.12362345 -0.052935176 -0.15372784 0.46808106 -0.16957882 0.14146294 0.17717537 0.47819656 -0.04857914 -0.14552659 0.009365919 -0.18317634 -0.18276705 0.061307542 -0.007741233 -0.13752438 -0.053598642 -0.1730576 0.083498426 -0.28130138 -0.18993206 0.58134913 0.23618244 0.17040001 -0.41881585 -0.05845986 0.15667522 0.029426472 0.3242359 0.20891395 -0.15247717 -0.22721171 0.17184174 -0.09808904 0.064780965 -0.16441976 0.051528662 0.09926646 -0.052477926 -0.3911045 0.15065564 -0.06244803 0.19339737 -0.19419868 0.41212866 -0.13283043 -0.082378894 0.106312424 -0.059630062 -0.24976791 -0.430012 -0.45584345 0.11972845 0.08582568 -0.046946283 -0.05813678 -0.042354185 0.1102728 -0.09698194 0.21110907 0.23031393 0.03381124 0.014486331 0.56776804 -0.15501243 0.018044079 0.020003568 0.14406958 0.18726183 -0.5151331 0.17485586 -0.43676418 0.04016796 0.04199813 -0.07863197 -0.24377704 -0.3584186 0.019666918 -0.11011577 -0.34934935
67 0.08921646 -0.23913758 0.2428693 -0.060780417 0.0050258404 0.1591433 -0.040542845 0.32900155 -0.52972025 -0.25421372 0.124431476 0.19470413 0.20255974 -0.067981735 0.49860147 -0.026394116 0.0014056735 0.08650829 -0.20449108 0.2758437 0.27518818 0.09249241 0.26553553 0.099789456 0.26193464 -0.13585289 0.21428514 -0.1459044 0.1370624 0.145998 -0.27750984 0.2992231 0.005877759 0.31692544 -0.09916256 -0.42311886 0.04011021 0.009813144 0.11444794 -0.10559904 -0.04896 -0.16330484 -0.149765 -0.2886405 0.17194691 0.04943956 0.21298657 -0.15495649 -0.017789239 -0.27534845 -0.058235377 0.3900969 0.04236342 0.54394346 0.044437476 0.12918618 0.09084696 -0.37320796 0.078050636 -0.15469022 -0.23460919 -0.36756232 0.039622538 -0.09754174 0.3696415 -0.08713661 0.064208716 0.053293504 0.20987523 0.51888514 0.20953353 0.2978394 0.12170748 0.09089466 -0.14176098 -0.2246365 0.10594755 0.027072333 -0.20296547 0.102148965 0.49173182 0.11471998 -0.19908096 0.2504288 0.006234839 0.059604645 0.22686714 0.07142398 0.20707056 -0.07010527 -0.20721005 0.179598 0.039068744 0.36951834 -0.40639916 -0.4374634 -0.25935712 0.082452774 -0.21436448 -0.1802135 0.22518325 0.10139263 0.056430973 0.14042394 0.079546414 0.3145142 -0.1894382 0.30903095 0.24088818 -0.09464823 -0.012953893 0.26236978 0.09684534 -0.012403105 0.21014425 0.3564638 0.08645868 -0.34304053 -0.082884535 0.015103703 -0.06615997 0.14902207 -0.13274752 0.39602154 -0.31937554 -0.2916157 0.11741716 0.021772716
682 -0.27820155 -0.283668 -0.1804295 0.25626582 0.0414156 -0.07321345 -0.22261544 0.23499961 -0.36184663 -0.4473672 -0.30551356 0.12589078 -0.21737973 0.11694885 0.1361403 0.036135737 -0.13405974 -0.06899543 -0.31891057 0.333497 0.16355596 0.19658117 -0.0021187454 0.057514008 0.18345396 0.27144083 0.014925032 -0.1490391 -0.25477892 0.07588576 -0.14109015 0.46323323 -0.4420202 0.1405376 -0.149975 -0.08765902 0.08776578 0.36803573 -0.10905246 -0.108173124 -0.022025215 -0.18702777 0.3184841 -0.06828976 0.40914243 -0.37135464 0.06144663 0.07286706 -0.0018214431 -0.39836362 0.14603768 0.077876605 -0.042605247 0.11178823 0.1835073 0.11774836 0.035163764 -0.17109618 0.12040984 -0.08525896 -0.10728355 -0.15234965 -0.28787297 -0.49911442 0.27769494 -0.026761664 0.18863924 0.37224814 0.024314178 0.04380195 -0.28565755 0.09854367 -0.11919756 -0.015725918 -0.451401 -0.4282045 -0.08851545 0.2546451 -0.051107142 -0.32984275 0.18630958 -0.14028451 -0.041092988 0.24587756 -0.057605755 0.06997375 0.31193328 0.045633186 -0.16007592 -0.040096346 -0.018264314 0.003202705 0.5239569 0.044096425 -0.24950853 0.07528934 0.12596011 0.048750505 -0.0012305581 -0.090611055 0.17854203 0.110164 0.029716901 0.31499732 0.30040357 -0.29420543 -0.38949224 -0.00483373 0.095501855 -0.35506675 -0.06369028 0.2584425 -0.20942856 -0.13371755 0.08905598 0.1984373 -0.2114835 0.11207235 0.07450868 -0.25080886 0.067779444 -0.005717091 -0.36580467 0.35680836 -0.119341016 -0.034396075 -0.0061953105 0.13577066
757 0.10590499 -0.21812361 -0.18094797 -0.00171743 -0.24287061 -0.23136687 -0.05920049 0.22162539 -0.29594803 -0.5845287 -0.31027722 -0.072013296 0.2523713 -0.1503413 -0.14618962 -0.27549794 0.29355228 0.13798603 -0.12205809 0.14330657 -0.014734363 0.13591251 0.47935233 0.36071992 0.4478164 0.24622774 0.028131686 0.02660318 -0.36259517 -0.0339629 -0.21820295 0.10628411 0.02504145 0.2572421 0.12815922 -0.045133606 0.07354741 0.14051424 0.06283632 -0.209139 0.003592815 -0.2500802 -0.11751003 -0.16866818 -0.033347696 -0.07349315 0.17419003 -0.18325451 0.09408182 -0.3063763 0.053682067 -0.07054776 -0.1328726 0.2186091 0.2509144 0.053435683 0.21653184 -0.037048597 0.094199166 -0.18210916 0.063614324 -0.19691758 0.10746237 -0.48983446 0.06767429 -0.015296698 0.21064463 0.091302805 0.23580207 0.39339435 0.22702746 0.11348293 -0.1309994 -0.024964103 -0.0770046 -0.023438869 0.17034014 0.28175694 -0.08215582 -0.042584512 0.587822 -0.08307851 -0.008306706 0.26174098 -0.25084624 0.08736846 0.1393755 0.023393963 -0.051482193 0.087708026 -0.031991623 -0.044762827 0.32901296 0.12901306 -0.43167856 -0.3031502 0.22914499 0.05665449 -0.1490105 -0.4565224 0.025830325 0.3297449 -0.02011093 0.5592641 0.17077567 -0.13163409 -0.45200363 0.25180632 -0.16705203 0.07900978 0.07170191 0.23088312 0.11566995 -0.15546286 -0.097958855 0.14044967 -0.0033201445 0.067141786 -0.04109488 0.1635345 0.19966933 0.2445146 -0.538179 0.11963517 -0.11309928 -0.21491998 -0.0045071025 -0.00974884
307 0.09824777 -0.36940432 -0.43159905 0.26971418 0.23553589 -0.15828887 0.29670078 0.16450691 -0.39351472 -0.66995233 -0.031141527 0.07080891 0.03196546 -0.15043631 -0.15505244 -0.18422537 0.07686714 0.062809914 -0.31693003 0.048058167 0.155007 -0.30663276 0.026690068 0.16760789 0.21973452 0.20010875 0.23019226 -0.22232305 0.06705181 0.3320064 0.08232654 0.1818691 0.14617172 0.3080817 0.06566137 -0.20725684 -0.20273463 0.16524187 -0.038492467 -0.14878726 0.05470275 -0.07853013 0.30450517 -0.3836252 0.5007613 -0.003538605 -0.22087526 -0.29120556 0.09248711 0.3357662 0.011685487 0.22769451 -0.3646555 -0.34368685 0.35433158 0.0438198 -0.15341108 0.12562707 -0.19757505 -0.06225091 -0.05099243 -0.26333585 -0.18507533 -0.1010691 -0.14673747 0.13853796 0.46633002 0.32835057 -0.1784361 0.39717102 0.20481646 0.13443011 -0.24372946 0.018997984 -0.15413447 0.01664066 0.63341653 0.115438126 0.00845662 -0.19173357 0.04314213 0.013924675 0.17493942 0.313586 -0.1127411 0.3230605 0.37685084 0.021811139 0.06553653 -0.18503536 0.057625584 0.17364717 -0.24865331 0.41985905 -0.20440091 -0.34177685 0.06692825 -0.17190154 -0.17135154 -0.3018203 0.15741457 -0.04658078 0.025952058 0.051997293 0.18548194 -0.0900575 -0.24445823 0.09988541 -0.010070881 -0.21035609 -0.07467945 0.5367825 -0.18637097 -0.05094359 -0.020695824 0.093540214 -0.16832691 -0.19415109 -0.16465063 0.0114787705 -0.11139765 -0.20867647 -0.13254423 0.31159693 -0.14176473 0.21508352 0.022473695 0.101224914
211 -0.19796143 -0.27694792 0.031627476 0.04318484 0.12430669 0.04678731 0.03889587 0.058213662 -0.21816558 -0.43961853 -0.057060022 -0.080036476 0.35892943 0.08622717 -0.33641046 -0.21877438 0.123835586 -0.04468111 0.4908093 0.33606502 0.023444243 0.13635987 0.27982968 -0.12767091 0.26421967 0.07296008 0.14073053 -0.11061461 -0.21262583 -0.0342788 -0.20147319 -0.058787234 0.19349645 0.06951346 -0.35643435 0.10461149 0.05175429 0.2619087 -0.015970545 0.19000915 -0.01901666 -0.52546453 0.14198168 -0.22184697 0.26650676 -0.27904508 0.020153822 0.20626576 0.34633645 -0.23753418 -0.3169751 -0.071118094 -0.473194 0.040335227 -0.18656129 0.15084916 0.17623584 -0.29742336 -0.14072177 -0.2318474 -0.14888689 -0.5112924 0.09962941 -0.3692227 0.24897487 0.107953936 0.41850406 0.05604117 -0.09110992 0.24383265 0.43882728 0.037516993 -0.05000696 0.132438 -0.37385002 -0.34308887 0.36531335 0.4133113 -0.05065043 0.09187172 0.16567837 0.3461336 -0.049705777 0.26384068 0.23002908 -0.036665503 0.4451418 0.083034225 -0.22865492 -0.09062069 0.29254988 -0.12745282 -0.063997015 0.015670106 -0.32834196 -0.020330472 0.047130845 -0.3972281 -0.19121227 -0.7133738 0.15546063 -0.17600313 -0.0026772348 0.1918817 -0.09325951 -0.173055 -0.4700746 -0.022362588 0.4656019 -0.33369133 -0.12699445 -0.13240649 0.24546178 -0.173764 -0.13862528 -0.032481506 -0.27520126 -0.043690726 -0.088738814 -0.18253934 0.17316455 0.41152194 -0.3213993 0.13177837 0.113543615 -0.24461278 -0.2550825 0.06597845
949 0.21768749 -0.36095175 0.15345919 0.31351325 0.47823384 0.027495012 -0.20768656 0.37052995 -0.330715 -0.3207112 -0.114435636 0.37457016 -0.014381021 -0.12258922 0.22739662 -0.11042159 0.19685033 0.11304232 0.20471697 0.055052057 0.1975297 -0.45492697 0.031136286 0.24972302 0.15485889 0.25714767 -0.16366315 -0.29365683 -0.0116197 0.1625742 -0.29547736 0.15554838 0.017423784 0.5280845 -0.10512699 -0.11032355 -0.18114974 0.07064286 0.192909 -0.10970141 -0.06298919 0.11249849 -0.47589153 -0.052891288 -0.21127565 -0.16511795 -0.10755337 -0.25283897 0.014491451 -0.207356 -0.2849946 0.08670903 -0.2903124 -0.18834001 0.18765776 0.09514025 0.01672194 0.040380556 -0.036094118 0.13734625 -0.4512518 -0.4104422 -0.09558342 -0.23557688 0.15220621 -0.15674111 -0.012780073 0.23622012 0.14064181 0.19644168 0.14336628 0.034924638 -0.063952565 0.048382185 -0.19961973 -0.17568547 -0.27283105 0.37813672 -0.18487886 0.01257313 0.2214753 -0.14943832 -0.26664394 0.10714903 0.063694164 0.099868506 0.19847988 0.08160425 -0.14995834 0.11887687 0.22843921 0.11769531 0.20055647 0.34620687 0.06321861 -0.08477401 0.13544576 -0.26315215 -0.46616074 -0.31968686 0.056520835 0.017832262 0.14450434 -0.053057 0.3582185 -0.009663125 -0.0023715917 0.3927355 -0.0005633505 -0.23041302 0.33912438 0.24209502 0.25827026 0.0841861 -0.48564002 0.012644325 0.19232796 0.04596912 -0.22983307 -0.060166664 -0.09700068 0.3156604 -0.3181654 0.16765432 -0.16264917 0.17514968 0.008922642 0.17710072
1338 0.050465778 -0.53938735 -0.090235695 0.08202497 0.10157845 0.0030317567 0.10581322 0.20606376 0.050572008 -0.41345787 -0.17584875 0.59015226 0.12873317 -0.063126825 0.013792148 -0.16557355 0.0028014295 -0.044737455 0.06891805 0.30473018 0.25607654 -0.079055406 0.14928834 0.103497006 0.21206221 0.36875984 0.010936426 0.17175357 -0.1833337 -0.19224729 -0.30196103 0.11322466 0.11622155 0.5072122 0.018615874 -0.040614452 -0.0151043935 0.0654495 0.076860964 0.041393835 -0.05697257 -0.25905362 0.08032262 -0.40982395 -0.077446215 0.0718814 -0.058912426 -0.06569493 0.018951552 -0.08134528 -0.15967721 -0.0967774 0.2685809 0.2118562 -0.14541642 0.2661976 0.053613976 -0.3340058 0.14365973 -0.4998203 -0.62155133 -0.17537919 0.05396536 -0.13735846 0.28321543 -0.24147958 0.2722152 0.25164297 -0.3270615 0.35661265 -0.45935294 0.2822984 0.3267326 0.28823543 0.04602489 0.09091675 0.12135305 0.14534266 0.018177873 0.031825453 0.28567895 0.15995412 -0.2763139 0.2279499 -0.35899228 0.32486027 -0.24868548 0.18363024 -0.34489682 -0.07852685 0.303867 -0.08082654 0.20770818 0.093505315 0.30704707 -0.010657604 -0.1268157 -0.20671687 -0.17965138 -0.5039198 0.5386078 0.18961294 -0.011328503 0.039873928 0.37297186 -0.11639081 -0.45335472 0.064070076 0.1946881 0.07265784 -0.16288394 0.26355213 -0.210576 -0.17590852 0.4700381 0.27199757 -0.24627115 -0.043932807 -0.240287 0.11885688 -0.02605225 0.31455693 -0.1612755 0.14371897 -0.32045877 -0.10046274 -0.075497106 -0.19400482
62 0.07965484 -0.1588891 0.0009593817 0.5151539 0.24654818 0.23243445 -0.43078896 0.11266308 -0.18053766 -0.08922874 -0.18155038 -0.1774509 0.048570447 0.2634869 -0.022370648 0.008713263 0.011046904 -0.11178764 -0.0030503753 -0.2294137 0.2519369 -0.021758202 0.1511015 0.011889551 0.028644092 0.085070655 0.22023396 -0.2708645 -0.260426 0.43003646 -0.39646426 -0.25379488 -0.18820731 0.1332306 0.1878853 -0.11698265 0.37358883 0.36537257 -0.094032586 0.14198522 -0.15302987 -0.34877813 -0.06888571 -0.5505716 -0.17373239 0.028728684 -0.07518267 -0.37864563 -0.12936857 0.026455207 -0.013934347 0.2078787 -0.26420438 0.27012914 0.41156858 0.24860424 -0.29385415 -0.14340714 -0.003932816 -0.21550255 -0.39096853 -0.19787242 0.08770706 -0.13991039 -0.29626524 -0.12121924 0.09548131 0.19889982 -0.23718858 0.68844765 0.418746 -0.18809329 -0.312097 0.07226255 -0.3493239 -0.15219393 0.2587107 0.7853887 0.21620917 0.14390509 0.024787392 -0.056951445 0.12994461 -0.16705373 -0.31441042 0.031111723 0.06849359 0.08798105 -0.21451296 0.13538049 0.15362944 0.22240052 0.6755666 0.48275578 0.19977319 0.0687919 -0.12047099 -0.22794926 -0.0018394892 0.11898985 -0.004956222 -0.2525506 -0.02272929 0.30985495 0.2844496 0.0830766 -0.20658413 0.14859094 0.040542237 0.06678589 0.2619631 0.12473991 -0.27248716 -0.2512934 0.2840835 0.19075531 0.2595163 -0.19389528 -0.085880496 -0.09418052 0.24728943 0.056613043 0.067314565 0.10941764 -0.17319903 -0.3190331 0.1228746 0.26259637
710 0.17192806 -0.15175013 -0.109629475 0.15843973 0.084265456 0.14350149 -0.30930197 0.102344394 -0.46615118 -0.882675 -0.037650842 0.12562051 -0.13277046 -0.033401307 0.12296779 -0.07340005 0.26908123 0.22677724 -0.068894595 -0.0013728181 0.34613374 0.16915941 0.2521364 0.3144706 0.6959528 0.26863313 0.054066274 0.11985454 0.021275943 0.17832062 -0.19567499 0.23269406 -0.31285563 0.38352865 0.21921876 0.006360356 -0.058080956 0.171975 -0.0691997 -0.06894198 0.34507817 0.14251493 0.20373376 -0.2013709 -0.061809674 0.02555415 0.15831806 -0.20158565 0.06296521 -0.07362667 0.08822993 0.1880043 -0.31853268 -0.071386956 -0.01897115 -0.24259013 -0.4416349 -0.21983543 -0.09669428 -0.051501233 -0.29392967 0.08698808 -0.040879857 -0.09781624 0.2781656 -0.3901229 0.037156112 0.20910704 0.056343812 0.10533254 0.107352436 -0.201879 0.04836275 0.1141528 -0.23146011 0.028947925 -0.13184834 0.1416167 -0.13227868 -0.18699157 0.13154642 0.03510002 0.02664104 -0.14534622 0.12073354 -0.005933373 0.024520498 -0.072600044 -0.2623926 -0.1641727 0.09234887 -0.06701832 0.43419257 0.25781193 0.19363844 -0.11038498 0.043433473 -0.15001217 -0.2756321 -0.46525458 0.090368286 0.22897242 -0.15100013 0.42102414 0.112926975 0.26636055 -0.26133147 -0.17962888 0.10716871 -0.44823214 -0.29411116 0.16169569 -0.2431233 -0.06786877 0.19145826 0.27803934 -0.29815936 -0.3577815 -0.19682208 0.064612955 0.07627976 0.24097776 -0.10062005 0.24789391 -0.0021287338 -0.3028775 -0.17568749 0.007179475
585 -0.3117265 -0.34409624 0.33284196 -0.101391815 0.107464604 0.005539007 -0.30752715 0.13502912 -0.33168888 -0.56074876 0.012733031 0.28892937 -0.07833023 0.11026981 -0.14578404 -0.3975925 0.0109549295 -0.3596692 -0.21288764 0.2081144 0.6795121 0.36995578 0.2618423 0.22506826 -0.012862353 0.26962435 0.100200616 -0.27019107 0.083363384 0.16539015 -0.41294098 0.472651 -0.027486322 -0.074615434 -0.002192299 -0.13546985 0.17918065 -0.24421872 0.053659085 0.24544111 0.23223472 -0.442269 0.10933104 -0.1460704 -0.006396231 -0.021272704 -0.16809759 -0.14102887 0.13975616 0.0928124 -0.07295406 -0.10469508 -0.35850492 -0.07942565 0.04929454 0.055936582 0.10064201 -0.021757165 0.36094862 0.24140504 -0.15644164 0.022063151 0.426292 -0.010351503 0.2772685 -0.14413996 0.019739587 0.29654765 -0.1345396 0.26843002 -0.11967567 0.34309733 -0.030400826 -0.1723076 -0.39546645 0.15243848 0.25075465 0.01291167 -0.07620462 0.21728034 0.39295384 0.024918452 -0.27556342 0.07271426 0.30629864 0.15263568 -0.16571553 0.08069958 -0.12633677 -0.094946556 0.6046706 0.26162702 0.3247914 0.10745696 -0.39094657 0.06694724 0.0024438337 -0.42954066 -0.11704396 0.14844981 -0.12004664 0.11004088 -0.1413416 0.3512075 0.15573964 0.09972542 -0.29964623 -0.058837086 -0.29160705 -0.12261096 0.045665793 0.40561453 0.058178123 0.07467162 -0.30669275 0.077733174 -0.08321929 0.074735925 -0.18550034 -0.13881823 -0.20196328 0.13262245 -0.22493117 0.34878522 -0.12881786 0.30101535 0.12502342 -0.11564647
839 -0.40236196 -0.49644044 -0.011656818 0.10116835 0.057958115 0.4375114 0.06879852 -0.13249026 -0.13173051 -0.16804358 0.0023433643 0.118672036 0.13079138 -0.04977405 0.091273054 -0.35765344 -0.25197583 0.034665868 0.017892234 -0.1013765 0.13336891 -0.21471946 0.20541205 0.17059547 -0.043162107 0.33095628 -0.16126804 0.21920018 -0.22970884 -0.1162474 -0.25896397 0.4474196 0.17424893 0.17365928 -0.14929603 0.23879804 0.1997942 -0.0041967444 -0.37889773 0.4299446 -0.29076222 -0.17652643 0.15491186 -0.17368083 0.17403089 0.034981444 0.2676853 -0.1267032 -0.03903085 -0.03428403 -0.12759778 0.3087576 -0.42047307 -0.18617944 0.17517063 0.25315225 0.09057546 -0.15904662 -0.034569528 0.10606783 -0.21599083 -0.23176521 0.24310243 -0.07741575 0.08522909 -0.05070622 0.09192665 0.20067747 0.032216597 0.30013043 -0.052449737 0.4282246 -0.25126117 -0.3607535 -0.3190011 -0.28501627 0.09508898 0.08796971 -0.0034965216 -0.05522391 0.20093463 0.13469237 0.14184597 0.27180654 0.18192929 0.32972178 0.1235945 0.081361964 0.009751722 0.122559376 0.08386705 -0.13000245 0.2870886 0.20910437 -0.08090364 -0.20888045 0.5122103 -0.16463365 -0.14117487 -0.31856468 -0.0025985653 -0.08834715 0.35728776 -0.14440385 -0.059113026 -0.02963456 -0.13518299 0.44733492 -0.26599362 -0.09375624 -0.025624996 0.11618187 -0.23404208 0.36485514 0.14648654 0.30006033 -0.0055635986 0.04573965 -0.21916169 -0.4543168 -0.29331902 0.24476185 -0.1349978 0.39584607 -0.51002365 -0.2968484 -0.0833611 0.04563723
711 -0.04505771 0.1139401 -0.06062637 -0.26707232 -0.10651529 -0.055717457 -0.17849465 0.19525006 -0.41872314 -0.4976576 -0.27305797 0.36412826 0.020362698 -0.26218557 0.12365475 -0.3861182 0.16064745 0.027323425 0.3015656 0.30034044 0.19597405 0.30718702 0.22842866 0.16198638 -0.19895363 0.24251632 0.07766256 -0.1196362 -0.47387275 -0.381723 -0.031590596 0.042907987 -0.036031332 -0.1938517 0.027338954 -0.23064211 0.21307944 0.09457236 0.3450148 0.3163958 -0.024292722 -0.25527984 0.13790335 -0.42400968 -0.19501784 -0.24065252 0.16438574 -0.09632863 0.16730252 -0.34555653 -0.24956211 0.066492096 -0.23159872 0.0051142974 0.19796605 0.20920756 0.057132803 -0.038145084 -0.40821692 -0.31716618 -0.36144766 -0.056202848 -0.17026016 -0.061187703 0.06913337 0.1806871 0.25088185 0.07278727 0.050834667 0.44887608 0.3102893 -0.143415 -0.38739586 0.099709265 -0.20225778 -0.2156999 0.27525455 0.296373 -0.3085019 -0.21366249 0.012564672 0.2631842 0.22258238 0.07075832 0.3686614 0.074436955 0.26754808 0.034258455 0.014764754 -0.3381488 0.21190116 0.20552006 0.25907663 0.5135029 -0.09501398 -0.1877372 0.24155591 -0.26464805 -0.14670797 -0.05153861 0.14817928 -0.17241992 0.3019715 0.61000776 0.25185543 0.29625565 0.06354605 -0.17727193 0.12684484 0.23727326 0.26395023 -0.07769253 -0.13429609 -0.11022996 -0.03651329 0.42905712 0.10954216 0.05867591 -0.039497208 -0.00075067783 -0.07054639 0.2017279 0.011190223 0.22400543 -0.10855661 -0.12550457 -0.1785466 -0.10981589
37 0.06849982 -0.3640728 0.07733429 0.4429177 0.3971075 -0.13864236 -0.028832087 0.1540469 -0.6356835 -0.08606894 -0.37638244 -0.120529205 0.06477977 -0.01758661 0.03858705 -0.03732752 -0.0040327413 0.17798848 -0.092488505 0.49464923 0.39008477 0.43334004 0.26232296 0.06791044 0.123925835 0.19483334 -0.08039007 -0.12912026 -0.22737807 0.13773611 -0.41416284 0.33028927 0.056641605 0.162834 -0.35797223 0.087547794 0.27386475 -0.121397346 -0.078328885 -0.12573378 -0.08285159 -0.102077395 -0.23207001 -0.14500491 0.00011113996 -0.22661968 0.06428468 -0.19876465 0.046038505 -0.0055424906 0.04044223 0.1653965 -0.39810723 0.31204477 0.1708002 -0.062183183 -0.16414954 -0.12586744 -0.26360866 -0.07273611 -0.28871322 0.086006954 -0.11934986 -0.10611449 0.0070709507 0.03394975 0.07332023 0.047527205 -0.12108835 0.5284439 -0.25122043 0.19292897 -0.5371085 -0.099593036 0.101609945 -0.17257847 0.33355993 0.40373993 -0.31438762 0.03822401 0.21180607 -0.14948487 -0.13662301 -0.22066444 0.26983786 0.025774281 0.105957255 -0.3394365 0.10375944 0.16014159 0.3082816 -0.20979978 0.32699805 -0.19249223 0.19036786 0.09383242 -0.1634151 -0.43710986 -0.55631465 -0.24545614 0.052867282 0.1034727 -0.014576471 0.21963781 -0.12426224 0.18877645 -0.15656582 0.1280285 0.1649808 0.17694919 -0.17537236 0.34856638 -0.13889913 0.0916459 -0.020322371 0.13829102 0.365531 -0.50837845 0.0018415585 -0.38651305 0.07380399 -0.107026786 -0.15792175 -0.27079058 -0.4291384 -0.06334475 0.05337449 -0.19534504
653 -0.08534094 -0.12125579 -0.07861434 0.17236927 0.35600352 -0.12763844 -0.33042538 0.19686218 -0.2630488 -0.32077357 -0.0685457 0.37251937 0.19959562 0.24567363 0.11604058 -0.14619577 -0.1404365 0.18452236 -0.18120746 0.2030496 0.3883588 0.0023679766 0.05340836 -0.01871772 0.025474645 -0.0033794292 0.09472842 -0.09099814 -0.1839845 0.13643894 -0.20025498 0.24156922 -0.21540917 0.44702458 0.0017154226 0.16630833 -0.22123365 0.2516861 0.09423007 0.20421208 0.3013232 0.20129162 -0.057952307 0.20808528 -4.2061445e-05 -0.020233195 0.14064187 0.1082302 -0.020361103 0.14495374 -0.07785683 -0.008493654 -0.47855735 -0.25716022 0.018763548 -0.0279339 -0.20647869 -0.28056675 0.25127888 -0.3391668 0.023734808 -0.22056703 0.37005034 -0.067715794 0.08791873 -0.060768753 -0.10988445 0.42256296 -0.4266489 0.73710275 0.14132313 0.04540624 -0.036863178 0.38521037 0.28363168 -0.37990788 0.41821676 0.18376292 -0.13503402 -0.20314977 -0.012504537 0.22738126 -0.2912504 -0.08806259 -0.08362351 -0.10102964 0.09868167 -0.07813466 0.0026895048 0.009960117 0.06358648 0.21390386 0.2634582 0.08029694 -0.32164723 -0.09227327 0.31323457 0.080622375 -0.042609353 0.2090018 0.20055453 -0.15004699 0.14765027 0.361266 0.15879487 -0.071579985 -0.41848648 -0.04008651 -0.6295839 -0.30101913 -0.30818778 0.21770962 0.14514315 -0.058237456 -0.15511276 0.27449954 0.11092991 -0.04311113 -0.4630919 -0.05541977 0.2226094 0.2452934 -0.1900114 0.075399585 -0.2440595 -0.19171941 -0.06825599 -0.07803318
461 0.1053505 0.0008616986 0.19187997 0.15703279 0.10315678 -0.15192644 -0.035203617 0.16254847 -0.33298162 -0.8752296 -0.26589277 0.27780494 -0.13570026 -0.120186985 0.14940529 -0.36117363 -0.018396126 0.32112885 0.10378626 -0.097156554 0.06804459 0.112941355 -0.0065051545 -0.03445716 -0.0070809554 0.10098692 -0.27828857 -0.08069998 0.08129287 0.08741785 -0.37066025 0.17498493 -0.050521914 0.09799226 -0.08422482 0.17727639 -0.101949885 0.086580515 0.09025503 -0.06779702 -0.31960785 -0.23173337 0.034798313 -0.29808664 -0.2533975 0.18055302 0.051650442 -0.21416797 -0.19524065 0.08046065 -0.20740736 -0.17364724 0.044030648 -0.12569195 -0.097207315 0.38442376 -0.1707779 0.10236595 -0.022772294 -0.29044664 -0.25872365 0.14111297 -0.20386632 -0.12250486 -0.23281989 0.050965164 0.40491155 0.43298957 0.2766553 0.4169878 0.05221658 0.12120337 -0.06415269 -0.038848214 -0.25010198 -0.18051518 0.18786547 0.18366648 -0.14311627 -0.043260437 0.021472398 -0.17694554 0.33654493 -0.46821585 -0.21747619 0.074149504 0.23312426 0.07296412 -0.4505129 -0.04021517 0.0114379795 -0.13083896 0.2863922 0.17821477 -0.050632678 -0.017949814 -0.21762037 -0.3256305 -0.31157807 -0.17200898 -0.069692194 0.060869854 0.14467637 0.17545195 0.14172868 -0.016740402 -0.119832255 0.07756681 0.29677522 -0.58801806 0.05322377 0.42754403 -0.054996718 0.05324437 0.28008714 0.19195232 -0.18355946 -0.029222528 -0.35216627 0.09405909 0.37228385 0.22563617 -0.38876924 0.10031073 -0.5392571 -0.25333586 -0.06529329 0.18233167
66 -0.23762973 -0.09628793 0.0653776 0.19515175 0.086976916 -0.1251611 0.28911132 0.15427408 -0.30873895 -0.0980684 -0.30413634 0.061013 -0.020304034 0.05362638 0.5273387 0.29777226 -0.11030353 0.16535631 0.036581814 0.41026324 0.30067825 0.41579372 0.20932391 0.11584938 -0.08853054 0.2816634 0.11748319 -0.15353847 0.18867123 0.38194653 -0.77571136 0.3825887 -0.37332675 0.028310835 -0.20669985 0.114462435 0.3466779 0.31212458 -0.22695653 0.079850234 0.0362121 -0.07844843 0.17468621 -0.3484834 0.009018386 -0.17869762 0.088360235 -0.097010545 0.29763907 -0.16711994 0.06297157 -0.18644455 -0.0009607585 0.3436622 -0.005929785 0.21807952 -0.7295118 -0.27313325 -0.0712064 0.058483478 -0.043208446 -0.23319224 -0.104335256 -0.37966603 0.23571013 0.14138244 0.002644124 0.3006966 -0.18404986 -0.02314452 -0.15971608 0.21646923 -0.055821154 0.29157683 -0.18310677 -0.01664003 0.32956928 0.34259441 -0.08494728 -0.1920127 0.37620965 -0.025069918 0.18607576 0.439568 0.09156973 0.025646398 0.2100656 -0.1224176 -0.22793189 0.016161399 0.5127596 0.09038472 0.16392018 -0.0861384 -0.03633582 -0.0152243925 0.09803006 -0.10995297 -0.1929746 -0.13187994 0.28721192 -0.15713102 0.06587003 0.24389845 -0.14756571 -0.13600834 -0.05843529 -0.06823186 0.083963074 0.05313712 0.13804671 0.4141431 0.22606567 0.16464214 0.015675176 0.120679274 0.30685538 -0.19069499 -0.41715416 -0.09975101 0.110604934 0.018064711 -0.048870355 -0.087020345 -0.29203123 0.14439021 -0.11608852 -0.0290719
481 0.02201225 -0.41842973 -0.008463659 0.29427624 0.34174648 -0.1700694 0.20428887 0.22615118 -0.2591604 -0.190392 -0.055552937 -0.046198346 -0.020012073 -0.2668817 0.14600568 -0.21914491 -0.27405328 0.097618476 -0.093291044 0.2895826 0.13766092 -0.051412657 0.18847798 0.052228343 -0.017176405 0.27746168 -0.049627576 -0.046651263 0.20425262 0.1267732 -0.3042122 -0.07748586 -0.28027922 0.15230311 -0.03669569 0.032877326 -0.033596843 0.33170336 0.14691913 -0.035378184 -0.115287334 -0.14487074 0.20870018 -0.17672172 0.23168273 -0.19538648 0.21006726 -0.29076037 -0.05405414 -0.24612811 -0.11420492 -0.07399399 -0.30799288 -0.1243125 -0.4172587 0.4141003 0.100859806 -0.009683103 -0.11345428 -0.17509335 -0.15509865 -0.23545486 0.10829194 -0.227339 -0.048333526 0.056266535 -0.08116038 -0.21175656 -0.15487087 0.4273452 -0.040913895 0.10263272 0.012085852 0.30094427 -0.31692156 -0.16830027 -0.0050764666 0.11272759 0.102148235 0.06257556 0.23309197 0.17839366 0.079399295 0.27000028 0.22055212 -0.23665784 0.1526728 -0.38133302 0.054554705 0.03511055 0.026341826 -0.17686477 0.51804256 -0.09541183 -0.06655733 -0.26444334 0.19437297 -0.30957663 -0.22924319 -0.11784451 0.015028976 -0.01610516 0.15446672 -0.17359993 0.11362802 -0.06060869 -0.2571861 0.073144354 -0.08565562 -0.12004766 0.14889398 0.22467217 -0.4085334 0.026658531 -0.17919675 0.30937105 -0.14966334 -0.10939532 -0.435518 -0.31796274 -0.14149293 0.18832694 -0.24421301 -0.055311568 -0.2428931 0.21581611 0.19161722 -0.012745104
47 0.07269885 -0.3045063 -0.112435274 0.059732094 0.08464702 -0.08518433 -0.21610801 0.04898937 -0.48505715 -0.35761753 -0.26072994 -0.06686416 0.045572057 -0.07945133 0.25179577 -0.58735317 -0.20393461 0.049678925 0.044037268 0.5802088 -0.16516341 0.19502987 0.10161455 0.032306302 0.13569549 0.22069882 -0.21277553 0.053325582 -0.05419036 0.1783085 -0.38865834 0.19180283 -0.15113738 0.38178375 0.15260325 -0.26682457 -0.1968504 -0.12965637 0.24590726 -0.013193686 0.013415196 -0.1972258 0.19054328 0.121380225 -0.0020073825 -0.3440845 -0.0107983025 -0.21823461 0.25032735 -0.5353572 -0.10892772 0.233471 -0.00047372287 0.23292617 -0.041331407 0.052996214 0.17058268 -0.45674518 -0.015488104 -0.2524506 -0.08788207 -0.17248501 -0.16902201 -0.2739868 0.29688454 0.09070961 0.09225176 0.14670353 -0.031988367 0.17990814 0.13059947 0.37950003 0.08974452 -0.1070096 -0.13810998 -0.007045854 0.026460875 0.47510752 -0.29180056 -0.18091716 0.0870655 -0.105179675 0.18990895 0.4222868 -0.0477723 0.20779903 0.24211815 0.026696127 -0.421941 0.069356576 0.3634005 0.0823593 0.46296158 0.42580077 -0.19617204 0.08168316 0.36057857 0.06430238 -0.31760216 -0.10321933 0.13750818 0.10936945 -0.07817125 0.2833791 0.03819817 -0.07860673 -0.12647644 0.004264312 -0.026159324 -0.13494155 -0.104040384 0.15504515 0.015910264 -0.10295065 0.20615864 0.33232048 0.07858743 0.074168734 -0.00075778336 0.29412302 0.40427396 0.08248113 -0.46735322 0.39157295 -0.024664365 -0.025535814 -0.15844935 0.2790021
1112 0.21583708 -0.25553167 0.022965502 -0.057633124 0.31518722 0.27444267 0.024241274 0.57845056 -0.58406913 -0.35366863 -0.2507926 0.40418094 0.11476425 -0.057008322 0.36471838 -0.48694536 0.0077797445 -0.14537759 0.122015744 -0.07391121 0.07800526 -0.16625127 0.33684254 0.43877956 0.12147549 0.15631983 0.23588362 0.076473795 0.098060116 0.14563972 -0.4317179 0.5832662 0.15598069 0.13144751 -0.284873 -0.10693818 -0.046204258 0.07389568 -0.11733666 0.1965642 -0.28207985 -0.0052702962 -0.14109729 0.037059303 0.06502295 0.06743054 -0.2493292 -0.37972283 -0.2588235 0.012457293 -0.2262039 0.019237911 0.16486499 -0.2506716 -0.07278334 0.12891574 -0.13988574 -0.28216487 0.19580038 -0.12990789 -0.44782877 -0.5498313 0.17796537 -0.1711661 0.13305703 -0.17680764 -0.095333084 0.0389273 -0.31645736 0.12668252 0.17667177 0.17711402 -0.1324626 -0.038391124 -0.035907414 0.31424925 0.0435404 0.07380621 0.013581523 0.040225953 0.1193724 0.1080221 0.018056698 0.05310988 0.24239954 -0.046675228 -0.3940059 0.21193326 0.04901181 0.26244467 -0.05733589 -0.048906054 0.4067775 -0.08259508 -0.08096496 -0.2799424 0.036950864 -0.2510278 -0.2951217 0.06971715 0.1588569 -0.16385031 -0.07638146 0.2960907 0.058524955 0.00074050395 -0.07909158 0.05521525 0.25054848 -0.23386082 0.40522724 0.02036777 -0.05430576 -0.11825739 -0.025391532 0.17120126 -0.22497621 -0.33074832 0.07323047 -0.33668196 -0.13777107 0.3739962 -0.13103506 -0.13294119 -0.32343903 -0.040978737 0.28229296 0.36269826
