1899 128
248 -0.20045419 -0.15404193 -0.07997316 0.07578578 -0.11906529 -0.15824911 -0.0043042833 0.22951809 0.007046055 -0.17587489 -0.3868928 0.25542793 -0.016391283 -0.26723653 -0.060850933 -0.05228739 0.1383342 0.18307698 0.2728231 -0.008252112 0.316265 -0.13426168 0.0523404 -0.055645805 -0.050535314 0.12493952 0.01678645 0.10841229 -0.060880154 0.09805204 0.14669316 -0.00478805 0.37958336 -0.100121945 -0.123511374 -0.45268783 -0.07268595 0.18994683 0.22821859 0.13842058 0.05976357 -0.17673141 0.021424389 -0.072160594 0.21136239 0.19335331 -0.23760152 -0.06683527 0.13433895 -0.3850312 -0.46593204 -0.17518665 -0.03569043 -0.3851956 -0.04038968 0.22001748 -0.12984723 0.16341574 -0.14904886 0.062045623 -0.27421072 -0.49063522 0.27647853 -0.12559685 0.10830398 -0.09919674 -0.11839101 -0.04834828 -0.107644536 0.22261713 -0.103135064 -0.029639037 -0.010118116 0.07500454 -0.31279597 0.03265236 -0.32962805 -0.1011629 0.08062758 -0.2375103 -0.48682275 -0.0017354693 -0.13080117 -0.11703569 0.0360783 0.06597733 -0.11368125 0.07875519 -0.024807094 0.31031528 0.005082168 0.4570334 0.43075523 -0.14809938 -0.014567377 -0.44818756 0.22524245 0.014570954 0.10417406 0.07441556 0.4134485 -0.15743804 0.37951562 -0.03316805 -0.23711874 0.12270718 -0.20635282 -0.3197407 -0.092556454 -0.16587421 0.36265394 0.063414104 -0.31376818 0.2953226 -0.03413724 0.35050687 -0.21319279 -0.48235893 -0.34361818 -0.16250159 0.5286206 0.074580744 -0.32775554 -0.15577398 -0.06659123 -0.0033982634 -0.07776259 0.51737314
1311 0.33921522 -0.30935648 0.3215343 -0.0015477 -0.011374147 -0.31745675 0.081554584 0.20839755 -0.2509469 -0.18832196 0.06308559 0.064317964 -0.13933618 -0.3282117 -0.17743042 -0.15757418 0.08589893 0.089475915 -0.39750162 -0.00169078 0.13009761 -0.08241466 -0.1375779 -0.06130884 -0.4912179 -0.023304781 0.36854908 0.29250088 0.13280591 -0.11140863 -0.001225705 -0.24244139 0.3319677 0.19617218 0.2207723 -0.49008897 -0.08273502 0.17508893 -0.048778016 0.05559915 0.31338853 -0.51911557 -0.13210489 -0.4640882 -0.090903066 0.22141653 0.0759983 -0.21435869 0.55375993 0.038756073 -0.13657042 0.1880858 -0.11316486 -0.12267003 -0.051734835 0.44937617 0.02283605 0.19071615 0.1716523 0.01437534 -0.14291278 -0.061263278 0.13523175 0.08967433 0.0039011713 -0.1410562 -0.030648267 -0.48282167 0.14015557 0.3322125 -0.11396354 0.055687852 -0.11621965 0.023262538 -0.39794198 -0.20695098 0.42371958 -0.084401034 -0.18605486 -0.42208079 -0.26939952 -0.003986222 -0.15308143 0.21072817 0.191742 -0.32582337 -0.27026597 0.54910886 -0.3897507 -0.12133633 0.024956994 -0.14707702 0.11474542 -0.05063656 -0.022999065 -0.040472124 0.31510034 -0.07608352 -0.284496 -0.056452055 0.08542044 0.09444652 0.29248905 0.4012463 -0.11552472 0.21227227 -0.3749459 -0.33141544 -0.12272702 0.30097815 0.43471482 -0.27598536 -0.46419665 0.065870635 0.2559268 0.29071587 -0.26348668 -0.53031707 -0.22894134 -0.19225514 0.31961125 0.024180952 -0.27896437 0.09441618 0.06314314 -0.049375325 -0.23410118 0.50284
1597 0.1057857 0.11430646 0.13604562 0.37289315 -0.46766865 0.09378144 0.16171643 0.25834697 0.0628151 0.13973327 -0.18114507 0.25135082 -0.089276254 -0.5282663 0.43357605 -0.33304483 0.12884428 -0.14638025 -0.010636819 0.29098994 0.25930813 -0.24140291 -0.5452535 0.3501377 -0.3099513 0.3364689 0.062576406 0.19196656 -0.26979277 0.028175756 -0.32803664 0.33408734 0.3099742 0.26964757 0.37004644 -0.028491156 -0.23826467 0.4098518 0.36562836 0.2848233 0.06315919 -0.24153727 0.35775983 0.1592534 -0.10451129 0.20894974 0.05783863 -0.012989689 0.14943449 -0.24592872 -0.4102766 0.055422075 -0.29986057 0.06646355 -0.37478772 0.1769909 -0.15046588 0.23474681 -0.048736755 0.037174 -0.036739074 0.17531903 0.12563445 -0.2629954 -0.03304527 0.19760038 0.34226552 -0.20448008 -0.045295868 0.35648268 -0.19356512 0.22173038 -0.1637211 -0.032564603 -0.44624162 -0.38141492 -0.04353652 0.24903767 -0.3484346 0.11573766 -0.03333214 -0.023944542 0.070477076 -0.14802752 -0.06417847 -0.0052740397 -0.20331445 0.07377741 -0.35416743 0.28824347 -0.12001999 0.32674602 0.11450719 -0.007972029 -0.009349126 -0.23372057 0.41500023 0.26752862 -0.1397311 -0.037741616 0.11197997 0.17973424 -0.13461389 0.25782958 -0.12040495 0.23517121 -0.015496813 -0.20869274 0.48012534 0.17968401 0.38646495 -0.22210512 -0.14170474 0.08774032 -0.066730574 -0.032509327 0.038461078 -0.4784432 -0.18474117 0.05602753 0.73421323 0.24234834 -0.31682885 -0.1371586 -0.22043185 0.45047376 0.081774 0.26820567
1538 -0.048664782 0.27216133 0.1687248 -0.13300902 -0.5597733 -0.0020789662 0.28187415 0.060630705 -0.38896608 0.19841373 -0.05377474 -0.60133255 -0.13192368 -0.42684576 0.14148521 -0.44257215 0.10335897 0.3803981 -0.10930379 -0.19946311 0.1392329 0.16723943 -0.16250758 0.19019389 -0.12394117 -0.37214467 0.035379652 -0.23613845 0.13053912 -0.06395788 -0.10963666 0.18076882 0.056200843 0.3305321 -0.060467817 -0.22822559 -0.24899878 -0.04742671 0.13433209 -0.025977971 0.32572526 -0.0155767305 0.05003754 -0.0021263193 -0.15361005 0.2580258 0.040998116 -0.09237275 0.28018352 -0.60441947 -0.32365525 0.19585514 -0.19097656 0.16775618 -0.10323667 0.57628417 -0.28738928 -0.08269752 -0.19683306 0.196414 -0.092915505 -0.4397573 0.194959 -0.21542633 0.025734447 0.013781947 -0.08868278 -0.257023 0.048878096 0.38775244 0.12742414 0.2012452 -0.29128298 0.19413272 -0.45174658 0.21944728 0.060892127 0.17918654 0.37907258 -0.29919222 -0.019545427 -0.0010990701 -0.3104822 0.083944716 0.39825734 0.15526582 0.13203743 -0.22118197 -0.28198186 0.025245093 -0.074390195 0.10006512 0.55877423 0.043748055 -0.041979946 -0.44458625 0.5369439 -0.42139032 0.1706328 0.37120882 0.1123246 0.1944197 -0.0033475824 0.072862364 -0.19281614 -0.0055823084 0.028924746 -0.47637078 0.2838535 -0.08760344 0.3947373 -0.06434065 0.008566178 0.21589606 0.0510918 0.1735389 0.2083517 -0.45115942 -0.1805187 0.030490799 0.23346975 0.39046907 -0.25416675 0.17169315 -0.102821015 0.24799025 -0.0012986632 0.34530017
1712 -0.047341093 0.08572952 0.36229497 -0.06526176 -0.14784074 0.08686012 -0.23362917 0.31434774 -0.16177487 -0.30332574 0.13822295 0.16328354 0.32870173 -0.44035265 0.07828876 -0.122151926 -0.018668255 -0.11716167 -0.10606326 -0.028926264 0.39747873 -0.24830483 0.04793357 0.20315449 -0.0011304552 -0.025875166 -0.20460694 0.13751417 -0.29994693 0.18867116 0.1833424 0.4883478 0.16839895 -0.02158494 -0.0664603 -0.31786716 0.10037 -0.23356625 -0.20787121 0.0021472445 0.6041471 -0.62903 0.10364781 -0.2145422 0.0058715646 0.41806337 -0.047935817 0.0936003 0.22301218 -0.047976665 -0.24041598 0.10959801 -0.06830405 0.13290288 -0.10634345 0.41974083 -0.32507342 0.019578302 0.2008333 0.4618445 -0.19683523 0.11907828 0.3707165 -0.14451335 0.2430463 -0.07531762 -0.009138814 -0.20255147 -0.09359655 0.64195347 0.108631365 0.05999192 -0.26270592 -0.1446663 0.023911018 -0.11517842 0.23786978 0.12135769 0.29685274 -0.5467687 -0.44455773 -0.028423652 0.06649728 -0.030873097 0.23023815 -0.15812881 -0.068245605 -0.17686658 0.07255324 -0.15078631 -0.13308679 0.5376998 0.29140702 -0.26718247 0.087844275 0.087973334 0.063469686 -0.26539093 -0.3303168 -0.11314727 0.3229508 0.34500924 0.03836441 -0.049647972 0.018413518 0.38319612 0.17655171 -0.5419933 0.23985428 0.089823425 -0.092003524 0.22052024 -0.25161442 0.07133124 -0.1063535 0.5528825 0.20361419 -0.29506943 -0.3124335 0.07671452 0.18190122 -0.003657376 -0.4707191 0.094891906 -0.11611045 -0.1398689 -0.24240665 0.2543581
1646 -0.31893092 0.17356412 0.2029595 0.10469193 -0.1574707 -0.27037725 -0.3625415 0.5034409 -0.15965301 -0.08623381 -0.45159113 -0.061240908 -0.1783746 -0.036492106 0.011666727 -0.1793216 -0.00309082 0.12559949 0.23313761 -0.07945739 0.316295 0.059695255 0.15106584 -0.02398519 -0.50708187 -0.25924963 -0.17983875 -0.18453996 0.25980657 -0.23107485 -0.15008768 -0.047685295 0.24768996 0.04257724 0.20656608 -0.028261058 -0.62217987 0.22543201 0.06043986 -0.018401545 -0.013536164 -0.15104237 0.04329249 -0.14787388 -0.33292878 -0.054170307 -0.28254423 -0.17776968 0.54096967 -0.2953109 -0.45537293 -0.17066674 -0.14453813 0.12498491 0.027650978 0.16684094 -0.18953295 -0.03575059 -0.16197528 -0.014228328 -0.40072873 0.18111901 0.07143816 -0.096735045 0.46059653 -0.11921339 -0.16091628 -0.5408083 -0.019188622 0.19858769 0.010621068 -0.20456785 -0.14934014 0.24415629 -0.28552088 0.062431835 0.0015935651 0.05200492 0.03701539 -0.25841993 -0.18348236 -0.13454139 -0.10324402 -0.12800771 0.22414167 -0.1060713 -0.42469668 -0.14058729 -0.007857633 0.20133305 0.21683028 0.21560827 0.7962571 -0.18116333 -0.13457504 -0.20313318 0.633915 -0.37811044 -0.17343496 0.17288001 0.31362095 0.15495549 0.060092494 -0.03256959 0.021986851 -0.06908002 -0.13765438 -0.1212903 0.041799705 0.0111031085 0.3227077 -0.1784978 -0.2312479 0.16081734 -0.059162274 0.048083935 -0.16675073 -0.25253847 -0.4361248 -0.09307662 0.44857803 0.12661667 -0.12968726 0.18186001 0.13452967 -0.11936722 -0.23446134 -0.07742637
8 -0.05056966 0.18150386 0.07826216 0.25953764 -0.39026436 0.10458611 -0.20818423 -0.05328345 -0.23494326 -0.21763937 -0.29500765 -0.15221998 -0.35927844 -0.32375613 -0.1739452 -0.0057303603 -0.4982391 0.26617023 0.052374255 -0.15442795 0.12154191 0.08087645 0.0057784347 -0.014246998 -0.18478331 -0.35479882 0.020012397 0.28596273 0.22912328 -0.14425716 -0.12533107 0.101964906 0.19235915 -0.031389304 -0.10163734 0.099972904 0.07115289 0.23639823 -0.0023535686 -0.028743006 0.14483708 -0.29178828 -0.03466129 -0.08944588 0.11207713 0.2501642 -0.020570237 -0.21429019 0.3703942 -0.18829447 -0.4612054 -0.11132969 -0.09269948 0.17264375 -0.16599897 0.21644042 -0.12892422 -0.28300348 -0.26097867 -0.077566124 -0.5589001 -0.2441508 -0.16951866 -0.16728379 0.21982151 -0.048106175 0.074668206 -0.24927689 0.028835608 0.48500764 0.05919305 -0.025942696 -0.095816724 0.2387552 -0.32347575 -0.15336496 0.2279645 0.03054002 0.0068817 -0.4982983 -0.34002522 -0.034800727 -0.08916338 0.031307288 -0.1452396 0.10296976 -0.18508847 -0.093618 0.09077821 0.056257844 0.49042195 -0.16021137 0.27757588 0.024790468 -0.2263944 -0.18911967 0.20176196 -0.3096524 -0.49414784 -0.047956776 -0.26939118 -0.017868347 0.16036896 0.118753545 -0.27679947 0.053323656 -0.023056064 -0.16983986 0.0743647 0.04704345 0.7433946 -0.055663355 -0.40593648 -0.014273597 0.24027672 0.31066763 -0.082855724 -0.68785137 -0.47434142 -0.076788634 0.47522864 -0.05574843 -0.513658 0.2444716 -0.29365468 -0.08446245 -0.23293178 0.115650095
11 0.28497675 -0.19313426 0.32122725 0.136848 -0.12969744 -0.23999654 0.022476504 0.18833756 -0.32394326 -0.26398906 0.027195718 -0.009606556 -0.29316753 -0.27106288 -0.059093606 -0.29572815 0.2875868 0.16408707 -0.34470615 -0.15097342 0.26537547 -0.23025945 -0.19737692 0.40618885 -0.48429504 -0.18564339 0.3820708 0.5314465 0.15919954 0.029714186 -0.09201304 -0.35835993 0.30725762 0.35082498 0.20974988 -0.24590561 -0.18178326 0.15474185 -0.041206595 0.23697329 0.32652366 -0.5263926 -0.24086688 -0.27125895 0.15415458 0.2577874 0.14077878 -0.1687886 0.53913486 0.14147322 -0.24774548 0.053735755 -0.15569992 -0.06858743 -0.09274327 0.48322338 0.016246378 0.008324309 0.13471556 0.016621612 -0.14538763 0.05825332 0.17370954 0.115772024 0.038754743 -0.2873544 -0.16166328 -0.41711798 -0.028105654 0.3143734 -0.09674501 0.10371057 0.13501903 0.12689245 -0.37888038 -0.1380188 0.27178726 -0.08824599 0.03693973 -0.25520775 -0.15135437 -0.14135814 0.011474165 0.20567079 0.22142111 -0.5084298 -0.15902416 0.17462656 -0.009964104 -0.13504782 0.3421294 0.083924845 0.14492245 -0.014852159 -0.13552225 -0.4092901 0.3995855 -0.050062347 -0.2888999 -0.17800342 0.074754044 0.39615494 0.073097855 0.018991493 -0.21817622 0.13963817 -0.38074166 -0.3961946 0.30358526 -0.05464168 0.41980717 -0.10134572 -0.25703523 0.03630498 0.26320738 -0.035709735 -0.21761648 -0.38285407 -0.36651534 -0.19069675 0.3597164 -0.03281888 -0.144539 0.2721066 0.10232437 -0.021327052 -0.58922106 0.19518845
1564 -0.25541022 -0.0017367996 0.40957367 -0.08648837 -0.3695112 -0.008486404 -0.0897636 0.64820594 -0.20934023 -0.28516188 -0.27797058 -0.16899028 -0.01753284 -0.2826231 -0.16142341 0.2135963 0.1438807 -0.015894856 0.17566621 0.00681455 0.48109135 -0.11981482 0.09930728 0.3848343 -0.33305347 -0.38136438 -0.14072727 0.49547645 0.041662056 0.01883639 -0.014826255 -0.06499454 0.56998134 -0.30878818 0.1554322 -0.0999504 -0.09894397 -0.4356692 0.32455528 -0.1713886 0.5527776 -0.31998307 0.061419643 -0.12259898 -0.10348807 0.6444413 0.2532818 -0.50287163 -0.047594048 -0.07744155 -0.03729672 0.27851704 0.24289514 0.21644495 0.09250751 0.4292762 -0.1635165 0.082418084 -0.24751231 0.25239405 -0.21085633 -0.1712422 0.11985183 -0.28863135 0.10543152 -0.14430846 -0.13103652 -0.33987778 0.08943658 0.36702573 -0.12616716 0.20955248 -0.28946188 0.098317705 0.47937953 0.08506118 0.40726432 -0.024506241 -0.017339434 -0.22170793 -0.10794102 -0.03363075 0.1236677 -0.038237344 -0.09046099 0.05517869 -0.1401123 0.004359471 -0.45723498 0.04233149 -0.11878631 0.29812407 0.024338067 -0.22649992 -0.27609634 -0.10909484 0.12603547 0.1298344 0.2384125 0.0058571203 0.0032616416 0.04038475 0.1586827 0.118288554 0.062120717 0.34038815 -0.097455464 -0.37368584 -0.18198285 0.23513742 0.5155941 -0.20431052 -0.1406595 0.3196501 -0.007839025 -0.121049955 0.41118583 -0.54211867 0.103847355 -0.33884692 0.5459729 0.3662227 0.00944065 0.1242284 -0.097252876 -0.15412958 -0.31416568 0.18073797
26 -0.37156764 0.3248687 0.21229063 0.3850419 -0.14652912 0.06994478 0.07321467 0.5377021 0.03516166 0.11328117 -0.25568065 0.21572645 0.4040641 -0.47235328 -0.15218778 -0.18806319 0.111134954 0.008104449 0.07095209 -0.13538727 0.42569816 -0.38978836 0.19331859 0.47024602 -0.54879564 -0.04749802 -0.4314553 0.008398088 -0.26889527 -0.107245326 -0.11771776 0.10438317 0.53356254 -0.05652259 0.2900107 -0.43007308 -0.09821806 0.06951504 0.44692758 0.00061743526 0.13958548 -0.1138575 0.14542073 0.024769558 -0.25753763 0.2225491 0.16511914 -0.30943036 0.5035428 -0.09589889 -0.32687604 0.13126026 -0.04895242 -0.083470315 -0.2690145 0.22051913 0.10247824 -0.05876423 0.22297525 0.22047654 -0.2677869 -0.16365433 0.09112012 -0.36275795 0.22280097 -0.21303944 -0.2521838 -0.13575609 -0.14120173 0.9023391 -0.12223587 -0.17440884 -0.121815145 0.1527895 0.18280612 0.094336085 0.45582503 -0.114010766 0.01923691 -0.27288696 -0.16526413 0.2450998 0.02437784 0.12769498 -0.11343269 -0.18715137 -0.31834567 -0.02213104 -0.42456183 -0.13012046 0.14704543 0.33301568 -0.15289497 -0.30835086 -0.20366742 -0.12553427 0.29853937 -0.2156193 -0.2798844 -0.3145474 -0.12294928 0.15963492 0.23429723 0.6037204 -0.15401241 0.19609304 -0.15310125 -0.45940623 -0.19558713 0.14250228 0.5272641 0.002284611 -0.04314087 0.19016151 -0.1308841 0.29708916 0.3237378 -0.3517438 -0.11312802 -0.52196 0.20017065 -0.011162536 0.10856126 -0.08106589 -0.335063 0.2056604 -0.031761687 0.17917529
1254 -0.10804583 0.1864687 0.2794187 0.26897883 -0.2563316 -0.12753583 0.0032095618 0.7923495 -0.27417895 -0.039019123 -0.00337288 0.009317262 0.30646154 -0.58866394 0.048820663 -0.22028233 0.240716 0.09395352 -0.18418719 -0.263901 0.29313838 0.007597996 0.18922654 -0.2327751 -0.2278219 0.21333966 -0.008753193 0.37324533 -0.13959126 -0.05023169 0.1969381 0.036326654 0.28955963 0.36454755 -0.018975448 -0.53462946 -0.04484715 0.064644665 -0.3600115 0.15609309 0.008769244 0.020442706 0.06917591 -0.13589354 -0.09206801 0.19026466 -0.19727051 -0.2856669 0.32205448 -0.22998889 -0.14177644 0.12524182 -0.17010526 0.07751367 -0.2597453 0.3323229 -0.14787365 0.025830887 0.031816173 0.42374992 -0.5729066 -0.25212842 -0.049810603 0.02902724 -0.3857805 -0.15588214 -0.2884899 -0.36406 0.2799588 0.6445738 -0.0599866 -0.16089286 -0.07847212 -0.030403838 -0.31368914 -0.10575331 -0.07638682 -0.03704369 -0.1269421 -0.03139577 -0.0654704 0.10256841 -0.17915326 0.05820547 0.043974005 0.067627914 -0.08675978 0.010095354 -0.18163496 0.22530799 -0.09489468 0.052981723 0.2512963 -0.042011146 -0.33486307 0.07047158 0.16456132 -0.060795397 0.18972154 -0.11530595 -0.13462727 0.11644703 0.13202305 -0.11515716 0.104624435 0.020385116 -0.22095822 -0.031899527 0.20045182 0.07482404 0.26555532 0.24552667 -0.27122164 0.16073346 0.21569428 0.23794639 0.27910745 -0.25076628 -0.28005308 -0.16018206 0.32048255 -0.1024003 -0.32962286 -0.028689867 -0.004190143 0.038205396 -0.48723 0.5247229
1579 -0.38911945 -0.037306167 0.09811327 0.41858375 -0.09966272 -0.025309263 0.17490414 0.115293264 -0.11661265 -0.31820926 -0.34826 0.47097278 -0.119186044 -0.5296065 0.1599314 -0.3350439 -0.16388263 0.37151185 0.3190145 -0.044926442 0.2995066 -0.025613902 -0.5231132 0.0054949615 0.08408009 -0.014924892 0.2792154 0.087860286 0.041630425 -0.15025847 0.2110967 0.05711599 0.45678052 0.10495201 -0.40148452 0.09492412 -0.30274767 0.23272763 -0.40483555 0.3493032 -0.1122252 -0.34904578 0.060454566 -0.3930033 -0.1287018 0.46921095 0.1008937 -0.37336397 0.4289173 -0.000907956 -0.17584623 0.08570732 0.011189322 0.11655798 -0.0037464963 0.09100104 0.06345462 -0.13814317 -0.39984566 -0.09898067 -0.30029127 -0.1869909 0.12505728 -0.18898527 -0.04823185 -0.058674306 0.11413483 -0.4850204 0.09931235 0.2720044 -0.14474182 -0.020889685 -0.009022088 0.2839151 -0.071641356 -0.34557703 0.23621294 0.08522996 -0.15970337 -0.80583775 -0.34920636 0.23825127 -0.11214215 0.10008048 -0.111119404 0.080516204 0.00433305 0.044123046 0.05378764 0.15679726 0.2587227 0.06810355 0.32556814 0.117600724 -0.09596975 -0.09506855 0.24700561 -0.08916375 -0.10854504 0.088401064 0.07791111 0.049839538 0.27648926 0.30151203 -0.13984604 0.16651617 -0.19057679 -0.3447091 -0.0669838 -0.07905544 0.3909226 0.36834162 -0.19436896 0.14268968 0.23200907 0.22589533 0.035709288 -0.60134363 -0.40599975 -0.23139694 0.49999425 0.199356 -0.15466976 -0.1009626 -0.044495225 -0.16951095 -0.10311414 0.13621607
1312 -0.13726665 -0.04075608 0.057703286 -0.11961972 -0.00612778 -0.10478839 -0.054243706 0.21744302 -0.24644594 -0.017278431 -0.15863661 -0.25313666 -0.020723019 -0.3806755 -0.05680001 -0.11837209 0.002991005 0.41610587 0.060558796 0.1140813 -0.03957965 -0.17001204 0.103825785 0.24501942 -0.47047848 -0.1361185 0.009337502 0.5383308 0.3760929 -0.22238699 0.025304267 0.10405569 0.41329527 0.12764703 -0.09005299 -0.15699427 0.12995617 -0.06942759 0.086258374 -0.15218954 0.24215725 -0.3580987 -0.12664236 -0.14957532 -0.28360665 0.40564412 0.05414498 -0.41931602 0.43108794 -0.15246458 -0.42137125 0.22544591 -0.151583 -0.0019427489 -0.013629079 0.37077042 -0.09173662 -0.006489303 -0.35820466 0.04694052 -0.36345786 -0.009543272 -0.21470991 -0.11747275 0.0495779 -0.3475077 0.020888045 -0.110977165 0.22203064 0.63673735 -0.023167795 -0.02353231 0.0853221 0.1989679 -0.31675538 -0.24955283 0.24465393 -0.016144319 0.12055211 -0.2695397 -0.22688359 -0.15208434 0.2913084 -0.062403154 -0.12832236 -0.10146463 -0.2173275 0.09609938 -0.004818333 0.2006078 0.32997248 0.26101983 0.0015479312 0.014233415 -0.1593272 -0.58510405 0.1724939 -0.081820905 -0.3135483 -0.36606905 -0.19647129 0.14820953 -0.10468857 0.33101293 0.39813906 0.15642415 -0.1269351 -0.24853425 0.16131592 0.2586337 0.6624301 0.02278699 -0.5581521 -0.07455729 -0.013635844 0.09368127 0.022864517 -0.6299717 -0.15311503 -0.09732607 0.5083812 0.14255981 -0.18838757 0.11850671 -0.4478054 -0.25357094 -0.12754345 0.07658209
1157 -0.23275141 0.4610752 0.28643206 0.47616103 -0.31119305 -0.3334476 0.22172636 0.26949218 -0.3479604 0.15749691 -0.14087527 0.35475665 0.19503005 -0.5054336 -0.16169457 -0.22878157 -0.041149423 -0.024039058 -0.04540637 0.114910595 0.4286022 -0.02736733 0.2430441 0.5016666 -0.53957486 -0.17602861 -0.4054516 0.074886926 -0.28056818 0.10394741 0.083783716 -0.21552303 0.484389 -0.03695479 0.21243824 -0.25304955 0.17305452 0.015548489 0.21310453 -0.13244724 -0.03038158 -0.11477386 0.27275008 0.101652056 -0.31022447 0.3130384 0.038667556 -0.2132179 0.3699215 0.110166036 -0.4179019 0.17314604 0.0886139 0.31866503 -0.3481566 0.38094 0.020694192 -0.1258958 0.22094396 0.17231467 -0.10289449 -0.09598661 -0.050336365 -0.2596254 -0.05662181 -0.33143616 -0.079088055 0.06656124 0.22664371 0.93947643 -0.28844416 -0.1231196 -0.23080887 -0.14067504 0.015532471 -0.12689722 0.121141575 -0.022297803 0.1893872 -0.22945009 -0.110796295 0.20127837 -0.028831443 0.23620108 0.010758893 -0.33335835 -0.25532967 -0.18206008 -0.39469597 -0.012739278 0.11898104 0.2795813 -0.04396005 -0.26812372 -0.12906997 -0.11859813 0.3472662 -0.18449132 -0.14376076 -0.11374127 -0.072734386 0.026344566 0.14129086 0.18676528 0.30746198 0.2799487 -0.10814867 -0.5409128 -0.2521306 -0.007098388 0.38588318 0.1166717 0.01745051 0.071320176 -0.11921216 0.14566529 0.41571385 -0.20482503 -0.46256903 -0.35952255 0.24400724 -0.06077283 -0.07479509 -0.046446934 -0.2815669 0.42854163 -0.26202878 0.24767254
102 -0.28323016 -0.15528633 0.41388798 -0.050317854 -0.16399762 -0.18969592 -0.13270535 0.108584575 -0.24281608 -0.010374755 0.04583718 0.40064573 0.2509166 -0.071554355 0.30846947 -0.26187807 -0.0914775 0.42012197 -0.23424344 0.16647586 0.6964482 0.01709498 0.10235224 0.26312703 -0.3166406 0.47687665 0.16630176 -0.19929156 -0.089655556 0.06201402 -0.10841281 0.54775 0.2371189 -0.21202904 -0.15191746 -0.5847889 -0.31235552 0.03820567 -0.003212185 0.42638806 0.020861229 -0.17461886 0.18404461 0.07780594 0.25950357 0.17178002 -0.08918668 0.0769636 -0.055105023 0.005036426 0.04829616 -0.16005228 0.1537965 0.059156623 -0.2500832 0.46026805 -0.21793135 0.29370654 0.3155617 -0.11852491 -0.015335909 -0.14792082 0.05122776 0.004112397 0.02564234 -0.15127043 0.13533321 -0.13631526 0.1362679 0.6012205 0.19600722 0.048895564 -0.053535752 0.10500587 -0.0058363993 0.03591606 0.20670027 0.004624222 -0.22901283 -0.38452384 -0.010356132 0.07592677 0.2853652 -0.030884262 0.07920216 0.22258335 0.04469843 0.09136789 0.48626193 0.20497358 0.2975099 0.15341027 0.58167857 -0.24978776 -0.033649918 -0.13763526 0.19431685 -0.12789676 0.041666154 0.14665037 0.050278995 0.4596038 0.09721025 0.25019833 -0.070434816 -0.104411595 0.04550681 -0.29008266 0.25101873 0.09649288 0.32767352 0.3000392 -0.18702164 -0.22740264 -0.17527628 0.34635857 0.42771778 -0.32071853 -0.42984346 -0.02701185 0.6551054 0.17937149 -0.2874778 0.10723654 -0.047217436 0.0782463 -0.37259898 0.42657918
1342 -0.16691346 -0.031715106 0.5238146 0.18037704 -0.53280354 -0.50282127 0.0500125 0.3285091 -0.2581198 -0.116138525 -0.201598 0.27783635 0.16106462 -0.36884588 0.034689207 0.040908758 0.29379544 -0.11928301 -0.34241465 -0.14487055 0.10146188 -0.111005805 -0.010854815 0.04066409 -0.5599347 0.1660492 -0.036625225 0.10187388 -0.28117743 -0.035093073 0.119779214 0.09893589 0.12512983 -0.24589774 0.08995111 -0.34335348 -0.02110538 0.5913099 -0.19748576 -0.14484127 0.028772755 -0.37886876 0.14302993 0.019777643 0.07784309 0.24073745 -0.14017054 -0.20794153 0.17464003 -0.53159505 -0.55765724 0.25373346 -0.14881846 0.0357269 0.029613795 -0.10348618 -0.15029454 0.01238071 0.21661825 0.2176981 -0.12884739 -0.18328187 -0.019043174 0.05894797 0.2773519 0.1954025 0.32527798 -0.4372344 -0.07000543 0.35047573 0.049580175 -0.2928272 0.04409158 0.42797378 -0.00514302 0.38754448 0.16937914 -0.1910469 0.22563833 -0.10995875 -0.009601189 0.20205568 -0.028330676 -0.28552425 -0.037930872 -0.18254705 -0.26855743 -0.113787904 -0.010906088 0.122737795 0.23892379 -0.1439439 0.2023039 -0.15880191 0.20195517 -0.16313654 0.6225951 -0.36584872 -0.12318399 0.14420804 0.22870044 0.32441646 -0.14781709 0.08217473 -0.09059497 0.024332369 -0.2982127 -0.055066977 -0.27052882 0.24058002 0.38532442 0.019719252 -0.16509435 -0.1801931 0.01683926 -0.06923517 -0.1289595 -0.85855323 -0.31690702 -0.04795053 0.40301916 0.19041656 -0.279462 0.014645301 0.14567122 -0.171265 -0.19834399 0.39548466
1345 -0.06405923 0.18804282 0.24372779 0.09137211 -0.094549514 0.1492294 -0.11255631 0.4733334 0.025364071 -0.37923414 -0.19571958 -0.3045934 0.32264337 -0.36314362 -0.07361902 -0.037365478 -0.3406401 0.16337621 0.036898643 0.16447319 0.46577874 -0.37081808 0.052309226 -0.19415715 -0.018585116 -0.26603803 -0.01636348 0.1647907 -0.2490839 0.24566549 -0.25097644 0.57442194 0.26950794 0.23670687 0.04006406 -0.29005435 -0.07074524 -0.18448928 -0.13469109 -0.07706862 0.33801785 -0.6110399 -0.05869978 0.029901706 -0.046032466 0.3994943 -0.4027341 0.0015066939 0.2492016 -0.41533974 -0.12117371 -0.0059866216 0.17253733 0.15686835 -0.07369164 0.2086435 0.11130048 0.019184528 0.3821807 0.33635035 -0.050894056 0.044219147 0.07585115 0.0058324616 0.26501518 -0.08623574 0.011308778 0.042194568 -0.20909506 0.51175493 0.22284107 -0.07880186 -0.35697985 -0.42341393 -0.3863084 -0.0689654 0.45691508 0.4009613 0.31797737 -0.690847 -0.2920046 -0.073536456 -0.07366531 -0.1876577 0.29905662 -0.1429848 -0.118474305 -0.15055889 -0.057912115 -0.10189328 0.37543726 0.28653836 0.22272496 -0.18803144 0.13549732 -0.37786508 -0.036389515 -0.074927 -0.15000762 0.27351835 0.32740396 0.34735015 0.2051816 0.1291359 -0.01701772 0.34750336 -0.2587864 -0.2923286 0.10403814 0.1898342 0.23434779 0.31130362 -0.13453862 0.37612984 -0.19399206 0.427645 0.0035503418 -0.5870776 -0.42052966 0.010354835 0.046684776 0.24466428 -0.32245192 0.10678381 -0.122395925 0.11308566 -0.22501247 0.18822135
2 -0.4552811 0.17127956 0.25728762 -0.2588654 -0.10877712 -0.14743693 0.02350123 0.4165502 -0.39973608 -0.15165068 -0.12377598 -0.15223409 -0.2807163 -0.304496 -0.07088685 -0.4194222 -0.35264796 -0.20302375 -0.078378454 -0.31581572 0.10037059 -0.3564683 -0.00062983215 -0.020163128 -0.30786818 0.004635536 -0.014512719 0.1897515 -0.22304961 -0.08134443 -0.15185603 0.19744967 0.21728486 -0.112423494 -0.13036305 -0.5185562 -0.06819459 0.00067213847 -0.019754339 0.21687646 -0.092526205 -0.6999121 0.31629524 -0.00657054 -0.03606585 0.24184449 0.05408594 -0.6282527 0.4465631 -0.09954832 -0.00023737249 -0.14314315 0.5095238 -0.08450282 -0.01766712 -0.0065729474 -0.6344496 0.11920317 -0.2363517 0.02938494 -0.37801224 -0.27415416 -0.09490931 -0.40149984 0.07661267 0.11236247 0.018807149 -0.25490612 -0.5098791 0.101065144 -0.11050279 0.09541927 -0.14824064 0.2072587 -0.339032 0.077973224 0.38025978 -0.010731565 0.14710309 -0.2838797 -0.23032182 -0.25785717 0.14629966 0.23970991 0.4422779 -0.22695267 0.018055722 0.0530542 -0.19623421 0.09385386 0.014509606 -0.1430737 -0.13566552 -0.6211388 -0.23887154 -0.525065 0.06980486 -0.014504988 -0.17017527 -0.41465813 0.0683945 0.0016082163 0.15079944 0.17509446 0.28702405 -0.21419075 -0.1773236 -0.22257642 0.13770126 0.09611333 0.73583984 0.13523225 -0.22855346 0.19377872 0.13860428 0.068901755 0.13622488 -0.40200463 -0.40351248 0.14640437 0.15631446 0.07747154 -0.3630117 -0.017021542 0.14935887 0.38594207 -0.17254134 0.1865006
1284 -0.27658844 0.07655673 0.031182075 0.089971535 0.059360575 -0.15232287 0.04860564 0.2122523 -0.016331136 -0.0049177217 -0.08096167 0.014065877 0.34345087 -0.19970508 0.016010998 -0.30370778 -0.06399079 0.057708804 -0.12855504 -0.35350972 -0.109886825 -0.48052958 0.09871008 0.04894945 -0.2310038 -0.39316952 -0.47135976 0.15524007 0.15624902 -0.21397272 -0.17530173 0.13209075 0.5486301 -0.29920834 0.019865857 -0.4373933 -0.05877734 0.01788181 0.3473642 -0.082192965 0.24644105 -0.5559904 -0.0838895 -0.17877999 -0.20362142 0.7332013 -0.0030584224 -0.44605088 0.5961738 -0.36434862 -0.41428775 0.20214918 0.17831793 -0.032736346 0.00023568352 0.41510412 0.23046194 0.3244026 -0.35460672 0.43014172 -0.10156395 -0.08306793 -0.09193629 -0.06433 0.12001748 -0.21304171 -0.34040436 -0.16903166 -0.12662247 0.5311067 -0.16322336 -0.24854007 -0.16580145 0.23334543 0.037884742 -0.032953735 0.1732921 -0.16906852 -0.03791918 -0.103697084 -0.16125467 0.023676075 0.22553924 0.096475236 -0.12336455 0.06157199 -0.03063669 0.045141347 -0.34565115 0.24659596 0.087763876 0.0573185 -0.113846555 -0.3421736 0.117948756 -0.38924614 0.39269334 0.11594894 -0.016529823 -0.2261076 0.19527297 0.36399475 0.18900874 0.4967626 -0.029322546 0.05956415 -0.34938303 -0.004246703 0.098881446 0.20359968 0.51958567 -0.050024036 -0.24357958 0.12906012 -0.029961616 0.071351305 0.42467633 -0.3923989 -0.41804188 0.020951439 0.37770393 -0.15668313 0.16370933 -0.24789901 -0.2786816 -0.031083502 -0.1096802 0.07462944
192 -0.41356355 -0.012050905 0.3588674 -0.030376235 -0.087290786 -0.47419694 -0.29085916 0.4154431 -0.38857043 -0.22265436 0.018845933 0.044801194 -0.10786179 -0.20554781 -0.23910967 -0.08832535 0.20296192 0.3719248 0.10485169 -0.048526008 0.37528357 -0.21466997 0.09496875 0.09579953 -0.32162225 0.09958537 -0.18209863 -0.21651688 -0.2549783 0.08995991 -0.2464684 0.35813662 0.29856896 -0.16575755 0.36660022 -0.12164264 -0.16160388 0.36028445 0.071211204 -0.18576221 0.26567766 -0.22410107 0.15432915 -0.19704771 -0.34008223 0.18003199 -0.031031257 -0.18173777 0.058817666 -0.21141592 -0.36244577 0.053065628 -0.02658346 -0.30716637 -0.29281634 -0.09347618 -0.11926332 -0.08152803 0.05498608 0.23138206 -0.23840714 -0.024370907 0.18933903 0.2030324 0.36001846 0.061395507 0.54129446 -0.13289797 -0.1552872 0.23026597 0.22383228 -0.22994268 0.19209987 0.4008949 -0.42731035 0.20588173 -0.042917557 0.15709873 0.020163594 -0.35601026 -0.0049109836 0.22230798 -0.029223485 -0.37280902 0.14426108 -0.04219074 -0.07784937 0.116145805 -0.07519116 0.24510401 0.33781573 0.18389384 0.2670864 -0.08094694 0.1383218 -0.09152339 0.53860474 -0.22984356 -0.14375079 0.25007296 -0.07409439 0.14283311 -0.13903807 -0.031457085 -0.19185688 0.022903075 -0.06474349 -0.23858139 -0.047657594 0.2916625 0.5701402 -0.036121298 -0.18374777 -0.17826322 -0.1668525 0.19536564 -0.45073122 -0.5957619 -0.21087462 -0.3911999 0.48179016 0.08500019 -0.05216533 0.026801638 0.096785955 -0.31320846 -0.08840343 0.53609884
356 -0.1789741 0.15667598 0.44861344 0.2826726 -0.4238792 -0.42285004 0.17577314 0.36413658 -0.309897 -0.05446925 -0.27625194 0.124341264 0.14860357 -0.1917156 0.093515016 0.14471965 0.18726645 0.3222263 0.058248896 0.051522337 0.09117493 0.09950413 -0.15781844 0.25697604 -0.31919608 0.119910724 0.16399589 0.072605506 -0.03324362 -0.14871845 0.19362526 0.5173961 0.08147569 0.15675323 0.036941744 -0.32035962 -0.20786218 -0.002282489 -0.073104784 0.16677274 0.34763104 -0.17772807 0.3141523 0.1741824 0.09208328 0.13320008 -0.021355858 -0.16488631 0.22961669 -0.13256773 -0.33006102 -0.015012658 0.20319653 0.37852624 -0.14463608 0.31974477 -0.008788372 0.3594362 0.030984761 0.3102504 -0.17172132 -0.176492 0.025761858 -0.2381121 -0.01533402 0.17030704 0.29431677 -0.16666216 0.12347495 0.42473122 0.016435018 0.12995851 0.054998472 0.38738886 0.09699831 0.003168851 0.24492729 0.4570264 0.40019256 -0.2971072 -0.07100832 0.20647228 0.36468795 -0.2043577 -0.1979023 0.21375394 0.012686336 0.32174698 0.03562501 -0.20287302 0.03288308 -0.21408217 0.5128704 0.0040783454 -0.036382604 -0.09620528 0.21266507 0.109877676 0.17360918 0.09547216 0.14022218 0.28641793 0.014564843 0.487588 -0.22629023 0.42156413 -0.46542355 -0.26392335 -0.09414863 -0.10042837 0.16261554 0.18126062 -0.05612732 0.19674431 -0.019854672 0.03180608 0.2529391 -0.4496363 -0.36418426 0.041240856 0.5639377 -0.1449905 -0.14291272 0.006378192 -0.1440619 -0.37033835 0.06183435 0.33576083
1386 0.10808038 -0.21684137 0.3970778 0.14874294 -0.14550236 -0.12817909 0.0040737228 0.09497755 -0.098861046 -0.20465511 -0.10375279 0.06990045 -0.04813297 -0.37768605 -0.12209184 0.020122804 -0.025753083 0.1457331 -0.04455277 -0.17452833 0.062054783 0.04101382 -0.2989191 0.29602858 -0.4872196 -0.10209524 0.026271885 0.40194204 0.12257857 -0.153622 0.005968748 -0.28151867 0.024847094 0.040531073 0.070948996 -0.41918555 0.02122795 0.12851864 0.0230787 -0.069861636 0.266779 -0.5961991 -0.2676446 -0.40574408 0.14607929 0.37944448 0.13511674 -0.29457697 0.40577483 0.13263194 -0.252049 0.045772575 -0.063467756 -0.017275449 0.37086874 0.33095738 -0.10134728 -0.017739989 -0.050214805 0.13284957 -0.24922723 0.13497114 -0.03056559 -0.06638066 -0.19433922 -0.3229296 -0.023354266 -0.38893658 0.15854941 0.57268405 -0.11879841 -0.14041068 -0.055972036 0.14694794 -0.5257654 -0.27064145 0.44969055 -0.1615936 0.1400227 -0.2624811 -0.05087939 0.11386556 -0.099463925 -0.1397968 0.14290115 -0.23037015 -0.073274486 0.25995663 -0.30820763 -0.032893453 0.28845927 0.16682972 0.09899549 0.047343545 -0.13774054 -0.36823118 0.31751776 0.011307529 -0.19686575 -0.31652474 -0.06188015 0.0048962394 0.2113815 0.5695319 0.022569083 0.21305774 -0.2495109 -0.29740244 0.073990196 0.23916455 0.59988075 0.06382862 -0.31170276 -0.03357875 0.21366441 0.14015637 -0.016195191 -0.5298921 -0.08704767 -0.16732351 0.27400628 0.11857266 -0.073360145 0.26506194 0.124667995 -0.00060004013 -0.45040032 0.21835959
712 -0.5279275 0.14786047 0.4265449 0.053414024 -0.25160408 -0.40102518 -0.009705367 0.5686184 0.15355608 0.1832307 -0.117505595 0.16047981 -0.29318246 -0.7239921 0.101237 -0.36155054 0.035433598 -0.022069726 0.0517642 0.027047975 0.25127718 0.19593506 0.28294364 0.29995582 0.36416578 0.09606354 -0.23720893 0.2929672 -0.10687436 0.2867504 0.053083144 0.076565035 0.4495619 0.019577384 0.5420885 -0.08952461 -0.17810231 0.17220053 0.008173257 -0.4965735 0.17114069 -0.43964908 0.006563946 0.15349416 -0.44996485 0.09738504 0.15431745 -0.35308823 0.31613272 -0.118994065 -0.1774344 -0.32120878 0.053002242 -0.052296646 -0.3450381 0.4543532 -0.09904467 0.3033827 0.27343866 0.24655417 -0.29528597 0.31476346 -0.2913776 -0.3165254 -0.054884214 -0.42685544 -0.095354974 -0.0305546 -0.06757637 0.2670073 -0.12935436 0.097930744 -0.21193156 0.29755762 -0.059800994 -0.012320219 -0.18658333 -0.23779626 0.32692674 -0.30500242 -0.2315282 -0.010522327 -0.14573416 0.1361035 -0.07105738 -0.08829035 -0.3907924 0.30037853 -0.20850663 0.17826876 0.5503016 0.021447882 0.22477321 0.150153 -0.12481941 0.19393505 0.27743754 -0.20646977 0.20132244 0.022952907 0.18820857 0.12228834 0.34235227 0.27017635 0.24460594 0.117529415 -0.12825522 -0.547065 0.06567762 -0.21931161 0.12524846 0.08890536 -0.27714464 0.19696796 -0.33966944 -0.12226451 -0.08568388 -0.3236961 -0.5854509 -0.09703856 0.16836841 0.33220774 -0.22185203 0.10868541 -0.26002294 -0.031457003 -0.3695465 0.7567851
175 -0.3051903 0.30597976 0.41365454 -0.1348044 -0.300781 -0.08887902 0.121376835 0.5692858 -0.13745777 -0.13876714 -0.16532847 -0.019007623 0.09534473 -0.16058953 -0.2521619 0.14819755 -0.009380087 0.03182172 0.10914579 0.068632975 0.34095427 -0.14440428 0.18119411 0.41076943 -0.4214769 -0.4416595 -0.09469937 0.5466465 -0.007703278 -0.0027257896 0.01808167 -0.06980937 0.69011474 -0.3613578 0.15875447 -0.2776075 -0.099939354 -0.35062793 0.252524 -0.15086992 0.3861309 -0.39154088 0.1505805 -0.21496128 -0.04272154 0.58233756 0.18904996 -0.6542943 0.04213532 -0.12515038 -0.06493897 0.28577167 0.24041119 0.052080713 0.10651987 0.5463223 -0.35662442 0.12650275 -0.33589223 0.19825803 -0.09062259 -0.08109563 0.09593343 -0.13082245 -0.038480446 -0.06533828 -0.20199151 -0.41806912 0.055255692 0.45186517 -0.20623542 0.09058375 -0.28568563 0.32352287 0.2742176 0.15164213 0.3208733 0.1213396 0.04525624 -0.3339372 -0.1695041 -0.18232067 0.21319184 -0.06835515 0.008713589 -0.024686182 -0.15245982 -0.031257715 -0.5024008 -0.014400033 -0.084884584 0.12822017 0.0016344887 -0.3179069 -0.26171017 -0.09378575 0.24592683 0.05629679 0.11057036 0.090996884 -0.12407602 -0.060932983 0.12101757 0.055983193 -0.082755975 0.25182477 -0.14823279 -0.19404586 -0.0883648 0.20132083 0.37943733 -0.06908067 -0.12946275 0.25009808 -0.13928793 -0.15945882 0.32609054 -0.3445651 -0.07090121 -0.38332427 0.603522 0.34688228 -0.077129506 0.2501548 -0.028433729 0.059441328 -0.24217075 0.14907877
31 -0.036894187 -0.04603494 0.3748279 0.03364444 -0.19321617 0.06980543 0.309662 0.21809274 -0.24317762 -0.07694538 -0.28367534 0.026962576 -0.6471599 -0.20504698 -0.14603898 -0.51924175 0.23548517 0.1409931 0.14512138 -0.32678002 0.12941001 0.07781704 0.14464687 0.019196374 -0.5232638 -0.28133595 0.2867297 0.0027508968 0.05624354 -0.041862983 -0.28196123 -0.18130687 0.138308 0.21688774 -0.1804026 -0.38006222 0.19607097 0.13772042 -0.10770456 -0.043597087 0.1720834 -0.107631825 0.29744494 -0.02112711 0.19117978 0.38663694 0.002655556 -0.52183574 0.37823385 -0.20033604 -0.27522403 0.08281026 0.382598 -0.21219175 -0.07350998 0.31387964 -0.09151761 -0.055742625 -0.18704744 -0.09367888 0.017775526 -0.40119854 -0.25897774 -0.16348629 0.19042285 -0.17102589 0.26818693 -0.399161 -0.0731464 0.33371717 0.11809885 -0.11369524 -0.070658185 0.12155878 -0.23028108 -0.4341222 -0.013181457 -0.036205612 -0.3412363 -0.15811554 -0.38995704 0.17606834 -0.10575852 0.10955763 0.077211514 -0.18880565 0.32048088 -0.32971713 0.07339405 -0.13613182 0.003917338 0.35305935 0.53797626 -0.20411369 -0.19670027 -0.4021009 0.35553342 0.25274658 -0.071921006 -0.4233771 0.1347833 0.47917914 -0.019260095 0.0076298113 0.21027002 0.27722883 -0.042749025 -0.37540436 0.3245337 -0.13016392 0.3612299 0.073539436 -0.07859813 0.1389618 0.13163204 -0.0056134034 -0.25145933 -0.46555853 -0.5881029 -0.18735723 -0.08497799 0.00070032885 -0.28495824 0.22853756 -0.16118635 -0.13227147 -0.45429137 0.2605994
1188 -0.35569528 0.3997841 0.88426816 0.100879885 -0.44433743 -0.4603351 -0.15434128 0.3078421 -0.24082185 -0.11376041 -0.0013552608 0.07285828 -0.108273365 -0.086119816 -0.06414133 -0.23330949 0.1676897 0.21962231 0.31967896 0.05696362 0.25280073 0.08088321 -0.14069527 0.27321067 -0.7162472 -0.12016095 -0.3750035 -0.14805241 0.33107296 0.28988573 -0.24509047 0.1524891 0.44438896 0.012162645 -0.06500496 0.006772622 -0.25425324 0.10031439 0.14987049 -0.28739432 -0.11958566 -0.2734478 -0.2234129 -0.4118604 -0.18535459 0.16195168 -0.4732593 -0.20755573 -0.091876134 -0.09161504 -0.5681997 -0.022346819 0.25441462 -0.2321336 -0.30127138 0.14488533 -0.095624425 0.0023647775 -0.16216856 -0.17727077 0.029173752 0.1619112 -0.17069557 -0.0008131027 -0.1671051 -0.17293493 0.16406451 -0.3590137 0.19357423 0.594712 -0.16938223 -0.05313937 -0.48594734 0.043271713 0.041545007 -0.093884476 -0.022377154 0.07473544 0.12349498 -0.12064239 -0.23834065 -0.4085313 0.02041574 0.10996984 0.32437152 0.16806293 0.033254694 0.04051693 -0.15008782 -0.01683875 -0.065230235 -0.24892648 0.42506635 -0.18191142 -0.13928217 0.11803668 0.3597429 0.041940153 -0.14289276 -0.09727459 0.15912823 0.36638734 0.55364275 0.10698243 0.2841256 -0.025611099 -0.40593687 0.19406274 0.09670356 0.29644957 0.13940762 0.27854973 -0.041100338 0.52022636 0.12789403 0.081869595 0.1429581 -0.1825427 -0.22551626 -0.10762781 0.37103263 0.32210985 -0.2495265 0.35100025 -0.06324247 0.021523964 -0.12992452 0.5464599
41 -0.23559661 -0.27781656 0.38965034 0.22789931 -0.03522681 -0.3689779 0.011473223 0.5997479 0.17764802 0.122837074 -0.23762923 0.096811 -0.3931389 -0.068869054 -0.1705255 -0.38610104 0.047759164 -0.018291935 0.17180772 -0.13071705 0.17070343 -0.41372928 -0.09541053 0.4171734 0.01501643 0.21411744 -0.2700306 0.045244005 0.21174563 0.067793354 0.08737649 -0.038185902 -0.15801084 0.072368264 0.5214726 -0.25275552 -0.5530204 0.21943732 0.18796146 0.2817975 0.10948889 -0.5486073 0.007368399 0.08343357 -0.008633004 -0.042195383 0.10092657 -0.49404716 0.4187275 -0.21302529 -0.14844055 0.31228268 -0.03505807 -0.0954156 -0.17535175 0.29019883 -0.47580022 0.022146063 -0.2392669 0.29391414 -0.45579508 -0.45039338 -0.04009084 0.26292562 -0.15112045 0.2550019 -0.019854449 -0.08916472 0.061749738 0.34148324 -0.11590237 -0.06878299 -0.36801666 0.24592926 -0.35848692 -0.6351327 0.3613136 0.027237942 -0.047836702 -0.17237155 -0.13138413 -0.4837558 0.11799121 0.19518113 -0.29102913 0.40293625 -0.15142737 -0.04940147 0.14601372 -0.065092 0.113896266 0.15745357 -0.0013593313 0.011000317 -0.17031357 -0.35366416 0.4157967 -0.06405744 -0.20839271 0.00039797687 -0.037617456 -0.09306487 -0.13816333 0.20413315 -0.22705473 -0.16531861 0.25655288 0.07254601 0.053218465 0.57750005 0.40582266 0.26655483 -0.20791197 0.24323541 0.5449442 -0.19156882 0.38753936 -0.60094875 -0.32141456 -0.030475575 0.042553738 0.18912692 -0.36638713 -0.41689882 -0.50737876 -0.032058295 -0.1954121 0.42451543
767 -0.41784376 0.02701894 0.14990036 0.65907335 -0.28389293 -0.30075058 -0.10648995 0.32179838 -0.12949142 -0.31681716 0.10884063 0.4901561 -0.19492893 -0.03584254 0.07815655 -0.31110623 -0.14601094 0.0056649763 -0.3074249 0.37495098 0.16243461 -0.32942048 -0.050219756 -0.15707722 -0.16963713 -0.39669237 -0.11654689 -0.23844239 0.07243705 -0.10824651 -0.067517854 0.082736164 -0.021666989 0.40100157 0.05146782 -0.24405608 0.14737703 0.32539585 0.020731311 0.26256728 0.43946925 -0.28449804 0.052276608 -0.28078482 0.1802546 -0.06353457 0.047574867 -0.47254685 0.2956807 -0.18922973 -0.28055942 0.11337996 -0.022619942 -0.26964515 -0.1536794 -0.30879882 -0.010627465 0.363147 0.22381948 0.13201132 -0.46351072 -0.09324296 0.20780408 -0.19270922 -0.36288366 -0.16182365 -0.008119993 -0.24772252 -0.21975502 0.25148594 0.084457785 -0.18067598 -0.1208023 0.14827959 -0.09951382 -0.50136703 0.37794575 0.061642785 0.0018913886 -0.2510355 -0.18674582 0.09400786 0.13317448 -0.512701 0.43901193 0.0694958 -0.33801696 0.17173386 -0.09938159 0.17571642 0.17424193 -0.034372285 0.49483898 0.004807874 -0.095969096 -0.20757031 0.36747304 0.089111656 -0.20693642 0.15758848 0.15006714 0.31205216 0.1158851 0.30557114 0.18616042 0.21199377 -0.18591206 -0.63523734 -0.03668344 -0.47159237 0.4998994 -0.02370013 -0.14158738 0.36634833 -0.2934802 0.111439146 0.27081692 -0.61729425 0.07139112 -0.105464324 0.5953854 0.10105922 -0.14091563 -0.23282313 -0.26924866 -0.06502038 -0.23545077 0.08538427
616 -0.10139379 0.2328072 0.4943122 0.12415638 -0.51093286 0.075801015 0.105390884 0.30552548 0.15756339 -0.34145805 -0.13897713 -0.11476551 -0.10622687 -0.37528822 -0.1326653 -0.04034735 -0.20880024 0.18618138 -0.098231524 0.06583103 0.4170095 -0.20746447 -0.30465785 -0.0017162659 0.096740946 0.0032677175 -0.03104041 0.40562713 -0.16547161 -0.13589822 0.08001629 0.35830563 0.46407366 -0.121236175 0.076133795 -0.3925191 0.14136457 -0.35949227 -0.040905952 -0.010036994 -0.049118478 -0.3202231 -0.10772004 0.02176839 -0.058759954 0.3956855 -0.25908163 -0.39158538 0.46066386 -0.44084972 -0.37161648 0.07088194 0.051024344 0.34512052 -0.1092837 0.6394767 0.09907776 0.207515 -0.2180353 -0.03411619 -0.14691631 0.027900277 -0.051149473 0.0017265099 -0.052987393 -0.108103134 -0.05302913 -0.2806288 0.04933399 0.6689247 0.19108462 -0.33427656 0.05801122 -0.0774909 -0.025507811 -0.3186504 0.042442854 0.0010233128 0.09315583 -0.25690418 -0.48660615 -0.026098235 -0.1728228 -0.26372275 0.24648727 0.05910302 0.1574724 -0.28220803 -0.008329034 0.29780224 0.24080203 -0.1466578 0.29403442 0.113240264 -0.50611734 -0.40275267 0.023516014 -0.12604238 0.0517178 0.31892544 -0.04584199 0.16531818 0.0484678 0.29340947 -0.41214147 -0.10399146 -0.15119654 -0.39197996 -0.30038196 0.27337566 0.32728854 -0.2639024 -0.3222188 0.0073035397 0.14688873 0.5902133 0.14313172 -0.3869957 -0.33816344 -0.057334322 0.19540125 0.10045232 -0.34122336 0.031455394 0.25948375 -0.07801448 -0.03876561 0.3975738
94 -0.14485882 -0.009657444 0.05646743 -0.12244088 0.011310705 -0.29793224 -0.10609082 -0.0041527734 -0.09629307 -0.0012156748 0.1386753 0.058107458 -0.11604133 -0.075803995 -0.026446978 -0.28437513 -0.32914296 -0.15039596 0.1559623 -0.0036742168 0.41887802 -0.1778981 0.015930308 0.22774112 0.11168651 0.07698304 -0.1485335 0.27551335 0.0566043 0.3578037 -0.11527331 0.40696445 0.07169367 0.06045333 -0.109605834 0.02080516 0.074451685 0.24291134 -0.026890306 0.3136445 0.27527484 -0.32207066 0.07135333 -0.5743407 -0.026775038 0.46286878 -0.018533671 -0.04213407 0.37503815 -0.72783196 -0.3256038 -0.009332287 0.0551648 0.2285264 -0.1182975 -0.08802754 -0.35301903 0.17783423 0.27507055 -0.12849267 -0.02311656 0.03999108 0.47260958 -0.039201844 0.21893106 -0.047698952 -0.2161243 -0.35966405 0.07729278 0.52986884 -0.17351136 0.046625584 -0.04534292 -0.028058039 -0.31161794 -0.09909266 -0.20871739 -0.37675375 0.13309723 -0.45278588 -0.35306028 -0.16416213 0.11266581 0.1724539 0.25840327 0.06451506 0.10475846 0.13969627 -0.43852535 -0.03934504 -0.41403478 0.3601817 0.5344084 0.3554608 0.0735566 -0.591909 0.27870595 -0.05919811 0.02753585 -0.17030153 0.27320272 0.098673835 -0.16085374 0.16754766 -0.09560873 0.17965986 -0.4961005 -0.44869947 -0.05334467 -0.1585919 0.5670802 0.34523746 0.026128847 0.24613468 0.28496373 0.003240341 0.46994925 -0.27661872 -0.48067054 -0.2977794 0.37139598 0.144399 0.039157823 -0.13604426 -0.5853669 -0.38437474 -0.6359318 0.3572658
1600 -0.002732022 0.33018526 0.6214424 -0.12130561 -0.21033967 -0.036325015 0.23510239 0.3567278 -0.042457704 -0.28058 0.37496617 -0.13261914 0.20742707 -0.09433691 0.07639463 -0.19228183 -0.012505254 0.13597597 0.27639058 -0.116753966 0.20267609 -0.31698734 0.032913283 0.37457794 -0.37164155 0.1946425 0.05237894 0.079159625 -0.07948831 -0.16786918 -0.21578413 0.0010970476 0.2288398 0.017659465 0.117965534 -0.25601798 -0.20787562 0.0036095015 -0.12633549 -0.17188355 0.08944048 -0.1400377 -0.11685204 -0.09365101 -0.18661053 0.14911374 -0.43600428 -0.14475805 0.39981166 -0.14341545 0.1746242 -0.18010114 -0.22856295 0.058599744 0.045011774 0.38600233 -0.17431445 0.08178069 0.18375584 -0.15203898 -0.03256371 0.0870834 0.15818943 0.16019385 -0.3999101 0.115903735 0.36062425 -0.19527006 0.18101558 0.71859175 -0.13499866 0.115673415 -0.05775187 0.12904182 -0.22183861 -0.31871665 0.3374121 0.2937468 -0.2510125 -0.42688665 -0.64887595 -0.026163543 0.1477627 0.03293985 0.29753548 -0.09127883 -0.5823865 0.3295759 -0.1914592 0.102502406 -0.2080754 -0.0705307 0.37951386 0.14896499 0.086502396 -0.3079556 0.2051329 0.0925361 -0.1955472 0.098578274 0.027156703 0.13859755 0.1879998 0.1403456 -0.126952 0.38206798 0.033814985 -0.61847144 -0.17485346 0.37728056 0.17141874 -0.06346249 -0.13728292 0.25193992 0.22987157 0.12086358 0.15364394 -0.615143 -0.23383433 -0.054354522 0.27231145 0.14699338 -0.2616286 -0.18239427 -0.13556091 -0.017006377 -0.010179071 0.8002151
1488 -0.45101064 0.26168677 0.4957007 0.11686078 -0.4004698 -0.37352863 -0.048016243 0.26094776 -0.030161778 0.44072166 -0.30547288 0.4668814 -0.11991718 -0.5509464 0.10735229 -0.18067239 0.11541239 0.014472731 0.18871751 -0.21401542 0.32564518 0.4122707 -0.1079738 0.09465348 -0.33573294 -0.12141411 -0.053128272 -0.07517479 0.16104718 -0.23161182 -0.030087452 0.09038664 0.26794708 0.31836823 0.30017075 -0.12404038 -0.31593525 0.12221429 0.027246451 -0.28106174 0.098310076 -0.20983012 0.10308346 -0.12962604 -0.26679748 0.26019302 -0.40596732 -0.3809128 0.0592409 -0.5375323 -0.10438609 -0.03591785 0.4389374 0.047854047 -0.56769085 0.18907145 0.111678585 0.12075512 0.11005152 -0.079322025 -0.33538207 0.06443708 0.31757018 -0.2061585 0.002577507 -0.10047056 -0.04803982 -0.23336193 0.0072818715 0.36062843 -0.05963197 0.11943433 -0.12783656 0.19612564 -0.3615274 -0.21902725 -0.34887022 -0.019090302 0.005672855 -0.47462088 -0.42492202 -0.13483648 0.15522991 -0.010423155 -0.01713185 0.25781846 0.115427226 0.36701676 -0.25051546 -0.05172346 0.21606699 0.2630662 0.22286172 -0.0026009039 -0.0014117357 -0.010781409 0.12892476 -0.04307614 -0.28495702 -0.02958898 0.24466372 0.15074608 0.43762064 -0.1586103 -0.12180505 0.07219209 -0.24185452 -0.0038374104 0.041859634 -0.011337444 0.41348433 -0.037118316 -0.50166816 0.29970387 0.019705318 0.16738532 0.07044214 -0.7217961 -0.24217744 0.016545987 -0.16748373 0.27949122 0.08842521 -0.16418357 0.021406047 0.10466436 -0.1944562 0.05865027
877 -0.7103304 0.25086305 0.5208125 0.23111205 -0.39376834 -0.5560815 -0.3084615 0.24190651 -0.022027956 0.15157114 -0.34397128 0.37405697 -0.03437046 -0.34187162 0.050380185 -0.001366558 0.20805925 0.23254143 -0.13958229 -0.087572634 0.3067359 0.072682746 0.21552609 0.08506762 -0.24967551 0.016472023 0.0077861836 -0.1081577 0.03925977 0.01573194 0.114118494 -0.026141224 0.15404798 -0.03234302 0.14979012 -0.04263411 -0.31622586 0.07163782 0.12620671 -0.25648412 0.052825052 -0.30122712 -0.110168636 0.059041105 -0.2986122 0.033434365 -0.1623613 -0.38170356 0.24218254 -0.18349437 -0.20018457 0.0051971236 0.19110349 0.21335591 -0.45501122 0.35669994 0.026508462 0.005710261 -0.080834635 0.017109968 -0.19545089 -0.12577455 0.19579278 0.030585233 -0.07289574 -0.29321045 0.011574612 -0.2973011 0.28723624 0.36977094 -0.3388735 -0.055939768 -0.19927211 0.18650164 -0.145886 -0.033485558 -0.1570437 0.0046271426 0.15670583 -0.18237053 -0.35916683 -0.07753596 0.094038576 0.18282421 0.21589142 -0.038843397 -0.036068015 -0.04829744 -0.1053412 -0.05086348 0.36045092 0.11356508 0.47854364 -0.26099482 -0.14257589 -0.31711432 0.3199035 -0.06731278 -0.1897894 -0.045610376 0.13408677 -0.16017821 0.45821175 -0.1617759 0.18435247 0.08273128 -0.29874352 -0.27197465 0.20022412 -0.07423024 0.46361265 0.021876328 -0.15907532 0.21804564 -0.0483991 0.13723898 -0.05858916 -0.21314114 -0.24401455 0.043167565 0.07536259 0.38772842 -0.33640054 -0.05348232 -0.1753315 0.14857139 -0.19329935 0.27266282
1230 -0.27772003 0.054004937 0.85153294 -0.042515513 -0.07326617 -0.14549406 0.13548881 0.2763565 -0.5223172 -0.6531064 0.06893217 -0.059620634 0.17187251 -0.30491745 0.123369604 -0.000989632 -0.23473376 0.07320896 -0.0446087 0.17206565 0.26139915 -0.30554864 -0.28100294 0.26041886 -0.13170677 0.14472404 0.19734779 0.24536933 -0.18033323 -0.19091837 0.068870954 0.15677218 0.34743202 -0.10760331 0.04090347 -0.32429746 -0.050715443 -0.18414186 0.01548743 -0.19551982 0.072364904 -0.37707216 0.037655577 -0.11643834 -0.014478003 0.34906405 -0.15048505 0.0061030057 0.4665949 -0.37631822 0.0781198 0.057908714 -0.16572519 0.0467707 -0.37351346 0.4584371 -0.21242085 -0.12038621 0.24092953 -0.09649239 0.031650208 -0.09784277 0.062228803 0.14887434 0.015186622 0.02861407 0.037426975 -0.17328864 0.21457504 0.7212412 -0.015639912 -0.054631945 -0.143605 0.057134964 -0.1785665 -0.20293546 0.24306583 0.06472172 -0.070605144 -0.5062134 -0.2833738 -0.13156167 0.14273056 -0.20517711 0.27659377 -0.051068213 -0.14128742 0.24211627 -0.100963674 0.034066323 -0.09721487 0.33653748 0.0876924 0.007645696 -0.08905001 -0.14706 0.085004844 0.17120175 -0.28833592 0.115954205 0.113318615 0.11322845 0.10321172 0.35403377 -0.37125587 -0.01554856 0.04695604 -0.3554208 -0.05798063 0.24102473 0.105578735 0.16575308 -0.25126624 0.2964065 0.041237276 0.12205952 0.08045931 -0.3603908 -0.37556928 -0.23389396 0.19196922 0.08983481 0.02071299 0.10982784 -0.09541725 -0.03826601 -0.3988034 0.6006518
1539 -0.5320693 0.028018108 0.20852873 0.21728261 -0.18379655 -0.28168333 -0.046042588 0.5928106 0.11407329 0.03272585 -0.18887414 0.34671408 0.08746175 -0.09929435 0.3360203 -0.5261773 0.34917307 0.039536573 -0.19064921 -0.019118669 0.23622057 -0.22257194 -0.26362544 0.09912428 -0.22422771 -0.13381058 -0.11422981 0.0959583 -0.19138406 0.0062915795 -0.065038264 0.43083078 0.1115093 -0.25496557 -0.059398837 -0.0064045675 -0.12463935 0.0039908066 0.1586027 0.20107001 0.4358856 -0.31328532 0.013332057 -0.21760066 0.16307424 0.14823224 -0.3344149 -0.10515507 0.31362838 -0.27701735 0.24445498 -0.27242246 -0.037753046 0.25743666 -0.33823192 -0.23755369 -0.3134091 -0.08731037 0.077401616 0.026368625 -0.4893961 -0.13264704 0.008140644 -0.2399753 0.114657596 -0.15041259 -0.068673946 -0.21419182 0.1751088 0.287436 -0.20164712 0.12691794 0.139408 0.3651053 -0.11700614 -0.014201347 -0.5612497 -0.11038026 -0.19839579 -0.45631155 -0.04620303 0.019802943 -0.25854632 -0.17934209 -0.3843061 -0.24741298 0.00582479 0.48673445 -0.0025811214 0.2602272 0.19050533 0.21602094 0.2140271 -0.27707848 -0.10920961 -0.2242598 0.23331426 -0.281053 -0.13467084 0.43165177 0.32042333 0.23129658 0.049864154 -0.13050656 0.05877688 0.085076086 -0.23491268 -0.17970788 -0.2559117 0.11734995 0.14268649 0.004827421 -0.47875392 0.109185815 0.11437825 0.19493538 0.014621307 -0.6184401 0.06260663 -0.30378085 0.4081405 -0.07097786 -0.07567113 0.10978707 -0.1448197 0.25524634 -0.20138496 0.61427593
1623 -0.121038765 -0.026234513 0.4804907 0.22285393 -0.35682493 -0.28549957 0.18373723 0.20948453 -0.21562696 -0.2623404 -0.0070347395 0.17490841 0.32158867 0.025076976 0.096670575 -0.11011506 0.18685003 0.15491188 -0.3017025 0.34029695 -0.03510543 -0.04712272 0.04678506 0.31344208 -0.33915946 -0.12714072 -0.17721969 0.08313702 -0.07158119 0.20322223 -0.32103467 0.08074613 -0.0026342059 0.22232649 -0.035049394 -0.09288775 -0.21943648 0.09355027 -0.31748423 -0.1525358 0.21478185 -0.24652414 0.44014686 0.0037726169 -0.15890117 0.48011404 -0.32116842 0.057288285 0.45326594 -0.35935494 -0.16599128 0.0033674187 -0.015756434 0.2867283 -0.054922387 0.23755439 -0.40228945 0.3079994 0.19112243 0.09512022 -0.5841964 0.24147174 0.022880133 -0.38480103 0.1615344 -0.16743648 0.27416012 -0.4217623 -0.17543848 0.5233183 0.20549132 0.1412645 0.09760792 0.23956701 -0.22902364 -0.040818185 0.16038567 0.3002102 -0.03272969 -0.59577453 -0.24519168 0.23468897 0.16985966 -0.07826178 -0.24375024 -0.32886648 -0.21078265 0.18828024 0.304539 -0.28212714 0.3344598 -0.16325611 0.20258579 -0.14748004 -0.061637588 -0.2378401 0.54779494 -0.081275195 -0.011190128 -0.03801543 0.2638922 -0.31238136 -0.417173 0.03215512 0.12315237 0.19026913 -0.007825847 0.085682236 -0.14819393 0.030983424 0.51448953 0.09336667 0.022905478 0.46527633 0.29124644 0.24938545 0.22359397 -0.33246928 0.042067204 0.19648635 0.5339986 -0.15923822 -0.23507015 0.061478853 -0.2038818 -0.23353642 -0.084641345 0.5338868
1647 -0.08087481 -0.4843309 0.57545036 0.5020301 -0.46209183 0.12556027 0.12065621 0.31276587 -0.08689695 -0.13966826 0.19478832 0.29738766 0.22921453 -0.29914194 -0.025640272 0.21919413 0.059693523 0.33445475 -0.015119259 0.080817 0.21518907 0.1964826 -0.004649533 -0.07433915 -0.113218024 0.023287091 0.26760674 0.09427568 -0.1269879 -0.3094602 -0.43611333 0.060008775 0.1257441 0.16760182 0.019297332 -0.5156856 -0.059181456 0.1616117 0.24312575 -0.0691779 0.3262521 -0.49483666 0.2865972 -0.26893067 -0.021029739 0.23357502 -0.15296432 -0.38596815 0.6701224 -0.33656827 -0.4983054 -0.25485092 -0.19920029 -0.014316333 0.10966535 0.0022503608 -0.3206079 0.033798765 -0.10570534 0.15991707 -0.4505591 -0.32613218 0.5956791 -0.46394005 0.17543904 0.108226284 0.03526974 -0.24529241 -0.038107906 0.38605595 -0.17961538 0.15595846 -0.23107278 0.17583826 -0.17283584 -0.18437628 0.12876073 0.029965157 0.08280587 -0.5416436 -0.25240344 0.07718361 0.11862036 -0.07648844 0.19099158 -0.007173833 0.16713896 0.086689934 -0.15558907 -0.058005597 0.05468093 0.07784041 -0.0448965 0.23922604 0.26044068 -0.16921058 0.16479345 -0.013416912 0.16481872 -0.2934072 0.025983458 -0.1588072 -0.26854905 -0.16226292 0.031225637 0.3360788 -0.4871303 -0.36097708 -0.37982556 0.31675538 0.5711567 0.1848489 -0.23855057 0.060599387 -0.11355155 0.44234696 -0.07799056 -0.4012799 -0.14273016 -0.4359654 0.30160007 0.16618818 0.043794572 -0.17131665 0.10807297 0.02832968 -0.30634543 0.39666075
1405 -0.32656315 0.020630123 0.21705726 -0.05520149 -0.2463586 -0.37888792 -0.04298868 0.07280479 -0.42966497 0.07986462 -0.13620503 0.16805671 -0.16165262 -0.46688735 0.05829259 0.1991086 0.116001114 -0.2329223 -0.30918 -0.075348556 0.26494774 -0.116761535 0.19793081 0.15827662 -0.16460575 0.11479228 0.038598303 0.58075005 0.043552928 -0.1500373 -0.0021659497 -0.08388408 0.18146305 -0.007314225 0.25119233 -0.23726878 -0.47697005 0.1816935 -0.21325842 0.019865468 -0.105041206 -0.38322553 0.3447529 -0.17167819 0.16140762 0.49640536 0.091397375 -0.22813503 0.18724868 -0.24259774 -0.3863757 -0.056538697 0.19233744 -0.030649912 -0.037910666 0.5174193 0.041571863 0.16115409 0.17812276 0.13058114 -0.327633 -0.13579383 0.3648871 0.13859886 0.22785832 0.13266528 0.19783778 -0.4809467 0.07205383 0.22193062 0.040988665 -0.5550515 0.028479334 0.14608823 -0.24883397 0.33771598 0.023781052 -0.060082946 0.10932452 -0.61895525 -0.46771878 -0.12170905 -0.0751962 -0.37764895 -0.19958559 0.18519966 -0.37054533 -0.4671946 -0.04393552 0.15699148 0.25380716 0.16510144 0.27605075 -0.16377124 -0.14458632 0.10409312 0.08627739 0.34953648 0.021035228 0.06278105 0.054272737 0.37758353 -0.010072103 0.5024079 -0.16687767 0.25645402 -0.30900064 -0.24382733 0.091664165 0.05333588 0.43880874 -0.14604951 0.13306075 -0.017951299 -0.11223796 -0.0057226024 0.113510534 -0.8124051 -0.29137635 -0.25097644 0.2829423 -0.12222431 -0.34613612 0.12605178 -0.14647856 -0.15612401 -0.15867594 0.2162038
280 -0.08242393 -0.2455886 0.28654492 0.29342988 -0.78709406 -0.2340727 -0.015844824 0.26031294 -0.43547958 -0.20353171 -0.15458666 0.15610619 0.17322461 -0.3102851 0.3846563 0.22945897 0.3565379 0.2232386 -0.10567686 -0.21750289 0.30822068 -0.20623776 0.023814531 0.0046598106 -0.34637797 -0.025842361 0.38995573 -0.07176309 -0.09177347 -0.28937912 -0.36074263 0.28567275 0.16611989 0.0038094826 0.2887158 -0.33697447 -0.2512968 0.15258807 -0.11454449 -0.15979622 0.082129985 -0.41344947 0.30584875 -0.25559738 0.07642471 0.2597523 -0.084951624 -0.11483747 0.47657734 -0.5141262 -0.49193358 0.044045605 -0.16572484 0.20057817 -0.01811214 -0.07143095 -0.397148 0.21406102 0.14758183 0.11859929 -0.39548075 -0.5757988 0.018857192 0.10811452 0.112001814 0.29988706 0.27244708 -0.13786986 -0.19412172 0.41756928 -0.074268065 0.06945145 -0.05598886 0.51983345 -0.17873943 -0.03989698 0.4372225 -0.024186263 0.10039652 -0.5828909 -0.23540163 0.100691766 0.08541299 -0.02288476 -0.2848705 -0.13667323 -0.07307123 -0.13602193 0.13974592 -0.08038775 0.048316352 -0.17917748 -0.13383837 -0.06138036 0.30378324 -0.31086552 0.5665485 0.055228632 0.1079886 -0.16514789 0.15894742 0.006019061 -0.35703498 0.113536455 0.21828368 0.29272988 -0.044664394 -0.11539718 -0.3325456 0.17267834 0.32009777 0.10709718 -0.07840337 0.35480204 -0.0643864 0.018228082 0.19773224 -0.60735345 -0.13835338 -0.11469381 0.13800538 -0.0936356 -0.14240707 0.19876423 0.08329573 -0.25830752 0.11074088 0.30109388
1071 -0.21633798 0.20938574 0.40659937 0.36125958 -0.10479393 -0.21311413 0.15907528 0.26591927 -0.30937698 -0.09564427 -0.05258539 0.24400242 0.32897824 -0.44891006 -0.18635605 -0.36911544 0.12647647 -0.017265417 -0.017498279 0.102883786 0.49605176 -0.045155957 0.3193579 0.6251687 -0.52741706 -0.19394222 -0.49670753 0.23051177 -0.20636426 0.15952384 0.08633622 -0.17106268 0.6352152 0.12305076 0.2674967 -0.24039862 0.15679155 0.053475033 0.2251638 -0.19269617 0.050901804 -0.09135516 0.22825006 0.25772387 -0.23256235 0.28269267 -0.011871944 -0.22607656 0.34521875 0.065499574 -0.3939086 0.13036746 0.026507558 0.4638615 -0.5312317 0.18524186 0.030924926 -0.14043346 0.20761932 0.24909556 -0.23945265 -0.06865219 0.108075604 -0.3282759 -0.11659947 -0.28871077 -0.06654663 0.013215281 0.17152724 0.75219697 0.08347875 -0.19557048 0.05984277 -0.069528416 0.0759204 -0.18622757 0.16420133 -0.08051711 0.2772854 -0.255876 -0.14803752 0.08760678 -0.11399785 0.01886785 0.1725118 -0.3611046 -0.073287666 -0.21683778 -0.27778086 -0.033648714 0.08391081 0.35556057 0.06177302 -0.21795006 -0.15125854 -0.115851834 0.15400648 -0.1970124 -0.06408297 -0.09749769 0.11818994 0.064503826 0.37865642 0.013553673 0.25001115 0.20412427 -0.17500775 -0.5983796 -0.09385755 -0.04681478 0.30981293 0.21533838 -0.055957984 0.06710652 0.019564597 0.05165077 0.31175107 -0.15570904 -0.5080472 -0.33916765 0.23646058 -0.120248534 -0.10344745 0.045988537 -0.20743331 0.5124058 -0.38026357 0.24785568
494 -0.09430252 -0.36878654 0.7149409 0.49422148 -0.1860866 -0.47462645 0.30942026 0.5721127 -0.16349766 -0.08299152 -0.10102654 0.017290002 0.41422433 0.2541156 0.15769817 -0.08214843 0.001559639 -0.0124827875 -0.35190836 -0.18816239 0.7784498 0.017135695 0.19213024 0.09674766 -0.15187141 0.17478128 -0.017155608 0.3115364 -0.08797855 -0.04284664 -0.07000473 0.049989127 0.38389486 0.078491285 0.08193323 -0.2850957 -0.29582843 -0.19521397 -0.12828885 0.47856206 0.1890221 0.16585276 0.060909204 0.30814427 0.08228192 0.76104814 0.098415196 -0.30492914 0.062843665 -0.3064007 -0.37608552 0.3701356 0.36994076 -0.123509824 -0.5175706 0.5361292 -0.058209848 0.019922776 -0.079701774 0.09607074 -0.48949626 -0.042193707 -0.08870699 -0.015196013 0.15392508 -0.07864 -0.19128124 -0.28092635 0.17384101 0.59568316 -0.19821702 -0.03911541 -0.20759538 0.116857074 -0.062431797 0.32178438 -0.2767832 0.5912105 0.4625986 -0.3988681 -0.24056287 -0.17615934 -0.1335004 0.069471836 0.22328766 -0.008896684 -0.17577018 0.11593544 0.09688891 0.08688372 0.06657197 0.27149 0.19290072 0.14566095 0.12576939 -0.10135274 0.32235834 -0.192255 -0.25754434 0.11895161 0.08983014 -0.005352258 -0.09212489 0.24405149 0.2860913 0.054093666 0.07334703 -0.23547469 0.19585678 0.04629858 0.46433514 0.17914045 -0.09733143 -0.0037804653 0.27187246 0.4385243 0.028814549 -0.32824144 -0.19051601 -0.010146152 0.17519873 0.113602325 0.027807357 0.16163975 0.1561787 -0.0039213863 -0.2829902 0.18608712
0 -0.35615498 -0.014443382 0.5089654 -0.29448283 -0.2334296 -0.06667121 -0.03297155 0.2676324 -0.16195032 0.0061764293 -0.24141447 0.07709208 -0.29343182 -0.17996043 -0.121296324 -0.39341626 -0.071343616 -0.11939812 -0.12683639 -0.31594923 0.17069757 -0.4600284 -0.038872503 0.054702118 -0.25986347 0.1881001 0.079264306 0.12642331 -0.05935327 0.027880881 -0.14972885 0.04908558 0.494852 -0.020298596 -0.21779288 -0.46726122 -0.10680233 -0.008113911 -0.029928682 0.1474647 -0.049368776 -0.62147194 0.1872847 -0.0051702308 -0.06471995 0.3599638 0.14117214 -0.7451377 0.35121924 -0.01530629 -0.16853818 -0.24757917 0.25073555 -0.059276745 0.060413543 -0.092791 -0.61956 0.30579585 -0.13459575 0.2702061 -0.4300835 -0.18337299 -0.21703064 -0.57228243 0.3000143 0.09655575 0.14171658 -0.10340954 -0.48373902 0.15300716 -0.0783853 0.15234324 0.090970896 0.30425778 -0.30818817 0.057357803 0.3284715 0.03387365 -0.0045495117 -0.38860664 -0.20353137 -0.22103058 -0.0687883 0.11425483 0.26382068 -0.04226916 -0.020372551 -0.13347104 0.038741406 0.18186176 -0.0579943 -0.32659137 -0.23548274 -0.5162398 -0.16911855 -0.5709794 0.14346537 -0.19947936 -0.085959435 -0.3928797 0.15543234 0.12829049 -0.24876295 0.27040526 0.21142991 -0.002257034 -0.123108245 -0.17252265 -0.084998004 0.20982538 0.72492033 0.20587417 -0.3687004 0.2536585 0.20357713 0.26343802 0.17153105 -0.2901558 -0.26381347 0.2547346 0.27950844 -0.024027634 -0.35933122 -0.23658024 0.14101698 0.35210022 -0.044793326 0.3276017
1112 -0.054837983 0.009537378 0.42321193 0.18809837 -0.45353764 -0.7717589 -0.063491106 0.5372045 -0.27011284 0.137189 -0.30974203 0.19829452 0.2146217 -0.0342865 -0.111457966 -0.17465925 0.13484272 -0.040157765 -0.15099 -0.56594294 0.30671477 -0.16416949 0.12683202 -0.011515808 -0.41590503 -0.10555445 -0.42843863 0.12585908 -0.15833798 -0.28865469 -0.12894376 0.15015486 0.40418938 -0.10054247 -0.08638894 -0.18744889 -0.18414247 -0.1913372 0.1431831 0.067355596 -0.17811228 -0.26861063 0.27748945 -0.09298221 -0.14370784 0.62878805 -0.23533368 -0.29853448 0.078525506 0.0074597043 -0.5296814 0.17057066 0.26441285 0.06787194 0.06112345 0.25754204 -0.28778672 0.22552608 0.06766951 0.1873272 -0.5978601 -0.2494611 -0.02190839 -0.27959964 -0.03930672 0.034531884 -0.32507142 -0.23483916 -0.015208717 0.061148196 -0.02904181 -0.18464452 -0.146685 0.071051784 -0.40785307 0.4855415 0.1960255 0.031862397 0.16339308 -0.03785195 -0.21132495 -0.056422703 0.059059575 -0.14438868 0.04396003 -0.2638294 -0.03991522 -0.18858548 -0.097857125 -0.12360021 0.07652116 -0.14075923 0.2463272 -0.1672226 0.09882364 -0.22797436 0.055593308 -0.08842472 -0.12432555 0.50096726 -0.02602754 0.07109753 0.2732139 0.36029378 -0.08497524 -0.07440459 0.030524354 -0.4389642 0.2139488 -0.15255338 0.30946702 -0.0005013028 -0.23822114 -0.003920618 0.04074051 0.09102388 0.059570745 -0.40561193 -0.3625343 0.13183871 0.34254912 0.022788687 -0.01144235 0.3094775 0.38287923 -0.1935163 0.07853489 0.37164098
1664 -0.4427626 0.27130908 0.28781903 0.06770886 -0.4726826 -0.21577232 -0.10032625 0.4574415 -0.36197048 0.24134502 -0.063051865 0.1563602 0.11412104 -0.04949618 -0.09822417 -0.37522694 0.06128677 0.09759166 0.19093771 -0.13558191 0.47710523 0.1991982 0.20919177 -0.086664304 -0.40438408 0.09942025 -0.12631693 -0.08061782 -0.10360152 0.020538906 0.015196435 0.10503377 0.65171695 -0.10860244 0.27282512 -0.12102112 -0.35375983 0.09249217 0.2527685 -0.025180643 0.08408019 -0.31927118 -0.08160998 -0.36143497 -0.31027606 0.38476717 -0.31768993 -1.009202 0.034536965 -0.10516266 -0.17783418 0.15259317 0.18043986 0.041750815 0.0029170476 0.60752344 -0.027624467 0.03238193 -0.22724237 0.47366238 -0.17125922 -0.030801477 -0.015521907 -0.08467479 -0.1447632 -0.13426857 -0.11780876 -0.42811558 0.3032658 0.34221682 0.053221133 -0.047259755 -0.27902836 -0.0057531986 -0.029643787 -0.11295652 0.00654784 0.21353818 -0.16885503 -0.39677224 -0.10256196 -0.17948374 0.07233804 -0.005687545 0.016239442 -0.13413027 -0.2309278 0.18298826 -0.24286176 0.010019645 -0.028384434 0.39154097 -0.006847734 -0.4043099 0.11677096 0.13746059 -0.08372935 -0.03492034 0.050759695 0.19982971 0.32852125 -0.0831989 0.4628918 0.25867742 0.31069055 -0.123132534 -0.40758565 -0.060515855 -0.048192225 -0.0053363945 0.44126087 0.26092133 -0.19298045 0.27382702 0.1773383 0.008821404 0.037035838 -0.29280564 -0.34426028 -0.019643681 0.23222463 0.35174382 -0.057932142 0.27300766 -0.024818348 0.009210706 -0.19991744 0.20013782
233 0.26916084 0.070945516 0.3364678 0.100334756 -0.29918924 -0.30092537 0.40643638 0.48195943 -0.1940763 -0.43677205 0.1738323 0.035207998 0.21186724 -0.37470734 0.03467658 -0.28581652 0.17421238 0.08883097 -0.091244 -0.0078482935 0.53661877 0.07170147 -0.030326873 -0.13985872 -0.14403313 0.05533156 0.15276827 0.45451757 0.02738739 0.03261389 -0.14576584 -0.1779377 0.16854239 0.019811433 0.29812908 -0.5863966 -0.061203796 0.021391673 0.20960584 -0.13687596 0.24913877 -0.15158679 -0.17828113 -0.51630753 0.062093068 0.27072465 -0.18028395 -0.24908829 0.4314918 0.11546856 -0.22451273 -0.057592064 -0.06075239 -0.09354716 -0.34184885 0.22145121 -0.20529036 0.040804636 0.21611701 0.37818435 -0.13407056 -0.31020346 0.08369472 0.08648404 0.035752613 -0.0065516746 -0.101299055 -0.25519183 0.16474475 0.26061472 -0.27579424 -0.1220453 -0.10543471 0.08511848 -0.2110919 -0.2758181 0.38681084 0.05709446 -0.38908744 -0.377713 -0.07733784 0.11604329 0.13179734 0.15850012 0.26564598 -0.18365817 -0.22426595 0.37859204 -0.019135227 0.059141457 0.18988016 -0.21743706 0.08985912 0.05485773 -0.1391566 -0.3136779 0.23322204 -0.077596806 -0.10006098 -0.22329591 0.29875877 0.10387314 0.18725085 0.25407267 0.27574378 0.4610352 -0.077080555 -0.30049828 -0.06777826 0.1363529 0.15851617 -0.14558175 -0.39711636 0.25535148 0.30840582 0.24106933 -0.00091415347 -0.55772126 -0.23061794 -0.10347586 0.18771286 -0.20783634 -0.0039632493 -0.0705527 0.19415912 -0.06517411 -0.2600173 0.66801536
703 -0.5086084 0.12651576 0.48451614 -0.1006124 -0.39610845 0.046249684 0.2794335 0.18257625 -0.15578963 -0.49602005 -0.033281732 0.24621685 -0.027963957 -0.1266735 0.0790486 -0.33355814 -0.40412915 0.08786539 0.177948 0.07514804 0.2121403 -0.07630022 -0.21220255 0.10462067 0.031494785 0.2592162 -0.054946072 0.14090604 -0.33729655 -0.45647007 0.26946455 0.3598631 0.36965954 -0.1344575 0.17333885 -0.452334 -0.25784948 -0.12279367 -0.0040753614 -0.06219775 0.2078609 -0.42867082 -0.2687532 0.06705704 -0.108095326 0.2983881 -0.16781153 -0.1031863 0.2732104 -0.28733575 -0.13287337 0.2931471 0.046941366 0.38611704 -0.16404651 0.46260574 -0.008743352 0.074334495 -0.11340926 -0.101696715 0.017203243 -0.29538313 0.12443415 0.12207988 -0.11987264 0.18114717 -0.014777589 -0.47618914 -0.15131123 0.6374898 0.2493322 -0.12413609 -0.28926906 0.25476414 -0.25212777 0.077909425 -0.027852308 0.13404757 -0.23742056 -0.50859237 -0.27501932 -0.029754609 -0.2156167 -0.14134452 -0.12968585 0.24391277 -0.04714245 -0.14788605 0.116337255 0.3915865 0.11067649 0.14089765 0.20587562 0.016123857 -0.26802647 -0.56708544 -0.17972268 -0.11051231 -0.31169325 0.13577731 0.07632742 0.3952874 0.104296274 0.03483711 -0.4649477 0.19583793 -0.23728065 -0.22468223 -0.09550823 -0.047514845 0.18268198 -0.22065945 -0.29099128 0.15125893 0.38535252 0.1790968 0.14128427 -0.31641272 -0.26067865 -0.097407706 0.40763196 0.1268417 0.13374682 0.2992467 0.15378194 -0.060179975 -0.5369187 0.4211968
1666 -0.16740288 0.1308168 0.41109836 -0.04380253 -0.21408977 0.013178666 0.4076096 0.42187902 -0.03228816 -0.3884139 0.04087592 0.045313723 0.12471894 -0.4313367 -0.017401619 -0.014168735 -0.2272773 0.19965555 -0.01014006 -0.059248228 0.40652862 -0.23755713 0.06477823 0.12106978 0.105521716 -0.18710977 0.10784199 0.5360747 -0.11740595 -0.213837 -0.043870967 0.14166352 0.4164687 -0.1874212 -0.06293451 -0.39059848 0.12355724 -0.37859783 -0.0759382 -0.13619038 0.45605975 -0.32214674 -0.2645465 -0.0015674013 -0.032545533 0.11026284 -0.44270766 -0.16597557 0.5511033 -0.3247654 0.021542214 0.049622122 -0.41900766 0.10560557 -0.25366125 0.5994674 -0.19573696 0.2703612 -0.18584976 -0.21000946 -0.161841 -0.10883263 0.045323387 -0.0013853873 0.035461105 -0.07387441 0.022641432 -0.23537599 -0.0777287 0.73120534 -0.112128854 0.15104635 -0.02165422 -0.085206114 -0.25818682 -0.06453986 0.17124224 0.013051208 -0.11169008 -0.3069738 -0.4594173 0.04555744 -0.12118132 -0.2390194 0.45985126 0.105071865 -0.34053555 0.14988704 -0.13526717 0.107915916 -0.060719624 0.11558224 0.45464554 -0.0023263136 -0.122671515 -0.252494 -0.051251937 0.08380493 0.13374507 0.35479543 0.005059903 0.1602141 0.006074679 0.270744 -0.30360225 -0.07271683 0.048496973 -0.47650555 -0.16961975 0.34409612 0.14099851 -0.1675813 -0.17759171 0.4348277 0.23971371 0.80607325 0.08228916 -0.47352988 -0.26738662 0.021506062 0.28699648 -0.06573693 0.013028148 0.005448872 -0.019786311 -0.23776741 -0.5175258 0.26748517
1615 0.19194968 0.5488172 0.37398866 0.061490778 -0.4909707 0.060598418 -0.07383021 0.10069899 -0.17852688 -0.21594818 0.004425007 -0.0873673 0.24284734 0.22692151 0.3941731 -0.10345041 0.3732391 0.38003945 0.1378612 -0.032408413 0.20534825 -0.34500375 -0.19343458 0.16539742 -0.40660426 0.21857546 0.06913651 -0.11754386 -0.09137468 -0.09404735 -0.33113003 -0.18048671 0.100547 0.045016743 -0.018078797 -0.53110784 -0.6481731 -0.058402993 -0.06962511 -0.15009224 0.09807549 -0.21061745 -0.14829531 -0.22368176 0.1947461 0.4595209 -0.2483451 -0.2559581 0.16827023 -0.43408725 0.16851747 -0.08138972 -0.019371532 0.006704144 -0.1633066 -0.006165571 0.064942636 0.09403907 -0.011235559 0.37734032 -0.15718652 0.0048076324 -0.15866317 -0.40733096 -0.28680614 0.09763557 0.32370675 -0.34544596 0.38659853 0.83188444 -0.43340093 0.22167835 -0.059179246 0.14560586 0.27557114 -0.2444953 0.35268968 -0.012947394 -0.30017453 -0.4497969 -0.395969 -0.08980384 0.039985 -0.31398588 0.3105913 0.019099876 -0.69403166 0.073163845 -0.20967469 0.3313674 -0.022728592 -0.0075446744 0.20407192 0.0033529839 -0.38596144 -0.39696 0.41876897 0.13669999 -0.18270048 0.04910691 0.038779166 0.34619668 -0.18971887 0.1612899 -0.0032638249 0.20044066 -0.30737185 -0.39857784 -0.14383197 0.001093359 0.22269638 0.0063078417 -0.18012707 0.44828895 -0.28015244 0.0906698 0.3028342 -0.42377582 0.23203422 -0.086741865 0.347285 0.104482055 -0.34733918 0.08368539 -0.24662423 -0.030179732 -0.14905827 0.50573015
619 -0.33483356 0.25203666 0.28312206 0.18438701 -0.32412252 0.095399775 0.019438691 0.6754802 0.14556247 0.15187058 0.11726142 0.19540225 0.09943725 -0.26054037 -0.25149757 -0.19005586 0.2861119 0.09910723 0.2115162 -0.060742512 0.34991542 -0.35559344 0.014508656 0.42667806 -0.39010713 0.06410626 -0.51818514 0.2377493 -0.32593742 -0.21151927 -0.07689356 0.037890263 0.28979403 -0.18806913 0.2701131 -0.36043248 -0.16420574 0.073210485 0.52997446 -0.03288678 -0.0069325855 0.19734642 0.17791447 0.13261044 -0.31762436 -0.06614823 0.00075942505 -0.30482772 0.3669901 -0.1841014 -0.31558484 -0.032341417 0.08761294 -0.037113447 -0.21140452 0.29270157 0.093257114 -0.19730684 0.23707378 0.11367986 -0.10302542 -0.40964186 -0.06321849 -0.31314924 0.44380757 -0.031865004 0.07127106 -0.36894813 -0.19524994 0.8510739 -0.08172587 -0.16303857 -0.24456567 0.24235715 -0.0020271044 -0.09402116 0.41452804 0.06477973 0.12941255 -0.41877103 -0.15942192 0.35826185 -0.006077391 0.22422333 -0.15602538 -0.18955821 -0.3324449 -0.09940795 -0.14540336 -0.30447435 0.20886758 0.31384075 -0.1945176 -0.3064081 -0.25212654 -0.072844915 0.41957355 -0.2111314 -0.33290085 -0.16078211 0.0434858 0.1326463 0.0147151295 0.34572387 0.0052162255 0.13798635 -0.06915717 -0.49220377 -0.29085833 0.032081734 0.719187 -0.29041567 -0.21894084 0.020669283 -0.22983985 0.2505166 0.45181042 -0.46255293 -0.27494562 -0.5194174 0.43223748 -0.028088052 0.12006669 -0.24541864 -0.3415526 0.044927664 0.03592001 0.20520358
1544 0.13860592 -0.36990988 0.1338684 -0.15050612 -0.21200842 -0.17860533 0.24383776 0.010414464 0.009085875 -0.28502974 -0.10411796 0.47014758 -0.11778801 -0.44891718 0.06395006 -0.21693067 0.060661502 0.22584532 -0.1106485 -0.19402254 0.4215353 -0.30036038 -0.08899966 0.09736298 -0.33126122 0.056217384 0.43161505 0.42510366 0.17352577 0.16615409 0.035785258 -0.16598725 0.2565295 0.26630372 0.13854949 -0.40920383 -0.06282104 0.10931608 -0.19860287 -0.010562388 0.2278619 -0.2738062 -0.07958938 -0.6087226 -0.15174216 0.24088518 0.058280293 -0.29707694 0.551201 -0.23770979 -0.26550648 0.12115221 -0.13286008 -0.11032233 -0.19744867 0.39241856 0.17085701 0.1585675 -0.080799825 -0.11196455 -0.39172274 0.039998233 -0.019186854 0.062124886 -0.12270924 -0.025514405 0.028773075 -0.49901053 0.2422963 0.22019045 0.08409809 0.178137 0.054415915 -0.0040567745 -0.38876793 -0.3225395 0.32438573 0.22350292 0.015693933 -0.39732143 -0.19833621 0.1621123 -0.33170462 0.1067963 0.1142155 -0.3460473 -0.11682135 0.3665781 -0.23069909 -0.040965773 0.10276801 0.12776507 0.34656644 -0.028161814 0.11443349 -0.150735 0.27531496 -0.1485077 -0.24766256 0.064079724 0.19349222 0.0034354527 0.080354206 0.5073147 0.113657326 0.12991373 -0.29782304 -0.32043043 -0.060045622 0.2066465 0.1889764 -0.22834608 -0.18395236 0.008995222 0.30695447 0.16902602 -0.19775745 -0.519817 -0.26062495 -0.2973687 0.110896155 -0.24099754 -0.3047974 0.17475596 -0.009220945 -0.12294673 -0.16743892 0.329135
1555 -0.26074257 -0.1444063 -0.107975654 -0.19566126 -0.5404479 -0.15600789 0.12649569 -0.06797647 -0.3301077 -0.31778187 0.028140558 0.43151042 -0.42762327 -0.3218859 -0.003018478 0.17547789 -0.12339479 -0.14233695 0.035090134 -0.16390692 0.22646199 -0.16189568 -0.30821565 0.30875897 -0.2904326 0.31900465 0.3632215 0.13336356 -0.32154548 0.27332217 0.116771385 0.32581255 -0.060987577 0.14931151 0.06775686 -0.43739408 -0.3235928 0.014149393 -0.12027126 -0.17754754 0.24433747 -0.27739185 0.15724424 -0.47684884 -0.44400966 0.35948735 0.14133863 0.11225557 0.7312617 -0.44362026 -0.6602731 0.20493115 -0.27570882 -0.08946942 0.3160736 0.3521228 0.15925361 0.43831545 0.010924856 -0.05834847 -0.43130955 -0.17400417 -0.16732448 -0.07541877 0.007912203 -0.07673493 0.28615257 -0.1789087 -0.011908802 0.19924521 -0.24563059 0.36611566 -0.022715334 -0.0075567965 -0.18022452 -0.2980583 0.019493224 0.13641155 0.05182379 -0.098184556 -0.31933883 0.25035185 0.073523626 0.045135554 0.081746034 -0.31643605 -0.05985669 0.16528256 -0.17334361 -0.026358832 0.24661829 0.16339736 0.33809546 -0.21782464 0.1225276 -0.31974757 0.3063448 -0.39136824 -0.08853216 0.20035931 0.04232392 0.20600182 -0.31444094 0.58132505 0.33746287 0.041513816 -0.3642646 -0.15752253 0.04134427 0.11252702 0.015769226 -0.018124666 -0.042636387 0.32421795 0.19419901 0.18848313 0.18404071 -0.40012977 -0.6199923 -0.2983274 0.34490123 -0.061751306 -0.07115732 -0.28233722 -0.27435002 -0.09099201 -0.614424 0.43821394
40 -0.30552077 -0.0031857924 0.302773 0.13881913 -0.18489659 -0.47842267 0.4755461 0.5828665 -0.15113468 0.098282486 -0.22334175 0.232683 0.07070608 -0.26999205 -0.06381576 -0.3196499 -0.16313235 0.022858337 0.098979816 0.11602962 0.34685135 0.19388129 -0.043806914 -0.26704824 -0.2683818 -0.28032073 0.22935593 0.11113817 -0.077055015 0.4572386 -0.21803054 0.14686821 0.28086725 -0.045927867 0.06947822 -0.21765614 -0.07696616 -0.2843295 0.25254384 -0.10161591 0.22231187 -0.33882853 0.434543 -0.072278745 -0.024264881 0.28744242 -0.24225934 -0.50643563 -0.21763633 -0.261627 -0.21718895 0.13294518 -0.2347954 -0.019221911 -0.38930207 0.662007 -0.023382407 -0.11867395 -0.2504063 -0.029831456 -0.16565372 0.029164609 0.020821705 -0.12754208 -0.041870598 -0.06606544 0.21736573 -0.5140885 0.2280402 0.2765194 -0.28397274 0.2473606 -0.3298211 -0.22917639 -0.044435974 -0.033076245 0.50144243 -0.37179637 0.023231257 -0.6388644 0.03570579 -0.41441306 0.3584738 0.20381553 0.15311857 -0.14478667 -0.23618689 0.14905015 -0.09041076 -0.0028378558 0.24177478 0.20887607 0.18156601 -0.07594884 0.029183201 0.064491294 0.22121368 -0.060402967 0.0320903 0.118702136 -0.087105155 0.21499257 0.15788598 0.23845398 0.08603992 0.38230273 -0.14776948 0.051970586 -0.07129045 0.060842816 0.02876435 0.25444776 -0.08938257 0.1985457 -0.37517506 0.10407922 -0.09833253 -0.61501825 -0.63927746 0.34216395 0.5018672 0.107486 -0.14193588 -0.11753544 -0.38639525 0.23457137 -0.07468838 0.06335296
1553 -0.21817386 -0.061830327 0.3958038 0.20131947 -0.4986704 -0.41884306 0.28271753 0.18966931 -0.40867466 -0.19812556 -0.12153114 0.2911033 0.029038599 -0.09097127 0.13319965 -0.1044834 -0.022342652 0.2070554 0.20890275 -0.07114162 0.3448995 0.13566421 -0.071314216 0.2990664 -0.3268249 0.34558022 0.04650098 0.08740099 -0.16417661 -0.15324979 -0.05430165 0.3694412 0.16278206 -0.19490758 -0.06256995 -0.26469672 -0.12573683 0.09481446 -0.13816555 0.15393764 0.04232148 -0.30563006 0.32516673 -0.07925082 0.07692192 0.35566935 -0.023100723 -0.32213312 -0.0007695043 -0.20424885 -0.13501903 -0.014655035 0.10747222 0.31001565 -0.045917496 0.33240035 0.0022806283 0.13835345 0.2842651 0.1266657 -0.22143833 -0.052578293 -0.16591913 -0.2802203 -0.16926622 0.021165995 0.2232315 -0.04283685 0.30156088 0.4474639 0.31872895 0.36825454 0.08217797 -0.029788561 0.0792641 -0.10904303 0.16863404 0.13202304 0.13510169 -0.78093904 0.1450054 0.029069971 0.19825809 -0.17689212 0.07272972 0.09590432 -0.000488604 0.13277861 0.18467982 -0.15962678 0.05875605 0.16469863 0.50136375 -0.013254368 -0.20774825 -0.099268086 0.10465874 0.004202624 -0.15573905 0.25092396 0.022573292 0.14822935 0.0969235 0.5462775 -0.3790655 0.29763687 -0.20289017 -0.32373857 -0.021551054 -0.031126477 0.13480665 0.22898017 -0.10611927 0.05726544 -0.27978262 0.14698932 0.044022582 -0.4338787 -0.35675058 0.18884428 0.62329423 -0.005966778 -0.09848554 0.004466673 -0.28346112 -0.33525422 -0.063930415 0.35285828
1252 0.15260082 0.0145364385 0.14869677 0.4896276 -0.42382184 -0.6203935 -0.11269194 0.18573593 0.023165401 0.049680505 0.041304946 0.48758554 -0.004471911 -0.28240046 0.039493922 -0.32028824 0.39726943 -0.26133096 -0.22673208 0.15995084 0.25673017 -0.07730931 -0.025028015 0.11731709 -0.33919388 -0.16515814 -0.17651793 -0.16262124 0.037132278 0.2515547 -0.1726379 0.29124793 0.27520776 0.34279117 0.41977015 -0.3574094 -0.020269895 0.29079935 -0.106365666 0.11946552 0.47207856 -0.36233625 -0.13564827 -0.39648554 -0.13551646 0.26869804 0.009704664 -0.4189414 0.08381598 -0.5011421 -0.27397656 0.09621951 -0.013401893 0.013251681 0.19466692 -0.37511846 0.03926761 0.76966673 0.20965128 0.5269929 -0.06863046 -0.12220572 0.15857527 -0.39546788 0.0010835207 -0.18857403 0.35795948 -0.23373975 -0.025909808 0.30103877 -0.2061856 -0.049629763 0.0012051084 -0.06977438 -0.31929812 -0.1814497 0.33895668 -0.01333233 -0.0593545 -0.32221934 -0.09131789 -0.18433307 -0.056456245 -0.54313177 0.35844985 -0.25983173 -0.21479405 0.2549259 -0.06711131 0.21912438 0.3531661 0.13149253 0.28866333 0.20514967 -0.03300153 -0.155951 0.2483441 -0.03235292 -0.16207346 0.17815228 0.09432489 0.34485304 -0.110424235 0.48535985 0.3411968 0.05001323 -0.33754548 -0.32684663 -0.38018298 -0.11723176 0.2585295 -0.19917953 -0.25888002 0.3903436 -0.017783305 0.25879624 0.09534438 -0.39001098 0.17293583 -0.10499144 0.6852194 -0.20935757 -0.2049014 -0.20635062 -0.1473046 -0.2112004 -0.102977455 -0.11437588
66 -0.13789444 -0.07807617 0.34406233 0.03374235 -0.253727 0.0070860274 -0.14466354 0.032329876 -0.11966096 0.18576685 -0.27749166 0.30640095 -0.062282782 -0.105798684 0.2358937 -0.072439715 0.2064792 0.15285172 0.06707319 0.095574245 0.17464475 0.22850458 0.06109841 0.3277567 -0.040074892 -0.24268973 0.083137855 0.10573495 0.17840523 -0.38471055 0.17267747 -0.25180587 0.17618112 -0.20205998 0.1896009 -0.19578056 -0.010679882 0.12591238 0.043326497 -0.033980895 0.2018326 -0.33073056 -0.101648375 0.14536634 -0.30083984 0.4528516 -0.10126311 -0.61877596 0.31896853 -0.13195957 -0.21481352 0.39459005 -0.029050479 0.23754859 0.33654097 0.6083869 -0.27382672 -0.03462457 -0.026474087 0.2883893 0.004124749 -0.29065892 -0.2326606 -0.07844869 0.114961915 -0.2538835 0.019350465 -0.3140156 -0.080942005 0.79353786 -0.0790079 -0.022957454 0.19840893 0.18561934 -0.39763248 -0.2223872 0.11599969 0.01348079 0.15710053 -0.30577725 -0.34224406 0.025157368 0.5279512 0.021886177 0.050927676 -0.040692154 -0.08611065 0.12820625 0.0563468 0.13441464 -0.0131984195 0.16218382 0.48247784 0.060959082 -0.21490888 -0.41895124 0.030217722 0.098670244 -0.19460076 -0.32475716 -0.18755023 0.25116774 0.37340036 -0.032295875 0.0015420029 0.057774816 -0.18819301 -0.14661336 0.25354874 0.20688102 0.36222824 -0.117221475 0.007564012 0.229583 -0.0877079 0.27026513 0.0908417 -0.5354594 -0.42663205 -0.07198698 0.38385966 0.13444218 -0.0620648 0.47963563 -0.23466149 0.017746838 -0.29902518 0.14486173
52 -0.05043134 0.075136684 0.27204275 0.049473934 -0.28707644 0.09558974 0.12388316 0.15554367 0.05260257 -0.2467926 0.042956278 0.29126236 0.11968664 -0.41214344 -0.20362066 -0.12026794 0.08962692 0.16598444 -0.23204322 -0.206723 0.30445018 -0.5249525 -0.16677201 0.06702798 0.07629295 -0.1300056 0.34171298 0.30852425 0.19598272 -0.120853215 -0.1440846 0.0721229 0.42752665 -0.26202324 0.12599084 -0.3504014 0.00813787 -0.48284298 -0.1856061 -0.09886116 0.44968852 -0.44139165 0.05544442 0.27334264 -0.2650343 0.17939308 -0.3123713 -0.26510644 0.57455814 -0.4577823 -0.14438619 0.04805109 -0.30692506 0.21503843 -0.49935675 0.71726424 -0.068670236 0.19253722 -0.05905469 -0.3055223 -0.20892729 0.04332496 -0.12893122 0.016999314 -0.103211 -0.1488864 0.004515429 -0.2920072 0.10329906 0.5977299 -0.2477044 0.12703982 -0.036775682 -0.0727654 -0.31496197 -0.19566073 0.1302973 0.17821606 -0.057520755 -0.43248135 -0.39331722 0.12106121 -0.028706908 -0.18309891 0.41511205 0.083478324 -0.18412425 0.22509852 -0.105113715 -0.26549456 0.0063435016 0.11342688 0.5776927 0.29019412 -0.23224656 -0.14843313 -0.00475189 0.15333134 0.17234518 0.36039534 0.0040676664 -0.043677595 -0.12848298 0.057184078 -0.24113463 0.08542581 0.06593067 -0.66069436 -0.008730568 0.43738055 0.11760066 0.08931775 0.014338022 0.36898562 0.025522051 0.57277787 -0.03939332 -0.4916958 -0.51165396 0.062982015 0.3316524 -0.20798266 -0.08604077 0.05646866 0.11545163 -0.2940912 -0.4798049 0.022525942
1338 -0.4403433 0.29931432 0.62630117 0.07880693 -0.51151806 -0.32882032 0.47596043 0.35235012 -0.025207348 0.4611615 -0.24731952 -0.0081295855 -0.06454137 0.036030248 -0.18136281 -0.021696825 -0.10467158 0.044917524 0.08053927 -0.015147702 0.08121799 0.020283945 -0.1440502 0.32468143 -0.5573157 0.047258127 -0.12559335 0.061761707 -0.21695119 0.0022012955 0.12768927 0.45299974 0.4076035 -0.0077581275 -0.09892675 -0.50166535 -0.3594792 0.44566208 -0.36839724 -0.10538051 0.17442222 -0.61075443 0.11896069 -0.078526065 0.38582358 0.42937022 -0.6348571 -0.47082368 0.052903377 -0.14808577 -0.09060207 -0.32502526 0.10867859 -0.10972574 0.3853312 0.37715113 0.049988583 0.120505325 0.26431924 0.095339194 -0.5326119 -0.21888608 -0.16239741 0.23452164 -0.27344114 0.08607056 0.098640844 0.026577635 -0.030626373 0.3647027 0.11326958 0.2819053 0.024740811 0.17461194 0.0037703852 -0.40744606 0.21991126 -0.22717528 0.13742015 0.12335195 -0.1968406 0.18821888 0.120473765 0.03907317 0.38263032 0.35071942 -0.12351876 0.10308619 -0.031168094 0.20740871 0.119148 0.1371408 0.21815753 -0.08986653 -0.075929604 -0.32232904 0.19619958 -0.02865146 -0.16458993 0.13651426 0.09026265 0.37665612 0.2414847 -0.029437752 -0.06972802 0.20867898 -0.17732483 -0.6154073 -0.03286627 0.32953155 -0.06751338 -0.092972755 -0.27670953 -0.09485807 0.2910028 0.10446667 -0.10743417 -0.46064347 -0.3518363 -0.056013856 0.101015985 0.4694499 0.26367474 -0.027727414 -0.117486075 -0.22073151 -0.21398097 0.32715678
446 -0.14858347 -0.107496865 0.12146646 0.25338626 -0.17408964 -0.25049275 -0.07351879 0.238746 -0.36024895 -0.103437655 -0.4315149 -0.103071004 -0.028780553 -0.19403294 -0.17472573 -0.0462809 0.17744802 0.43948185 0.082952455 0.11990024 0.37427738 -0.07629654 -0.01990233 -0.0037882216 0.3201315 0.21969682 -0.047897827 0.3110849 -0.07531288 -0.057201065 0.23269528 -0.11177726 0.36547217 -0.0069974773 0.14822856 -0.10573746 -0.034998924 0.28159872 -0.029179823 0.096859254 -0.13525993 -0.42260146 0.030896833 0.037335977 -0.019835843 0.30616122 -0.21283911 -0.22159204 0.42030182 -0.26176727 -0.38791215 -0.14548649 0.0828993 -0.24269374 -0.22660778 0.25054973 -0.29064244 0.25066522 0.14395629 0.071018666 -0.20851137 -0.18755023 -0.02134675 -0.17050564 0.11251146 -0.2335405 -0.0561394 -0.24785621 -0.17453572 0.3779607 -0.061888088 -0.01655303 -0.08636623 -0.03527957 -0.13124566 0.022350581 -0.38536036 -0.06710906 -0.13098592 -0.28294063 -0.5207836 -0.06107855 -0.1366414 0.028649744 0.049058132 0.00563266 -0.23451601 0.20649424 0.018588927 0.25025785 -0.19981045 0.29966062 0.3839419 -0.28590265 -0.17365144 -0.46042103 0.13221873 -0.016283827 0.17263398 -0.021899028 0.4172763 -0.123260066 0.30680433 -0.023324817 -0.50071293 -0.008453072 0.14636931 -0.55520165 -0.19372858 -0.037832733 0.08444523 0.004512001 -0.48151204 0.36048302 -0.0076904357 0.33926547 0.40165067 -0.3832655 -0.42434892 -0.39406374 0.54395515 -0.10291826 -0.0898977 -0.19660962 -0.16614601 -0.20570046 -0.32750252 0.2995132
1641 -0.60640067 -0.233174 0.3451502 0.09761805 -0.1960744 -0.068404235 -0.14335668 0.031997513 -0.5428936 -0.002103308 0.00056065107 0.05643761 -0.33074042 -0.29692385 -0.101416446 -0.0689756 0.12444116 -0.19240578 -0.16662218 0.2740961 0.16204527 -0.215607 0.13907117 0.33074367 -0.35619912 0.14734523 0.19937055 0.4119825 0.20112628 -0.4210322 -0.033155225 -0.2769296 0.20186251 0.08894392 0.24703224 -0.13561997 -0.26625133 0.13127513 0.092416815 0.29471654 0.06762287 -0.35292396 0.36643678 0.08828125 0.0272648 0.32501692 0.281193 -0.32959995 0.2739394 -0.26950178 -0.4305984 0.060639318 0.09828205 0.07995894 -0.18194236 0.35946977 -0.050415136 0.002898834 -0.17144914 -0.22836526 -0.27623913 -0.17581297 0.33459017 0.031082999 0.40836376 0.07618118 0.29681802 -0.42338508 -0.26275536 0.43425882 0.16646953 -0.3656546 0.006216948 0.3185891 -0.46507794 -0.11804342 -0.048847627 -0.077330805 -0.116258994 -0.35705483 -0.3348485 -0.052802075 -0.09161062 -0.12033891 -0.12646973 -0.055469707 -0.26393875 -0.59353125 -0.17451702 0.174898 0.088614866 0.010427904 0.23131526 -0.16068964 -0.07462643 -0.058589242 -0.059746936 -0.07469534 -0.12991463 -0.13914478 0.012183992 0.5425215 0.04155168 0.29901958 -0.026525063 0.11472195 -0.4108451 -0.29929325 0.1244519 0.20179155 0.6276048 -0.2216308 0.07749519 -0.15318996 -0.11360545 0.21686964 0.18558538 -0.7590742 -0.35941073 -0.2614973 0.1619531 -0.12502153 -0.4285483 0.24569744 0.072228536 -0.10835842 -0.11523282 0.05055806
1584 -0.43954888 0.14107428 0.29986373 0.2651119 -0.021275423 -0.4744157 0.20272529 0.10193423 -0.020013692 -0.15379348 -0.15156676 0.2947213 0.40821734 -0.15526348 -0.06848115 -0.19740286 0.12936777 0.117859915 -0.23645778 -0.08729062 0.47124436 -0.2239182 0.09204813 0.35576826 -0.12651265 0.080270655 -0.08541254 0.46354508 -0.46085274 -0.17828634 -0.13784343 0.2614243 0.15160021 0.20725636 0.092810065 -0.26893744 -0.38138115 -0.16337773 -0.15834776 -0.20433034 -0.07568438 -0.21496037 0.34755984 0.23303515 -0.14400958 0.2695047 -0.37175676 -0.058802474 0.2755601 -0.22613057 -0.22099039 0.10062743 -0.02374903 0.025767697 -0.15297022 0.30800948 -0.3129996 0.010433332 -0.011008763 0.20173389 -0.40209687 -0.013341641 -0.22037826 -0.03430415 -0.14714716 0.58969384 -0.057111394 0.33313233 0.20714971 0.57929164 -0.11256065 0.05039284 -0.24082316 0.2070793 -0.05055829 0.20598067 0.21250682 0.19694552 0.26299983 -0.3229614 -0.17262089 -0.055142894 0.038876064 0.24531889 -0.0013435066 -0.11568439 -0.0007413018 -0.009007817 -0.21807271 0.07242633 -0.34341505 0.47538483 0.37558362 0.2986053 -0.4535269 0.03203019 0.15427017 0.19438922 -0.10526087 0.22752418 0.2327492 0.09739588 0.19164981 0.103521094 0.41200697 -0.3033567 0.13797224 -0.24870685 0.020037841 0.23025537 0.026210587 0.37114716 -0.34879085 0.022302063 -0.11687081 0.37279385 -0.039163053 -0.6809712 -0.43301305 0.073948234 0.22943568 -0.19989163 -0.10444428 -0.03182745 -0.21912423 0.04740927 -0.4097486 0.17754413
1521 0.16550575 0.14195372 0.3353372 -0.031644545 -0.25575563 0.11332772 0.09487993 0.6935108 0.08548228 -0.15397656 0.061610546 0.0025876127 -0.16482851 -0.47822687 0.32583812 -0.29060686 0.12229435 0.2377135 -0.115102015 -0.20046864 0.19506314 -0.00042450312 0.043727912 0.09409154 -0.51872164 0.17535484 0.007869666 0.46383458 0.5703654 0.0046047475 -0.09832872 -0.05350002 0.23037057 -0.21961927 0.027892862 -0.046095457 -0.1183179 -0.18865155 -0.20609646 0.1815153 0.1791677 0.03510389 0.05090176 -0.16731916 -0.09734181 0.6204612 0.17189775 -0.08054995 0.32943463 -0.16070157 -0.40407157 0.31472102 0.13376234 0.01846504 -0.21018127 0.10901265 -0.104552984 -0.27068317 -0.13365251 0.29844448 -0.4771879 -0.31365478 -0.11813207 -0.115227304 -0.1575701 -0.24167341 -0.12852697 -0.396385 0.48854703 0.65824044 -0.22446285 0.036376026 -0.13884628 0.096497126 0.105085246 -0.25102538 -0.05802654 0.109710835 -0.101118684 -0.20965089 -0.17449722 -0.30201378 0.034977548 -0.31702253 0.16507699 0.104818076 -0.32311293 0.2798404 0.045278467 -0.17064176 0.39461115 0.25838727 0.10393057 0.14628656 -0.5558337 -0.45731446 0.3215236 -0.20226237 0.13372411 0.008977688 0.21554759 0.38380933 -0.0003358217 -0.115678355 0.28207552 0.4016071 -0.2896575 -0.21516924 -0.19365436 -0.069747366 0.27655447 -0.1969091 -0.2458954 0.46261775 -0.027084876 -0.056306932 0.07185216 -0.6259046 0.100296915 -0.29890832 0.091359206 0.19825897 -0.34930927 -0.013165539 -0.18384878 -0.12312278 0.003638681 0.4244147
1643 -0.013155909 0.12980938 0.47663334 0.31499746 -0.5811457 0.30988377 0.03402823 0.41706148 -0.2948067 -0.10870751 -0.23547074 -0.0019283504 0.10093414 -0.39398858 0.12831737 0.008147705 -0.00079612166 0.407358 0.21299852 -0.31643882 0.26117268 -0.16202861 -0.037788916 0.1537981 -0.1049921 0.043552298 0.5421211 0.0031369585 -0.039598122 -0.011222919 0.20263155 0.044183344 0.54734343 0.23419407 0.1555344 -0.29825953 -0.3728601 0.2537402 -0.12364454 -0.3244414 0.35632053 -0.16675481 0.16559485 -0.04420801 0.21062122 -0.09799927 -0.046599478 -0.2044472 0.0862323 -0.46709374 -0.4409524 -0.00051034894 0.31429267 0.07170843 -0.2309344 0.03925384 -0.007816365 0.33625984 0.29754835 0.12786669 -0.71122104 0.053127006 -0.09690921 0.061068244 -0.2323901 0.041315686 0.06389918 -0.40848967 -0.12979296 0.51518756 -0.15061784 0.06973894 0.044907626 0.36669198 0.07531774 -0.10140043 0.20597768 -0.2658633 0.13494731 -0.10864355 -0.40459552 0.0031256378 0.068539485 -0.3567079 0.16167404 0.069393344 -0.055896074 0.110819854 -0.09091053 -0.28294683 -0.12370911 0.46856982 0.3501681 -0.14247824 -0.1601676 -0.16875586 0.50246114 0.18389554 -0.13445449 0.13356559 0.15267056 -0.279504 0.37641892 -0.010558887 -0.040623814 0.4190552 -0.24652107 -0.33580834 0.088148996 0.06917329 0.34354776 0.18564712 0.019745572 0.5143253 -0.33338797 0.08090406 0.33696026 -0.19524261 -0.12468453 0.10243592 0.4081595 0.13920894 -0.1707585 -0.2391751 -0.11739123 -0.3481225 -0.4408685 0.31779054
620 -0.33567625 0.25172594 -0.00618329 0.6434124 -0.090929225 -0.4315682 -0.30289102 0.41559672 -0.23333007 0.05377102 -0.3533823 0.2572103 -0.29218513 0.156186 -0.06138423 -0.34282696 -0.3602159 0.015216107 0.06029859 -0.024743587 0.22998062 -0.26795137 -0.0120511595 -0.13613795 -0.23515362 -0.16927291 -0.107190035 -0.18488671 -0.015757572 -0.13492765 -0.11030624 -0.042720538 0.17634124 0.12191273 0.2442538 -0.078146115 0.023460528 0.2967201 0.0548744 0.10237359 0.1205466 -0.23537762 -0.12392008 -0.33556014 -0.12525453 0.16676101 0.22676063 -0.17199786 0.3743777 -0.18008612 -0.52752805 0.07787644 0.027402233 -0.14389485 -0.1555443 -0.44519183 -0.042726845 0.125337 -0.15081517 -0.15343814 -0.30059746 0.26443666 0.11092943 -0.41771853 -0.08937932 -0.0343466 -0.08468442 -0.48135865 -0.20378326 0.38312432 -0.16167133 0.21145776 -0.31086993 0.1801871 -0.17599462 -0.050508507 0.0063472777 -0.0026126879 0.075756505 -0.45230648 -0.16824874 -0.07561158 -0.26479313 -0.045764126 0.35206112 0.007049161 -0.3955614 0.0692567 -0.095191926 0.20488414 0.2203235 0.2527765 0.43583378 0.16360296 0.0049173166 -0.2659472 0.5328374 -0.22903435 0.074469246 0.31457254 0.35719976 0.023116635 0.22000581 0.18473974 0.028407168 0.40140083 -0.14996018 -0.5640803 -0.24320799 -0.48608643 0.27804676 0.0026642804 -0.26897538 0.14144075 -0.26885042 0.1856117 0.24394457 -0.30500346 -0.26382285 -0.028131222 0.33840144 -0.030651286 -0.28220612 -0.01175175 0.018367244 0.09218916 -0.22117202 0.16772434
524 -0.21728836 0.26105738 0.1682979 0.15058668 -0.15271507 0.40398502 0.050940122 0.28143224 0.01244438 -0.06807843 -0.029202813 -0.36120543 0.091431744 -0.2375264 -0.11816152 -0.19199711 0.16531774 -0.1518821 0.110574685 0.007837184 0.04949573 -0.009978926 -0.17941411 0.20325103 0.21859422 0.027540967 0.025157984 0.026667155 -0.45554373 0.36213198 0.17883079 0.33715668 0.29043704 0.18152985 -0.0043528033 -0.08349592 0.037948545 0.1139292 -0.07627227 0.10935801 0.37962446 -0.6246851 0.09810388 -0.13561358 0.26704288 0.5373092 -0.23850513 0.07720213 0.19469939 -0.29135343 -0.39616957 0.24959542 0.3568946 0.2374771 -0.09028513 -0.047789615 -0.101020105 0.07994033 0.20053436 0.23878677 -0.025124455 0.12434467 0.01747212 -0.036232654 0.06848942 -0.20057514 0.029586434 -0.31843472 -0.08617013 0.43357575 -0.102875575 -0.13922024 -0.34224892 -0.0469149 -0.079253756 -0.24694991 0.371495 0.047412544 0.18040851 -0.7112102 -0.4813016 0.2521495 -0.26451573 -0.1339953 0.0026376103 -0.21795091 -0.04340617 -0.050001536 -0.23175167 -0.18124826 -0.1761572 0.80427575 0.27795905 -0.38379171 0.1035063 -0.39465508 0.062137596 -0.04016763 -0.23208208 -0.06586736 0.35302737 0.2178646 -0.0444246 0.088406436 0.06679248 0.3471304 -0.010464637 -0.54654557 0.11129244 0.16812946 0.34090427 0.24260582 -0.16229202 0.37555364 0.06127613 0.42267182 0.15160066 -0.30959007 -0.33650243 -0.14874719 0.44491836 0.10344911 -0.13677306 -0.017383832 -0.10908498 -0.3205383 -0.4411703 0.52112055
371 -0.63005114 -0.0834764 0.110686414 -0.11680043 -0.3271276 -0.24938093 0.11321679 0.31611285 -0.24349563 0.040508017 -0.15541703 0.22006191 0.024791827 -0.40125513 0.17404683 -0.27963558 0.04326208 0.15852043 -0.018679054 -0.30398288 0.21503535 0.17816304 0.27414164 0.2700477 -0.3816504 0.40529713 -0.12804942 0.1130907 0.38935095 0.008637744 -0.12560974 0.31380835 0.45808095 -0.050996706 0.024102762 -0.14881814 -0.21928594 -0.07382438 -0.105570205 0.20623246 0.14143418 -0.5936657 0.03875759 -0.32750717 -0.011899867 0.46137115 -0.2576557 -0.15231623 0.016185878 -0.09357733 -0.23057199 0.12921265 0.41561034 0.47223675 -0.3504785 -0.022033654 -0.24557783 -0.033555903 0.097812645 0.11471339 -0.49362177 -0.05958423 0.06178381 -0.04225499 0.21639752 -0.126126 0.1659723 -0.2973247 0.019212257 0.1866102 -0.19966005 0.25150773 -0.16589898 0.07194395 -0.18571973 -0.069632106 -0.1550443 0.009222835 0.2505171 -0.5553577 -0.13554251 -0.025299534 -0.12328095 -0.32410294 -0.31749472 -0.0069497214 -0.43508363 0.33459225 -0.06882586 -0.101428434 0.2693545 0.20545538 -0.0468273 0.07612691 -0.14349431 -0.2191578 0.15589976 -0.12189088 -0.2531146 0.13863711 -0.012033543 0.067694195 0.35681272 -0.07963922 -0.0035450843 0.114757024 -0.16258053 -0.08390939 -0.32637808 0.115633376 0.24126914 -0.032674033 -0.572627 0.6058247 0.00028353068 0.12316401 -0.3306981 -0.34045437 0.055798035 -0.3475272 0.24241816 0.117480166 -0.36632043 -0.084851585 0.03998939 -0.35235956 -0.016900407 0.27088743
568 -0.24673834 0.16098987 0.47635987 -0.31417307 0.091739535 0.068021275 -0.1596677 0.35087097 -0.13273892 -0.13024996 -0.08817407 -0.14059612 -0.21409194 -0.3727283 0.03990593 -0.10870097 0.18544374 0.26843023 0.1320626 -0.080747604 0.082758084 0.0040697763 0.059264306 0.32003587 -0.4105618 0.18873179 -0.21847267 0.45239842 0.34042382 -0.17971714 -0.13560349 -0.05089961 0.48996326 -0.21840279 0.14825413 -0.11585547 -0.13567704 0.067240715 -0.16967681 0.18079817 0.21302372 -0.19906051 0.029139783 -0.19013287 -0.34813058 0.80495715 0.2539041 -0.20155826 0.34811965 -0.18583274 -0.40524197 0.36251396 0.086698264 0.26749486 -0.20465028 0.19403683 -0.099690385 -0.19268955 -0.35547733 0.1990617 -0.45331085 -0.26528808 0.039496686 -0.13993882 -0.11141274 -0.44465852 -0.09142643 -0.2451039 0.28636813 0.7004588 -0.08727979 0.17679149 -0.07622471 0.13046682 0.037332423 -0.3583363 0.09439914 -0.036122993 -0.11687071 0.010690569 -0.071620695 -0.11201724 0.27512378 -0.29628605 -0.20260908 0.024459397 -0.36505806 0.47788182 -0.16252027 -0.053161334 0.5796114 0.066360705 0.002020357 -0.14369732 -0.5593851 -0.6133669 0.23091708 -0.4054916 0.1052248 0.14946307 -0.026330514 0.046435162 -0.08981559 0.07209829 0.117686376 0.23293142 -0.40636605 -0.19551697 -0.08336933 -0.029825022 0.33131495 -0.14165446 -0.46654493 0.014406615 -0.024638107 0.1710292 -0.005130056 -0.506554 0.073836364 -0.20758744 0.4119184 0.26236853 -0.24618039 -0.10603969 -0.21273933 -0.052842762 -0.18619342 0.1828546
809 -0.21889853 0.008811982 0.0018953568 0.18984844 -0.04585927 -0.40013885 -0.114729285 0.25025228 -0.008670399 0.11575807 -0.043144625 0.0901835 -0.13024905 0.0059807515 0.0030728464 -0.5039404 0.49273622 -0.09260096 -0.13063237 -0.26602796 0.30556527 -0.39942613 0.1266051 0.34692767 -0.20631395 -0.3274711 -0.35798997 -0.045080997 -0.1986005 0.2540661 -0.037030593 0.40235236 0.13141894 -0.14814289 0.1768273 -0.16494395 -0.19754627 0.38051164 -0.013672829 0.01344599 0.042631656 -0.46284482 0.09765233 -0.13820246 -0.3000528 0.48975194 -0.2791122 -0.22619514 0.11817595 -0.32234687 0.0837011 0.1850934 0.024940979 0.16905835 -0.5417776 -0.09536075 -0.40532762 0.1610016 0.036817513 0.16227277 -0.06305729 -0.0052693007 0.11124412 -0.22035234 0.1531831 -0.11623708 0.4914013 -0.3367425 -0.08439409 0.6163589 -0.32620236 -0.21785322 0.0681118 0.30944782 -0.33064616 0.1726683 -0.07172002 -0.27172086 -0.16023448 -0.5836724 -0.38045588 0.27121955 0.057816874 -0.28352457 -0.30021772 -0.2843496 -0.20146565 0.14790656 0.13929695 0.07761307 0.44320053 -0.06357861 0.33600017 -0.10854263 0.21300837 -0.18082911 0.7129429 -0.50758773 -0.20835595 0.11593153 0.28173235 -0.10850266 -0.09747446 0.090318166 -0.14164379 0.27138078 -0.032005448 -0.0150070395 -0.5259225 0.3035004 0.36005944 -0.09994098 -0.21360654 0.2766989 0.44479197 0.07257309 0.15444049 -0.5134631 -0.16324453 -0.46928313 0.5818565 0.015499536 0.20062196 -0.22913517 -0.09331325 -0.24737182 -0.13944067 0.7509837
