1899 128
104 -0.3065964 -0.44923896 0.09348991 -0.0008233177 -0.0242626 0.18609874 0.13922463 0.11181467 0.10278371 0.093468696 -0.22154082 -0.15398572 0.2968697 -0.34374556 0.01367854 0.42974228 -0.17028067 -0.29835787 -0.27488023 0.06517652 -0.5149576 0.3505965 0.4210707 -0.07701437 0.35741782 0.38207316 -0.05716744 0.13756132 -0.22568168 0.35361773 0.09631236 0.1571743 -0.5390075 0.88370955 0.42828012 0.041063257 0.21166557 0.34430405 0.4475528 -0.20037255 0.25592843 -0.14367762 0.45521197 -0.3621026 0.43497765 0.14697845 0.34207392 -0.043800198 0.2380255 0.06741252 0.19577757 0.054016806 0.08428329 0.3769712 -0.36913255 0.1093433 -0.25324214 -0.0784679 -0.016017823 0.6981228 -0.29273894 -0.025150266 0.10624437 -0.15972765 0.39782274 -0.13516238 0.26594144 0.10184168 -0.1248848 -0.2604531 0.42211545 0.18077712 0.3761053 0.018111508 -0.49577096 0.13309166 -0.23544726 0.27807805 -0.040610444 0.4414534 -0.1238452 0.4349296 -0.27002603 -0.011876019 0.1277533 0.1335015 -0.022527767 -0.06316107 -0.23715904 0.035133187 0.07962898 0.15770702 -0.041620437 -0.25273368 -0.17450857 -0.07306278 0.1770484 -0.26604283 -0.10437189 0.036432352 0.4452697 0.20119387 0.07761372 -0.1470147 -0.445889 -0.13866661 0.3286427 -0.044043608 0.33709273 0.26904526 0.12837537 0.31004104 0.016855313 -0.26004875 -0.37903845 -0.13410676 0.17673145 -0.061861873 -0.053661674 0.17326693 -0.2691566 -0.15003309 0.035513267 0.027074195 -0.17756031 0.031150272 -0.11818178 0.15032971
1623 -0.14301103 -0.36594385 0.18306547 0.13147789 -0.1476271 0.27957404 0.046864476 0.062347494 0.07102301 0.08864568 -0.31504452 -0.40321624 0.31450042 -0.4665115 0.019695014 0.36785412 -0.026124053 -0.17531301 -0.16361247 0.01890817 -0.71191454 0.50281644 0.5437118 -0.04500334 0.32468936 0.19978929 -0.020196091 0.008268858 -0.24533322 0.2787444 0.25828883 0.14044589 -0.3594509 0.63864875 0.28170842 -0.034574363 0.20004922 0.24331675 0.35326162 -0.17786506 0.27969337 -0.127401 0.29675952 -0.45176834 0.2857065 0.11584929 0.26222017 -0.13320783 0.32235685 0.0195674 0.2045636 -0.03934653 0.07302991 0.4675346 -0.39091146 -0.023251297 -0.113639414 -0.15903564 -0.13205428 0.58258927 -0.55023736 0.14110933 0.114298135 -0.114944234 0.32266364 -0.002141873 0.14498591 0.055682633 -0.18255123 0.022296375 0.41614214 0.04274523 0.36033693 -0.0029819424 -0.5173007 -0.08347282 -0.14553438 0.2913694 -0.053986337 0.32917947 0.027097888 0.39134437 -0.21985964 -0.05883332 0.2663539 0.046370916 0.022613069 0.0007442722 -0.1467097 0.14685811 0.076891445 0.15252087 0.054928485 -0.17493998 -0.01636983 -0.22569282 0.19226229 -0.2736192 -0.2699411 0.06918008 0.3310993 0.09853952 0.0119617395 -0.15766393 -0.48010233 -0.23828402 0.43170136 -0.13834824 0.3981119 0.2156959 0.40507218 0.1437809 -0.28203604 -0.13306533 -0.41618133 -0.20820068 0.18871011 -0.062224243 0.065539904 -0.039896276 -0.20219174 -0.31971958 -0.042723846 -0.12664269 -0.1778731 0.0392465 -0.046879925 0.064164445
1542 -0.20996585 -0.48923972 0.22010097 0.24181904 -0.05981676 0.12192027 -0.06427267 0.117870644 0.20827062 0.07109896 -0.073432565 -0.38288885 -0.021590509 -0.25369582 -0.25469264 0.31043813 -0.27138752 -0.19395632 -0.007821919 0.2159214 -0.528533 0.5470634 0.23134075 0.0036382123 0.3498258 0.11713192 -0.17463997 -0.08987289 -0.4818418 0.32264242 0.34798673 0.14707057 -0.29308394 0.81359696 0.261623 0.07403828 0.12932092 0.219512 0.376997 -0.46943167 0.11898964 -0.1770834 0.20129928 -0.42151192 0.334621 0.24238865 0.16924606 0.10538426 0.16816378 0.12577964 0.2507044 0.45525903 -0.067290746 0.45590907 -0.45161176 0.06775831 -0.5323794 0.2915584 0.0006479281 0.4869935 -0.33764416 0.37122756 0.25028935 -0.13788952 0.28025863 -0.1228781 0.42380035 0.015171097 -0.28964815 -0.018865801 0.58102226 0.18355587 0.3376499 -0.29757482 -0.5808783 0.0029851065 -0.2169089 0.31662282 -0.06705019 0.49284458 0.10531196 0.24928072 -0.13299853 0.17881377 0.37149993 -0.16049235 0.12876393 0.028196694 -0.11344942 0.13161264 -0.05283005 -0.18248637 0.29701665 -0.024568506 0.16061546 -0.15357995 0.051218264 -0.22070357 -0.2226265 0.21389742 0.30061448 0.24737053 -0.080632485 -0.43375614 -0.21241975 0.073265724 -0.029942773 -0.056154683 0.109742396 -0.08138486 0.33732167 0.08580473 -0.16188489 -0.11460808 -0.533597 -0.36405683 0.2045517 0.16787174 0.17666638 0.18145257 -0.23877689 -0.033010237 -0.1320477 -0.3264107 -0.16658542 0.090844646 -0.34559456 0.06755563
1755 -0.34642246 -0.55300087 0.10363218 -0.2544938 -0.27379638 0.07892556 0.043385282 0.017878052 0.30512923 -0.07537082 -0.42505294 -0.1909473 0.24039115 -0.642813 0.20385206 0.76158255 -0.22637793 -0.44049788 0.13420148 0.32077485 -0.50945556 0.48168784 0.43400082 -0.012660618 0.5009013 0.23765591 -0.04503467 0.06309653 -0.2846861 0.37100157 0.2015165 0.20246117 -0.67118365 0.40939566 0.66922086 0.08945386 0.2936734 0.58352464 0.41746274 -0.12685877 0.044401914 -0.5436182 0.28212345 -0.17168075 0.30940405 0.0049229166 0.30133292 0.08916475 0.3426309 -0.030530734 -0.056763418 0.14296755 0.12682383 0.024605755 -0.5000979 -0.0285998 -0.23609775 0.11784109 -0.16806519 0.6262088 -0.57908577 0.006385545 -0.052047808 -0.2964633 0.2684074 -0.2784934 0.13400584 0.08904311 -0.032393258 -0.21784322 0.55471873 0.13246457 0.157599 -0.07337015 -0.5107866 0.15892474 -0.27619877 0.44203722 -0.07509653 0.16329424 0.16924606 0.23004301 -0.19837457 -0.000535889 0.42495733 0.2037995 -0.07945129 -0.16667092 -0.24024029 0.28957415 0.24364635 -0.05502035 0.29662544 0.25884104 -0.28979626 -0.37358266 -0.10096121 -0.26220664 -0.09861771 -0.045201454 0.4089123 -0.03038752 -0.1986654 -0.11888326 -0.20884265 -0.060997616 0.32731327 0.15604846 0.3261118 -0.108514994 0.30353725 0.44592386 -0.24026014 -0.29712895 -0.29395282 -0.3288009 -0.038967077 0.30660656 -0.03638287 -0.09198962 -0.065268636 -0.16809283 -0.1461568 -0.14542517 -0.10264567 0.31039816 -0.13453339 0.087428756
560 -0.2095443 -0.44863442 0.16692194 0.00894674 -0.04992744 0.20174912 0.054562904 0.25928095 0.21657702 0.017907592 -0.31651536 -0.36249173 0.121083334 -0.2937916 -0.15176983 0.40365022 -0.23399657 -0.4024666 -0.17768832 0.20149496 -0.50373304 0.33930224 0.4961659 -0.075140685 0.31858888 0.25815183 0.039570674 -0.0066639157 -0.45693186 0.06939379 0.13865943 0.11229849 -0.13993374 0.7747306 0.29773438 0.47914532 0.32139808 -0.024702797 0.14952591 -0.42040223 0.19904214 -0.24990425 0.23827815 -0.6447189 0.4460143 -0.09055458 0.21723041 0.09961202 0.103284374 0.10693068 0.1192166 0.32374477 0.07817201 0.5338887 -0.21054278 0.07435841 -0.443183 0.20432787 0.11584892 0.62895817 -0.48310038 0.0048440783 0.17090727 -0.06831986 0.19972616 -0.1793879 0.23457767 0.1422477 -0.19895843 -0.28175917 0.61085576 -0.007415696 0.039391953 -0.11032905 -0.49841735 0.23552522 -0.3621752 0.34822676 0.103356466 0.52538097 -0.01734028 0.506228 -0.09111133 0.05343929 -0.019919824 0.22259815 0.2291173 -0.09571122 -0.26817852 0.08832825 -0.10195017 0.11202756 0.17285003 -0.123096064 -0.0022467992 -0.18614821 -0.0024514077 -0.1352332 -0.2587179 0.34733447 0.54228824 0.16762403 0.0017836746 -0.24021007 -0.31893322 0.16095534 0.22310023 0.14827777 -0.053929955 0.106703445 0.3725848 0.18650864 -0.22387896 0.0020445753 -0.3971448 -0.4320148 0.3546367 0.032135412 0.00034670584 0.24721979 0.011690689 -0.027897686 -0.20318538 -0.08855945 -0.3688255 0.229401 -0.056442764 -0.053971585
430 -0.21443023 -0.44398507 0.21933277 -0.26476738 -0.08347329 -0.076093525 -0.060221884 0.26599672 0.38163987 -0.02027414 -0.5305573 -0.28877112 0.19115596 -0.51527447 -0.03398476 0.31960145 -0.34357333 -0.40995538 -0.06076131 0.081474274 -0.59622216 0.36826622 0.31824908 0.042599622 0.09455412 0.14497441 0.017819518 0.03286916 -0.24268353 0.0030872766 0.20917314 0.13370661 -0.14411314 0.68264765 0.31213033 0.25404534 0.19733283 0.2407004 0.34554866 -0.48764127 0.292041 -0.3785461 0.22712632 -0.3866583 0.41167748 0.088001974 0.38247466 0.063892156 0.027230827 -0.040868375 0.26851928 0.099528 0.022935942 0.19157499 -0.20692985 0.16012476 -0.45056143 0.2645778 -0.09533494 0.5202223 -0.39165455 0.030280212 0.21071808 -0.023157772 0.022728845 -0.42569464 0.28141236 -0.002385577 -0.061725263 -0.42253718 0.73957986 0.22589508 0.15726192 -0.08676539 -0.53863674 0.10877385 -0.47295117 0.39319873 0.064722806 0.35424474 0.0626732 0.3645446 -0.33263916 0.19288178 0.09883498 0.12437476 0.06834149 -0.24598964 -0.12114532 0.24284892 -0.11837433 -0.09352204 0.19300595 -0.054378647 -0.1936577 -0.32103327 0.010170535 -0.48339334 -0.12000168 -0.10117648 0.39072686 -0.0365415 -0.18904233 -0.122042686 -0.4205426 -0.081374064 0.16886368 0.08442701 0.026952691 0.06488147 0.3829678 0.31396243 -0.23751591 -0.2597863 -0.38165584 -0.31673142 -0.12498865 0.29422322 -0.045457713 0.2901621 0.033143427 0.02618193 -0.080181524 -0.19482851 -0.5003668 0.2699496 -0.031450476 0.07798566
1311 0.008582812 -0.4841509 0.27976242 0.040020693 -0.06643792 0.24390616 -0.21233083 0.25503922 0.36065352 -0.080892295 -0.42507592 -0.49633074 0.2371237 -0.34844947 -0.18844579 0.2913326 -0.19849114 -0.1383773 -0.33729 0.32419637 -0.6057836 0.40765065 0.4340617 0.016973864 0.2756801 0.1171005 0.04318267 0.16675943 -0.31812868 0.22040471 -0.018283866 0.22033185 -0.41207823 0.8005798 0.2880245 0.2961414 0.20331265 0.29549435 0.3722371 -0.3570269 0.2851596 -0.2665486 0.25544477 -0.35365734 0.54049593 0.179246 0.26182982 0.08995973 0.102181084 -0.12678699 0.14091477 0.3978291 -0.01484262 0.36311474 -0.38064632 0.16557834 -0.28785422 0.01913751 0.10796541 0.46487966 -0.4911052 0.105836846 0.31335717 -0.0921902 0.3110533 -0.08084957 0.2789911 0.047700483 -0.32287455 -0.16957591 0.495785 0.23858537 0.31952727 -0.106378786 -0.5127665 0.16004984 -0.27451444 0.21785793 -0.167086 0.21815911 0.047816135 0.32917514 -0.086845145 0.18369138 0.18107945 -0.0019266513 0.14290962 0.02977853 -0.17146128 0.18141787 -0.27309522 -0.18504733 0.47197142 -0.022087691 0.09231258 -0.18886805 0.15147983 -0.34745976 -0.22624105 -0.005940308 0.17426059 0.13403812 0.04779988 -0.23760816 -0.21056117 -0.028920064 0.1587771 -0.0223063 0.100713834 0.071381 0.5737403 0.043540508 -0.118787 -0.08442765 -0.31595367 -0.5018434 0.09274008 0.075534284 0.12179732 0.19968136 -0.34138218 -0.14510264 -0.14874756 -0.24494453 -0.21605673 0.15150787 -0.25265568 -0.09355024
11 -0.033374336 -0.69164544 0.29573324 -0.09901613 -0.01953216 0.18100493 -0.16277608 -0.03790419 0.17297487 -0.13074066 -0.3149553 -0.49030393 0.19896846 -0.320274 -0.05411247 0.4536298 -0.3118953 -0.43138 -0.38070184 0.16668686 -0.64281636 0.60640574 0.45356748 -0.117741935 0.3387813 0.2600848 0.08030588 0.15310585 -0.41200486 0.24849989 0.06297026 -0.044277098 -0.27829403 0.77346575 0.33004317 -0.03163705 0.21869454 0.31252468 0.38428226 -0.29814535 0.19209352 -0.12006796 -0.026978122 -0.21786353 0.44053265 0.03536322 0.23446314 0.001447975 0.023660926 0.015538187 0.025722058 0.079678185 -0.050533883 0.41939694 -0.4803064 0.25706962 -0.6875528 -0.031273793 0.051285177 0.42084754 -0.5904588 0.17553462 -0.023060272 -0.0020880946 0.45064777 -0.098295204 0.15695208 0.059182845 -0.42885572 -0.25735348 0.75540745 0.2991547 0.25906593 -0.20784307 -0.3553905 0.15209068 -0.1759723 0.36253983 -0.31736672 0.37184072 0.0069411932 0.28249905 -0.2921211 0.05215785 0.0811141 -0.12392741 -0.046664823 0.088200234 -0.22825703 0.14065874 -0.19553995 0.021556899 0.18391785 -0.0006667606 0.21314465 -0.12243738 -0.046725724 -0.36118075 -0.26938483 0.024071306 0.26321313 0.16784155 0.06430449 -0.14842497 -0.25666395 0.0688033 0.08124745 0.029649783 0.07732708 0.23945895 0.28584695 0.16050553 -0.17958105 -0.10508558 -0.3044367 -0.44578052 0.06445253 -0.12019793 -0.17738697 0.23922051 -0.40732145 -0.19368017 0.07952741 -0.18269064 -0.23015377 0.047203057 -0.36657858 -0.09468756
397 -0.10522407 -0.70971584 0.29943338 0.24082321 -0.0073144813 0.33539605 0.17555857 -0.0059372666 0.098239005 0.022120947 -0.39192778 -0.35718545 0.28344247 -0.49837038 -0.082365595 0.34785014 -0.12607461 -0.38160107 -0.2036509 0.06479809 -0.79857546 0.5040829 0.38032234 0.004008922 0.28517196 0.45001873 -0.2639446 -0.090961605 -0.39728776 0.29161957 0.23450649 0.04431413 -0.28311342 0.6452916 0.43817362 0.085274644 0.30915576 0.31359866 0.4675397 -0.24297272 0.2362214 -0.08789588 0.22530401 -0.3378428 0.38818502 -0.029360564 0.24356431 -0.08199777 0.32920092 0.14888693 0.088987075 -0.02679109 -0.0010801327 0.35657594 -0.3361234 0.018638868 -0.30563274 -0.10876126 -0.0788217 0.62370867 -0.5051088 -0.018189238 -0.013344663 -0.1295431 0.51671046 -0.03840122 0.3318008 0.28064075 -0.41026857 -0.10288312 0.4991943 0.23395777 0.104731746 -0.0055888896 -0.43418726 0.0064499057 -0.2080432 0.33520937 -0.2904756 0.41613966 -0.072212845 0.3995616 -0.25323182 -0.025877332 0.112056084 -0.1887308 -0.06464479 -0.033834726 -0.23057884 0.12524103 0.078165054 0.1404454 -0.012240383 -0.06613856 0.028670758 -0.043406643 0.31129253 -0.29476634 -0.25773758 0.174552 0.19384538 0.04874738 0.024576591 -0.16401151 -0.40143126 -0.057746276 0.41918963 -0.053778023 0.29702982 0.30418313 0.14054263 0.14157766 -0.103874914 -0.1906033 -0.27302468 -0.11022721 0.37752518 0.04335621 -0.13307874 -0.013269644 -0.21405308 -0.33367535 0.094441935 0.052378636 -0.112637006 -0.16547166 -0.105955064 0.008718257
522 -0.096080735 -0.8668747 0.29547942 -0.02844504 -0.36917824 0.555093 -0.03936389 -0.36414862 0.055930857 0.056573246 -0.22768828 -0.53119546 0.10967908 -0.4627539 -0.11014957 0.2956742 0.2136137 -0.22089636 -0.020121926 0.19441752 -0.5025721 0.5527644 0.5921465 0.43947852 -0.10510972 0.065444306 0.5057905 0.08499182 -0.5641069 -0.0247787 0.08433683 -0.13340257 -0.18781611 0.25180036 -0.04531449 0.2197067 0.06415389 -0.1433394 0.071686156 -0.2091066 -0.33854792 -0.18608508 0.31769913 -0.44050387 0.33804148 0.45915964 0.28683653 -0.11170522 0.26469693 0.10894787 0.08082052 0.12622966 0.016003625 0.76121634 -0.112284005 0.5840104 -0.08232204 0.045149207 0.13682538 0.5560865 -0.5191964 0.28781605 -0.056922503 -0.018221 0.4173331 -0.48897225 0.7681142 0.049311217 0.05829473 0.06852795 0.23561834 0.35629544 0.16507606 0.012615131 -0.5408776 -0.032790568 -0.15867786 -0.036389686 0.21269041 0.155732 0.18151629 0.2122466 0.03186287 -0.013454316 0.47947785 0.08500296 -0.14601775 -0.19971839 -0.12360785 -0.13352284 0.47919837 0.004069891 -0.12588094 -0.051265266 -0.10498713 -0.06314388 0.49055725 -0.792372 -0.24969304 0.24172853 0.22396903 0.21025963 0.16232257 0.007912009 -0.4925792 -0.031206073 0.34109694 -0.14012279 0.083370104 -0.03140196 0.18651739 0.05585589 -0.19953726 0.13313104 -0.26710084 -0.33750045 0.11457458 -0.04014728 -0.38049003 0.14132562 0.12708889 -0.12780817 -0.26460314 -0.26235563 -0.15811865 -0.24557082 -0.38845107 0.20293945
26 -0.028477164 -0.6987448 0.38277394 0.25586316 -0.019044697 0.25091887 0.08068784 0.039627314 0.27310127 0.023559833 -0.47960612 -0.4466168 0.3270274 -0.55720335 -0.26357508 0.13733473 -0.1072154 -0.46336257 -0.30366716 -0.10830067 -0.73029405 0.27285442 0.23791012 0.02509292 0.066833876 0.39224425 -0.19990519 0.06442877 -0.34350285 0.27711892 0.02613046 -0.07776864 -0.10136389 0.52264667 0.4853334 -0.04330418 0.077594906 0.38578126 0.32619485 -0.13656236 0.28537226 0.011025388 0.11369782 -0.16084275 0.42438835 0.11037045 0.41802713 -0.0004140774 0.20918514 0.08644358 0.18785521 -0.16025941 -0.13488738 0.25016344 -0.422993 0.08212278 -0.10812989 -0.10499421 -0.123510145 0.6114222 -0.6903296 -0.1719707 0.20447944 -0.112195924 0.67490715 -0.04908114 0.16985969 0.2311531 -0.24235372 0.038186092 0.49508566 0.30724505 0.19771133 -0.0037824907 -0.4581196 0.27382314 -0.05427757 0.3739769 -0.19558989 0.3874328 0.0975387 0.38645878 -0.39816087 0.06088683 0.094178535 -0.043316707 -0.10270746 -0.07272333 -0.36481106 0.27558964 -0.03215925 0.34316307 -0.021691883 0.10645973 -0.22423698 -0.14325447 0.27293125 -0.2587814 -0.29227504 0.40392387 0.32982978 -0.059677053 -0.069795944 0.031427193 -0.5761885 -0.018677553 0.28704974 -0.011500452 0.29707024 0.26188108 0.2777369 0.18270077 0.09688173 -0.3449042 -0.4869443 -0.26508895 0.30566344 0.14999333 -0.20481274 0.09617339 -0.42403588 -0.40875626 0.25676116 0.32717252 -0.09358168 -0.07515339 -0.018108135 0.21917772
1782 -0.12795255 -0.5005233 0.2689508 -0.13709825 -0.2773234 0.26619598 0.00018230354 -0.20873475 0.16531849 -0.05021746 -0.2057657 -0.33172053 0.17454259 -0.17560416 0.34888607 0.35124534 -0.3701886 -0.16885592 -0.08620378 0.40977165 -0.6525529 0.61593866 0.63232577 0.03456945 0.40213078 0.4014134 -0.036030594 -0.09373359 -0.34609053 0.55109346 0.17564242 0.18678948 -0.43233147 0.88710153 0.535376 0.099087186 0.09827832 0.2927638 0.5951547 0.10682847 0.08559536 -0.22465676 0.038439978 -0.3197444 0.34828869 0.20477651 0.16709396 0.07475318 0.20801182 0.16038734 0.23733024 -0.0966662 0.25511873 0.25362432 -0.28348452 0.2876827 -0.10190339 -0.0023600603 0.15024383 0.7482859 -0.5268019 0.1619883 0.15936376 -0.32574967 0.4177851 -0.13485986 0.134376 -0.023022898 0.029667139 0.107994 0.50187224 0.07363841 -0.024113813 -0.15429601 -0.4701718 -0.057238232 0.02073185 0.101274624 0.13429995 0.2917085 -0.06670258 0.15144812 0.01776184 -0.03287001 0.14374574 0.37333193 -0.12497487 0.13746195 -0.061129294 0.23165463 0.09635109 -0.16620435 0.01566009 0.05205222 -0.23417892 -0.29871535 0.11156562 -0.32822528 -0.083093755 0.19649875 0.38750187 0.011510886 0.19081147 0.05449444 -0.12293412 0.010436068 0.26718608 0.02588963 0.39142138 0.2693895 0.4703445 0.26300675 -0.16705215 0.042064354 -0.39636296 -0.44708622 0.19899051 0.113610834 0.05552029 -0.10536478 -0.33496153 -0.19758776 -0.2960566 0.04909804 -0.005362816 0.075717635 0.085989885 0.293788
94 -0.15009396 -0.47223374 0.5173864 -0.2600238 0.03936118 0.33636335 -0.19912325 0.059028454 0.35295624 -0.26056027 -0.3704756 -0.63342994 0.17040828 -0.424406 -0.05591434 0.37583902 -0.2907511 -0.39971673 -0.17091504 0.2685629 -0.36604446 0.5112331 0.36029896 -0.023145948 0.13613756 0.022493286 -0.03708489 0.37246588 -0.4361359 0.4011324 0.048270956 -0.09082987 -0.36251363 0.8649348 0.29448965 0.15086316 0.28659818 0.13871172 0.31141254 -0.27983966 0.22960533 -0.38136548 0.06805395 -0.30942807 0.2305987 -0.002067439 0.24110967 0.022305049 0.121753655 -0.014169778 0.19547534 0.15040891 0.03594733 0.62034017 -0.16011627 -0.07156524 -0.5337975 -0.18587713 0.038122114 0.3481971 -0.6833662 0.3464052 0.080580644 -0.19635695 0.20634367 -0.08706476 0.27231026 0.17162086 -0.34538433 -0.08037072 0.5589722 0.2508115 0.3206683 0.08660708 -0.44938424 0.15885507 -0.23018911 0.19429275 -0.2600591 0.4544422 -0.07709339 0.22985756 -0.05305763 -0.03998667 0.04123876 0.27057284 0.023483714 -0.05475658 -0.08956815 0.045435414 -0.16968626 0.048312332 0.104572274 0.09834252 0.01204764 -0.12858789 -0.00016781563 -0.29147947 -0.11933848 0.063554905 0.5408759 0.40205246 0.107110195 -0.2180962 -0.33285618 -0.048242934 0.27380052 -0.12112576 0.04927048 0.30646878 0.3468446 0.049952433 -0.11855041 -0.041931883 -0.2511587 -0.3836343 0.29576597 -0.060233466 -0.049282435 0.30777454 -0.25217953 -0.2675387 -0.016709428 -0.16865954 -0.5075756 -0.010968024 -0.14334948 0.22043873
31 -0.32140642 -0.72609437 0.19178177 0.02886975 -0.2343164 0.041147098 -0.21282513 -0.030298075 0.21024285 0.044301234 -0.3957034 -0.33238783 0.059003007 -0.11447574 -0.05288433 0.49007753 -0.23629874 -0.2603243 -0.12163782 0.3958833 -0.65763056 0.46663103 0.57741714 0.02632557 0.35989463 0.15186864 0.005170877 0.040706202 -0.28819636 0.3700351 0.11904262 0.13019541 -0.41465575 0.7437056 0.18805817 0.10370997 0.16275144 0.058578476 0.4923093 -0.2481772 0.050303623 -0.00035833108 0.076594554 -0.43741468 0.23749852 0.3122316 0.34350225 -0.21108013 -0.096513644 0.2662368 0.42057818 0.21762739 -0.011703208 0.3638073 -0.14134671 0.2707384 0.00948025 0.17533958 0.063799344 0.5820988 -0.53855115 0.27593407 0.08493272 -0.21092139 0.4541681 -0.050005723 0.31475598 0.07309574 -0.047601826 0.031192996 0.4068155 -0.011664425 0.11774491 0.087002896 -0.38640815 0.04003367 -0.46590903 0.03743729 -0.362674 0.24996014 -0.101317756 0.25936654 -0.10107304 0.25456032 0.12145802 0.08352507 -0.10289916 0.24316862 -0.4140163 0.08139173 -0.26201162 0.018350082 0.012937353 -0.17030856 -0.2055393 -0.21246745 0.12579319 -0.38779595 0.07140351 0.35814148 0.23331787 0.19968484 -0.2157291 -0.11660882 -0.22349365 -0.109942645 0.1533544 0.008935612 0.3619971 0.33406892 0.34732267 0.062897585 -0.1510681 -0.030533914 -0.40747243 -0.5777039 0.20656514 -0.094649054 -0.35986716 0.14095223 -0.087254494 -0.28280607 0.08443191 -0.072814494 0.009523769 0.021947883 -0.2402227 0.2792844
1245 -0.20608836 -0.7836082 0.531227 -0.1292232 -0.35183278 0.41533142 -0.120472334 -0.078694955 0.35869715 -0.24893923 -0.36178786 -0.33242732 0.28180352 -0.16856788 0.25275773 0.47263938 -0.22461082 -0.26197222 -0.32031947 0.28055516 -0.5348296 0.5731176 0.4551632 0.07667705 0.28356472 0.07805142 0.037425723 0.32617924 -0.32905233 0.1876192 -0.13942605 0.087202966 -0.5226644 0.7658094 0.13546726 0.2638939 0.22742867 0.44374257 0.35064363 -0.17549059 -0.17674837 -0.267299 0.27022016 -0.51193374 0.15113306 0.11087541 0.29539585 0.13720146 0.094048284 -0.060697705 0.08212334 0.04801429 0.16484928 0.64244455 -0.10996188 0.15510385 -0.439556 -0.1256448 -0.15284319 0.4538175 -0.38429928 0.050043117 0.035453353 -0.2528032 0.4217364 -0.04912761 0.14789376 -0.002697192 -0.26036927 -0.13127688 0.46092603 0.15089245 0.39382517 0.02805937 -0.47622797 0.004096687 -0.32399797 0.18201485 0.044955395 0.4193323 0.021349711 0.15586883 -0.08744694 -0.2137448 -0.025263062 0.2226861 0.17197576 0.044515673 0.02707703 0.15680346 -0.090016484 -0.18245088 -0.07226149 0.09743938 0.15887289 -0.126784 0.017510748 -0.24870525 -0.4400012 0.17257863 0.3962855 0.31999812 0.19983718 -0.040353145 -0.28642055 0.0075497064 0.66573143 -0.0803791 0.26676738 0.2562034 0.50384223 -0.013862952 -0.43942544 0.0039942004 -0.13654487 -0.4477042 0.25508314 -0.10149455 -0.28355685 0.29185605 -0.1923327 -0.18577854 -0.12459698 -0.041168693 -0.30822834 0.012410802 -0.011596983 0.18293472
0 -0.27567863 -0.73918134 0.2693018 0.17174417 -0.14423297 -0.043675058 0.49437892 -0.039857835 0.062367845 0.027373005 -0.3369216 -0.45631012 -0.106605574 -0.37051442 -0.2792554 0.23955595 -0.07936896 -0.75737065 -0.18095605 0.051971886 -0.5982518 0.17468412 0.18264848 0.3178455 0.39045244 0.11566822 0.07632538 0.15869728 -0.5445977 0.48509863 -0.056675322 0.032258965 -0.3271257 0.8758627 0.29261017 0.13079837 0.080090046 0.37480012 0.5569339 -0.2890969 -0.18742251 0.046152543 0.19673763 -0.30261204 0.682963 0.0926979 0.47208396 -0.15034382 0.06387726 0.007650545 0.5344034 -0.05827645 0.09541081 0.21182005 -0.268428 0.19553708 0.018283626 0.3303572 -0.11957582 0.47530687 -0.39943236 -0.17833798 0.15083985 -0.41370645 0.5423407 -0.12737997 0.4816794 0.1580521 -0.20470601 -0.21366216 0.23281918 -0.13185482 0.31424293 0.04313735 -0.34285343 0.42428514 -0.10487554 0.110485986 -0.01281855 0.052641533 -0.09297104 0.49704605 0.3245273 0.4070058 0.15050307 0.1556981 0.1660195 -0.07546021 -0.025328107 0.2608815 -0.49855727 -0.06927761 -0.13478835 -0.15206797 -0.40527967 -0.21054074 0.3236562 -0.2645793 -0.100375496 0.18140367 0.2089042 0.15202498 -0.038780227 0.12478692 -0.430971 0.023922065 0.16159219 -0.01479632 0.15555465 0.09577754 0.22647107 0.08395327 -0.30458596 -0.3943157 -0.3333736 -0.42325395 0.33821106 -0.11712645 -0.38139802 0.395902 0.09069819 -0.38052657 0.035194572 -0.06932891 -0.39352462 0.2046989 -0.06976863 0.4475983
1331 -0.12501939 -0.57758015 0.19539103 -0.19016857 -0.22390895 0.44637656 0.19792555 -0.1907539 0.11104295 -0.0805869 -0.4939397 -0.28454888 0.19743553 -0.13501616 0.16223651 0.37700593 -0.08102396 -0.17510284 -0.31384423 0.46258578 -0.49958092 0.5160545 0.63140994 0.0601498 0.47663355 0.31668723 0.17190246 0.2542519 -0.2698314 0.35534346 -0.13341886 0.1094131 -0.5303845 0.8249768 0.39314374 0.45549017 0.12258564 0.3383727 0.46732223 -0.26477984 -0.12849474 -0.33617434 0.30211693 -0.5769221 0.2880645 0.25352943 0.25535023 -0.052385796 0.20043135 -0.09785483 0.010157335 -0.1760701 0.034579445 0.43061802 -0.31926125 0.4996668 -0.0764384 -0.15913944 -0.018072013 0.39157486 -0.3534355 0.032172907 0.12995197 -0.25706023 0.46675506 -0.11054555 -0.07477341 -0.047582567 0.16617687 -0.12053978 0.25671285 0.20971808 0.11122065 -0.006037258 -0.34369364 -0.24322328 -0.14976448 0.081439056 0.089150846 0.47012845 -0.1602629 -0.0284474 -0.29189295 -0.11173568 0.14801665 0.26214468 -0.01594672 0.24502939 -0.14874773 0.25896174 0.011404022 -0.1112492 -0.09431553 -0.14024086 -0.2324043 0.05931331 0.022170275 -0.5709162 -0.26284233 0.1674144 0.3079834 0.0016975099 0.3077549 0.11904291 -0.31263497 -0.13148926 0.30007824 -0.025016049 0.26523793 0.28740466 0.44348162 -0.010403814 -0.18417752 0.014370547 -0.35995868 -0.34328803 0.15338352 -0.13097855 0.023305114 0.06980985 -0.05893822 -0.19752678 -0.230124 -0.2581121 -0.17216663 0.07858986 -0.21820675 0.2102825
1723 -0.38473305 -0.49447858 0.039804988 0.07434002 -0.14962196 0.11579672 -0.07771001 0.25593418 0.385817 -0.09991781 -0.55104244 -0.20017162 0.09479676 -0.47115424 -0.020224346 0.39065564 -0.35735416 -0.3007228 -0.06976114 0.08462363 -0.6035514 0.35218638 0.46017042 -0.12141845 -0.007853791 0.3894653 -0.028615918 0.042781107 -0.16633092 0.095504306 0.2527392 0.22510126 -0.41348678 0.6155782 0.370477 0.20291036 0.22174877 0.11663534 0.0916987 -0.14951165 0.0696753 -0.35362288 0.5430132 -0.43672583 0.3749513 0.07323266 0.38109756 0.006214767 0.25622988 -0.18133345 0.2839766 0.021595232 -0.014209727 0.13558824 -0.29673517 0.24197948 -0.074056715 0.10305491 0.07240632 0.69372725 -0.51451594 0.104984574 0.055685855 -0.15129511 0.1313322 -0.12017031 0.10192972 0.0322322 -0.061809704 -0.13599764 0.5947699 0.4140872 0.30556557 -0.095771 -0.41968083 0.10021774 -0.30151963 0.14472201 -0.039345864 0.2762434 -0.09192695 0.3730606 -0.3565346 0.13453461 0.032424983 0.21131456 -0.14357883 0.029176211 -0.17107067 0.055554215 0.190658 0.14011957 0.21316679 -0.12200849 -0.12907213 -0.28782836 0.061181765 -0.15165228 -0.02405244 0.013507576 0.24853353 0.25844577 -0.020443395 -0.07658557 -0.46226752 -0.21480209 0.1062345 0.1155453 0.33399484 0.033641033 0.22461002 0.3708601 0.192706 -0.3628619 -0.5032016 -0.3643829 -0.020976173 0.009505805 -0.08688503 0.16698024 -0.16321345 -0.44534037 0.022582693 -0.20439743 -0.14174566 0.18212326 -0.28674513 0.22678527
502 -0.20828594 -0.6731894 0.13874917 -0.26455092 -0.23666222 -0.027859984 -0.009090952 0.043733176 0.22061157 0.014652824 -0.16076133 -0.19356525 0.23361821 -0.49866676 0.13013642 0.69423234 -0.10561024 -0.45774466 0.014964133 0.21675178 -0.53043085 0.3520418 0.40843183 -0.045862343 0.42566976 0.2618817 -0.039532356 0.08394663 -0.34908864 0.50957996 0.19868088 0.11988614 -0.4174062 0.4002036 0.4735609 0.096336775 0.22372398 0.4753431 0.3275179 -0.21928065 0.16716626 -0.36610729 0.21987003 -0.03727392 0.2931691 0.11309404 0.20434709 0.095150985 0.41127905 0.012861558 -0.076905794 0.29245457 0.12653065 0.124428935 -0.44814345 -0.1468966 -0.2010723 0.11498547 -0.2241363 0.632269 -0.46160263 0.03193685 0.09011378 -0.30630824 0.43725023 -0.1539928 0.3490418 -0.08660719 -0.06961766 -0.1868488 0.4594492 0.07939241 0.18923137 -0.042218465 -0.7124826 0.11777045 -0.3373895 0.5746114 0.017815154 0.284239 0.030849237 0.26829308 -0.24377856 0.08066989 0.63709974 0.18515813 0.024896625 -0.08715951 -0.34258318 0.256363 -0.0066265734 -0.11735514 0.414493 0.18704331 -0.37062383 -0.3358951 0.1000151 -0.40433043 -0.06185291 -0.1476674 0.50606793 -0.12691633 -0.12944089 -0.078066394 -0.11062693 -0.13049589 0.45304927 0.31395084 0.27033347 -0.029356632 0.30090252 0.5253327 -0.3451378 -0.38191873 -0.4350945 -0.3440666 -0.01226061 0.22326548 0.05050935 -0.027347095 -0.051987093 0.019960206 -0.2033267 -0.17396905 -0.12650254 0.24322592 -0.089392036 0.109226435
1780 -0.27134633 -0.6456554 0.4286318 0.013017004 -0.31697467 0.27000687 0.15571517 -0.016322883 -0.00948147 -0.0741672 -0.4170175 -0.3003701 0.34026945 -0.36604252 0.29027072 0.4182902 -0.36559355 -0.1828492 -0.2747646 0.48299584 -0.6578689 0.63594025 0.7370367 0.08609817 0.4606905 0.31735477 0.19733204 0.24992877 -0.2779206 0.36851427 -0.06313111 0.31529817 -0.47477016 0.710452 0.3184593 0.07844816 0.08516162 0.21885121 0.37152752 -0.18290953 0.16594602 -0.09389714 0.1662131 -0.5104626 0.22782977 0.17930077 0.17353456 -0.109855436 0.051024772 0.094443664 0.20582181 -0.20038956 0.17885849 0.23630689 -0.36138672 0.37978664 -0.12854116 -0.050649878 0.10356707 0.50733113 -0.33675784 0.31711355 0.15035504 -0.24289641 0.3453718 -0.2510556 0.01176814 -0.011994062 0.13383865 -0.036235057 0.44530043 0.067033626 0.101014584 0.0016548623 -0.3235824 -0.036478635 -0.11045569 0.16298403 -0.027532313 0.17369427 -0.08918211 0.33146828 -0.13000074 -0.14030837 0.019561974 0.29886848 -0.0045032385 -0.041087817 -0.09515419 0.2337382 0.06605773 -0.040478446 -0.08957333 -0.10216422 -0.027462231 -0.14089607 0.044845443 -0.5018991 0.0065657753 0.15616733 0.25059742 -0.021000069 0.12175509 0.04052531 -0.39495268 -0.05459476 0.106662184 -0.0005643558 0.21635708 0.30581906 0.33554086 0.03623106 -0.11513938 -0.033971954 -0.4452538 -0.44469675 0.20940436 -0.11836012 0.08148023 -0.19486535 -0.19423214 -0.0120676635 -0.24164824 -0.070386164 -0.0048085125 -0.016957438 -0.045347046 0.1633299
1674 -0.24576943 -0.5327463 0.26693106 0.19337389 -0.13073392 0.12548342 0.10183224 0.10551589 0.21091932 -0.074055605 -0.25465292 -0.28675002 0.20472454 -0.320807 0.084025286 0.3690321 -0.18330789 -0.26883608 -0.0458664 0.34718293 -0.5524955 0.28095537 0.39199004 0.10053262 0.3520944 0.13329525 0.047484677 0.11028888 -0.115726866 0.3734765 -0.053595625 0.259685 -0.40387756 0.8001839 0.2946826 0.09519224 0.04454304 0.24891488 0.36587995 -0.1791651 -0.012412415 0.033105716 0.24026375 -0.36311445 0.5011109 0.11297808 0.40140876 -0.18055828 -0.14627022 0.17959775 0.48732245 0.049823273 0.09971228 0.19131742 -0.41237465 0.3140177 -0.04971378 0.3352477 0.14952826 0.55884945 -0.45471704 0.18025215 0.02979849 -0.293328 0.39512137 -0.07086863 0.10306458 0.002005415 -0.14756992 -0.24092841 0.50782657 -0.004248223 0.11499193 0.06652642 -0.4504325 0.25411916 -0.19004351 0.0948003 -0.08641182 0.15202662 0.13811867 0.48916176 0.013448503 0.07122911 0.09786077 0.10199989 -0.03178302 0.0017660396 -0.32917705 0.06955555 -0.26954114 0.058229644 0.079014 -0.17572343 0.0039536776 -0.1287128 0.16959147 -0.31445292 -0.07460017 0.24152319 0.2341718 0.32945648 -0.124582015 -0.014635666 -0.34565166 0.053333975 0.30242568 -0.054324593 0.24326423 0.2020714 0.30899462 0.057650063 -0.20794736 -0.10369328 -0.1595998 -0.37224692 0.0644922 0.010828217 -0.09442729 0.21961276 -0.09745977 -0.17937797 -0.026776766 -0.06984928 -0.05271033 0.16832122 -0.13049449 0.015209718
1312 -0.16099887 -0.7475187 0.30421755 -0.0479807 -0.2758183 0.40571246 -0.06713956 0.047514543 0.24140505 -0.1567177 -0.5219413 -0.38303116 0.3261663 -0.26207033 0.002910825 0.4045159 -0.13912047 0.017701996 -0.31679916 0.56473434 -0.8108295 0.6458578 0.37567312 0.21757583 0.30744776 0.14688148 0.1208627 0.29580593 -0.13691898 0.05491402 -0.012036791 0.29088068 -0.73575777 0.8581526 0.23262301 0.34848508 0.10313829 0.37984994 0.5554448 -0.43145046 0.19041947 -0.35392824 0.19242851 -0.52579176 0.2944956 0.26213664 0.2917185 -0.12382127 0.1259907 -0.19886519 0.104438245 0.030319883 -0.024205793 0.42069098 -0.43039617 0.36923924 -0.28003 0.14132425 0.02396189 0.30527586 -0.579631 0.13958378 0.22340363 -0.27235752 0.3443333 -0.041227 -0.02593957 0.039907727 -0.0075375102 -0.1354521 0.40769264 0.31500688 0.22001162 -0.086021885 -0.28894526 -0.019592453 -0.28615087 0.17586564 -0.1960333 0.40145707 0.0033995756 0.09173563 -0.3129382 0.025177147 0.18447694 -0.0612681 0.043050863 0.4006972 -0.17063984 0.23761588 -0.22487965 -0.054876167 0.12059196 0.02170703 0.1142653 -0.077044375 -0.101180784 -0.47549385 -0.3631238 0.120400734 0.16874018 -0.104255214 0.10096953 -0.112758555 -0.22196886 -0.1950306 0.11305173 -0.07394217 0.17583105 0.2085408 0.6537618 -0.15882275 -0.27311173 -0.014088045 -0.32103422 -0.49161825 0.015309858 -0.113960885 0.0348568 0.21330412 -0.11828425 -0.17290075 -0.054034606 -0.09275318 -0.4627515 0.015870977 -0.21317717 -0.035863914
1791 -0.37246126 -0.41982064 0.19928855 0.34758592 -0.1577861 -0.10221748 0.09428788 0.4091961 0.015574785 0.071207896 -0.28812662 -0.12127292 0.26543298 -0.30586854 0.06929512 0.19746003 -0.5374896 0.02313723 -0.058261648 0.19176173 -0.80931455 0.1662936 0.39434332 -0.056640536 0.4444869 0.14759323 -0.302963 0.09160427 -0.38343135 0.07555456 0.027247103 -0.07264352 -0.39622816 0.9675793 0.39118758 0.0640919 0.26663855 0.34854183 0.44478503 -0.28182405 0.7487057 -0.020464538 -0.06066351 -0.32599357 0.22061834 0.18072914 0.44005612 0.17447971 0.34987995 -0.15149257 0.21151887 -0.08187024 -0.10564832 0.11420744 -0.30905193 0.15044959 -0.13710786 -0.0032294174 -0.16533808 0.70171463 -0.5825183 -0.11628989 0.13989092 -0.06233488 0.30134743 0.00778474 0.20795566 0.3160186 -0.23231079 -0.11914119 0.5880391 0.23014803 0.24222039 -0.16981938 -0.53456086 0.23198262 -0.19209343 0.30805436 -0.116855584 0.361584 -0.027184656 0.69392854 -0.30888113 0.1206946 -0.045365717 0.7787466 -0.25766608 0.0770587 -0.22195014 0.41852126 -0.14975049 0.15160407 -0.099834666 0.24610494 0.009944524 -0.01968268 0.14310504 -0.085622594 -0.21491536 0.5003396 0.49391237 0.19520198 -0.048945006 -0.34140536 -0.37173128 -0.18369833 0.25023037 -0.09260763 0.25754848 0.21883292 0.7395261 0.029955857 -0.18449692 -0.028636264 -0.49823198 -0.06282819 0.13968036 0.0151947485 -0.21219276 0.20881599 -0.0536841 -0.52863526 0.28221464 0.09538679 -0.14525095 0.25324544 -0.0921249 0.13506053
846 -0.41476634 -0.7980825 0.26925012 0.3036677 -0.28196692 0.03922032 -0.20800745 0.12806328 0.35780206 -0.0054507456 -0.14955042 -0.3222362 -0.0988504 -0.11410018 0.048873883 0.3930838 -0.47486752 -0.17953451 0.02755071 0.29141882 -0.6442936 0.091838144 0.37701938 0.115675114 0.43084162 0.10275111 -0.091461025 0.14113265 -0.21961255 0.3802206 0.076145 0.16464834 -0.6099158 0.85942256 0.48752254 0.26510426 0.37504518 0.13690825 0.60770494 -0.16475011 0.06587249 -0.22791262 0.14056146 -0.4743096 0.5248125 0.016941063 0.47552228 -0.36827967 -0.21783428 0.31813335 0.49577245 0.08444785 0.16493574 0.17388818 -0.17323937 0.42490047 0.14768228 0.34381324 0.29310733 0.55147064 -0.7298198 0.2286906 -0.10356808 -0.2510215 0.27246428 0.059809722 0.14291528 0.12689996 -0.07863353 -0.4349176 0.37955198 0.11613066 -0.14346175 0.10327186 -0.27907038 0.16391252 -0.50114816 -0.12129751 -0.1454329 0.0042105997 0.18400477 0.22859435 -0.18026254 -0.0026434073 0.22936977 0.2598403 -0.16681275 0.06605991 -0.23457915 0.027065713 -0.47077674 -0.114338405 0.12961474 -0.22058597 -0.06400599 -0.12499036 0.01684396 -0.3323782 -0.17723136 0.36477277 0.35143992 0.372695 -0.16445515 -0.15511903 -0.3630759 0.1082277 0.33311802 -0.01643038 0.11088709 0.16728514 0.42598078 0.049557276 -0.39584306 0.06363762 -0.13931158 -0.59886724 -0.16529335 0.12531738 -0.27342454 0.5144227 -0.026833452 -0.27976504 -0.23562004 0.041690473 -0.11453938 0.09267329 -0.09450222 0.16351204
1795 -0.03860408 -0.22781612 0.56517375 -0.16166894 -0.053073473 0.16832334 0.06943775 0.1494883 0.14893752 -0.16635878 -0.17712963 -0.3586429 0.030284867 -0.33621034 0.10178604 0.2254794 -0.48506042 -0.35969946 0.094735384 0.10719345 -0.43696162 0.6789046 0.5728498 -0.026499838 0.29797903 0.15146317 0.13875799 0.2542673 -0.28127682 0.52297336 0.19678152 0.03339503 -0.30330703 0.8685686 0.20751415 -0.035313223 0.4821892 0.05469743 0.302406 -0.32159066 0.20372908 -0.17764065 0.19587979 -0.40412608 0.26852342 -0.0735378 0.32105494 0.07955493 0.20644529 0.3402016 0.23685445 0.06842432 0.13874792 0.3916234 -0.23335755 0.070025496 -0.5398558 -0.05084362 -0.06405801 0.7009817 -0.6244958 0.16354583 -0.1288376 -0.32778215 0.020193879 -0.036350314 0.23527293 -0.26100934 -0.16800523 0.04378699 0.6009766 0.14130042 0.5265345 -0.0017736206 -0.3813481 0.14097703 -0.2724181 -0.03843839 -0.09892798 0.44203576 -0.024992533 0.25655445 -0.16128354 0.14592896 -0.08792537 0.5141691 -0.024367636 -0.27950576 -0.33655867 -0.018341245 -0.27404267 0.35151133 -0.2639709 0.063652165 0.021617677 0.05720141 -0.04780092 -0.38032642 -0.22395626 -0.008207116 0.40646258 0.3235954 0.024182059 -0.035280563 -0.5291322 -0.05009867 0.4180066 -0.14702828 0.17976029 0.40754008 0.4088074 0.35245162 -0.15958364 0.12131056 -0.50133914 -0.41067654 0.07056392 0.060855724 -0.11010961 -0.106840186 -0.32478324 -0.33238408 0.11351156 0.04616866 -0.34808686 0.009737594 0.0024183546 0.16562514
2 -0.25795376 -0.67999554 0.38907236 -0.0010272566 0.037356913 0.014709975 0.38971087 0.007958209 0.1579953 -0.021153444 -0.32745188 -0.61474055 -0.0779432 -0.4920444 -0.006098884 0.4357292 -0.33612335 -0.7990558 -0.04163294 0.030200107 -0.56301564 0.25162557 0.43742442 0.37306818 0.43413252 -0.110077895 0.020478694 0.27239707 -0.6457529 0.41641578 -0.11668397 0.063474424 -0.25283754 0.765022 0.32535455 0.13661993 0.056466505 0.19917709 0.46513906 -0.2608621 -0.114865966 0.019493729 0.19732365 -0.3730589 0.54218817 0.13754655 0.47603956 -0.07196494 0.027651468 -0.061643906 0.53718144 -0.1308365 0.15834694 0.13925165 -0.24544078 0.15075178 -0.2060136 0.6003651 -0.24672551 0.4105893 -0.3393357 -0.21517874 0.03267864 -0.5108432 0.29676485 -0.018625543 0.463996 0.01250387 -0.112698205 -0.2582179 0.37589866 -0.10846801 0.46208116 0.05720601 -0.4835923 0.4379839 -0.0032625394 0.1414065 0.10081559 0.091711946 -0.008041446 0.45934826 0.39957944 0.3907631 0.17293443 0.1607718 0.05605718 -0.026900746 0.008654133 0.23115206 -0.46934357 -0.0046359655 -0.10080595 -0.20546748 -0.3359897 -0.16764802 0.10544223 -0.15796028 -0.14891776 0.045195572 0.29130533 0.24562418 0.07319701 0.17755061 -0.3947414 0.033226553 0.19858153 0.06141024 0.20572194 0.10597269 0.18947059 0.1785479 -0.3524934 -0.26866108 -0.34510535 -0.4224932 0.2508876 -0.09439881 -0.26506987 0.31289437 0.16207196 -0.24020112 0.084739305 -0.008876433 -0.41400045 0.1893244 0.027784493 0.51765066
1284 -0.1452973 -0.52626586 0.23806697 0.21361256 -0.052661058 0.0076281847 0.055357397 0.18294393 0.111581706 -0.039118543 -0.32455668 -0.08532187 0.18429351 -0.3500603 0.014660801 0.18443377 -0.359558 0.011191455 -0.0039104684 0.03219909 -0.6663204 0.2535212 0.26227123 -0.09440756 0.1873899 0.3150398 -0.33042938 0.04198026 -0.20067124 0.22115949 0.03560024 0.03069157 -0.322924 0.91109675 0.39610767 0.31471968 0.21006763 0.23619938 0.38294917 -0.244092 0.46324587 -0.13119382 0.16720483 -0.3767046 0.118678525 0.17136692 0.5001229 -0.19081052 0.33151716 0.055925343 0.3317781 -0.20162667 0.019732583 0.17774196 -0.38940632 0.22960216 -0.15603606 0.08362848 -0.06252081 0.69202894 -0.6583671 0.14411616 0.11025348 -0.28462285 0.528472 0.16342218 0.17238593 0.21558906 -0.14621119 -0.069467135 0.91733325 0.32310718 0.040706612 -0.18258652 -0.6473963 0.17671071 -0.20448233 0.44713905 -0.07271495 0.38952288 0.20636667 0.43855205 -0.32372937 -0.07035066 -0.0074454015 0.29205316 -0.074299335 0.09100483 -0.41967663 0.42241108 -0.18755017 0.065389074 -0.029490003 0.053553045 0.019957317 -0.015973823 0.037185956 -0.06233939 -0.15371826 0.39593825 0.34179434 0.2514672 -0.17482835 -0.21038942 -0.2953895 -0.23573445 0.16072881 -0.10057309 0.04878706 0.30149975 0.5824222 0.10113624 -0.37025544 0.008643365 -0.21445173 -0.194023 0.07587892 0.0824575 -0.14030711 -0.023070475 -0.046536114 -0.31210145 0.23196006 0.07659151 -0.18006952 0.11175784 -0.17665838 0.27706245
482 -0.22035463 -0.6641562 0.21599486 -0.22438718 -0.19754505 0.028854175 -0.037706006 0.3051992 0.4849973 -0.16742706 -0.2332322 -0.2626195 0.16970323 -0.3744532 0.12258645 0.560384 -0.21281376 -0.33884737 -0.015098034 0.11241732 -0.53304416 0.2719389 0.28008306 -0.074066855 0.11509762 0.2789043 -0.10034216 0.07169308 -0.29283947 0.13109559 0.1687432 0.2087324 -0.3550092 0.46331826 0.41691568 0.13609482 0.18910384 0.43557948 0.317983 -0.3530923 0.15634206 -0.29736623 0.27182958 -0.27520797 0.4524601 0.0708606 0.25707862 0.23324929 0.30597934 -0.19469781 0.11352418 0.32849988 0.09002131 0.2923853 -0.27555236 0.012890374 -0.34643182 0.21265432 -0.13450411 0.5425232 -0.41363764 0.092342824 0.16950242 -0.18968244 0.35733438 -0.23205099 0.32968047 -0.20738868 -0.13056153 -0.20748402 0.5930462 0.19670208 0.09046562 -0.15247813 -0.73978114 0.25172493 -0.3670751 0.34888217 0.06502261 0.35246563 0.082241975 0.315523 -0.26288977 0.18655021 0.3193786 0.1360542 -0.030210365 -0.010657188 -0.14813545 0.14783823 -0.09384308 -0.09935619 0.27855867 0.22072987 -0.18044621 -0.47621322 0.12112594 -0.25496605 -0.19031438 -0.007686016 0.4571043 0.09910184 -0.05802596 -0.03853179 -0.1836505 0.043756478 0.28626746 0.16072425 0.058266584 0.061080012 0.3232713 0.39358148 -0.2681528 -0.33357477 -0.36792552 -0.34643695 0.06222453 0.34749758 0.089920156 0.20108803 -0.030221216 0.031669855 -0.09612759 -0.1317182 -0.18639287 0.19906525 0.032737084 0.045970537
1541 -0.3401269 -0.7477616 0.40549186 0.009013367 -0.39986345 0.22717117 -0.064782396 -0.13956077 0.32846648 -0.25081694 -0.3012463 -0.36602536 0.22732605 -0.102343045 0.3029591 0.47963348 -0.22975555 -0.3264051 -0.13655663 0.25776058 -0.5978907 0.49933633 0.39946616 0.07801149 0.26392257 0.18642025 0.04535311 0.33389318 -0.42436358 0.12604624 -0.19334671 -0.02973426 -0.5418525 0.6651765 0.20299935 0.19880645 0.35535318 0.62815845 0.25813589 -0.2541835 -0.17513868 -0.24789841 0.31506163 -0.6188721 0.28680608 -0.085736334 0.3463928 0.17187057 0.19489767 -0.059794668 0.0471147 0.003952953 0.051344384 0.5165267 -0.012414515 0.18816772 -0.42235398 -0.030342609 0.018840283 0.4764047 -0.4730723 0.0835159 -0.15153101 -0.24080789 0.38411415 -0.068067975 -0.022451175 -0.06022343 -0.25857544 -0.19884591 0.4116184 0.079741806 0.3306303 -0.008607234 -0.43359667 0.16856036 -0.29487634 0.016229365 0.08631119 0.41246933 -0.06425931 0.26462626 -0.14713927 -0.12011198 -0.09448204 0.2732718 0.06589024 0.22447148 0.11879106 0.22248994 -0.0781102 -0.23850857 -0.1928672 0.18329774 0.06965145 -0.17089571 -0.0004844531 -0.41260877 -0.4895822 0.110010825 0.40238407 0.40229154 0.20140101 -0.062547185 -0.3638981 0.049953606 0.48789772 -0.034319915 0.17557688 0.24144739 0.48270047 0.027268644 -0.34698132 -0.103735 -0.21043873 -0.51459366 0.29393488 0.03401086 -0.26208284 0.4610904 -0.24759811 -0.15872197 -0.080958836 -0.10394871 -0.2713488 0.1467727 -0.10978789 0.18583876
1785 -0.3391656 -0.5442171 0.08374207 0.15256402 -0.14174819 -0.16557156 0.0145277195 0.14893009 0.016535133 0.21139714 -0.19933021 -0.4133294 0.075936414 -0.27208623 -0.18879636 0.26176643 -0.4929261 -0.466135 -0.44937015 0.37767294 -0.8309191 0.22651066 0.48136705 -0.031421736 0.594984 0.5413048 0.103394635 0.2338571 -0.28223798 0.4258392 0.11729228 -0.03441673 -0.33161303 0.9028069 0.42104855 0.2636735 0.27318022 0.29292756 0.16056253 -0.22440213 0.34599313 -0.39308026 0.17615269 -0.4410741 0.46965423 0.14074287 0.5848483 -0.32268184 0.13033848 -0.041648522 -0.06660115 0.0005035826 0.07317822 -0.14501475 -0.33151716 0.13735858 -0.074535444 0.264395 0.15434924 0.79586697 -0.37379274 0.035447877 0.012754807 -0.01769635 0.13571958 -0.012459611 -0.022773463 0.23064825 -0.026008932 -0.3803397 0.49445093 0.350827 0.4578689 -0.12244438 -0.34005123 -0.16933534 -0.2550846 0.2489825 -0.0107112955 0.034984555 0.025518363 0.61210024 -0.21406226 0.03597453 0.5101052 0.44900754 -0.10708285 -0.13209683 -0.2094553 0.004423672 -0.16844523 0.062256146 0.232688 0.053291395 0.052177805 0.13629243 0.18150987 -0.38380745 -0.09914795 -0.0097728325 0.3374963 0.04255612 -0.092489265 -0.1985077 -0.3299883 -0.32573974 0.1720697 0.2880968 0.06866036 0.019632036 0.3275343 0.24072187 -0.1002694 -0.09435599 -0.4798825 -0.43232375 -0.25886235 -0.049555786 0.023218075 0.5291492 -0.29730284 -0.25425252 -0.23267558 -0.18940696 -0.49593952 0.22795312 -0.20923035 0.16281529
18 -0.22880973 -0.7177136 0.23253566 -0.02078657 -0.21299452 0.22350903 -0.15897392 0.12117338 0.20594363 0.013038006 -0.40800974 -0.53824747 0.3047991 -0.22808185 -0.16489938 0.5629867 -0.19229823 -0.0020099466 -0.38801455 0.13732623 -0.7436184 0.56032693 0.33212572 0.23510943 0.3208053 0.34592506 -0.13122427 0.14441669 -0.25669518 -0.046572633 -0.055624086 0.16599222 -0.5951012 0.62987983 0.23778161 0.35824734 0.33896485 0.5299594 0.43974108 -0.24791841 0.075461864 -0.2475554 0.31127605 -0.55175745 0.2432773 0.14343825 0.17276035 0.15778649 0.45109284 -0.1888816 0.28675893 0.15216559 -0.10701929 0.69617575 -0.1570571 0.20243697 -0.11442604 -0.23318267 0.04032669 0.36475956 -0.38819212 0.01644287 0.11769186 -0.38195407 0.45506465 0.03331557 0.275258 0.23615046 -0.05137803 -0.06230874 0.42694917 0.1876877 0.37331024 -0.20564438 -0.2511327 0.09176311 -0.24701688 0.08415607 0.0015414594 0.16427846 -0.16725765 0.22254056 -0.2470911 0.06698299 0.32805225 0.018796785 0.09370045 0.26305863 -0.1164712 0.116406396 0.029379252 -0.13368903 -0.07555941 0.13991997 0.10516879 -0.10648415 0.0883522 -0.23731662 -0.46475202 -0.0007198131 0.09883381 0.19335596 0.22548482 -0.28900352 -0.102461115 -0.21352744 0.35028315 -0.2923051 0.21903707 0.34620982 0.47554812 -0.0139565775 -0.31403318 -0.06416943 -0.1439703 -0.26299107 0.12541604 -0.06618346 -0.03281879 0.26520792 -0.07143865 -0.24070615 -0.06221494 -0.05824964 -0.13976565 -0.10462545 -0.06456244 0.01009364
867 -0.12229196 -0.46519646 0.45405242 -0.24288021 0.025739403 0.28569284 -0.33575398 0.09180733 0.3151514 -0.11204208 -0.30157304 -0.40986168 0.2408313 -0.30614972 -0.017407542 0.36754334 -0.26002595 -0.44759622 -0.33891392 0.25526223 -0.61930555 0.57527584 0.5604267 -0.22673425 0.23696975 0.26791254 -0.043194532 0.19901262 -0.5014947 0.27795246 0.12244939 -0.11082269 -0.31488773 0.8924845 0.22536856 0.29467207 0.28119782 0.2955999 0.30024064 -0.37928244 0.16090438 -0.17525794 -0.015613311 -0.36892295 0.3903126 0.07700578 0.21253508 0.04038375 0.11405766 -0.07592009 0.07614805 0.20044182 0.0806008 0.42586875 -0.2765663 0.054051034 -0.5543682 -0.047252916 -0.081645094 0.41522294 -0.6941359 0.22397876 0.10501705 0.10583207 0.28680247 0.0005084702 0.2940411 0.07693746 -0.42718574 -0.14725116 0.5459144 0.15660363 0.3172911 0.044672046 -0.4092503 0.16671993 -0.27616292 0.3421735 -0.14266835 0.3157169 0.031951502 0.24812286 -0.041898165 0.041157667 -0.009560072 -0.023852658 0.12937455 -0.029115582 -0.024716996 0.090829566 -0.31380135 -0.046443094 0.31086773 -0.06679428 0.19748244 -0.18556969 -0.056261465 -0.37347466 -0.15680693 0.022566458 0.41879094 0.2170003 0.07042375 -0.09340891 -0.13330637 0.036850628 0.36244273 0.08711886 0.028200757 0.18020275 0.38418174 0.13981782 -0.26460597 -0.10983213 -0.2471876 -0.4467491 0.17711398 -0.033712275 -0.08123216 0.3355997 -0.3077812 -0.27637178 0.03797684 -0.075660035 -0.35087952 0.1007708 -0.13021232 -0.013031429
1770 -0.41690722 -0.86725605 0.27557078 0.12788726 -0.06240985 0.23256889 -0.11481362 0.2460607 0.16025363 -0.03456908 -0.5368984 -0.24518733 0.23793302 -0.5696649 0.087123446 0.38834265 -0.16126336 -0.11675745 -0.06256527 0.1300378 -0.70455587 0.4202673 0.51830167 -0.23091407 0.16497745 0.2273914 -0.30863646 0.053887576 -0.4212928 0.22676119 0.055288307 0.042128865 -0.54834634 0.8920451 0.3358954 0.21210384 0.072925486 0.2446172 0.3613961 -0.12178887 0.2626517 -0.27517086 0.3189124 -0.17872548 0.19321437 0.22996491 0.46187314 -0.16191809 0.39883488 -0.057463 0.47089493 -0.06786247 0.037138935 0.34523162 -0.24013266 -0.010583746 -0.10373286 0.043602873 -0.05208958 0.69676834 -0.5884139 0.1419851 0.23959632 -0.104870364 0.39271224 0.10530033 0.35478553 0.19757017 -0.06479352 -0.029850867 0.6129162 0.18304525 0.29186824 0.12998456 -0.5403537 0.12983735 -0.27103066 0.38142428 -0.050387576 0.49152708 0.30602267 0.37237647 -0.22601593 -0.2085061 0.029560639 0.19069166 0.0062533906 0.043301877 -0.036180362 0.08081163 0.13841408 -0.13769677 0.114504255 -0.20927776 -0.10470435 -0.18531525 -0.119866125 -0.003679714 0.121225476 0.09199226 0.36739862 0.30823043 -0.1610354 -0.26447275 -0.35969946 -0.3296075 0.11347925 -0.10606484 0.1314571 0.07175266 0.20810838 0.26544443 0.023915878 -0.08884169 -0.09936311 -0.14007315 0.19841817 -0.11209526 -0.081284106 0.040722597 -0.308605 -0.39358613 0.29203975 -0.074311554 0.0049002916 0.06074752 -0.28286546 0.29714736
1788 -0.3200114 -0.7976379 0.34284833 -0.13165641 -0.13397577 0.2663151 -0.18171361 0.12496913 0.21304604 -0.09188567 -0.5022765 -0.2484794 0.29344672 -0.44069207 0.09582636 0.22131348 -0.29915094 -0.3176999 -0.07307993 0.023852307 -0.7160112 0.38509887 0.480453 -0.05621303 0.24851292 0.18753518 -0.089919254 0.14838217 -0.5769115 0.28173712 0.23477405 -0.059013344 -0.46912384 0.7414625 0.33328795 0.13598567 0.24404101 0.021783082 0.21135683 -0.08318601 0.253901 -0.1579614 0.2881212 -0.27364436 0.20830157 0.18805534 0.42447636 -0.06712322 0.34638032 0.050492257 0.1532666 -0.14878877 0.0468019 0.33585468 -0.26083285 -0.037292644 -0.19359228 0.102144256 -0.02722698 0.6507776 -0.536312 -0.049019765 0.011618084 -0.11438165 0.3591761 0.07272282 0.333831 0.08623584 -0.15365236 -0.074021354 0.59400886 0.35714716 0.34369922 0.075473174 -0.45562947 0.21304654 -0.33445585 0.3135492 0.0639864 0.6611911 0.1820172 0.19274943 -0.26151058 -0.040371343 0.12848726 0.13663916 -0.029237242 0.029550526 -0.08135674 -0.06912328 0.16281494 0.06006507 -0.006974983 -0.16537482 -0.18630062 -0.07112234 -0.17581102 -0.26650333 -0.11352428 -0.14185824 0.29414237 0.15681508 -0.14319351 -0.21674265 -0.34730265 -0.25360593 0.21284482 -0.117672406 0.15435618 0.09584745 0.24820213 0.21511368 0.034043483 0.0060819522 -0.16931503 -0.14133182 0.19489227 0.053264163 -0.111058585 0.1447577 -0.19521892 -0.3790081 0.16860847 0.03427847 -0.21982352 -0.052827615 -0.1220147 0.06871653
1685 -0.039913137 -0.6404817 0.5754526 -0.010812525 0.010213444 0.063520715 0.10900297 0.20331891 0.37626675 -0.12490894 -0.62391454 -0.24890876 0.23967776 -0.5915627 -0.33250326 0.049906254 -0.302071 -0.6252188 -0.053446934 -0.015949383 -0.49634805 0.38473713 0.082364686 0.15433668 0.046504505 0.40529704 -0.34112734 0.17791931 -0.425523 0.52757794 0.23131526 0.113328256 -0.3773861 0.45836583 0.5305515 0.105127856 0.1289021 0.13437928 0.19136798 -0.22088553 0.19765896 0.052972022 0.25430012 -0.37250626 0.2315784 0.047408175 0.18305002 -0.061375216 0.040568948 0.15318215 0.40889135 -0.041475274 -0.04062863 0.20108385 -0.34060818 -0.046795234 -0.2285665 -0.04645344 -0.2490786 0.72587264 -0.453741 -0.032792468 0.20498337 -0.40357128 0.4445374 0.076468006 0.28065643 -0.058613542 -0.25861132 -0.044223677 0.48033872 0.464591 0.24786364 0.090268545 -0.43711662 0.29301962 -0.40740764 0.27491403 -0.024313293 0.48694518 -0.10722568 0.22484574 -0.40797678 0.13090067 0.11020651 0.20042467 -0.11626771 -0.10939293 -0.18805563 0.09849715 -0.04268167 0.31728327 -0.10403627 0.1513833 -0.19396591 0.008288918 0.23708743 -0.26254264 -0.24155435 0.18967663 0.1208067 -0.038914997 0.04915509 -0.30260968 -0.6104702 -0.0701768 0.47383463 -0.17922077 0.1042925 0.54346675 0.22450703 0.3309493 -0.049676757 -0.19766648 -0.39114186 -0.1882848 0.30426002 0.26944956 -0.12949552 0.20501105 -0.18862823 -0.19562389 0.25600958 0.15002672 -0.2698184 -0.15811917 0.15613712 0.103762805
1342 0.018931018 -0.43213415 0.23483445 -0.23977886 -0.046337835 0.189244 -0.16672291 -0.0025221615 0.044957813 -0.115322895 -0.33618766 -0.5090728 0.28685808 -0.35269147 -0.09553936 0.4569091 -0.16303776 -0.5818403 -0.3651171 0.42343533 -0.67947453 0.8895679 0.6792354 -0.22201681 0.28673792 0.5289863 0.3036307 0.04065495 -0.6262216 0.33705372 0.09464172 -0.108913176 -0.27113682 0.7099925 0.29791722 0.06004799 0.38316455 0.12602118 0.2882923 -0.3768906 0.3346895 -0.29767668 0.09007999 -0.10666362 0.5271839 0.194917 0.23167142 -0.24517599 0.005167516 0.03851736 -0.07912287 0.24695908 -0.05118677 0.27708298 -0.23023243 0.14544167 -0.27628618 -0.15376088 0.10480013 0.40466237 -0.614547 0.29618862 0.03374921 0.3294612 0.23697238 -0.21138026 0.22397743 -0.07258248 -0.2261859 -0.26001358 0.44898653 0.19273867 0.31080052 -0.020539949 -0.544226 0.110314436 -0.22281347 0.257583 -0.39055362 0.38976252 -0.15796965 0.29107162 -0.216169 0.0048077065 0.033466786 0.18627173 -0.15221271 -0.04258449 -0.22752243 0.22966322 -0.11673336 -0.07043242 0.23041299 -0.16370243 0.04886514 -0.026092473 0.21495587 -0.6524154 -0.06057776 0.0020950597 0.21364187 0.291559 0.11946186 -0.079480685 -0.39907622 0.0050353073 0.14293078 0.11738401 0.12052334 0.18696871 0.18037176 0.4576476 -0.06118813 -0.050665166 -0.48857826 -0.33020228 0.03264553 -0.27974162 -0.16380183 0.32106677 -0.45943084 -0.21618061 0.06611839 -0.2808753 0.02271127 0.1862749 -0.39665318 -0.063429594
66 -0.13666613 -0.48262656 0.48629072 -0.08444695 -0.11551313 0.057014987 0.28260735 0.043238692 0.0062577967 -0.16480324 -0.45972702 -0.34854686 0.0321737 -0.4393693 0.1601536 0.2317255 -0.23324312 -0.3182268 0.12532021 0.29634547 -0.4828466 0.64104974 0.59312177 0.19458453 0.42836797 0.029325962 0.23124388 0.09448504 -0.4247547 0.652046 -0.019718148 0.25014815 -0.4169047 0.9656137 0.25959325 -0.0409397 0.24258032 0.067041725 0.50291425 -0.3098274 0.120660394 0.07073653 0.076172754 -0.38215095 0.35264227 0.21158546 0.24482957 -0.015749728 -0.019077312 0.33169988 0.40322444 0.13513862 0.12630968 0.25695372 -0.37210372 0.2823098 -0.17119995 -0.0017959835 -0.04341032 0.6079358 -0.5450824 0.13393228 0.106870614 -0.28676698 0.23133922 -0.01012358 0.32748798 -0.17667767 -0.05441746 0.08461223 0.5077412 -0.16694263 0.3486257 0.10250683 -0.24759464 0.17368387 -0.0752514 0.04924385 -0.08318706 0.34778574 0.04304872 0.40250412 0.15214328 0.2037301 -0.17405854 0.4865339 0.031235227 -0.1304922 -0.22580285 0.32842392 -0.44109184 0.10685139 -0.020524515 -0.110116936 -0.095813386 0.03229845 0.08674601 -0.38463947 -0.12928712 0.09138374 0.22618648 0.22869948 0.04662526 -0.05769832 -0.39525053 -0.05090121 0.15408957 -0.18146805 0.22741114 0.58585185 0.46022406 0.16868897 -0.0331994 0.0019957786 -0.5779512 -0.31307486 0.1667341 -0.032298736 0.06184766 -0.27036226 -0.34094036 -0.026497597 0.3321155 -0.14467095 -0.27898693 0.14872573 -0.031722903 0.39123893
712 0.06630394 -0.78909266 0.61391747 0.033540398 -0.007860601 0.30410326 0.41350466 -0.03923548 0.23329073 -0.040597707 -0.33784503 -0.2326098 0.16006167 -0.54288954 0.114853345 0.6478954 -0.21066856 -0.3272425 0.034624543 0.1608261 -0.065907575 0.5139128 0.25953 -0.040517017 0.40654442 0.082723685 -0.1552808 0.5501127 -0.23130159 0.6535331 -0.1339968 -0.05458716 -0.7249492 0.6866702 0.4045508 0.34996346 0.19787419 0.5550279 0.2322372 -0.1999525 -0.072317876 -0.6230545 0.48281723 0.008338041 0.18730861 0.092492625 0.41812086 0.0010378702 0.59206754 -0.044015948 -0.043526717 -0.21683767 0.12709868 0.3418362 -0.5316263 0.1993206 0.021824868 0.15107651 -0.2824721 0.3414944 -0.34657297 0.0012174197 0.2887376 -0.7066911 0.31081313 0.046007782 0.37550524 -0.117407024 -0.12363828 -0.3745429 0.4812111 0.19043821 -0.028787749 0.07137081 -0.8514065 0.09053241 -0.28721282 0.6644264 -0.07781117 0.36146545 0.051460534 0.055649552 -0.60571605 -0.2708773 0.49724302 0.046824675 -0.10414304 -0.17559853 -0.31977618 0.074967965 0.24589835 -0.19844212 0.54680747 0.05629383 -0.45651975 -0.25146195 -0.29457915 -0.21720403 0.03381249 -0.043567616 0.5614153 -0.31670326 -0.104176804 0.16339953 -0.6111753 -0.039721467 0.26351672 0.4037177 0.29570448 0.3092722 0.22371997 0.56578165 -0.24126044 -0.32223555 -0.24825308 -0.50591713 0.022977766 -0.058883768 -0.012862123 -0.11474668 -0.25310817 -0.32456282 -0.44905287 -0.034164194 0.0046838503 0.008262168 -0.028205566 0.17557152
556 -0.052898403 -0.24744654 0.2665723 0.15780596 -0.2249986 0.17514034 -0.010731358 0.34367597 0.25006765 -0.17260104 -0.5611138 -0.41623822 0.5512025 -0.29846618 0.024852807 0.22407056 -0.4994299 -0.3723023 -0.1877838 0.31536093 -0.52585846 0.34226024 0.5735199 0.14424492 0.6391354 -0.04422849 -0.05221791 0.2751592 -0.6650468 0.23276186 0.09711285 0.27264625 -0.21007803 0.6681472 0.44841045 0.4726259 0.04580905 0.13968417 0.5548554 -0.58590305 0.46703708 -0.22515136 0.22946174 -0.5286046 0.39711097 0.05103417 0.14768453 0.073086925 0.009087596 0.13972603 0.16228774 0.13658826 0.097786784 0.6402252 -0.39487883 0.059108026 -0.2108196 0.20594378 -0.10735428 0.39335647 -0.43759665 -0.06527543 0.32104072 -0.13028343 0.37012488 -0.25660998 0.14669502 0.035015304 0.053540137 -0.26782417 0.66967934 0.21449405 0.20175457 -0.07704318 -0.15024792 0.307438 -0.27646267 0.16864619 -0.19335818 0.5940438 -0.15015334 0.4449705 -0.5641066 -0.06402966 0.10113105 0.46760187 0.15279226 0.06794056 -0.25947437 0.117705196 -0.29382342 0.21304306 0.08849411 0.17103027 0.037171442 -0.26387724 -0.0923698 -0.24140623 -0.1960601 0.44246635 0.6611514 -0.022427129 -0.12112375 -0.4997295 -0.330642 0.20748584 -0.16268246 0.122783154 -0.24544859 0.09493369 0.38351107 0.10546647 -0.109966606 -0.04460322 -0.63919556 -0.60975343 0.2914144 -0.1301354 0.12834424 0.13173309 -0.09921396 -0.093824476 -0.13275741 0.091500156 -0.26431698 0.18367225 -0.08802357 -0.30963317
493 -0.45717737 -0.83873564 0.05477241 0.11597113 -0.24010213 0.38115436 0.28039983 -0.0025134545 0.31167558 -0.3423247 -0.56552017 -0.16796102 0.3526729 -0.51207983 0.12855384 0.5500427 -0.10956501 -0.17565435 0.19523059 0.26811796 -0.64986205 0.45343173 0.17436175 -0.0222038 -0.04605181 0.14055659 0.029386798 -0.23816428 -0.10091724 0.4093492 -0.064973764 0.28027767 -0.59031457 0.9508255 0.37287015 0.23288302 0.27521122 0.316607 0.4062447 -0.24434356 -0.0044643506 -0.48128167 0.39563712 -0.29163104 0.41261098 0.2618941 0.214422 0.3480264 0.47807992 0.004391455 -0.15571734 0.19828327 -0.3296654 0.16182579 -0.54427475 0.3652631 0.05650442 -0.09996791 -0.1474293 0.45910746 -0.73028785 -0.1636803 0.09157479 -0.23323748 -0.0021984158 -0.3213004 -0.034278233 0.061653655 -0.25158462 -0.31165525 0.4309781 0.28365135 0.18606918 0.06320244 -0.47567865 0.05692358 -0.13817665 0.5563628 -0.10300412 0.52094305 -0.1471223 0.1883691 -0.41957873 0.038722027 -0.07910562 0.18334442 -0.16177095 0.007333515 -0.17844412 0.42864186 0.09233447 -0.087792166 0.4795403 -0.21869732 -0.10400736 -0.3355719 0.11279865 -0.3609697 -0.17572376 0.04209282 0.35275653 -0.21444145 0.23627487 0.1513178 -0.11075817 0.034659106 0.37498757 0.092729 0.6552255 0.07971483 0.3378144 0.08983947 0.12746151 -0.32417798 -0.45600906 -0.06633445 -0.13021006 0.18429302 -0.14060594 0.017842695 -0.106301375 -0.34473234 0.050889064 -0.30166376 -0.48748153 0.24797674 -0.20573185 0.32457465
1584 -0.4030132 -0.56522304 0.10997457 -0.011771362 -0.06448541 0.29615912 0.14088678 0.07811778 0.16976874 -0.039325263 -0.5116266 -0.24185711 0.04755781 -0.30754742 0.032803055 0.36420822 -0.5631053 -0.6639703 -0.27794358 0.23207678 -0.51216364 0.3112141 0.59111536 0.03144035 0.34529695 0.03326018 -0.05882824 0.25403354 -0.52741015 0.28714716 0.08571098 0.18339545 -0.4182338 0.66964453 0.5662743 0.23195414 0.05547124 0.09990136 0.30539066 -0.049078487 -0.22195897 -0.040102676 0.45257917 -0.48350742 0.30652663 0.08125258 0.20295326 -0.024783485 -0.07410985 -0.051334463 0.21703038 -0.16354546 0.14033297 0.06702931 -0.10044538 0.06703353 -0.33834317 0.34998196 -0.22504649 0.55295384 -0.26261687 -0.095966466 0.036313906 -0.29770815 0.09363099 0.039509617 0.0034385922 0.013251486 -0.09772827 -0.37434176 0.43761036 0.2310158 0.48786533 -0.034914028 -0.57731515 0.038897976 -0.209869 0.2957675 0.24329515 0.31692716 -0.13043898 0.20241418 0.14613804 0.08536483 0.07482302 0.22776413 0.0537363 0.13202696 0.061985437 0.28409332 -0.18014964 -0.11675166 0.105184324 -0.24122044 -0.2793868 -0.11994011 -0.069850765 -0.09146527 -0.26417324 -0.1486324 0.2692013 0.14069767 0.3575648 -0.0691795 -0.30788788 -0.18237689 0.35428378 0.12464275 0.29186073 -0.12451021 0.42756844 0.14521205 -0.40558565 0.021305483 -0.41678688 -0.5008334 0.2681181 -0.09217102 0.037192076 0.28064618 -0.05339627 -0.36489412 -0.3540468 -0.22508842 -0.2840023 0.21342309 -0.16321822 0.41267496
1749 -0.1590211 -0.42753813 0.34781912 0.18167178 -0.22260731 -0.07473101 0.031891514 0.023504078 0.1866099 -0.14552258 -0.34023687 -0.47530067 0.24939385 -0.2378774 -0.12412071 0.45039207 -0.5038785 -0.35753927 -0.013456799 0.34063548 -0.44265172 0.3084025 0.3680126 0.046677735 0.3813622 0.04141769 -0.12926006 -0.001647764 -0.23722602 0.31982288 -0.13779084 -0.010503228 -0.118943125 0.9250287 0.2727282 0.2723008 0.45381367 0.393558 0.33281386 -0.3404118 0.40207765 -0.41834372 -0.04134813 -0.53876555 0.23141138 0.02770633 0.40660056 0.14006162 0.13355339 0.19046131 -0.04978436 0.26312724 0.050385725 0.45901906 -0.08239989 0.0031177397 -0.38857055 -0.06954328 -0.035231285 0.62092406 -0.447212 -0.05484338 0.16389607 -0.19314733 0.18413685 -0.16026719 0.03628309 0.1223874 -0.1251136 -0.072695054 0.6000425 0.0046855314 0.35272953 -0.027152784 -0.49660766 0.117750876 -0.19505613 0.10624396 -0.10234254 0.2813503 -0.032051377 0.4896545 -0.10292641 -0.23426303 0.0070228493 0.5767501 0.062273838 -0.067611046 -0.19160885 0.170632 -0.21937507 0.086434975 -0.043662064 0.2563951 0.15909418 -0.021827657 0.16326772 -0.15445302 -0.31627607 0.5623765 0.4529901 0.23656227 -0.15405023 -0.4123131 -0.44726565 -0.022459088 0.15106522 -0.053543914 0.07190598 0.33462957 0.6208203 0.02431212 -0.32900646 0.12192741 -0.28578874 -0.40058264 0.098055005 -0.0143099455 -0.20087577 0.33459792 -0.06960574 -0.09498909 -0.1351454 0.027644726 -0.40462524 0.33686316 0.031680282 0.09746681
143 -0.24894005 -0.7581309 0.47166392 -0.23665954 -0.18438558 0.33596575 -0.018029911 -0.041128583 0.22378795 -0.17904934 -0.19541469 -0.3831783 0.34775963 -0.26839206 0.44596592 0.45476142 -0.5140715 -0.14485452 -0.004174406 0.16549638 -0.65840375 0.16232914 0.59057945 -0.0329708 0.3698439 0.2647241 0.031172272 0.13761975 -0.6630766 0.46835238 0.15351093 0.045654293 -0.522591 0.89967644 0.6738664 0.032630846 0.10786652 0.1960699 0.38381836 0.006268735 0.42516115 -0.1910642 0.095250264 -0.17745113 0.48807698 0.31041566 0.25291574 0.17375141 0.2881574 -0.05333931 -0.34200972 -0.16002841 0.037729464 0.0024941452 -0.48106885 0.24352819 -0.14417578 0.14747012 -0.020611202 0.38836145 -0.8323474 -0.07504715 0.007877265 0.082818694 0.29298177 -0.17676614 0.15868105 -0.0027187206 -0.22831988 -0.34379706 0.5366173 0.39771995 0.1378542 -0.055854775 -0.34192017 0.3222593 0.15606144 0.27336937 0.117938265 0.26546365 0.13943653 0.18291752 -0.19393802 0.10618802 0.32992592 0.09298955 -0.37403747 0.10375499 0.035833 0.3015605 -0.007715602 -0.057849403 0.33366263 -0.004483132 -0.20758396 -0.32249582 -0.09294272 -0.37160978 -0.16147742 -0.1133452 0.58347183 -0.19520694 -0.011319405 0.15213618 -0.13668351 0.22090764 0.16654426 0.105839275 0.14051834 0.01937934 0.20796512 0.19370994 -0.0026120124 -0.05957473 -0.47007412 -0.2325947 0.18198724 0.37515318 0.080196425 0.14085533 -0.40374866 -0.35837048 -0.15214443 0.13781616 -0.27122065 -0.100822456 0.17239662 0.25529635
1126 -0.38035622 -0.7116483 0.40427935 0.14011307 -0.13192584 0.24323083 -0.1062182 0.006188735 0.08275136 -0.30760482 -0.43685144 -0.21511373 -0.097386606 -0.3777032 0.08887431 0.3585154 -0.45619282 -0.5220609 0.005650485 0.15602398 -0.6278422 0.28891996 0.4581185 -0.059335627 0.023870233 0.20985001 0.13302118 0.1160482 -0.38333943 0.14920893 0.26574764 0.17515038 -0.3888143 0.76925755 0.45240813 0.11698009 0.3383466 0.07066978 0.06789013 -0.2668969 -0.33599555 -0.38608328 0.41210145 -0.25179186 0.22808939 -0.2677453 0.3731393 -0.08864608 -0.13716945 0.15408725 0.33835167 -0.114364095 0.16515598 0.3142099 0.020816626 0.09451699 -0.1701676 -0.020203337 0.14754936 0.47795013 -0.6033134 0.15268335 -0.1951166 -0.14992613 -0.037194632 -0.045403294 0.13455243 -0.12010277 0.0073379427 -0.322077 0.48089126 0.29489174 0.50742835 -0.04200099 -0.38673115 0.34236568 -0.4010952 -0.20336063 -0.031793173 0.26187202 -0.0715494 0.32543474 -0.4427616 0.105501555 -0.09490522 0.30701044 0.012019916 -0.019222563 -0.10792721 0.11726568 -0.37716624 -0.030684112 -0.016635424 -0.1720845 -0.08706387 -0.12414222 -0.008254373 -0.25433972 -0.30874336 -0.23749147 0.46504772 0.5369839 -0.030844595 -0.07930451 -0.6823973 0.01013241 0.41828078 -0.034792315 0.06496095 0.06151038 0.27369836 0.35013494 -0.21199599 -0.11759045 -0.45996317 -0.5025701 -0.06610479 0.09905403 -0.1416879 0.34136167 -0.327176 -0.3203183 -0.1160173 -0.21390331 -0.095305234 0.20768371 -0.3754788 0.4568493
341 -0.28171092 -0.38673836 0.19761445 0.21672085 -0.091546424 0.32207945 0.16091585 0.39277118 0.2581577 -0.032601792 -0.35688308 -0.23858528 0.13413277 -0.3436795 -0.23010671 0.23167904 -0.2652433 -0.29691404 -0.1979081 0.12153012 -0.3707158 0.119942315 0.37163502 0.055764504 0.3850359 0.22046338 -0.0076126875 0.055990785 -0.41410315 0.089379765 0.31150377 0.28426972 -0.300508 0.72011095 0.53250104 0.25932783 0.10613293 -0.096475296 0.21561645 -0.37026098 -0.09175381 -0.36499465 0.30151772 -0.44857347 0.39656836 -0.1586491 0.19189544 0.018200338 -0.1509693 0.16109568 0.21865758 0.19630162 0.09790345 0.40738118 -0.25416994 0.054318674 -0.30534652 0.09292812 0.11919494 0.31124008 -0.42792964 0.11998553 0.07161796 -0.018068718 0.16547312 -0.19296007 0.2081503 0.26515588 -0.13527331 -0.547004 0.6787091 0.2812416 0.110150315 -0.020452842 -0.39754695 0.23526108 -0.42810962 0.20300983 -0.07762396 0.48789185 0.060120758 0.4006352 -0.29453176 0.1512898 0.08292136 0.37677944 0.19968201 -0.06257911 -0.24325973 0.13396445 -0.22796193 0.06437736 0.22963431 -0.13855274 -0.15216132 -0.22169334 -0.14382431 -0.22176515 -0.44590282 0.2042354 0.7106706 0.30803955 -0.05515207 -0.27828786 -0.507634 0.2639848 0.48569795 0.00688365 -0.006463975 -0.09704328 0.5055273 0.0132778585 -0.39084697 0.0666912 -0.50794625 -0.49506423 0.10498217 0.19988939 0.06815518 0.5640914 0.017082596 -0.30232334 -0.34692842 -0.34254724 -0.29457116 0.20700833 -0.23729193 0.16351046
1279 -0.6595999 -0.75453293 0.074801385 0.36137855 -0.29058388 -0.06400095 -0.07698522 0.26990128 0.16863653 0.064836256 0.003943088 -0.2501013 0.17737675 -0.18498279 -0.059198838 0.31229696 -0.86406195 -0.488538 -0.19931886 0.473298 -0.7035972 0.11214823 0.5293126 0.015413773 0.39434603 0.19922431 -0.06158067 0.099448405 -0.11486457 0.5355972 -0.022123542 0.01641281 -0.4796674 1.0697081 0.5430954 0.31154215 0.3368818 0.26711607 0.28607965 -0.1116244 0.26643118 -0.24378285 0.18718301 -0.43078804 0.5084581 0.24914992 0.31547242 -0.32556683 0.042646535 0.03322278 0.053680483 -0.018036697 -0.0117926495 -0.30051565 -0.23317705 0.24295995 0.025533317 0.42587373 0.12555061 0.7142872 -0.66875654 -0.013748589 -0.066853784 -0.19472334 -0.26497182 0.046551395 -0.22367808 0.16304454 -0.36039543 -0.5368648 0.50431734 0.42663956 0.34336704 0.040328566 -0.59635663 -0.049593575 -0.13815616 0.29979783 -0.027965762 -0.032652523 -0.19485678 0.377925 -0.0733515 -0.12739305 0.30204123 0.5995784 -0.37985772 -0.007972338 -0.059324782 0.08788135 -0.42016354 0.021867668 0.3114487 -0.04438641 0.12644051 0.00998408 0.20187528 -0.2369688 -0.14534558 -0.021662716 0.25977737 0.08536138 0.2603384 -0.18640035 -0.1931456 -0.28189227 0.5277944 0.17265306 0.24431917 -0.05500534 0.54220295 0.25079548 -0.41755792 0.110298134 -0.33695742 -0.38044843 -0.23766145 -0.13515298 -0.057253473 0.57210416 -0.14557312 -0.5914802 -0.44320226 -0.11470677 -0.5922652 0.46910113 -0.21888067 0.08805936
968 -0.15389225 -0.5937533 0.14023173 -0.2800429 -0.13807987 0.024685891 0.047420133 0.1735402 0.18398108 -0.0841092 -0.44711742 -0.23397627 0.17424302 -0.47721037 0.146159 0.5728955 -0.32146534 -0.43719116 -0.06745751 0.282295 -0.5119391 0.34805998 0.41129825 -0.025386233 0.1505081 0.16286574 -0.038414314 0.09594823 -0.24519998 0.2275552 0.25488165 0.19904447 -0.4215492 0.5154396 0.62155676 0.2837019 0.15735094 0.41190755 0.34420875 -0.06430572 0.09695424 -0.39089411 0.4452006 -0.11539494 0.37101346 0.024617828 0.32951498 0.0255854 0.3007806 -0.058894068 0.09437956 0.019609597 0.054729942 0.15512453 -0.26449752 -0.06465951 -0.17890821 0.2748678 -0.3385612 0.6087598 -0.42780438 -0.12903853 0.21890526 -0.2395543 0.08374661 -0.18991198 0.2566529 -0.13014461 0.01820764 -0.37202537 0.619687 0.25556055 0.4223974 -0.27558136 -0.7174002 0.146929 -0.25530088 0.4879101 0.026520679 0.17046416 0.044922415 0.30611664 -0.2523746 0.21639131 0.53949356 0.038915757 -0.042062167 -0.090454526 -0.27489105 0.3247094 -0.124742165 0.05124733 0.36020827 0.15666418 -0.28806522 -0.41179928 0.015794246 -0.20767096 -0.19199803 -0.37624332 0.38039035 -0.1767024 -0.08047228 0.032771427 -0.27651006 -0.2782596 0.22504443 0.22667663 0.11782317 -0.14762297 0.3966398 0.48923633 -0.39684469 -0.17342173 -0.40977523 -0.453433 0.026209408 0.2360108 0.118578345 -0.10469469 -0.06445036 -0.20536591 -0.27071303 -0.17037217 -0.30770922 0.18321607 -0.05433755 0.19916177
651 -0.10934016 -0.74363196 0.30761743 0.35560855 -0.082710996 0.054088183 0.18642013 -0.14926952 0.19136272 -0.1365958 -0.47286525 -0.3450826 0.24825424 -0.549824 -0.17515087 0.24880195 -0.12458374 -0.581844 -0.18980877 -0.017376361 -0.6423454 0.27417985 0.23201974 0.033819024 0.20911752 0.32536992 -0.21505767 -0.026945958 -0.46285108 0.48918816 0.05030099 0.029267427 -0.12992404 0.6494978 0.4429907 0.06743135 0.16480222 0.37295666 0.32639435 -0.19459516 0.07077882 0.009016249 0.12807918 -0.21426043 0.25439852 0.064940505 0.36228684 0.013659016 0.2227654 0.18690915 0.2229556 -0.054734327 0.062833175 0.16829564 -0.4928062 0.10513296 -0.14289363 -0.03426894 -0.123459734 0.7085694 -0.5035154 -0.08778808 0.056033675 -0.29372442 0.6796171 -0.02042191 0.20084682 0.28107777 -0.28966793 0.057613384 0.44482192 0.21066795 0.10271499 -0.016601726 -0.4373582 0.15512328 -0.1335568 0.37397423 -0.0938896 0.23182216 -0.0075451676 0.33611426 -0.17795141 0.04632109 0.043741316 -0.053606205 -0.012760684 -0.1538307 -0.3035699 0.29863498 0.04574646 0.09810738 -0.012337972 0.10805715 -0.17210406 -0.0829214 0.40202716 -0.26505512 -0.18064243 0.42783123 0.23809253 -0.004369477 -0.097004786 -0.014219255 -0.3480786 0.030962754 0.32066616 0.063336544 0.2940629 0.24090768 0.1355671 0.12813824 -0.043025818 -0.3094383 -0.37976053 -0.2410894 0.3457802 0.11012365 -0.2768719 0.06591664 -0.23488025 -0.20993593 0.08689989 0.10906563 -0.056454845 0.01967799 -0.09133414 0.25836658
174 -0.50845253 -0.6644439 0.23424226 -0.30637398 -0.09604421 0.5540177 -0.3409735 0.06661177 0.379849 -0.009010691 -0.28840065 -0.46045262 0.24331103 -0.44759503 -0.07800062 0.48589993 -0.23387787 -0.5019363 -0.19588313 0.259978 -0.50562817 0.58972156 0.3436602 -0.078724205 0.14305289 0.038178355 0.1743367 0.19934045 -0.43627113 0.4003924 0.21217017 -0.29841402 -0.31984842 0.7341729 0.04946554 0.34290826 0.20426856 -0.09607458 0.24345545 -0.10312916 0.14614065 -0.25216737 -0.016831292 -0.36758453 0.167027 0.15333937 0.13250862 -0.02755745 0.3467424 0.29028583 0.078482345 0.06487272 0.026420906 0.68807214 -0.44570324 -0.06595807 -0.4796422 -0.04891389 -0.2357607 0.45249388 -0.75096613 0.32969 -0.04101111 -0.0007040634 0.2138747 -0.29536933 0.62282026 0.49431527 -0.4541158 -0.14244579 0.4856544 0.2564329 0.15906593 0.19750541 -0.27283812 0.035934728 -0.41748968 0.47528762 -0.53829086 0.5251087 -0.19315743 0.32742524 0.022266833 -0.04576998 -0.012055315 0.15648183 -0.08737584 -0.40478507 -0.14301015 -0.12967014 0.31230655 0.31226045 0.119224615 -0.041009977 0.036297273 -0.18527356 0.024031255 -0.61912 0.045194015 0.22873546 0.609975 0.30908427 0.12651625 -0.01211574 -0.18221052 0.09703722 0.6362871 0.011358949 0.16837914 0.25092566 0.21168032 0.078536436 -0.049423743 -0.26995623 -0.10798959 -0.3088398 0.1420038 -0.19011348 -0.39632478 0.22721493 0.026596466 -0.3384096 0.06570024 -0.077685535 -0.66091573 -0.15504101 0.008583705 0.11006475
414 0.08664691 -0.60896873 0.20753124 -0.05188064 -0.08851985 0.19702712 -0.036723603 -0.18779452 -0.056318514 -0.17794958 -0.42644855 -0.43985924 0.19612977 -0.35453078 -0.0078036026 0.5047721 -0.19683844 -0.55760986 -0.3380719 0.4417803 -0.70376784 0.9095905 0.65157163 -0.20599657 0.21215561 0.60759664 0.2549806 -0.035508435 -0.5161805 0.2719007 -0.008418929 -0.004079908 -0.26178297 0.72058284 0.38393268 0.015380247 0.3549563 0.19629762 0.40956017 -0.28843775 0.19620131 -0.3836896 0.11091729 -0.03647619 0.4994808 0.072882056 0.19805567 -0.23865184 -0.01287342 0.07116676 0.0011935947 0.15376519 -0.042098492 0.20216033 -0.24038902 0.24454358 -0.1944427 -0.18441564 0.19448932 0.3697495 -0.5347273 0.29722238 0.04517947 0.22174296 0.25041336 -0.18139082 0.0981667 -0.05282548 -0.18355763 -0.28306952 0.4124978 0.18123898 0.2341065 -0.14135927 -0.50322145 0.06743733 -0.24484245 0.1970072 -0.3932507 0.34839246 -0.15520582 0.30888695 -0.42022127 -0.039451547 -0.07535674 0.11833323 -0.17899834 0.0070352447 -0.2978849 0.24985622 -0.0317088 -0.18545735 0.14916304 -0.1911196 0.05632802 -0.05804883 0.24737923 -0.62772626 -0.04080133 0.047808256 0.16590953 0.23429286 0.18542928 -0.032332804 -0.54313874 0.026799373 0.047125842 0.13463092 0.1420015 0.25520226 0.1454726 0.5785394 0.052907463 -0.10347877 -0.57705176 -0.37062505 -0.0016200215 -0.3666014 -0.2628825 0.19765744 -0.52741975 -0.21154316 0.09659425 -0.23807895 0.10714173 0.21157852 -0.46291336 -0.0017213054
1712 -0.23951295 -0.50239795 0.12659511 -0.1729221 -0.09895797 0.1690699 0.06615935 0.10885125 0.35395595 0.030470837 -0.4083953 -0.50335634 0.21256992 -0.3921978 0.018064626 0.5862815 -0.4027179 -0.6773673 -0.23129088 0.17077456 -0.4248028 0.31188327 0.5905255 0.19102468 0.37861696 -0.16324547 -0.09227036 0.13257842 -0.52793133 0.21562722 -0.12738456 0.058698807 -0.1297614 0.5686197 0.3872594 0.3322646 0.110566415 0.27034676 0.38618514 -0.29960406 0.1467451 -0.1807875 0.16155802 -0.5535746 0.36805177 0.14572547 0.3337252 0.14675348 0.058446415 -0.118760295 0.08345399 0.18936676 0.15662466 0.31145087 -0.13930784 0.03964355 -0.58163816 0.34588984 -0.27993602 0.38232127 -0.0864787 -0.120874904 0.13813022 -0.26542428 0.22622094 -0.21962628 0.25073534 0.02755688 -0.019709708 -0.31956154 0.44018552 0.030976035 0.42687112 -0.03389657 -0.70877975 0.10699613 -0.3080313 0.33832484 0.07141052 0.37918082 -0.15554793 0.28308496 0.21690719 0.083293855 0.15047412 0.18219174 0.08156614 -0.022942957 0.01509639 0.14321865 -0.11020289 -0.07998293 0.09151076 -0.11944839 -0.23623769 -0.13603991 0.058362406 -0.28937283 -0.31245717 0.09913214 0.48644435 0.23091185 0.20252489 -0.17116167 -0.29467902 0.01074131 0.33450896 0.09214631 0.2591179 0.0761785 0.39782855 0.08512699 -0.45096862 -0.09600534 -0.36946914 -0.43504292 0.19771914 0.01586697 -0.13343863 0.38282418 0.14223184 0.009985467 -0.2144351 -0.18072923 -0.48359174 0.28264865 -0.07662628 0.26976094
1435 -0.40563333 -0.97012126 0.28908294 -0.09110095 -0.40336105 0.48110253 0.21306217 -0.0726891 0.21085343 -0.30529803 -0.48603615 -0.17648958 0.49239168 -0.483723 0.33983153 0.53371996 -0.17836235 -0.20082457 0.187786 0.3972178 -0.63767534 0.39937884 0.29827854 0.025868662 0.17345096 -0.016350137 0.17323276 -0.021547766 -0.27190587 0.5432393 -0.13525055 0.26211092 -0.584766 0.8591722 0.3032474 0.16533326 0.19078621 0.29933026 0.32114962 -0.19686802 0.056094732 -0.35804912 0.3391784 -0.18261297 0.39063984 0.28478888 0.19890927 0.33540273 0.35313168 0.0682713 -0.4201642 0.1724476 -0.22088967 0.18663883 -0.52774984 0.175486 -0.030941218 -0.014300658 -0.20145667 0.42935213 -0.6076967 -0.24260844 -0.020112738 -0.20399806 0.20506129 -0.38242474 0.04196928 -0.14436448 -0.15148637 -0.30822963 0.3831156 0.1520509 0.3712705 0.07846242 -0.47481754 0.114577875 -0.06461825 0.5139873 -0.14716159 0.5279208 -0.12835242 0.23911655 -0.26785544 0.050793912 0.065408476 0.23915304 -0.07867746 0.11497348 -0.16048613 0.4395806 -0.050671443 -0.07789135 0.50388056 -0.117637746 -0.22254851 -0.29122737 0.060427964 -0.39456874 -0.1754992 -0.14022858 0.43252775 -0.23110758 0.10306728 0.15184839 -0.033207335 0.071832635 0.35899594 0.1843325 0.61076754 -0.0067110183 0.3649359 -0.023550142 0.049258504 -0.30582803 -0.3896789 -0.17130494 -0.08390387 0.2262963 -0.04867088 -0.08983443 -0.14559442 -0.09091065 0.021473408 -0.21341503 -0.44225797 0.21573447 -0.15730296 0.32145172
8 -0.07017047 -0.71055114 0.29936352 -0.03857101 -0.21589774 0.3147333 -0.097438194 0.12160855 0.0939237 -0.14384274 -0.53619033 -0.5824571 0.27086008 -0.26104608 -0.068865515 0.3117867 -0.18666504 0.091773964 -0.38915446 0.4921524 -0.8159903 0.6520813 0.57909876 0.1454028 0.27972162 0.21843886 0.011439257 0.3140877 -0.08408744 0.024976233 -0.16450581 0.22675666 -0.6248492 0.96202165 0.22005266 0.48870203 0.21641834 0.343085 0.5378596 -0.595404 0.32206434 -0.27100807 0.029955748 -0.6173042 0.28755432 0.2191691 0.3251999 -0.14622378 0.08067425 -0.2616193 0.24034263 -0.090745285 -0.11627937 0.49922323 -0.5051243 0.3906201 -0.42335793 0.070285216 -0.0708418 0.29827023 -0.5781572 0.20309639 0.29293242 -0.24019818 0.41814995 0.010705116 0.095578685 0.049003247 0.09548761 -0.18300793 0.5046475 0.44994977 0.07258219 -0.14140466 -0.2597445 -0.061011214 -0.36291432 0.1006727 -0.26859307 0.30810538 -0.017970242 0.24004449 -0.35560036 0.048276428 0.0035909584 -0.02604806 0.031931505 0.3473798 -0.28760543 0.3210234 -0.2343284 0.03360197 0.06816181 0.059569355 0.15045045 0.022178028 -0.0076219663 -0.45464644 -0.29565272 0.19688158 0.061798353 -0.051063944 0.05499777 -0.0040793465 -0.3602149 -0.24617997 0.052261356 -0.048765626 -0.059471574 0.29627386 0.64679307 -0.17303683 -0.2700989 -0.017806837 -0.4105279 -0.35002217 -0.006326313 -0.13343213 0.019220313 0.061470143 0.010722384 -0.16937637 0.027418122 -0.23631719 -0.4758793 0.06572186 -0.27602306 -0.09848441
311 -0.27928376 -0.7075022 0.31254297 0.24665022 -0.12894748 -0.05134552 0.5552405 0.05287682 0.06612345 0.008334838 -0.31765434 -0.52964747 0.0070829308 -0.39903024 -0.3852322 0.19896412 -0.16916889 -0.8360524 -0.24842457 0.16973479 -0.74527514 0.2130823 0.13374935 0.31052297 0.38585246 0.20563811 0.07793102 0.1993594 -0.40500715 0.40587908 -0.10062184 -0.003346626 -0.27733713 0.9775397 0.28520444 0.13259959 -0.00053605216 0.38212255 0.5378312 -0.3158093 -0.05274479 -0.10786883 0.16952598 -0.28570303 0.7216426 0.1362046 0.5590652 -0.2565664 0.059940726 -0.02201767 0.5519145 -0.14534271 -4.185772e-05 0.14842443 -0.23001221 0.16779073 0.014809431 0.3773071 -0.07406451 0.47951275 -0.3900239 -0.1823806 0.22947094 -0.3560379 0.42457697 -0.20801215 0.46441543 0.22793497 -0.16224737 -0.21727273 0.26343092 -0.08117292 0.34671092 0.044552937 -0.39157185 0.39307514 -0.026244396 0.07729686 -0.16273077 0.022352206 -0.12041828 0.58330363 0.2691356 0.35220933 0.13218594 0.22648968 0.113521926 -0.14376934 -0.098372005 0.17379823 -0.44725347 0.02977112 -0.22357532 -0.053593073 -0.2732403 -0.14571182 0.34656873 -0.22692603 -0.02711875 0.28585452 0.21613504 0.16168982 -0.08577579 0.16216339 -0.50856143 -0.029194128 0.072198674 -0.025338762 0.11891479 0.0758955 0.16449216 0.07802585 -0.22162604 -0.42124298 -0.24048024 -0.33720377 0.26403394 -0.18406813 -0.46030086 0.48834306 0.10606021 -0.4784272 0.071486406 0.026801208 -0.49311793 0.19361049 -0.07814104 0.40283045
455 -0.29091024 -0.8305872 0.32924265 -0.09501839 -0.12710455 0.35659042 0.01812661 0.17445895 0.15132761 -0.054060444 -0.4459303 -0.3606563 0.25101376 -0.43688893 -0.107433274 0.46338865 -0.26728055 -0.22851352 -0.2872147 0.25203097 -0.6986828 0.60064656 0.411651 -0.06274872 0.3568401 0.39717448 -0.14138457 0.118938856 -0.25211897 0.23372586 0.07562897 0.18275212 -0.53673106 0.70602816 0.45258108 0.12021056 0.26652056 0.31786442 0.39468148 -0.13070379 0.18497372 -0.2810203 0.26641834 -0.3207683 0.25471196 0.087899506 0.1918971 -0.032845695 0.24933305 0.0004165689 0.16551451 0.030366585 -0.037124746 0.3236472 -0.18470788 0.029314779 -0.28811944 -0.18476647 -0.018416597 0.52946275 -0.5036584 0.07323583 0.06976162 -0.20870607 0.34691772 -0.040990274 0.17017975 0.13184085 -0.16144155 -0.109031364 0.54950595 0.23827127 0.3634163 -0.018881168 -0.49054012 0.033316404 -0.2513154 0.30967316 -0.0727563 0.4195717 0.009767548 0.27827013 -0.1976958 -0.09011682 0.1787718 0.12949528 0.03722252 0.07033361 -0.1629024 0.16601758 0.032062866 -0.010320267 -0.020271368 -0.059973273 0.0029313653 -0.100674555 0.025552204 -0.14401384 -0.28825268 -0.0106507065 0.18066818 0.21075897 0.10947845 -0.2303 -0.3030042 -0.24908403 0.34376124 -0.24343477 0.30519095 0.23276861 0.3467151 0.12582152 -0.18772262 -0.025963638 -0.18826614 -0.18574454 0.22109751 0.0012890984 0.04212168 0.09436218 -0.21744455 -0.33202922 0.010583359 -0.060565945 -0.2088073 -0.07456795 -0.12499952 0.12214497
817 -0.56282467 -0.9734467 0.40999612 0.115453035 -0.41156945 0.14367513 -0.3376865 0.050465696 0.3407684 -0.19743949 -0.3713106 -0.102055706 0.086003914 -0.31039968 0.25676018 0.3800011 -0.2958445 -0.2489059 -0.036905542 0.35713682 -0.59327143 0.20854746 0.52377975 0.13505659 0.10963941 0.055041138 0.04819412 0.24703121 -0.3064962 0.25464547 0.033980265 0.17357787 -0.57424635 0.6657867 0.39769423 0.15945311 0.27322906 0.3085927 0.32502022 -0.16509476 -0.21452413 -0.25704336 0.34581974 -0.42562544 0.31868955 -0.12541093 0.34836736 -0.21109769 -0.27383104 0.26323968 0.4982902 0.0031495118 0.105914734 0.2894945 -0.084707715 0.24905826 -0.0125268595 0.13250707 0.19078188 0.5047589 -0.68777806 0.18684901 -0.3426637 -0.27787396 0.26981983 -0.1017425 -0.08494792 0.06570679 -0.16581331 -0.3286542 0.41137627 0.22101586 0.19224806 0.17800836 -0.20936504 0.28825626 -0.5517648 -0.07820677 -0.13526756 0.30377954 0.009059586 0.37010005 -0.2667886 -0.13059534 0.03148809 0.3303048 -0.14973517 0.099491335 -0.07942691 0.02009016 -0.30026954 -0.008078945 -0.10363912 -0.08637688 -0.034545578 -0.1578362 0.097365804 -0.4459082 -0.25554666 0.026950885 0.4313319 0.41624293 0.014527844 -0.18341684 -0.37326494 0.06060032 0.5912274 -0.053092066 0.07585878 0.27493396 0.27381116 0.10413415 -0.23761456 -0.077550314 -0.19432093 -0.63205713 0.08477295 0.022141997 -0.20269932 0.51555455 -0.12288962 -0.27204317 -0.11994525 -0.12847817 -0.20139691 0.07055001 -0.25361225 0.15867236
1625 -0.26377133 -0.7633651 0.3151381 0.25450024 -0.112807825 -0.0004438954 0.55933934 -0.052023757 0.07802015 -0.07698707 -0.36659622 -0.50438344 0.01992024 -0.45612255 -0.25951043 0.27403772 -0.12998226 -0.8257637 -0.11508122 0.11727421 -0.7063561 0.2113887 0.12918594 0.32926548 0.34862638 0.073921144 0.028556878 0.10864532 -0.4883449 0.40384212 -0.11640849 0.046552107 -0.29971313 0.9750814 0.31511864 0.10548041 0.0088776825 0.41737032 0.5898501 -0.2625464 -0.16969092 -0.08201252 0.2210737 -0.20849106 0.6790809 0.08470816 0.5817357 -0.14808956 0.06445281 0.04335166 0.5752972 -0.1460065 0.068874575 0.20409793 -0.19962692 0.13841005 -0.046058755 0.44166422 -0.14413516 0.5428874 -0.39104462 -0.26414913 0.18356746 -0.46909142 0.47229066 -0.19713642 0.49907407 0.19184172 -0.19577801 -0.23137197 0.27441287 -0.13356255 0.34088314 0.05610059 -0.48344985 0.4752107 -0.050319433 0.10626114 -0.08831098 0.09693685 -0.050471712 0.5528597 0.33903822 0.36651212 0.090394914 0.14477657 0.13459603 -0.11866476 -0.08104269 0.19760711 -0.39545768 -0.062973805 -0.23409615 -0.09010121 -0.39670157 -0.24055462 0.32727897 -0.21895783 -0.10517857 0.239004 0.25274885 0.18379316 -0.09804297 0.17451291 -0.50965524 0.026945554 0.14858977 -0.040247634 0.20126164 0.029005824 0.18363419 0.10028088 -0.28138193 -0.36791492 -0.20960015 -0.36428815 0.37363693 -0.108320735 -0.51382804 0.42511997 0.09082121 -0.4497331 0.066686 0.034254674 -0.42573294 0.21022755 -0.08366059 0.48016405
1254 -0.2608043 -0.6186998 0.12069537 0.00071408827 -0.26879352 -0.076256685 -0.10488983 0.27107996 0.27853975 -0.08879593 -0.015935563 -0.24800178 0.15455608 -0.25097445 0.12505756 0.4232402 -0.27718112 -0.14881904 0.013317959 0.2898666 -0.5410994 0.16268808 0.3312118 -0.02684714 0.23571752 0.14647786 0.017229166 0.18375714 -0.17630807 0.2749623 0.25569063 0.12964201 -0.38938987 0.5681022 0.4121028 0.089918464 0.27505264 0.22072384 0.264505 -0.24177484 0.33499673 -0.20524189 0.27081966 -0.29450294 0.47211823 0.04705772 0.30221197 -0.069676034 0.13880774 0.036277324 0.14996704 0.26035294 0.066524185 0.06124258 -0.39556956 0.11228207 -0.08622466 0.28983557 -0.036128107 0.4190321 -0.4469557 0.08618634 -0.03150636 -0.1477922 0.23579942 -0.060114548 0.14471832 -0.0941209 -0.10694786 -0.30622262 0.47332126 0.2685266 0.14232601 -0.11464349 -0.54540193 0.13801701 -0.32613736 0.3296047 -0.0562303 0.27564254 0.04595109 0.42107806 -0.20394638 0.15838768 0.5003724 0.14925934 -0.18272372 0.05250838 -0.37115264 0.15984428 -0.22189876 0.0931919 0.3309224 0.10323026 -0.110173196 -0.26769823 0.17955956 -0.3121269 -0.12851422 0.016030367 0.4160291 0.047565922 -0.19770162 -0.050394636 -0.19557169 -0.12638405 0.28026277 0.23305085 0.1573465 -0.052062076 0.23462908 0.31267485 -0.24643797 -0.25000933 -0.4901126 -0.3496514 0.004909457 0.15930337 0.0054323436 0.23851503 0.08859182 -0.3067063 -0.13852751 -0.1725905 -0.3832354 0.15260895 -0.06978414 -0.018292202
223 -0.30167475 -0.39585745 0.48920286 -0.103873596 -0.088369384 0.21749717 0.10856207 -0.040530104 0.1518226 -0.20510966 -0.009756769 -0.43519574 0.34771135 -0.30251712 -0.21388587 0.48400524 -0.80667716 -0.6866582 0.04533843 0.3611661 -0.5753567 0.6037832 0.46195677 0.060053237 0.22132903 0.4644895 -0.059584405 -0.23634394 0.21782869 0.5521325 0.1781965 0.13098331 -0.16882114 1.0756954 0.6141659 0.28044078 0.1746364 0.29156405 0.59478086 -0.22848268 0.37455106 -0.5517376 -0.02774711 -0.26969522 0.21493275 0.13509928 -0.053077295 -0.25523043 0.2486664 0.25292537 0.2163848 -0.1251336 0.105096206 0.36762786 -0.07809962 -0.022587059 -0.3469916 -0.043090582 0.20276104 0.6353517 -1.1331552 0.26802078 0.40043882 -0.36072972 -0.2768272 -0.29349434 0.1300099 0.037827294 -0.25189465 -0.016768763 0.7011831 0.19255175 0.16918357 0.14178754 -0.7443308 0.23611689 0.06166385 0.09903851 -0.047783945 0.11409881 -0.28584996 0.11782776 -0.24233091 -0.41330707 0.10637377 0.29928997 -0.14899173 -0.29317048 -0.19917974 0.05192412 -0.19812971 0.3374101 -0.23447761 0.14201237 0.12202486 -0.29723766 0.14947256 -0.0710476 -0.05368794 0.24317345 0.43862957 0.15499787 0.042284235 -0.13840918 -0.5214624 -0.080489464 0.39103836 -0.3851795 0.040016375 0.41858932 0.29795766 0.48469266 -0.3636982 0.0724661 -0.2179827 -0.2439467 0.10262967 0.025198992 -0.0041036624 -0.21056409 -0.21403375 -0.3125634 -0.32300824 0.43535 -0.4634179 0.27498278 0.20142287 0.09452544
1343 -0.3068239 -0.70250154 0.20128503 0.24169688 -0.29617524 0.073464684 -0.05421563 0.3442941 0.2748987 0.14532602 -0.16676971 -0.48158652 0.12511739 -0.2709099 -0.1973168 0.25208107 -0.37517774 -0.38212603 -0.44682056 0.46064338 -0.7714328 0.3451402 0.55662876 -0.047115866 0.45624876 0.48516718 0.08847754 0.25365555 -0.25565562 0.42508265 0.20199934 0.12382259 -0.43906254 0.82142365 0.35176066 0.32573184 0.33278865 0.14536552 0.15479463 -0.35078973 0.2553436 -0.29671058 0.307772 -0.54622793 0.52250004 0.154825 0.37984273 -0.44145098 0.059789803 -0.13155366 -0.0055749617 0.24222468 0.03611447 -0.0322364 -0.37380898 0.16040458 -0.03441937 0.26097813 0.23382926 0.5777439 -0.29278716 0.25749576 0.08093425 0.091760114 0.071859054 0.113080785 -0.044310514 0.024001177 -0.162778 -0.3068171 0.45179725 0.29516906 0.452378 -0.08494325 -0.36255583 -0.21644783 -0.23583227 0.15737863 -0.09654291 0.08084782 0.017230438 0.43739578 -0.30616027 0.083740994 0.50409037 0.21366285 -0.07259608 0.044331163 -0.15269794 -0.00031604225 -0.39476615 0.062545106 0.4233443 -0.057147462 0.25650373 0.13869369 0.1565236 -0.4033686 -0.12969616 0.06387123 0.18966267 0.13335428 0.020640021 -0.21825825 -0.34553364 -0.30412793 0.18266575 0.20653473 0.08408752 -0.005527868 0.4304467 0.096441045 -0.21118648 -0.034455437 -0.48757154 -0.48455417 -0.26394582 -0.12046232 0.15902513 0.55299073 -0.2568872 -0.19192325 -0.23657349 -0.1693323 -0.3946418 0.1304018 -0.22970422 -0.016111592
1345 -0.3349075 -0.5209588 0.3367159 -0.23421565 -0.20662189 0.18385369 -0.12983802 -0.13873741 0.13194467 -0.16164237 -0.2274987 -0.1885416 0.41789728 -0.24337557 0.5435625 0.58095765 -0.4560639 -0.14721894 -0.008763546 0.426423 -0.4863347 0.4146894 0.7424571 0.012950143 0.38097706 0.27075434 -0.046655945 -0.038130276 -0.33521903 0.36403888 0.099945344 0.37643895 -0.52224606 0.7110055 0.51000816 0.089073665 0.04570251 0.38441235 0.4549965 0.1114818 0.1800502 -0.1987095 0.13543072 -0.2874336 0.18409057 0.25550693 0.056342762 0.18332937 0.44790208 -0.028827213 0.20797774 -0.10132132 0.2834949 0.194663 -0.34452164 0.1252769 -0.1400929 0.09387976 0.1797547 0.75497013 -0.55291903 0.1737349 0.19295222 -0.3568397 0.4193293 -0.30929697 0.18697096 0.08804556 -0.05942666 -0.008392465 0.69646376 0.10460502 0.19224136 -0.12747602 -0.65865576 0.2562211 -0.05033305 0.28214014 0.10758313 0.15556361 -0.06954162 0.3117495 -0.21625641 0.044113345 0.30456305 0.3002306 -0.13466962 -0.0074896556 -0.0819917 0.30708027 0.14094847 -0.1523655 0.16738448 0.12440661 -0.15898654 -0.5152535 -0.0026167422 -0.5173423 0.093231186 -0.0010854374 0.4716811 -0.048459165 0.059327975 -0.047311474 -0.18877575 0.016726356 0.3303607 -0.0048512225 0.36854735 0.14721835 0.5338773 0.42663005 -0.2814485 -0.06882614 -0.5245548 -0.46458378 0.21776555 0.18652254 0.07528549 -0.14674896 -0.30908087 -0.12891154 -0.34438527 0.13623343 0.08933722 0.19461587 0.01819623 0.1461647
139 -0.088908695 -0.3845949 0.42064837 0.14463171 -0.13535854 0.2558442 0.04145905 0.2282411 0.13590617 -0.18641649 -0.6482549 -0.23868044 0.60971296 -0.37738705 0.14855547 0.14061496 -0.42293152 -0.361948 -0.31243217 0.4314405 -0.6895184 0.4069625 0.5589639 0.1605034 0.6248025 0.10403335 -0.015500279 0.33155134 -0.80204546 0.33256117 0.073511 0.17321739 -0.2819756 0.6383274 0.5246255 0.37551355 -0.06522911 0.19314568 0.57488555 -0.4636156 0.38438305 -0.1290157 0.15153998 -0.413465 0.3869901 0.078028016 0.1185463 0.075666286 -0.05681572 0.13499473 0.13727112 -0.04217845 0.095247194 0.5146298 -0.45368466 0.15456457 -0.08205302 0.0515508 -0.16582566 0.46975252 -0.4668543 -0.1254612 0.26804212 -0.07890592 0.558985 -0.20746535 0.074068986 0.11996447 0.11664403 -0.14382227 0.5394064 0.24463283 0.11803702 0.011180181 -0.053972036 0.32268634 -0.15748826 0.22369008 -0.19668481 0.6435068 -0.11770757 0.3871545 -0.63263 0.0013319798 0.07150936 0.5584404 0.12752962 0.15419549 -0.22286108 0.14338638 -0.24442852 0.22546218 0.04812215 0.24483672 -0.04051669 -0.17893757 -0.09014692 -0.3202429 -0.1501634 0.46414834 0.6517532 -0.24352157 -0.051776383 -0.42520753 -0.3307634 0.20071764 -0.1466393 0.17536472 -0.23938932 0.17646989 0.3231715 0.080546156 0.06010144 -0.08949523 -0.7130672 -0.626934 0.4086645 -0.16790058 0.109688275 0.050294105 -0.29045826 -0.11958985 -0.036584347 0.20775175 -0.12713744 0.08939731 -0.1949019 -0.24037021
1747 -0.1466774 -0.68662024 0.09352933 -0.1863076 -0.0951452 0.12511137 0.048798516 0.14256999 0.5068195 -0.05291565 -0.37481168 -0.52855057 0.030990332 -0.34833723 0.052682385 0.36270612 -0.3131898 -0.30049562 0.099327 -0.12605241 -0.6000068 0.15032178 0.29075584 0.018109623 -0.014165574 0.28800893 -0.104475655 -0.14110707 -0.5256632 0.14206046 0.19135284 0.039947003 -0.19481984 0.7535298 0.554799 0.34147608 0.25651205 0.07657984 0.4075582 -0.15446158 0.4449631 -0.30313897 0.19538355 -0.44542328 0.71469223 0.117428534 0.49426606 0.052739486 0.1442152 -0.08321073 -0.02290142 -0.01464204 0.04147232 0.23792954 -0.2509683 0.34511697 -0.19122292 0.42271686 -0.10941352 0.46244264 -0.5575627 -0.121592924 0.116825595 0.091052376 0.19642735 -0.22181532 0.36668164 -0.18964572 -0.007621539 -0.43405965 0.5787983 0.30158916 -0.035971716 -0.1752985 -0.4159929 0.36718348 -0.20452468 0.18388453 0.34692216 0.30311888 0.3564281 0.2753268 -0.057050742 0.2219987 0.16179937 -0.047954716 -0.28965494 -0.08888228 0.08294895 0.07534159 0.014951989 0.04009089 0.18331827 -0.23466274 -0.3704494 -0.431681 0.036363054 -0.17675832 -0.29033107 -0.105883 0.461493 0.07836983 -0.030790968 0.07665794 -0.27598816 0.21917103 0.019478312 0.12403223 -0.17431961 0.04441931 0.12750994 0.43506023 -0.1017501 -0.113798656 -0.20203593 -0.24982078 -0.04768407 0.47275648 -0.12674595 0.34736642 0.0032619894 -0.087954804 0.062477864 0.105735414 -0.57775617 0.069581755 0.33111882 0.23915009
1471 -0.21927777 -0.89667463 0.5847614 -0.08333635 -0.10789024 0.34137198 -0.0078923125 -0.052032728 0.36800155 -0.11394126 -0.33812627 -0.40144947 0.3411798 -0.42014182 0.291975 0.21544574 -0.34523842 -0.0931879 0.11143949 -0.018908069 -0.62163424 0.17993695 0.38616535 0.01384961 0.26005137 0.20891908 -0.16972293 0.13887037 -0.68423903 0.45426804 0.20588869 -0.0071762 -0.5404899 0.84766716 0.6404184 0.13321091 0.14645778 0.09103437 0.31039038 0.025109787 0.4251119 -0.2103996 0.21702586 -0.2656416 0.45775864 0.22636478 0.45237973 0.0148358755 0.13321798 -0.014952733 -0.097425476 -0.2576593 0.088878036 0.22174384 -0.51516515 0.26342782 -0.14029016 0.20828612 -0.112411834 0.58363706 -0.76859736 -0.1436788 -0.023249134 0.029239545 0.37218708 -0.018471947 0.16230886 -0.090698175 -0.10520267 -0.31954414 0.5138236 0.431911 -0.014794653 -0.006828441 -0.2951289 0.34289786 -0.024120733 0.23679839 0.2276341 0.40631637 0.3559689 0.05237297 -0.3357821 -0.019668601 0.29421464 -0.0069190357 -0.34938994 -0.0035315242 0.012359538 0.09044748 0.23217203 0.087292954 0.17993633 -0.047684066 -0.3112128 -0.24135217 -0.17363474 -0.17851664 -0.23357749 -7.9350444e-05 0.45058483 -0.14244513 -0.20832595 -0.018527474 -0.3552367 0.23299399 0.18150897 0.06937438 -0.058014687 -0.036028758 0.096334845 0.27833962 -0.011540369 0.039416727 -0.2237478 -0.10575877 0.16429256 0.3914542 -0.11986442 0.25126493 -0.28060645 -0.27616215 -0.004360282 0.23209646 -0.27858847 -0.13906156 0.19851531 0.11223171
638 -0.30656058 -0.66928333 0.21990463 0.027883662 -0.16265762 0.22353847 0.09033668 0.21920618 0.29067045 -0.05852003 -0.51235193 -0.3317981 0.4120847 -0.50725883 -0.059053287 0.39601427 -0.18191892 -0.45920807 -0.21962044 0.18992124 -0.7580183 0.5061403 0.41939655 -0.029598746 0.253069 0.3694361 -0.051820237 -0.070970826 -0.283387 0.2773351 0.19761454 0.22758475 -0.32704955 0.73246735 0.37046298 0.075593136 0.09998865 0.25035465 0.36367935 -0.22807688 0.14715867 -0.22988145 0.36226445 -0.28786013 0.38473058 0.20384544 0.2045857 -0.04878948 0.2072236 0.07467252 0.33250523 0.1249966 -0.017152322 0.32768503 -0.28452483 0.009229838 -0.046402868 0.02398668 0.050767 0.6406262 -0.4429723 0.030679429 0.18097726 -0.14516462 0.26924115 -0.18617219 0.112042055 0.106328934 -0.11834317 -0.12513566 0.43526366 0.09786401 0.241808 0.0708317 -0.48146638 0.026884452 -0.23928927 0.31655765 -0.13340005 0.5428512 -0.118187584 0.31439283 -0.32210445 -0.013120836 0.07961123 0.16412197 0.072891064 -0.03302146 -0.19134142 0.031674996 0.09654848 0.028890561 0.03679121 -0.16061586 -0.098535545 -0.19535722 0.13172767 -0.20293945 -0.0846763 0.120709345 0.29496828 0.085398845 0.006619182 -0.17874792 -0.34817332 -0.14915425 0.26566452 -0.08669186 0.33099517 0.19419637 0.15843394 0.19385047 0.06272545 -0.1788791 -0.3248361 -0.11564094 0.19124667 -0.029943679 0.009490647 0.11405638 -0.16324478 -0.2407166 0.026705502 -0.07032893 -0.1431926 0.097376816 -0.10438174 0.014340709
179 -0.19192599 -0.57770205 0.49305925 -0.06612477 0.020631377 0.08155836 0.40771702 0.14207527 0.14050202 -0.15577543 -0.4416708 -0.44615048 -0.027300848 -0.5923361 0.16766463 0.39566275 -0.3008775 -0.5085865 0.09423244 0.20373456 -0.54472005 0.55680895 0.46970823 0.15468858 0.30637974 -0.007360426 0.09656562 0.12759784 -0.47067025 0.61298645 -0.005253223 0.16230322 -0.35963032 0.98189247 0.2251115 0.036931552 0.15216418 0.11794655 0.52187765 -0.27435112 0.047813807 0.07313182 0.13082522 -0.32479173 0.39949077 0.23437251 0.37313163 -0.036091927 0.118514515 0.14955927 0.5490629 -0.021028822 0.21232219 0.1499104 -0.32175556 0.15994205 -0.22868094 0.34909338 -0.16123468 0.61116153 -0.29456317 0.09493418 0.118676096 -0.47785136 0.24873626 0.04297558 0.444252 -0.17188762 -0.024221737 0.041730724 0.5090268 -0.17524382 0.43003726 0.09361209 -0.45546386 0.18342294 -0.02612633 0.17678274 0.0006631976 0.35521156 0.10020454 0.3953315 0.28802276 0.2743958 -0.07004548 0.320887 -0.006399799 -0.1968068 -0.0711604 0.10047167 -0.34579718 0.018608192 -0.11642053 -0.22611207 -0.19199426 -0.016098898 0.035214674 -0.2628728 0.036485072 0.027287778 0.2403941 0.2972959 0.06697645 0.050551265 -0.35887036 -0.112342045 0.103940554 -0.1720398 0.25053376 0.5027421 0.27772456 0.16846767 -0.05643451 -0.10060117 -0.4023777 -0.28116295 0.11142585 -0.060207784 0.010562121 -0.18295722 -0.097020715 -0.06781597 0.31846705 -0.019464554 -0.32171524 0.107441284 0.066963874 0.42544135
855 -0.23580334 -1.6644578 0.82585526 0.6316006 -0.09085328 0.31721961 0.7590224 -0.22469062 -0.24713297 0.20826983 0.29964057 -0.30646798 -0.24654871 -0.956084 -0.22550195 0.24722373 -0.42589834 -0.94505644 0.88229537 0.14378443 -0.07082209 0.7009444 -0.42784643 0.7582238 0.32308096 0.088018976 0.12571873 0.31758234 -0.3191097 0.98089164 -0.5318951 -0.40189028 -0.54840124 0.73766375 0.014491505 0.8884449 -0.15802547 -0.08003272 0.58400893 -0.4059155 -0.48701465 -0.64245033 0.10572506 0.5083615 0.30354258 0.66911966 0.056618415 -0.6178198 1.1622673 -0.24867608 -0.10745108 -0.9600755 -0.30340084 0.6728572 -0.13516316 0.45662585 0.983583 0.4030149 -0.5855615 0.15510204 -1.5208584 0.40674236 0.8282136 -1.0568928 0.025765428 -0.03298955 1.6853981 0.14395356 -0.5088288 -0.39222428 0.5504459 0.68619865 0.1342623 0.44093695 -0.91779405 0.9355471 0.3281269 0.5476076 0.13184689 0.04521649 0.03861254 0.20210046 -0.70030415 -0.25799283 0.759043 1.3131871 -0.57268244 -0.60948575 0.24867265 0.20640701 -0.43462336 0.20239072 0.47880423 0.5626775 -0.19272725 -0.2955403 -0.31558087 -0.4916843 0.16211621 0.19740754 0.7074498 -0.06128843 0.6534457 0.26308972 -1.0593396 0.27311602 0.6693014 0.0639371 -0.35542464 0.38398138 0.5816246 0.4987861 -0.7752005 -0.58628666 -0.52577406 -0.5374486 -0.93802255 -0.18777467 -0.45745206 -0.50991374 0.13251615 -0.43975875 0.05848186 0.631163 -0.23551266 0.5086534 -0.58104444 0.6251379
1025 -0.4007702 -0.855403 0.06920324 1.2805194 -0.66013527 -0.0030707594 1.0107147 0.4261755 -0.31240502 0.19724204 0.100774094 -0.24915609 0.63276386 -0.9463225 -0.59486717 -0.30317238 -0.52512 -1.1791065 0.41279033 0.1404337 -0.55707765 0.356111 -0.08800244 0.39253163 -0.043871906 0.060943145 0.16590099 -0.101377025 -0.84268796 0.5107141 -0.4068817 -0.23644537 -0.1821877 0.725071 0.6192086 0.62960744 -0.2256868 -0.03421899 0.59678674 -0.6843366 -0.04888739 -0.63559407 0.14023067 -0.11058645 0.19035783 0.6903086 -0.3204272 -0.29045808 1.1448925 -0.046519674 -0.5736317 -0.3737002 -0.99071527 0.26097956 -0.40714526 0.55011827 0.8604075 0.32761237 -0.29527858 0.14763421 -1.4602308 0.029391706 0.50857747 -0.2446781 -0.5815389 -0.2955162 1.5254291 -0.16222844 -0.3365341 -0.13557152 0.6016587 0.75048393 0.3003458 -0.18979034 -0.71378344 1.028299 0.49990097 0.37843683 0.0865848 -0.25918594 -0.19159538 0.6312825 -1.3492798 -0.10505178 0.49274522 1.6081358 -0.2360269 -0.28404933 -0.31906047 0.41893718 -0.53717554 0.3021086 0.17560643 0.24096322 0.25101188 -0.39713612 0.48437467 -0.3734825 0.077509694 0.37043202 0.63633704 -0.57895637 0.74711865 -0.46692926 -0.5762786 -0.0015770104 0.20445839 0.15716688 -0.744541 -0.50016505 0.81160516 0.5312598 -0.6063678 -0.30184036 -1.2106357 -0.5895202 -0.73175657 -0.04439954 -0.29205018 0.16922516 0.13152388 -0.3520296 -0.29146108 0.47265005 -0.3742915 0.8392073 -0.7286138 0.043906048
