1899 128
248 0.328774 0.24286121 -0.36380085 -0.068858735 -0.2191872 -0.17622003 0.091662236 -0.17260094 -0.23744145 0.21555594 -0.22258502 0.03827189 0.020140877 0.012089426 0.14354075 0.05839628 0.044221953 -0.048591718 -0.019061504 -0.3011356 0.060091324 0.0090989 -0.28201395 -0.15421629 -0.044748284 -0.11040664 -0.099257626 0.18707177 -0.32768148 -0.11203363 0.122801356 -0.17185861 -0.30142644 -0.19040012 -0.11272682 -0.31414813 -0.1729946 -0.09444139 -0.031724516 0.048732113 -0.086770914 0.049173307 -0.1100543 -0.1296804 -0.110819444 -0.12539342 0.03650602 0.03738695 0.43312263 -0.03445655 -0.22862914 -0.19638884 0.029764652 -0.24178773 0.028039215 -0.30839097 -0.03586987 0.05941331 0.29603234 -0.088751085 0.44862676 0.086898744 -0.056414142 -0.14615475 -0.12973376 0.19716166 -0.060841855 -0.29920787 0.29378685 0.12811272 0.31063858 -0.045677714 0.17977533 -0.65560544 0.030821709 -0.41347432 0.19921042 0.2861293 0.17610076 -0.12588774 -0.5883992 0.25605115 0.26762366 0.051549233 -0.0789839 0.48238844 0.09622944 0.1707213 0.1651763 0.3294457 -0.25017735 -0.15527073 -0.22379768 -0.010150031 0.26216668 0.033379473 0.1411562 0.39277247 0.38961026 0.32915974 0.30247968 0.29879504 0.076260194 -0.34363994 0.13260621 -0.061712243 -0.18752106 0.13233441 -0.09538587 0.33784273 0.14282286 -0.023333391 0.021986581 -0.6589992 0.082545586 -0.06166241 0.07573287 -0.41973785 0.02623912 0.038238894 0.023827538 0.41058177 -0.11636012 -0.25405774 0.14605632 0.18520655 0.17202608 -0.10543368
1597 0.16821393 0.41118532 -0.21559653 -0.102997735 -0.6512914 -0.33423066 0.14807 0.19742766 -0.3261882 0.33400038 -0.03762413 0.1247527 -0.17481357 0.34525445 -0.2311899 0.037727397 0.019557513 -0.23451634 0.17305754 -0.1945852 0.06392348 -0.36787593 -0.2773447 -0.2136403 0.3510953 -0.25027427 -0.1348589 0.21939912 -0.2854458 0.36988127 0.10235774 0.079013206 -0.3702012 -0.4254075 0.042089377 -0.5943104 -0.24828151 -0.26737255 0.15623672 -0.025138998 0.015698325 0.046283137 0.25757498 -0.26760542 -0.2924002 0.22171825 0.2875564 0.12644161 0.10998859 0.12225796 -0.30522004 0.15096012 0.13240142 -0.1246838 0.3627958 -0.06325075 0.06955253 0.330837 0.23039487 0.2062949 -0.15858036 0.015399796 0.45197493 -0.09591537 -0.24435247 -0.4183944 -0.27009448 -0.3213959 -0.07742157 -0.35325947 -0.18216242 0.08322408 0.2348938 -0.10854559 0.008127856 -0.20332566 0.5029531 0.19212021 0.1872489 -0.06953817 -0.45065168 -0.11057947 0.3293296 -0.22344075 0.19967654 0.34667122 0.397342 -0.5063174 0.38970122 0.016442362 0.06334526 -0.062463548 -0.12858614 0.539727 0.005301625 0.05851198 -0.43265098 -0.06821108 0.35008895 0.028977593 0.35000178 -0.08919761 0.46093717 -0.37369356 -0.11683219 -0.19394882 -0.13229382 0.3558861 0.048513483 0.10914664 0.3891163 0.09040729 -0.02295595 -0.18881929 -0.06923679 -0.016964238 -0.080403104 -0.16765133 0.09560227 -0.21397194 0.11016956 0.21126674 -0.21314102 -0.17812352 0.124644615 -0.1958557 0.24100377 0.16102634
1538 0.11431852 0.16992185 0.27436912 0.079146214 -0.46240067 -0.09073435 0.10512339 -0.03987947 -0.0925267 0.6281316 -0.24994396 -0.14645185 0.03270429 -0.029892024 0.10330933 -0.15132497 0.5679602 -0.22979628 -0.21563888 -0.32063037 -0.06133874 -0.28564718 0.09288471 -0.38597545 -0.10853245 -0.14382435 0.30084127 -0.011294519 -0.40285343 0.009976642 0.020543395 -0.08482998 -0.21948656 -0.27231836 0.11923409 -0.4795537 -0.049533267 0.22657888 -0.047644038 -0.2227929 0.03852792 0.20586649 0.36266497 -0.40046057 -0.057783924 -0.2706834 0.04754399 -0.07860772 0.26149768 -0.5573805 -0.13824874 -0.5739507 0.22095305 -0.22189802 0.06635819 -0.04333622 -0.4119275 0.20488167 -0.064952634 0.13196138 0.277211 -0.27462727 -0.003093054 -0.46014094 0.15054539 -0.4486091 -0.14892696 0.34428173 0.110691115 -0.17827988 -0.0550607 0.3677263 -0.16986953 -0.5946001 -0.1622734 -0.26829734 0.40013248 -0.37123233 0.30637938 -0.041029647 -0.20762724 0.17503856 -0.21410346 -0.13305037 0.0075298483 0.40756243 -0.1026192 -0.10056204 0.14602184 0.2599932 0.4199773 -0.0055558407 -0.33062753 0.11526295 -0.15394284 -0.053968854 -0.0122539075 0.19250652 0.32061383 0.18538399 0.00073272944 -0.11881216 0.23786783 -0.14430581 0.19636464 0.08369781 -0.04139032 -0.005244757 0.22604287 0.042613465 0.17795244 -0.07535551 0.25350395 -0.2826787 0.035243485 -0.42103094 -0.14757948 -0.06010142 -0.037383612 0.30517206 -0.17576708 0.117335185 0.07056926 -0.17580104 0.34398335 -0.3152972 0.1844638 -0.1103841
1712 0.27435777 0.13813347 -0.18026833 0.14500153 -0.32253784 -0.23051561 0.11418708 -0.2649599 -0.038163118 -0.0302297 -0.03687489 0.3892044 0.16068985 -0.1459722 0.20711221 -0.045847513 0.12465507 -0.11092486 0.18585329 -0.47006804 -0.12864022 -0.34925383 -0.25857925 -0.394034 0.051341854 0.25199345 0.09796737 0.101240106 -0.53324866 0.2613825 -0.17329706 -0.23226774 -0.2574995 -0.005602585 0.09295047 -0.3280177 -0.040598717 0.27387202 0.017037487 -0.31959566 -0.34414878 -0.16659075 0.24336247 -0.44795665 -0.10379228 -0.32088742 0.06645251 0.09724019 0.22406577 -0.39006472 0.035966642 0.07163427 -0.06065652 -0.3226774 -0.009367396 -0.02653881 -0.24264452 0.0018727131 -0.38883403 0.11279311 -0.05440684 -0.31736502 0.050360322 -0.35689777 -0.31930196 0.17047058 -0.060758594 -0.37480778 0.094912976 0.038546924 0.19597366 0.2313199 0.5387802 -0.34491706 0.1212382 -0.20278923 -0.024602026 0.2174296 -0.114152364 -0.25346813 -0.17484984 0.22197846 0.22553024 -0.08990296 0.06789053 0.15035112 0.4394844 -0.020852627 0.51334244 0.13916534 -0.22838911 -0.20114987 -0.040861357 0.0066919383 0.07259747 -0.35686764 -0.5909481 0.13970925 0.26374573 0.25444204 0.4270949 -0.033083074 0.20922758 -0.18101242 -0.2541644 0.25983238 -0.098767474 -0.20866403 0.09272033 -0.13262953 0.24676116 0.06996005 0.18102434 -0.08744559 -0.13887775 -0.5312549 -0.3170402 -0.091653526 -0.045064908 0.04445332 0.14884432 -0.18187344 0.19649896 -0.1581762 -0.120870195 -0.068614066 0.31623188 -0.08461934
1311 0.3240226 0.10060711 -0.05777121 -0.22140332 -0.06704372 0.22733018 -0.2884259 -0.053502604 0.17239232 -0.32600185 -0.32514185 -0.110848084 0.15519202 -0.042884737 -0.07057312 -0.6229763 0.30951282 -0.42600086 0.23853658 -0.40189755 -0.17830004 -0.19382982 0.032608565 -0.028098013 0.06425276 0.026048027 0.21447732 0.3276059 0.0014956662 -0.016332787 -0.3694632 -0.01996012 0.01826316 -0.34363735 0.01536336 -0.4369162 -0.10118045 0.116417296 0.026734972 -0.283718 0.017342577 0.35553128 0.16516481 -0.32716206 -0.29708508 -0.43440694 0.19817449 0.30171213 0.12093192 -0.17123336 -0.26750484 -0.123844765 -0.0028194084 -0.1285944 -0.22628431 -0.16657934 -0.013410057 0.29581875 0.1458948 0.29743963 0.019523105 0.07490762 0.025625683 -0.22014609 0.09149448 -0.026149297 -0.24922194 -0.23149505 0.4789708 -0.24959959 0.18021587 -0.45603895 0.091592394 -0.2940388 -0.012455458 -0.21174072 0.13562354 0.23258196 -0.03916037 -0.13999107 -0.52316856 0.18601362 0.29344386 -0.027529221 -0.34829018 0.27957723 0.022894101 -0.036926307 0.35231337 -0.20893212 -0.10410125 0.0042121084 -0.112184346 0.2783875 -0.03398431 -0.07800159 -0.25728583 0.00361149 0.31065464 0.07675884 0.38028836 0.1317939 0.25986767 -0.6065619 -0.21182047 0.06500803 0.00021558387 -0.033354796 0.14977488 -0.1674105 0.43905672 -0.0033859469 0.19277231 -0.15566878 -0.25866312 -0.039708454 -0.08161014 -0.36221167 0.1102924 0.35406393 -0.23997673 0.24639098 0.0063848966 -0.25423416 -0.15254477 -0.21571375 0.2518057 -0.2860122
8 -0.08725678 -0.06676094 0.1282062 -0.11683224 -0.16143994 0.37467793 0.031788986 0.13638891 -0.13438103 0.3916319 -0.18501467 0.16138677 0.06516455 0.06126444 0.2716783 -0.22683284 0.31307867 -0.20675765 0.22773941 -0.43710196 -0.16441633 -0.18676348 -0.31172064 -0.70736074 -0.11940753 -0.12550014 0.19803202 0.073377125 -0.13083303 -0.14147119 -0.06549833 0.3794738 -0.34684584 -0.06438133 0.008700136 -0.46170685 0.022708012 -0.009638747 0.19488792 -0.35678604 -0.17117395 0.24010894 0.38194433 -0.42223486 -0.16902892 -0.005607601 -0.07110493 0.20950735 0.20895652 -0.0823176 -0.0903503 -0.33661085 -0.011717731 0.012187636 0.1961868 -0.18951328 -0.21228097 0.25780728 0.18401021 0.07257562 0.16403925 -0.21043995 -0.13656789 0.10550036 -0.21863385 -0.08775571 0.2381831 -0.051751498 0.29718873 -0.10136746 0.029594623 -0.61902773 -0.09519167 -0.6826156 -0.084411785 -0.04187928 -0.033291213 0.012246875 0.25694534 -0.16495843 -0.53853476 0.19216146 0.15754434 0.14130385 -0.07862843 0.39627537 -0.074939385 0.20867845 0.24440269 -0.058282215 0.15087885 -0.38023576 -0.32072812 -0.025531147 0.31013554 -0.29558784 -0.09557379 -0.065144874 0.39055845 0.25174817 0.42860177 0.14421621 0.46372157 -0.55580115 -0.096945904 -0.067906596 0.08894349 -0.14265665 -0.122586176 0.30654696 0.072564654 0.022183973 0.1893821 -0.23379008 0.099535085 -0.15919214 0.0034346222 0.05696331 0.108631656 0.13558872 -0.09798803 0.3509122 -0.11044704 -0.1329613 0.017455675 -0.17815092 0.024045015 -0.118094735
1646 0.14425324 0.032344475 0.15017909 0.122971416 -0.27464488 -0.062887214 0.30438632 -0.026984084 -0.45058116 -0.053274147 0.069970675 -0.038258303 0.504951 -0.08207046 0.012246854 -0.023630043 0.09641841 -0.31911933 0.0459459 -0.20074709 -0.16842832 -0.28617558 -0.48391604 -0.46921998 -0.01992441 -0.16471402 0.37478176 0.1745022 -0.3805794 0.04131497 -0.17940632 0.20821142 -0.26648182 0.043224443 -0.19499098 -0.29507965 -0.21550491 0.019940166 -0.06904845 -0.047546588 0.027734993 -0.010720643 0.25140506 -0.6582855 0.04078939 0.24295484 0.2099715 0.40786007 0.24843349 -0.2335422 -0.15500596 -0.18871978 -0.07374531 -0.21128508 0.03637732 -0.30047092 -0.0195976 -0.07884767 0.05986994 0.10165183 0.4392782 -0.42696217 -0.23736441 0.09010376 -0.15940067 -0.26605916 -0.14530827 -0.048859492 0.174816 0.049327172 0.016498389 -0.051117063 0.025136605 -0.62649757 -0.2478979 -0.5238143 0.2693331 -0.1821287 0.22023904 -0.29419276 -0.3931594 0.10922146 0.27508873 -0.12765951 -0.43546218 0.3716641 -0.100845456 0.1244832 0.023321653 0.18447272 -0.17574888 -0.11209479 -0.3897721 0.090848885 -0.090975404 0.024451578 0.05667884 -0.070354715 0.19725382 0.36742917 0.40602958 0.15863511 0.5305995 0.16658287 -0.14030041 0.14407179 0.05550995 -0.09908593 0.016590366 0.12352257 0.32320037 -0.09956687 0.40474725 -0.07418428 0.032832045 0.16111583 0.08096699 0.016576692 0.04969388 0.104704335 0.13932672 0.33920988 0.1239481 -0.17187034 0.24760728 -0.3804447 0.16263397 -0.23776641
1254 0.017107127 -0.14074746 -0.07159812 -0.062368933 -0.43963134 0.17863883 0.10444413 0.119966924 -0.38629892 0.2294387 -0.064457476 0.12742506 0.32449576 0.24410143 0.079049505 0.07098315 0.12467801 -0.5336235 0.25692695 -0.2972007 -0.035146575 -0.3466411 -0.3779626 -0.116878316 0.10399681 0.3266658 -0.060678948 0.033326738 -0.27702448 -0.27417064 -0.24377015 -0.1584547 -0.06738229 -0.072809935 -0.22415322 0.13501264 0.06659071 0.05370464 0.050630864 -0.13613993 0.014958659 0.12873739 0.06808978 -0.14073005 -0.34218416 -0.41025037 0.18198623 -0.30467618 0.48139387 0.014107514 -0.3049853 -0.5193261 0.13521801 -0.22385429 -0.1324705 -0.26852652 0.022983592 0.32713574 -0.052472778 0.41769993 0.1416155 -0.19172485 0.13805863 0.20607571 0.11491107 -0.051679604 -0.035775267 -0.14710204 0.06768687 0.15788221 0.14691837 -0.046138357 -0.020932818 -0.6121865 -0.03732009 -0.22919387 0.061762374 0.00058330264 -0.12763453 0.31443822 -0.32561678 0.28354105 0.091761604 -0.10384925 -0.102759816 0.23582491 0.00714493 0.24316165 0.5647749 0.29156107 0.074212074 0.12658 -0.36569488 0.09354154 0.056190647 -0.2764723 -0.41868222 -0.05230279 0.30578724 0.037591834 0.30907184 -0.12200966 0.038681995 -0.32769337 -0.14006688 -0.041858893 0.15651691 0.2947238 -0.19050656 -0.008224879 0.3781375 0.13052168 0.24809578 -0.44165465 -0.14027613 0.11953916 -0.23194888 -0.1644678 0.1265199 0.34334716 -0.183161 0.17568396 0.021325052 -0.1109794 -0.11607529 -0.27514023 0.3752556 0.009495629
102 0.36087647 -0.13017744 -0.2872058 0.082755476 -0.2836246 0.08769285 -0.15355289 -0.15003686 -0.38442612 -0.18322401 -0.071316555 -0.09166813 0.24075444 -0.13352521 -0.1871745 0.048117965 -0.033284876 -0.3380548 -0.20005165 -0.33257025 -0.05930471 -0.22970347 -0.2631379 -0.22858717 0.28823534 -0.004403027 -0.61555845 0.19191825 -0.4482327 0.10008018 0.007844631 -0.06135773 -0.38459674 0.038886543 -0.02009618 -0.2784477 -0.029994601 0.08041947 0.30065522 -0.17142187 -0.26816273 0.43091688 0.24727674 0.03366518 -0.017467381 -0.14936724 0.35182667 0.04127595 0.47452572 -0.17071994 -0.18304023 0.0059584295 0.43514585 -0.52144176 0.30438164 -0.034432616 0.13832729 0.06787576 -0.26200008 0.123408854 0.07393556 0.03792733 0.08472273 -0.3393927 0.13511828 0.2596571 0.015351993 -0.31729624 -0.042562354 -0.084995694 -0.07986492 0.052278176 -0.3174441 -0.58538175 0.0360627 -0.57667524 0.06405667 -0.13790926 0.040155835 -0.5938246 -0.22340469 0.14978331 -0.2983534 -0.062265206 0.122270055 0.43756196 0.33413622 -0.23409232 0.044456027 0.19869033 -0.21368623 -0.10989047 -0.3670612 -0.0112814205 0.03787711 -0.4122255 -0.39219272 -0.0450389 0.2899917 0.3291194 0.17581815 -0.12141393 0.40164986 -0.11448842 -0.17174284 0.07870725 0.18073902 -0.42149615 -0.085545056 0.108269684 0.1338684 0.10661233 0.031090874 -0.3767315 0.02997005 -0.3407177 -0.1315525 0.034156505 -0.10968786 -0.1659894 -0.20050879 0.13729669 -0.073609896 -0.20447342 -0.036344066 0.19748636 0.52358246 -0.0675632
11 0.27657 -0.05352462 0.24267545 -0.1373201 -0.21007589 0.06154464 0.03401862 -0.12040249 0.03027008 -0.18680844 -0.48429644 -0.29158825 0.2684561 0.19686416 -0.112057485 -0.4925296 0.31413218 -0.43556193 0.038923044 -0.07700954 -0.114504315 -0.3955962 -0.103922896 -0.3524063 -0.025378926 -0.08907794 -0.121647365 0.43365785 -0.26544344 -0.113482445 -0.27273858 -0.03689205 -0.2595594 -0.024438875 0.22264114 -0.22679342 -0.076534644 0.087027445 0.19619963 -0.16784725 0.1138867 0.088928655 0.15242699 -0.56405413 -0.35596564 0.03968352 0.35605738 0.35189065 0.2749878 -0.28598937 -0.104273885 0.045584273 -0.036457866 -0.22803354 -0.30202407 -0.2859077 -0.16541362 0.46907386 0.26043284 0.06334113 0.01566884 0.02073539 0.06732835 -0.1646262 -0.044811048 -0.19231065 -0.1256542 0.071403466 0.46945402 0.08017718 0.3542897 -0.28797957 0.12820542 -0.31264454 -0.015890187 -0.20918186 0.28271127 0.0223568 0.00793143 -0.31593332 -0.5610747 0.10168157 0.16948977 0.07277152 -0.37284184 0.44792673 -0.1953022 0.07573263 0.030305073 -0.07156857 0.09922579 0.0029479256 -0.06585314 0.3071005 0.110482454 -0.23386937 -0.361511 -0.011215769 0.21917737 0.10386223 0.43329 -0.08381676 0.27635825 -0.58483744 -0.2852494 0.17793176 0.01734836 0.06616 0.2563389 -0.041129094 0.3697324 -0.13508846 0.26467124 -0.38441914 -0.018656945 -0.25940698 -0.19265805 -0.028293574 0.08593049 0.26086068 -0.14201407 0.20860706 -0.1856078 -0.36746722 -0.30307066 -0.35065117 -0.07103413 -0.064204805
1312 0.03960732 0.104630984 0.2343161 -0.030208616 0.018300477 0.27949485 0.114518 0.282205 -0.2870692 0.3087551 -0.28101736 -0.23714957 0.31047374 0.5772717 0.11373643 -0.2969332 0.48407108 -0.18171501 0.19706091 -0.39601943 -0.069925375 -0.10859898 -0.11115626 -0.30948457 -0.14219369 0.08815453 -0.00993779 0.21081384 0.043970473 0.10268285 -0.10187962 0.20951399 -0.3026724 -0.15409711 -0.053014155 0.120344624 0.06470169 -0.12519783 -0.07087934 0.09673293 -0.030997084 0.15603597 0.30170298 -0.5600678 -0.37513232 -0.08519134 0.047039237 -0.029767733 0.48329422 0.08255951 -0.113736555 -0.21848823 -0.20879646 -0.2920865 0.2107247 -0.31721926 -0.056804884 0.22961047 0.07803479 0.47434536 0.2992398 -0.18303853 0.13973102 0.01836521 -0.2979347 0.020421358 -0.03976022 0.0043272767 0.26481313 0.11775631 -0.03977675 -0.16831861 -0.032341186 -0.34459004 -0.021963624 -0.20144968 0.102616236 0.029893607 0.14795505 -0.4426069 -0.5946732 0.43079546 0.5139678 -0.17204034 -0.010664691 0.2741781 0.12873185 -0.2004871 0.12344643 -0.22107348 0.11647269 -0.3209527 -0.10135145 0.15617496 -0.08793469 -0.32118732 -0.3538574 -0.17753702 0.3557253 0.4193178 0.17438716 -0.028542211 0.42104384 -0.41949975 -0.15457022 0.080742545 0.05114754 -0.2912504 0.19191583 0.068253435 0.06888749 0.047421206 -0.022589488 -0.34882453 0.010438409 -0.018577784 0.07442639 -0.09342607 0.17703958 0.17552173 -0.0027734053 -0.12232777 0.07818942 -0.17647631 0.083559945 -0.44557124 0.26047915 -0.5823341
1579 0.2216977 0.14307013 -0.08634529 -0.2877747 0.079590134 -0.014908124 -0.22365905 -0.07054842 -0.25103703 -0.05894548 -0.31927818 -0.053676188 0.054973707 -0.048505448 0.23639753 -0.2599003 0.21567482 -0.1258463 0.11596173 -0.30834866 -0.36715287 -0.09597817 -0.4870179 -0.3018442 0.014187578 -0.09656189 0.063363634 0.06955318 -0.26446185 0.24288528 0.01244331 -0.19373628 -0.16493337 -0.12820801 0.019908708 -0.35202476 -0.09342122 0.14557359 0.25429004 -0.4710563 0.09207417 0.3805524 -0.078775555 -0.22679223 0.023330402 0.13349627 -0.12023507 -0.12044545 0.42543373 0.008013253 -0.20027368 -0.19870202 0.15430194 -0.18024603 -0.14784068 -0.061684623 -0.20175944 0.055399552 0.20643127 0.10647876 0.088093676 -0.25852558 0.00022157893 0.064783 -0.2914769 -0.3742257 -0.30043745 0.114157 0.09052698 -0.056608185 0.23760411 -0.45974386 0.00035782522 -0.5452586 0.21948841 -0.33784422 0.14158754 0.12529352 0.1726182 0.24402405 -0.5817903 0.2030592 0.13505211 -0.017422788 -0.09035698 0.22633132 0.31092802 0.035632927 0.16293882 0.10869141 -0.06792867 -0.21834514 -0.0074548353 -0.045261454 -0.22563319 -0.45453542 0.017327875 0.17093453 0.41746065 0.4754548 0.5453984 0.3430388 0.3454778 -0.30805218 -0.14518392 -0.011347934 0.089200355 -0.0140911285 0.114042915 0.26109636 0.0914931 -0.017057182 -0.19196405 -0.5242025 0.027690738 -0.31113762 -0.30714053 0.1085491 0.3165215 0.016165067 0.08861738 0.2800568 0.3066308 -0.50636554 0.15455335 -0.08435541 0.24894178 -0.24469364
1564 0.13689084 0.13786858 -0.35567302 0.35338372 0.044842366 -0.054444514 0.176095 -0.16170844 -0.1898828 0.18377148 -0.09842845 -0.0066637546 0.17722112 0.17256367 -0.16023938 -0.24652638 0.5897825 0.12393535 0.13750668 -0.6336577 -0.15335035 0.08570642 -0.45644826 -0.16906042 0.1989515 0.0051616244 0.09679832 0.2126257 -0.25007564 -0.18316856 -0.14048304 -0.038321204 -0.60247725 -0.050905153 -0.12278286 -0.35621652 -0.35999432 0.18859375 -0.23335911 -0.105749935 -0.015208793 0.07560414 0.2744495 -0.16431342 -0.45618793 -0.25890112 -0.100059375 -0.38067192 0.22366372 0.17465338 -0.038196564 0.009717363 0.09592874 -0.15355834 0.21293116 -0.40971822 -0.21059288 0.42140684 0.0061089527 0.26009136 0.61628723 -0.14425316 0.06918621 0.0150017645 -0.17654504 0.022256473 0.005478985 -0.16731471 0.06500204 0.18800254 0.4467456 0.13360965 -0.060375135 -0.24483472 -0.23041388 -0.30779457 0.25924337 0.085629806 0.11188281 0.12010379 -0.15517871 0.071712375 0.46981046 0.14052263 0.1329258 0.6667829 -0.054475754 0.16601448 0.032572236 0.16711251 0.2580058 0.0011391914 -0.41772738 0.0043756985 -0.12352792 -0.17539375 -0.64670265 -0.24546684 0.02563764 -0.17233136 0.019180194 0.053722214 0.29937473 -0.5963469 -0.1577073 0.27653748 -0.3883102 -0.04696943 0.17060524 -0.15636489 0.3412199 -0.22244401 0.4380056 -0.31103626 -0.3056752 -0.13241373 -0.01801214 0.0066402513 0.0627368 0.0024515651 0.067053065 -0.320733 0.200927 -0.17808236 0.3132656 -0.2842573 0.30326298 -0.23044394
2 0.22277464 -0.040613875 -0.0016847221 -0.11848852 -0.22044146 0.07242054 0.054720435 -0.119667634 0.16523398 0.0730582 -0.24062894 -0.018222224 -0.22800152 -0.06888686 -0.08882315 -0.051409133 0.4135794 -0.31127024 0.14147513 -0.26134464 -0.033100348 -0.27164114 -0.1086948 -0.23912452 -0.097946 -0.061844163 -0.07233557 0.007971592 -0.24532895 -0.070155956 0.20853162 -0.7398617 -0.38489246 -0.054463197 -0.08390211 -0.057329163 0.030960582 0.21669437 -0.33855703 -0.21976121 0.097896144 0.09451487 0.27798244 -0.5783662 -0.32801342 0.047372818 0.30530408 0.35392475 0.5054667 -0.11825761 -0.0036660724 -0.16102691 0.4008711 -0.021648752 -0.20739606 -0.22901973 -0.18984683 -0.43366838 0.0847985 0.40622795 0.55548793 -0.16858637 0.33198154 -0.33969268 -0.31383651 -0.13302574 0.01994802 -0.19146477 0.20134962 0.33347368 -0.36624086 -0.26957166 0.005274654 -0.22863474 -0.18947755 0.03186591 0.023832135 0.012143832 0.3420456 -0.33065835 -0.21948229 0.38657546 0.6152327 -0.059679262 -0.030630317 0.025091974 -0.04133808 0.011425715 -0.07123836 -0.23376675 0.2713572 -0.05520507 -0.33084205 -0.092770115 0.06612016 0.21727538 -0.30091998 0.08385942 0.28821743 0.461613 0.43494493 0.12752125 0.42466247 -0.09633888 0.007397762 0.015557019 -0.21557313 0.08895632 -0.455173 0.038795255 0.42899793 -0.30066323 0.16179517 -0.15318742 -0.2473248 -0.26204416 -0.13924038 -0.08858701 -0.044794198 0.47130057 -0.070185296 0.24263689 -0.0831012 -0.37752512 -0.041565254 0.0112939915 0.41957608 0.11072285
1342 0.32536158 -0.021568516 -0.1339463 0.081516474 -0.2813267 -0.17346509 0.1564529 0.0075421785 -0.20926227 0.24475627 -0.21035802 -0.12938209 0.24879289 0.0423409 -0.11223059 -0.25023323 0.08344983 -0.33463413 0.3159451 -0.035195682 0.12063135 -0.36020187 -0.07924505 -0.41410768 0.039310962 -0.17431839 0.4109928 0.20882472 0.050534014 0.061493292 -0.26965332 0.1443988 -0.48092127 0.14047474 0.2334118 -0.008919983 0.27341387 0.026918078 0.3279268 -0.0524412 -0.08383237 -0.17086488 0.012093937 -0.34627232 -0.37759525 -0.5481032 0.41370982 -0.08202491 0.25808 0.018600494 -0.33033577 0.06558188 0.14571021 -0.22101411 0.024604196 -0.30473873 0.0695701 0.10794703 0.11473298 0.17668521 0.51502514 -0.3352367 0.098267175 0.029813513 0.058196303 0.042084057 -0.28059235 -0.3104811 0.29252788 -0.09975101 -0.28442502 -0.106433205 0.1512577 -0.55366385 -0.05044131 -0.20984499 0.2631894 -0.03468207 -0.055364795 0.047102246 -0.122357555 -0.17445451 -0.013619536 -0.019875115 -0.14365026 0.34937868 -0.063971244 0.059654873 0.28962737 -0.19862604 -0.002614441 -0.17951696 -0.29442838 -0.35799646 0.02963414 -0.15852839 -0.23276494 0.3216061 0.48599032 -0.061684687 0.5699298 -0.142224 0.45939046 0.00937634 -0.23661049 0.08123737 -0.05153067 -0.09084378 0.07121879 0.47937766 0.38262677 0.2051907 0.28832594 0.14605904 0.12325614 -0.12238536 -0.06962504 -0.19237876 -0.054761384 0.010416133 -0.23987082 0.097244136 0.25795138 -0.5553752 0.3518452 -0.4905492 0.17692542 -0.024841908
1284 0.27372772 0.5864918 0.06437474 -0.16304012 -0.45579267 0.0852558 0.25755847 0.16000853 -0.19742094 -0.0062461803 -0.10275604 -0.120297 0.078144886 0.3934256 -0.29189965 -0.3140639 0.41422817 -0.18060648 0.044065017 -0.37288377 -0.11401681 -0.12246926 -0.35177678 -0.39950284 0.09669939 0.38921604 0.20263182 0.015752308 -0.0258868 0.42249647 -0.3167483 -0.09595275 -0.41319817 -0.35640877 0.09130004 -0.2088198 -0.17574723 -0.15284735 -0.5146461 -0.13708018 -0.24287698 0.1382507 0.036254372 -0.37464648 -0.33809075 -0.39820388 -0.047403134 -0.20085548 0.39636472 0.18934734 0.24128255 0.032713633 -0.053153113 -0.31413966 0.15186381 -0.12514485 0.08179124 0.35684597 -0.23424476 0.38138255 0.22678392 -0.5035397 0.0016856423 -0.13733827 -0.071529225 0.06167539 0.32262808 -0.14617997 0.12989476 0.009066565 0.4078497 -0.13644332 -0.09315687 -0.40399283 -0.08345421 -0.4472727 0.3951149 -0.004459792 0.11163807 -0.13290374 -0.3838223 0.25517318 0.8212256 0.067979015 0.10264887 0.3782664 0.06486537 0.23209593 0.05385838 -0.05530079 0.13706996 -0.018802173 -0.27756572 -0.21576159 -0.0019214052 -0.18523954 0.09988048 -0.11365503 0.30634147 -0.10516465 -0.16300055 -0.0031922865 0.29036716 0.09482269 -0.26761535 -0.14486182 -0.26150572 0.059058324 -0.20666414 -0.06845316 0.25301856 0.07630235 0.08995244 -0.4400718 -0.31670558 -0.038845874 -0.07345011 -0.072979845 -0.17244671 -0.0031101923 0.025119126 0.015903378 0.09496355 -0.32543007 0.007358154 -0.39428547 0.20133916 -0.065888956
1345 0.20092902 0.4057932 -0.22729437 0.28298447 -0.3254637 -0.05653129 0.12114126 -0.0777882 0.31049365 -0.23120546 0.039601963 0.13082649 0.19152868 0.08469854 -0.010528616 -0.07262553 0.19907317 0.10649737 0.18765968 -0.38750857 -0.0816461 -0.27291727 -0.26970533 -0.35309216 -0.09134658 0.26926315 0.14125349 0.012894563 -0.66118413 0.28854868 -0.54822457 -0.068427175 -0.35482985 0.05592395 -0.108829506 -0.607675 -0.13328218 0.18659393 -0.1775117 0.1348836 -0.3597988 -0.054001037 0.07052641 -0.4271241 -0.13342027 -0.16354835 0.25443932 0.15181804 0.22222786 -0.47716963 0.020910045 -0.22084503 0.16278473 -0.43978074 0.4711347 -0.10485609 -0.25163332 -0.17764825 -0.09233552 0.15452094 0.07695252 -0.24859706 -0.028709304 0.007679649 -0.29291978 0.10082197 0.013629099 -0.09045641 0.4383882 -0.18202417 0.24641663 0.25096357 0.09108775 -0.38061425 -0.026690336 -0.10183363 -0.065299794 0.21162413 0.07412242 -0.04080097 0.0629211 0.22395319 0.30933678 -0.17336269 -0.18815225 0.31486183 0.35038203 0.18913919 0.45949537 0.26504976 -0.030887542 -0.19443858 -0.30485153 0.32861912 0.16597633 -0.15902364 -0.3163401 0.18235394 0.28891647 0.55276287 0.43608987 -0.121388294 0.28767207 -0.028956639 -0.12673402 0.194821 -0.044967208 -0.23678938 -0.19424514 -0.024303561 0.32824394 -0.194864 -0.093912706 -0.18230747 -0.18372576 -0.37333134 -0.34672666 -0.021437172 0.41417494 0.041199826 -0.059437178 -0.2027432 0.4217907 -0.26355886 -0.17307237 -0.1497112 0.19184858 -0.08015052
192 0.27121544 0.1603375 -0.11070104 0.021723598 -0.4432331 -0.031279124 0.1936302 -0.016448503 -0.28700256 -0.023154438 0.35142803 0.048524782 -0.08359774 0.06084928 0.23884952 -0.17294294 0.16446589 0.09883317 0.068381645 -0.068253376 0.22645082 -0.4417711 -0.40264773 -0.12285656 0.16650112 -0.037830275 0.30997196 -0.033469066 -0.07542569 0.13241744 -0.13606746 0.2437433 -0.43047214 -0.23662502 0.6415116 -0.017948672 0.010770432 0.19302604 0.351998 -0.14359519 0.24525402 -0.16489887 -0.18690208 -0.18435322 -0.26798648 -0.13541053 0.18736675 0.26218933 0.36987287 -0.28026724 -0.18516792 0.04483674 -0.004369267 -0.42927667 -0.04730545 0.0267853 0.05326891 0.09648484 0.03226984 0.038147826 0.7908655 -0.40213385 -0.21581969 0.058522288 -0.17256962 -0.08005339 -0.13170987 -0.03691767 0.36041924 -0.10679186 -0.07283578 -0.5955134 0.052400105 -0.42879784 0.07362342 -0.5589399 0.11582682 -0.10393648 -0.15156907 -0.34760985 -0.12274299 -0.14385492 0.12231557 0.022047117 -0.008007359 0.4402314 0.10249902 0.11130307 0.23748559 0.27037767 -0.029527226 0.11260944 -0.41862467 -0.10538642 0.15100397 0.047057338 -0.42286003 0.09654009 0.06711715 0.1713757 0.50287277 -0.13008069 0.285308 -0.21152234 0.2693828 0.12028515 -0.15278466 -0.2598101 0.10039008 0.18523069 0.21647438 0.4554466 0.13204 -0.12423691 -0.1720044 -0.31196833 0.13560584 -0.3815441 0.021701429 -0.18509139 -0.19426382 0.34416947 0.14286162 -0.49408457 0.34667206 -0.5597808 0.16899799 -0.21661721
1386 0.14718741 0.25083223 0.18861413 -0.0831528 -0.11755441 0.114110574 0.0015723967 -0.13778552 0.08014715 0.0071707694 -0.51647687 -0.18033198 0.23317538 0.11873642 -0.19688441 -0.27817944 0.29805204 -0.3956363 0.1346234 -0.63527566 -0.021251017 -0.29306564 0.036246076 -0.37160957 -0.09463689 0.18091656 0.14125255 0.24875778 -0.17141378 0.110900275 -0.33200294 -0.17271757 -0.114042334 -0.1261935 0.123322874 -0.21363558 -0.025553118 0.05417338 -0.09771318 0.016877715 0.009484064 0.20228258 -0.1359423 -0.51030713 -0.14142117 -0.19325335 0.049691293 -0.021604253 0.18410687 0.05314113 -0.020072088 -0.028703738 -0.059531897 -0.039002147 0.025232898 -0.278608 -0.19298871 0.42228654 -0.000843783 0.1296688 0.18299927 -0.1081675 -0.11020393 -0.075607754 -0.023213653 -0.026941488 -0.017081685 -0.3267494 0.4724035 -0.25377464 0.07892541 -0.57824093 0.016386656 -0.402083 -0.09223434 -0.022851108 0.10168522 0.12641774 -0.1331354 -0.33196563 -0.40163907 0.2851726 0.3245494 -0.22108081 -0.056943703 0.36626187 0.028122174 -0.16159478 0.022223098 -0.09717183 -0.09208588 -0.12528862 -0.011769332 0.20415007 0.20766516 -0.2777242 -0.35480425 0.005658132 0.5506982 0.20947199 0.40507436 0.12662274 0.39296284 -0.6602308 -0.14520946 0.35166872 0.099543996 -0.09240054 -0.07308825 0.019587118 0.16493446 -0.14736502 0.3248532 -0.41574723 -0.07189002 0.00013681478 -0.097351514 -0.1565303 0.14260687 0.23575063 -0.09773985 -0.095145166 -0.035422657 -0.32999954 -0.06853334 -0.2218553 -0.035143588 -0.30933303
356 0.31637335 0.23261057 -0.35399467 -0.1759436 -0.37730113 0.1372245 0.21014912 -0.3956854 -0.283533 -0.1263461 0.3750561 0.0052928547 -0.13406172 0.08985711 -0.38718408 -0.33793965 0.0019796751 -0.51267916 0.13100049 -0.2627035 -0.19183803 -0.19509046 -0.391376 -0.5647123 -0.08792422 -0.07608104 0.1291164 0.2760064 -0.2928082 0.23547931 0.023953373 -0.18378341 0.010444494 -0.34094828 -0.027043361 0.057471175 0.13008578 0.07034723 0.13744585 0.027863901 -0.035166986 -0.061620858 0.29970112 -0.15070358 -0.50504917 -0.17756906 0.1235487 -0.15249248 -0.030134903 -0.07346141 -0.3467712 -0.10230715 0.41080493 -0.33423167 0.20042008 0.103610225 0.056461286 0.10215828 -0.06837225 0.11611362 0.5784841 0.15767008 0.30527046 0.19011076 -0.0038857951 -0.21894383 -0.12509505 0.13221498 -0.028118985 0.015868904 0.003166193 0.11025148 -0.046266343 -0.5072768 -0.11907363 -0.2767327 0.057410456 0.27285975 0.055545118 0.024889672 -0.46147406 -0.049594276 0.11443458 0.19301893 -0.03591444 0.43975994 -0.1336848 -0.043587226 0.28966445 0.15130898 0.1750941 -0.26820993 -0.28238368 0.0071599344 0.0066297427 -0.6501016 -0.2598456 0.19362949 0.28575656 0.29132336 0.2985488 -0.0950522 0.52095497 -0.20478415 -0.3218087 0.14022392 0.14651328 0.13979158 0.26488063 0.037330907 0.015790347 -0.077095486 0.079904765 -0.6309418 -0.07257972 -0.1835866 0.19125961 0.10688543 0.15298396 -0.02439724 -0.16336313 0.01293384 0.45209268 -0.41998258 0.006735581 -0.0017522578 0.28380325 -0.022688407
31 0.15287353 -0.11133178 0.26517156 -0.0903884 -0.27409723 -0.043760423 0.32313758 -0.08464879 -0.19113395 0.2918089 -0.13468234 -0.2776412 0.2148487 -0.19296086 -0.18982203 0.10447727 0.20497335 -0.23837265 0.32396427 -0.40815982 -0.20317903 0.048930958 -0.4213292 -0.18632679 -0.2032538 0.051186062 -0.108480796 -0.13729851 -0.09726176 0.28459233 -0.053276513 -0.34409282 -0.29121095 0.01233067 0.3174716 -0.11288637 -0.11337273 0.15281358 -0.26099893 -0.1990274 0.15878257 0.45402128 -0.2034641 -0.249419 -0.10759296 -0.17657791 0.4531905 0.43038607 0.29353493 -0.2014947 -0.2579219 -0.051259626 0.101504534 -0.2939862 -0.07087283 -0.23583345 -0.01391905 0.13778386 -0.14593087 0.3166112 0.16053976 -0.14915824 0.121591724 -0.2549365 -0.2839546 -0.43563884 0.2824297 0.04653058 0.16520436 -0.009866679 -0.12733462 -0.24220811 -0.078143865 -0.77414685 0.09759722 0.01428304 0.29510298 0.2591911 0.05754815 -0.00842116 -0.32021338 0.06478909 0.00621346 0.3615313 0.017789 0.47387648 0.13995479 0.06970364 0.21363814 0.20830444 -0.14219946 -0.4197895 -0.45387238 0.10249631 -0.048334718 0.1074139 -0.18089956 -0.2881408 0.29889077 0.3672548 0.38991377 0.23780395 0.38222635 -0.32963443 -0.18206249 0.5354728 0.25486568 0.06560417 -0.06780894 -0.14438204 0.2909267 -0.42570424 -0.12456542 -0.20765315 -0.41035423 -0.58068514 0.03988581 -0.23612943 -0.110328995 0.48723388 -0.17781976 0.013552358 -0.23265424 -0.017797567 0.12470919 -0.4468027 -0.1155595 -0.20039049
26 -0.09682369 0.36487845 0.046760388 0.13063306 -0.2840363 0.06980758 0.16030113 0.052255616 -0.065148406 0.27496192 -0.044670288 -0.20968375 -0.063500136 0.16545276 0.08658738 -0.18258484 0.03429162 -0.18606901 -0.072502084 -0.22691122 0.0035023813 -0.24135455 -0.43458515 -0.5563134 0.33915094 0.30064762 0.04043531 0.36249727 -0.19713525 0.28789237 -0.06911085 -0.28100604 -0.36929488 -0.33416966 -0.12963754 -0.3186895 -0.35652903 -0.1926239 -0.4381952 0.1608684 -0.22612071 -0.21289867 0.26287368 -0.42701694 -0.32746428 -0.31265825 0.030779831 -0.24449427 0.5433959 0.06042236 -0.074521266 -0.09203726 0.16385746 -0.31971958 0.027434649 -0.050733466 -0.26520965 0.53711796 -0.3682069 0.40439415 0.21672739 -0.47335282 0.10403049 -0.0135547295 -0.22698928 0.20683408 -0.08968598 -0.33080783 0.050181627 -0.06914474 0.2763051 -0.3143528 0.17379409 -0.1102485 8.35482e-05 -0.24459286 -0.18546987 0.25508827 0.11091157 -0.100708246 -0.27107334 0.19772457 0.4396458 0.18299866 0.14235274 0.28128305 -0.17786013 0.21329066 0.28983513 0.07651554 -0.071691595 -0.078964785 -0.40012592 0.08890034 0.44088697 -0.19337344 -0.36357644 0.014108724 0.14539991 0.032084405 0.09168705 -0.014913482 0.39850432 -0.31918564 -0.040260546 0.16601826 0.06959279 0.0100088045 0.12332612 0.0126981605 -0.008928511 0.129811 -0.0750086 -0.13120139 -0.18152785 -0.31560698 0.12112269 -0.1924968 -0.094032854 -0.25744057 0.020022208 0.16452228 0.118995994 -0.114253595 -0.11075684 -0.62306535 0.65927434 -0.33341083
1157 -0.043099556 0.3074236 -0.08303555 -0.12347778 -0.3444582 -0.02748067 0.11792249 -0.0039208876 -0.08929026 0.011412661 -0.080282144 0.07342629 0.10541629 0.050897274 0.122776575 -0.3921836 0.17605387 -0.23322798 0.010508813 -0.30848825 -0.1578615 -0.50706214 -0.30733085 -0.34862718 0.20445043 0.38791627 -0.011135903 0.31046262 -0.15060803 0.04902435 -0.022256477 -0.259778 -0.23741484 -0.26062128 -0.10441659 -0.44855586 -0.16716643 -0.23618282 -0.17333148 -0.045199063 -0.18797915 -0.16656798 0.41099057 -0.56811976 -0.15238084 -0.31198233 0.13213661 -0.21531928 0.5712553 -0.03804778 -0.07641279 -0.032532837 0.35664994 -0.44262832 0.14943017 -0.15536472 -0.32167867 0.48460105 -0.3153065 0.2786426 0.2464412 -0.28189233 0.21144842 -0.008223109 -0.19582574 0.032743216 -0.3721914 -0.31572047 -0.02505124 0.06271281 0.4595421 -0.1201363 0.12514389 -0.29430658 0.029521838 -0.26860982 -0.05582997 0.34524494 -0.19377907 -0.027001644 0.13479212 -0.13371687 0.19397628 0.015710441 0.19567665 0.3707121 -0.03635649 -0.093634844 -0.0059554577 0.09729427 -0.10968565 -0.2892912 -0.6203737 -0.040303577 0.1374654 -0.15949994 -0.42566374 -0.14649369 0.083788075 0.27559096 0.4234324 -0.31268 0.27677715 -0.02001159 0.007193383 0.44176954 -0.10939054 0.37348866 -0.022422042 -0.07014363 0.021698615 -0.1796769 0.15184507 -0.29508436 -0.09778534 -0.4150697 -0.068009555 -0.06205108 -0.379702 0.03441657 -0.041138228 0.088002056 -0.024812412 0.016272053 -0.343779 -0.45005953 0.40930155 -0.14905004
41 0.2163412 -0.012438284 -0.10267258 -0.31109586 -0.12673427 -0.0082829185 0.47585756 0.10835662 0.07530195 -0.2138348 -0.19479822 0.2363944 0.00314321 0.47166646 -0.24822868 -0.043043442 0.39004815 -0.049636114 0.02423142 -0.3569109 -0.2929732 -0.5670519 0.06442168 -0.64078194 0.5181051 -0.07759595 0.19089194 0.2522933 -0.19317262 -0.18557315 -0.06740503 -0.4523365 -0.7064291 -0.42759266 -0.28354344 0.0755898 0.2712248 -0.28029367 -0.32276824 0.018801827 0.060787015 -0.0050803074 -0.13499063 -0.27039653 -0.18626809 0.0005690169 0.02769343 0.31781474 0.08311411 0.10975576 -0.2702101 -0.17361642 0.33674026 -0.35157907 -0.072435156 -0.03975568 0.21976636 0.12994766 -0.036080055 0.13965988 0.13916998 -0.31604123 0.077203535 0.14492734 0.04581214 0.017108915 0.023874361 -0.050112937 -0.06744561 0.22921883 -0.19449316 -0.06648852 -0.12367006 -0.4274526 0.23520748 -0.5956623 0.39866528 0.062895164 -0.11900502 0.084560834 -0.5123359 0.48808217 0.10836169 -0.2509623 0.18431653 0.21187207 -0.080458246 -0.036157414 0.3280527 -0.062742904 0.024375664 -0.28459156 -0.2162199 0.24584426 0.16487703 -0.14878872 -0.077982426 0.026324006 0.11518821 0.19981119 -0.06310897 -0.066628836 0.042147823 -0.539142 0.15332371 -0.07221197 -0.21025768 -0.13591409 -0.06344767 0.14020942 0.11750783 0.011257841 0.12858573 0.4676658 -0.27991617 -0.22194758 -0.2828446 -0.2640795 0.00011194244 0.11077621 -0.09768542 0.14080891 -0.44587567 -0.38951123 0.23434709 -0.36408624 0.18432342 0.16016056
712 0.3227237 0.34219941 -0.389531 0.1654707 -0.17443328 0.04343808 -0.14513823 -0.15499528 -0.6271456 0.2518492 -0.41469213 0.22099468 0.05628977 -0.14452542 0.2620498 -0.31305823 0.34164897 -0.1630268 0.053913012 -0.31732798 0.074892014 -0.14850359 -0.006994367 -0.18226485 0.112465635 0.52481616 -0.12198539 0.105667576 -0.36663425 -0.18713239 -0.49431497 0.118382655 -0.37913513 -0.2281736 -0.33280602 -0.26017573 0.23642948 0.26773682 -0.014956805 -0.04859923 0.027980775 0.10179959 0.1717537 -0.36435965 0.11613052 -0.026751667 0.067699246 -0.2210299 0.53190535 -0.15912402 -0.42482072 0.05835936 0.41526368 -0.5670479 0.22123502 -0.27532673 -0.22211081 0.2470778 -0.20862694 0.30641982 0.44264612 -0.1280083 0.070494615 0.32102814 -0.26183304 -0.37983054 -0.08088496 -0.29238176 0.1206834 0.45958215 0.24811985 0.16393867 -0.17011523 -0.1676565 -0.1078475 -0.31406745 -0.2669057 -0.03918092 0.26133946 -0.35247004 -0.51053995 -0.33582547 0.20976518 -0.2242166 -0.1958144 0.20339277 -0.110359535 0.16071002 0.21295337 0.31562155 -0.0013912023 -0.026751997 0.023250727 0.23207292 -0.07548153 0.1625805 -0.41980967 0.18994002 -0.09810961 0.19916289 0.22549318 -0.1756876 -0.0146985585 -0.030206874 0.013420014 0.08189428 -0.059896838 -0.0024120822 0.053870518 0.020708237 0.06822685 -0.24605675 0.14522344 -0.05620314 -0.17541899 -0.4680707 -0.3117011 -0.14860669 -0.066458955 0.15308377 -0.1930942 0.37443 -0.36218798 -0.6299007 0.06266528 -0.23248646 0.123392 0.2245474
1188 -0.02463738 0.22873344 -0.25275692 0.13898158 0.038931467 -0.006340159 0.2434326 -0.15865423 -0.33085868 -0.211582 -0.3933515 0.15036619 0.35372096 -0.06557345 0.009050779 -0.22616346 0.058260426 -0.13065913 -0.0031850312 -0.83149713 -0.1313255 -0.09217987 -0.010580267 -0.4546306 -0.112480015 0.24429989 -0.05200434 0.097065926 -0.27655396 0.14182496 -0.37186027 -0.43197158 -0.36194006 -0.30489326 -0.16530076 0.06259404 -0.24510637 0.2995634 -0.003015749 -0.16657268 -0.22668047 -0.03634844 0.4003449 -0.4651995 0.08966967 -0.28953725 0.28589973 0.14119911 0.081624545 -0.04582518 -0.309607 -0.15120067 -0.12646388 -0.32344016 0.18923382 -0.22814222 0.07192893 0.3583238 -0.12426109 0.2389455 0.7010588 0.09229295 0.08256497 0.41465232 0.061925247 -0.25829637 -0.14654085 0.01868143 -0.19775602 0.21873453 0.010585822 0.35846394 -0.38762635 -0.30116707 -0.3880736 -0.031507514 0.19595698 0.015283472 0.15244006 0.05924393 -0.17321573 -0.07761861 0.39117533 -0.004686379 -0.039592307 0.6772524 0.300636 -0.07841722 0.24625954 0.32438806 -0.111467145 0.10806647 -0.29091173 -0.14088961 0.067134 -0.24110231 0.14685836 -0.30932948 0.44351652 -0.017278286 0.23865864 -0.054497723 0.44094655 -0.093633085 0.029364351 0.16703112 -0.19053626 0.028982656 0.13660459 0.12828097 0.189297 0.027486734 0.14748636 0.007403058 -0.24140242 -0.43283314 0.2159067 -0.17272297 0.19481955 0.2405608 -0.1948578 0.5111277 -0.43938974 -0.15568079 0.057027545 0.123503536 0.14086528 -0.027961943
1230 0.27323103 0.24364413 -0.34925625 -0.25004563 -0.09036422 -0.041976888 -0.29991978 -0.18122216 0.044852562 -0.13445807 -0.08099079 0.27603003 -0.08278227 -0.040503785 0.036532573 0.042158786 0.3942783 -0.21708108 -0.06402064 -0.58211946 -0.23069386 -0.18930015 -0.3886789 -0.4137119 -0.048156094 0.11066669 0.35509378 0.28831893 -0.27301636 0.12065266 -0.22505711 -0.073541574 -0.17281781 0.09111213 0.004822497 -0.34537092 0.21344711 0.048954293 0.0052615246 -0.17151426 -0.13689342 -0.21859251 0.09036704 -0.18609925 -0.24316987 -0.32796073 0.15106359 0.042099416 0.40038222 -0.3482214 -0.111433834 -0.33660123 0.20606169 -0.34363315 0.3252305 -0.42135543 -0.3059605 0.5274607 -0.10775783 -0.009014384 0.14174405 -0.21795708 0.13405357 -0.016578661 0.09612918 0.148441 0.050559558 -0.23614278 0.3975251 -0.11008663 0.14464544 -0.03754807 -0.030928561 -0.35953155 0.16795097 -0.35344425 0.092945814 -0.0015842301 0.09330856 -0.30150756 -0.32516146 0.007230996 0.005052027 -0.1473423 -0.31384742 0.17664628 0.49193037 -0.13815449 0.35133663 0.14347312 -0.16246852 -0.053119306 -0.3304731 0.029671103 0.015291288 -0.50008935 -0.1872713 0.15038206 0.069336995 0.34756124 0.17610247 -0.2375784 0.49788406 -0.44661 -0.019931857 0.0040818374 0.13354442 -0.09305891 -0.01880044 -0.25470427 0.3390824 0.085865326 0.15174931 -0.26914245 0.05005331 -0.11230498 0.2187053 -0.47848484 0.028729906 0.19892909 0.17692332 -0.07044116 0.21569277 -0.23865944 -0.10816218 -0.09480358 -0.022220563 0.116959035
1600 -0.24577409 0.10696783 -0.2669724 0.034005452 -0.09060273 0.015878294 -0.2084119 0.0036276595 0.15448354 -0.12535283 -0.33482575 0.09863671 -0.062070135 0.1520915 -0.20526367 0.15347703 0.27895957 -0.23981342 0.13385925 -0.5034795 -0.067930736 -0.0023713761 -0.078942895 -0.40228486 -0.022219943 -0.03911539 0.2063341 0.14732726 -0.40686846 0.033934083 -0.28321826 -0.19099441 -0.023251759 -0.21041542 0.4005339 -0.39607182 -0.06398374 -0.20682892 -0.10323821 -0.09071086 -0.007119404 0.22776952 0.15602772 -0.10174536 -0.3683879 -0.19207323 0.3362256 0.30104846 0.23217727 -0.23169929 0.11923839 -0.07028603 0.26742232 -0.4140338 0.11800724 -0.27233353 -0.09594012 0.46454993 -0.08286618 0.4201232 0.33343494 0.010128975 0.03197319 0.16343944 0.10135975 -0.0094834 -0.0066159 -0.3478224 0.078934945 -0.30973908 0.2163347 -0.11300312 -0.40458375 -0.4952071 0.004228587 -0.28029677 -0.009271635 -0.14674273 0.07609454 0.030550085 -0.41441855 -0.21147549 0.062005714 -0.44745207 -0.36307618 0.28332496 0.41234493 -0.36022022 0.5660833 0.41333982 0.050323773 -0.2597957 -0.07877397 0.12343052 -0.02119472 -0.3281509 -0.21068758 0.16111307 0.028379316 0.40514746 0.28954986 -0.06338175 0.42977756 -0.65225077 -0.18672381 -0.16765267 0.033409175 0.034545965 0.114109606 -0.34309813 0.28849316 -0.2232422 0.060645122 -0.09436067 0.066953644 0.04166463 -0.030302072 -0.37142918 0.07202674 0.11899801 0.0022351623 -0.017060924 0.057527576 -0.39691427 -0.08289858 -0.2456404 0.513977 0.0028112344
94 0.67022175 -0.12916103 -0.48318726 0.009659238 0.09817543 -0.2243889 0.1082253 -0.20361006 -0.16191636 0.22944658 -0.23641056 0.051628634 -0.0096993735 0.047385164 0.41640878 -0.2703529 0.13031349 -0.36941928 0.020569285 -0.18211803 0.10227905 -0.09579525 -0.27444828 -0.25528 -0.12059987 -0.107718155 -0.02440135 -0.03585493 -0.254862 0.10304585 -0.16494559 0.0072741015 -0.4046653 -0.11743527 0.35831583 -0.33818275 -0.18089727 -0.20438989 -0.17855726 -0.06047998 -0.2758129 -0.02576709 -0.12543514 -0.1204488 0.027769381 -0.060216215 0.078420244 0.277797 -0.081245095 -0.26031297 -0.2507545 -0.2013433 0.30663395 -0.48999208 -0.065441646 -0.28345487 0.18994725 0.18684031 -0.017807323 0.16528517 0.21223822 -0.63309836 -0.016292231 -0.15344837 0.24035542 -0.3022844 -0.11611572 -0.3718243 0.1327995 -0.08345685 0.06388381 0.06710501 -0.030631144 -0.63185704 0.003863201 0.07224876 0.3829353 0.30712074 0.13816382 0.13630188 -0.6327507 0.44873387 -0.18482976 0.19243778 0.08590177 0.21581914 0.36473247 0.13415127 0.26104283 0.271036 0.060184956 0.0281777 -0.096816905 -0.13598791 -0.03832548 -0.25274712 -0.20368892 -0.009240045 0.53479046 0.48729354 -0.13663784 0.3114074 0.333734 -0.5557193 -0.5441364 0.33845702 -0.3247014 0.03653493 0.024402991 -0.008487596 0.015185997 0.17212477 -0.27129555 -0.08100141 0.037807092 -0.33841583 -0.18907182 -0.5362929 0.22885242 -0.23664153 -0.0031149432 0.09704543 0.057296038 0.1465274 0.006114241 -0.3980659 0.25252625 -0.12655413
877 0.22799386 0.2523061 -0.15443245 0.02954729 -0.2301974 0.048944835 0.27488542 -0.19930705 -0.27260786 0.1232348 -0.45815808 -0.10634723 0.08590936 -0.11842695 0.17908561 -0.17415263 0.4182332 -0.15224421 0.20950685 -0.39355627 0.042472858 -0.063384935 -0.34212714 -0.3336159 0.13515352 0.047432415 0.033124205 0.42858937 -0.26663923 0.122854434 -0.28951174 -0.216187 -0.29217476 -0.12470386 -0.05043486 -0.32593092 -0.044338264 0.16167149 -0.1378186 0.01467639 -0.07321511 -0.091175765 0.34321195 -0.5332402 0.14218119 -0.3070845 0.09890571 0.14197592 0.1727251 0.11927677 -0.28199148 -0.11991944 0.28442043 -0.29622263 0.110281795 -0.33155838 -0.17372346 0.13969688 0.028522504 0.43432543 0.40226102 -0.063944764 -0.15135978 0.19467264 -0.16511923 0.006327676 -0.25439295 -0.07556971 0.0075498144 -0.12696835 -0.11111097 -0.057761114 -0.46538344 -0.61315453 0.08483393 -0.39738542 0.040782414 0.034097686 0.04091078 0.1920264 -0.21656474 0.051773533 -0.06721809 0.053795137 -0.04881532 0.06480689 0.021302268 0.07943543 0.09573843 0.08361841 -0.22281335 -0.14051874 -0.31993452 -0.14118382 -0.005147759 -0.007998375 -0.05995448 0.045671023 0.19657952 -0.002377474 0.3457298 -0.29556832 0.17644098 0.14620711 0.08435884 0.21850266 0.0762453 0.00016162635 -0.21662572 0.08666461 0.08604005 0.08210755 0.24526249 -0.26130876 0.13320355 -0.52110094 -0.064693525 0.17335841 0.1024467 0.3853306 0.021901932 0.4163608 -0.27957544 -0.34942633 0.13839802 -0.109579295 0.3121453 -0.24405937
1539 0.110663965 0.05083541 -0.25849646 0.13659085 -0.19710353 -0.33392987 -0.027450358 0.08331298 -0.08428013 -0.083400026 -0.5044506 0.0836904 -0.016437154 -0.08207699 0.070834786 -0.21370225 0.43774903 -0.39660168 0.3772673 -0.2807156 -0.084877215 -0.5884567 -0.3720613 -0.63087934 0.49456003 -0.25040868 -0.07874498 0.14018673 -0.3749255 -0.044548757 -0.0046526208 -0.14271386 -0.4190458 -0.3202264 0.23623753 0.01022811 0.16371296 0.16723144 0.036111966 -0.37765092 0.14276063 -0.010190219 -0.24174416 0.0312623 0.31546816 -0.023921272 -0.27594823 -0.0720022 0.2639821 -0.0058671976 -0.43479776 0.10175131 0.044019677 -0.503675 -0.25215128 -0.17791647 0.07699855 0.34907553 0.43266055 0.32714567 0.2775365 -0.07171015 0.10975104 -0.18164672 -0.38287482 -0.1577961 -0.3446014 -0.17594868 0.13652143 0.15170628 0.06435552 0.056079272 -0.29618615 -0.26311123 0.07800167 -0.5185998 0.020462733 -0.008381467 0.25182202 -0.22622088 -0.4571978 0.23733358 0.42735118 -0.1294805 0.042700328 0.364337 0.42731696 0.16166364 0.07282032 -0.24318309 0.10355165 0.2403644 0.034812775 -0.029203694 -0.03437148 -0.0065827663 -0.1979285 0.32558373 -0.30054697 0.2098074 0.4150917 -0.08313485 0.2665502 -0.1937184 0.04367629 0.35826308 -0.085245326 0.30765882 -0.16242303 -0.03323191 0.30541056 -0.09420286 -0.12991899 -0.2886586 0.27816796 -0.3267096 0.3071115 0.16640772 0.21842912 -0.07390412 0.23375604 0.36624184 0.14352705 -0.40458003 0.04608987 -0.034824062 0.705075 -0.23547071
616 0.097632825 0.16216312 -0.30464563 0.027996207 0.15789531 -0.14900877 -0.0962855 -0.047604494 -0.04765025 0.08544766 0.03419466 0.015474815 -0.17654826 -0.026950186 0.3024846 -0.098184556 0.44732612 -0.038826883 0.2785407 -0.4570789 -0.38909873 -0.1792641 -0.14701018 -0.411866 0.28336602 -0.07914455 0.06306502 0.2513001 -0.35096964 0.12239178 -0.16666225 0.101206094 -0.26537326 0.1865994 -0.21350542 0.005446548 -0.00033160186 0.36597544 -0.06851549 -0.43607438 -0.2502285 -0.23715399 0.1173359 -0.2778763 -0.03397455 -0.1561656 0.31494424 0.15148771 0.60334015 -0.22563803 -0.1180706 -0.36888713 -0.026795212 -0.29468337 0.53923047 -0.18327478 -0.17855619 0.11947219 -0.23084393 0.33025518 0.17052668 -0.38232926 0.17350353 -0.16473447 -0.075236045 0.08536707 -0.123909734 -0.026814677 0.36475945 -0.19735834 0.31096005 -0.13054174 -0.13418137 -0.35700455 -0.20993961 -0.2574931 -0.07059236 -0.24563761 0.016864263 -0.098508045 -0.38157526 0.14191979 0.3186121 0.069572456 -0.23715706 0.028822456 0.2081658 -0.19217573 0.27017295 0.32543817 -0.1742276 -0.019071223 -0.41314307 0.1893862 0.07397268 -0.34600964 -0.16118878 0.07217592 0.37598518 0.6338138 0.27907422 0.16231453 0.33028734 -0.5038035 0.004248032 0.038001604 -0.3441567 -0.095973335 -0.072837144 0.12941925 -0.085203424 0.1392051 0.015733244 -0.54438585 -0.15949649 0.07524335 0.04410431 -0.23323782 0.15010555 0.3484538 -0.32057965 0.027806219 0.14261153 -0.16913144 0.053553768 -0.12783393 0.27188325 0.0066208006
1623 0.2629309 0.1450364 0.13050824 -0.1013754 -0.24134839 0.24486122 0.007819583 -0.055985395 0.14501044 -0.024238752 -0.0052829105 -0.028797653 -0.038690135 0.058061436 -0.45469403 -0.30247903 0.3117121 -0.06990096 -0.087951824 -0.031755418 0.034795024 -0.47011527 -0.14846636 -0.082992174 -0.025393324 -0.039602116 0.15387616 -0.047235705 -0.2930552 -0.1342764 -0.036092952 -0.010390612 -0.31608203 -0.19503719 0.0010817528 -0.19845873 0.36478254 -0.11461768 0.14619587 -0.082727835 -0.047070943 -0.18761352 0.19601446 -0.1467897 -0.04834612 -0.13485648 0.18980621 -0.026704872 0.08230257 -0.16661784 -0.24636617 0.35451543 0.24281728 -0.5700751 0.020385806 0.012665501 -0.23212714 0.0068342383 0.03953365 0.1227836 0.2829815 0.05794939 -0.15899098 -0.053030767 0.27066532 -0.031235628 -0.1339609 -0.32448438 0.17220894 -0.0018116618 0.2157461 0.01650933 -0.05830639 -0.43634132 0.38076788 0.047380432 0.2285693 0.44565487 0.024442203 0.34913576 -0.25393903 -0.021280507 0.43499458 -0.10856052 -0.14103271 0.38458443 0.25431243 -0.42490843 0.40934005 -0.18804951 0.44841042 0.15103057 -0.50351655 0.034296 0.33515966 -0.14770254 -0.4037721 0.34636468 0.0017724325 0.17246147 0.53283346 -0.058593355 0.47402844 -0.14710554 -0.2539328 0.4081569 -0.13313249 -0.23329379 0.15079036 0.09731043 0.29438788 0.32318676 0.14890349 -0.8015465 -0.14330998 -0.6177246 0.17336814 -0.27929184 0.47122967 -0.30009592 -0.326576 0.03371687 0.17369409 -0.3760761 0.33793578 -0.121394925 0.4518988 -0.23988733
767 0.43817627 0.3183542 -0.09881941 -0.07539739 -0.24442908 -0.021491107 0.30380768 -0.24781089 -0.3250095 0.15001716 -0.0669671 0.056156453 0.25760314 0.0435104 -0.0055040433 -0.2784141 -0.10492635 -0.18459289 0.22521509 -0.24884512 -0.263655 -0.22412203 -0.06716419 -0.22251754 0.2448832 -0.0429459 -0.1120808 0.05196563 -0.57873654 0.4639993 -0.53059244 0.09108812 -0.10135246 0.016112188 -0.17762652 -0.5469227 -0.07398233 -0.14181364 0.10434142 -0.21605673 0.05956876 -0.01986522 0.44760418 -0.5100739 0.052278142 -0.15130612 0.18600117 -0.025459453 0.07784102 -0.18802553 -0.36750323 -0.08381742 0.41908193 -0.1633325 0.1905979 -0.23884758 -0.094929025 0.036306284 0.21945742 0.18484809 0.32133722 -0.33029085 -0.013701839 -0.37114906 -0.093855664 0.059920292 -0.049539473 -0.07657745 -0.09866732 0.14039712 -0.013372398 -0.5504345 -0.3256005 -0.5686419 0.12941831 -0.36849675 -0.206997 0.7090964 0.19113185 0.10830664 -0.09029943 -0.044646725 0.5347184 0.0019803084 -0.10725308 0.25033924 -0.00938339 -0.03837486 0.37221444 -0.042060874 0.06489969 -0.2593448 -0.14258851 0.3265912 -0.06835779 -0.2673859 -0.15140216 0.13394068 0.047631945 0.059620004 0.10592244 0.73890394 0.342313 -0.4045293 0.15653391 0.012141767 -0.04873957 0.24220003 -0.10539588 0.18384443 0.4198863 -0.015774248 0.039120592 -0.4040971 0.31306157 0.08302435 -0.2833706 -0.19896081 0.13678056 -0.1767947 -0.26975992 0.24291353 0.26850894 -0.0044868723 -0.21858709 -0.033455573 0.36918974 0.01802367
1488 -0.18348423 -0.06720268 0.09775219 0.030022288 -0.38021395 -0.05708728 -0.0047540204 -0.21470338 -0.3210148 0.033275258 -0.12249174 0.36674187 -0.07677875 0.010838341 0.024727153 -0.3539266 0.6020515 -0.5401841 0.26768973 -0.25137392 0.08806458 -0.03827449 -0.21841986 0.040479284 -0.006803242 0.08430314 0.15188923 0.15557319 -0.39595652 0.27575746 -0.13248126 -0.06476474 -0.20886461 -0.16596018 -0.11867185 -0.15607622 -0.3038202 0.121884115 -0.10682808 0.11647014 0.06420295 -0.047054376 0.32533568 0.028690433 0.20222694 -0.110409 0.03337374 0.09682035 0.020649122 0.038683094 -0.33206508 -0.10222911 0.37868375 -0.2345633 0.2630115 -0.36226997 -0.25003672 0.039961416 0.021731572 0.22585276 0.5103908 -0.15036948 -0.26577273 0.27845207 -0.3463571 -0.09101644 -0.16746056 -0.054275032 0.20638478 -0.06378001 -0.028889753 -0.021186301 -0.5407406 -0.37896317 -0.18330014 -0.53472596 0.2579149 0.29058522 -0.19832608 0.12088193 -0.65837145 0.048026808 -0.010514231 0.1934796 0.021409946 0.13660142 0.14915016 -0.008254593 0.22540222 0.0024127793 -0.30699304 -0.16408497 -0.30452016 -0.0035667913 0.12418393 0.07640058 -0.10875501 -0.2349435 -0.017599909 0.20926051 0.13868174 -0.25767535 -0.018861491 -0.111459635 -0.21988739 0.0029302028 0.087946616 -0.10906788 -0.13132642 0.5763978 0.41970345 -0.23056543 0.30252478 -0.26860246 -0.2632092 -0.58507323 -0.30643466 -0.23324037 0.3607536 0.4109274 0.10950684 0.16510089 -0.16292013 -0.64069873 0.123068295 -0.08579199 0.6338479 -0.2735673
1647 0.23351055 0.119780764 0.04016065 -0.19686897 0.20375422 -0.06757383 -0.12864412 -0.3755277 -0.117277734 0.16615622 0.14893833 0.17050232 -0.15461858 0.20159693 -0.13901569 -0.21380554 0.15731318 -0.12802109 0.116245024 -0.339857 0.23370567 -0.22515489 -0.050971918 -0.06726243 -0.020519821 -0.22160228 0.33473104 0.24910752 -0.25035688 -0.024772134 -0.14674228 -0.13176236 -0.24288082 -0.25164166 0.09652042 -0.24418369 0.023883292 -0.15801802 0.07906309 0.015126734 0.07587555 0.09155311 0.029671008 -0.14392631 -0.25459412 -0.3200517 0.021247791 0.14623423 0.43550944 -0.16516358 -0.28564376 -0.18524994 0.31425613 0.044129703 0.051882833 -0.22899726 -0.43642515 0.1474339 0.08807671 0.47636616 0.08748044 -0.17325465 0.04057201 -0.14706497 -0.36155748 -0.1638353 -0.3688737 -0.57076883 0.2944684 -0.29277945 0.15005474 -0.36849 -0.010535262 -0.29180205 0.11767155 -0.23369609 0.1268741 0.5809025 -0.11001638 0.10928451 -0.33984956 0.22775666 -0.022829548 -0.2655961 -0.21265453 0.669615 -0.106836386 -0.19500455 -0.16985223 -0.08028087 -0.021531066 0.09427543 0.022594076 0.09660629 0.24130987 -0.29236054 -0.40358552 0.12617968 0.09560873 0.04213956 0.07068721 -0.036076088 0.39214084 -0.62715864 -0.36674026 0.7219948 -0.121996835 -0.0022133067 -0.15847377 0.4147631 0.4136191 0.25980645 0.3855383 -0.5195417 -0.4385335 -0.14803155 -0.05365664 -0.033698987 0.20165978 -0.06559819 -0.17737706 0.2736006 0.3130277 -0.16957761 -0.020963619 -0.21868114 0.14593638 -0.22930288
494 -0.21068455 0.007923856 0.40694252 -0.110823214 -0.07845093 -0.013976608 0.20910217 0.08476619 -0.20318529 -0.06489185 -0.019625911 0.008273026 0.03729034 0.030831445 0.037779097 -0.43652892 0.4582461 -0.5687638 0.008035011 -0.5614737 0.09049856 -0.23716326 -0.35944661 -0.4110878 0.17877546 0.1395476 0.31465197 0.33454436 -0.28985393 -0.027423432 0.0008111255 -0.27530736 -0.3363566 -0.07595094 -0.15374367 0.016045809 0.1506602 0.0007885575 0.025310423 -0.34416127 -0.0970979 -0.13387467 -0.22229989 -0.0089033935 -0.29972062 -0.19107993 0.12652981 -0.2144889 0.28101358 -0.22866368 -0.3723149 -0.24326298 0.2891402 -0.09890565 0.11683501 -0.017581953 -0.098081805 -0.1171611 0.31442937 0.6475185 -0.12303446 -0.10130994 0.00414953 0.27665612 0.16561803 -0.13602671 -0.1306782 -0.012477934 0.28360218 0.061464295 0.1990287 0.31159905 8.595883e-05 -0.7985553 0.2378308 -0.3688173 0.26977938 0.28171763 0.0926545 -0.2905913 0.003401899 -0.046261307 0.21416266 0.40166932 0.147561 0.48505592 0.0009201615 -0.08902382 0.24275775 0.048238903 -0.47408688 0.18346958 -0.024019498 -0.096973896 0.11324603 0.1945128 -0.2603353 -0.07288602 0.06304543 0.29703048 0.41890445 0.062339433 0.3976325 -0.3746103 -0.03277948 0.06287529 -0.064969815 -0.2369412 0.18952255 -0.2033768 0.61194634 0.41837358 0.15131973 -0.29607347 0.117523745 -0.16071951 -0.24286775 -0.24820487 -0.28208923 -0.09308498 0.07507407 0.107526764 0.05489228 0.15677153 0.15196148 -0.122640565 0.44843173 0.16956443
1112 0.50604606 -0.034390166 -0.20137425 0.21879442 -0.5525958 0.12605624 0.030072022 -0.13881497 -0.27350417 -0.029396806 -0.48076084 -0.08934903 -0.010693373 -0.14164229 -0.019404586 -0.395243 0.33730978 -0.2742499 0.03773271 -0.14587514 -0.15028933 -0.4890194 -0.21869244 -0.2823424 0.21695638 0.07062884 0.30154055 0.2720508 -0.30813214 -0.026812254 -0.27545938 -0.2488291 0.026721086 -0.17371204 0.033572625 0.033928636 0.43236467 0.19497795 0.17066196 0.28498864 -0.07675103 0.060972903 0.23716146 -0.4912097 -0.16172469 -0.3166193 -0.17050967 -0.049181055 0.46660075 -0.110309586 0.25288355 0.059810866 -0.050196934 0.085080214 0.15658481 -0.20721792 -0.06320122 -0.09451384 0.19016244 0.21040809 0.32210484 -0.047245916 0.38049126 0.113160655 0.19565229 -0.23130667 0.124873266 0.006999304 0.17054825 0.19740996 0.040610615 0.14792055 0.0047812113 -0.614383 -0.34146225 -0.31787518 0.37230983 -0.0550159 0.02671901 0.045388993 0.08606816 -0.13615227 0.018812202 0.5557364 0.04374139 0.30418774 -0.23101242 0.17272231 0.2445263 0.07486818 0.030347176 0.020630857 -0.33981547 -0.034736242 -0.030361382 -0.31328124 -0.22141832 0.031657014 0.37733355 0.19885178 0.2505185 -0.108452 0.3883795 -0.12906805 0.096326955 0.17847227 -0.21284601 -0.108178854 -0.28567365 -0.032521103 0.10663341 0.12495303 0.45375192 -0.37156734 -0.18658629 0.008378167 -0.14196116 -0.21167518 -0.19480763 0.09326296 0.0062217955 0.25174746 -0.1994364 -0.53988653 0.2657039 -0.18198048 0.71519685 0.012004233
703 0.016801808 -0.30726638 -0.24096258 0.047907036 -0.13884306 -0.20452291 0.05416398 -0.30854383 0.0981079 -0.13912551 0.2325217 0.076766446 -0.19544712 0.16081955 0.25422114 -0.04051832 0.44766605 -0.5031025 0.07084222 -0.37749735 -0.21937808 -0.3395321 -0.44990706 -0.29871675 0.046079457 -0.0658533 -0.0026090655 0.19384222 0.015877645 0.26830083 -0.46751907 0.09507922 -0.24892713 0.044690628 0.18813086 -0.022694891 -0.08101138 0.13304913 -0.022910507 -0.39844579 -0.042116474 0.052035414 0.14905687 0.08036511 -0.16492209 -0.3542968 0.11748363 -0.1562858 0.1963366 -0.22308445 -0.076103784 -0.16702601 0.10717506 -0.48195857 0.6905151 -0.18193443 -0.16565807 0.057288837 -0.27934623 0.32185847 0.19320954 -0.16567598 0.30297795 -0.087942645 -0.1941348 -0.04253196 0.123021744 -0.20602196 0.3871378 0.30086422 0.19766374 0.15136495 -0.032086566 -0.4302653 0.11004751 -0.5931502 0.1917655 -0.03930273 0.2013293 -0.33314216 -0.24834818 0.36898538 0.027122056 0.06502603 -0.022119578 0.22386204 0.20970805 -0.40240145 0.44608954 0.35907096 0.024202872 0.18111584 -0.10964349 -0.083981514 0.070618935 -0.17900293 -0.09631229 0.2987901 0.42275506 0.31629965 0.47341654 0.27400762 0.31562302 -0.56877285 0.13860671 0.19400042 -0.28720915 0.0032239417 0.03149043 0.28167245 0.11639798 0.022356432 -0.0091107795 -0.3915458 0.118479885 -0.10970883 -0.17388481 -0.41842657 0.15202647 0.45530918 0.16550992 -0.086347565 -0.13175508 -0.2597088 0.101211905 -0.24402629 0.15230733 -0.033465277
1664 0.1651289 0.20556179 -0.02097694 -0.02822605 0.02020369 -0.0906317 -0.098886654 -0.12476474 -0.32690406 -0.17628548 0.044837177 -0.3064695 0.13634177 -0.08970302 0.052670058 0.11758357 0.22378309 -0.2988995 0.11816128 -0.37417606 -0.17415069 -0.013390027 -0.2522368 -0.22301313 0.07871153 0.44513243 0.09401469 0.2634394 -0.3764508 0.039347418 -0.34140265 -0.22400726 -0.49252215 -0.2880689 -0.028226472 -0.08831445 -0.07221544 -0.00537153 -0.118012324 -0.25745022 -0.16923565 -0.09019927 0.34825787 -0.16065493 -0.031191828 -0.41603458 -0.047763105 -0.23153594 0.42930824 -0.01717187 -0.043231513 -0.15434745 0.06749215 0.010613524 0.16803107 0.030672481 -0.068418056 0.13808121 0.11393033 0.31140986 0.8244358 -0.22916797 0.007813258 0.06048043 -0.25450784 -0.21003973 -0.19974622 0.024158914 0.11439515 0.25030437 0.19166327 0.21221413 -0.33583558 -0.76941144 -0.0628394 -0.5008899 0.43153086 0.06425845 0.086812146 0.32708535 -0.018938528 0.20813091 0.34962618 0.08770023 -0.14445561 0.3545555 0.1019154 0.094759606 0.008514127 0.09581654 -0.23665923 0.2988104 -0.2950387 -0.07329761 -0.032485753 -0.11464973 -0.24166131 -0.10544899 0.2636135 -0.2094753 0.19195254 -0.38072565 0.21596523 -0.25232232 -0.21242604 -0.011683846 0.07093465 0.03093265 -0.18137003 0.12791313 0.3809549 -0.33681476 0.040316332 -0.011066755 -0.50291806 -0.33417067 -0.38198438 -0.07955832 -0.10473767 0.29067454 0.04584068 0.31304818 -0.1349793 -0.3232343 0.07730452 -0.2283502 0.40634194 -0.055811793
175 0.048756547 0.28485328 -0.2732236 0.09508567 -0.13704829 -0.04457303 0.13724494 -0.13300641 -0.06245518 0.022767942 -0.0064234505 0.021921163 0.30557173 0.1599251 0.0891472 -0.281346 0.45271108 0.02948263 0.10298547 -0.38143274 -0.14445531 0.04991222 -0.40995952 -0.3867028 0.17037193 0.24382888 0.13399825 0.17024341 -0.22586642 -0.10832395 -0.13679172 -0.3364343 -0.5612831 -0.30745253 -0.08822204 -0.23007227 -0.35660824 -0.0061356532 -0.2047921 -0.2178814 0.10557445 -0.12609892 0.36092505 -0.13262057 -0.27695465 -0.44416964 0.031811863 -0.2291318 0.2529644 -0.08981748 -0.147618 0.12497813 0.10233967 -0.05689218 0.24476588 -0.33758327 -0.2227198 0.35183993 0.13375606 0.28736627 0.8538966 -0.20620644 0.09436223 0.11358153 -0.115346126 -0.1478089 -0.04171265 -0.091868825 0.15700561 0.14267588 0.40980652 0.0100423405 0.104384705 -0.52389216 -0.12934819 -0.059333913 0.3362385 -0.005041342 0.1281232 0.022447634 -0.099303536 0.15148753 0.4800699 0.20290746 0.024118975 0.46936736 -0.011869024 -0.057528883 0.036388252 0.2886465 0.13076665 0.1848212 -0.32367688 -0.11334933 -0.036823373 -0.3623941 -0.4972521 -0.26974872 0.19565852 -0.14881812 -0.11161934 -0.07095438 0.38726297 -0.566371 -0.009032553 0.5033838 -0.31583712 -0.0973862 0.23475163 -0.055526886 0.23451495 -0.3147815 0.33236998 -0.34836143 -0.46129134 -0.034053843 -0.06416118 0.29992807 -0.11776374 0.0064342464 0.11441753 -0.1136201 0.15076405 -0.096002154 -0.08765321 -0.22237939 0.43079385 -0.045429282
1405 0.10236124 0.38781527 -0.0781733 -0.041692708 -0.25594488 -0.32674557 0.05826793 0.0029428264 -0.4084513 0.07640647 -0.34676868 -0.18066645 -0.04134527 -0.123946644 -0.009401659 -0.009464854 0.22578208 -0.6397548 0.22185512 -0.2915541 -0.2638344 -0.21761213 -0.51832354 -0.22694299 -0.11046568 0.16294056 0.18173069 0.32244882 0.06562784 0.12685858 -0.214713 0.08249473 -0.6646525 0.1157562 0.1754514 -0.2403509 -0.14734863 0.0918091 0.005278468 -0.25251386 0.12419019 0.28847378 -0.007030686 -0.005287631 -0.23425965 -0.18232776 -0.016872635 -0.060540963 0.15488939 0.019253692 -0.3931223 -0.047229785 0.18563649 -0.22313373 0.18669452 0.0069104866 0.0182086 0.03368514 -0.020466475 0.08212135 0.28898263 0.079233564 -0.026084978 -0.045453794 0.047140773 0.009478789 -0.1270543 -0.27977532 0.21794583 0.38937762 -0.1992921 -0.15997009 0.32140732 -0.4220761 0.04354068 -0.17966762 0.026122263 -0.13553914 -0.21673366 -0.013273928 -0.3687283 0.0340058 -0.18295316 0.33813393 -0.014679162 0.19554134 -0.31889376 -0.18393394 0.11118483 0.15988284 0.14945732 0.10494129 -0.5977958 0.34974208 0.14628214 -0.44144386 -0.16005678 -0.16046098 0.58047515 0.11207088 0.49014878 0.24064203 0.5567613 -0.14894612 -0.11948 0.029970879 0.16784036 -0.36491242 -0.15125795 0.115264185 0.4944798 0.16338508 0.36615822 -0.22787909 -0.1947231 -0.011612029 -0.23726052 0.21040668 0.07908494 -0.1702342 -0.404924 -0.06754499 0.33302015 -0.2958541 0.28024918 -0.43179858 0.3184179 0.20557804
280 0.1279549 0.30530557 -0.2338946 -0.14417282 -0.14400332 -0.223765 0.08121935 -0.073539026 -0.052993353 0.2617607 -0.05629817 0.015290692 -0.067370996 0.13293867 -0.29952115 -0.46110106 0.15092906 -0.21202727 0.05351118 -0.3926873 0.11170815 -0.4101902 -0.1650487 -0.26036865 -0.06425107 -0.37816802 0.6195869 0.018745419 -0.15141359 -0.011112376 -0.17008264 -0.045778465 0.09619833 -0.23700505 0.045375526 0.09947811 0.36643815 0.03332705 0.18186314 -0.07581895 0.042015214 -0.046166006 0.09371939 -0.2246413 -0.35052764 -0.5223802 0.15451173 -0.021384005 0.6041068 -0.10572541 -0.11800943 -0.009855388 0.23610252 -0.5568998 0.11601295 0.06291171 0.084659986 -0.10197897 0.19904095 0.35262892 0.052130457 -0.42014137 0.15709434 -0.1300422 -0.12856275 -0.10855521 -0.16364479 -0.31112182 0.13412857 -0.07301311 -0.121327616 -0.08826223 -0.10405647 -0.5718016 0.15721323 -0.09354216 0.3520982 -0.075795785 0.051017366 0.15618019 -0.119412564 0.12785763 0.12481462 -0.1830455 -0.08790599 0.37824813 -0.071557716 0.066486835 0.26679575 -0.021908395 0.2692884 -0.30620518 -0.34809104 0.19744036 0.36161408 -0.4342296 -0.29432118 0.23087148 0.37300852 -0.17290878 0.2873403 -0.06802195 0.33665195 -0.22809157 -0.2764238 0.42240545 0.37306687 0.003642227 -0.028692005 0.15293561 0.4907547 0.23952557 0.35058582 -0.22068463 -0.3012147 -0.46883962 0.12769368 -0.032573387 0.25956017 -0.2086098 -0.11916979 0.039892625 0.16758102 -0.44845214 -0.10754587 -0.2573814 -0.13873 0.036697764
233 0.14507675 0.26905885 -0.45872435 -0.2372623 -0.23677276 -0.014992177 -0.18887194 0.08051116 0.16522987 0.06751468 -0.15904433 -0.32740593 0.14712848 0.2657171 -0.27080318 -0.1308247 0.20234291 -0.43183148 0.23934175 -0.44090334 -0.17860806 0.066571146 0.0807546 -0.20258793 0.1848912 -0.033103902 0.3020469 0.21212997 -0.08827662 -0.0911421 0.032597236 -0.24829999 0.18889517 -0.26739419 0.2797488 -0.37167066 0.029533029 -0.18225245 0.24741024 -0.19341436 -0.17176905 0.20683876 0.10748935 0.049774703 -0.4268511 -0.3088248 0.16813809 0.11250937 0.42531514 -0.4547229 0.22483006 -0.22882506 0.31956348 -0.4113069 -0.029235305 -0.26981091 -0.06502978 0.30214566 -0.019661527 0.44082525 0.2086244 0.05498151 0.054426517 -0.03087491 0.06613474 -0.16293034 -0.3864401 -0.45437863 0.4036569 0.07540559 0.24645908 -0.24166806 -0.010735503 -0.36146924 -0.27657267 -0.3876229 0.079128504 0.24780114 0.14582388 0.19708624 -0.31399035 -0.2701508 0.14860967 -0.12645768 -0.3792921 0.47140074 -0.31136265 0.058255594 0.3386207 -0.20166841 -0.28543296 -0.07477733 0.02666172 0.13610883 -0.020361908 -0.21027769 -0.4141852 0.013675331 0.02399364 0.18729736 0.4195852 0.11924015 0.30103695 -0.32693413 -0.3042521 0.1340629 -0.009374919 -0.15888226 0.07017715 0.22410098 0.40834573 0.0067640757 0.29763976 -0.364443 -0.18717805 -0.18255144 -0.17155236 -0.5108279 0.30348274 0.20084408 -0.026721349 0.14758444 -0.16831265 -0.29426324 -0.22358795 -0.19336447 0.16906229 -0.25601178
0 0.32824147 0.035162017 -0.02187609 -0.049773384 0.008767931 0.2321808 -0.038823348 0.1665286 0.15048891 0.18653925 -0.34528798 0.12272458 -0.26741886 0.06384431 -0.21117055 -0.06507144 0.18763283 -0.2324497 0.008402864 -0.63033605 0.065400206 -0.29340836 -0.38618636 -0.31751692 0.19576152 0.084239714 0.16733009 -0.10776294 -0.24151169 -0.13123287 0.45730838 -0.6704832 -0.51357794 -0.22963564 -0.08839503 -0.121860445 -0.00850644 0.28316435 -0.27985546 -0.18805784 -0.15353717 0.20847715 0.34809405 -0.393275 -0.40243536 -0.09124528 0.4265162 0.33296847 0.397872 -0.24439763 0.20267585 0.004269667 0.45987448 -0.20277028 -0.3118727 -0.12058098 -0.092583016 -0.3708879 0.16765729 0.53771627 0.21492887 -0.08926622 0.3881898 -0.32368535 -0.2252392 -0.039902017 0.022303632 -0.108693644 0.076272264 0.29159814 -0.28921464 -0.43496338 -0.18430217 -0.18558115 -0.1809218 -0.20495339 -0.083940044 -0.0131443525 0.17373176 -0.30230278 -0.4247537 0.22108205 0.39041156 -0.14163105 -0.02812464 0.24347803 -0.22443041 -0.17387767 -0.01493912 -0.17233777 0.03600663 -0.011054679 -0.28533974 0.08210113 -0.059980553 0.1762395 -0.58346117 -0.0058979327 0.21749888 0.19432876 0.5269799 0.10720457 0.41680422 -0.095827565 -0.2008841 0.13668455 -0.27642986 -0.1047462 -0.38535118 0.18240519 0.4156327 -0.029457929 0.06521366 -0.13212468 -0.39115754 -0.20522736 0.056098625 -0.1598094 0.021361122 0.2699883 -0.17886855 0.19393292 -0.023419308 -0.47638896 0.12257742 0.05030574 0.42045966 -0.058944542
1666 0.03031979 0.14085633 -0.1300089 -0.10703097 -0.09459901 -0.030889861 -0.02299257 -0.13666494 -0.013553995 0.12600312 0.12643544 0.13575543 0.009202024 0.16715461 0.13482362 0.11658891 0.56424403 -0.2062324 0.16136469 -0.3538276 -0.10546433 -0.057606902 -0.31998274 -0.4899407 0.07947222 0.1260885 0.27782273 0.35410982 -0.49033323 0.053864807 -0.35175475 -0.03411246 0.14896652 0.25182682 0.01951902 -0.2515786 -0.058065593 -0.12172733 -0.06852437 -0.4344423 -0.22039941 0.040117912 0.043998975 -0.157184 -0.08799435 -0.480724 0.26089346 0.1577589 0.24789754 -0.05490602 0.1774735 -0.28371292 0.3333379 -0.5286362 0.41144013 -0.43898004 -0.1085065 0.30372417 -0.066927955 0.038604118 -0.10369482 -0.017630255 0.34925485 -0.19030996 -0.30520794 -0.031252135 0.04394583 0.03673446 0.1511109 -0.16367882 0.42345876 0.056032322 -0.070846684 -0.5811107 0.24800637 -0.43483168 0.13440242 -0.18646796 0.226595 -0.27753544 -0.3113439 0.00693062 0.39605102 -0.20505802 -0.2554932 0.21540992 0.15836911 -0.0021698342 0.38748953 0.3656382 -0.079417616 0.034233745 -0.13034238 -0.08059615 -0.007112497 -0.119617455 -0.11187776 0.1900404 0.008400838 0.4141645 0.181277 0.09134503 0.25027448 -0.67219776 -0.13498154 0.19069651 -0.2158081 -0.19845363 -0.032194827 0.03813016 0.004764531 -0.18141761 0.1681859 -0.4692098 -0.045093164 -0.132389 -0.04375853 -0.36004993 0.086695746 0.37095094 0.0021998996 -0.012959274 0.11586782 -0.61550266 -0.113094255 -0.12982991 0.14805944 -0.04755683
40 0.5281696 0.0606978 -0.094972275 -0.20672865 0.07272668 0.010093469 0.25861388 0.22462286 -0.32647482 -0.108495764 0.05476847 -0.058430344 -0.21154164 0.20803894 0.2835119 -0.34563896 0.4380702 -0.39134634 0.004888946 -0.6143593 -0.0526955 -0.16227135 -0.33044973 -0.53540367 0.23370762 0.088271245 -0.18676251 0.21644796 -0.19028592 0.2013403 -0.29100227 -0.29841676 -0.12994245 0.024636619 -0.065610826 -0.37958273 -0.056068 -0.15346067 -0.107552074 0.04924363 0.13389713 0.2618676 0.4476194 -0.3751586 -0.072075754 -0.17837265 0.0954556 -0.11960536 0.20207219 0.07395561 -0.38421172 0.11618162 0.29016203 0.121566966 0.42995092 0.09609987 -0.36605072 0.18269798 0.07562502 0.017297016 0.24664766 0.15463182 0.028284375 0.25528142 -0.16873972 -0.025708562 0.016655548 -0.39170972 -0.054140966 -0.11955762 0.05526099 0.21716069 0.14019908 -0.17536725 -0.03924646 -0.16708243 0.22762635 0.11506896 -0.13357617 -0.015717627 -0.2952401 0.12148647 0.21126957 -0.23906375 0.11429796 0.5260065 0.22088523 0.18055584 0.22843 -0.09740739 -0.07069907 0.0507513 -0.31133303 0.24674544 -0.19168833 -0.19457632 0.09089181 -0.0887855 0.24943306 -0.10588466 0.50548506 -0.4928862 0.28629312 0.23383848 -0.012712805 0.12335748 -0.089773364 0.12722114 0.24689357 -0.13748683 0.4954933 -0.2544327 0.29322937 -0.03332075 -0.4690285 -0.4689363 -0.598675 -0.19478299 -0.16325228 0.10543826 0.23950844 0.32472354 0.17053597 -0.34445202 -0.39261678 0.31029588 0.47431502 -0.34481978
1555 0.75472623 0.12323816 -0.14513966 -0.037125 0.038870424 0.15142798 0.024403654 -0.08976388 -0.18761274 0.29419175 -0.110347755 0.13114615 -0.14391814 0.04327855 0.2512992 -0.14830501 0.1440309 -0.08205222 0.15797462 -0.18911918 -0.14018384 0.052883554 0.062047824 -0.12558645 0.24275406 -0.09521602 0.3024655 0.35173163 0.17110857 0.3435078 -0.15528175 -0.077273235 -0.097545065 0.031543396 0.370775 -0.4383671 0.36829814 -0.31903204 -0.10009952 -0.1076192 0.3958425 0.02290106 0.098153174 -0.17869191 -0.07510771 -0.25144938 0.36551484 0.2636621 0.008061152 -0.047672477 -0.25064492 0.024352446 0.07597308 -0.33440375 -0.2919941 0.37027875 0.39156947 0.18245865 0.23682804 0.120454006 0.17247358 -0.31127912 0.35458508 0.09963502 0.07115084 -0.40182593 -0.013441608 -0.18711656 0.07853405 -0.056418993 0.45504946 0.024176704 -0.1343895 -0.36234397 0.1677008 -0.4850924 -0.019954404 0.32793936 0.0962726 -0.11935295 -0.39745185 0.39515606 0.60779834 -0.20125817 0.19771433 0.16044219 -0.19054204 0.20969869 0.51885265 -0.18631506 -0.041188832 -0.02063641 -0.40772846 0.36919641 -0.11937024 -0.015806004 -0.3363722 0.37985364 0.69394994 0.311907 0.63236284 -0.022773948 0.4062579 -0.20961513 -0.26848266 0.33833152 0.08642758 0.018436352 0.021341797 -0.09739653 0.29838595 -0.18126358 0.07598662 -0.30405784 0.08927966 -0.30426967 -0.03032534 -0.010255977 0.28943834 0.16523384 -0.06922839 0.2403019 -0.23714586 -0.062211376 0.064119674 -0.8633574 0.011497683 -0.1590817
1615 0.15126884 0.3763682 -0.43864682 0.27118865 -0.15594998 -0.15660466 0.27811956 -0.30859414 0.04791802 0.2620709 -0.38258752 -0.29039344 -0.17092325 0.3626287 0.03490366 -0.0043061804 0.34594738 -0.122879915 0.08518577 -0.5658025 -0.27555335 -0.43162447 -0.097689785 -0.539187 0.11012881 -0.2710459 0.5425309 0.16944006 -0.43165046 0.050781928 -0.26373973 -0.14995776 0.020405717 -0.15568312 0.22089744 -0.14372985 0.0021788918 0.11492046 -0.0727193 -0.2209872 -0.31116742 0.1616499 0.2992098 -0.112270646 -0.31329444 -0.050902333 0.09819173 0.13862464 0.19728693 -0.25119478 -0.24535678 0.011646428 0.31566533 -0.48723283 -0.025368582 0.068272166 -0.41448772 0.5510038 -0.20133534 0.5962321 0.540662 0.14116007 0.010595741 -0.29735312 -0.5045808 0.08087537 -0.094146416 -0.010212113 -0.11358741 -0.3029378 -0.1260039 -0.22801921 -0.222325 -0.30892536 -0.054644186 -0.12527764 0.45208624 0.096178636 -0.22246844 0.22980376 -0.32889816 -0.12584478 0.47643352 -0.2602111 0.18723376 0.2844843 0.23730183 -0.23697342 0.15073131 0.18724723 0.03671799 -0.084137596 -0.2594969 0.05601511 -0.35434198 -0.24075557 -0.41358444 0.04953073 -0.016645623 0.4017758 0.14188099 0.14810884 0.44808277 -0.58462715 -0.07141718 0.28830284 0.18430598 0.040406253 0.22739501 -0.0353174 0.61060333 -0.106940605 -0.047648948 -0.21675266 0.17443724 0.10739421 0.13241605 -0.41733447 0.3698487 -0.15519059 -0.12124185 -0.07559731 -0.12350423 0.20977299 -0.06637119 0.35605758 0.23892617 0.15881541
66 0.06559987 0.21411732 -0.3727897 -0.035295 -0.16810903 0.10982449 0.2611333 0.11214676 -0.1096023 0.24703538 0.12560517 -0.10643175 0.321537 0.1263752 -0.10206982 -0.053002622 0.39308816 -0.40250638 0.19892292 -0.5961966 0.02970445 -0.1007801 -0.23362814 -0.3415265 -0.39039105 0.14382268 -0.08607163 0.3332689 -0.06347045 0.24228464 -0.38596255 -0.08218694 -0.18475062 -0.24771696 0.4521014 -0.034601044 0.027510865 0.054961417 -0.21840392 -0.1695919 -0.10051056 -0.14417149 0.35421225 -0.339079 -0.30992058 -0.0892155 0.26765752 0.11757066 0.34208384 0.13191313 0.12792544 -0.11565959 -0.06764763 -0.34592795 0.3689462 -0.34282038 -0.23208646 0.12743902 -0.08089291 0.29519746 0.14049119 -0.13317028 -0.06941241 -0.092484824 -0.4472704 -0.4852878 0.13006529 -0.050908677 0.16695574 -0.17415202 0.12857442 0.00790707 0.16526878 -0.50055104 0.13771127 -0.4562826 0.23098801 0.1182073 0.037525717 -0.23326106 -0.5048026 0.3809927 0.14503774 0.2364432 0.02434905 0.37115875 0.029106213 -0.2100568 0.03130507 0.008464018 0.08242493 -0.020167515 -0.42088953 0.010089935 0.05759502 -0.3857462 -0.29254207 -0.10485441 0.0281344 0.10594303 0.040655125 0.020044046 0.46933845 -0.3390409 -0.01116412 0.4187077 0.3661708 -0.12766653 -0.07724493 -0.0052908403 0.015331789 0.11024074 0.26375023 -0.072264 0.17107755 -0.07681303 0.17361416 0.13497122 0.1781545 0.5155234 -0.26284018 -0.047293425 -0.1579671 -0.42601594 -0.06000854 -0.10192348 0.13078701 -0.16389848
1544 0.26821667 0.10889335 0.055812974 -0.42212102 0.10706291 -0.09800243 0.044909768 0.12622432 0.10918022 -0.20431785 -0.2556404 0.06354622 0.07600272 -0.2644257 -0.08714174 -0.38451692 0.31266528 -0.32368556 0.25511208 -0.38393137 -0.1283673 -0.09131941 -0.013712994 -0.17124483 0.2854855 0.035857514 0.21218926 0.23315303 -0.17163575 0.2587812 -0.29819316 0.033307396 0.08864793 -0.123849295 0.12632617 -0.44771925 -0.1226315 0.09972825 -0.029888775 -0.16688621 -0.02144302 0.14358963 -0.0008320054 -0.1512081 -0.16079427 -0.4110213 0.40319234 -0.059697635 0.18520263 -0.020766957 -0.12576559 -0.14454444 -0.10142787 -0.1630521 -0.26660976 0.018600555 -0.01503832 0.32465702 0.12909615 0.07668296 0.08276538 -0.012213747 0.027086623 0.16813858 -0.018314978 -0.05715172 -0.34236258 -0.008887332 0.48249084 0.14003666 0.09140009 -0.16578731 -0.048535746 -0.6184521 0.0029794523 -0.18835837 0.37087077 0.3362794 -0.10815232 -0.27255523 -0.5107484 0.32857445 0.19554184 -0.21717878 -0.21983704 0.2606097 0.05859317 -0.011629143 0.26260942 -0.033151615 -0.07305923 -0.1583423 -0.14561047 0.24850512 -0.0107243005 -0.04238865 -0.21378015 -0.07799622 0.23567078 0.3336402 0.51307714 0.43598655 0.40261713 -0.5525359 -0.106850065 -0.020098358 0.2503354 -0.16301171 -0.05275319 0.08387828 0.39014864 0.08880685 -0.06982877 -0.33346826 -0.09778415 -0.2077868 -0.11250979 -0.10087494 0.071868 0.62313396 0.18913716 0.088139154 -0.18587649 -0.31595352 -0.25469977 -0.4609331 -0.18388736 -0.0687845
1643 0.5013091 0.12859063 -0.32942992 0.05027128 -0.31141236 -0.040363234 0.03279126 0.1281839 -0.3332499 0.40706822 0.06773158 0.14325681 0.11163417 0.18951617 0.015179892 -0.22375424 0.29241043 -0.55190504 0.27597317 -0.50401366 -0.20198108 -0.32386824 -0.147769 0.038730312 -0.18441787 0.1728412 0.21163428 -0.083474405 -0.41326043 0.23370036 -0.11644095 -0.43516523 0.15316658 0.017153693 -0.41574344 -0.40111804 0.113329 0.20399356 -0.022760864 -0.08451341 -0.06380212 0.020015612 0.20738952 -0.32757097 -0.39447862 -0.41195023 0.15144108 0.467244 0.022516819 0.15493695 -0.27766198 -0.023999795 0.45776716 -0.29626414 0.10497394 0.09188537 -0.49719232 0.3346796 -0.013837771 0.16593687 0.007580816 -0.36153612 0.16201226 0.43484685 -0.41753817 0.17497104 -0.14429753 -0.1344494 0.07340232 0.008990335 0.0987462 0.0051659145 -0.20651186 -0.41773626 -0.12596963 -0.57289875 0.14820975 0.0037927057 -0.108310014 0.2441017 -0.34139836 0.033760607 0.31094983 -0.07067804 0.07504319 0.4380434 0.22480878 -0.031043647 0.20891427 0.23517215 -0.039256733 0.056383688 -0.18085992 0.090666495 0.37207988 -0.45087093 -0.47984532 0.04738262 0.30765063 0.1434638 0.2126675 0.27773872 -0.1002149 -0.49233803 -0.13538061 0.26848167 0.29282424 0.1227564 0.25635457 0.41771242 0.2714239 -0.30578902 -0.085381195 -0.2833804 0.097037025 -0.15167974 0.059578545 -0.21123002 -0.034019105 -0.1650206 0.14596839 0.32063088 0.321964 -0.0839455 0.2096085 -0.045911226 -0.009245382 -0.0447336
1338 -0.013381426 -0.28695852 -0.18680884 -0.20865966 -0.14114301 -0.2737086 -0.103628 0.0438419 -0.03956263 0.10823853 -0.15724744 0.08302389 0.009017505 -0.17050488 -0.021860251 0.03339952 0.09287209 -0.15661517 -0.09885419 -0.89200515 0.24659267 -0.21106467 -0.18107821 -0.29375964 0.20155384 0.18723524 -0.10224346 0.430287 -0.1946191 -0.05740145 -0.36181644 -0.22757834 -0.22966684 0.07453919 0.051567927 0.05520532 0.25667045 0.08255792 -0.17544827 0.27534652 -0.2284401 -0.09168373 -0.45662162 -0.26327324 -0.23138544 -0.16163516 0.28175703 0.29273328 0.2141506 0.24774736 0.21692593 -0.42071983 -0.07990415 -0.07044776 0.0234723 -0.2580668 0.14242414 0.15831713 -0.3936181 0.045868635 0.4607214 -0.0911725 0.4448665 0.05761831 -0.21842529 -0.24184105 0.023292858 -0.03082745 0.033232655 -0.25255615 -0.27311894 -0.162504 -0.32230398 -0.7433142 -0.060315263 -0.63135475 0.10827494 0.039346214 0.09760569 0.17638487 -0.5668569 -0.17003736 0.28029862 -0.18600589 0.15365861 0.23331882 -0.048367694 -0.2200088 0.19161767 0.13969837 0.10017371 -0.07928499 -0.27141637 0.16956341 -0.07104342 0.042218562 -0.34172556 0.18271676 0.28673577 0.2675951 0.03268547 -0.09499705 0.3201041 -0.305979 -0.23147914 0.05965411 -0.06439863 -0.021996288 0.060315095 0.076023385 0.34171838 -0.5436901 -0.11529158 -0.4642139 0.11711517 0.026530907 -0.19039012 -0.22367467 -0.14669317 0.12766246 -0.2518091 0.4885748 0.24993977 -0.33878082 0.13548425 -0.15308529 0.36153626 0.2279705
620 0.44996464 -0.0045899902 -0.049426217 0.07252152 -0.1389912 -0.17032139 0.08920346 -0.0020837896 -0.30692858 0.10586002 -0.23366635 0.29542914 0.33192247 0.19703056 0.2012463 -0.17361765 0.17049125 -0.18055077 0.37940586 -0.12420321 -0.32249042 -0.060387794 -0.40617555 -0.21891561 0.14176647 -0.033721313 0.3328592 0.08536865 -0.6830012 0.124210514 -0.24163613 0.11436555 -0.1624079 0.001767497 -0.031120792 -0.5495808 -0.02873974 0.02766038 0.06634384 -0.066313036 -0.027167317 0.13255508 0.10237131 -0.7319075 0.33387738 0.11868256 -0.13406046 0.10524935 0.2764218 -0.19382787 -0.55214345 0.26486665 0.279554 -0.3479821 0.13178128 -0.3243765 -0.1429697 0.070300385 0.21459873 0.19861715 0.24106489 -0.48929662 0.13118035 0.15825282 -0.3118346 -0.11930878 0.09628593 -0.048045117 0.08071236 0.14450635 -0.12974437 -0.3723823 -0.3373171 -0.40758055 -0.075732715 -0.23473042 0.13705671 0.34683475 0.3070623 -0.06751464 -0.011627797 0.1497257 0.003060297 -0.18094702 -0.3376995 0.40485558 -0.02587121 0.14372927 -0.08034719 0.15973753 -0.025099136 -0.020797096 -0.10471448 0.1731198 -0.21980804 -0.07509771 0.059586897 0.0040812925 0.06446734 0.32391602 0.32279697 0.41908556 0.39585018 -0.41245344 0.08181596 -0.018640403 -0.053862784 0.16947243 -0.17154169 0.39193177 0.12363345 0.16460742 0.04493502 -0.46468055 0.38658804 -0.22482333 -0.2161587 -0.35926613 0.051280502 -0.031821683 0.11035641 0.39287394 -0.012725145 0.0144610675 -0.01381422 -0.11486549 0.42702785 -0.15982124
371 0.0005464696 0.17866889 0.01583011 -0.08630599 -0.27143297 -0.038498074 -0.11275998 0.027255053 -0.17857331 0.18248844 -0.30721632 0.42267647 0.07229912 0.040759448 0.06168714 -0.29445672 0.32040107 -0.17177092 0.18638732 -0.75693816 -0.32439172 -0.41152272 -0.27184647 -0.086611606 0.0672124 0.012945793 0.3758588 -0.0074815378 -0.4508601 0.047699884 -0.26866823 -0.16269742 -0.4309195 -0.25863338 0.31627563 -0.002684474 -0.115533225 0.14973742 0.50859165 -0.11018008 -0.04790614 -0.044675812 0.044922523 0.11387875 -0.005438647 -0.12551817 0.0055560875 -0.07745005 0.18791857 0.010697883 -0.33339188 0.22774167 0.07075296 0.06178451 0.08325806 -0.31714877 -0.23464489 0.060669787 0.2598528 0.19497086 0.47019276 0.073411494 0.09944607 0.10038968 -0.31880543 -0.05137968 -0.2836838 -0.19601788 0.5488496 0.15450008 0.20323819 -0.17650764 -0.20654477 -0.73077756 -0.048987217 -0.5586748 0.07295723 -0.28953052 0.35540077 -0.09280754 -0.39664844 0.11388603 0.044986855 -0.02757232 -0.00012216062 0.560857 0.22898836 -0.07238184 0.3505706 0.16417739 0.3954493 0.09740004 0.15920512 0.06128424 0.06512177 -0.057477087 -0.22156978 -0.3238883 0.115875505 0.27663025 0.36785406 -0.2232058 0.18907118 0.20019473 -0.110983774 0.22297592 -0.003272928 -0.086349465 0.19577804 -0.013025585 0.26848838 -0.21300818 0.15685157 -0.015831366 0.14272243 -0.36581805 0.022519937 -0.13138086 0.24617946 -0.100562565 0.07335382 -0.013639182 0.20756891 -0.27738816 0.07808618 -0.30054075 0.13390765 -0.25415447
1553 0.41338605 -0.044599116 -0.38597676 -0.23192026 -0.15824847 0.12690389 -0.08085488 -0.1983039 -0.2369092 -0.08806349 -0.11194028 0.096309066 0.055534475 -0.16781354 -0.2242969 0.0036104105 0.13697901 -0.026826652 0.10319398 -0.43608385 -0.25740534 -0.31996366 -0.4967574 -0.3663812 0.035129324 -0.16023071 -0.08597415 0.25729784 -0.37323546 -0.0022716818 -0.13780941 -0.009691817 -0.113901205 -0.17732468 -0.07202051 -0.3535136 0.08633368 0.02280427 -0.05330143 -0.26491642 -0.02312292 -0.014491911 0.1383944 -0.0063732257 -0.39195687 -0.28089145 0.086340554 -0.015560122 -0.08021628 -0.13599147 -0.16658057 0.06524861 0.29618353 -0.19854201 0.41191465 0.036235053 0.011352911 0.017768832 -0.11000335 0.082583025 0.40867928 -0.11166318 0.27779585 0.29909512 -0.006985485 -0.24564928 0.16890405 -0.11981745 0.008145325 -0.012156887 -0.029322594 0.15205139 -0.068037435 -0.5319762 0.10682331 -0.44156688 0.19466424 0.05038588 -0.034868486 -0.008727141 -0.3372823 -0.10822115 0.101972006 -0.068261914 0.07933853 0.35728058 0.18064024 -0.10506495 -0.009815956 0.02201391 0.07478059 -0.105510205 -0.3833343 -0.24116053 0.17061786 -0.08262462 -0.4436485 0.21010041 0.42626104 0.47505894 0.30172753 -0.08500162 0.55979836 -0.1893517 -0.3501762 0.090318784 0.34759247 -0.05697043 0.19180502 0.16408856 -0.057560872 -0.0957625 0.049747042 -0.38375056 -0.119438045 -0.27083626 -0.027540466 -0.19189288 -0.31621104 -0.0651926 -0.17599647 0.015255384 0.33819905 -0.057145912 -0.13193396 -0.068112694 0.38726613 -0.37321857
52 0.028861046 0.10514353 -0.272604 -0.29464644 -0.102601536 0.07906539 0.06940487 0.07750528 -0.028039278 0.1376077 0.30765274 0.30273187 -0.023208914 0.107869774 0.2820083 -0.1862091 0.92456174 -0.27306855 0.097684 -0.5044479 -0.10215034 -0.13345277 -0.11622143 -0.47908023 0.09685064 0.13451584 0.5857098 0.15104039 -0.71661717 0.096346065 -0.2780388 0.022298167 0.019094411 -0.06974549 -0.055004884 -0.23829457 -0.074126154 -0.08326519 -0.09530533 -0.17589566 -0.21060234 0.43985206 0.14055446 -0.19440103 0.025939198 -0.32412344 0.43613118 0.23461343 0.31803095 -0.07892568 0.09302979 -0.23267588 0.5421599 -0.34190315 0.22465271 -0.15943016 -0.26609093 0.4653107 0.06277761 0.14465645 -0.20263222 0.06307603 0.14058527 0.12351747 -0.17334314 0.0045907716 0.13172887 0.15226892 0.25452906 -0.44193703 0.47620216 0.058286954 0.0020888553 -0.26113746 0.22869743 -0.32468075 -0.008652449 -0.17230281 0.046932567 -0.14994714 -0.07932365 -0.00048915617 0.354032 -0.09343186 -0.418416 0.18134071 0.353728 -0.19760413 0.3597334 0.33831003 -0.08089555 -0.25873265 -0.28286922 0.11265309 0.22273326 -0.2914669 -0.24493425 0.21340925 -0.04462349 0.3061724 0.2649553 0.04833194 0.11299197 -0.32075456 -0.30582994 0.13004346 -0.09647771 -0.09772124 0.043054756 -0.056375828 0.070534855 -0.031879924 0.20089495 -0.28037912 -0.24258664 -0.28684863 0.09510643 -0.15971358 0.037021253 0.3330657 0.0027664865 -0.08418881 0.054356545 -0.61994976 -0.06475965 -0.30587083 0.18125573 -0.00077378727
524 0.18719779 0.4073124 -0.43715516 0.14923905 -0.53900135 -0.012670614 0.11815389 -0.37799528 -0.030122083 0.046697885 -0.08283815 0.25720513 0.043975484 0.30067152 -0.017052308 0.27848995 0.14633864 -0.21697956 0.14789721 -0.31096625 -0.19001627 -0.2993475 -0.30127516 -0.19280861 0.045732442 0.10159044 -0.03369903 0.15360978 -0.5376557 0.39209723 -0.316302 -0.34179989 -0.3097023 -0.030510893 0.0022638643 -0.5058928 -0.00969203 0.061482795 -0.1695871 0.11088174 0.044653308 0.118950635 -0.0058667925 -0.35870644 -0.1978151 -0.2716828 0.020382471 0.14610122 0.1154339 -0.3396225 -0.112123705 -0.30585927 -0.1651936 -0.44268417 0.04639837 -0.12820697 -0.28997728 0.19885427 -0.0529047 0.4001797 0.19967562 -0.42888686 0.31615788 0.23548286 -0.32574213 -0.033948854 -0.21065128 0.14005984 0.34742945 -0.09584359 0.25062943 -0.07096989 0.23790461 -0.2947683 -0.083029866 -0.16698483 -0.16188903 0.39828852 0.07559693 -0.192641 -0.24578406 0.41496003 -0.037517615 0.03145857 0.2948063 0.2892887 0.62355983 0.062197402 0.11533259 0.1981526 -0.12581643 -0.03802222 -0.15458281 -0.26555088 0.007894845 -0.37846762 -0.44101095 0.2991692 0.41875052 0.22535372 0.5158527 0.21387953 0.06935218 -0.24533185 -0.26268837 0.16411358 0.045979533 -0.17278957 0.2930728 -0.23440868 0.31838483 -0.093533464 -0.32848054 -0.22712755 -0.028567875 -0.44754553 -0.33759388 -0.17472097 -0.23102197 -0.19638741 -0.049605474 -0.176243 0.012779912 -0.18725128 0.03843563 -0.33417347 -0.092867434 -0.25963968
1584 -0.0145894615 0.037108433 -0.17933874 -0.12954189 -0.4215342 -0.29620868 -0.1292149 -0.3050794 -0.5301613 0.19119798 -0.053505242 0.372921 0.13621214 0.20004007 -0.19183145 -0.15457554 0.26641896 -0.12908815 -0.27887812 -0.5332013 -0.19118364 -0.31172633 -0.5265502 -0.45603698 0.07738831 0.039167106 0.2632858 0.11175885 -0.4373117 -0.04277436 -0.4485434 -0.31547886 -0.13018893 -0.25770506 0.0038084772 -0.21031871 0.35103473 -0.07071529 0.04367322 -0.21992975 0.022823902 -0.13722022 0.25626576 -0.31328747 -0.2805215 -0.23991188 0.41265643 -0.18770811 0.38657063 -0.00067970454 -0.23738056 -0.11256187 0.38663587 -0.24863619 0.07937683 -0.13312662 0.18590546 -0.23833418 -0.07984184 0.31735876 0.13794145 -0.31857723 -0.046226438 -0.014309252 0.27318665 -0.13731211 0.11298652 -0.19087379 0.1223117 -0.16726175 0.29662043 0.42376286 0.049045395 -0.23589258 0.030734517 -0.34269637 0.42776054 -0.010896651 -0.18739358 0.1584886 -0.20446005 0.043216348 0.23579492 -0.024547074 0.010792521 -0.28160384 0.0908359 0.052496053 0.13092972 0.20736608 -0.3063724 -0.1284801 -0.3739753 0.28713757 0.32684022 0.13832091 -0.20257214 -0.33611822 0.17326157 0.48512116 0.45252848 -0.15122308 0.29846123 -0.34093934 0.008753672 0.34111983 0.23171581 -0.109437354 -0.21856192 0.041233253 0.22562061 0.11574131 0.031061448 -0.04381599 0.12623233 0.109365515 -0.07565938 -0.0634225 -0.24666831 -0.0033944235 0.1450042 -0.0024219786 -0.029391503 -0.38249373 -0.10414334 -0.15052477 0.5273218 -0.2744942
619 0.116901554 0.39874557 0.12566708 0.22799729 -0.22640638 0.04492131 0.13512929 0.027767418 -0.28660533 0.40019882 0.11781036 -0.023514753 -0.010060879 0.06250854 0.024445899 -0.054333102 -0.0520877 -0.28246462 -0.17624044 -0.024617784 -0.08233273 -0.42366326 -0.35394594 -0.38546097 0.50836045 -0.050124764 0.34695646 0.3142348 -0.07724174 0.1634036 -0.054637723 -0.2936338 -0.22242583 -0.22901379 0.15410858 -0.35699457 -0.16237698 -0.20361316 -0.36401382 0.18729423 -0.2744588 -0.12171515 0.055265017 -0.3609564 -0.3216448 -0.37690386 0.058181513 0.017195564 0.54660225 0.05265415 -0.2248149 -0.21232466 -0.003267413 -0.59621173 0.112358615 -0.212118 -0.2459076 0.3293614 -0.3845966 0.6383678 0.32891572 -0.51035494 0.30450684 -0.08651868 -0.20421119 0.1692455 -0.16751534 -0.012102808 0.03891339 -0.056451898 0.32567498 -0.31311762 0.09285114 -0.1713627 0.00876068 -0.40295947 -0.23491682 0.1922513 0.18437666 -0.094724715 -0.15590772 0.07552661 0.21497911 0.21695392 0.25368974 0.35288784 -0.45892802 -0.15547605 0.15304948 0.17819229 0.07554842 -0.15073837 -0.42615014 -0.059596345 0.23168051 -0.11721523 -0.4222785 -0.074102096 0.09696034 0.19714378 0.08970111 1.6186495e-06 0.39804 -0.42747372 -0.18009254 0.14301305 0.22696188 0.25239244 -0.010249461 0.17368919 -0.08295497 0.07677833 -0.030435603 -0.1528859 -0.19814394 -0.17737885 -0.08616219 0.072247244 -0.011442352 -0.23747598 0.15054145 0.11492508 -0.03716033 -0.26802382 -0.22568662 -0.4356957 0.6743475 -0.07383926
446 0.14755644 0.16376029 -0.20957269 -0.35387793 -0.2546149 0.061340004 0.09024299 -0.27613974 -0.2660323 0.13188039 -0.09967248 0.16374803 -0.21125351 0.3225924 0.16862641 0.0015638695 0.30549452 -0.10179836 0.046488486 -0.055732828 -0.15727681 0.06412721 -0.24301921 -0.27782476 0.21585219 -0.054405406 0.33833507 0.13872047 -0.39506236 -0.3662305 -0.12597708 0.08290495 -0.14482993 -0.25964126 -0.17022088 -0.19140674 0.07882016 -0.004255759 -0.33411908 0.07734402 -0.27483314 0.18647838 -0.10948242 -0.50349426 -0.26978338 -0.12361389 0.09353349 0.18584996 0.54187894 -0.04374237 -0.38340488 -0.2455665 0.1782573 -0.3961964 0.13045117 -0.29782408 -0.06327897 0.2046398 0.053766232 -0.18825488 0.2530946 -0.1327563 0.40579492 0.0943936 -0.12548722 0.08524169 -0.02170879 -0.5535585 0.05850002 0.01433627 0.35014698 -0.09732541 -0.11616366 -0.561207 0.03202938 -0.27648857 0.056186635 0.10531059 0.027221806 -0.13580507 -0.5494233 0.3841064 0.14364703 -0.07505693 0.005734989 0.38246447 0.109108046 0.019573858 0.3480766 0.20972092 -0.19982202 0.21293105 -0.45294204 0.13277356 -0.071628086 -0.062201783 -0.17252631 -0.027884267 0.14815547 0.2617337 0.11185668 0.23876956 0.106528886 -0.24374996 -0.19043186 0.24285991 -0.25505596 0.092292875 0.30797824 0.14210704 0.06846348 -0.08207102 0.32572314 -0.3202939 0.291058 -0.06493491 0.16159621 -0.1729817 0.014545957 -0.06248442 -0.04866671 0.12873381 0.08666141 -0.3573148 0.021758359 0.030063083 0.1068438 -0.054635577
1071 -0.14989781 0.3734872 -0.047671635 -0.07355311 -0.15243624 -0.1715794 0.0031440365 -0.11305504 -0.31045634 -0.02002037 -0.19470067 0.09606001 0.14485632 0.04461098 0.04742829 -0.18985611 0.012577484 -0.15184215 0.06754546 -0.20105442 -0.30805936 -0.4709552 -0.43242565 -0.32854906 -0.042459454 0.3986895 -0.056159843 0.091059 -0.29280952 0.12901579 -0.14598025 -0.3428693 -0.3261518 -0.36955366 -0.32942677 -0.33484033 -0.08570403 -0.044929076 -0.11036228 -0.15140657 -0.14726819 -0.20326744 0.34043533 -0.49081913 -0.2792186 -0.37998962 0.078049965 -0.035189748 0.38022214 -0.14923197 -0.074729465 -0.04055789 0.33209863 -0.37415397 0.08307602 -0.15725553 -0.31731197 0.46151796 -0.31921685 0.29082993 0.12664612 -0.39515817 0.23147984 0.0018087404 -0.21561119 0.26461932 -0.22922553 -0.21354333 -0.1359568 0.13171224 0.51205 -0.09781996 0.35730955 -0.20386206 0.10783182 -0.18632554 -0.12355283 0.072330855 0.02495621 -0.084402986 0.012805745 -0.08212492 0.2970769 0.112232916 0.14328547 0.380156 0.17977403 0.03628354 0.072742924 0.21835874 -0.12664384 -0.20070168 -0.49159732 0.024783688 0.18435681 -0.08513586 -0.1909446 0.011207559 0.07335697 0.41007343 0.29768008 -0.3274078 0.34988794 -0.21522664 0.0061923815 0.51198345 -0.023279931 0.044766583 -0.0011585415 -0.305669 0.22789827 -0.05984064 0.12186571 -0.19217578 -0.07383638 -0.28377122 -0.20672683 -0.14691687 -0.3630059 -0.025448892 0.0810999 0.2955644 0.073408335 -0.15226403 -0.34861213 -0.34313345 0.48529863 -0.48817953
1521 0.5286348 0.34743246 -0.1545031 -0.08884539 -0.07177935 0.08979752 0.043933924 0.19048864 0.028670678 0.075765334 -0.29646897 0.029931672 0.1612357 0.4619409 0.21680844 -0.085832834 0.58450204 -0.29337743 0.50035745 -0.2452786 -0.32596153 -0.31213266 -0.058999743 -0.47606838 0.11989915 -0.013419803 0.022642167 0.0093044825 -0.16471173 0.048421584 0.053727366 0.018472962 -0.35131904 0.014932062 0.29151893 -0.095479794 0.10897875 0.21051724 0.30323607 -0.23463719 -0.015256842 0.10919296 0.40501392 -0.043669492 -0.10136164 -0.109665714 0.105397336 0.09782586 0.67347884 0.044328686 -0.14020485 -0.21430492 0.18889053 -0.4068352 -0.12451372 -0.04231355 -0.09330342 0.25926706 -0.009478449 0.57740355 0.16393173 -0.04052467 -0.28762895 0.04958524 -0.1562446 0.040185098 -0.11049339 -0.08051715 0.13635185 0.20105672 0.35046276 -0.120276354 -0.49080896 -0.4590574 -0.27486935 -0.17400263 0.17809755 0.15050527 0.11615572 0.36658418 -0.4125978 0.019241925 0.22193946 0.1646712 -0.18138061 0.9817977 0.18283051 -0.008727355 0.34775507 -0.017944893 0.30810758 -0.19212826 0.07299497 0.19558813 -0.09391875 -0.14568685 -0.21094161 -0.3365968 0.15568618 0.22296199 0.38931018 -0.16188301 0.114226505 -0.47264445 -0.17141074 0.12430413 -0.070413984 -0.014706668 0.30648318 0.05938237 0.1523456 -0.16189303 0.19324033 -0.34217352 0.23828514 0.041058417 -0.02860108 -0.08013132 0.23185939 0.24289216 0.13523406 -0.26292926 -0.06205411 0.23773968 0.09577447 -0.3306499 0.16871636 -0.20394507
808 0.082860865 0.19214773 -0.10053681 0.10266064 -0.48157445 -0.012987043 0.0647899 -0.12184685 -0.5282295 -0.13933872 -0.21492869 -0.0016434907 0.032161456 0.10341189 -0.07665476 -0.17537835 0.32781464 -0.46931466 0.03202007 -0.37365776 -0.012955013 -0.2648054 -0.46736017 -0.3207658 0.014996981 0.042459637 0.27085197 0.10474812 -0.30943638 0.30930397 0.036508303 -0.1209272 -0.52288485 0.17436254 -0.37230074 0.1533863 -0.1193305 -0.005975911 -0.03377551 -0.048688445 0.31584188 -0.008519608 0.36767322 0.18166377 -0.32433325 -0.28740743 0.21155533 -0.020804562 0.15944195 0.25124708 -0.32879895 -0.0018615046 0.3857417 -0.39365047 0.26469982 -0.46474376 0.047548123 0.27979824 -0.16678162 0.043547485 0.43974248 -0.14376763 0.20539972 0.27650407 0.005371874 0.059909757 0.21473792 0.081954464 0.19071595 0.2241175 0.16831195 0.037856385 0.11664156 -0.48451954 -0.07540362 -0.093218975 -0.097451836 0.024876904 -0.4736198 -0.05062464 -0.18172291 0.07482821 0.18799758 0.15445843 -0.14819138 0.29625404 0.027024234 -0.033882577 0.18922305 0.18226242 0.3303846 -0.29671228 0.04969496 -0.1615137 -0.113674924 -0.3505938 -0.2887738 0.14070764 0.48865712 0.11083492 0.58563286 0.011960094 0.19111906 -0.34739283 -0.23889181 0.21076484 -0.1982849 -0.5933242 -0.22620328 0.29920998 0.13560934 -0.36199236 0.18569916 -0.2556223 -0.19356868 -0.395176 -0.34151876 0.06983651 0.2790458 -0.035072636 -0.4171574 0.20767175 -0.057389718 0.18664502 0.18572727 -0.09573511 0.11116197 -0.0073155337
1641 0.12644318 0.24965099 -0.11298311 -0.11476454 -0.34284866 -0.26069736 0.09729165 0.23793635 -0.16832669 -0.048850898 -0.17875923 -0.22429092 0.14488916 -0.03734019 0.083944954 0.013690822 0.08903595 -0.49477595 -0.03961056 -0.4309008 -0.14047655 -0.4586374 -0.636939 -0.17327116 0.020570733 0.011915973 0.3368913 0.44046453 0.33253273 0.4708719 -0.010664092 0.057654347 -0.4475284 0.122431815 0.13722456 -0.043520033 -0.040440574 -0.07570686 -0.10554224 -0.25071156 0.28605917 0.12484967 0.2245223 -0.33094743 -0.28062293 -0.14213912 0.17331678 0.061222304 0.4084358 -0.004044232 -0.34571803 -0.03508271 0.1888225 -0.25826 0.2118411 -0.04706265 -0.28256437 0.012903746 -0.025965208 0.353325 0.11056149 -0.13398862 0.0031612732 -0.3152065 -0.2935025 0.055299316 -0.09603048 -0.083511725 0.10016491 0.20843935 0.1679313 -0.42025366 0.049738556 -0.45361814 -0.123359434 -0.21990067 0.08828487 -0.05549946 -0.11878065 -0.16418187 -0.2991942 0.35199028 -0.117438 0.17409238 -0.19081052 0.16272718 -0.46257427 -0.3416774 0.116872415 -2.6513531e-05 0.16398834 -0.0927392 -0.35084105 0.2508994 0.23387466 -0.21063079 -0.008156366 -0.010897414 0.3315499 0.18376826 0.52928615 0.1281529 0.4392259 -0.61527973 -0.07242251 0.12147439 -0.028568182 -0.24839866 -0.12565435 0.1366112 0.13632959 0.034842443 0.19276278 0.08353514 -0.029243374 -0.47481698 -0.2201818 0.18795295 0.12766649 -0.11803351 -0.5455738 0.20309041 -0.041722767 -0.31282806 0.079806656 -0.40321591 0.13671477 0.039677512
473 0.43206573 0.2671291 -0.056664314 0.13715777 -0.2861992 0.16591488 0.13309848 -0.019861564 -0.32166377 0.35621879 -0.13583961 0.20197056 -0.013648152 0.22190583 -0.043694373 -0.010562057 0.32379395 -0.14156559 0.2820158 -0.7273133 -0.06500641 -0.15847577 -0.376959 -0.20071785 -0.07699274 -0.16050397 0.11896472 0.22089872 -0.2875359 -0.18464485 -0.2732931 -0.21184373 -0.04499388 -0.040177405 -0.26825407 -0.10610355 -0.07774603 0.21846223 0.01069894 0.43003342 -0.04647081 -0.10898285 0.119213246 -0.12380494 -0.14518948 -0.17530304 0.112835065 0.33003762 0.53786474 -0.07304886 -0.23082982 -0.41496223 0.15660325 -0.15725365 0.10880505 -0.5125614 -0.27660555 -0.03475337 -0.28822935 0.23196153 0.42012683 0.018904984 0.1585783 0.12352389 -0.04063484 -0.2390034 0.12691347 -0.058851298 -0.23904581 -0.023753693 -0.13040642 -0.20667534 -0.19565633 -0.5167298 -0.01749292 -0.7508468 -0.041331775 0.23552066 0.17063388 0.013099925 -0.48229367 0.3117276 0.25763577 -0.25167218 0.19819836 0.25225213 0.11537994 -0.2562715 0.43588343 -0.17862229 -0.36268365 0.1563292 0.031713456 -0.003335866 -0.16618367 0.13089597 -0.03612363 0.02153198 0.2838739 -0.21870275 0.21746781 0.024462918 0.20329368 -0.3631203 -0.21188483 0.09213034 -0.09097471 0.26186717 0.017396025 0.026825521 -0.005794186 -0.15113965 -0.014049788 -0.094441526 0.009449927 -0.10553006 -0.09674215 -0.258447 -0.061664008 0.056488283 -0.10586945 0.3265344 0.21962377 -0.3590201 -0.15180758 -0.096011944 0.07497714 0.12108871
1618 0.5434 0.096804515 -0.39186108 0.057724163 -0.25829285 0.051728483 -0.103362456 -0.20767836 -0.041359246 0.12430292 -0.0816948 0.12129029 0.06369744 -0.0036941848 0.16201968 0.17437012 0.3033521 0.072486326 0.48154935 -0.37328553 -0.0138274785 -0.06681327 -0.15188375 -0.1053427 0.040219404 -0.19705369 -0.062037386 0.30750364 -0.41008657 -0.11008136 -0.14560512 -0.024040025 -0.096913256 -0.056580536 0.18100128 -0.07064521 0.039349288 0.11558748 -0.010831518 0.1565454 -0.16836542 0.17799388 -0.5413943 -0.1715912 0.08009704 -0.09992755 0.10053385 0.19912976 0.62401706 0.04780876 -0.2988647 -0.48182106 0.34158683 -0.26148963 0.188773 -0.47848102 -0.16498551 0.10065374 0.2534117 -0.11255138 0.16031672 -0.12156473 -0.035923023 -0.027579516 -0.33060223 0.24145849 -0.31963268 -0.38977912 0.028579988 -0.12751631 0.291432 -0.046552483 0.017499918 -0.41400784 0.13985932 -0.10387821 0.3033731 0.4985834 0.0036083432 -0.034221042 -0.5249358 0.050326392 0.15592095 0.21038732 -0.087574705 0.70082194 0.2997738 0.33641434 0.33603448 0.06920659 0.5147174 0.2792955 -0.3022299 -0.022079987 0.13850956 -0.09943227 -0.10390985 0.1365153 0.20435242 0.39089608 0.4040552 0.38935077 0.08600911 -0.17583242 -0.22012708 0.52605206 -0.07504242 -0.06527219 -0.109300815 -0.19962694 0.15812589 -0.08899868 0.38135535 -0.37598202 -0.101442195 -0.01795611 0.01647809 -0.18054734 0.31897923 -0.010516091 -0.05240155 0.11759438 0.10442203 -0.0013985599 -0.08931466 -0.18065463 0.6670194 -0.02216794
