1899 128
104 0.138254 -0.1288889 0.07213713 -0.03202647 -0.29478222 0.113212794 0.06636409 -0.1339878 -0.14019448 -0.1028047 -0.017474176 -0.10287379 0.14899704 -0.37925678 -0.33407754 -0.1530231 -0.18609364 -0.11263518 0.08691792 0.033125825 -0.001680057 0.08428336 0.11806168 0.2112363 -0.2763205 0.6608889 0.17735821 0.37241745 -0.16101834 0.029399684 -0.93076926 0.042721134 -0.3885935 0.5275938 0.15861201 -0.02177616 0.27917728 -0.037934575 0.21942823 -0.0900379 -0.019764608 0.010444126 0.1773594 -0.18953381 -0.25595576 0.1746189 -0.13378233 -0.19914716 -0.5603217 -0.13503712 -0.09210112 -0.044727687 0.1956919 -0.23378254 -0.12932397 -0.3585094 -0.0057358993 0.071300216 -0.4894479 0.038117737 0.46545735 -0.054862734 0.07888703 -0.39312539 -0.18058874 0.014990164 -0.28287935 0.11300103 0.1455866 0.32657495 0.15753458 0.050443485 0.24946819 -0.18928929 0.12629382 0.26372585 -0.08029575 -0.12654199 0.13487314 0.11880564 0.009979314 0.12918214 0.56555265 -0.1807727 -0.021723898 0.26779717 0.08742377 0.19010125 0.6259688 -0.071982615 -0.034168705 -0.57507026 -0.25041524 -0.19849811 0.04790283 -0.21174753 0.12002962 0.4531921 -0.031435624 -0.03773463 0.09947609 0.15333395 0.41174656 0.13653268 0.13342603 0.009931202 -0.30229864 -0.30536017 0.32281983 0.2289055 -0.049902696 -0.27720064 -0.46634912 -0.050827738 -0.09811423 -0.8344471 0.2873974 -0.068547145 0.19426972 -0.2294073 -0.21879871 0.06571926 -0.3561265 -0.52547264 0.15366894 -0.21624468 -0.20465043 -0.2956181
1623 0.3748827 0.01274462 0.024333157 0.09826898 -0.5156112 0.22001497 0.075313516 -0.19069067 -0.1853892 -0.16234487 -0.16467826 -0.13196193 0.19769609 -0.31424344 -0.22873552 0.0070288205 -0.21907301 -0.14487253 0.027881058 0.090505295 0.13015462 0.19375376 0.007576719 0.24612132 -0.15140402 0.35260487 0.061446015 0.17935961 -0.22090825 0.054456137 -0.44269666 0.06744293 -0.42549255 0.3107558 -0.01078877 -0.14526176 0.119798385 -0.07092693 0.30968204 -0.15224384 -0.03354536 -0.030099727 0.10296219 0.01999675 -0.39506894 0.20514633 -0.14837462 -0.13181642 -0.51671237 -0.13163568 -0.088285394 -0.11811235 0.105252974 -0.22763364 -0.029588519 -0.12598842 -0.13882384 0.16137238 -0.36713314 -0.13768831 0.41841555 -0.17047668 -0.016946394 -0.2762549 0.029691398 -0.16070002 -0.30356815 0.0010299721 0.14065564 0.23907934 0.25132757 0.055482876 0.17057668 -0.23327799 0.048239216 0.2920921 -0.14623883 -0.32494655 0.16046572 0.105708964 -0.01745208 -0.0068960376 0.27544972 -0.27926734 -0.10637405 0.199245 0.29525027 0.07566472 0.49591005 -0.2617787 0.014501541 -0.6857951 -0.25994244 -0.18220395 -0.0026980315 -0.36869186 0.13941325 0.6247536 -0.03477435 -0.18330161 -0.024797503 0.13500324 0.5346577 -0.0075629363 -0.21194422 0.0716814 -0.26587537 -0.5301934 0.14431746 0.2911606 -0.06732509 -0.5633301 -0.49465644 -0.13473149 -0.11975245 -0.9980741 0.27494067 -0.0591439 0.24607633 -0.29380712 -0.25123733 0.072069556 -0.2627933 -0.6679178 0.31077543 -0.15646023 -0.19065565 -0.122070506
1542 0.3985483 0.012721797 0.30890626 -0.007966586 -0.2973261 -0.11290537 0.14593132 -0.18920769 -0.15481956 -0.25632188 -0.42809758 0.045710027 0.34781215 -0.5631582 -0.42276666 -0.18712977 -0.2815174 -0.16092244 -0.036309864 -0.1869903 0.07759075 0.15416756 0.138589 0.049269598 -0.22976051 0.421149 0.24762228 0.34861833 -0.24480195 -0.06879039 -0.80576295 0.1276579 -0.8164385 0.38920885 0.17040992 0.09337023 0.31055635 -0.2508538 0.32905892 -0.27592385 0.099233404 -0.33972386 0.42790276 -0.25095817 -0.3486539 0.07401728 -0.21802917 -0.27650037 -0.59513086 -0.19591327 -0.20200062 -0.06393028 0.20599109 -0.17059702 -0.12014568 -0.30260286 -0.20103636 0.3066135 -0.32869694 -0.14142287 0.7720135 -0.013863867 -0.048583265 -0.44393668 0.034348395 -0.1734898 -0.103354335 0.043470096 0.2242396 0.2296858 -0.020364523 0.0671263 0.22605 -0.31848496 0.16120127 0.33532208 -0.13371558 -0.31836906 0.20276007 -0.06788141 0.15539926 -0.06779253 0.27295116 -0.31084278 0.03527813 0.10366999 0.27392155 -0.12670629 0.1518997 -0.037100576 -0.2033425 -0.45460796 -0.038384754 -0.11275436 0.059714206 -0.19372113 0.10498026 0.38672382 -0.22093089 -0.40078714 -0.12163229 -0.15041648 0.29731342 0.0985918 0.036650196 0.13392738 -0.098503865 -0.44953534 0.51863134 0.099758975 0.16325285 -0.18973264 -0.26043952 -0.08327397 -0.24451554 -0.7121145 0.056658942 -0.034336023 0.15049112 0.016685074 -0.11116792 0.06468763 -0.085105464 -0.23115724 0.14612384 0.046841994 -0.049830675 0.021814086
560 0.106495224 -0.226087 0.21567358 -0.008600519 -0.7707458 -0.14061959 -0.22399133 -0.088146254 -0.03600837 -0.21818429 -0.33281106 -0.14804974 0.3076783 -0.37426907 -0.338333 -0.24197315 -0.18393561 -0.182219 -0.10931996 -0.09031505 -0.02146903 0.3502629 -0.061004285 0.17572026 -0.1468491 0.4990002 0.25281325 0.43314844 -0.23339796 0.17686592 -0.6412657 0.020526964 -0.54862726 0.10310186 0.16570508 0.096544094 0.15942158 -0.15469857 -0.09788237 -0.09943453 0.056379415 0.107814826 0.15639478 -0.3427462 -0.019104518 0.18777087 -0.094012424 -0.12924449 -0.5011449 0.015668005 -0.0762185 -0.18716465 0.28746778 -0.047857817 -0.088582836 -0.24661173 -0.21422985 0.026362011 -0.21113487 0.10945359 0.49038586 -0.09535392 0.16852239 -0.40151164 0.04467806 -0.091083705 -0.20058279 -0.11394927 0.39478332 0.31918466 -0.02161378 0.10033148 0.21621016 -0.12966996 0.2698805 0.26767594 -0.20140764 -0.4222618 0.40513042 -0.024877412 -0.05674531 0.13120152 0.2524497 -0.46915382 -0.10717122 0.025875984 0.26275477 0.023566348 0.31758505 -0.038089126 -0.29578662 -0.68568367 -0.018230157 -0.19946502 0.1562774 -0.32561892 0.16468562 0.5202756 0.14598982 -0.16130793 0.041668966 -0.10188064 0.38437644 0.1197863 -0.07484077 0.07028501 -0.0891167 -0.42672575 0.23367734 0.2869498 0.0107685365 -0.29481852 -0.28174987 -0.024476875 -0.14013934 -0.96889 0.1792714 0.12992707 0.109377876 0.04433648 -0.003692406 -0.012255915 0.0037585523 -0.4592671 0.2782977 -0.10104634 -0.12946025 0.035729837
1755 0.30787414 -0.13957247 0.117089376 0.37196207 -0.5780563 -0.17444944 -0.12731256 0.062112197 -0.37966147 -0.22171427 -0.39135274 -0.098777704 0.2581391 -0.79012334 -0.5763358 -0.014078551 -0.1814734 -0.13970204 0.0013366389 -0.20325089 0.18879525 0.10588046 0.10063104 -0.06519689 -0.42934966 0.61588246 -0.1033441 0.20529853 -0.3946526 0.1028374 -0.5527465 0.15213309 -0.39445207 0.42044762 0.032572515 -0.033710144 0.43262005 -0.120123945 0.17301437 0.07624764 0.020103352 -0.19230048 -0.01846341 -0.11463339 -0.19735926 0.11671332 -0.107336275 0.05399016 -0.3449738 0.028062347 -0.13105433 -0.000109870016 -0.007738405 -0.20823286 -0.024902303 -0.35213387 -0.0674165 0.010569 -0.07716538 -0.07870458 0.1670303 -0.066187404 -0.110937625 -0.20286039 0.1418596 -0.33146587 -0.31225118 0.09032297 0.20083578 0.13084748 0.19204612 0.23196016 0.2226268 -0.30084023 -0.23264937 0.24401243 -0.19341001 -0.1751788 0.2739205 0.122269556 -0.23547255 0.35447118 0.42381382 -0.18629998 -0.25964692 0.22113855 0.12774934 0.17554902 0.4405627 0.13377957 -0.052203912 -0.5297812 -0.4698711 -0.1383549 0.02552421 -0.20879069 0.21707328 0.5600018 -0.10487719 -0.27009794 -0.14906116 0.002952982 0.4005433 0.10416053 0.044372506 -0.0063308263 -0.060308985 -0.49939325 0.16825494 0.19320492 -0.07472401 -0.38698912 -0.4030437 -0.07213052 -0.025521033 -1.0611391 0.27346548 0.016349113 0.38043514 0.017370746 -0.26876053 0.02537427 -0.07312078 -0.4001123 0.25645778 -0.13426964 -0.18094932 0.02668201
430 0.2847012 -0.25127935 0.14939612 -0.11457338 -0.38466677 -0.24751961 -0.15953068 0.06452267 -0.16735168 -0.112891816 -0.31729192 -0.14998029 0.4396302 -0.4178547 -0.46364522 0.038429555 -0.06245605 -0.24743415 -0.049840678 -0.15929534 -0.24392776 -0.027873011 0.042408723 -0.23529364 -0.24856745 0.37429217 -0.016494893 0.4557833 -0.3273333 0.13796088 -0.57653415 0.071047865 -0.4505796 0.30194476 0.27033874 -0.06495584 0.091816366 -0.31182894 0.26497617 -0.07944112 0.0065442813 -0.16643517 0.3559962 -0.4138979 -0.20429689 0.051711608 0.057013657 0.019390682 -0.43642867 -0.17206728 -0.21207182 -0.25982222 0.1916115 -0.32078394 0.069492795 -0.36013225 -0.19076768 0.27272052 -0.09460895 -0.00653414 0.4927995 -0.12758434 -0.07087714 -0.38369188 -0.06245639 -0.055893265 -0.1452258 0.17366798 0.3434791 0.11940438 0.21695015 0.19994402 0.19048871 -0.33788458 0.22216709 0.47691962 -0.1458248 -0.29431865 0.10355077 0.04754342 -0.113464236 0.18280889 0.3054601 -0.24734974 0.17181645 0.1346091 0.23592284 0.16824704 0.3241513 0.047436964 -0.10024243 -0.5353698 -0.123413436 0.09516556 0.28020078 -0.43274635 0.06097642 0.38234073 -0.15855387 -0.51242465 -0.013525117 -0.17715189 0.43118402 -0.02079334 0.06562077 0.25315213 -0.15693839 -0.443717 0.15452653 0.21398517 -0.0152700255 -0.45845306 -0.28441265 -0.17822158 0.0686966 -0.92924374 0.37373954 0.18344982 0.1810966 0.1455308 -0.23517133 -0.06643411 0.0029725465 -0.4591399 0.37233517 -0.11150277 -0.044990495 -0.097156666
522 0.2498591 -0.38455224 0.21492507 -0.430813 -0.49140817 0.33409935 -0.22288221 -0.16843966 -0.23331615 -0.16927987 0.09586847 0.20282714 -0.01231849 -0.12322985 -0.3679281 0.042999294 -0.2741255 -0.2517895 -0.3663441 -0.19149348 -0.2674505 0.37099448 0.28953722 0.04283985 0.20830911 0.13063823 0.046103083 0.41905636 -0.046359345 0.010171656 -0.60963964 0.12828192 -1.0297976 0.4161607 -0.3972719 -0.089860186 -0.088145845 -0.3009047 0.46863502 -0.36252123 -0.29475924 -0.1318246 -0.04760911 -0.08773114 -0.39316726 -0.012270834 -0.16441612 -0.12915051 -0.24665223 0.03755185 0.025379514 -0.49237418 0.30385396 -0.14953892 -0.016421817 -0.3981332 0.14448214 -0.051260103 -0.35034868 -0.21093932 0.62826973 0.17608741 0.047124352 -0.12806574 0.0935975 -0.2998781 -0.17730314 0.07653763 0.85611707 0.044759672 -0.050453853 0.24553259 -0.3186388 -0.23071703 -0.4454613 0.29772365 0.062722094 -0.043031983 0.42717922 0.2762607 0.2824019 -0.010006247 -0.024034014 0.099673 -0.07608276 0.25367922 0.5330702 0.008626662 0.19380128 -0.19757806 -0.15660067 -0.4313887 -0.3858956 0.106539354 0.17697482 -0.13525978 0.06960801 0.36144072 -0.058429893 -0.26757833 0.1697239 0.2628318 0.51056916 0.028413644 -0.13207963 -0.21520394 -0.2112524 -0.21845445 0.43623227 0.00036452053 -0.3627211 -0.47588626 -0.25605163 -0.2832957 0.013397261 -0.59744245 -0.04067123 0.12980758 -0.1097722 0.08540862 -0.26547647 0.15667325 0.070045605 -0.59814626 0.48517132 -0.30433962 -0.4385162 0.2688142
11 0.24009824 -0.001498691 0.17678902 -0.33183333 -0.47916216 0.041570105 -0.09633333 -0.07046131 0.13714513 -0.21950616 -0.5025948 -0.11478254 0.38590318 -0.6236856 -0.5053486 -0.06789694 -0.28879556 -0.142336 0.051445868 0.16182818 -0.048819404 0.1986449 0.304513 0.10001807 -0.26412603 0.2753937 0.1843846 0.27607277 -0.059612744 0.1016502 -0.9798584 0.14414075 -0.74719125 0.3280043 0.062243227 0.090626866 -0.022451082 -0.16216323 0.19442624 -0.40455064 -0.07784569 -0.29302707 0.11341073 -0.20699121 -0.20457469 0.14319785 0.036723904 -0.12218942 -0.48583692 -0.13579066 -0.12226262 0.0046458174 0.13435368 -0.25349575 -0.261201 -0.20312163 -0.31027997 0.10154568 -0.46035627 0.030562213 0.39231744 -0.20451915 -0.12112791 -0.31771082 -0.053734034 -0.072181016 -0.11974427 -0.10152573 0.33099604 0.19744726 0.03172637 -0.045866497 0.20581928 -0.10797028 -0.04023864 0.36699882 -0.05630515 -0.18578686 0.26057595 0.049037214 -0.050549116 0.037665162 0.13384494 -0.267731 -0.24932489 0.0963 0.29789895 0.15042363 0.33889955 -0.20344093 -0.22156948 -0.74532604 -0.06977411 -0.03879518 -0.020350339 -0.38691097 0.14800869 0.24995075 -0.055869505 -0.41246033 -0.09563421 -0.042333014 0.44743943 0.028784089 -0.28914514 -0.0878118 -0.07249236 -0.35665455 0.20842934 0.11535571 -0.004946892 -0.4144717 -0.30696362 -0.11392383 0.025223397 -0.8354237 0.25972453 -0.093422115 0.10201666 -0.13273871 -0.20460568 0.13702127 -0.21716245 -0.44207314 0.14134467 -0.15546334 0.0393753 -0.05709979
1311 0.19420607 -0.08890895 0.20116095 -0.13557681 -0.5967525 0.037691697 0.17386214 -0.15305632 -0.03575633 -0.24706751 -0.42309675 -0.047837954 0.37736508 -0.45126015 -0.42863345 -0.2146968 -0.13182008 -0.12639481 0.09891558 -0.012180718 -0.0135357445 0.20008826 0.13924134 0.04659885 -0.2690217 0.2635641 0.2908945 0.37061077 -0.039048463 0.1216648 -0.74305737 0.16661364 -0.52041674 0.2523079 0.07188767 0.14425488 0.22580393 -0.3048164 0.1601086 -0.22566377 -0.02428122 -0.21549395 0.33166733 -0.33351928 -0.23300855 0.11463767 -0.07025537 -0.19403693 -0.5906305 -0.25112045 -0.26304713 -0.119514085 0.06278155 -0.1726491 -0.19428235 -0.23218678 -0.056743164 0.13338889 -0.4407325 0.05338129 0.5773186 -0.0525517 -0.18296243 -0.4650735 0.19295354 -0.019879708 -0.1199104 -0.09382081 0.43055314 0.12897128 0.10758827 0.16843562 0.35377935 -0.24111722 -0.03141181 0.31310338 -0.17911208 -0.4166093 0.42024842 -0.1252948 -0.005080648 -0.13909511 0.26699024 -0.308911 -0.19636859 0.08575049 0.3809932 -0.036893606 0.3354463 0.08748238 -0.20226331 -0.6728011 0.022275796 -0.05594648 0.077408396 -0.3231969 0.28058445 0.36455622 -0.029333632 -0.25981012 -0.30755705 -0.018014036 0.4932225 -0.081098326 -0.02919761 -0.15620734 -0.067045175 -0.39868698 0.43415672 0.29697806 0.28876066 -0.37570995 -0.316443 -0.044826016 -0.12557459 -0.68976396 0.31813258 -0.08566127 0.2392248 -0.04216743 -0.21552831 0.24343681 -0.031089516 -0.4032507 0.3005587 -0.26366776 -0.024925934 -0.09244566
397 0.2201856 0.050453503 0.008365422 0.2147839 -0.49661326 0.16961838 -0.07093045 -0.06410313 -0.0022093279 0.07878537 -0.19524065 -0.08285544 0.13283075 -0.4937668 -0.3934672 -0.022554014 -0.24284025 -0.008555231 0.097768 0.09102834 0.18595682 0.061218437 0.06319576 0.26817408 -0.08291259 0.43743628 0.08632385 0.18015242 -0.17069633 0.109135196 -0.6198282 -0.018410195 -0.8089225 0.36609113 0.13403647 -0.3044628 -0.014813993 -0.093353115 0.20185956 -0.053006638 0.06096958 -0.15499863 0.12861824 -0.24677253 -0.41446182 0.1881979 -0.31719437 -0.08432069 -0.2542879 -0.12159726 -0.08926917 -0.2064555 0.08361721 -0.26074183 -0.10509596 -0.3384496 0.07628603 0.14961226 -0.6230526 -0.0675204 0.57088953 -0.27399936 -0.01678572 -0.3764193 -0.02762336 -0.03074059 -0.43057746 0.17378074 0.12519838 0.10644806 0.25692293 -0.0042291703 0.08577962 -0.10917736 0.018052036 0.35460538 -0.3187095 -0.31379086 0.23317109 -0.10085163 0.00534793 -0.18710531 0.3388721 -0.09514785 -0.16775067 0.09819167 0.035329502 0.23659606 0.5990696 -0.21843445 0.009571444 -0.7452546 -0.072835036 0.08873448 0.04009037 -0.08718544 0.12616831 0.37308693 -0.1493954 -0.2431536 -0.007897653 0.14975111 0.628767 -0.022499891 -0.019352619 -0.09605414 -0.2336569 -0.34434503 0.1652564 0.3305944 0.0025392333 -0.40719596 -0.37314847 -0.086900964 -0.020384071 -0.84994054 0.110088915 -0.24892613 0.10774282 -0.24374148 -0.14187118 0.01674363 -0.38099256 -0.52691823 0.18209201 -0.19040194 -0.16230528 -0.278209
94 0.17275244 -0.10214564 0.22703525 -0.116594434 -0.3064998 -0.17603938 0.027227571 0.06607477 -0.24013825 -0.25981385 -0.47502854 -0.048107054 0.2889638 -0.2072361 -0.3590692 -0.1269449 -0.22435339 0.038844835 -0.031884678 0.19311835 -0.09025043 0.1350511 0.3753818 0.096484914 -0.13262193 0.38402075 0.18405302 0.21868576 -0.1313369 0.31707424 -0.9369616 0.037899747 -0.71346176 0.14484628 0.08470001 -0.0849726 -0.039026797 -0.36131585 0.019556426 -0.16041602 -0.050038606 -0.034503672 0.11593244 -0.31479603 -0.13696513 0.009658126 -0.12327746 -0.10460023 -0.43222356 -0.25041595 -0.11748901 -0.06682221 0.020625034 -0.15350895 -0.14354028 -0.26483285 -0.20760342 0.090526246 -0.2935735 -0.014160501 0.80072385 -0.25714353 -0.0017523918 -0.16748165 0.03013921 -0.22722715 -0.28474143 -0.09766342 0.24234545 0.14953655 0.046437 0.047317516 0.14202505 -0.35814458 -0.008706586 0.37212786 0.08812323 -0.27474007 0.4608489 0.024440369 0.052013647 0.096221305 0.07845825 -0.13812298 -0.14050658 0.13339366 0.43470255 0.26379663 0.30492666 -0.16411492 -0.24955004 -0.76954275 -0.036670066 -0.2234316 0.09345554 -0.33050984 0.040586118 0.26098728 0.13947068 -0.16205367 -0.06373687 0.119762704 0.57758427 -0.004898946 -0.029073361 -0.018147664 -0.24328646 -0.37709254 0.19723287 0.18229853 0.08570032 -0.4633459 -0.4439454 0.035450384 -0.17034207 -0.893877 0.03784382 -0.026085429 0.10319526 -0.17597947 -0.064290985 0.009362664 -0.26938257 -0.63841844 0.17300138 -0.24307494 -0.07830881 0.07676047
31 0.3968965 -0.020854002 0.038775466 0.012652618 -0.36867377 0.11441793 0.065867804 -0.11815917 0.031404648 -0.12758626 -0.008742081 -0.042011254 0.14983985 -0.37169135 -0.23423752 -0.07361294 -0.35375413 -0.16201957 -0.0051434278 -0.09971479 -0.0067463317 0.08301057 0.28909633 -0.06361231 -0.0021363872 0.16034524 0.019314853 0.27084395 0.08000435 -0.026900077 -0.34221092 0.052548863 -0.5203742 0.37023237 0.0808019 0.058084447 0.16470547 -0.26264158 0.30662936 -0.23569645 0.077400215 -0.008424521 0.12748808 -0.19978648 -0.33426064 0.06148696 -0.27463225 0.0054360814 -0.347034 0.0032959194 -0.012494479 -0.2350938 0.30201718 -0.36621925 0.10803977 -0.23210654 -0.038173124 0.13006201 -0.30499145 -0.24632026 0.39179596 -0.048974697 0.09479235 -0.27313957 -0.23391037 -0.34122932 -0.20569406 -0.08486271 0.5340584 0.123970635 -0.029695826 -0.0060123415 0.034119528 -0.2685388 -0.11776671 0.39053503 -0.090522684 -0.29626343 0.41342986 -0.11337578 -0.07195522 0.10510849 0.2524625 -0.26621068 -0.09013345 0.22726871 0.32636693 0.014075265 0.45830828 -0.0032400961 -0.21157503 -0.3733024 -0.07541696 -0.12454392 0.20287828 -0.35160744 0.2632712 0.5007739 -0.1920951 -0.2364524 -0.040786438 0.16654064 0.54260176 0.071490064 0.12766512 0.022550372 -0.40549472 -0.4187998 0.3464958 0.10874338 -0.1358929 -0.6383687 -0.570403 -0.11927755 -0.56120104 -0.85396105 0.21555045 0.0097264005 0.23769003 0.059442338 -0.30202988 0.20534678 -0.39498648 -0.40246254 0.28084728 -0.043318324 -0.31986207 0.076201595
26 0.29455847 -0.038575117 -0.11753118 0.1840217 -0.32397744 0.073384054 0.0067466544 -0.055876568 0.0023269204 0.027841583 -0.12256608 -0.18760444 0.02932743 -0.5294782 -0.3799964 0.064683236 -0.31147224 0.031728726 -0.11919845 0.048844047 0.22294167 0.18036778 0.040444117 0.07753867 -0.09768235 0.68580526 0.25231808 0.29045966 -0.19336519 0.029029008 -0.57026565 -0.17095654 -0.66555417 0.15778482 -0.036188837 -0.2395137 -0.093985684 0.070498355 0.14025758 -0.21806666 0.20188606 -0.16621172 0.3796825 -0.28068107 -0.30461958 0.027734647 -0.14235769 -0.14219825 -0.17914772 -0.097526535 0.14945912 -0.24186946 0.16856453 -0.39427516 -0.011984293 -0.24863082 -0.1359341 0.20489728 -0.7375567 0.09160581 0.44938293 -0.34304416 -0.039245762 -0.35777393 -0.26396728 0.0033653202 -0.4102573 0.21110925 -0.058729757 0.24827754 0.32731697 -0.04725148 0.2241741 -0.07454363 0.16431527 0.45331746 -0.27858743 -0.31174248 0.09472162 -0.038000166 0.1056121 0.027825845 0.25810704 -0.10284508 -0.118232235 -0.0065417495 -0.039625015 0.33931994 0.30406234 -0.22196837 0.022251977 -0.639498 -0.37131 -0.042998936 0.029390838 -0.3097309 0.116378166 0.51059765 -0.15400174 -0.22698465 -0.11394634 0.059721783 0.56515497 -0.024584765 -0.056259517 0.013977707 -0.2843982 -0.39912945 0.053656884 0.364943 -0.10920256 -0.49079505 -0.50223595 -0.0074781696 -0.13849775 -1.1544781 0.30878833 -0.100880735 0.22505388 -0.102091976 -0.060126822 -0.048227772 -0.25298265 -0.5920126 0.32683676 -0.29001075 -0.24798623 -0.2804014
1782 0.23485096 -0.15582675 0.10559548 0.23930888 -0.43288237 0.05691286 -0.12403694 -0.0928906 -0.225968 -0.19223863 -0.16440405 -0.1311691 0.39592823 -0.41423348 -0.14505245 -0.2214848 -0.3810753 -0.08378153 0.12714206 -0.065295056 0.17665404 0.22797528 0.32922813 0.12552056 -0.113858715 0.40942922 0.29946578 0.42013517 0.009429792 -0.00084376486 -0.90768147 0.14457458 -0.38206404 0.4797907 0.014686993 -0.20748226 0.13415939 0.008506177 0.49843875 -0.18162808 0.005275063 -0.020511184 -0.22947146 -0.2081385 -0.27126762 0.24147737 -0.12981193 0.022758778 -0.2825853 -0.107537344 0.017099112 -0.29633385 0.3477888 -0.21644501 -0.010940404 -0.46765098 -0.12434094 -0.0847884 -0.19848341 -0.33039087 0.34891695 -0.17733052 0.02039369 -0.22203596 -0.14259075 -0.077367246 -0.67097527 0.072694756 0.1961554 0.018256163 0.108552046 0.21835437 -0.0029830919 -0.115668125 -0.12236247 0.21987353 -0.21934988 -0.3383145 0.18244128 0.09447581 0.10129849 0.07833524 0.19771487 -0.24111551 -0.2076242 0.15675946 0.40539974 0.11285455 0.39663655 0.05058447 -0.25120467 -0.7177465 -0.16262779 0.16267288 0.085744664 -0.21258798 0.35327342 0.28940958 -0.14541784 -0.087517254 0.041918997 0.22590107 0.41438904 0.5070208 -0.031403095 -0.25803944 -0.23017898 -0.47172058 0.09810966 0.34245515 -0.024792241 -0.46638927 -0.1890497 -0.010913261 -0.17147171 -0.93671805 -0.022084568 -0.17155845 0.13718602 0.071218856 -0.2871027 0.13765053 -0.14426917 -0.25293273 0.28334665 -0.14183944 -0.08159271 0.04179071
1723 0.18123986 -0.22621614 0.27619493 -0.058982335 -0.45694402 -0.08116601 -0.16935143 0.03864591 -0.063380726 -0.03140645 -0.15135613 -0.26352596 0.23314041 -0.26952636 -0.28408358 -0.067433946 0.033778675 -0.09180977 0.1846486 0.028792856 -0.087431334 0.09474941 0.0966123 0.050339144 -0.21343854 0.2294181 0.20100982 0.40032813 -0.16028579 0.2568593 -0.68120646 0.26352388 -0.51106787 0.34931952 0.44554406 -0.065879025 0.25184155 -0.29115725 0.28924856 -0.12674792 0.05852568 0.04008206 0.3164485 -0.15342171 -0.30812958 0.23021567 -0.0566217 -0.133851 -0.32195258 0.11312052 -0.21832262 -0.13116379 -0.037493438 -0.2273482 -0.14369386 -0.1924122 0.052991834 0.04508814 -0.15913387 -0.0797842 0.28660944 0.20705341 0.12904948 -0.35074005 -0.035139408 -0.14714584 -0.33728316 -0.015748832 0.36475047 0.20192298 0.29373154 0.19159405 0.08932086 -0.38954407 0.26932633 0.56375617 -0.23220718 -0.110325076 0.25026304 0.09558446 0.1694268 0.2913159 0.38578972 -0.2646116 -0.17689483 0.17604125 0.43817645 0.09572508 0.55975217 -0.0009946579 -0.13804533 -0.4749123 -0.13480088 0.036698837 0.19619769 -0.16371533 0.18284531 0.47492504 -0.2357795 -0.19928464 0.11458453 -0.12978224 0.47972575 0.09914444 0.11700984 0.10440215 -0.2804314 -0.3107337 0.36362526 0.24689631 -0.0016955513 -0.32211128 -0.40868488 -0.05012271 0.18695503 -0.85597587 0.29544774 0.18171433 0.23261711 -0.08181482 -0.27555788 0.103468925 -0.23739535 -0.5452081 0.37336984 -0.21213089 -0.21217248 -0.24014527
0 0.19412811 -0.19177645 -0.1407475 -0.022438612 -0.51502377 0.066743344 -0.06997446 0.17328186 0.21295583 0.15966716 -0.12791337 -0.35469744 -0.11900836 -0.19672255 -0.41737252 0.09485096 -0.25400567 -0.022212643 0.047112513 -0.12657936 0.042767536 0.14739715 0.22161673 -0.12207112 -0.047875382 0.51910883 0.122042164 0.06322748 -0.054096255 0.028731206 -0.42569068 -0.059061006 -0.88697076 0.5190365 -0.032125313 0.16323946 -0.124192804 -0.36456132 -0.10936187 -0.37206867 0.12002423 -0.13968095 0.25484335 -0.38356766 -0.62468255 0.1556174 0.11116342 0.1285052 -0.20926991 -0.2097001 0.2204892 -0.1558539 0.3249104 -0.3869344 -0.00824997 -0.30487895 -0.29122046 -0.1119673 -0.5843064 -0.21542807 0.5554102 -0.21943638 0.3431456 -0.54464126 -0.1231529 -0.11663262 0.006878734 -0.015961198 0.14708348 0.3063211 0.05781655 -0.17479745 -0.15424539 -0.16174461 0.07280567 0.15195362 -0.27148214 -0.03300955 0.35413054 0.04106772 0.14847551 0.2737857 0.28019387 -0.20700872 -0.12233478 0.28241438 0.23143503 0.35166314 0.395598 -0.1473123 -0.042147696 -0.7487759 -0.33184347 -0.04471959 0.04698668 -0.090811975 0.22092387 0.3205378 -0.023141261 -0.22707888 0.119601436 0.117723055 0.51992023 0.14154287 0.15829167 -0.02093587 -0.5730393 -0.15027118 0.15718429 0.30723485 0.0117852 -0.5386265 -0.44052988 0.070336625 -0.33713567 -0.7741184 0.34940487 -0.18248782 0.15344249 0.09794901 -0.01999698 0.24244912 -0.29535183 -0.65982884 0.09644609 -0.08610891 -0.04628343 -0.09463392
1245 0.34171113 0.1049088 -0.054600976 -0.047977965 -0.4758195 0.03488706 0.06644969 -0.02382771 -0.059265938 -0.25091156 -0.50442624 0.028398735 0.2721646 -0.1283136 -0.17800167 -0.091857694 -0.20107241 -0.0021411104 -0.15190183 0.02250585 -0.10358817 0.15317008 0.30599904 0.047544055 -0.19564342 0.36645943 0.46793762 0.36238685 -0.38959354 0.14999375 -0.60296726 -0.11467784 -0.4550955 0.35423532 -0.103714466 -0.10801244 0.10137658 -0.3375686 0.04560024 -0.30544478 -0.020992229 0.03231097 -0.063762605 -0.13873915 -0.1994619 0.08672269 -0.13659611 0.0916545 -0.3651986 -0.27318826 -0.043204598 -0.119206324 0.2784914 -0.29669333 -0.074654765 -0.2790757 -0.12421911 -0.0030659295 -0.33670563 0.01781066 0.706367 -0.17588802 0.026381424 -0.13469021 0.22312704 -0.24424799 -0.31289864 -0.11637085 0.28050208 0.11701749 0.05787508 0.116869085 0.05923425 -0.08487376 0.00927611 0.27285263 -0.061791923 -0.5756753 0.5736048 0.04247094 0.007535902 -0.024952406 0.08174748 -0.49529526 -0.21482001 0.17730576 0.62288666 0.110983625 0.48384157 -0.27520826 -0.21660158 -0.6114641 -0.37940854 -0.20686342 0.40133867 -0.37856796 -0.00016599306 0.43894297 0.09424412 -0.0214781 -0.1125858 0.115418255 0.4402034 0.0049539264 -0.12303998 0.0876303 -0.46805722 -0.68740267 0.06379407 0.32495916 -0.08553143 -0.473629 -0.39918992 -0.058104414 0.14320932 -0.86239123 -0.013022026 0.16487402 0.10912207 -0.09494788 -0.21950388 0.0498805 0.14571401 -0.4033973 0.31061682 -0.14241415 -0.053188715 0.16699168
1331 0.29412356 -0.023939934 0.17943655 0.12101611 -0.73517585 0.19345136 -0.11860722 -0.27755237 -0.26809472 -0.2691536 -0.27727425 0.12817442 0.30474517 -0.36616522 -0.4270853 -0.12283664 -0.073146015 -0.10753829 0.045909148 -0.19214976 -0.029607821 0.11887581 0.37312675 -0.03790782 -0.19957107 0.2253648 0.22455087 0.26932496 -0.1206604 0.032288633 -0.53456724 -0.07340771 -0.3634962 0.5181744 -0.32244438 -0.089882106 0.28982252 -0.15734103 0.31596422 -0.41900784 -0.12834354 -0.08594302 -0.10257988 -0.013884213 -0.2720385 0.071963765 -0.33058453 0.06313529 -0.22189613 -0.21415979 0.008954514 -0.45022914 0.07409991 -0.17726754 0.024764024 -0.2685023 -0.0964841 -0.0032208497 -0.5945026 -0.1429962 0.36689135 -0.18349318 -0.058389958 -0.28909883 0.17855066 -0.2868416 -0.5082068 0.10986368 0.27688304 0.05656245 0.11714176 -0.0350065 0.115862794 -0.23116589 -0.16815872 0.15220425 -0.03891153 -0.33792853 0.38481265 0.02890114 0.2680405 -0.08115567 0.3896848 -0.2324551 -0.1330796 0.21085867 0.4911523 0.076249644 0.29509243 -0.039302357 -0.41800565 -0.52211064 -0.28453764 0.022126248 0.083155416 -0.2305101 0.22125798 0.36391437 -0.08641876 -0.04311685 0.038389932 0.16894226 0.16193324 0.03624919 0.005576717 -0.18050103 -0.37694094 -0.4781474 0.02681778 0.24077322 0.043595806 -0.27545884 -0.40933162 -0.09515026 -0.0028077704 -0.65188354 0.14749433 -0.08283667 0.002555357 0.09732917 -0.38848042 0.13482378 -0.2516659 -0.53641313 0.4634573 -0.31084034 -0.33834526 0.12415526
1674 0.3558619 -0.10870116 0.018608468 -0.06334315 -0.5286233 0.14120044 -0.0050970768 -0.09329532 0.08401825 -0.11600285 -0.24294478 -0.2238672 0.11734107 -0.35766858 -0.42433083 -0.10627171 -0.2798294 -0.22384048 0.16613826 0.05653426 0.08016808 0.017842349 0.21192765 -0.043969236 -0.019845178 0.3446697 0.11846264 0.19135155 -0.09165007 -0.06883533 -0.55412686 0.13634187 -0.4502525 0.48561907 0.035712067 0.011758219 0.28406826 -0.36824146 0.21332933 -0.41764423 -0.0096955 -0.07585256 0.12275607 -0.312441 -0.40858546 0.14453259 -0.05300675 0.03677366 -0.3488741 -0.05314479 0.011366606 -0.1353277 0.06091679 -0.35898113 -0.043108042 -0.18354332 -0.10620008 -0.008286892 -0.37618136 -0.3506855 0.56427896 -0.05671361 0.08403892 -0.39765972 -0.09919624 -0.31327966 -0.22018719 0.05718839 0.4322856 0.2394937 0.059007935 0.031621616 0.19836797 -0.2909511 -0.12848479 0.33781388 -0.22051656 -0.25946113 0.38535708 0.07110792 0.05968126 0.19678643 0.5138629 -0.176138 -0.15163338 0.016269788 0.505058 0.14646709 0.5197508 0.026316902 0.08420283 -0.69513845 -0.3809424 -0.04286051 0.09563116 -0.38104296 0.25649464 0.33741665 -0.07880813 -0.17557341 -0.1363426 0.14364737 0.32263353 0.09198641 0.018800395 -0.03111998 -0.31683907 -0.42065567 0.20302235 0.16032183 0.14199872 -0.5040673 -0.52649075 -0.047094904 -0.4757682 -0.6791064 0.14593308 -0.018884702 0.20433156 0.034728725 -0.23236732 0.2212773 -0.14074087 -0.50256443 0.2472225 0.024999542 -0.20383216 -0.052360788
502 0.3198404 -0.087126404 0.054442752 0.19727057 -0.5656595 -0.21748048 0.010756373 0.058361955 -0.17893802 -0.20361818 -0.29864 -0.20704171 0.3193339 -0.52474695 -0.5460865 0.028854657 -0.3094213 -0.2135174 0.018422036 -0.215702 -0.0649335 0.27818325 0.16850401 -0.0018670071 -0.4237111 0.66100657 0.040261168 0.30508912 -0.33995298 0.0391422 -0.5206717 0.09252248 -0.58026755 0.48483297 0.008340454 0.12870748 0.5726798 -0.03972581 0.19807835 -0.015613307 -0.008904763 -0.1606716 0.14395477 -0.2868085 -0.3196484 0.052715335 -0.009535242 -0.21312185 -0.63148826 0.029046318 -0.23972192 -0.24051954 0.21509272 -0.3105933 -0.00830953 -0.43042958 -0.18704347 -0.09829864 -0.096316904 -0.19533087 0.3432435 -0.016103031 -0.11672634 -0.35237095 0.038337056 -0.5161009 -0.36467052 -0.00875623 0.30660847 0.17187749 0.25684336 0.23070654 0.11115125 -0.33408594 -0.15253142 0.20335214 -0.22144961 -0.31514812 0.28370652 0.055753883 -0.06442247 0.24286689 0.33293277 -0.12490351 -0.13516408 0.17325792 0.014321942 0.16378576 0.36578816 0.20192781 -0.04739566 -0.5915514 -0.47613364 -0.1388771 -0.012778309 -0.1593772 0.18066984 0.56736666 -0.17906572 -0.33113226 -0.15537053 0.12725607 0.3261251 0.2729944 0.11518838 0.1315069 -0.029861214 -0.40464357 0.13246362 0.06261023 -0.050672717 -0.354536 -0.29196188 0.029433692 -0.1274411 -0.7544628 0.3708671 0.091547094 0.40880013 0.12573442 -0.11716547 0.037902765 0.15723856 -0.33351338 0.26620856 -0.015105158 -0.013886152 0.11854586
1795 0.12502453 -0.3062295 0.08371449 -0.06290379 -0.53193927 -0.060559448 0.077511385 -0.08510786 0.062225506 -0.18056959 -0.2219351 -0.17193803 0.23269288 -0.119665146 -0.2694983 -0.15708534 -0.31805965 -0.07333919 -0.014313082 0.26792553 0.07893656 0.07599771 0.18772593 -0.17388861 0.06524469 0.44966227 0.17081064 0.23089121 -0.19467762 0.22696644 -0.5793867 0.085746355 -0.5608162 0.23907663 0.20333338 -0.15391774 -0.098953225 -0.4170709 0.19736534 0.056510326 0.14068729 0.09510456 0.5043234 -0.26614988 -0.089277826 0.07114804 0.018849375 -0.3022625 -0.22331326 -0.0488612 -0.0014972566 -0.028684177 -0.021167612 -0.2014768 -0.18208855 -0.20628603 -0.3315083 -0.06376183 -0.47621882 -0.0012708971 0.68732715 -0.21935101 0.1308527 -0.2637789 -0.16795407 -0.20089823 -0.18488689 -0.21967956 0.13417594 0.28014636 0.19169353 0.06950116 -0.027379612 -0.28181285 0.013512609 0.28075865 0.04066973 -0.40751368 0.4579727 0.24208659 -0.2078781 0.22816925 0.21503323 -0.29180783 -0.023728887 0.17412634 0.4759966 0.12814575 0.45053732 -0.016348707 -0.047925655 -0.6356539 -0.19585538 -0.06312467 -0.039276153 -0.6020708 0.41047835 0.5665168 0.1031228 -0.21043305 -0.024282208 0.08660024 0.6044781 -0.13204378 0.016388975 -0.03353211 -0.24581152 -0.57531613 0.09918434 0.26739305 0.09778422 -0.6833836 -0.38126963 -0.11763316 0.12121039 -0.7779204 0.20320581 0.106020026 -0.10103122 -0.23652717 -0.15400223 0.08018214 -0.22260411 -0.4313587 0.5419341 0.017511208 -0.11682663 -0.15771157
846 0.4900537 0.10042243 -0.1163703 -0.123486236 -0.3559527 0.04749373 -0.050432425 -0.13833927 0.25895113 -0.20761286 -0.24550565 -0.29181558 0.27317038 -0.25917515 -0.3129179 -0.20057727 -0.23674922 -0.32872024 0.010688464 -0.26434967 -0.11588 0.070123576 0.1513399 -0.2280827 0.027021177 0.44235873 0.16738674 0.38322917 0.005390283 0.09739859 -0.36071977 0.27143678 -0.6705437 0.3778108 0.008251518 0.13724762 0.14560352 -0.41593263 0.102991134 -0.48640448 -0.019256892 -0.038331248 0.13926488 -0.38985184 -0.33368915 0.35526794 0.0058987355 0.040287394 -0.32348135 -0.04351248 0.015162828 -0.3254922 0.37196472 -0.46088085 0.048651822 -0.24656327 0.12446323 -0.002796108 -0.1879547 -0.12833941 0.29949746 -0.0747754 0.16008887 -0.5369468 -0.19093594 -0.09306674 0.0879763 -0.15775207 0.6813417 0.29102507 0.064766884 0.042809818 -0.016403822 -0.36385435 -0.16302714 0.40484297 -0.31338745 -0.23224688 0.42726308 0.03864289 0.1956861 0.0757034 0.23398198 -0.45249605 -0.07634662 -0.18427381 0.49837568 0.022247434 0.5243099 -0.0017696678 -0.2877301 -0.7657357 -0.17361131 0.14225128 0.3599529 -0.26844183 0.44716498 0.3345019 -0.07514536 -0.2783457 -0.1651249 0.20692645 0.41864708 0.10281628 0.15297335 -0.32725322 -0.5572983 -0.2942 0.22819224 0.29219666 -0.0631292 -0.5236182 -0.566663 -0.29993665 -0.38449904 -0.7632178 0.16044238 -0.031105336 0.37402144 0.19619727 -0.30062225 0.16530964 -0.21841826 -0.33515245 0.47841138 -0.11496465 -0.37166 -0.10554118
1312 0.2582453 0.08365773 0.039888017 -0.25362077 -0.6385472 0.27170822 0.18265028 -0.27490515 0.003691672 -0.26843834 -0.4182624 -0.13762873 0.45361733 -0.49079108 -0.52177554 -0.19488117 0.0036441013 0.056681752 0.04231 -0.01750065 0.13690759 0.1377741 0.32528913 -0.07871448 -0.331652 0.37885532 0.21047539 0.36389297 -0.08678182 -0.014225348 -0.6036722 0.09571617 -0.42232606 0.4310809 -0.100733235 0.097122006 0.12440839 -0.257319 0.30080685 -0.21628453 0.078089334 -0.018154282 -0.09334734 -0.14687067 -0.34504294 0.22054265 -0.18550742 0.024740519 -0.43090805 -0.17378251 0.039715677 -0.43907762 0.018678546 -0.45260406 -0.01275018 -0.103291795 -0.14891279 0.1745525 -0.52725685 -0.035133224 0.3258732 -0.08773557 -0.2101556 -0.4217435 0.10556403 -0.11737528 -0.09690518 0.066121005 0.5393424 0.17673245 0.24449697 -0.023112193 0.3465518 -0.2742 -0.06332097 0.28523695 -0.07121829 -0.4503748 0.26996952 -0.20007825 0.27338952 -0.055639457 0.30536315 -0.41529334 0.20176506 0.020188361 0.49250072 0.027516609 0.24694982 -0.07023652 -0.29774413 -0.6182685 -0.18543111 -0.00089720846 0.027118964 -0.54354864 0.11953678 0.51278335 -0.12514363 -0.23671168 -0.16853155 -0.039035603 0.29395524 -0.13322334 -0.3002432 -0.08745501 -0.5813594 -0.51790065 0.08373438 0.25275075 0.10200439 -0.48158702 -0.40184245 -0.16461305 -0.16668916 -0.7354359 0.14359789 0.04117062 0.028282648 0.036422472 -0.49993628 0.04780732 -0.17624274 -0.35752925 0.30663452 -0.20858696 -0.16331768 0.061521333
1791 0.41621596 -0.039432697 0.23356609 0.073852785 -0.6030448 0.04314422 0.24008323 -0.42632413 0.046320774 0.03109566 -0.005775841 -0.20196804 0.21447445 -0.63565046 -0.46562153 -0.2917364 -0.31901288 0.14091595 -0.13167611 -0.031607013 0.090773754 0.3460444 0.083389185 0.036943097 -0.10517835 0.688844 0.3340649 0.43788075 -0.20167401 0.07128889 -0.5948189 -0.024052808 -0.5334184 -0.063706495 0.18575643 -0.059991777 0.018894132 -0.2409107 0.22351852 -0.10010543 0.2819529 0.08352432 -0.18715893 -0.22785857 -0.2054216 0.26207358 -0.24054243 -0.17608024 -0.42455015 -0.015249502 0.17774865 -0.2894604 0.008880859 -0.17740406 0.05719737 -0.15620734 -0.06685218 0.05835605 -0.09938961 -0.23178832 0.3351179 -0.16603658 0.20029764 -0.32929102 0.046505682 0.1684177 -0.25413078 -0.05259792 0.02570279 0.29305744 0.5404369 0.16650647 0.14966509 -0.3277143 0.042390037 0.32272968 -0.12121637 -0.12792368 0.19444568 -0.13307525 -0.045149926 0.28722057 0.24451737 -0.31649122 -0.14285171 0.0904585 0.11707318 0.013006965 0.34521765 -0.00024359573 -0.16786519 -0.5750875 -0.30001867 -0.11199938 0.36245185 -0.27240747 0.38625422 0.58730984 0.062668666 -0.273895 0.049987648 0.3134363 0.60624564 -0.09731527 0.022695906 0.1120011 -0.23453662 -0.2858103 -0.059480816 0.4893465 0.03194641 -0.5071131 -0.17428346 0.098928146 -0.1736939 -1.0629364 0.31386924 -0.04925131 0.5067665 -0.16530176 0.04637254 -0.15361367 -0.2030388 -0.467431 0.3660842 -0.3021571 0.030479297 -0.11226016
1780 0.27513424 -0.06924163 -0.02562986 0.02981501 -0.4555171 0.091467045 -0.009491443 -0.2384794 -0.17348655 -0.2509718 -0.09233602 0.10914524 0.2639139 -0.28261834 -0.32672843 -0.054886803 -0.32072616 0.02978755 0.13145234 -0.08623604 0.10216187 0.06866504 0.23649429 -0.08007364 -0.08335364 0.24376045 0.2566305 0.2604147 -0.12812549 -0.063779116 -0.6331262 -0.13370402 -0.2835547 0.5122119 -0.06422814 -0.16604212 0.1841565 0.051900834 0.29047567 -0.11684251 -0.06708321 0.0016033091 -0.16254342 -0.1998889 -0.17437883 0.13139717 -0.09031973 -0.11786347 -0.20026378 -0.039159365 -0.012364681 -0.28909603 0.061951596 -0.24626283 -0.17149968 -0.1171972 0.006819598 -0.0030103798 -0.48440194 -0.24899644 0.40043756 -0.11074878 -0.06968445 -0.18337797 0.07435657 -0.27357325 -0.5022789 0.15357113 0.33393827 0.1959144 0.075634725 0.109367974 0.1421453 -0.261617 -0.10648248 0.27180067 -0.08114752 -0.36678752 0.27727094 0.07310088 0.13675563 0.2023805 0.43490633 -0.3387712 -0.08986152 0.18196249 0.60373086 0.2671832 0.4080267 0.0384434 -0.1733106 -0.71877694 -0.27664724 0.096386515 -0.13464248 -0.4887182 0.21562196 0.41722804 0.04994399 -0.0789498 -0.24203594 0.038035497 0.32424894 0.09386452 -0.023955256 -0.04859218 -0.35456756 -0.6265142 0.103282355 0.22664167 0.075007185 -0.43134797 -0.34862337 0.10459027 -0.1941806 -0.8591364 0.03676576 -0.016791131 0.023657449 0.06034676 -0.3043549 0.23238505 -0.079321645 -0.53986037 0.3487664 -0.28099456 -0.2337279 0.16811597
2 0.12698601 -0.2557283 -0.10652421 0.07065635 -0.83193123 0.029389845 0.008996912 0.15481403 0.035497226 0.16104262 0.0042119566 -0.3177462 -0.07069199 -0.28912365 -0.46714583 0.0054237093 -0.2116611 -0.11044858 0.024086164 -0.20910285 0.0033109253 0.2702114 0.2033239 -0.2135373 -0.16062804 0.38802966 0.0020872601 -0.0812221 -0.18084025 0.14388816 -0.37241152 -0.27033886 -0.66906977 0.48967373 0.05691771 0.26509216 -0.051768646 -0.33463332 -0.14618868 -0.21001671 0.046319306 -0.09404656 0.23207802 -0.44455922 -0.61503166 -0.0397456 0.073243976 0.27970713 -0.18541859 -0.14051889 0.29017058 -0.11245069 0.32098135 -0.2672996 0.0525355 -0.27718136 -0.51066947 -0.05790367 -0.4074034 -0.33971068 0.55803066 -0.16978541 0.24855566 -0.5830592 0.07475867 -0.21562326 0.04092411 -0.16678162 0.07793182 0.30403426 -0.05996052 -0.14634062 -0.018784557 -0.058581315 0.020300014 0.048738018 -0.23032255 -0.028225595 0.4497908 -0.12223468 -0.097190164 0.448853 0.44958365 -0.35390285 -0.11679055 0.42219666 0.2773191 0.2719281 0.34062985 -0.017129079 0.026552979 -0.585804 -0.20711945 -0.07524387 -0.034965463 -0.25449207 0.116056815 0.44110247 -0.0062660016 -0.13839024 0.11656104 -0.02245443 0.40424138 0.039253775 0.27590987 -0.07085218 -0.44467765 -0.1597482 0.22016458 0.39777705 0.101202525 -0.5575303 -0.3081014 0.045187864 -0.4762661 -0.8606112 0.47261027 -0.18734683 0.19264817 0.21228245 0.1616783 0.46768352 -0.23261371 -0.69386685 0.09178676 -0.042394042 0.048189886 0.08217356
1785 0.17457846 0.0352731 0.176441 -0.10705692 -0.5013385 -0.05929714 0.049422078 -0.16283505 -0.00068948814 -0.0893703 -0.032928303 -0.48415914 0.29935312 -0.49764097 -0.5020016 -0.11014261 -0.01731816 -0.15013193 0.11857949 -0.27523232 0.12047521 0.21140221 0.10438387 0.012738507 -0.24960896 0.54208446 0.43806985 0.33626604 -0.1239767 0.12211555 -0.6725241 0.09183303 -0.8781645 0.28741303 0.09846844 -0.046508368 0.2765638 -0.10636253 0.23651746 -0.3283603 0.11314247 -0.24371214 0.25958708 -0.14900373 -0.21643782 0.45910075 0.08574985 -0.055572726 -0.6760326 -0.056241367 -0.20633371 -0.09046329 0.062197603 -0.22060494 -0.102701545 -0.4117684 -0.11034883 -0.21279265 -0.17894559 -0.07709478 0.1372332 -0.27571908 -0.02965772 -0.54016095 0.15132661 -0.07045575 0.030832915 -0.13109627 0.35459262 0.40331563 0.21133058 -0.02120515 -0.016000295 -0.52833587 0.19126147 0.27965486 -0.30413616 -0.16395417 0.31236652 0.46902218 0.26826614 0.13459413 0.32261583 -0.43780503 -0.22664317 -0.057264492 0.35117278 -0.05079577 0.46090713 0.10211763 -0.1520585 -0.60557586 -0.06806272 0.13192394 0.03576471 -0.45540228 0.38103837 0.44447613 -0.04653857 -0.223289 -0.17060226 0.1599313 0.41779256 -0.061827537 0.24553555 -0.10170633 -0.2078885 -0.17618187 0.17351504 0.3787119 0.23937513 -0.36329204 -0.26019365 -0.107667536 0.10533203 -0.43239176 0.32030958 -0.051656995 0.5639286 -0.17205599 -0.18820381 0.31473622 0.0079267705 -0.6079804 0.25735608 -0.10772314 -0.185313 -0.25239965
482 0.26079082 -0.16439736 0.04968181 0.071015716 -0.51306903 -0.23980287 -0.0065211216 0.16094817 -0.19341542 -0.184206 -0.4493631 -0.20420328 0.27712515 -0.48625028 -0.44916046 -0.0967366 0.03607559 -0.19935073 0.015619742 -0.001922818 -0.09263583 0.209378 -0.04200188 -0.0034067268 -0.40621755 0.5819511 0.077379525 0.3984744 -0.3005519 0.16703247 -0.5306571 0.14657922 -0.4961105 0.39142105 0.1255021 0.040188864 0.43370393 -0.31869793 0.042196132 -0.028004434 -0.023078881 -0.1271853 0.32602125 -0.21379729 -0.2902198 0.061331406 0.0387912 -0.13810138 -0.59623504 -0.0523445 -0.33778673 -0.18888651 0.10139209 -0.33313587 0.03029234 -0.42709512 -0.17111008 -0.03315204 -0.15199424 -0.01728534 0.4768495 0.08666846 -0.06835079 -0.4531537 0.055060826 -0.35922635 -0.35279524 0.022316944 0.25869676 0.14222875 0.35165766 0.33816528 0.19115026 -0.25906757 0.03508559 0.21698774 -0.16191089 -0.3857046 0.27324706 -0.013578327 -0.041270155 0.17578606 0.2130213 -0.09572875 -0.07514184 0.09420383 0.124759816 0.15706618 0.43767887 0.18468164 -0.12522016 -0.54977125 -0.43679985 -0.19013117 0.09671557 -0.15643336 0.04973745 0.53539705 -0.20767707 -0.18259685 -0.18251783 0.018005557 0.38368103 0.16372661 0.07043169 0.16984904 -0.049130954 -0.45176238 0.07078592 0.18485953 0.06720777 -0.27822897 -0.3607687 -0.008394983 0.17599572 -0.8031109 0.31400096 0.08278846 0.25885463 0.10420755 -0.21343379 0.006409315 0.19502324 -0.28408945 0.29582492 -0.07129468 0.08010353 -0.010457996
1284 0.19734691 0.06453378 0.29050064 -0.0028502836 -0.47494918 0.06697916 0.20007674 -0.13246247 -0.038903885 -0.05390259 -0.22268164 -0.15711276 0.011877189 -0.38855863 -0.48926547 -0.30039942 -0.14935562 0.2311537 -0.12558848 0.073279515 0.07008047 0.21107744 -0.010740173 0.0053753303 0.07672954 0.4430345 0.3420725 0.27479696 -0.11306134 -0.16903391 -0.70421964 0.1408166 -0.7376973 -0.06588831 0.3099873 -0.1363781 0.17014113 -0.41672856 0.1658355 -0.3415806 0.10493741 0.043370433 0.20254791 -0.44523773 -0.38995555 0.18410876 -0.27561122 -0.11785486 -0.27907443 -0.01880878 0.011825464 -0.39412326 0.030891072 -0.2533847 -0.20932928 -0.26662558 -0.10723205 0.34141332 -0.115035765 -0.037347846 0.73715645 -0.15711825 0.07217534 -0.48348027 -0.050819423 0.06449056 -0.18731782 0.040739503 0.33636928 0.015057429 0.35391083 0.06015092 0.2507119 -0.33968705 0.099065036 0.35791948 -0.07688673 -0.33119076 0.08465179 -0.15003654 0.04940536 0.041637704 0.38008702 -0.3227786 0.15085025 -0.012697331 0.24791823 0.22305137 0.5828389 0.111425266 -0.17507198 -0.677063 -0.4149211 -0.124913454 0.29768896 -0.22656013 0.28264406 0.5552841 -0.04091353 -0.20721014 -0.039450306 0.23624063 0.6556519 0.054325473 0.022612933 -0.08250272 -0.30881745 -0.2826007 0.19067414 0.18070573 -0.06575759 -0.18262105 -0.4797188 -0.11085261 -0.134778 -0.94034535 0.27331433 -0.14975257 0.24034297 -0.007957524 -0.14915949 0.046032287 -0.12609929 -0.2930746 0.41008762 -0.16607547 0.04704118 -0.16329941
18 0.24833651 0.33565995 0.17295356 -0.042100314 -0.2878117 0.1019892 0.16442855 -0.045760203 0.010870181 0.043486156 -0.5403224 0.04768965 0.31440753 -0.475507 -0.32963386 -0.1832523 0.040997412 -0.07033572 -0.1488996 -0.12521814 0.04038371 0.07530021 0.25170234 0.15267569 -0.3834157 0.21669824 0.16898842 0.2507598 -0.16642386 -0.13116579 -0.562656 0.16667834 -0.55721253 0.4768755 0.1130178 0.07506397 0.117638804 -0.19368175 0.19262114 -0.27728188 -0.07037784 -0.016953591 0.011254286 0.13152453 -0.5247143 0.119775586 -0.32389644 -0.0011292079 -0.5046304 -0.25660866 -0.2370396 -0.20121504 0.050519608 -0.157645 0.07334913 -0.22856987 0.11430406 0.20926595 -0.48332563 -0.0075142942 0.31907356 0.049051158 -0.095960714 -0.24925004 0.10602477 -0.18064806 -0.36720505 0.24822208 0.49339435 0.39405364 -0.022189965 -0.017685818 -0.0071571246 -0.23659828 0.06416815 0.41932547 -0.19520368 -0.5193756 0.5800259 -0.05476403 -0.034234047 -0.02639762 0.2405148 -0.3840088 -0.101937264 0.12286048 0.5570651 -0.051971044 0.4008921 -0.3270103 -0.2845897 -0.3699322 -0.29279122 -0.16845873 0.19034293 -0.14320885 0.26244986 0.40796357 -0.13583449 -0.27292565 0.011817535 0.13003933 0.48328894 -0.057601545 -0.18446036 -0.09280236 -0.4621137 -0.49823314 0.14695926 0.22536805 -0.089582324 -0.34658316 -0.4448226 -0.14580637 0.00014007816 -0.77830034 0.050517015 -0.13431142 -0.07671692 -0.057697136 -0.37196448 -0.021412611 -0.24830101 -0.38400882 0.2742225 -0.13635305 -0.12468589 0.16494845
1788 0.504498 -0.13010265 0.13305661 -0.010698247 -0.4454191 0.1542534 0.039269935 -0.10608198 -0.12363983 -0.15204214 -0.11514476 -0.14189008 -0.0027237742 -0.48452726 -0.3462297 0.018868415 -0.11080571 -0.04757087 -0.07170378 0.28137887 -0.08788945 0.16585042 0.115516506 0.07530008 -0.13165694 0.13972849 -0.04749352 0.024321996 -0.2756399 0.32656154 -0.6745464 0.058471814 -0.51829845 0.27310473 0.16071102 -0.21095417 -0.011398255 0.003258864 0.37891555 -0.11796315 0.14461309 0.17513782 0.34177068 -0.041826043 -0.40389964 0.062741145 -0.06696953 -0.21072139 -0.37417576 -0.07671047 -0.10121995 0.08018928 0.05104312 -0.32320628 -0.25331262 -0.34959212 -0.16309318 0.09252794 -0.28148317 -0.14322948 0.6440804 -0.08641379 -0.036376994 -0.26051024 -0.086908996 0.0041972944 -0.23822068 0.15079573 0.11636384 0.1842939 0.30282176 0.20862366 -0.012739895 -0.22449288 0.07205847 0.67220956 -0.14031573 -0.10642794 0.24446878 -0.07603525 0.16169728 0.007335323 0.38510755 -0.18382041 -0.1747824 0.17237037 0.31631622 0.21376939 0.6252403 -0.12167001 0.0738402 -0.6650322 -0.32040218 -0.08407355 0.14736453 -0.23427124 0.15217996 0.43415284 0.010933712 -0.29298788 0.14113136 0.07735791 0.47535405 0.2166208 0.2068093 -0.060957443 -0.19492891 -0.36461675 0.044936873 0.49604464 0.014663692 -0.43935332 -0.30933368 -0.1280748 -0.009813539 -1.0133406 0.12169003 -0.22734256 0.17414942 -0.2271662 -0.2285044 -0.050148744 -0.18801118 -0.5796956 0.3293763 -0.079805315 -0.16461682 -0.22668555
1541 0.3406918 0.1750157 0.010080985 0.055069204 -0.348867 -0.14228567 -0.03745221 0.00788517 -0.068976626 -0.13161787 -0.53678393 -0.12439756 0.21856664 -0.16687796 -0.34300256 -0.1127673 -0.0764597 -0.015298417 -0.048182737 0.009863709 -0.15780489 0.16238174 0.38118413 0.023226473 -0.13237911 0.33698758 0.4067497 0.15713973 -0.26409099 0.18785526 -0.39194912 -0.019362811 -0.5405431 0.37400943 -0.027810803 -0.032682523 0.040794373 -0.27607974 0.05088608 -0.32853553 0.033880625 0.12552212 -0.03963737 -0.023762686 -0.23051701 0.04445862 -0.24164814 -0.01305243 -0.44026914 -0.2690675 -0.10532286 -0.10461908 0.17430457 -0.30841932 0.0010483576 -0.32849556 -0.10898174 -0.08174528 -0.22301194 -0.0587192 0.6098396 -0.10492694 0.017235644 -0.13230583 0.1696851 -0.34382853 -0.33135974 -0.18412663 0.29656008 0.11377698 0.061642446 0.1362158 0.061272737 -0.15872222 -0.0006817454 0.30943367 -0.025672995 -0.5030031 0.6435466 0.07725793 0.09235208 0.024389548 0.16926986 -0.32782653 -0.32567912 -0.05647158 0.4996702 0.12783805 0.48431757 -0.16462266 -0.3701303 -0.62170315 -0.3133874 -0.22670299 0.39569205 -0.2880773 0.14886586 0.30645 0.19218673 -0.22417821 -0.08298444 0.12811412 0.41302738 -0.046954833 0.17012724 0.002204657 -0.44106457 -0.7269648 -0.08298048 0.3674004 -0.056420796 -0.5056164 -0.63243157 -0.0071943873 -0.071960874 -0.8720785 0.034070037 0.09930036 0.24638991 -0.09565525 -0.14228708 -0.06301254 -0.006577699 -0.53212786 0.30115438 -0.14048156 -0.08055 0.2916313
1685 0.14639154 -0.29854733 0.014000913 -0.095569715 -0.5364619 -0.17763215 0.083966084 0.07491989 0.20421739 -0.0074038343 -0.24405195 -0.14831148 0.1504554 -0.72540027 -0.4882854 0.03309662 -0.25722036 0.06836174 -0.27888587 -0.017404148 0.11240336 0.0017284037 0.017639646 0.030602707 0.06712368 0.5614958 0.13327853 0.21265501 -0.081370175 0.052767072 -0.5578553 -0.14558467 -0.5535352 0.48892233 0.008163188 -0.33295757 -0.21593194 -0.19634205 0.22581947 0.05343049 0.27273217 0.13035262 0.3714992 -0.3190024 -0.3453416 -0.097496934 -0.24420644 -0.22260723 -0.22063652 -0.23437183 0.010251987 -0.17488313 0.22992763 -0.3022462 -0.2326694 -0.29515755 -0.16469896 -0.11221107 -0.6421821 0.22866803 0.6495923 -0.11189903 0.004746493 -0.58889604 -0.1875921 -0.16221683 -0.46861804 0.19718756 0.048772935 0.017237602 0.4930807 0.17940903 0.13563913 -0.07146209 0.09853408 0.5467986 -0.2220021 -0.15425736 0.33207455 -0.025567096 0.008856281 0.15200278 0.21995649 -0.056493428 -0.06299576 0.26895443 -0.10712589 0.23486413 0.52291304 -0.16532709 0.08855728 -0.76433986 -0.24777485 -0.1821431 0.044699542 -0.18018435 0.20508268 0.4658535 -0.18464321 -0.22306924 0.00802426 0.2059576 0.62461424 -0.036758002 0.08833712 0.07950384 -0.13736665 -0.50131476 0.08697928 0.28893906 0.050406784 -0.41590264 -0.38407877 -0.07891127 0.19494036 -0.9769123 0.01497765 0.022440244 0.09225527 -0.2433375 -0.02250909 -0.20317924 -0.46497494 -0.64732414 0.15020305 -0.16488162 -0.062074505 -0.20108913
867 0.28231305 -0.06151384 0.15910797 -0.033239294 -0.50734156 0.15345375 0.023748957 0.0044309706 -0.120566316 -0.20861822 -0.5112199 0.0061844857 0.21206994 -0.35484365 -0.36809224 -0.056293875 -0.2226156 -0.07303965 0.0069109485 0.1664787 -0.112884596 0.19282262 0.36055532 0.1276887 -0.16033663 0.25048468 0.16612475 0.28921363 -0.08230022 0.3615211 -0.8840338 0.048881214 -0.674201 0.13321196 -0.028799366 0.0034642045 -0.05688842 -0.33726358 0.19268356 -0.26590878 0.10036299 -0.26709685 0.23235163 -0.26431608 -0.20904447 0.13871904 -0.088659905 -0.14015622 -0.4852432 -0.20844123 -0.16919737 0.013659462 0.099375226 -0.1923107 -0.07899756 -0.24249421 -0.2595529 0.05277895 -0.32565206 -0.071749054 0.7780783 -0.34264776 -0.06285736 -0.120423526 0.13781539 -0.03645026 -0.1626277 -0.17310461 0.19138849 0.029443968 0.020418705 0.060776338 0.20493129 -0.17594874 -0.03183785 0.2470795 -0.07837717 -0.33249345 0.24253562 -0.033149794 0.046045046 -0.13894066 0.08208007 -0.22896369 -0.28009325 0.15610075 0.37782317 0.074915975 0.26316687 -0.110556506 -0.23347923 -0.6540792 0.0005705765 -0.1173476 0.14069866 -0.2994411 0.17947312 0.24258779 0.06770971 -0.32011434 -0.1870606 -0.074927226 0.4794781 -0.031798057 0.08364058 -0.006653208 -0.11879784 -0.47563702 0.29313225 0.34189206 0.08858953 -0.56310165 -0.40504095 0.09088559 -0.041607775 -0.82730067 0.27148345 -0.13445044 0.27852264 -0.14661546 -0.23810463 0.124475814 -0.029893916 -0.46292824 0.35787106 -0.17734951 0.1357817 -0.09800429
1770 0.23121017 -0.1598153 0.32260713 -0.06000486 -0.38707897 0.06347796 0.06298041 -0.11775385 -0.1985195 -0.24497819 0.008862675 -0.1677553 0.005582726 -0.33909738 -0.41585064 -0.19731809 -0.13443016 0.2424797 0.13131057 0.3644087 0.008603969 0.1607801 0.15008365 0.16300629 -0.09908352 0.28732634 0.23420587 0.12792638 -0.055952366 0.03692366 -0.5973203 0.1486303 -0.48045123 0.2223511 0.36130694 -0.012153885 0.27131072 -0.2824181 0.2886916 -0.29873928 -0.015858209 0.053746093 0.19109109 -0.33102807 -0.26243436 -0.014102435 -0.26920605 -0.25295094 -0.4227305 -0.024975704 -0.020318916 -0.07581485 -0.06010357 -0.21737789 -0.18359132 -0.35362703 -0.16726515 0.29175076 -0.39689192 -0.08703265 0.6259648 0.095328964 0.034859315 -0.33682692 -0.1884993 -0.17683698 -0.39823335 -0.10238081 0.03601148 0.2168581 0.37444374 0.015521841 0.06441618 -0.46332648 0.28094834 0.50925076 -0.12694247 -0.024562404 -0.031187894 -0.030172268 0.31644022 0.11155513 0.30230492 -0.12495673 -0.01716776 0.23483297 0.2654278 0.2695996 0.5866221 -0.04655089 -0.10759286 -0.5445815 -0.25758672 -0.20658271 0.275032 -0.10485115 0.18492013 0.6787496 -0.17313303 -0.26143014 0.1541768 0.07464075 0.49763787 0.25712347 -0.024523687 0.094930716 -0.4195302 -0.15882549 0.25334087 0.2070906 0.091393135 -0.20615865 -0.44716159 -0.07826841 -0.09796821 -1.2146878 0.20400207 -0.15665317 0.416808 -0.26262698 -0.12534003 0.059567694 -0.27762774 -0.50071627 0.17606752 -0.08246451 -0.07966525 -0.20589612
66 0.26139247 -0.30271974 0.2338399 0.07449659 -0.6409655 -0.08597047 0.22059895 -0.18275926 -0.0060084546 -0.07402375 -0.24418251 -0.09121968 0.25949946 -0.18257874 -0.18896016 -0.15855877 -0.32332253 -0.21071206 0.13668917 -0.08978607 0.16288471 -0.05308356 0.13526548 -0.1878301 -0.038997173 0.40580297 0.044640254 0.23040374 -0.013479093 -0.02224045 -0.567511 0.004487001 -0.42645305 0.6359973 0.19235525 0.026484983 0.19818126 -0.44529197 0.25495183 -0.08520043 -0.00767045 -0.06180637 0.17603339 -0.22093116 -0.28995684 0.13491547 0.024203978 -0.01928599 -0.3372092 -0.12109291 0.10991308 -0.050676662 0.034781303 -0.12085763 -0.012616101 -0.17898126 -0.31673327 -0.005692424 -0.65825677 -0.2466227 0.7285128 -0.27256718 0.24186096 -0.47125942 -0.11458195 -0.21900685 -0.2852261 -0.07620126 0.021117017 0.43164352 0.0368535 0.009693976 0.029225606 -0.26473173 -0.082789846 0.12880263 -0.0074970927 -0.28292856 0.5335709 0.04591624 -0.2526922 0.27094844 0.38022286 -0.18595861 0.20156924 0.3760571 0.45792034 0.05702939 0.35806254 -0.028727079 -0.15219586 -0.6907723 -0.29848108 -0.1604962 -0.017712153 -0.37515724 0.5372317 0.5887957 -0.21963267 -0.07643443 0.16004775 0.09684734 0.5455031 0.0021751516 0.104503706 0.010578732 -0.27133465 -0.47000748 0.0660966 0.090594836 0.17566466 -0.5812602 -0.32396787 0.098539144 -0.2727023 -0.65684193 0.3203949 -0.09900002 -0.10978593 0.10825538 -0.21249789 0.22464612 -0.44993708 -0.4618222 0.32299876 0.07279056 -0.24465372 -0.0028314455
1584 0.14421311 -0.13098055 -0.014155883 0.03300463 -0.65693223 -0.104246885 -0.2659775 -0.13936107 -0.26757222 -0.25655496 -0.26864702 -0.104065895 0.44161963 -0.37531918 -0.3750169 0.04066583 -0.34536868 -0.17240755 0.14067872 -0.2628499 0.09593766 0.21247078 0.24975383 -0.016905066 -0.39302516 0.50137067 0.306732 0.073919944 -0.44623676 0.2906989 -0.5871007 -0.1367996 -0.58168757 0.474953 -0.08567172 0.02709498 0.311766 0.031702515 0.15057154 -0.2723076 0.005913177 -0.11469005 0.025828699 -0.2805832 -0.44913027 0.19874135 -0.069685966 -0.05177281 -0.25708863 -0.11194229 0.0068014385 -0.13083737 0.21058063 -0.18891634 -0.16221906 -0.24600886 -0.25060278 -0.00503718 -0.3050656 -0.2245332 0.35061973 -0.04108865 0.05666243 -0.44223848 0.3746581 -0.25573406 -0.08618956 -0.17823206 0.20329782 0.20564944 0.21903719 0.058412667 0.24484046 -0.2641925 0.08090875 0.107310995 -0.2582677 -0.19732092 0.1610635 0.19083849 0.19871426 0.22068045 0.5052339 -0.5006598 -0.22270313 0.24742998 0.38208863 0.19670336 0.53243154 0.09759547 -0.1014379 -0.62934214 -0.2108458 0.20522092 -0.1042579 -0.22422677 -0.009062714 0.46489123 0.1168364 0.04776255 -0.0055934414 -0.053603265 0.07865537 0.0068340395 0.0459399 0.001400558 -0.41436794 -0.32040924 0.25236008 0.41746843 -0.02431114 -0.17548342 -0.24478282 -0.027870096 -0.089356646 -0.70645684 0.13177635 0.010428706 0.15758413 -0.062988184 -0.088212416 0.13309668 -0.03070225 -0.68763995 0.1406349 -0.19346431 -0.116696425 0.12817736
1342 -0.012348109 -0.24885714 0.24634825 -0.16987552 -0.5663566 -0.10003227 0.04797957 -0.15644918 -0.21297203 -0.24127436 -0.07649014 -0.1573509 0.34813368 -0.39617744 -0.44446772 0.20664057 -0.31991342 -0.021945568 0.11536108 0.19576846 -0.06593722 0.114643626 0.22614194 0.06703629 -0.2544218 0.09812913 0.46861544 0.21741714 -0.032429643 0.079438254 -0.83939505 0.0011741879 -0.7634335 0.49757394 -0.03930383 -0.020971026 0.12178981 -0.07754294 0.3905454 -0.23206699 0.0008613682 -0.2456859 0.23810102 -0.10902491 -0.15951261 0.07502369 0.06441366 -0.24006139 -0.39313933 -0.16128989 -0.15109913 0.017405638 0.111269884 -0.19735053 -0.20632438 -0.28059074 -0.17165606 0.081058875 -0.44943106 0.05883354 0.38853955 -0.23379017 -0.23133872 -0.03805044 0.20849547 -0.07678207 -0.07764646 -0.28937274 0.4632342 0.13251066 0.10199676 0.15309805 0.077430345 -0.2730503 -0.07295314 0.36819786 -0.11852381 -0.27082187 0.33151153 0.16976412 0.02592877 -0.02919115 -0.036175184 -0.05989135 -0.27561447 0.09831379 0.29062435 0.22284506 0.263101 0.058168598 -0.2418803 -0.52968675 -0.03125226 0.10944558 -0.068467356 -0.39291194 0.27650452 0.57713175 -0.010236376 -0.49735773 -0.037923627 0.050857004 0.6971316 0.030257117 -0.10595609 -0.30438232 -0.09093586 -0.37429994 0.44100124 0.20694199 -0.10403342 -0.6221225 -0.11633554 -0.06627833 0.02451116 -0.64570916 0.3652154 -0.1316682 0.21332225 -0.21752742 -0.13017972 0.26478264 0.016191823 -0.45719287 0.33289325 -0.13498697 0.020645687 -0.025573695
1126 0.23919709 -0.1906423 0.047035363 -0.0695492 -0.35755724 -0.31515947 -0.22600318 0.1309757 0.11939833 -0.039916437 -0.2439432 -0.4654238 0.23987128 -0.21794063 -0.21685277 0.2879841 -0.24266209 -0.19787343 0.2658489 -0.013378181 -0.1342869 0.18930705 0.30976722 -0.08723733 -0.14708912 0.34229514 0.1032388 0.31652284 -0.06484598 0.45702267 -0.5823993 0.2093613 -0.76080275 0.5128915 0.17452179 -0.048295982 -0.036480457 -0.102191865 0.30526975 -0.3489276 -0.013528122 0.11972902 0.13510631 -0.16542777 -0.42075294 0.36339208 0.13300039 0.062226627 -0.4626949 -0.17700444 0.19118294 0.08368065 0.26399264 -0.21779333 -0.33641732 -0.1220905 -0.07526971 0.05656096 -0.23443085 0.053048223 0.43997544 0.00036409253 0.23616748 -0.4130948 0.06423699 -0.007437649 0.064619645 -0.26524124 0.43661353 0.33382204 0.33945695 0.26341325 0.059384827 -0.22996058 -0.10011605 0.4187276 -0.22864304 -0.17913423 0.58518136 0.0709268 -0.00885293 0.25594947 0.32044074 -0.35116914 -0.19034037 -0.063567944 0.40655053 -0.017341876 0.4921411 -0.044347387 -0.29610512 -0.47678077 -0.14411838 0.14230222 0.2527943 -0.18107827 0.1905679 0.44461706 -0.030483669 -0.27693388 -0.034953423 -0.31471583 0.40269777 0.013547783 0.14836985 -0.23863403 -0.38039717 -0.33870184 0.26706365 0.43738374 -0.1984751 -0.4307781 -0.41571304 -0.071386404 0.09889726 -0.7663414 0.14400128 0.32698935 0.23289664 -0.102580436 -0.24511197 0.10096898 -0.14487812 -0.44976932 0.29470596 -0.041076787 -0.39337075 -0.026395176
712 0.32499504 -0.3044526 0.055741932 -0.027698858 -0.7670561 0.16279307 0.09451353 -0.13471137 -0.56359065 -0.36921477 -0.26840663 0.15621358 0.13442355 -0.35870436 -0.5853654 -0.1867204 0.08329728 -0.17510769 -0.10972125 -0.13582721 -0.2338759 -0.05101273 -0.028313685 0.08179619 -0.579635 0.32448834 -0.24198692 0.1793958 -0.56428635 0.2868425 -0.6508588 -0.3570757 -0.5568898 0.40703872 -0.18520123 0.13149817 0.7403964 0.06601545 0.1431067 0.11717626 0.094458774 -0.13867901 0.13428675 0.049253948 -0.1072761 0.23810129 -0.16088805 -0.24460864 -0.82626814 0.049302645 -0.34382814 -0.117207706 0.059617516 -0.5051413 0.19160499 -0.6700773 -0.041275468 0.10242867 -0.31369552 0.20047846 0.22377288 -0.07578838 -0.23948218 -0.092696086 0.2805705 -0.35205054 -0.21042927 0.15480973 0.0871177 0.37240154 0.35917637 0.26068258 0.06155588 -0.4399372 -0.17700519 0.30507633 -0.12775975 -0.21323422 0.36217836 -0.3736295 0.28783143 -0.025349852 0.49510744 -0.083132595 -0.09314975 0.07818668 -0.039493237 0.4312535 0.6449499 0.044966992 0.017124852 -0.75768983 -0.33740237 -0.110237345 0.0071609938 -0.2740757 0.0997525 0.5222362 -0.27663994 -0.1581653 -0.13421442 0.38608095 0.35575637 0.13066383 0.07570545 -0.057803404 -0.089190245 -0.3705413 -0.13569431 0.16239652 0.16155098 -0.46549743 -0.59993505 0.14011638 -0.29252082 -1.0354325 0.19948524 0.033545963 0.53470474 0.020664958 -0.446036 0.2925059 -0.31696397 -0.30709144 0.21840915 -0.09332948 -0.38468394 0.3580561
1749 0.29223347 0.093353994 0.2361709 -0.06329595 -0.43916073 -0.28256834 0.043608844 -0.21084565 -0.06943596 -0.20166591 -0.25378364 -0.0071141603 0.32136855 -0.29331365 -0.36160386 -0.23105915 -0.26149237 -0.052878615 -0.0050795292 -0.12723976 -0.2439096 0.3153741 0.14859025 0.010670037 -0.02845586 0.62054944 0.40865508 0.49503732 -0.09737275 0.24428771 -0.6683271 -0.1802018 -0.5847698 -0.09137856 0.21076469 -0.20030166 0.18547031 -0.1400374 0.117742434 -0.27587578 -0.07434107 0.09874166 0.066965684 -0.3088699 -0.17227086 0.21899019 -0.2521309 -0.2670976 -0.5179881 -0.01557003 0.034396395 -0.26159665 0.203343 -0.100401394 0.12530062 -0.29885203 -0.14007568 0.025089692 -0.0030355025 0.0031640737 0.58825445 -0.37748075 0.17810881 -0.24868242 -0.07965389 -0.09376314 -0.40755013 -0.20436136 0.20674285 0.29740295 0.08287348 0.09549912 0.082310185 -0.38569087 0.10401656 0.17386109 0.12670459 -0.47092536 0.4894697 0.0060826275 -0.028540842 0.18728079 0.2093453 -0.30327976 0.025321864 0.05902478 0.22192888 0.026239429 0.30013108 0.084389344 -0.39294437 -0.57875496 -0.059679933 -0.15437745 0.30171493 -0.4864444 0.25025946 0.5412344 0.12855066 -0.13345008 -0.09889586 0.28690776 0.5534562 -0.13731684 0.35717675 0.08229612 -0.18860875 -0.57905257 0.007962389 0.34535068 -0.15175857 -0.32211366 -0.46361428 -0.12635878 -0.062734745 -0.8900152 0.27594936 0.14059833 0.25671488 -0.07668566 -0.054230984 -0.009874003 -0.15595767 -0.37862977 0.4644559 -0.1697375 -0.18634501 0.03405501
341 0.41904938 -0.13669841 0.04068218 -0.14982334 -0.7151338 -0.35269472 -0.19199444 -0.18798457 0.15570803 -0.45452255 -0.44370422 -0.24064109 0.38188165 -0.44726673 -0.448686 0.01747916 -0.21045448 -0.30952898 0.026216814 -0.24566515 -0.24123594 0.3058763 -0.011559756 -0.124341 0.007015144 0.65553963 0.14703329 0.4054477 -0.33183712 0.464624 -0.43659648 0.084615044 -0.66530806 0.24169827 -0.027396202 0.003200277 0.18066223 -0.2712362 -0.030548856 -0.40582985 0.09723099 0.1141819 0.2127022 -0.27610072 -0.21474595 0.12496968 -0.0803105 -0.1867384 -0.36260656 -0.17626044 0.34135827 -0.17411034 0.12450869 -0.18742502 -0.22389254 -0.21991561 0.058842976 0.2373383 -0.20278496 0.08681158 0.48821816 0.021501686 0.30413234 -0.43503907 0.046126317 -0.074507706 0.17322129 -0.109941065 0.5214576 0.43488634 0.23529428 0.26504412 0.12487594 -0.57261366 0.0551067 0.19163619 -0.18891749 -0.21680787 0.32918483 0.08019175 0.114781395 0.27291286 0.3942529 -0.28942686 -0.11969886 -0.24054775 0.3575596 -0.10959086 0.39630112 -0.1271531 -0.24353328 -0.70016766 -0.05355591 -0.007230368 0.21541211 -0.22563617 0.12959121 0.50753987 0.20129046 -0.29841197 0.0114662275 -0.1362244 0.35202914 -0.039886348 0.07467935 -0.053112593 -0.07740785 -0.34188408 0.40112 0.35842037 -0.0029735302 -0.22665545 -0.40265065 0.005097553 -0.20064998 -0.9791806 0.103626035 0.418293 0.35286683 -0.06606861 0.14751583 0.08943756 -0.13158317 -0.53731585 0.29350045 -0.15435535 -0.40126643 0.09317433
493 0.5286799 0.20368125 0.1836278 0.27847028 -0.7629268 -0.072497256 0.032252718 -0.057706196 -0.25122878 -0.3234892 -0.20006622 -0.22407985 0.2985228 -0.27622998 -0.67080057 -0.10887369 0.16908337 0.015819613 0.39768794 0.056184508 -0.121352665 -0.094255164 0.10978828 -0.14740723 0.13407767 0.27404094 0.22276801 0.38642344 -0.37752643 0.12296989 -0.47486073 0.27881515 -0.65290517 0.5739976 0.1322023 0.06698511 0.19286874 -0.20334765 0.14195013 0.1054783 -0.13995147 0.011540958 0.11630888 -0.16172406 -0.22465646 0.07468732 -0.011659867 0.039847445 -0.47376817 -0.1479633 -0.2640079 -0.39446872 0.21262111 -0.101130016 -0.042356595 -0.28735617 -0.059843477 0.19215666 -0.5382734 -0.087072946 0.17061892 0.12277377 -0.084866315 -0.42982972 0.079897314 -0.1437164 -0.33481258 0.35191387 -0.055176597 0.21140449 0.4127226 0.12489409 -0.03235057 -0.24997728 0.21176535 0.22003321 0.003502034 0.032794517 0.13270263 0.04218568 -0.113187805 0.27520564 0.4419626 -0.3103053 0.040237565 0.14163847 0.4928859 0.2163076 0.5840756 0.12954928 -0.09967165 -0.36982965 -0.16503365 0.15479821 0.3370622 -0.22748789 0.24318558 0.5694514 -0.31110364 -0.5339923 0.15391764 -0.07622561 0.6088507 0.13765362 0.0874808 -0.07565911 -0.3571128 -0.31513798 0.17039146 0.19536792 0.14638 -0.5160051 -0.24178745 -0.04809278 0.55880296 -1.1272137 0.34562942 0.16457061 0.149226 0.028797584 -0.056270048 0.26945746 -0.15334707 -0.43779182 0.38658547 -0.45206037 -0.47560358 0.079928406
651 0.21332724 0.054199014 0.008042728 0.10855641 -0.39017713 0.08982407 0.052438214 -0.027735181 -0.023611855 0.17093447 -0.111884944 -0.1681847 -0.010134435 -0.3668833 -0.46189973 0.04461638 -0.2951355 0.09094892 -0.032420795 0.010312261 0.03723828 0.25815934 0.12438579 0.1375611 -0.013890259 0.4333936 0.03938972 0.10229351 -0.09653757 -0.21647023 -0.48878357 0.021710545 -0.7054228 0.33588502 0.14914359 -0.10746562 -0.05282158 -0.053259607 0.15083513 -0.28167883 0.047627393 -0.13579985 0.21921985 -0.3265715 -0.43572593 0.09022072 -0.13102722 -0.08525039 -0.38687313 -0.091942556 -0.006827349 -0.29653263 0.29187903 -0.34827214 -0.11851145 -0.25180873 -0.22812286 0.11690705 -0.5908356 -0.050815035 0.6250108 -0.30486467 0.04924679 -0.48099527 -0.20827241 -0.12910874 -0.30642125 0.117496915 0.20330618 0.081469476 0.25712982 -0.15230754 0.061467417 -0.12116503 0.029452892 0.18393429 -0.24433923 -0.23181804 0.21685176 -0.03373397 -0.06271084 0.17740518 0.34843543 -0.15488373 -0.11613578 0.20561548 -0.06073138 0.25622332 0.49095955 -0.0697192 -0.007488467 -0.71484286 -0.38170508 -0.047197722 -0.021507869 -0.10069065 0.11857231 0.47127175 -0.17556362 -0.2549286 -0.056240574 0.19716829 0.48639405 0.022249872 0.10164741 -0.053380262 -0.255651 -0.33949167 0.17344873 0.15121123 -0.20948623 -0.2921618 -0.4568242 -0.08618227 -0.23720899 -0.79955906 0.3330054 -0.15061991 0.239789 -0.067160554 -0.06920622 0.095936574 -0.25035843 -0.53766024 0.14878735 -0.26458254 -0.097150385 -0.2276609
143 0.64585906 -0.07346938 -0.022353832 0.31752297 -0.4670186 0.21690543 -0.0015831457 -0.111620754 -0.16546741 -0.10698552 -0.06566472 -0.1288965 0.23279211 -0.57444507 -0.4651296 -0.25780103 -0.036919218 -0.16769496 -0.04238495 0.15466 -0.028415773 0.22681469 0.14483467 -0.17393333 -0.027146323 0.39563146 0.12198591 0.31505483 -0.37937212 0.16170242 -0.6934634 0.10635378 -0.49393973 0.35633874 0.170812 -0.13230239 0.0013865301 -0.08759154 0.19684856 0.032174554 -0.1472133 -0.063884936 0.12481277 -0.013403957 -0.09565252 -0.034165043 0.16001375 0.010531761 -0.20808963 -0.09167963 -0.13137813 -0.24538891 0.18464597 -0.521527 -0.075392395 -0.48340285 -0.1026788 -0.027119257 -0.4053458 -0.41674367 0.30131084 -0.18189482 0.0014250374 -0.26229426 0.083806716 -0.055258498 -0.2370886 0.31407207 0.063965425 0.1471892 0.24378599 0.39922613 -0.05115774 -0.10808388 -0.09191626 0.4264406 -0.25260797 0.050300166 0.21093312 0.06737374 -0.07667284 0.18370542 0.21973054 -0.14202563 -0.42875934 -0.037553582 0.43846968 0.11192495 0.2673068 0.06430752 -0.033643287 -0.6852112 -0.1824171 0.1272939 0.24326812 -0.36980745 0.22939342 0.19281706 0.032927096 -0.4410137 -0.10650514 0.007554192 0.4719061 0.41490784 0.050181225 -0.22798522 0.01100728 -0.3024868 -0.08957171 0.35373864 0.15585047 -0.7590331 -0.22785033 0.12345719 0.036954727 -1.0033815 0.26499656 -0.2246123 0.28924388 0.14223343 -0.07945669 0.16327663 0.13517638 -0.43529266 0.43473935 -0.31904343 -0.14662962 -0.062270984
1712 0.12289671 -0.191638 0.10713252 -0.07014411 -0.68063897 -0.3558892 -0.21748686 0.010136094 -0.14162703 -0.17978084 -0.24669437 -0.019071668 0.35579193 -0.3884922 -0.31573555 -0.026735714 -0.23505609 -0.21986352 -0.045642603 -0.28098342 -0.11008467 0.24210314 0.2181931 -0.09661355 -0.41324028 0.40464178 0.1670786 0.07710011 -0.31535113 0.2919608 -0.59476054 -0.1540994 -0.61221063 0.26936504 0.011089032 0.031586222 0.30726683 -0.30449328 0.019268578 -0.22088099 0.052837595 -0.16855748 0.14904286 -0.3228761 -0.3433571 -0.023148524 -0.0996116 -0.059463046 -0.2587014 -0.1863039 -0.057738267 -0.08698341 0.059638776 -0.18872052 -0.13977139 -0.36985257 -0.29392338 -0.08813545 -0.22700597 -0.19817226 0.5633892 -0.043199312 0.08346467 -0.34901765 0.13683787 -0.30408454 -0.25918868 -0.21822955 0.282513 0.18594235 -0.085488155 0.038948473 0.098344475 -0.3047121 0.03897154 0.06995437 -0.08405347 -0.19575848 0.40365058 0.06031724 0.15196565 0.24013725 0.31695697 -0.27519497 -0.2899317 0.31325257 0.38088018 0.14688501 0.3618812 -0.030245436 -0.20400272 -0.62203 -0.11133905 -0.17251 -0.06726475 -0.30273357 0.039882287 0.34072602 0.10431733 -0.036487326 0.05823448 0.069430955 0.28431797 0.07592538 0.12398173 0.15299045 -0.16140968 -0.36184785 0.2840377 0.34306693 -0.0018029554 -0.18069045 -0.2730009 0.049216416 -0.15385386 -0.8921358 0.1538661 0.05623659 0.085404724 0.05476018 0.07189268 0.16916907 -0.10260427 -0.7442956 0.2321283 -0.15408166 0.006471035 0.21965614
968 0.22015288 -0.18027717 0.037719507 0.20812742 -0.781675 -0.1036332 -0.2526629 0.1464295 -0.13975728 -0.15966257 -0.3655021 -0.18095422 0.413693 -0.4948352 -0.402825 0.03544977 -0.115291245 -0.25117603 0.07193072 -0.18725573 0.06823369 0.29228508 -0.049729273 -0.04316306 -0.38495603 0.60225177 0.0237062 0.21455067 -0.5566179 0.32860142 -0.62770134 0.011472338 -0.65077674 0.31310475 0.16758674 -0.10029835 0.3300303 -0.007448236 0.15767981 0.03002721 -0.14344011 -0.26163933 0.21345644 -0.31590325 -0.54672855 0.16988224 0.024336917 -0.0015012906 -0.4527498 0.0015473743 -0.2489405 -0.21048205 0.15143254 -0.24627517 -0.17410305 -0.36832988 -0.13963872 0.18379013 -0.19634876 -0.033672363 0.3467539 0.08164634 -0.0115730185 -0.4441694 0.2703859 -0.3685984 -0.22930676 -0.007194263 0.068100095 0.11513309 0.332494 0.29494223 0.19299391 -0.079208024 -0.0601286 0.1257049 -0.36419332 -0.28087768 0.15946393 -0.011811755 -0.06955642 0.14066613 0.47272754 -0.29978713 -0.14899787 0.18266894 0.101066016 0.10484812 0.5496536 0.13433991 -0.011719159 -0.4997226 -0.19246995 0.22312416 0.08548155 -0.18847029 -0.007111133 0.4756038 -0.0075902394 -0.17981279 -0.03580056 -0.14397228 0.3508657 0.09646349 -0.018319683 -0.02230691 -0.08432501 -0.37784752 0.086899765 0.2998605 -0.057393584 -0.28235668 -0.27949387 -0.09078549 0.17603965 -0.96367115 0.4169986 0.05833963 0.26486468 0.106381774 -0.093793646 0.11929658 -0.07922989 -0.44789454 0.3045156 -0.15643561 -0.08058512 0.03152464
556 0.297222 -0.23107202 0.15122874 -0.00481473 -0.8349421 -0.26293954 -0.24072056 -0.25204626 0.04516304 -0.1418283 -0.30970538 -0.016816003 0.27603275 -0.6172399 -0.6460344 -0.3846738 -0.2854009 -0.10698236 0.040103044 -0.10636079 -0.28526956 0.20751023 -0.043155015 0.103097096 -0.24610394 0.36416796 0.37651342 0.4041587 0.22888403 0.20478937 -0.72090065 -0.29533163 -0.4422344 0.11229214 0.27581978 -0.32906958 0.1927627 -0.044541612 0.31752646 -0.24590138 -0.036556777 0.048928715 0.04981928 -0.40926006 -0.026052646 -0.021721793 -0.2348137 -0.17455217 -0.55603874 0.018052297 0.14055477 -0.3329254 0.166501 -0.29967934 -0.0057551344 -0.30065897 -0.2449912 0.021823654 -0.33759725 -0.06777051 0.4569805 -0.2993606 0.103396185 -0.42783546 -0.2247919 0.005173711 -0.61042625 0.037490383 0.5294528 0.38963482 0.15012734 0.13215351 0.29049507 -0.34167704 0.2745197 0.29857728 -0.12683618 -0.28672287 0.37363333 -0.007289038 0.057452496 0.29982752 0.42453328 -0.25637916 -0.048865322 -0.004727846 0.39498243 -0.15380988 -0.025504407 -0.08614099 -0.38529128 -0.78463644 0.028895006 -0.22009106 0.11263457 -0.6738326 0.18195875 0.30784193 -0.061179675 -0.20445107 -0.07576582 -0.06443283 0.3158048 -0.03699002 0.07609607 0.270277 0.10493022 -0.6127852 0.11146045 0.22101547 -0.007308371 -0.20111008 -0.45728728 0.21937099 -0.13446122 -0.84440714 0.25782484 0.29703042 0.2909262 0.10002373 0.028276984 -0.019400684 -0.10702587 -0.4103887 0.36411014 -0.22477214 -0.065290935 0.07674542
311 0.09914584 -0.077991344 -0.108010896 0.077847 -0.5074641 0.0088775605 -0.016970946 0.16308393 0.10048167 0.27490342 -0.047713876 -0.3518997 -0.13391116 -0.26867312 -0.35976255 0.17207319 -0.09558988 0.0023799078 -0.03212137 -0.25211477 0.055070855 0.22547945 0.2780631 -0.10149416 -0.24890438 0.42389548 -0.056520764 -0.027359616 -0.16702381 -0.0034371817 -0.4426675 -0.13655813 -0.84938455 0.48738885 -0.048864625 0.22363953 -0.049319647 -0.28795558 -0.08809406 -0.36612368 0.34495154 -0.2281952 0.2228195 -0.3051978 -0.6274388 0.1499285 0.10128728 0.08303457 -0.28723443 -0.14831781 0.15363787 -0.14478669 0.18550752 -0.42530656 0.0027935698 -0.33104742 -0.3279262 -0.1783935 -0.59586334 -0.2592365 0.46847865 -0.1960617 0.3497051 -0.5209102 -0.06425682 -0.19606191 -0.05829806 0.058450915 0.108353615 0.38694736 0.011512448 -0.30754486 -0.1905429 -0.24715863 0.13430762 0.13750505 -0.32664868 -0.08849503 0.3795379 0.013553205 0.14874068 0.48809412 0.37420374 -0.32204422 -0.26417825 0.32054776 0.19405952 0.4394003 0.47809368 -0.14222708 -0.009328031 -0.66402775 -0.37501413 -0.12237621 -0.15962389 -0.15195154 0.25843146 0.35622892 -0.101194404 -0.24151021 0.0027284012 0.13799272 0.44221136 0.05567655 0.28737465 -0.051717784 -0.5242322 -0.11626617 0.15961948 0.40857962 0.044810295 -0.53231746 -0.47955373 0.17152342 -0.34608737 -0.9259443 0.33706942 -0.21182175 0.35360625 0.11936076 -0.029875295 0.42667255 -0.25630605 -0.7542923 0.08050797 -0.10948755 -0.0055723414 -0.045011967
455 0.31533298 0.04929044 0.16166866 0.006263944 -0.45085588 0.10761406 0.10853532 -0.051382136 -0.0072235083 -0.10677463 -0.44452816 -0.10564895 0.35845837 -0.6397553 -0.43254146 -0.13445668 -0.23178837 0.05433007 -0.020770144 0.16774262 0.022407992 0.10764047 0.3753301 0.123433486 -0.37812606 0.41292298 0.1645241 0.24340777 -0.22773911 0.1847971 -0.7502782 0.10270407 -0.5349552 0.34947845 0.12018111 -0.013073219 0.12202021 -0.07434771 0.21643841 -0.10612728 -0.117432676 0.038533144 0.06688287 -0.015809843 -0.39350095 0.14326616 -0.22656861 -0.10616356 -0.46825978 -0.2093767 -0.16601607 -0.03946454 0.0837995 -0.25575665 -0.11986943 -0.3112738 -0.031049581 0.06693945 -0.49221894 -0.005295158 0.4268952 -0.09710452 -0.09318699 -0.31055197 0.00608969 -0.09941644 -0.3940308 0.1120435 0.2179055 0.33954823 0.2002042 0.14604159 0.034010157 -0.17941248 -0.016064927 0.5048311 -0.19433768 -0.29918176 0.440643 -0.1827874 0.0021106557 0.022163045 0.310933 -0.3193185 -0.30008245 0.21072613 0.2416375 0.18868886 0.47766408 -0.18934362 -0.114551805 -0.63316953 -0.18629707 -0.079998516 0.04745829 -0.18541466 0.23318364 0.44487974 -0.06411229 -0.11255536 -0.05611729 0.16651213 0.5387566 0.11781301 -0.13564624 -0.075112686 -0.30673677 -0.360931 0.054151386 0.4172507 0.032329187 -0.44769192 -0.37914345 -0.15543514 -0.0026352983 -0.9012901 0.08819949 -0.15049452 0.032061458 -0.22205804 -0.31851423 -0.0725664 -0.34308732 -0.48375344 0.20349017 -0.18087098 -0.18142277 -0.07082021
8 0.23400058 0.010412126 0.1378376 -0.26576415 -0.709984 0.26657054 0.28413138 -0.15910824 0.090476945 -0.16810873 -0.2815791 -0.13886522 0.29577693 -0.41502348 -0.4912809 -0.23470445 0.06594575 0.14938417 -0.029556181 -0.014319143 -0.021033157 0.10615941 0.29237983 -0.19960167 -0.24747716 0.28921798 0.33224156 0.2832763 0.018233655 -0.0041545467 -0.69915265 0.04024322 -0.34772336 0.26583195 0.08439812 0.022961147 0.01996381 -0.24954791 0.25809166 -0.21225372 -0.11978519 0.20634104 0.05468224 -0.24528655 -0.4847595 0.10979686 -0.16537514 -0.00013479874 -0.40137473 -0.1577682 -0.06298766 -0.44614533 0.063426405 -0.30259937 -0.04132017 -0.040482447 -0.1423334 0.2080329 -0.4281509 -0.060363613 0.36686605 -0.034664586 -0.32765135 -0.4972294 0.10946295 -0.10945927 -0.14878975 0.11409522 0.528404 0.118089 0.31388974 0.01657768 0.31603935 -0.3250876 -0.039788287 0.38240993 -0.028616054 -0.419326 0.313971 -0.22168736 0.14777443 0.03060461 0.39529335 -0.4258818 0.2091198 0.15378442 0.45733562 -0.010282368 0.23586324 0.035757065 -0.1686239 -0.6322342 -0.2117568 -0.043190572 0.106323875 -0.626955 0.22720373 0.50272065 -0.039494254 -0.15170427 -0.1319555 0.075988196 0.50266 -0.14098535 -0.21226531 -0.1696621 -0.51754355 -0.4749515 0.07253987 0.35420963 0.10249536 -0.497574 -0.37354913 -0.2962851 -0.2109658 -0.78458154 0.29203272 0.032252014 -0.07875452 0.18139488 -0.4538391 0.11110478 -0.20410573 -0.3922984 0.39284766 -0.282377 -0.17257805 0.044927947
817 0.32609934 0.052500784 -0.082008004 -0.12910889 -0.3064613 -0.08007479 -0.10272381 -0.014321898 0.07673838 -0.18179634 -0.44281477 -0.24991684 0.32235962 -0.113478824 -0.19776294 -0.074412644 -0.23915014 -0.20369068 0.12827954 0.07048207 -0.11442182 -0.038723752 0.38245806 -0.11945386 0.031701446 0.50194615 0.45037585 0.45924172 -0.088391185 0.15050411 -0.5226651 0.10309567 -0.7256064 0.441678 0.042186894 -0.11216601 0.093349054 -0.3911599 0.07512366 -0.5861717 -0.066577196 0.020836791 0.17237043 -0.17720085 -0.32536566 0.31137136 -0.05619907 0.07333326 -0.20677985 -0.095931076 0.16237405 -0.21711515 0.29703572 -0.35337436 0.035821088 -0.15600768 0.025585176 0.10367321 -0.298385 0.020231446 0.42770103 -0.06301472 0.19985078 -0.22548677 -0.016112747 -0.16827562 0.01571097 -0.27578855 0.49265337 0.19807936 0.2004989 0.16202478 0.10298547 -0.33342353 -0.055413865 0.35347635 -0.20708844 -0.3415474 0.40612516 0.1656779 0.044112943 0.15868165 0.22809412 -0.32232538 -0.22491048 -0.20556654 0.49240586 0.21541648 0.5767907 -0.020779334 -0.314985 -0.4744857 -0.33810702 0.060707804 0.40092257 -0.24215959 0.23114192 0.4503926 0.011114279 -0.20976481 -0.17228526 0.106650814 0.47512153 0.058244247 -0.011135498 -0.1972207 -0.5533124 -0.4741223 0.17486484 0.26838115 -0.24393384 -0.48979154 -0.68428123 -0.044718053 -0.23157626 -0.8166662 0.036200136 0.19355485 0.21898411 -0.005675062 -0.35041705 0.1457577 -0.13005781 -0.20962854 0.33378094 -0.062063754 -0.32014218 0.07008755
174 0.2384091 -0.15118979 0.21171638 -0.25319508 -0.55033636 0.25083163 -0.26367447 0.2119237 0.010113853 -0.39471737 -0.50795686 0.14722952 -0.004555993 -0.29431713 -0.35222486 -0.0383227 -0.24701764 0.10635278 0.15617144 0.2667854 0.014137898 0.14488444 0.38903204 0.3402826 0.020831898 0.2742177 -0.04912289 0.30314663 -0.122252464 0.37424418 -0.9920355 0.089322895 -0.8880238 -0.027142167 -0.038988207 -0.058297314 -0.0035511004 -0.34827015 0.061739553 -0.20230083 0.07164859 -0.07983701 -0.10114672 -0.3430563 -0.17462409 0.31147724 -0.37732086 -0.037036054 -0.61288506 -0.0023487168 -0.16983451 -0.07095186 0.06928898 -0.07033677 -0.016425008 -0.39054853 -0.19627722 -0.07237962 -0.3185109 0.02620854 0.7328733 -0.22408931 0.12994902 -0.0890636 0.102527104 -0.47958228 -0.32944816 -0.11121207 0.32221183 0.030200485 0.09846294 -0.09763462 0.20392518 -0.2572543 -0.1774201 0.1966551 0.21739663 -0.25476873 0.37537658 -0.14518306 0.14327252 0.014138653 0.13928747 -0.21426043 -0.17241307 0.479317 0.28594893 0.17702995 0.6846698 -0.22162473 -0.20315458 -0.59280145 -0.021447197 -0.22034712 0.25827375 -0.33802363 0.05071043 0.37404683 0.053223293 0.055772558 -0.10381932 0.17207202 0.677125 -0.15469636 0.026308773 0.14492615 -0.31305343 -0.5082597 0.26563928 0.15827702 -0.064428546 -0.6021264 -0.7260495 -0.09451875 0.019104792 -0.9335657 0.15805155 0.15830381 0.25281164 -0.2954072 -0.41671467 0.17737582 -0.43105987 -0.7173811 0.05633594 -0.2136051 -0.264212 0.040059656
1279 0.30761927 0.22094232 0.05191242 -0.05219148 -0.5749287 -0.15113501 0.008132326 -0.3275653 -0.1426762 -0.2333841 -0.11078059 -0.33916745 0.4430748 -0.3899543 -0.47171772 -0.18349855 -0.23096283 -0.24227016 0.22244292 -0.2426462 0.12342781 0.05977609 0.274882 0.028224852 -0.20315588 0.61641604 0.5315989 0.24829523 -0.37897488 0.1983295 -0.5702447 0.022268806 -0.8449338 0.11832038 -0.08168753 0.059310697 0.28664798 -0.19862698 0.094632894 -0.45396444 0.029872142 -0.28531817 0.027154556 -0.21574613 -0.22343734 0.45518208 0.001646871 -0.1032958 -0.53050655 -0.21654119 -0.043986205 -0.19457038 0.19864851 -0.18090318 -0.019120006 -0.41779688 -0.21930398 -0.17729826 0.041442398 -0.22041461 0.117364705 -0.07320075 0.10220258 -0.58130634 0.36478794 0.14402035 0.03925911 -0.15985526 0.14740917 0.2845931 0.24943537 -0.15195422 0.2504072 -0.45063823 0.22156453 0.22435951 -0.18348645 -0.04844312 0.35868075 0.2684543 0.31738788 0.056437787 0.37326345 -0.50144285 -0.30507123 -0.08454951 0.40846175 0.11171592 0.56827974 0.13351366 -0.028757159 -0.5677783 -0.11326814 0.26504397 0.16273205 -0.26534107 0.37409917 0.26604432 -0.057013784 -0.1448862 -0.1774349 0.32092473 0.3073772 -0.14472061 0.23857978 -0.24165063 -0.46814716 -0.005665045 0.33762097 0.52785534 0.22943898 -0.3178886 -0.18831141 -0.2687765 0.27080315 -0.563233 0.16771746 -0.032536637 0.5005476 -0.30419397 0.026309997 0.22768997 -0.023707468 -0.5135362 0.30540675 -0.26534435 -0.1011807 -0.18006666
1254 0.37597963 0.023836669 0.08290202 0.111695044 -0.6336356 -0.12181088 -0.019798547 -0.05039035 -0.082129754 -0.11043405 -0.31877562 -0.31966975 0.36784604 -0.47019595 -0.43493047 -0.16726379 -0.13118073 -0.23078117 0.11688671 -0.039913487 0.049319584 0.1275483 0.11897019 -0.0335752 -0.23077483 0.5299732 0.17861053 0.37338695 -0.272354 0.10765961 -0.56241 0.23693374 -0.7153228 0.23909792 0.13585865 0.062157206 0.41288355 -0.34535515 0.09542863 -0.19647749 0.07492734 -0.21866147 0.24587913 -0.25730056 -0.28299448 0.1955051 0.01995713 -0.11743903 -0.49795294 0.015561417 -0.28462145 -0.25436562 0.09270198 -0.35997778 0.022764357 -0.37183112 -0.14582491 -0.068055324 -0.14877065 -0.225334 0.25967547 0.07554519 0.0754933 -0.45337614 0.041606657 -0.21280037 -0.16297239 -0.029888814 0.34475824 0.15078886 0.20186295 0.12729563 0.17557348 -0.3000243 0.07640885 0.2245166 -0.20641357 -0.20285285 0.26127887 0.067517966 -0.018195705 0.21574062 0.31946766 -0.22442645 -0.22048366 -0.029320126 0.23661923 0.14652875 0.5055675 0.20475109 -0.08025619 -0.48757023 -0.25295523 -0.047644664 0.17986949 -0.21610907 0.24385923 0.38009876 -0.14150207 -0.26608813 -0.102684215 0.13703373 0.39692074 0.104567714 0.12304543 0.054624245 -0.12658739 -0.20661595 0.20257753 0.16550182 0.080871634 -0.35564828 -0.34414336 -0.038815968 -0.028285686 -0.6475001 0.29250607 0.07375607 0.33881888 0.08302565 -0.13439983 0.09388621 -0.018098135 -0.32869083 0.26141378 -0.14727812 -0.07553083 -0.030108223
414 -0.09255415 -0.331643 0.26653397 -0.17698584 -0.5510956 -0.18182115 -0.021365277 -0.18347438 -0.17485955 -0.22415666 -0.056800447 -0.12894599 0.38376817 -0.32587618 -0.41057864 0.21635188 -0.41262957 0.12053251 0.20946172 0.2154445 -0.047231305 0.079130605 0.3081146 -0.0020877342 -0.31241542 0.042948052 0.40699407 0.14828162 0.05477643 0.04895081 -0.79706335 -0.07007587 -0.7636481 0.5231697 0.04146265 -0.013915758 0.13530359 -0.049404398 0.43049714 -0.21360351 -0.08787565 -0.30834046 0.23156974 -0.1181677 -0.02195494 0.13015325 0.110750586 -0.26266342 -0.48090637 -0.2017042 -0.06276247 0.008538529 0.13848385 -0.2564039 -0.30227914 -0.24907999 -0.17689332 0.10708287 -0.5180733 0.118633494 0.3263076 -0.16917707 -0.1974951 -0.14305432 0.06786782 -0.05855981 -0.1296075 -0.3349691 0.4371824 0.18899615 0.1944365 0.14025602 0.05834466 -0.2350453 -0.12403976 0.38373965 -0.20724326 -0.23390356 0.3460309 0.06249609 0.0011618906 0.07688846 0.079949036 -0.13070169 -0.32778442 0.1448136 0.23928894 0.30554545 0.24910711 0.08623974 -0.2788513 -0.5388954 -0.06503502 0.13133782 -0.18355909 -0.4258719 0.25295597 0.64114213 -0.10297846 -0.5297344 -0.10371569 -0.06686469 0.70058036 0.06181482 -0.2712945 -0.36637846 -0.08817937 -0.3698898 0.45240638 0.2163375 -0.109786786 -0.5768291 -0.16312845 -0.12019944 0.05039772 -0.7954673 0.46157083 -0.04317308 0.17420271 -0.20598821 -0.1822609 0.3831298 -0.11582366 -0.31989133 0.29481465 -0.12327464 0.005454119 -0.04381554
1343 0.22445749 0.12075637 0.12729664 -0.33660045 -0.48646218 0.13968077 0.10197463 -0.06716983 0.16259041 -0.11364744 -0.30514154 -0.47082847 0.33935982 -0.5739138 -0.58603185 -0.1682111 0.032090466 -0.17715809 0.16640535 -0.16632295 0.16751122 0.13831466 0.14465614 0.07566414 -0.2188774 0.45716748 0.31311968 0.33804348 -0.004679526 0.08436387 -0.73520625 0.19078223 -0.7652761 0.27231658 0.06732444 0.09570054 0.17516321 -0.2841133 0.24088126 -0.39417976 0.11014477 -0.31175297 0.19276102 -0.1601867 -0.21819739 0.4595848 0.041999005 -0.037556853 -0.63259375 -0.060547654 -0.12555724 -0.105241306 0.008439113 -0.310968 -0.038058225 -0.26288667 -0.10202155 -0.13070862 -0.19965051 -0.056731325 0.17465347 -0.20340514 -0.07612326 -0.56417817 0.18603955 0.012120573 0.070903696 -0.13871364 0.5131036 0.34151456 0.1761437 -0.097545505 0.26743206 -0.46122354 0.16151975 0.35668874 -0.26404488 -0.24968667 0.3276476 0.27384233 0.2517785 0.099887565 0.3111711 -0.39084628 -0.021343097 -0.15577339 0.37951118 -0.053175274 0.38147473 0.010480351 -0.17011498 -0.55841124 0.040371247 0.060865026 0.06568764 -0.4316103 0.34125325 0.33227235 -0.2336918 -0.31277117 -0.2926935 0.10437275 0.350738 -0.21248195 0.12589857 -0.16329928 -0.3037237 -0.18252423 0.28703326 0.28348085 0.272086 -0.45578238 -0.39056796 -0.19795938 0.05040721 -0.4083006 0.2950062 -0.04607111 0.52335656 -0.13933386 -0.335113 0.29323223 -0.10586295 -0.47320175 0.1651791 -0.039771877 -0.12664193 -0.32906598
1435 0.5272746 0.16981876 -0.06319191 0.3162124 -0.5607468 0.019888148 0.019519875 -0.049881533 -0.32644108 -0.3013873 -0.15436618 -0.120870866 0.32231936 -0.23676969 -0.56505835 -0.012932348 0.01684513 -0.15039837 0.31739452 -0.048700843 0.018059766 0.04152158 0.097893834 -0.17475037 -0.04091863 0.4396768 0.014504673 0.44508234 -0.4760893 0.08372623 -0.512177 0.26469493 -0.42053854 0.659344 0.0349508 0.023283223 0.25593615 0.05964308 0.1349958 0.21299197 -0.11325305 0.00051076926 -0.09242883 -0.10796585 -0.16867849 0.06854558 0.090773106 0.014274589 -0.41959974 -0.04970709 -0.24024178 -0.40654832 0.16033463 -0.24654976 -0.034076914 -0.30359015 -0.031571135 0.096457854 -0.5995459 -0.21766607 0.11079161 -0.047961168 -0.17512661 -0.3390047 0.08716063 -0.28439638 -0.28519642 0.32476476 -0.028895183 0.16120167 0.38214856 0.14763941 -0.052179947 -0.22872432 -0.079832 0.046068113 -0.037000682 -0.068596214 0.115654275 0.114598416 -0.117529884 0.20480902 0.37088922 -0.1820328 0.09032609 0.12650631 0.42772922 0.21371672 0.593213 0.16225895 -0.098856635 -0.55429167 -0.3200825 0.19172059 0.13805376 -0.26823103 0.2618542 0.5524104 -0.24125902 -0.5248562 0.011513886 -0.021634052 0.50380456 0.24522488 0.1408708 -0.02640135 -0.3189449 -0.43146923 -0.014788971 0.091865055 0.10529599 -0.5782967 -0.21798457 0.12678587 0.3068745 -0.99913234 0.3228447 0.09646215 0.179744 0.129496 -0.20677438 0.20634969 0.01835781 -0.4502779 0.36698565 -0.40893546 -0.46950608 0.10861825
1625 0.11015838 -0.08358943 -0.17668667 0.040819664 -0.62089795 0.054932117 0.045502346 0.15946342 0.08783446 0.29081544 -0.051508978 -0.39448723 -0.10081487 -0.21806437 -0.42413208 0.21371856 -0.12181788 0.038476914 -0.08359618 -0.26224318 0.04710837 0.19611602 0.2925093 -0.1272404 -0.23098058 0.46628398 0.014792541 0.016168293 -0.23799531 0.06357306 -0.43939894 -0.15457438 -0.858621 0.472095 -0.064874865 0.1700103 -0.06807738 -0.40769604 -0.08841634 -0.32490432 0.35675812 -0.2106197 0.2525089 -0.35738632 -0.6396817 0.08126006 0.082260944 0.13978724 -0.25708604 -0.19515413 0.16774409 -0.2906074 0.16383691 -0.41340166 0.010991274 -0.25406453 -0.2834218 -0.11632006 -0.6444896 -0.26062778 0.56493366 -0.21909685 0.2633743 -0.53090197 -0.05810544 -0.21706706 -0.037916876 0.05592556 0.13668875 0.31313664 0.11979637 -0.30601814 -0.18098205 -0.2288687 0.099522844 0.1495119 -0.33191463 -0.105773814 0.35197777 -0.0047149267 0.1680212 0.3395147 0.3401019 -0.33526975 -0.21434864 0.30845797 0.2670108 0.4723927 0.48676085 -0.17355701 0.03465036 -0.70461005 -0.47103325 -0.09735914 -0.10121943 -0.18163304 0.13282381 0.46679834 -0.059594374 -0.24762002 0.09788814 0.13583107 0.4798276 -0.017968444 0.19259334 -0.033579953 -0.58101994 -0.15710391 0.16861886 0.42993373 -0.008063156 -0.50912446 -0.42404 0.112998135 -0.3246493 -0.9172395 0.40130922 -0.18439493 0.24615574 0.131137 -0.016868046 0.35163003 -0.18600072 -0.8186436 0.1543273 -0.18005286 -0.05348073 -0.077864155
1747 0.44745123 -0.39270422 -0.016742088 -0.07939252 -0.81838137 0.14149216 -0.08961069 0.09041268 -0.18318292 0.02703789 0.27992603 -0.3153701 0.104897946 -0.5514245 -0.63179094 -0.03203809 0.21304049 -0.2266532 -0.24213098 -0.015317662 -0.21359038 0.43835878 0.061126094 -0.28041762 -0.1531695 0.29851118 -0.10909111 0.38572598 -0.3320857 0.22269668 -0.726692 0.057960305 -0.55197686 0.31109658 0.08798484 0.023958113 -0.007238572 -0.3299357 0.033170458 -0.046285074 0.0818568 -0.061162792 0.42053136 -0.22710492 -0.26856667 -0.12529317 0.14334723 0.12743403 -0.18356735 -0.08463892 -0.25115037 -0.31422785 0.21821517 -0.5417422 0.17085566 -0.49331805 -0.23135968 0.01973093 -0.37208107 -0.20936552 0.45020318 -0.09035934 -0.063243635 -0.38139838 0.05026258 -0.15404156 -0.101035655 0.18129075 0.37125787 -0.017444015 0.12607606 0.18841107 -0.07391653 -0.0074888077 -0.035670914 0.41348377 -0.09952508 -0.0727747 0.17825297 -0.040856943 0.06263126 0.11242008 -0.014854256 0.032722246 -0.116311245 0.09974094 0.14506282 0.2453095 0.2802901 0.18254443 -0.1092482 -0.54928684 -0.097388834 0.107921 0.18464272 -0.34138015 -0.14161539 0.29635864 0.030270178 -0.40891612 -0.034584146 -0.038444575 0.4617968 0.10714917 0.26785228 -0.080291204 -0.16107078 -0.08337836 0.08302326 0.36603034 0.11625786 -0.63713217 -0.17604673 -0.04581645 -0.13174461 -0.89760685 0.3775059 -0.16805822 0.119297214 0.3595167 -0.22723271 0.09765734 0.21612148 -0.86644614 0.408131 -0.38658857 -0.08342041 0.007494047
1471 0.569311 -0.3573705 -0.07793703 -0.07718721 -0.6493531 0.21868968 -0.08817023 -0.052641373 -0.15988931 -0.10176337 0.12914336 -0.09292582 0.18257539 -0.5486165 -0.5133322 -0.1512485 0.018051121 -0.27376264 -0.12802707 0.18201499 -0.1487229 0.15001795 0.1063803 -0.22676042 -0.10056149 0.2885414 -0.05881054 0.26883096 -0.47525102 0.2123128 -0.7305202 0.06774615 -0.3652314 0.3511434 0.13498282 -0.075791575 0.058344755 -0.12315556 0.087099776 -0.08762499 0.07310805 -0.009456818 0.31230155 -0.031191254 -0.057173774 0.012151009 0.1513007 0.04445297 -0.14260991 -0.119921066 -0.23052345 -0.19200018 0.21049455 -0.59718573 -7.0926224e-05 -0.4966949 -0.19263461 0.098050885 -0.41741818 -0.13351233 0.30175158 -0.27002665 -0.08069462 -0.30025277 -0.046970963 -0.0012840196 -0.05126787 0.22138472 0.0635972 0.023215445 0.28602323 0.21523052 -0.029168993 -0.15279329 -0.08738327 0.5755682 -0.23894235 0.07013415 0.1677012 -0.015042975 0.10840531 0.050568476 0.17387381 0.016437596 -0.26661167 -0.07875485 0.2629782 0.3145838 0.50135964 0.13415296 0.004406964 -0.84298044 -0.19015737 0.23356992 0.2461783 -0.29255015 0.1337424 0.15301584 0.01749162 -0.43618238 -0.06021203 0.10016736 0.48064995 0.31374747 0.09039007 -0.22983296 -0.10768931 -0.15413126 -0.10508977 0.31220725 0.05784374 -0.6482388 -0.19819543 0.07738678 -0.1360783 -0.96451914 0.21889655 -0.26364514 0.20333703 0.039966933 -0.22107485 -0.053368285 -0.09941153 -0.57839876 0.3813644 -0.2957375 -0.10996656 -0.13054946
1345 0.3688339 -0.20389274 -0.03330103 0.32872826 -0.48675853 -0.013613614 -0.17914693 -0.041291066 -0.14837837 -0.2899571 -0.3569413 -0.032580603 0.37519005 -0.55376756 -0.12507443 -0.07154268 -0.43290317 0.08486679 0.09884033 -0.09705097 0.39350998 0.16343422 0.087819956 0.025244316 -0.35024485 0.4760557 0.267163 0.26516542 -0.23843524 -0.12252101 -0.73918194 0.1520841 -0.34673923 0.51208115 0.14170143 -0.1711513 0.36681283 0.0524509 0.39960298 -0.026494632 -0.123801604 -0.11690601 -0.3160035 -0.14418072 -0.35351422 0.24315965 0.11780688 -0.046670783 -0.3931236 -0.056441564 -0.065099925 -0.22402263 0.22066046 -0.40519696 -0.20895049 -0.50146437 -0.16602011 -0.0031660695 -0.06870011 -0.5137953 0.25107172 0.15633692 0.036208607 -0.24744233 0.030191714 -0.33163375 -0.6381196 0.12889266 0.37005278 0.154643 0.13893694 0.4008634 0.0611205 -0.25070664 -0.1953743 0.22068676 -0.36560413 -0.23257683 0.23830661 0.01168617 -0.013827461 0.42890692 0.27734286 -0.33695135 -0.33969358 0.33811074 0.4940593 0.15869679 0.35737038 0.10952258 -0.091996394 -0.7060865 -0.43128887 0.07580639 0.025881937 -0.36056665 0.2909598 0.47468105 -0.08243585 -0.17851855 -0.17765982 -0.035845954 0.44040275 0.62370056 -0.28140008 -0.030870995 -0.0762228 -0.6108813 0.10858797 0.18616237 -0.050588172 -0.49994808 -0.1969642 -0.051184036 -0.19352667 -1.1363913 0.12299303 -0.019758938 0.28094965 0.18396 -0.22588104 0.21636207 -0.017420797 -0.20625035 0.269406 0.0025124517 0.07048641 0.17288809
638 0.31485665 -0.02607895 0.23468551 -0.07394293 -0.3730698 0.148573 -0.021915492 -0.2011083 -0.09101479 -0.14851268 -0.24787965 -0.049337808 0.21222204 -0.6179865 -0.35047013 -0.14585061 -0.13392268 -0.12755837 0.09986784 0.054565627 0.049986184 0.124478936 0.06026537 0.19903266 -0.16758738 0.21134716 0.03232551 0.20412856 -0.06091275 0.014439963 -0.4830243 0.090839505 -0.473224 0.4001749 0.15867381 -0.03551788 0.2336984 -0.05426902 0.34876966 -0.21633048 -0.0602269 -0.20941931 0.1894458 -0.041281678 -0.24964279 0.13552693 -0.20136458 -0.15519674 -0.49068987 -0.01454701 -0.09977407 -0.049638458 0.06567275 -0.13972688 -0.02625869 -0.28680927 0.0037887446 0.17278898 -0.44882542 -0.12743947 0.41468683 -0.065759696 -0.035133388 -0.341767 0.028739 -0.09735751 -0.39094076 0.15281981 0.28512666 0.38038582 0.17155077 0.13070968 0.15670039 -0.3674493 0.12270955 0.47314543 -0.25869375 -0.2819527 0.16885453 -0.025680697 0.01931883 0.09245046 0.42613944 -0.23468922 -0.09564516 0.1814641 0.3000316 0.111349784 0.53160745 -0.13068266 -0.032896765 -0.6160988 -0.100193955 -0.029368114 0.018483188 -0.23435931 0.23167877 0.54165876 -0.23129718 -0.22616687 -0.047174588 -0.0020548848 0.44960877 0.07153385 -0.09761281 0.02039656 -0.10685905 -0.38600147 0.34387454 0.2983931 0.09980659 -0.30209643 -0.3346401 -0.059015423 -0.09154207 -0.8865283 0.17971781 -0.17829958 0.26393908 -0.15774071 -0.2868685 0.16345866 -0.18533377 -0.48974237 0.13084638 -0.15736358 -0.2226538 -0.108707294
179 0.23785411 -0.1800875 0.11925759 -0.031703897 -0.49774104 -0.16194782 0.12079813 -0.09483785 -0.021612238 0.08023155 -0.081159145 -0.01523101 0.10134623 -0.23322406 -0.32442203 -0.18410921 -0.3440962 -0.22650181 0.16198762 -0.038945485 -0.0026921064 0.14378531 0.14739169 -0.2502259 -0.099499695 0.3061832 0.044739023 0.081291236 -0.2612329 -0.13956603 -0.47825375 0.008128701 -0.5280702 0.5905204 0.22736709 0.23342636 0.2103677 -0.2585277 0.09943941 -0.15311582 0.09291649 -0.02636653 0.20354083 -0.30325884 -0.2909238 0.050454915 -0.060457088 -0.054781705 -0.27296364 -0.035947017 0.06622238 -0.04581544 0.071686804 -0.20549178 -0.07641161 -0.19489378 -0.32526454 -0.012555294 -0.6853389 -0.2803907 0.6520557 -0.21900699 0.22554772 -0.4622669 -0.037687432 -0.31751758 -0.1802654 -0.08186859 0.08945001 0.32862762 0.050791197 -0.06566918 0.08209363 -0.23417725 0.08291394 0.105901636 -0.059736855 -0.20952117 0.44492427 -0.050617687 -0.11791789 0.3522468 0.59354484 -0.26959598 0.038779538 0.3699801 0.36505094 0.13902448 0.47720242 0.040162776 -0.07906191 -0.5768165 -0.29307258 -0.12594081 -0.032414883 -0.27285284 0.47171795 0.5656225 -0.22208726 -0.066768095 0.12069534 0.121872306 0.35478458 -0.014093302 0.28106564 0.11789074 -0.27127925 -0.43225464 0.11799202 0.118599 0.113991864 -0.45190424 -0.36590993 0.20732678 -0.37137365 -0.7352669 0.39534202 -0.029120931 0.01004694 -0.020443026 -0.030181374 0.2956584 -0.3490914 -0.6129011 0.23352437 0.0043240134 -0.13898757 0.055426143
1740 0.2747324 -0.1764452 -0.00773728 -0.0902298 -0.3542527 -0.12603001 -0.047653865 -0.096647166 0.12538446 -0.4659747 -0.46944827 -0.016547415 0.18604447 -0.36728162 -0.36182433 0.32013947 -0.33560765 -0.19514757 -0.35253733 -0.13149054 0.04411973 0.37442738 0.07408671 0.0173275 0.30704826 0.49994093 0.04098119 0.4104748 -0.0070672114 0.2747722 -0.4538034 0.12936378 -0.67466813 0.30409068 -0.3314914 -0.18006708 -0.28915286 -0.07833727 0.013209028 -0.28270727 0.06064879 -0.015238955 0.5245347 -0.37181038 -0.2969837 -0.1574792 -0.14158487 -0.6114245 -0.13032143 -0.041574147 0.2507743 -0.1962576 0.101920076 -0.0034969298 -0.44632724 -0.12262037 -0.08902136 0.16219771 -0.559508 0.25099838 0.9014863 0.048172154 0.022927042 -0.3979559 -0.012119611 -0.24196826 -0.18472636 -0.015362412 0.41139933 0.22242321 0.15413138 0.14780214 0.09320197 -0.47934124 -0.02514343 0.32198706 -0.20366636 -0.3438491 0.43471605 0.16813552 0.12779744 0.10701101 0.01014064 0.027456852 -0.03061466 -0.017594445 0.38251218 -0.26145974 0.22404142 -0.23239928 -0.22807187 -0.825172 -0.16679707 0.0004534876 -0.065947145 0.011906818 0.36770228 0.4748936 0.10002246 -0.5734017 -0.202261 -0.21322092 0.35950333 0.06262627 0.11042527 -0.10282826 0.11517455 -0.32891387 0.6620237 0.102755316 0.123586036 -0.18783185 -0.11548956 -0.030172868 0.0062377774 -0.62724036 -0.16596 0.014925106 0.09767485 -0.12883097 0.19554952 0.02710242 -0.11874108 -0.45074797 0.34873903 -0.21414666 -0.20779143 -0.085532814
1025 0.20720778 -0.63918227 -0.4416398 -0.3814648 -1.244742 0.23007481 -0.21928604 -0.033543486 -0.530303 0.026947606 -0.23232213 0.13082519 -0.25329787 -0.5919417 -0.9703875 -0.40936145 -0.038484782 -0.2206765 -0.37416053 -0.33754855 0.25011706 0.26418772 -0.023914378 0.26703176 -0.14401811 0.8113684 0.27227345 0.71481085 -0.30329144 0.32379866 -1.2440722 -0.3776971 -1.4672321 0.75756633 -0.11751167 -0.13508148 -0.207669 -0.19672976 0.1641896 -0.3071249 -0.13966523 -0.2134284 0.059615683 -0.24498902 -0.446876 0.10723898 -0.3179072 -0.48117375 -1.0271474 0.042185318 0.3788536 -0.549328 0.5383591 -0.69536877 0.11997695 -1.2413309 -0.82767624 0.16403402 -0.5781728 0.002531824 0.8203106 0.23137534 0.13012055 -0.91887015 0.5621156 -0.18239838 -0.46536878 0.19964828 0.33122966 0.66560876 0.8215546 0.15259747 0.11273463 -0.84830457 -0.13381962 0.4015715 -0.45383662 -0.12921879 1.2236485 -0.22658433 0.3667628 0.6013475 0.43822387 -0.30576405 0.031812035 0.353931 0.9611623 0.17341536 0.7567586 -0.15050068 -0.3345904 -0.9898121 -0.58752596 0.22872409 0.2209236 -0.52249336 0.78038484 0.8390841 -0.6313113 -1.056297 -0.4094603 0.13726385 0.90878636 -0.1748461 0.28782183 -0.52904004 -0.64662194 -0.5413343 0.41682863 0.28554696 0.11021249 -0.7677268 -0.88556534 -0.03532707 0.43009117 -2.0085902 0.24686141 0.047113337 0.7556375 -0.046428423 0.00522554 0.7358039 -0.450101 -0.41284162 0.5643817 -0.190825 0.0916224 0.42565316
855 -0.42170978 -0.6182433 -1.1327935 -0.76656085 -1.3775634 -0.10886044 -0.42474943 0.15082179 -0.64308226 0.33721602 0.05094252 0.20384595 -0.36558664 -0.08799984 -0.5319787 -0.35655206 0.3655045 -0.12788227 -0.047613077 -0.24377175 0.5666176 -0.049787764 -0.3146492 0.5234382 -0.32187498 0.11714773 0.44660524 0.7521483 0.0805491 0.47075155 -1.4913613 -0.39301738 -0.43744624 0.79671407 0.40485436 -0.19263777 -0.3264635 0.22909568 -0.23916075 -0.4224929 0.32001644 0.37379396 -0.044684213 -0.08246709 0.14913003 0.13096224 -0.41415107 -0.6552915 -0.671044 0.20382039 0.374217 -0.3587266 0.062222134 -0.88434476 -0.18702921 -0.99622047 -1.3280394 0.33578908 -0.31656244 0.20802619 0.25975648 0.3162527 0.071668066 -0.56003374 0.58622336 -0.12140339 -0.14786611 -0.28461745 -0.052216545 0.44907337 1.0321342 -0.45465186 0.1697053 -1.226078 0.16022384 -0.010373081 -0.54858327 0.13801253 1.4007577 -0.32085538 0.5768722 0.55949354 0.33828145 -0.42561433 0.19921628 0.015634488 1.4372771 -0.053029656 0.80197453 -0.05654228 -0.73014545 -0.43285897 -0.104323365 0.42900133 -0.07846377 -0.44870746 0.9407715 0.5533355 -0.6810819 -1.6315928 -0.43273646 -0.22983219 0.6137091 -0.077257164 0.7791986 -0.59833175 -0.8678437 -0.4122976 0.4840049 -0.3555665 0.17792223 -0.18754853 -0.87505734 0.41145313 0.29715252 -1.6233562 0.23689069 0.32062742 0.9146732 -0.19295307 0.30624133 0.9087824 -0.8785667 0.15654796 0.45673174 0.29105467 0.6588877 0.49251446
