1899 128
322 -0.2506087 0.12180557 -0.26006243 -0.22501788 -0.24116579 0.20615797 0.13666418 -0.4304246 0.09194146 -0.011267866 0.110410616 -0.15438573 0.026044581 -0.1460529 -0.4909751 0.1037254 -0.03438742 0.07651093 0.38484836 -0.19042978 -0.25296503 -0.24079502 -0.098721266 0.1087677 0.012456564 0.15641166 -0.122489035 0.20475546 -0.06644506 0.3248057 -0.20710242 0.014881967 -0.07117896 0.059017427 -0.23360848 -0.27171543 0.053457506 -0.19493137 0.23767532 -0.16670263 -0.036913715 -0.08908856 -0.2651524 -0.36350206 0.09906685 0.18750145 -0.17987773 -0.3630222 0.43283212 0.34999663 0.027222652 -0.07325033 -0.3450216 -0.113314964 -0.05464752 0.027359843 -0.042254835 0.019801421 0.032680295 -0.15986404 0.2520771 0.2480221 0.11263186 -0.0027777455 0.13958088 0.2605503 0.22266081 0.01450274 0.17574842 0.06997686 0.45301706 -0.22604914 0.10468317 -0.30046707 0.09408155 0.07539893 -0.002414969 -0.2299441 0.16710576 0.01574956 0.023828316 0.41375136 -0.23028843 0.13970245 -0.12097702 -0.03358962 0.212849 -0.33657596 0.14644441 0.13651402 -0.26050988 -0.05171907 -0.08342591 0.2995151 0.29686135 0.25882155 -0.45302433 0.33189195 -0.04240407 -0.056127228 0.40405673 -0.045411624 -0.1946237 -0.23196927 0.1316289 -0.25070652 -0.09228974 -0.19261736 0.2757596 0.083116874 0.020811813 -0.3670224 -0.20949396 0.28927556 -0.05211501 0.021377757 -0.10589228 -0.09615758 0.4659791 0.109315485 0.01956431 0.16962796 -0.2893077 0.03495227 -0.28256443 -0.021669788 -0.13802503 -0.3392063
102 -0.22613578 0.09930999 -0.10290141 -0.11899296 0.30552146 0.14604302 -0.08281686 -0.17618349 -0.2568568 -0.4011897 0.18013011 0.16708934 -0.029251194 0.30027795 -0.22725503 -0.07680938 0.13472903 0.0014139522 -0.030027468 -0.35593477 -0.236716 -0.28375092 -0.14541732 -0.3316465 0.26424345 0.3227092 -0.2161506 0.24036099 0.098066114 -0.055916987 0.0076800636 0.018640282 -0.06909501 0.2068699 0.22578262 -0.035010435 0.15332052 0.008733198 0.20422108 0.15854277 -0.13279888 0.12379808 0.08862184 -0.14072034 -0.2754486 -0.05390377 0.049255915 -0.054421537 0.40203518 0.105135046 0.08114308 0.020084254 -0.119423 -0.31713158 -0.11283694 -0.017228106 -0.13198079 -0.033315636 -0.029558783 -0.017180514 0.11114902 -0.087448135 -0.20973326 -0.048070833 -0.08031501 0.031232497 0.065087035 0.15764251 0.10379044 0.2453797 0.40987897 -0.21696453 0.13873413 0.093727596 -0.16919611 -0.1650435 0.24537979 -0.44028553 -0.091309294 -0.23542441 -0.22069608 0.07607827 0.093655065 -0.23869093 0.20517576 0.018844215 0.15496767 0.009374658 0.2134005 0.15502387 0.09184869 -0.05473152 0.096923366 0.39170545 -0.07890661 -0.3074088 0.19475332 0.22014599 -0.004355742 -0.05505814 0.36181572 -0.28752398 -0.08865169 -0.135827 0.16137889 0.1430889 0.018495576 -0.013219394 -0.096739255 0.43527275 -0.181596 -0.1361699 -0.46737605 -0.25968963 -0.11525695 -0.106035545 -0.12080561 -0.043203305 0.49919793 0.036101557 -0.06909537 0.21589112 -0.25276372 0.22887796 0.24913535 0.18343408 -0.19535494 0.060058773
371 -0.0046034213 0.31310236 -0.22435959 0.03692933 -0.19349171 0.29171535 -0.09145122 -0.34818688 -0.015718617 -0.1633198 -0.47476342 -0.17837739 -0.067001715 -0.13819475 -0.2436489 0.034496672 0.108721256 0.48429373 0.11078139 -0.015646374 0.055534884 -0.10491377 0.16577418 -0.24131963 -0.3037395 0.355415 -0.0041364185 0.28457627 -0.13235576 -0.20009151 0.11407433 0.14272459 -0.14275515 0.20546056 -0.14095172 -0.014147776 -0.11930477 0.009369393 0.051981546 0.19718704 -0.06912063 -0.17258145 -0.23174018 0.0060632164 -0.40866196 -0.20432715 0.1904863 -0.03279909 0.24072959 0.2331419 0.31566316 -0.055502113 0.18609266 0.008115638 -0.17653689 0.07587291 -0.41679478 -0.32646304 -0.19740681 0.08196868 0.24184823 0.15717928 -0.43884286 0.10650224 0.007894974 -0.057626836 0.19544269 -0.024192883 0.3209106 0.44858897 0.3807334 -0.24540806 -0.022421615 -0.12903225 0.118521325 -0.18235229 -0.060203623 -0.5741771 0.010757768 -0.27676532 -0.13728333 0.19688857 -0.0998793 -0.2617109 0.03682619 0.12562655 -0.072137736 0.03351388 0.08847273 0.16017537 -0.20889236 0.07226596 0.023927415 0.17727692 -0.0081900805 0.012790463 -0.31240192 0.3262006 0.12016497 0.00842162 0.29327425 -0.02075427 0.23121454 -0.092984535 0.25243995 0.050982025 -0.27087495 -0.030056806 0.077491276 0.3011813 -0.15297227 0.076742865 -0.18412098 -0.060142618 0.0073017227 -0.14211833 -0.010729783 -0.43499243 0.38033035 -0.08275739 0.06757149 0.2893679 0.14737168 0.24018286 0.08107162 -0.12379458 0.24545185 -0.06707583
604 0.07716228 0.14738034 0.10922009 -0.046859775 0.06583015 0.04778005 0.11327433 0.122328214 -0.009973976 -0.32168046 0.12947375 0.09801085 0.09156145 0.17660479 -0.35495824 0.06946639 -0.10068305 0.20425774 0.06093367 -0.5532321 -0.123993166 0.12287404 0.08181705 -0.15005076 0.09996895 0.041970473 0.06600717 0.3062834 0.13481733 0.24662878 -0.4508822 0.25707045 -0.17888466 0.081787765 -0.081143476 -0.14279836 -0.12295133 0.045382965 0.01832002 -0.1878417 0.14372692 -0.0014993346 0.18339051 0.034632903 -0.1505851 -0.0030942797 0.18240283 -0.20264825 -0.021880094 0.10303099 0.33453545 0.1429935 -0.08219774 -0.113022655 0.19435938 0.07192602 -0.14944716 -0.07025263 -0.098163694 0.09957295 0.19297747 -0.47657812 0.113909595 -0.13819866 0.26085556 0.24861696 -0.029002283 0.14052652 0.29789582 0.24779098 0.4163447 -0.30706277 0.34909534 -0.0039455257 -0.11149655 -0.08047853 0.20181307 -0.11449287 0.038866524 -0.0025144517 -0.15212487 0.17810288 -0.098481864 -0.28948238 -0.053933952 -0.0052206703 0.06215608 -0.40697762 0.17565079 0.21791117 -0.2585101 -0.11441596 -0.3117754 0.30197042 -0.038105153 -0.17760281 -0.21757454 0.26086015 0.057248738 -0.13617739 0.12769756 -0.16924696 0.0001375935 -0.2367102 0.10902026 -0.3565814 -0.08288556 -0.093542546 0.21726026 0.50810635 -0.282372 -0.21568318 -0.35445255 0.03469888 -0.4266699 -0.44091758 0.048129894 -0.001561782 0.3287619 -0.08985056 0.0358239 0.081731625 -0.19185457 0.18477368 0.045160137 -0.035933252 -0.26369673 -0.19656976
11 -0.017104074 0.30112255 0.14115863 -0.3637514 0.14916281 0.2069296 0.009223949 -0.30536547 0.30561325 -0.21473964 -0.3976714 -0.16672984 0.006522866 -0.15045623 -0.3955499 0.09922295 0.05618298 0.06821952 -0.04249112 -0.08670719 -0.47466958 -0.10794912 -0.041317586 -0.07925224 -0.12916134 -0.06290126 -0.354098 0.30660245 0.18533944 -0.01979851 0.29564157 -0.20845114 -0.45293653 0.18548676 0.22712903 -0.013679466 -0.08827733 -0.08914176 0.13553275 -0.044719 -0.16293049 0.037980836 0.035511114 -0.35621545 0.06513625 0.2747826 0.023671998 0.11170577 -0.10429 -0.10068759 -0.009943718 0.09909888 0.17308272 -0.13039288 -0.07107087 0.1801127 -0.10862711 0.07615924 0.2427067 -0.11151259 0.5210375 -0.32670254 -0.23732007 -0.15934718 0.24130766 0.17705002 -0.1417079 0.12348486 0.2002362 0.06230315 0.35436726 -0.18401805 0.25653106 -0.14965475 -0.20716445 -0.21233304 0.068105936 -0.06726743 0.040657565 0.08913898 -0.17442994 -0.04665861 0.0926482 -0.2661369 -0.25696945 -0.029350733 0.21263707 0.3665717 0.0486698 -0.1071313 -0.5160124 -0.1840166 -0.13582706 0.4741299 -0.27461842 -0.10097252 -0.16961938 0.13522013 -0.010517209 -0.35681948 0.5071102 -0.18688099 -0.09283465 -0.06941144 -0.02586446 -0.22584756 -0.1463754 -0.27074412 0.48194352 0.24860702 0.14055167 0.07783018 -0.08856065 -0.17028347 0.2114337 -0.17464992 -0.021957226 -0.14524564 0.48757136 0.08260087 0.050532144 0.2172439 -0.181339 0.07061928 -0.11164964 -0.120463915 -0.19583277 -0.03339909
637 -0.18283568 0.054480083 -0.07529108 -0.19307515 -0.37071964 0.008339819 0.04894107 -0.07795159 0.32404524 -0.18667635 -0.22402182 0.021697797 0.12132213 -0.13220093 -0.3462561 0.4078946 -0.18395354 -0.064542666 -0.0004139656 -0.33562633 -0.2670461 -0.1528217 -0.27394992 0.13070822 -0.05695083 0.04098972 0.015743911 0.33651954 -0.10503929 0.02822124 0.054108143 -0.20940799 -0.01891214 0.062186632 0.063873656 0.10635644 -0.16744433 -0.09608785 0.09501628 -0.0664123 -0.061155215 -0.33567178 0.12779275 -0.096826255 -0.1228678 0.28277245 0.10901884 -0.39404008 0.23580526 -0.07772229 0.14719588 -0.0055667106 -0.33596554 -0.13913208 -0.073682226 -0.48300466 0.30970007 -0.21135393 -0.0042511155 0.06495311 -0.03162966 -0.17395493 -0.2295905 0.18197986 -0.09116789 -0.08917338 0.13201441 0.1237332 0.4752927 0.019674694 0.15280576 -0.14460619 0.13775527 -0.25498676 0.17152783 0.24350877 0.33758807 -0.17478624 -0.27057177 -0.39581487 0.055155005 0.0097982325 -0.1815717 -0.38956487 -0.1372881 0.020972572 -0.11154637 0.03601892 0.08678167 0.0022573005 0.06357881 -0.24812068 0.18392663 0.0960873 0.012942027 0.035564892 -0.25738138 0.28230444 -0.29315206 -0.10378411 0.5055723 -0.15065092 -0.15948872 -0.043797318 0.30151966 -0.15985166 -0.08914375 -0.32866278 0.12865455 0.42297274 -0.24290703 0.05256232 -0.25248742 0.34665063 -0.06905796 -0.072688706 -0.37879038 -0.21989891 0.27823192 -0.012700772 0.01825408 0.02912937 -0.13498978 -0.094516486 -0.18313795 -0.3544346 -0.50898194 -0.29249507
678 -0.028258145 0.32315156 -0.026113335 -0.5924491 -0.19836675 0.21974888 0.06889982 -0.24190067 -0.007831538 0.027262542 -0.1085972 -0.17704558 0.23904733 0.30277765 -0.22616293 0.055670645 0.16660987 0.24682128 0.086950615 -0.027929215 0.006252202 -0.1775069 -0.22583458 0.027424915 -0.11377478 -0.012565148 0.025478046 0.40487963 0.24526468 -0.16557504 -0.37490442 -0.14354098 -0.25488573 0.45120165 -0.07876031 -0.3626849 -0.05293109 -0.07189152 0.2055427 0.3433385 -0.11102277 0.0931853 0.3958395 0.01782062 -0.23488535 0.23094027 0.06525817 -0.32722798 0.2891729 0.4447151 -0.11822718 -0.25884798 0.09097629 -0.15940985 -0.21669056 -0.03201567 -0.13978599 -0.3390787 0.2782397 -0.27912062 0.24966119 -0.07147287 -0.16230418 -0.42624557 -0.22510752 0.04285 0.21872039 0.059655756 -0.003786455 0.15004951 0.3500835 -0.23888306 0.30467972 0.009564022 0.02430273 -0.26688933 0.15394908 -0.016748158 -0.09285138 0.22697394 -0.08291264 0.13961619 -0.35528132 0.08749676 0.20382605 -0.18906836 0.14523776 -0.21078199 0.16888756 -0.14193045 -0.28517777 0.11839435 0.15028493 0.1748351 0.08894354 0.04800706 -0.48554745 0.24615225 0.10576028 -0.08922685 0.090000786 0.17582631 0.22497861 -0.37312645 0.15768039 -0.19123636 -0.030737745 0.109090135 0.18558697 0.26155102 -0.2644782 -0.004002634 -0.3708983 0.0063353726 0.037623525 -0.3462377 -0.20683962 0.12778251 0.27079332 0.08261958 0.13088739 -0.10430046 -0.05935321 0.06678426 0.43196386 0.30625904 -0.19683726 -0.15073152
399 0.20013958 0.37452698 0.033840664 -0.3322783 0.2632681 0.23784171 0.46741158 -0.24970697 0.13273521 -0.20326152 -0.118368976 0.014025674 0.03175359 -0.017490575 -0.27007574 -0.3635248 0.0029071574 -0.20341547 -0.045732073 -0.047394298 -0.12885305 0.36133072 0.23804268 -0.14792217 0.19422537 0.29534557 0.03589077 0.48291776 0.0666594 0.05916318 -0.22705649 -0.1413884 0.21967088 0.20711942 0.004158287 -0.39697942 0.1423377 0.19879512 0.26690403 0.09957315 -0.013334293 0.22237392 -0.089282535 0.06371188 -0.18729508 -0.0818757 -0.101105 0.17997111 0.14752732 0.091024816 0.088118464 -0.27433586 -0.117585555 -0.10122649 -0.24100542 -0.022607503 -0.054297026 0.043380033 0.010805249 -0.37114272 0.017824944 -0.04852956 -0.08214664 0.081010625 0.15165085 -0.08723011 -0.038988244 0.19674167 0.18099095 0.025253287 0.290284 -0.11544659 0.51722556 -0.103639826 -0.2187248 0.20597325 0.030868601 -0.31564316 -0.1079643 -0.061021715 0.12409147 0.31492028 -0.22452922 -0.034329563 0.22558343 0.20879118 -0.03670637 0.00595247 0.13738894 -0.056907568 0.10987625 0.009151755 0.039775595 -0.00084342074 -0.23280023 -0.26160154 -0.1587312 -0.14913735 0.28096408 -0.052303746 0.42220223 -0.53096116 0.31918094 -0.06790133 -0.02071767 -0.10988099 0.35403472 -0.07162716 -0.3513922 0.23170483 -0.25395343 -0.13284466 -0.20146048 0.22157095 -0.12938401 -0.45513025 -0.24019451 -0.029391332 0.44063926 -0.068948515 -0.021235788 0.28186777 -0.14700173 0.30378926 0.29646048 0.088534646 0.025061583 -0.4343841
616 -0.24365705 0.21880195 -0.01856303 0.06603359 -0.06273359 -0.041246835 0.119048715 -0.027513107 0.27162328 -0.12323579 0.08751092 0.16118075 0.26168874 0.14832583 -0.14932117 0.26745573 0.12854616 0.17262533 0.04381078 -0.4453642 -0.2233712 0.19368957 -0.013184017 -0.20823462 0.10075338 0.03581626 0.11644162 0.17739336 0.21215725 0.24800763 -0.21136336 -0.006877674 -0.19163643 0.1427372 -0.046315867 -0.34417927 0.05736123 -0.021848103 0.027272576 -0.09867824 -0.022253497 0.2972164 -0.01771095 -0.2993673 0.20803669 -0.20005195 0.13108082 -0.09921619 0.2491817 0.07953835 0.09642176 -0.21339497 -0.04239483 -0.06854292 0.063806325 -0.12863404 -0.34138227 -0.05211388 -0.17072202 0.039303202 0.13923636 -0.28638557 0.053946014 -0.504377 0.011444914 0.09953268 0.06794871 0.2156275 0.26436913 0.07866823 0.59447193 -0.39530683 0.25123793 0.07074333 -0.19415893 -0.24924281 0.3120908 -0.1770988 -0.20856066 -0.17258969 -0.32514858 0.29062107 0.0755375 -0.07587252 0.042071424 -0.12753421 0.30202556 0.1658321 -0.08355749 0.06606114 -0.29966912 -0.047257725 -0.2036212 0.2586309 0.04795249 -0.026477514 -0.1638851 0.17263673 0.013098144 0.06322592 0.20271777 -0.17459743 -0.103854135 -0.3253281 0.26176745 -0.36175787 -0.10050537 0.26938024 0.21914147 0.51292604 -0.30757296 -0.28683358 -0.249426 -0.1669294 -0.36233762 0.012692316 0.033148732 -0.14551313 0.5572511 0.16881365 0.060387272 0.038869046 -0.2020653 0.038765185 -0.17174213 0.120294444 -0.11082277 -0.26260957
276 -0.048015606 0.3320235 -0.097316384 -0.2049233 -0.3421891 0.006660881 -0.28514317 -0.088590175 0.27737996 -0.37085128 -0.3083716 0.21918496 0.00752884 0.056643605 -0.37036225 0.17464459 -0.10930844 0.2076506 -0.20566177 0.07920846 -0.14885172 -0.1455874 0.22094499 -0.2141389 0.094265305 0.0097007835 -0.46501738 0.405205 0.049275935 -0.007891006 -0.09435964 -0.13326094 0.014905881 -0.005543938 -0.11733359 0.11422547 -0.20671691 -0.030856805 -0.18362936 0.11011809 0.17788987 0.105375744 0.23591216 -0.04107386 -0.2428911 -0.38567543 0.21570137 -0.2609474 0.26653284 0.20385365 0.2297213 -0.10045655 -0.17715544 0.06935942 0.033316948 -0.2138986 -0.1418549 -0.14845204 -0.2284562 -0.054578625 0.39174122 -0.13904458 0.16204922 -0.12501495 0.03773154 0.08139886 0.03612032 0.07696642 0.108790584 0.07039752 0.39739478 0.09460514 0.15127335 -0.40401518 -0.10653056 -0.3092373 0.3935401 -0.21378379 0.13471481 -0.24411611 0.13965897 0.27293298 0.020225447 -0.16879098 -0.0704338 -0.45577443 -0.04084084 -0.12932208 0.35401437 0.24513456 -0.15172192 -0.13808618 -0.019877438 0.4485229 -0.08301357 -0.11882481 0.11308369 0.30040982 0.038861178 0.2108405 0.037076805 -0.46937233 -0.16795179 -0.016421458 0.25637865 -0.28995767 0.11299795 -0.18296598 0.41261083 -0.036337223 0.08124816 0.0042805937 -0.2877779 0.34357372 -0.26412275 -0.19277182 -0.15153341 -0.062069565 0.18202262 0.33551034 0.16004483 -0.0221128 0.25226098 0.38691026 -0.09002561 -0.06307266 -0.035906427 -0.306679
8 0.19421297 0.36030987 -0.17779146 0.023767307 -0.30806455 0.14908263 0.17061485 -0.54652745 0.086649515 0.037293185 -0.29687855 -0.06857973 -0.20740418 0.1695992 0.005130331 -0.39508086 0.10721096 -0.082845755 0.3468075 -0.20220166 -0.3407987 -0.32366675 -0.06739878 0.034596946 0.0045979205 0.048596717 -0.09563663 0.29399168 0.055579323 -0.118533015 0.16124772 -0.037558023 -0.17598417 0.23400152 0.05954401 -0.11847485 -0.2362629 0.37866995 -0.09390455 -0.03463658 -0.14702648 0.13798961 0.13011813 -0.4368819 0.08872052 0.40544885 0.19779637 -0.08565339 0.20423552 0.13844353 -0.019863764 -0.18978554 0.1258613 -0.10575108 -0.20849323 0.016591245 -0.297602 0.16546164 -0.12507387 -0.076682426 0.010369918 -0.037386384 -0.24090856 -0.14598359 0.046093438 0.3884728 0.08017667 0.42524162 0.40916416 -0.04916453 0.5494941 -0.35820052 0.50077575 -0.08377008 -0.052773576 -0.26522055 0.2679037 -0.23675753 -0.09202741 -0.20889017 -0.20055258 0.05582187 0.07206793 -0.34015277 -0.13793802 0.0021223272 -0.12882426 0.07861818 0.37416542 -0.46846175 -0.08820947 -0.21505456 -0.24622495 0.065701224 0.17689796 0.02972896 0.010759377 0.030376703 0.062236026 -0.33332258 0.34229058 -0.25973096 0.090422 0.03705858 -0.12536462 0.05173756 0.07887339 -0.07397015 0.20032199 0.2541986 -0.11559635 -0.05620271 -0.08723012 -0.19097339 0.08682966 -0.2818428 -0.07672177 0.03898097 0.29974777 0.23795415 0.0498186 0.20477876 -0.024926078 0.114347376 -0.16253357 -0.22131963 -0.19930509 -0.034029208
104 0.37527093 -0.20110746 -0.22455272 -0.15053041 -0.18711403 0.017893245 -0.053300146 -0.30216485 0.28081396 0.06502857 -0.11826491 -0.32015172 0.122057416 -0.028347317 -0.11940914 0.06631537 0.33889693 0.19060555 0.10305353 -0.028814191 -0.33957666 -0.30516538 0.045534372 -0.018855177 -0.17734039 0.36111563 -0.07889493 0.3243611 0.28202856 -0.08994799 -0.28893405 0.42100438 -0.01688127 0.38157 0.10147546 -0.35533804 -0.18990207 0.23914479 0.27364343 0.20314051 0.21410155 0.28746495 -0.025726225 -0.0027946634 0.103373095 0.2593356 0.023945147 -0.2375951 -0.104269415 -0.10204353 0.16457857 0.002991201 -0.15738279 -0.21977223 -0.36252034 -0.09214542 -0.054844882 -0.03895218 -0.007468376 0.037708342 0.4143509 -0.21173717 -0.026359828 0.13281487 -0.079048395 0.37299404 -0.13524328 0.3436078 0.21979326 0.16814548 0.165625 -0.013642153 0.300974 -0.16069132 0.07390957 -0.4885456 0.15018481 -0.22296089 0.019822333 -0.013777124 -0.19721445 -0.073883936 0.12250802 -0.07368242 0.13969752 -0.10810363 0.0176125 -0.02007851 0.3600598 0.01203011 -0.27901474 -0.3108051 -0.09632688 -0.050281145 0.27958557 -0.13561921 -0.08723324 0.12479479 -0.12366441 -0.056139696 0.46374047 -0.021092044 -0.060271334 -0.1809195 0.33910775 0.3669079 -0.12091039 -0.27355018 0.41692567 0.14824347 0.1824566 0.090537146 -0.180452 0.1571887 -0.029178696 -0.21245056 -0.12531245 -0.11555335 0.26353744 0.018593589 -0.13787998 -0.15729968 -0.10197523 0.27582768 0.12099278 -0.006728931 -0.18147168 -0.44270265
712 0.20111544 0.19830856 0.1562287 -0.3163057 0.1593446 0.033520706 -0.08002878 -0.20046861 -0.017247712 0.01810347 -0.06265586 -0.018129298 -0.043475807 -0.0973179 -0.1359296 0.16299745 -0.030056266 0.30275664 0.17901845 -0.1395439 -0.26914582 0.18061784 -0.22509295 -0.15779984 -0.13472706 0.5322054 -0.03716469 0.017979166 -0.036693744 -0.1803405 -0.4898274 -0.24285097 0.06322045 0.3013287 -0.21545385 -0.12873529 -0.15459707 -0.09381172 0.13720532 -0.004284931 -0.30258498 0.02680589 0.18427391 0.12456306 -0.013258179 0.05093189 0.45862752 -0.26311016 0.45341456 -0.12588179 0.24274412 -0.1092105 -0.2311934 -0.16739434 -0.36382097 -0.20019366 -0.3024132 0.0047362433 0.023935806 0.04061741 0.24724394 0.017505033 -0.14756902 -0.052750807 0.36018038 0.14650065 0.033398416 -0.17475684 0.17790437 0.053796586 0.61128896 -0.009182166 -0.105115995 -0.37985572 0.20011252 -0.16001536 0.01766224 -0.11005909 0.03731807 -0.2404311 -0.05477446 -0.1967747 0.008403048 -0.12980896 -0.24551408 -0.008547745 0.0791748 0.21585612 0.26436827 0.4549058 -0.16232143 0.12391328 -0.13274708 0.17122914 -0.17314558 0.4624772 -0.062145874 0.15620905 -0.3767073 -0.015964994 0.20371611 -0.42109555 -0.27175817 0.07614579 0.193272 0.05016641 -0.098028295 0.0038250452 0.081498705 0.09226313 -0.29723647 0.048598036 -0.44115767 0.35607827 -0.18081667 -0.31079563 -0.34565556 -0.16430421 0.39874667 -0.1459582 -0.087464556 0.068630345 -0.034270782 -0.38244775 0.15272056 -0.04896684 -0.30213138 -0.05240939
31 0.02006872 0.2452209 0.041076038 -0.37271002 -0.22490549 0.049339008 0.20929335 -0.19339083 0.064635314 -0.024002237 -0.25516737 -0.112697065 0.060084056 0.3141273 -0.053018633 -0.041362125 -0.13538295 -0.13363631 0.14051165 -0.2707178 -0.26164582 -0.07938592 0.17884204 -0.3001515 -0.0059261033 0.2338164 0.14340398 0.57787144 0.21484219 -0.17848481 0.18095289 0.1483006 -0.46503803 0.3578781 0.09321754 -0.015659692 0.3567148 -0.059090752 0.012997259 0.06652104 0.20903803 0.25897047 -0.017376965 -0.007844529 0.14589697 0.37942985 0.14925894 0.077811286 -0.048217863 0.13993795 -0.08025614 0.28850698 -0.22825518 -0.15618894 0.0060652886 -0.32152382 -0.33739683 0.11174536 -0.05088254 -0.04830623 0.29511878 0.14436464 -0.15199074 -0.20000747 0.3462072 0.03981523 0.21472386 0.13465427 0.032895412 0.20703621 0.302407 -0.049166966 0.18860361 0.015220009 0.05246088 0.23854637 0.25556263 0.018602772 -0.112265766 -0.39459637 -0.3025076 0.2361161 -0.16382426 -0.4206168 -0.06446068 -0.12066581 0.030504191 0.29225108 0.42109993 0.07839253 -0.3775806 -0.06347878 -0.042295206 0.0078056706 0.03655721 -0.16191825 -0.15943871 0.4530042 -0.06274946 0.019466795 0.3102071 -0.09328388 0.012486994 -0.1345688 0.33127013 0.22764075 -0.06486622 0.10821635 0.03611604 0.054705564 -0.13245146 -0.33571008 -0.26293164 0.11097955 -0.33910546 -0.30599934 0.008863642 -0.13836578 0.5847134 0.02912379 0.110817455 -0.13222559 -0.29549134 -0.19018406 0.0025659355 -0.027241856 -0.20502256 -0.013890784
597 0.14472298 0.2629562 -0.25944826 -0.23763633 0.12805645 0.006812952 0.09361533 -0.2485154 0.044785935 0.086874366 -0.30720326 0.057380907 0.3049096 0.09562002 0.05485418 -0.026075756 -0.1214595 -0.042612698 -0.0001247114 -0.15001461 -0.22146454 -0.33576626 -0.33022866 0.06771137 -0.1552174 0.16564965 0.10093503 0.26196325 0.1206166 -0.20251308 0.02142217 0.048211854 -0.18587542 0.13005498 0.07350096 -0.13527727 -0.04354143 -0.12157662 0.0066906945 -0.22259717 0.017471293 -0.2130633 0.0870904 0.035785966 -0.07066353 0.14596097 0.35569865 -0.297945 0.2932707 -0.09556149 0.35261425 0.15232477 -0.105714664 -0.28869757 -0.11772609 -0.0761081 -0.4077812 -0.39803952 0.022227721 -0.14791739 0.33534166 0.054107193 -0.15522757 0.063818485 -0.15685713 0.15897018 0.11730439 0.18351573 0.18093817 0.14743422 0.43684638 -0.10552431 -0.07036594 -0.02293317 -0.18557669 0.1688433 0.20754237 0.268945 -0.15311256 -0.10348572 -0.057559714 0.54813683 0.063952394 -0.20550713 -0.12724626 0.07404666 0.09031555 0.17189258 0.09630429 0.17033964 -0.0852618 -0.26721328 -0.055114377 0.25108504 0.11441094 0.10861583 -0.37293983 -0.13911712 0.030551827 -0.040402625 0.37105435 0.03577753 0.0822274 0.045967564 0.21358883 -0.08001395 -0.07534445 -0.20591535 0.15304098 0.10316345 -0.16190806 0.17645502 -0.3848699 0.088649414 -0.08821476 -0.39289454 0.09671608 0.2613855 0.23600814 -0.03515788 -0.25000024 -0.01722065 0.1562164 0.34049845 -0.06999327 -0.074797496 -0.27838075 -0.26974237
41 0.0463843 0.35801736 -0.0967662 -0.18624967 -0.5199924 0.19441698 0.08277556 -0.1688789 -0.14836663 -0.14641392 -0.43487507 -0.33790684 0.0021532308 -0.14526442 -0.14111272 0.051205162 0.012179613 0.10004497 -0.27049002 -0.094502956 -0.38132662 -0.12405608 -0.22876687 0.077190645 0.1554075 0.24806492 0.11623622 -0.08815883 -0.19114958 0.120808356 0.1350884 -0.18573937 -0.14223137 0.16647744 -0.3586867 -0.26358533 -0.11474665 -0.12673205 -0.12163189 0.12143635 -0.2143425 -0.061589297 -0.09193684 -0.13647422 -0.023539482 0.32094458 -0.183427 -0.14941184 0.31470868 0.38916802 0.12926741 -0.11174815 0.0367293 -0.26373217 -0.34623796 -0.14106594 0.10578449 0.07295725 -0.014023828 0.10025513 0.57129854 -0.098056965 -0.16698647 0.00031499058 -0.3288381 0.46601772 -0.04654826 0.35203862 0.43477005 0.004691906 0.20673622 -0.13940029 0.092877984 0.0034274908 -0.07193373 -0.1738078 -0.13264343 -0.21536441 -0.177002 0.20511833 -0.35595763 0.19221792 0.121639326 -0.07936956 0.11704249 0.021943951 -0.18632664 -0.10325211 0.27179214 -0.22877963 0.015249397 0.072422884 -0.06617603 0.014167605 -0.21479915 0.0010694772 -0.20350845 0.62462217 -0.28770125 0.23530307 0.3166954 -0.22982204 -0.03095223 -0.116206676 0.27526012 -0.050423905 -0.11551071 0.21949084 0.10372589 -0.24387322 -0.16730578 -0.13194233 -0.15350562 0.25276384 -0.39612937 -0.17109953 -0.1977985 -0.014463318 0.32319334 0.089410946 0.27559245 0.31109205 0.2883429 0.071978115 0.25492534 0.06652388 -0.012642577 -0.22939575
193 0.081326716 0.6525259 0.023696855 -0.49559256 0.08616887 0.10114848 0.0898624 -0.23166116 0.11767082 -0.12146505 -0.14509381 -0.16761489 -0.065656506 0.2299316 -0.2440092 0.096940294 0.35820553 -0.057575647 -0.01794076 -0.26252043 0.0461655 0.016683644 -0.29622003 -0.16436198 -0.008845946 0.38109013 -0.14766952 0.29252377 0.38565025 -0.26656377 -0.012362614 0.17895918 -0.14290248 0.5595878 0.12379476 -0.42478862 -0.45245558 0.092287324 0.020627351 0.055879623 0.33357087 -0.01448633 0.1707683 -0.21386677 0.06749417 -0.12184964 -0.12159574 -0.27096486 0.41450623 0.14572996 0.10595211 0.18823284 -0.22682154 0.040876456 -0.12599446 -0.23755425 -0.017191354 -0.2428189 -0.32948133 -0.1008477 0.19737272 0.00090773194 -0.111240864 -0.13862696 0.12144471 0.24758548 0.3546294 0.097895995 0.1486133 0.16549301 0.11605137 0.3211815 0.4490713 -0.3721432 -0.2608085 -0.21055889 -0.15618542 -0.11802596 0.28151456 -0.20345779 -0.26159924 -0.14603546 0.01600221 -0.06933484 0.088768765 0.102717176 0.4355193 -0.15703528 0.04759068 -0.0133004105 0.25360975 -0.23664156 -0.23600313 0.17439732 0.052826095 -0.055489108 -0.3782995 0.20537584 0.08674712 -0.1345632 0.09603494 -0.18987215 -0.3358036 0.37570667 0.13337687 -0.07428374 0.07516728 -0.038421977 -0.032376938 0.21003436 0.069344535 0.28165153 -0.40443718 0.49659353 0.10452087 -0.008388049 0.04538712 -0.0048602615 0.05776169 -0.055043824 -0.06864976 0.10090706 0.06996596 0.043251675 0.07771989 -0.17676891 -0.1508189 -0.22371113
453 0.2514901 0.4973354 -0.06466279 0.15645418 -0.19095428 -0.04018831 -0.2323837 -0.60903454 0.13841878 -0.43627685 0.026438214 0.12699933 -0.4395255 -0.15153258 -0.35845935 0.26954666 -0.21954727 -0.016637968 -0.14527667 0.07524556 -0.26710987 0.03602326 -0.22027853 -0.039904743 0.019529644 -0.11370695 -0.21515211 0.35244936 0.06067283 -0.23925133 -0.12594448 -0.075339764 0.020596078 0.4002038 -0.27281982 -0.021751635 0.13721985 0.008868797 -0.023302391 0.1898889 -0.18888718 0.017261278 0.026952578 0.07441675 0.14287461 0.16419888 0.10058755 -0.12922938 0.19755623 -0.05779675 0.45677 0.16936705 -0.33249876 -0.38582438 -0.23143254 -0.16737092 -0.22201526 -0.052942377 0.28661364 -0.2587592 0.14587173 -0.29532728 -0.07413379 0.037326846 0.027600331 0.031631757 0.0005826438 -0.2685538 0.42463252 -0.0037519755 0.054722793 -0.025471505 -0.2348898 -0.22906041 -0.103519745 -0.061518997 -0.03289988 -0.3174089 0.23999876 -0.30320612 -0.045755696 0.098590545 -0.29092437 -0.36605904 -0.08228037 -0.17171656 -0.13270661 -0.07277421 0.13553044 0.12377644 -0.2666202 0.30284858 -0.08364169 0.049275048 -0.23395815 -0.38536575 -0.3510215 0.12394957 0.038680293 0.13587087 0.025721962 -0.079841994 0.12355294 -0.07851109 0.14361961 -0.07409258 -0.22521636 0.04215416 0.34171966 0.390568 -0.13788457 -0.22965607 -0.5232741 0.13632703 -0.15964094 -0.29034933 0.05649462 -0.06797218 0.38691273 0.08092066 0.031264853 0.09532662 -0.21696636 0.35497144 0.16314927 -0.34004524 -0.2108086 0.0025139062
1280 0.023918625 0.100461006 -0.11717952 -0.072658844 -0.07642233 0.10758675 0.04680673 -0.3747636 -0.2412299 0.11258772 -0.3158651 -0.18948573 0.11898846 0.031875957 -0.14313978 0.37599802 -0.3866463 0.29668093 0.16045493 -0.1563234 -0.16648112 -0.07025299 0.16405745 -0.24091245 0.0073172594 -0.102883525 0.36436987 0.5356503 0.2720803 -0.093685836 -0.22607256 -0.20069404 -0.21224846 0.3435987 -0.034270037 0.09958171 0.056785174 -0.052343614 -0.080233485 0.23484607 -0.2957413 -0.04101541 0.19152965 -0.12445128 0.33536068 0.10147271 0.13788603 -0.38123444 0.021201992 0.2424875 -0.10177451 -0.26051968 -0.29020685 -0.31061473 -0.17605646 -0.22764798 0.0432712 -0.3071749 0.1814987 -0.16677056 0.20032382 -0.18360195 -0.14511475 -0.011286703 -0.048439384 0.020648237 0.14651753 0.024837524 0.25988778 0.06170349 -0.16145311 -0.3854223 0.4328529 -0.28335196 0.07653909 -0.49293172 -0.006925237 -0.24540818 -0.028611781 -0.072090425 -0.13142315 0.2976835 0.038901154 -0.2010727 -0.1103767 0.016198833 0.14605229 0.005294325 0.16433817 -0.2647287 -0.40441173 -0.34478274 0.20589004 0.14711735 0.34514192 0.07989378 0.20017736 0.26645866 -0.17952706 -0.10293882 -0.11218156 -0.32210305 -0.02432406 0.20148641 0.21548568 0.12347872 -0.08071757 0.008223535 0.26117367 -0.08360097 -0.48756573 -0.060471553 -0.53256464 0.022781823 -0.026285602 0.12235129 -0.0845505 -0.11510577 0.50604606 0.040101066 0.14285867 0.25965318 0.005196449 0.26598167 0.0033506323 -0.10643678 -0.12820975 -0.1597874
541 0.21632938 0.48719537 -0.28299007 -0.20548211 -0.12601218 -0.1553903 0.33490336 -0.5133584 0.045920745 -0.010440702 0.04078109 -0.0301714 -0.07553557 0.04758015 -0.10515617 -0.17199327 -0.18250981 0.24500492 0.16034609 -0.27332324 -0.13631883 -0.2640229 -0.20312947 0.06595208 0.12853992 0.5157639 -0.17902216 0.48348558 0.13563617 0.18282674 0.011346537 0.1054046 0.15375721 0.31994975 -0.09682645 -0.2138965 0.044085603 -0.03473303 0.23166199 0.07793959 -0.13229652 -0.21659513 -0.22074328 0.054548934 -6.712853e-05 0.032809652 0.41162798 -0.3957822 0.13519394 0.17450349 0.45684093 -0.060333643 -0.32404476 0.13259275 0.21420327 -0.12593576 -0.0055260872 -0.14350909 -0.042955775 -0.09701087 0.004970488 0.09514188 -0.44502416 -0.1846104 -0.10317382 -0.20770383 -0.05842319 0.15216123 0.22854827 -0.016731258 0.28319386 0.004171415 0.14148471 0.25984034 -0.0142513355 0.16336381 0.006007008 0.22180626 0.17141919 -0.19630092 -0.28287318 0.0024597938 -0.14579052 -0.20989987 -0.28943548 0.014513826 -0.016039459 0.019869382 0.2740045 0.45834428 -0.14910005 -0.13543083 -0.23422302 -0.14970376 0.0022302098 0.25260973 -0.1442128 0.035347365 0.03602743 -0.09712184 0.17946805 -0.037935615 -0.07272221 0.19017863 0.38461444 -0.27665576 -0.054739162 -0.0008489768 0.48048133 0.29778385 -0.27889466 0.16842543 -0.4968678 0.17724977 -0.06552689 -0.07318667 -0.1561379 0.067571014 0.24260108 0.014119837 0.18092103 0.358434 -0.076897986 0.32853395 -0.19427581 -0.18167968 -0.16073588 -0.08967788
296 -0.13252033 0.561653 -0.12775944 -0.2858663 -0.15717761 -0.26520398 0.29515225 -0.49856716 0.14756325 -0.37020403 0.044111725 -0.09971429 0.11786939 0.04405363 -0.22293936 -0.08209056 0.041702844 -0.02029799 0.09124545 0.19359452 0.11062478 -0.2692265 -0.17989737 -0.15356691 -0.15027231 0.3889997 -0.14078186 0.21937236 0.1581853 0.23693801 -0.21837409 -0.22717567 -0.13499114 0.13811271 -0.30600548 -0.30407915 -0.062334593 0.20165552 -0.37808466 0.19695291 -0.04677977 -0.14604656 -0.059616536 0.1103506 0.017731693 0.09727402 0.15446213 -0.28448492 0.17950736 0.16428015 0.10718377 -0.17750247 -0.051513176 -0.13572316 0.075189486 -0.31017575 -0.23266666 0.11593838 -0.28131554 -0.18303418 0.19876708 -0.32573074 -0.0014968705 -0.003282631 0.28263998 -0.09405256 0.014737262 -0.4102773 0.40648273 0.2500446 0.13143109 0.24140424 0.044760488 -0.0698908 0.033243246 -0.14359134 0.12157354 -0.13511099 0.2676401 -0.07303822 -0.070500374 0.21155897 -0.07342722 -0.08470378 -0.15520616 0.014944115 0.28142563 0.11142589 0.36528924 0.18024296 -0.15518098 -0.2571483 -0.14174761 0.36339328 -0.30143133 0.15983163 0.1834901 0.16425607 0.09838334 0.0036978365 0.07641623 -0.38278967 -0.08849132 -0.15163592 0.18459035 -0.3086969 0.27293122 -0.303032 0.18148652 0.09107147 -0.22732066 0.10654109 -0.5635983 0.45313177 0.06365369 -0.1449646 0.048589498 0.033545446 0.47166383 -0.002365228 0.19955698 0.24653158 0.006926046 0.1392653 0.042529475 -0.2513887 -0.19785547 -0.22057302
40 0.19954096 0.36417004 -0.021235386 -0.31327763 0.113629125 0.22007132 0.09023656 -0.42407766 0.2888597 -0.12334296 -0.19790672 -0.10085584 -0.11503118 -0.05507166 -0.34773394 -0.043050963 -0.16724521 0.2362545 0.032934375 -0.12694934 -0.000597872 -0.036441788 0.13251755 -0.007211524 0.24147291 0.19578762 -0.31203794 0.12363478 0.3633377 0.13526484 0.17075214 0.014908953 -0.031712104 -0.009669914 -0.20172638 0.07630162 -0.41137627 -0.29300493 -0.13713016 0.06436446 -0.027441872 0.29135755 0.046550598 -0.06994823 -0.22449362 -0.1257093 0.1727555 -0.18708244 0.079528175 -0.10427211 0.036131345 0.064022064 0.12648249 -0.17005353 0.08710885 -0.15699102 -0.18241975 0.0029788963 -0.049753934 -0.2803109 0.38797438 -0.03438243 -0.105118595 -0.08621378 0.0010597118 0.06748416 0.0660801 -0.0008695529 0.0005445141 0.10841243 0.10311477 0.1075994 -0.09676422 -0.2775028 -0.30578446 0.15105738 0.2636335 -0.3519241 0.100231335 -0.4172316 -0.29153278 0.08864409 0.07500191 -0.55617774 0.07961699 -0.28537893 0.18180619 0.020932378 0.3888265 0.10431486 -0.024802262 0.39250502 0.39213443 0.015922137 -0.07146687 0.0021401076 -0.40844515 0.39409724 -0.39055312 -0.051675156 0.41395497 -0.44870907 -0.054355115 -0.023849612 0.36698818 -0.13503505 -0.029354248 -0.19079979 0.22290748 0.24876876 -0.09391195 0.12498603 -0.3508926 0.12016293 -0.008713534 -0.017896425 -0.117474265 -0.036831833 0.43486705 0.031139119 -0.147971 0.41610366 -0.029717693 0.17565945 -0.35480255 -0.18511353 -0.12648329 -0.30534202
324 0.3524546 0.38678598 0.03585445 -0.11674521 -0.10854355 0.18752444 -0.117275655 -0.6413107 0.058535323 -0.09653005 -0.34817526 -0.40656435 -0.17794025 -0.26897314 -0.23463729 -0.26980355 -0.18751442 0.15668827 0.26151612 -0.3876023 -0.16975336 -0.053408585 -0.11710061 -0.08481647 -0.14083777 0.24879172 -0.27658758 0.41231468 -0.067288 0.032796886 -0.18683365 0.045807403 -0.17332499 0.3859911 -0.23050056 -0.032256756 0.14853671 -0.1327135 -0.1060747 0.16055979 -0.055181816 -0.17778213 0.10205344 0.031948633 -0.10422154 -0.203085 0.03187713 -0.23006196 0.23705892 0.15640749 0.15546714 0.23422734 -0.2047299 -0.18418606 -0.12519643 -0.09332038 -0.065465674 -0.275112 -0.14870413 -0.14544109 -0.02351677 0.1379803 -0.08398638 -0.42862386 -0.39667013 -0.1727886 0.20054379 0.31668055 0.48106706 0.058060635 0.21978466 0.015965534 0.18675372 0.20296709 0.19919273 0.20534274 0.11002418 0.24634278 -0.024632847 0.09660508 -0.29662213 0.058725443 0.15066504 0.12338651 -0.38771737 0.07388724 0.26045763 -0.23096764 0.20193942 0.43837106 -0.5426995 -0.0668311 -0.42623052 -0.22030997 -0.06462441 -0.07647799 -0.23323487 0.050399605 -0.008133222 -0.21271202 -0.029074 -0.23980273 -0.1521081 -0.08692467 0.11679015 0.06605878 -0.13191372 -0.3147865 0.033446934 0.23586093 -0.51130533 0.18760227 -0.33332422 0.13944694 0.045973267 -0.15920039 -0.038934696 -0.13768803 0.31029022 -0.19389954 -0.0961792 0.1755931 0.1809303 0.21715719 -0.30613887 -0.20368928 -0.3446395 -0.099160306
703 0.04761149 0.09458203 -0.012651948 -0.12809232 -0.051905088 0.1594185 -0.19482909 -0.46921456 0.12296624 0.011226966 0.27945453 -0.038708977 0.24158731 0.11372918 -0.06885272 0.015381148 0.05775896 -0.007881409 -0.053927768 -0.18262367 -0.16379754 -0.19713692 0.06561388 0.01128262 0.35078967 0.36494902 0.04838477 0.46127364 0.21912712 0.070161834 -0.30374667 -0.019412963 -0.27441737 0.15802316 0.27347216 -0.15109415 -0.080857724 0.19170089 -0.1160995 -0.024401842 0.042558648 0.12007805 0.007468055 -0.0002782773 -0.109276466 0.01702099 -0.13130578 -0.1470971 -0.10108609 0.05414283 0.25412092 -0.077924766 -0.09716818 -0.22865921 0.47664154 -0.069819495 -0.21473163 -0.1911739 -0.5032108 0.23661809 0.20883653 0.053414404 0.29771158 -0.1699994 -0.10947775 0.27920744 0.009964071 -0.2792222 0.07467955 0.08813909 0.42445022 -0.15589839 0.056565847 0.13880807 -0.15389286 -0.11510109 0.099368155 -0.44253853 0.01725669 -0.0065997317 -0.15540603 0.28829762 -0.15652935 -0.28162625 0.31430864 -0.11752195 0.13121933 -0.0019327624 0.34822705 0.29504812 -0.28983214 -0.050352715 -0.17881787 -0.18990979 -0.008992038 -0.35150003 0.015088339 0.45254907 -0.0020426612 0.041734822 0.56896204 -0.28482974 0.31890374 -0.19435306 0.13057229 -0.096887626 -0.30120608 0.23081557 -0.01771094 0.22171731 -0.33760142 -0.33110276 -0.14573652 -0.21059607 -0.18895972 -0.17298487 -0.15277678 -0.11121392 0.4442569 0.15187353 0.012766523 0.10771023 -0.46386027 0.14571686 0.14427204 0.021022687 -0.20464678 0.058928005
474 -0.039235618 0.24807544 -0.11136563 -0.12691134 -0.059444282 0.07655055 0.019464249 -0.59145325 0.024626756 0.04045995 -0.09095526 0.32174188 -0.19021823 -0.050430693 -0.07177463 0.10537989 0.17047757 -0.038074553 -0.111277215 -0.12636352 0.11129909 -0.3930465 -0.23582081 -0.0057350863 -0.13227795 -0.1712584 -0.100201026 0.13699344 -0.047003105 -0.091297045 0.07030049 0.24431054 -0.09863602 0.18369009 -0.1248123 -0.44159034 -0.1169763 -0.11223172 -0.20518027 0.013775373 0.17347895 0.2277455 0.18350011 0.09911701 -0.04633993 0.121703126 -0.041854683 -0.48050863 0.33121762 0.15540233 0.46007517 -0.11976073 0.15607437 -0.10011694 -0.25726163 -0.12516464 -0.04194 0.037432518 0.098228805 -0.21571723 0.19962373 -0.2378292 -0.2660643 -0.03903294 0.48999014 -0.01716146 0.018458478 -0.094836704 0.23887756 -0.046849493 0.22231235 -0.28595752 -0.033776823 -0.16857423 -0.110491484 0.25563806 0.23468626 -0.18159197 -0.373226 -0.11964722 -0.2250191 -0.11352648 0.20355062 0.029277457 -0.024896575 -0.4876734 0.34261724 0.30542293 0.2954221 0.42439702 -0.4746211 -0.22172013 -0.14435112 0.15859516 -0.48707882 0.22978044 -0.23563069 -0.0053961277 -0.3413335 -0.07102797 0.57329184 -0.24927785 0.17802604 0.20524922 0.22558454 -0.16095367 0.051164974 -0.2525973 0.020234779 -0.0074557783 -0.26405147 -0.14480329 -0.2011233 -0.05477577 0.012449018 -0.15074131 -0.20252398 -0.02375974 0.37741175 0.2758029 -0.08826923 0.33975542 -0.025289243 0.33765033 0.14763875 -0.04913148 -0.027691841 -0.17688182
127 0.1415834 0.058107615 -0.00988426 -0.32275784 -0.32266048 -0.11723711 -0.16362625 -0.31348288 -0.13653411 -0.14620456 -0.039079517 -0.21260798 -0.0018833606 0.14724658 -0.19852458 -0.064962834 -0.35211268 0.2776495 0.04024798 0.25522318 -0.37190613 0.09756627 -0.031548824 -0.0023925088 -0.21316293 0.37250867 0.077490926 0.48557302 0.067465596 -0.28550676 0.24028187 -0.1069823 0.008024093 0.34968254 -0.1779104 -0.48852682 -0.35252044 0.08090374 -0.06385782 0.17677441 -0.19887723 -0.14283091 -0.14099714 -0.24352452 0.18904793 0.062304117 0.44181576 -0.51709867 0.42023367 -0.09788042 0.47405928 -0.29247677 -0.1638056 0.015968658 -0.1327932 -0.08224415 0.21087874 0.022379158 -0.3668708 0.0046241237 0.3029895 -0.35682103 -0.03996422 0.3379781 0.11264437 0.14256972 -0.21403767 -0.02306952 0.15014143 -0.06385049 0.42663002 -0.0047270223 0.12191196 0.20357889 -0.12707427 -0.037705176 -0.058189236 -0.19377886 -0.064906254 -0.27568272 -0.10471252 0.044784795 -0.17373037 -0.15867253 0.03951938 -0.27879384 0.13411765 0.15082169 0.0013166198 0.3636873 0.06141222 0.070635594 0.086516045 0.3531517 -0.20569265 -0.09158911 -0.3712915 0.104240954 0.25582457 0.0128102265 0.5400682 -0.06750198 0.0668558 -0.1876511 0.08428033 -0.18768772 -0.14112471 -0.24818954 0.13607734 0.18079552 -0.21039332 0.13754046 0.00043371995 0.12965561 0.00087003334 0.0020360253 -0.15624806 0.2106864 0.48929304 0.17580996 -0.17271435 0.27198312 0.19772938 -0.15926717 -0.10772377 -0.2921643 0.055607017 0.10369319
253 -0.092951834 0.27117 -0.25765565 -0.1546776 -0.20929687 0.11823302 -0.11515703 -0.29549757 0.06622309 -0.15438507 0.17196843 -0.04690911 -0.111700945 0.07211584 -0.15201637 0.27869415 0.0057758675 -0.04408288 -0.04578113 -0.3453346 -0.43272892 -0.1892985 0.021057207 -0.3880028 -0.2156149 0.3567226 0.01434995 0.38116252 0.08177629 -0.03893521 -0.24102202 0.18386774 -0.2303862 0.41200328 -0.113898575 -0.08686584 0.013282112 -0.31740713 0.2363891 0.22461572 0.24881668 -0.191839 0.07778441 -0.091131754 -0.07989589 -0.20451613 -0.18193513 -0.19889154 -0.3035187 0.058254614 -0.16291477 0.21338917 -0.044631694 -0.10323726 0.09381243 -0.01856731 -0.037337855 -0.14743648 0.033362642 -0.063946076 0.28410965 -0.23440446 -0.1190578 -0.13229454 -0.06436502 -0.12061307 0.18433334 -0.07528644 0.068804264 0.026932174 0.65340734 -0.057525963 0.40696198 -0.41455752 -0.54927087 0.015567821 0.25293702 -0.21459366 -0.062569164 -0.42494932 -0.08180105 -0.008379122 0.03877141 0.103620276 -0.031454332 -0.13087487 -0.10082016 -0.15751196 0.35568443 0.33865744 -0.19395927 -0.2714256 0.053162653 0.29642472 0.08208919 -0.19314697 -0.09767626 0.35749683 -0.0650281 -0.15312995 -0.04177767 0.0374653 0.23159285 -0.27848992 0.30555373 -0.30269182 0.29046118 -0.2561493 0.05471376 0.33334365 0.06325273 0.059139065 -0.19729543 0.1568173 -0.29535997 -0.17359565 0.005874245 -0.006394765 0.64846754 -0.21786357 0.00080014137 -0.024754802 -0.027944576 -0.15494022 -0.036908165 0.33519843 -0.26240844 -0.13740622
1188 0.18812159 0.16263981 -0.1759351 -0.086664125 0.02789476 -0.022713255 0.052626826 -0.22435023 -0.25889942 -0.13472322 -0.48834792 -0.06537314 0.023722997 -0.0373874 0.0025177256 0.04321237 -0.2271965 0.18383524 0.3130011 -0.123475395 -0.055994328 -0.25922507 -0.12941493 0.058047134 -0.2881012 -0.058356456 0.008251113 0.3132122 0.027210787 -0.13389829 0.087776 0.022198653 0.13058743 0.08586974 -0.20149395 0.11408309 -0.29497793 -0.1374582 -0.1881049 -0.3566233 0.12761553 0.011825027 -0.16625863 -0.3832885 -0.051781032 0.21577258 -0.05267411 -0.1830468 -0.06866475 0.40184522 0.29590955 0.1401406 0.22888419 -0.38403404 -0.034042586 -0.5524045 -0.07568779 -0.29666883 -0.12604395 -0.34456587 0.27716485 0.30520076 0.22066447 -0.041054565 -0.0023332103 0.08106922 0.17201439 0.002822067 0.31749168 0.096230134 0.54658824 0.09670003 0.28102493 0.025525738 -0.24327584 -0.22664231 0.18934263 -0.22542888 -0.07840055 -0.29819307 -0.2820902 -0.14152454 -0.24605681 0.030343637 -0.0855593 -0.050833784 -0.04578073 0.12867382 0.39880726 0.27184796 -0.31686282 -0.22421195 -0.06226791 0.19667737 -0.18685327 -0.07438369 -0.10045964 0.13131513 0.24075808 -0.045310706 0.23603755 -0.040303513 0.1459305 0.18301462 0.27709797 0.1990255 -0.14684407 0.07229726 0.3431241 0.56174916 -0.09796092 0.36880368 -0.32534182 -0.028502392 0.18993221 -0.048838772 -0.4262737 -0.1135517 0.61532134 0.11926621 0.027833225 0.3008561 0.058756538 0.3181048 0.42263412 0.12164803 -0.16655572 -0.18480887
822 0.1293351 0.60295814 0.22916707 -0.2610551 -0.032094147 -0.052628294 0.1305162 -0.47644988 0.037876543 -0.14639543 -0.23061758 -0.110023364 -0.01715433 0.1536833 -0.25965506 0.06584337 -0.08346782 0.30910373 0.031026514 -0.50665474 -0.097438365 -0.43770447 -0.20675328 -0.44778216 0.042566173 0.36780936 -0.27124232 0.16708554 0.3607609 -0.20281516 0.044076186 -0.06956245 -0.1497685 0.48094365 -0.15645216 0.04402975 -0.19595899 -0.10883205 -0.17415805 0.21068703 -0.35365182 0.023793176 -0.09047067 -0.13645662 -0.004074349 -0.11079408 0.019342905 -0.23320311 0.011378826 0.2925612 0.0027581367 0.18170929 -0.3074717 0.061023742 -0.15973528 -0.12705848 -0.24853472 -0.3852118 0.04498977 -0.0064093913 0.12401074 0.049223695 0.11663777 0.21083398 0.11720316 0.00064172054 0.056276124 -0.22269396 0.065411806 -0.19001432 -0.078239776 0.2528186 0.17364386 -0.006670184 -0.36317676 -0.30070436 0.344174 -0.16632237 0.4181135 -0.21941929 0.5963143 0.22738369 -0.20624493 0.079542 -0.0804072 -0.042811744 -0.021787493 0.19820128 -0.015847366 0.28285426 -0.26477215 -0.2576339 -0.17589465 0.103088506 0.04046708 -0.0595709 -0.1489891 0.039506186 -0.18718235 -0.2191543 0.22048545 -0.2814891 0.14520504 0.01582003 0.31628737 -0.46432397 -0.38224164 -0.18513776 0.046981093 0.18455309 0.031641707 0.10985337 -0.39736247 0.1347031 -0.14098638 -0.4395771 0.021541608 0.1001706 0.2748286 -0.03649074 0.23133814 0.099209495 0.06551391 0.20664632 0.06293961 0.019791644 0.025367165 -0.2584649
71 -0.05039976 0.38552156 -0.21253312 -0.31477606 -0.15333217 0.25765818 0.04675697 -0.5204224 -0.10182169 -0.031186702 -0.29554242 0.25649512 0.23687795 0.16707252 -0.26679176 0.08159817 0.10542348 -0.14304434 -0.10715998 -0.19458376 -0.12582262 -0.39371276 0.05593192 0.22994009 0.032490842 0.11951496 0.1485947 0.657333 0.271074 -0.19112144 -0.15853465 0.03063862 -0.26972988 -0.18635087 -0.05077067 -0.2485149 -0.064203344 -0.21101458 -0.17269716 0.20452239 -0.070413396 0.2891144 0.16451316 -0.20381653 0.1419883 0.022172833 0.13202567 -0.18275158 -0.052069187 0.30365813 -0.23103084 -0.21098456 -0.19735138 -0.22146058 -0.15666951 -0.22118261 -0.2913089 -0.28880015 -0.01444388 -0.21943165 0.69392735 -0.03734237 -0.18644676 -0.039327983 -0.09019082 0.074721485 0.11532162 0.30811366 0.1679291 0.31492695 -0.02323093 0.055982355 0.20788063 -0.30714107 -0.24314234 -0.10945628 0.07403516 0.10346435 -0.3430042 -0.18563294 -0.2890127 -0.16811289 0.06729505 -0.03142755 0.08439146 0.14994939 0.17571847 -0.38257927 -0.047106504 0.10989517 -0.12511699 -0.20757814 -0.323766 0.28305492 -0.18133792 -0.12425071 -0.34841764 0.17851616 0.036607493 -0.26760024 0.12199138 -0.056674656 0.24429727 -0.12822063 -0.19080454 -0.19575505 0.16319798 -0.08458712 0.04942629 0.10120819 -0.34169322 -0.13336416 -0.21259846 0.02030146 -0.36311188 -0.29626235 -0.20255359 -0.017120684 0.14976476 0.05402696 0.30089265 0.27124703 0.03704955 -0.015433228 0.10182497 0.1382456 -0.022487264 -0.14964722
494 0.16655196 0.33645943 0.27215403 -0.22902258 -0.33090472 0.18201071 0.22058544 -0.42285737 -0.16119961 -0.2287688 -0.22576801 -0.2992032 -0.1528274 -0.2697846 -0.4777725 -0.18757692 -0.1495316 0.1358161 -0.16930333 -0.28931132 -0.28428885 0.07795146 -0.39670965 0.12343629 0.40518028 0.13336013 -0.08724909 0.2904937 0.27844504 -0.26489326 0.21533923 -0.13747396 -0.11535084 0.35331804 -0.452654 0.22543298 -0.13555019 0.09864365 0.21983302 0.01668934 0.14161775 -0.2724367 -0.02812242 0.12483469 -0.2746108 -0.046256047 0.009675139 -0.24043097 0.18156959 0.19926032 0.29531783 0.036364518 -0.36723956 0.025597831 0.003733276 -0.16025795 -0.13629621 -0.064192235 0.0020295847 -0.07716503 0.28781882 -0.16950814 0.06788203 0.16519636 0.14389905 0.047838688 -0.056497812 0.04887977 0.2778095 0.15693025 0.40984774 0.04357709 -0.2824033 -0.28294754 -0.16613695 -0.12454629 -0.109486535 -0.04727214 0.1425816 -0.030123351 0.39887822 -0.16281712 -0.031514782 0.106961876 0.18773848 0.044955317 -0.025871197 0.04400219 -0.01647834 0.027682463 -0.036714744 -0.106907226 -0.1558034 0.11904139 0.032022055 -0.053101085 -0.3750531 0.35677713 -0.13941418 -0.15469639 0.2683446 -0.36092308 0.16703987 0.20060149 0.24024825 0.062480547 -0.08556089 -0.3067036 0.21546306 0.26906174 0.03168974 0.098216675 -0.3206587 -0.16443984 0.12032545 -0.3548595 -0.066093385 -0.10778283 0.49199015 -0.004193687 0.15613733 0.21218225 -0.037505537 0.12109582 -0.054205935 0.09807425 -0.24469967 -0.37010297
1282 -0.0023966425 0.17995532 -0.1574088 -0.0020183013 0.010976775 -0.016899109 0.016766118 -0.24678487 0.015784873 -0.23956643 0.0371933 -0.16503604 -0.14831124 -0.102735795 -0.17470634 0.32239303 -0.26309374 0.13645166 -0.06102219 -0.12238015 0.09712777 0.043245845 0.08335597 -0.0059116064 0.06767434 -0.1125055 0.115537874 0.41136065 -0.19772588 -0.14941631 -0.36959788 0.3918536 -0.37848318 0.18536201 0.27990463 -0.20437095 -0.23580971 -0.1696066 0.17092259 0.47786576 -0.10500691 -0.19405866 -0.17105432 -0.02122802 -0.13987482 0.05403444 -0.0038150703 -0.09002364 -0.047045123 0.16866152 0.2889122 0.07303662 -0.04331678 -0.37140778 -0.009586358 -0.3972338 0.0144609315 -0.22203472 -0.33826336 -0.11271735 -0.17768483 0.08296097 -0.29217356 -0.043436583 0.3325933 -0.04080591 0.059720185 -0.0026331046 0.28942326 0.035537247 0.44157282 0.07176831 0.15294556 -0.2638459 -0.3776682 -0.25301093 0.22255577 -0.12760758 -0.11236476 0.07844641 -0.12250762 0.1498442 -0.19852258 0.027604112 0.124607705 -0.046553727 0.22492951 0.15594938 -0.031791523 0.04514831 -0.03658503 -0.16953404 -0.21652448 0.33188137 0.05471922 0.06548015 0.031472303 0.5216402 -0.08215852 -0.04195895 0.48410043 -0.12304399 -0.20607163 -0.057228528 -0.004966509 0.04191309 0.30322713 -0.2931851 0.7529748 -0.037393805 0.03133206 0.0076556993 -0.390835 -0.071986906 -0.23739308 -0.15595715 -0.06720751 0.02091265 0.43790296 -0.061528973 0.29330587 0.44699627 0.15827854 -0.09609906 0.12469943 -0.028407399 -0.055950485 -0.15315676
1235 0.15846042 0.23423925 0.0065264734 -0.30628487 -0.025814138 -0.026226843 -0.15417914 -0.05589313 -0.10374278 0.03806932 -0.20091157 -0.2832911 -0.056888446 -0.17238612 0.01010891 0.04959724 -0.39081615 0.45536494 -0.1405098 -0.20875183 -0.15244561 -0.008094496 -0.028326275 0.21632297 -0.045615386 0.4912956 -0.06850208 0.2620621 0.00855478 0.101905555 0.1634725 -0.26210567 -0.059869774 0.0727103 -0.27794367 -0.3288732 0.0042420444 -0.0112814475 -0.13835606 -0.028110554 -0.15187794 0.05668524 0.10891566 0.29142305 -0.0021149998 0.12621595 0.13475773 0.16046505 0.39668524 -0.15976769 0.44278178 0.1149917 -0.2661789 -0.023404239 -0.03240942 -0.25025266 -0.030107409 -0.090957835 0.13764079 0.10284647 0.47337523 -0.04073748 0.20622411 0.06591803 -0.16948576 -0.17731862 -0.22303958 0.036608834 0.74796927 -0.15934937 0.22339202 -0.2542141 0.2081115 -0.17883815 -0.25103498 -0.27727342 -0.13969336 -0.29639506 -0.11144676 -0.12460403 -0.03084447 0.104506776 -0.43165776 -0.18138155 -0.30235097 -0.037507236 0.19788496 -0.09643317 0.3806359 0.18429826 -0.2000193 -0.2334831 -0.010655609 0.47729343 0.12200212 -0.025398528 -0.69567156 -0.003708854 0.1828085 -0.13844337 0.33202767 -0.38016868 0.13221787 0.003210457 -0.11334846 0.005578577 -0.05111277 0.020635817 0.21385498 0.12451911 0.27167737 -0.2754833 -0.23041707 0.057832588 -0.5009878 -0.008696451 0.035778258 -0.3965904 0.049447287 -0.0047814175 0.15731676 0.23758414 0.17765786 0.25175107 0.07355261 -0.19601692 -0.2218096 0.052498855
625 -0.3876915 0.17963795 0.13939679 -0.30447972 -0.38773575 -0.012376296 0.27877358 -0.3447666 -0.019080171 0.009026474 -0.45220533 -0.047080632 0.022568326 -0.1684721 -0.04003238 0.11751399 -0.080564015 0.28775397 0.17395583 -0.038139306 -0.0680222 0.049546458 -0.043258317 0.068541534 -0.20231928 0.23529573 -0.19818717 0.35474357 -0.086081855 -0.032261636 -0.41357446 -0.0028897717 -0.30717066 0.3391619 0.06848666 0.061908226 0.00968825 -0.039203554 0.053846158 0.3383888 -0.06865184 0.17884696 -0.115949966 -0.19144897 0.3441482 -0.024434023 0.054764878 -0.25694916 -0.15005259 0.3167542 0.093132906 -0.12383622 0.17417371 -0.035780888 -0.02968776 -0.07692144 -0.17476329 -0.26023015 -0.24111447 -0.12306189 0.4369953 0.044823907 0.03217603 -0.05831885 0.07629997 -0.0001798823 0.14563403 -0.09564346 0.37029165 -0.036559023 0.4523075 0.04297186 0.034031983 -0.4712455 -0.15354499 0.07587239 0.14540835 0.16355407 0.11412712 0.050149646 0.20233512 0.36197302 0.2326886 -0.43013254 0.06893247 -0.27850896 0.008830545 -0.26425824 0.09828735 0.1811806 -0.091028646 -0.15425059 -0.094046 0.2525682 -0.07811111 0.00809702 -0.052654356 -0.06502466 0.08479627 -0.10056259 0.4647914 -0.013009199 -0.27823943 0.032973044 0.03836863 -0.26796257 0.36877754 0.20871963 -0.013019482 0.4765255 0.019705191 0.07134634 -0.06641194 -0.2619135 -0.044235066 -0.23229428 -0.14364432 -0.21236992 0.47754788 -0.1349387 0.21620418 -0.039241686 -0.2863566 0.2187988 0.4039623 0.08390484 -0.2986883 -0.2319276
568 -0.09869043 0.35181907 0.1993945 -0.37711644 -0.3237638 0.2502752 -0.1077001 -0.10915138 -0.13744687 0.07643329 -0.08249433 0.1563786 -0.00092693104 0.19922999 -0.34799054 -0.083516896 0.084140494 0.09749289 0.35687366 0.12462994 -0.2561669 0.074749336 -0.03256491 -0.038517557 -0.07807205 0.13405755 -0.004736934 0.21363828 0.15180323 -0.19378696 -0.0019284578 0.1426425 -0.21341021 0.048061937 -0.07320548 -0.19863269 0.100108914 0.24001928 -0.13518631 0.22956988 -0.11515486 0.068903394 0.13509066 -0.4127253 -0.08444187 0.22810534 0.44728217 -0.32194644 -0.06090516 0.082996875 0.15277497 0.1569352 -0.008274584 -0.30145475 0.04106468 -0.039654844 -0.18103147 -0.071695335 0.07256841 -0.19683872 0.29939145 -0.048817117 -0.28320867 -0.016745672 0.01596063 0.07985188 0.055936944 0.2174526 0.30537403 -0.05258068 0.22120458 0.041893266 0.33319113 0.2217761 -0.18692961 -0.2853649 -0.14805624 -0.31042224 0.1718414 -0.3413851 -0.45507345 0.12084012 -0.06806654 -0.14687923 0.029349068 0.015937323 -0.20640114 0.41497 0.2700658 -0.07192444 -0.24502675 -0.07472418 -0.2110355 0.3317953 -0.06865429 -0.023307176 -0.3226642 -0.015140917 0.05611237 -0.3640156 0.32678524 -0.21696255 0.10374973 -0.05300652 0.42444742 0.08206391 -0.20847115 -0.4359454 0.20452096 0.20921269 0.062122 -0.02791237 -0.17406568 -0.2155033 0.054765217 -0.12984385 -0.03138102 -0.17313167 0.30399874 -0.0376958 0.0052366904 -0.03979686 0.110194474 0.13819943 0.08843884 -0.22639896 -0.20904027 -0.032183606
497 0.10977233 0.4298271 0.019241268 -0.39314264 -0.2745022 0.078737415 0.0798802 -0.5337995 -0.36200085 -0.2579663 -0.19251008 -0.16928644 0.11653256 0.06274286 -0.3956579 -0.04238485 0.16812566 0.46892178 0.18278204 -0.15202004 -0.16365227 0.14742528 -0.29387322 -0.2965709 0.13644056 0.2934866 0.07876817 0.13292031 0.02561176 -0.25471836 -0.20535809 -0.048323218 -0.007941042 0.3638254 -0.3808034 0.29617557 0.1272741 -0.039473746 0.06795421 -0.020898143 -0.13570482 -0.28836167 0.11890808 0.07396312 -0.14048928 -0.31374243 -0.23115942 -0.040765848 0.16132644 0.020369424 0.27885553 0.08412447 -0.30170888 0.087946735 -0.015927223 -0.3607179 0.020051032 0.16665956 -0.03486607 0.07531907 0.3323126 -0.43617606 -0.09016792 -0.020560158 0.27855575 -0.02025507 -0.0062965406 0.013869578 0.20548274 -0.031695332 0.29605618 0.32997873 0.07129995 -0.4065012 -0.30471268 -0.16311298 -0.0054791286 0.100120634 -0.029469306 0.08454158 0.11445898 0.13488583 0.0036230835 -0.13238405 0.51553625 -0.17928876 0.008677147 -0.055186965 -0.030087838 0.093649015 0.17419575 -0.15731855 -0.21252571 0.19398303 0.032311678 -0.13981451 -0.096556105 0.16325699 0.033627376 -0.41174418 0.19520682 -0.22913536 0.10355465 0.087053694 0.37459567 -0.1683185 -0.2735147 -0.037102614 0.20723875 0.322588 -0.08363432 0.1774582 -0.32239085 0.11194058 -0.1916368 -0.123511255 -0.03269537 -0.17825036 0.5404679 0.06321055 0.060124177 0.2737797 0.14954627 0.24832371 -0.12638491 0.21620706 0.12562008 -0.34766528
388 0.1354072 0.67820406 0.14564909 -0.09035623 -0.20764813 0.030156335 -0.08534401 -0.3196008 0.19676067 -0.2602437 -0.20557095 -0.26919442 -0.22166182 -0.1393367 -0.06756522 -0.08485829 -0.08084334 0.1309667 -0.08925599 -0.04824784 -0.10147138 -0.14963241 0.002333036 -0.20771728 0.10887915 0.2782226 -0.01496175 0.35908198 0.46731973 0.11162414 -0.13395351 0.06741974 -0.20289242 -0.026446817 0.023897765 -0.09510815 -0.25077978 0.15089896 -0.18013333 -0.26021275 -0.15391159 -0.08485587 -0.0059925676 -0.2169718 0.094786264 0.2574542 0.24594358 -0.28464675 0.23040858 -0.1653907 0.06721501 -0.06179938 0.032132074 -0.38434824 0.08098162 -0.25545415 0.035132635 -0.2237587 0.010439703 -0.13775147 0.09567262 -0.47225252 -0.11531865 -0.003329945 -0.20993462 -0.107115306 -0.116088495 0.09758265 0.24232717 0.32477847 0.335603 -0.024688765 -0.041127782 -0.13257214 -0.28497595 -0.09750972 0.38405898 0.013874701 -0.07644127 -0.19297484 -0.15380009 0.41906473 -0.16177978 -0.080067985 -0.30382854 -0.16008323 -0.027313223 -0.07664942 0.15145059 0.37342212 -0.16354354 -0.15361783 -0.009507115 0.10990177 -0.36813846 -0.18029359 -0.24684663 0.23373988 0.07117768 0.076350845 0.27851924 -0.13816674 0.06620966 0.050852768 0.62982506 -0.35826004 -0.15518491 -0.41543156 0.033574212 0.38648593 0.07452309 0.32539073 -0.4256339 0.14609489 0.09962379 0.2586398 0.28627065 -0.031118674 0.27722922 -0.046130113 -0.074020356 0.25826347 -0.08912166 0.1542987 -0.18721297 -0.2199691 -0.0046046916 -0.26268426
1401 -0.030718898 -0.0068534887 0.14722998 -0.2547964 -0.06347387 -0.07616892 0.18247066 -0.3240769 0.26768115 0.23471907 -0.030116143 0.049774643 0.12238174 0.052434485 -0.4184368 0.24138689 0.09469222 -0.18890862 0.10714834 -0.14491397 -0.5976771 0.061063606 -0.047118813 0.15009367 -0.1130767 0.059784725 -0.07473053 0.17544903 0.19948366 0.08057961 -0.1647844 0.29168263 -0.1956512 0.19820857 -0.02159145 -0.096577585 0.049384665 0.10295242 0.011416989 -0.07351288 0.16639306 -0.004774548 -0.14480999 0.014169492 -0.21097927 -0.06461075 0.28205726 -0.26913425 0.25942484 0.006141145 0.101754196 0.04093556 -0.05065193 -0.024360452 -0.0215079 -0.33258995 -0.15733682 -0.2721253 -0.047088224 -0.09169454 0.70284575 0.06410531 0.17561261 -0.027480429 0.242058 0.2104301 0.3455666 0.11335927 0.22810075 0.025170736 0.5778333 -0.063481234 0.27644014 -0.20666161 0.004748908 -0.34570783 -0.30464014 -0.085818805 0.17430587 0.047901344 0.16010933 0.3387577 -0.044541053 -0.055473976 0.2432963 -0.019148413 -0.03787608 -0.057971347 0.3605499 0.066798106 -0.25584897 -0.10017283 0.2487993 0.30819097 -0.08418877 0.22198321 -0.09846999 -0.29421154 0.1660697 -0.081207536 0.24160592 -0.1367964 0.12941983 -0.07145721 0.2596697 0.1459103 0.07951839 -0.23278719 0.3117347 0.40448946 -0.08549781 -0.22363412 -0.40358374 -0.06750876 -0.10655879 -0.26970613 -0.109887205 -0.29606825 0.30740416 0.09360137 0.14877948 0.1792209 -0.280313 0.27010593 0.008641417 -0.064042136 -0.0020463564 -0.25989795
175 0.15188077 0.10142051 -0.34056216 -0.099243216 -0.15482093 0.3531873 0.049206797 0.03884591 0.11417747 -0.18592414 -0.32878277 0.19170307 -0.11793515 -0.044216275 -0.036878437 -0.1079298 0.18219995 0.10965115 0.18922915 -0.08697941 -0.02074132 -0.20328124 -0.038246993 0.077121936 -0.016060209 0.045603104 -0.2512626 0.2138025 0.22645861 -0.17129706 0.18149784 -0.030046036 0.19995482 0.10486612 -0.034471896 0.24673998 -0.43947744 0.11620993 -0.036736287 0.36771405 -0.07790705 -0.15644696 -0.008657353 0.019669741 -0.032744188 -0.08534979 -0.116522044 -0.3325333 0.16360961 -0.010108491 0.3581571 -0.2443636 0.06703539 -0.22709179 -0.16256084 -0.18555205 -0.44629428 -0.09796804 -0.12800895 -0.23281243 0.44863755 -0.12566608 0.15362157 -0.31700012 -0.1127243 0.18644007 0.35277733 0.106765226 0.21228671 -0.09888618 0.36967656 -0.007180289 0.10151376 -0.22177815 -0.18296476 0.1372079 0.480349 -0.593724 -0.11703351 -0.025444288 0.137519 0.44491026 -0.39325392 -0.30611694 0.025940612 -0.38547063 0.14654616 -0.13028786 0.20967697 0.2883179 0.09672683 -0.2817972 -0.20906301 0.19230472 -0.25013968 -0.06737085 -0.09089236 0.18935458 -0.14912052 -0.03757095 -0.21217424 -0.6066449 -0.12742685 -0.077574186 0.18440668 0.07381119 -0.004200335 -0.28833777 0.30730563 0.15694883 0.047945056 0.061505634 -0.25564036 0.09376808 -0.14690506 0.024391908 0.13207641 0.19147816 0.34762383 -0.19194221 0.3819436 0.06656256 0.17332435 0.348154 -0.22642769 -0.4200249 -0.26896828 -0.109942846
769 0.15903889 0.13782121 -0.14595889 0.06011967 0.18064179 0.09469922 0.34449783 -0.2696527 0.0021257505 -0.09057236 0.062278613 0.06864575 -0.129193 -0.05250645 -0.2075327 0.13402213 -0.21241401 0.0060237013 -0.06774051 0.048885357 -0.07310901 -0.0064022588 -0.017984519 -0.35287887 0.18828297 0.078753345 -0.18563895 0.15637444 0.06485791 0.03197126 -0.41597632 0.05717414 0.10226585 0.0054741036 0.062397614 -0.046268024 -0.090863705 0.09140828 0.124529146 0.54464865 0.17790176 0.10580292 0.281898 -0.0022654869 0.14489354 0.15840326 0.2721615 -0.5002138 0.23249255 0.1854299 0.19702603 -0.02192913 -0.06995701 -0.37685296 -0.059602052 0.021445202 -0.2183628 0.060081705 -0.052420724 0.03333659 0.3343682 0.032100026 0.22650723 -0.36019877 -0.26780355 0.026448537 0.14762518 0.20414592 0.11077679 -0.034327127 0.07393401 -0.20779262 0.13628262 -0.18903476 -0.3244762 0.11735874 -0.16633922 -0.2402693 0.3033573 -0.14259814 0.15460628 0.17975834 0.06045684 -0.121234804 -0.30934986 -0.08238686 0.22265977 0.19057581 0.3314762 0.10474096 -0.19741982 -0.12629059 0.06357012 0.30563164 -0.02865115 -0.23131412 -0.09021894 0.15011446 -0.027069699 -0.16301546 0.25376764 -0.66102266 0.114068136 -0.046486534 0.35598728 0.059763383 -0.22237138 -0.02704686 0.10460388 0.5175652 0.33893538 0.059155803 -0.35976222 0.032303534 0.03261549 -0.52077407 -0.20279573 -0.17653142 0.53984135 0.25540304 0.09477473 0.32928205 -0.087611884 0.28813243 0.007786847 0.120303534 0.050803874 -0.24258344
535 0.23218875 0.30085766 -0.19640505 -0.24040541 -0.30859017 0.110969596 0.014223273 0.025681293 0.3488465 -0.04469859 -0.04783591 0.23997554 -0.021240432 -0.1285907 -0.5899872 -0.15355559 -0.09424038 0.2386704 0.31217885 -0.19905674 -0.13328195 -0.021215206 -0.14767864 -0.470351 0.17541516 0.20407596 -0.24381916 0.19309351 0.10604709 -0.3582576 -0.038846422 0.08049368 0.19148909 0.4848675 -0.11274376 -0.07762594 -0.2927176 -0.09690048 -0.20064676 0.13202496 0.28904867 0.058248978 0.029394323 -0.2522296 -0.17583619 -0.3394615 0.39460543 -0.20192654 -0.1307187 0.27715763 0.38202518 -0.21498631 -0.08631975 -0.509887 -0.07378763 -0.091291524 -0.29826304 -0.22270904 0.19150224 -0.36080766 0.30053368 -0.26958758 0.0760496 0.09577983 -0.07785833 -0.27601308 0.17988043 -0.13149773 0.54344654 0.2313966 0.020739496 -0.05067185 -0.22790708 -0.024844568 -0.2690786 -0.6037314 -0.15411857 -0.25150836 -0.36912528 -0.21301654 0.06415017 0.34985092 -0.17995423 -0.20465977 -0.05786147 0.16961004 -0.09907928 0.42181846 0.18918337 0.30555612 -0.17330989 -0.38457832 0.09559565 -0.21470705 -0.10811375 0.19581074 -0.29753882 0.20752968 0.07086305 0.050970532 0.37055847 -0.40506294 -0.46176314 0.113832794 -0.11441341 0.000513985 -0.19423488 0.08251158 0.039935492 0.14907257 -0.21973197 0.011148439 -0.4352423 -0.13337931 -0.0090496205 -0.13258688 0.06789136 -0.07362898 0.36873627 -0.09121836 -0.12656185 0.17308179 0.21184272 0.030280335 0.31967622 -0.12767349 -0.10928323 -0.044547297
833 -0.43954533 0.32926956 -0.030678991 -0.28326648 -0.26971328 0.26292968 0.51231396 -0.4713487 -0.07805942 -0.025343623 -0.3107687 -0.14501843 0.34004486 0.31267846 -0.14015211 0.06727293 -0.1143651 -0.09520688 0.16464086 -0.124271326 -0.14860585 -0.12877105 0.11455599 0.09289751 0.003778207 0.07653498 0.053579114 0.5530076 -0.02833187 -0.030580048 -0.24186409 0.28565612 -0.30471683 0.17378418 0.03580536 -0.11063075 0.08522455 0.13500334 0.00071363396 0.04443435 0.13309067 0.2991956 -0.07051835 -0.12589902 0.17732722 0.27170303 -0.10648012 -0.30929077 0.097074695 0.10461903 0.19802777 -0.08655897 0.10373942 -0.24317332 -0.35054442 0.21561551 -0.2002734 -0.07328258 0.14827915 0.08312956 0.41472408 -0.012637955 -0.20221166 -0.26948786 0.04702561 -0.14721613 -0.06265585 0.27559176 0.2632996 0.28614253 0.3750776 -0.058020387 -0.00559529 -0.08540672 -0.18752263 -0.062074464 0.07615299 -0.11179261 -0.24124524 -0.23701005 0.18688725 0.11591009 0.03484134 -0.0983745 0.060904715 -0.12567243 0.14131632 0.44431618 -0.06873286 -0.052624725 -0.08860603 -0.0040301965 -0.27826846 -0.083139084 0.17106296 0.07087173 -0.25141925 0.19606659 0.37322778 -0.4338609 0.13111047 -0.13695426 -0.18286717 -0.2983373 0.05711336 0.026299627 0.11746041 0.034809448 0.21017751 -0.1871474 -0.009270671 -0.21396914 -0.44193378 0.110281006 0.2783683 -0.2429574 -0.4761014 -0.4939854 0.5169888 0.23385897 0.18044417 0.15944938 0.015220193 0.008746835 0.21635841 -0.08054762 -0.24460681 -0.17809327
752 -0.43582955 0.05561121 -0.0717068 -0.17520775 -0.20925935 -0.017915694 0.20077108 -0.3649975 0.14948949 -0.10939667 -0.07078668 -0.025272314 0.18651982 -0.089217424 -0.18396255 0.13700755 0.44414008 0.1492553 0.3022182 -0.12943599 -0.56456804 0.15184826 0.3084277 0.046462253 -0.044459805 0.36807442 0.21675755 0.24850617 -0.2233831 0.1528737 0.109542206 -0.39734656 -0.34085855 0.30652 0.068395905 -0.2646624 0.02570683 -0.04991543 -0.10918603 0.37032363 0.061939564 -0.055416856 0.12589756 -0.03904473 -0.2965119 0.25426814 -0.16026315 -0.3595253 0.11230429 0.14837328 0.2548263 -0.03764217 -0.14125672 -0.16321209 0.19680725 -0.17275937 0.002213115 -0.1990681 0.31139848 0.100715786 0.4360134 0.0057123885 0.040131774 -0.023667186 -0.085627995 0.17608102 0.023327144 0.06913293 0.35444012 0.3698234 0.3195379 -0.10018126 0.023016013 -0.041915033 -0.4243164 0.155879 0.269812 -0.4295269 -0.03310909 -0.25009152 0.034643956 -0.14016543 -0.20542519 -0.15914762 -0.5053303 -0.21410516 0.16439675 -0.05825901 -0.049920697 -0.14168563 -0.12742466 -0.13449737 -0.12256668 -0.13996449 0.061597325 0.17927553 -0.15555775 0.2782317 -0.0003303981 -0.15560338 0.2545176 -0.06677983 -0.19693157 0.23268129 0.060616974 -0.10856357 -0.04258646 -0.24660853 0.20637487 0.24547121 -0.20699139 -0.1677627 -0.29611647 -0.080738544 0.05295236 0.02523909 -0.015220791 -0.07103147 0.649725 -0.04947889 0.1687627 0.07556763 -0.037203565 0.033632066 -0.31879532 -0.0032682638 0.07531949 -0.45002553
782 -0.21527953 0.118520245 0.004336363 -0.044401553 -0.07184153 -0.08991637 0.44613054 -0.47663093 -0.099069886 -0.11735383 0.10164417 -0.3224798 0.10100494 0.18510886 -0.4163754 0.28230244 -0.101114884 0.26754296 -0.06370019 -0.042073566 -0.11095178 -0.37626743 -0.4231628 0.19632673 0.13895148 0.26718232 -0.52485067 0.23835583 0.3121251 -0.040693067 -0.22047329 -0.037569623 -0.098816276 0.43942973 -0.08352037 0.010535394 -0.18056554 -0.18601567 -0.1378107 0.27887487 0.11265243 -0.11931501 -0.16039084 0.14268975 -0.23202576 -0.18434806 -0.037562635 0.0005750895 0.15946122 -0.3242618 0.32944074 -0.16170146 -0.3532039 -0.23552148 -0.42070523 0.060745437 0.016708832 -0.099714614 -0.10533541 -0.11429812 0.38326523 0.22007926 0.2277939 -0.0025383835 0.19535357 0.101552196 0.06448158 0.14423624 0.12021715 -0.38421106 0.4626164 -0.11827304 0.14438103 -0.11969963 -0.08608943 -0.21656835 -0.06840715 0.07602301 -0.03187263 -0.21058583 0.073396675 0.21156362 0.3261908 0.01569657 -0.23186558 0.09700509 0.115504965 0.114079386 0.21372323 -0.059720516 -0.27095535 -0.05055678 -0.1207616 0.30503723 -0.35799396 0.051313516 -0.4037749 0.21460071 -0.0072889808 0.2198181 0.3117552 -0.35732475 0.18698457 0.24331343 0.32148007 -0.36107746 -0.085092865 -0.1898262 0.3011883 0.30730048 -0.10583724 0.25091994 0.0054878853 0.069062695 -0.20581055 -0.047619686 -0.15767907 -0.2988737 0.25372288 -0.118918054 -0.0023117908 0.37346846 -0.31172347 0.40437767 0.005790714 0.01854434 -0.07232141 -0.36797598
340 0.06038249 0.19579746 -0.0008916299 0.084678516 -0.5044945 -0.20245248 0.026085416 -0.42683443 0.16082229 0.014467892 -0.019095847 -0.06561186 -0.01603921 -0.100466244 -0.454851 0.108370066 -0.34510452 0.08036229 0.24579887 -0.24717474 -0.110016495 -0.17909205 0.22323862 0.080615856 0.11236535 0.22682865 0.05338684 -0.06797417 -0.08758232 0.07984741 -0.20738897 -0.14509764 -0.2348341 0.13918082 -0.14277148 -0.5670239 0.099856146 0.039936516 0.21575895 0.12212074 0.34011424 -0.415328 -0.3909121 -0.63366705 0.03102775 0.26169774 -0.23666665 -0.12106514 -0.028391063 0.4319148 0.15313055 -0.008467217 -0.2636004 -0.20215623 0.045464694 0.12042754 0.14650086 -0.1350256 0.0029760324 0.06560414 0.5357307 -0.10941666 0.11898511 0.04901723 0.1064184 0.07525266 0.10057246 -0.11200069 -0.09430188 -0.081548914 0.4840634 0.05413509 0.4400983 -0.110948205 -0.23936172 -0.06836902 0.40068266 -0.21013725 -0.15820561 0.10999888 -0.059231304 0.22349232 -0.19364515 -0.25959814 0.0024119162 0.011396833 -0.05232778 -0.002088384 0.40766126 0.15979338 -0.3033111 -0.041508146 -0.08766029 0.43702424 -0.021450672 0.12453706 -0.18218102 0.60425574 0.09511156 -0.064855754 0.14316608 -0.47261629 -0.13510795 0.1181072 0.22457771 0.17968376 -0.18354629 -0.18073447 0.5545804 -0.09340903 -0.17850463 0.04575097 -0.31617782 -0.09752957 -0.077813566 -0.2223604 -0.06309251 0.018448249 0.54082286 -0.045192096 -0.16110726 -0.023743382 -0.20263755 -0.19351318 -0.50759465 0.027774915 -0.35941693 -0.21453795
501 -0.0006913076 0.6050722 -0.15549585 -0.09034189 -0.26918587 0.25992027 0.0512303 -0.27454633 -0.10072705 0.27084804 -0.20295843 -0.025131378 -0.029906942 0.12686183 0.07708258 0.16971403 -0.0010695645 0.2831879 0.042836025 -0.3013383 0.06685542 -0.101922445 0.05756575 0.03673456 0.046298932 0.090460144 0.014507152 0.18182185 0.079858445 -0.09112969 -0.036340054 0.24503177 -0.13045685 0.056486238 -0.33299774 0.005252877 -0.31060547 0.19385524 -0.15361558 -0.015863588 0.16691954 -0.23222366 0.18323615 0.16104676 0.06050167 0.48322633 -0.21761106 -0.39226684 0.22295044 0.0215905 0.17700583 -0.3526693 -0.08179164 -0.17813472 -0.18568984 -0.21176945 -0.14472279 -0.3445077 0.2775758 -0.22666706 0.3784068 -0.14802386 -0.28034848 0.1721079 0.22188032 -0.22884862 0.09184894 0.0439314 0.29698616 -0.15082954 0.46642098 -0.03212005 -0.14182578 -0.30169177 -0.24264395 0.13280953 0.14191498 -0.25465906 0.028245859 -0.13864872 0.035324436 -0.06989043 0.39355448 -0.33236682 -0.039107222 -0.43621293 0.19474885 -0.025680596 0.11290956 0.114215374 -0.40861043 0.029223902 0.13098198 -0.023510372 -0.028580036 -0.18714294 -0.17696798 0.3416997 -0.24099992 0.025379727 0.6091386 -0.49487925 0.07773205 -0.024766684 0.16141802 -0.28940728 0.16544598 -0.27758145 0.11723075 0.30322236 -0.17013848 0.13829426 0.11465174 -0.18246298 0.15512507 0.078827485 -0.36381358 -0.19922654 0.36679345 0.17223091 -0.15440851 0.40394074 0.18959199 0.24630088 0.13885161 0.11317654 -0.36426985 0.05618593
757 -0.11376665 0.07094785 0.0153648555 -0.19830821 -0.34419814 0.123067 0.22108452 -0.6273999 0.2204262 -0.11091556 -0.17424606 0.040884055 0.11992751 0.2214946 -0.29329452 0.2095119 0.18708701 0.16287415 0.45716307 0.017878335 -0.17696124 -0.251347 0.17692384 0.0062145595 -0.01724732 0.505844 0.27592075 0.38967875 0.16429916 0.47548854 -0.114545025 0.07081176 -0.1583524 -0.03962924 0.12210065 -0.059408884 -0.00026903223 0.0032476769 0.06969809 0.18398026 -0.098994285 -0.055425696 0.072592296 -0.10939429 -0.08852775 -0.19294418 -0.13082248 -0.32212573 0.1952994 0.08580323 0.06050464 -0.004909481 -0.4523134 -0.28663132 0.07289065 -0.20581743 0.08181447 0.00937271 0.2330235 -0.3220994 0.25601432 -0.12456021 -0.2157264 -0.0030469552 -0.084979735 0.16153264 0.1312635 -0.19331351 0.31900933 0.11748986 0.66276026 -0.39199817 0.16390024 -0.056306176 0.019635927 0.020471223 0.09189693 -0.15725073 -0.13904937 -0.2590105 0.17835198 -0.07215576 -0.19723266 -0.4685873 -0.13437232 -0.030878285 0.17093024 -0.035241872 0.16761325 -0.090669245 0.027367951 0.032199997 -0.4558873 0.17137823 0.13113844 0.013765151 -0.3268011 -0.042764857 -0.10070038 0.094092004 0.30363977 -0.13953269 -0.22196653 -0.057734873 -0.044388384 0.15336168 -0.01909735 -0.02592693 0.31275952 0.16866511 -0.24609627 -0.13151573 -0.12325899 -0.13125059 0.02486791 -0.15415941 -0.24559899 -0.11883966 0.39499566 -0.15116972 0.23952444 -0.028433125 -0.18758678 0.03238656 0.048784513 -0.021492213 0.07171033 -0.25629884
96 0.31300867 0.26137647 -0.32366318 -0.2436708 -0.05483681 0.06682389 -0.24246643 -0.49514025 0.16466787 -0.24685465 -0.28097907 -0.083235174 -0.14118911 -0.070311695 -0.055302773 -0.14771265 -0.26401374 0.17257234 0.10629314 -0.17383488 -0.1789531 0.092144825 -0.463187 0.1762729 -0.091621995 0.31703922 -0.14168318 0.28823936 0.4276398 0.09378259 -0.16826616 0.024082974 -0.07826679 0.3547054 0.31758234 -0.16115484 0.20965466 -0.21208107 0.15370277 -0.06614179 -0.14744481 -0.1734741 -0.14722021 0.22638446 -0.0040334873 -0.029475369 0.34251332 -0.4714562 0.24050136 0.097438626 0.5074974 -0.27296925 -0.04880379 0.1094484 -0.053876188 -0.0137091875 -0.10130574 -0.21196038 -0.2421612 -0.12707247 0.22759223 -0.13367331 -0.028029501 -0.03989535 0.12360575 -0.0936114 0.23931266 0.39563376 0.33345687 0.14271495 0.23885556 0.29360318 -0.043571994 0.019160928 -0.07290874 0.13286169 -0.087137915 0.1846574 0.060737208 -0.15755092 -0.10349754 0.11329461 -0.03159395 0.007271078 -0.48000446 0.23555337 0.032203775 0.027758718 0.34137928 0.25432634 0.011758573 -0.18013166 -0.05894961 0.033772763 0.1280109 0.0198333 -0.31306 0.12041871 -0.0927291 -0.0002813142 0.16534029 -0.1259345 -0.11634173 0.21065189 0.33813933 -0.13401008 -0.13586408 -0.31362045 0.17876768 0.29572123 -0.36409676 -0.049126532 -0.49641448 0.16663417 0.01214076 0.105259605 -0.08633794 -0.021192374 0.32954755 0.061840247 -0.104478315 0.39977032 0.021118004 0.15721466 -0.036594205 -0.10979019 -0.2942393 -0.17523421
473 0.025220344 0.19834512 0.03994194 -0.3013276 -0.40821415 0.25032827 0.3359299 -0.58887726 0.035726707 -0.09309371 -0.23769253 0.07727289 0.18343213 -0.018743876 -0.24759421 0.32033437 -0.11056092 -0.076046176 0.39339727 -0.12569422 -0.41471237 -0.023004193 -0.066296615 0.25121132 -0.10079646 0.06374041 0.157174 0.2518342 0.14215882 -0.004965902 -0.3154706 0.06678952 -0.06337048 0.23418684 0.24879852 -0.14848168 -0.13678268 0.017958581 0.34717587 0.31867978 -0.1764552 -0.18812276 0.19196765 -0.18573132 0.094886854 0.059114594 -0.023081854 -0.10060494 -0.0021199093 0.019209854 0.1003346 -0.29198655 -0.029996404 -0.3985785 -0.03662539 0.173496 0.12637082 -0.2817539 0.14029986 -0.44589558 0.2258115 0.05310097 -0.15461916 -0.35239965 0.15591864 0.28124535 0.13501276 0.21456788 0.013866583 0.1903115 0.24408057 -0.18283942 0.442624 -0.298002 0.015295789 -0.08438015 0.20671879 -0.2741027 0.0027963566 -0.055992544 -0.2736536 0.15717836 -0.023500456 -0.073867425 -0.19147696 -0.20634168 0.0055930465 0.0018188554 0.27701983 -0.19049168 -0.381513 -0.056289997 0.023580873 0.32496595 0.016891222 0.27562806 -0.23587564 0.05934074 0.08488966 -0.13561344 0.11130056 0.009536547 -0.053433046 -0.26230884 0.013903056 -0.14615425 -0.18544444 -0.033955105 0.2064461 0.20277183 -0.13854197 -0.026274195 -0.37576485 -0.085099034 -0.11004799 -0.098060556 -0.37083986 -0.21724635 0.11681093 -0.040112708 0.17207456 0.0449183 0.3484527 -0.08603577 0.29790962 0.3005991 -0.19917125 -0.23356603
307 -0.21444401 0.17808355 0.11099643 -0.4097722 -0.08020988 -0.17906824 -0.040886045 0.008228818 -0.09773796 0.05413138 -0.32158434 0.10531773 0.015120048 0.39247414 -0.17755535 -0.08472118 -0.23644951 0.033744868 0.099837996 -0.25099328 0.092411 0.12348792 0.17651631 -0.05727993 0.18488877 -0.16630822 -0.116848916 0.5766463 0.20525673 -0.0029325108 -0.41916594 -0.10235216 -0.09837706 0.35014307 -0.03113982 0.121056944 -0.06638329 -0.19986394 0.18335475 0.06419221 -0.24428326 -0.31439072 -0.24171717 0.2127126 0.15248545 0.29646894 0.16137159 -0.3234657 0.033747774 0.32655662 0.25648394 0.012328986 -0.035493653 -0.08551368 0.25616556 -0.080924734 0.05434908 -0.038909312 0.08953538 -0.1466534 0.16916214 -0.28582895 0.04532478 -0.030487204 -0.09710269 0.23803543 0.111542225 0.05944014 -0.040774602 0.31208935 0.15896714 -0.44869938 0.4261819 -0.17455968 0.2020856 -0.22090778 0.24165069 0.058258206 -0.11504219 -0.081188776 -0.19891164 0.21775684 0.028157972 -0.3343154 -0.008223622 0.009872393 0.1175935 0.20748246 0.10092718 0.08488023 -0.31866503 -0.19243132 -0.29251197 -0.10288481 -0.23327635 -0.52774835 -0.5698816 0.17732185 -0.083917536 -0.05989051 0.20450157 -0.2512783 -0.18299936 -0.26559195 0.25451007 -0.042790607 -0.0031268634 -0.42511162 0.40224743 -0.104483254 0.09787953 0.10920116 -0.28869888 0.27258295 -0.19452976 0.040272217 -0.16962183 -0.2701992 0.4198767 -0.10115984 0.28925112 0.12973222 -0.07500802 0.14393872 0.25883925 0.12742057 -0.27339178 -0.35599583
839 0.1130437 0.09834836 0.049342297 0.09516286 -0.07798502 -0.056136534 0.14743504 -0.23883227 -0.2772548 -0.3635412 -0.30936363 0.11293492 -0.028310794 -0.016130906 0.008161082 -0.07596739 -0.0662669 -0.1190358 0.050972514 0.053458013 -0.13974564 -0.019537307 0.06726442 -0.14778781 0.13054852 0.07952213 -0.04127827 0.1710438 0.12939689 0.06955347 -0.3456795 -0.30325824 -0.21738318 0.5813241 -0.17190081 0.020909157 -0.099422984 0.04339704 0.14492913 0.17332457 0.012643547 0.031928103 -0.013210991 0.077750064 -0.41237125 0.17666215 0.1661634 -0.32702604 0.5547751 0.111629285 0.4026901 -0.1755553 -0.42037585 -0.14280342 -0.17672056 -0.24389558 -0.15846646 -0.099603325 -0.079676315 -0.033445004 0.14745593 -0.12224917 0.15019807 -0.04558609 0.018379565 0.176449 0.09225232 -0.17148954 0.15288869 -0.24629584 0.44162798 0.04733348 0.27261913 -0.38629642 -0.1202827 -0.19337715 0.18087396 -0.14591652 0.0034868282 -0.22689646 -0.006277429 0.01993094 0.024716262 0.0027981158 0.061651953 0.07807356 -0.1149974 0.116111636 0.16677904 0.33773893 -0.09913475 -0.39505774 -0.14720261 0.4544916 0.07249875 0.080761366 -0.074578635 0.33371687 -0.14850385 -0.024072943 0.3245781 -0.29594156 -0.30160847 -0.0427561 0.068039045 -0.4341375 0.0012641796 -0.18967767 0.2686577 0.33130538 -0.11522351 -0.24694541 -0.053706 0.2420885 -0.18806966 -0.24229722 0.0028504932 -0.36268172 0.06361152 0.18501967 0.10562084 0.27416918 0.5967093 0.2608317 0.124683335 -0.39524564 0.13034277 -0.17328057
949 0.0062632803 0.30789062 -0.008988929 -0.04985197 -0.41748655 0.2503561 0.3061453 -0.3684488 0.13236584 -0.3593693 0.016194703 0.1077835 0.035498593 0.089486055 -0.38672462 -0.1923873 -0.034447324 0.4230331 -0.01529387 -0.014186216 -0.18515489 -0.07309789 0.1057613 0.12668906 -0.033790447 0.3861749 0.35868818 0.06698623 0.25131774 -0.26990303 0.0672079 -0.18891726 -0.004630994 0.12517546 -0.34940606 -0.2318721 -0.012154809 -0.264961 0.1314352 0.29340458 0.012905748 -0.20096439 -0.24101403 -0.03440337 -0.008946883 -0.10053832 -0.10223532 0.15718657 0.2826225 0.20684914 0.2526882 0.04661397 -0.30412057 -0.10671682 -0.1740784 0.066289656 -0.12725088 0.03982967 0.11881217 0.15333925 0.21139054 0.13126755 -0.27340797 0.051569834 0.22524641 0.32655776 -0.05203239 -0.04767443 0.37129915 -0.015782733 -0.08022798 0.2307871 0.35421422 -0.3615705 -0.23415326 -0.33293998 0.18763804 0.21466413 0.10950246 0.053035256 0.02084872 0.3729106 -0.13887519 -0.10368605 0.012531097 -0.15829358 0.1299954 0.097498134 0.33585495 0.13834389 0.0508984 -0.16396539 -0.1006327 0.16619322 -0.18193239 -0.16221398 -0.5373448 0.30509716 -0.009009122 -0.09176399 0.109181754 -0.35628295 -0.18793514 0.08416744 0.46114674 -0.29448947 -0.17356254 -0.24191572 -0.13183826 0.18344955 -0.051905327 0.41001156 -0.28785053 0.06532668 -0.25941184 -0.22337322 -0.08434669 0.28319386 0.38881874 0.34956416 0.026761957 0.13059285 -0.20761926 0.19004615 -0.067768835 -0.13529931 -0.33610457 0.057933558
211 -0.09090643 -0.009514583 -0.01804308 0.00032516173 -0.029666597 -0.062125668 0.06836682 -0.015187933 0.22687045 -0.28155187 0.044094197 0.16664252 0.31615192 -0.10047155 -0.17603649 0.06907182 0.20619841 0.55389744 -0.12457042 0.2482887 0.03581096 -0.42359707 -0.29390126 -0.0059981938 0.19739826 0.3307517 -0.055115607 0.79463255 0.07090653 0.17503859 -0.11152425 0.14764015 -0.14780843 0.26374304 0.0013605306 -0.19019437 0.0693689 -0.2194315 -0.18974084 -0.04937657 0.0012814968 0.1418002 0.4031553 -0.16196959 -0.024191462 -0.36468562 -0.26026335 -0.36463022 0.196326 0.31444064 0.3528051 0.03557365 -0.1243872 -0.24173841 0.12421928 -0.3749208 0.4461433 0.11018073 0.32250303 -0.3777795 0.22245201 -0.16312245 -0.12974322 0.27103868 -0.028704414 0.34838164 0.18913849 0.26744762 0.41742674 0.0023357277 0.57322943 -0.1379472 0.19155982 -0.07292846 -0.07868922 -0.13954079 0.098730005 -0.17002536 -0.15417777 -0.4051089 -0.040562484 0.10058322 -0.08568191 -0.34607717 -0.41475052 -0.18860668 -0.114334695 0.13659874 -0.05300203 0.18783219 -0.095170185 0.15808819 -0.1615488 0.09151824 -0.05510619 0.24893647 -0.04885659 0.40746516 0.41934612 -0.30767718 0.15197508 -0.13839084 -0.17837094 0.074811466 0.21397246 -0.106356144 -0.22813946 -0.3202757 0.32064673 0.21485598 -0.3738845 0.08146676 -0.05412714 0.1815379 -0.053355165 -0.13487397 -0.263591 -0.24564278 0.07688077 -0.33133543 0.08209427 -0.061885085 0.03317321 0.16411158 0.03470613 0.15202397 -0.18863934 -0.015878808
710 0.03451228 0.04678574 -0.03312069 -0.26093712 0.029098716 0.28418794 -0.08415268 -0.35079557 -0.19672538 -0.08792175 -0.25871238 0.033047356 0.020390606 -0.10614618 -0.5215149 0.132694 -0.05866374 0.4561083 0.15383254 0.12644629 -0.23537417 -0.23140599 0.061419442 -0.10942216 -0.0013838457 0.19674428 -0.12505347 0.20052232 -0.18437073 0.23564067 0.08972716 0.0006760119 -0.047902483 0.28637198 0.26922265 -0.1801223 -0.0955037 -0.06651179 0.025365124 0.28444314 -0.06418849 0.053547237 -0.097144715 -0.1539505 -0.2266062 0.27086136 0.072049916 0.043174516 0.099277034 0.1560956 -0.1802161 0.50149405 -0.21563831 -0.17552884 0.0365745 0.116581775 0.16846316 -0.15559833 -0.054075573 -0.13760969 0.49194172 -0.44110808 -0.12095882 -0.19341744 0.17675681 0.22367792 0.18306701 0.5526408 0.30373028 -0.10690256 0.37829962 -0.23176907 0.42354628 -0.12285394 -0.26094896 0.02239571 -0.04714462 -0.19238597 0.09266691 0.021278242 -0.17140296 0.23729017 0.01697889 -0.15278848 0.017819535 -0.031809177 0.32080945 -0.026559843 0.50970036 -0.10142858 -0.64691776 -0.26831162 0.015976416 -0.11797752 -0.14205912 0.10171693 -0.16156639 -0.13826141 0.21383327 -0.023844676 0.071462005 0.0886334 -0.1226055 -0.06363909 0.2025465 -0.20407227 -0.23504691 -0.12351485 0.3315365 -0.120611705 -0.24198328 -0.40930322 -0.47001836 0.028160093 -0.067911915 -0.19985792 -0.42626104 0.10804729 0.6052919 -0.0710968 0.091368966 0.0072916816 0.17749032 -0.26152888 0.04982754 -0.017213939 -0.3451179 -0.07915509
682 -0.2025067 0.30330527 -0.30466443 -0.12076057 -0.15124285 0.50126964 0.06544358 -0.43237644 -0.043875683 -0.016065193 -0.24506436 -0.09255074 0.060554937 0.13164717 -0.33616284 -0.047573324 -0.040011965 0.041615117 -0.014568733 -0.17893 -0.21255797 -0.0043697623 -0.054623775 -0.041818984 0.20724626 0.23806202 0.26852852 0.40622222 -0.060721252 -0.18627995 -0.32369372 -0.23622179 0.006038875 0.19704814 0.100307465 -0.46460867 -0.030821793 0.095046714 0.10602346 0.42436343 0.013317497 -0.01605458 0.16578342 0.09192723 -0.08778713 0.10027083 0.11735193 -0.05922705 0.009298098 0.069218576 -0.28737858 0.17052732 -0.26695985 -0.22650744 0.16641273 -0.0705096 -0.0043439697 -0.15143928 -0.08130041 -0.03785139 0.50509423 -0.34455493 -0.06612497 -0.03526759 0.041564636 0.13429411 -0.055873632 0.17737043 -0.0012050541 0.35631925 0.17453068 -0.14554484 0.40790257 -0.115555346 0.054296814 -0.02952522 0.17503318 -0.2518997 -0.109541126 -0.2971832 0.077296324 0.18738145 -0.34913874 -0.30387285 -0.10373866 -0.044986907 0.01309951 0.06946058 0.0846827 0.2510477 -0.1477839 -0.13451341 -0.6147942 0.06260606 0.09386847 0.373733 -0.12477712 0.13509756 -0.3259366 -0.20016181 0.06816135 -0.12956955 -0.16155285 -0.12941645 -0.13899125 -0.066658385 -0.028944112 -0.0242696 0.044094693 0.3330235 -0.19038306 -0.28936443 -0.022387534 -0.117139466 0.06556489 -0.1639099 -0.3859872 -0.09918017 0.37102866 0.2996499 0.07743586 0.14953558 0.07045275 0.21844494 0.031365763 -0.07509263 -0.22975177 -0.3639191
585 -0.009119293 0.38329032 -0.12746921 -0.07628561 -0.16959432 -0.03036876 -0.17275569 -0.6491705 0.047781095 -0.22727431 -0.24777657 -0.08043235 0.2938162 0.113313034 -0.20697467 0.11413907 0.061873905 0.103595346 0.30593935 0.21602182 -0.11311936 0.007192605 0.058581997 -0.14102907 -0.118831806 0.24818343 -0.36359748 0.1386437 0.057960205 0.1975676 -0.1359939 0.013347031 -0.21531914 0.18554902 0.024107708 0.1972739 -0.25688374 -0.0013629931 0.03138056 0.18051146 0.17606895 -0.023587393 -0.14096743 0.1526594 0.1348748 -0.38577265 0.326449 -0.3140165 -0.17365497 0.4060094 0.042653047 -0.090657026 -0.15390462 -0.18901716 -0.12964971 0.070117876 0.17232944 -0.08132135 -0.18484901 -0.33470628 0.2450768 -0.066327505 -0.46005806 -0.2516999 -0.030320812 -0.05366417 -0.0660532 0.12416096 -0.08120457 0.004809189 0.40892798 0.09851785 0.30439955 0.025755493 -0.4475479 -0.4861912 0.31542337 -0.027763683 0.17081411 0.05744548 -0.040213864 0.07215818 -0.49551573 0.07284336 -0.15657164 0.16027996 0.0071336627 -0.010426286 0.052480437 0.3565952 0.34191078 0.11241808 0.25664145 0.17745955 -0.17333035 0.023359686 -0.40345794 0.13722345 -0.02696356 -0.20239896 0.4825284 -0.43534163 0.47276878 -0.06288568 -0.03512697 -0.21838392 0.17408018 -0.077187195 -0.27731696 0.28472665 -0.20669365 -0.2837476 -0.22296378 0.08816507 -0.11727107 -0.0091911405 -0.49756163 -0.00258127 0.20680825 0.0920282 0.14143395 0.23104368 -0.16002738 0.39163098 0.09811778 0.037668325 -0.24251652 -0.35823345
67 0.19972654 0.49040532 0.19694653 0.051246893 -0.08883222 0.43064636 0.27955842 -0.2739541 0.20949419 -0.24290814 0.12357117 -0.16489378 0.1551214 0.15503453 -0.34937698 0.093346976 -0.05441498 0.31156152 0.04365129 -0.36877286 -0.2571673 -0.3339838 0.27868846 -0.04038541 0.32264227 0.14599137 -0.314014 -0.09931254 -0.02944176 0.19706947 -0.06126843 -0.0072153276 -0.17764577 0.34306976 -0.16539276 -0.187275 -0.031757418 -0.414293 -0.02147134 0.07360104 0.009618724 -0.33434656 -0.114954345 -0.3633672 -0.022541959 0.16820782 -0.019515632 -0.20775965 0.07436229 -0.022750765 0.376396 0.049733948 -0.5771993 -0.17954382 -0.3348213 -0.022860842 -0.09099625 -0.018373584 -0.019671349 0.027730798 0.34673652 0.10666912 0.12593204 -0.055743925 0.25612563 0.26615515 0.05668558 0.23110619 0.2950199 0.063824065 0.31291655 -0.14805591 0.14273795 -0.097840466 -0.25208277 -0.08157384 -0.17376395 -0.036570027 0.030208582 -0.43919897 -0.20652874 0.17982404 0.16299382 0.030478233 -0.39421177 -0.0035854876 0.05369405 0.012165189 0.104282275 -0.06273979 -0.2334259 0.015380883 0.17824022 0.3009072 -0.21033446 0.05732591 -0.20751683 0.13787232 -0.1278421 0.15901744 0.50538063 -0.072444305 -0.06262058 -0.2434021 0.3501684 0.01969322 0.06245781 -0.19539371 0.019286163 0.3099566 -0.20855126 -0.008957561 -0.0224274 0.091295 0.15841281 -0.21424875 -0.2722247 -0.27740988 0.33441627 0.1383989 0.37089232 0.3058572 -0.21503282 0.43366504 -0.22416128 0.13840534 0.0028180685 -0.29244134
62 -0.22670287 0.38178203 -0.31900007 -0.42474902 -0.27351323 -0.31994691 0.031484127 -0.33181137 0.004698904 -0.07150839 -0.14319636 -0.099319614 0.22350831 0.1890861 -0.2620711 0.24533185 0.23254661 0.06053547 -0.1411942 -0.4283248 0.07733165 -0.09145534 0.0675707 0.05957653 -0.14399144 -0.27750772 0.19139086 0.35487857 0.034466874 -0.17194885 0.0071703154 -0.15327029 -0.08661811 -0.13757758 0.10939965 -0.092608 0.09174464 0.24230441 -0.18565325 0.07601334 -0.30912924 0.24841061 -0.049857676 -0.26927885 0.14439097 0.02023046 0.035239942 -0.022760676 0.16589105 0.16525781 0.0697918 -0.077727154 -0.24843554 -0.48388097 -0.5832529 -0.6798055 0.09905298 -0.33811224 -0.20614015 0.25427443 -0.06966157 -0.42039147 -0.13114734 -0.3479259 -0.15756105 -0.43163994 0.04587496 -0.10382751 0.37906605 0.25786838 0.44513124 -0.4943467 0.19757256 -0.3767754 -0.08029225 0.3064517 0.1479921 -0.30700415 0.55477107 0.107586056 -0.100080356 0.1615629 0.028580729 -0.13345033 -0.2030499 -0.6162012 0.0064857733 -0.03368496 0.16474387 0.04806258 -0.15562484 0.1560035 0.018462548 0.2693826 0.04100501 0.038108718 -0.4054189 -0.0068806037 -0.18482307 0.04008745 0.191661 -0.07383677 -0.33917814 -0.1540095 0.22157553 -0.37550533 -0.42815563 -0.13959575 0.14689112 0.048919395 -0.1226379 0.16643721 -0.27369568 -0.02137 -0.078171596 -0.5059619 -0.16076255 -0.05712291 0.15362056 -0.13921158 -0.054150432 0.2912755 0.16626322 0.2768705 0.16606028 -0.3110552 -0.09142463 -0.088996224
66 0.15977663 0.37481785 -0.086536944 0.01816756 -0.13153885 0.14052087 0.30284664 -0.3926746 0.07838797 0.11795713 -0.31091753 0.03487572 0.3758829 -0.07212002 -0.13208286 -0.3340699 0.050344057 -0.009563653 -0.12946044 -0.24899878 0.029544167 -0.40902916 -0.10529033 -0.18880099 -0.03718077 0.44670632 -0.20814836 0.19958414 0.19222438 -0.14463988 0.11055167 0.32629365 -0.009101141 0.13256262 0.272004 -0.27472365 -0.29774013 -0.18159321 -0.32256645 0.34971046 0.3213312 0.18514964 -0.12455394 0.28343272 -0.105794676 0.4647221 0.2757774 0.07128494 0.1141461 0.20884264 0.14543693 0.1087428 -0.433256 -0.19871457 -0.1602448 -0.33284032 -0.16250958 -0.14496182 -0.26079777 -0.4896975 0.20750315 -0.25377792 0.084228806 -0.010576099 -0.07729514 -0.10461702 0.24099721 0.08342176 -0.18709224 0.19904204 0.27695572 -0.07565134 0.08712035 -0.22472957 -0.00019745425 0.16636446 0.077242166 -0.31917036 -0.17581925 -0.17857125 -0.20657897 -0.022136504 0.020271512 -0.22228777 0.074792296 -0.02619787 -0.22842629 -0.17753895 0.05036211 0.07443229 -0.26540726 -0.090580195 -0.30106091 0.30806196 -0.15483207 -0.15058002 0.023250716 0.5500086 -0.41623616 -0.28719723 0.4198067 -0.048388664 -0.0023479378 -0.30711803 0.04210757 0.17331713 0.045272898 0.14835262 0.0067265313 0.405157 -0.17346078 -0.23496349 -0.2600927 -0.07309709 0.04112704 -0.16207555 -0.007296331 0.32824266 0.38582546 -0.075594604 -0.04854015 0.11005423 -0.3517966 0.10991874 -0.09942676 0.2246458 -0.09959457 -0.11010785
653 0.04203776 0.3522485 0.13580279 0.11815104 -0.34449008 0.24343404 -0.21101606 -0.24063145 -0.013918716 -0.06822486 -0.26785457 -0.21715643 0.06677305 -0.006714071 -0.08114975 0.37245938 -0.100300156 0.09220317 0.045077942 -0.48626998 -0.20436305 -0.024743063 0.24088997 -0.06539525 -0.19837347 0.23533878 0.06326396 0.26052043 0.11040574 -0.29799652 -0.30807152 -0.29719046 -0.09843359 0.26353005 0.040920798 -0.12931293 0.12616585 0.10078908 -0.016537668 -0.059983987 -0.23504019 0.25091332 -0.017334651 -0.1169813 0.28264034 -0.2720354 0.25598222 -0.31342193 0.5340254 0.16731854 -0.14398979 -0.17532484 -0.11502295 0.001986797 0.14521186 0.06163199 -0.15404393 0.21380624 -0.09431977 0.04350908 0.3363446 -0.26423955 -0.034347456 -0.01684316 0.14326017 0.06968988 0.36425403 0.054207835 0.10453757 0.27645534 0.31184635 -0.051662475 0.060376983 -0.28176248 -0.5010251 -0.08853094 0.11500331 0.0660279 0.10114622 0.20553201 -0.30634728 0.23479025 -0.11216143 -0.16687328 0.1198449 -0.14496523 0.056794815 -0.29505458 0.1991349 0.06527848 0.0016537565 -0.14736812 -0.086759694 0.003601103 -0.21853168 0.44530565 -0.21307726 0.3214622 0.3201732 -0.22519746 0.35160455 0.21865174 -0.14623022 -0.020687953 -0.103651874 -0.15904213 0.25292522 -0.08582351 0.07499667 0.33208174 0.02488805 0.18930475 -0.2783222 -0.13320322 0.29223904 0.024955066 -0.34608337 -0.100007355 0.60969603 -0.110859 0.3958138 -0.21990484 -0.32121256 0.35417596 0.26650053 -0.34108236 -0.17101559 -0.4736149
1338 0.05679604 0.12969871 -0.20041873 -0.060014956 0.13003387 0.15693915 -0.091969505 -0.39577296 0.27502015 0.021286765 -0.19179162 0.057554167 0.2540671 -0.0721212 -0.19684033 0.33848673 0.051753487 0.0021247892 0.3294848 -0.3485548 -0.25490257 -0.5033234 0.1456824 -0.16638558 0.25160292 0.1812114 0.25926358 0.31168586 0.32603887 0.02766189 -0.23593868 0.003717637 -0.63959324 0.23393077 0.017556194 -0.116123885 0.071493246 -0.010842607 -0.16849305 0.24225721 0.3050423 -0.29905456 -0.31724554 -0.39003834 -0.23546991 0.057300992 -0.21621275 -0.4136845 0.047951788 -0.07975713 0.30759546 0.039974995 -0.09541608 0.0700895 -0.22148915 -0.19328214 0.12950319 -0.11967414 -0.10310338 -0.29761386 0.40768784 0.098887675 0.31110302 0.14944841 0.047151905 -0.059806675 -0.045741305 -0.0014327079 0.2773164 0.082145035 0.26548663 -0.18219997 0.2206511 -0.12456649 -0.3212719 -0.33943763 0.15647562 -0.30634505 -0.17412068 0.15224662 -0.3056018 0.09093289 -0.27659893 -0.027646003 -0.11277102 -0.19956315 0.0031532526 -0.0040449984 0.40229788 0.06181255 -0.43249282 -0.085322976 -0.21593513 0.17607726 0.09387894 0.06873753 -0.20237465 -0.1690981 0.06294333 -0.4093942 0.20716207 -0.21725398 0.061140925 0.024590524 0.60961807 0.009881756 -0.1017571 0.26756927 0.3012126 0.09693597 0.00091079006 -0.25512153 -0.19084187 0.191804 0.17865498 -0.27823573 -0.252722 -0.06250314 0.30395645 0.09822647 0.11088201 0.21423286 -0.1653873 0.046978597 0.28251383 0.13332295 -0.24610677 0.1974331
481 0.036665455 0.61460024 -0.44436237 0.057848614 -0.038045112 -0.0064277467 -0.05415011 -0.2588033 0.16899867 -0.021205377 -0.38378948 -0.015339693 0.2363994 0.017170817 -0.11029214 -0.23808579 -0.0072510196 0.086113825 0.19795975 -0.2778278 0.044509266 -0.20242272 -0.20323746 -0.283927 0.10220878 0.2367883 0.094944485 0.14934365 0.4464174 -0.07903382 0.09218705 0.096907884 0.1423589 0.09804323 -0.32716712 -0.011933227 -0.04102268 0.051236637 -0.071443126 0.09363905 -0.2617033 -0.20035778 0.01265364 0.17947254 -0.11295096 0.016993387 0.29026303 0.058951586 -0.05050662 0.5292763 0.24510956 0.046047635 0.14046375 -0.19340399 0.17455392 -0.19053079 -0.031995304 -0.30086565 0.020776603 0.0066394927 0.6254613 0.03849129 0.03121419 0.1910907 0.016093394 0.028498026 -0.0069968747 -0.08976273 0.46233702 0.18702485 0.43276417 0.09222494 0.061989643 -0.44760653 -0.11593331 -0.011148688 0.04814482 -0.08201231 -0.11579185 -0.13991416 -0.29159215 -0.06275902 -0.18013863 -0.15087281 0.13677101 0.02628493 0.17811334 0.27295902 0.23653731 0.19055007 -0.16114625 0.104341544 0.06913328 0.15137951 0.023336118 0.24501765 -0.16736643 -0.056248177 -0.109056205 -0.20586076 0.25897452 0.02451308 -0.011447029 -0.099892944 0.21685638 -0.2792914 -0.018360462 -0.079001 0.21880147 0.3400493 -0.41770712 0.011375923 -0.22533852 0.007430269 0.20459221 -0.01703519 0.10026567 -0.15246867 0.34659275 -0.04184397 0.14605342 0.23565906 0.076708734 0.15026309 -0.18888064 -0.08433656 -0.1147762 -0.05018425
249 -0.26902682 0.24545239 -0.008868465 -0.12076419 -0.11480834 0.2664974 0.19005881 -0.5005298 -0.021161754 0.05898303 -0.10217473 -0.09992113 0.21005194 0.38587704 -0.27248394 -0.156415 -0.28098446 0.23794001 0.03689822 0.19310467 -0.16757356 -0.124576844 -0.08778796 0.13722889 -0.0678892 0.03962908 -0.24175313 0.33509034 0.2931956 0.0041062078 -0.03445073 0.16240859 0.359463 0.13037662 -0.21934354 0.0025570374 -0.09307237 -0.18935163 0.075567305 0.10286573 -0.018625733 -0.18692094 0.03169731 -0.19866002 0.05922363 -0.031764254 -0.17321752 -0.09886559 0.4107572 0.16250123 0.334426 0.2352409 -0.11030383 -0.2463375 -0.10968673 -0.10520593 -0.16805995 -0.21087155 0.20996375 0.04805542 0.12873812 -0.20338424 -0.082013965 0.06302487 0.00706876 -0.13193437 0.20189476 0.42202327 0.32725418 0.13473894 0.49488083 0.12124474 -0.056642238 -0.0014073764 -0.14859357 0.0075902473 0.11359966 -0.3544948 -0.004315276 -0.18702017 0.1420627 0.020981856 -0.03885851 -0.30004257 0.023416469 0.034289848 0.30666935 0.18587852 0.18026718 0.056904875 -0.3156875 -0.2046212 -0.014470023 0.17024903 -0.3927976 -0.29352817 0.06491392 0.034380708 -0.21594872 -0.32761654 0.31219298 -0.31445295 -0.41169068 -0.28034478 0.13893065 -0.45956644 0.10888945 -0.24143447 0.23478414 -0.09373906 -0.13107231 -0.15288766 -0.080713935 -0.2756108 -0.016966602 -0.0736691 -0.104731366 0.03080617 0.45885128 0.29786316 0.016099604 0.2768683 -0.3827727 0.12513736 0.25072673 -0.004144488 -0.07555194 0.031211764
251 0.14875379 0.50237936 -0.19968246 -0.1883991 -0.1651371 0.016582184 0.18847142 -0.22757083 0.07950677 -0.032899495 -0.5169589 -0.01819234 0.32453394 -0.18060875 -0.08742649 -0.0020960877 0.1551587 0.2961175 0.020715574 -0.18402031 -0.08718264 -0.10715541 0.17760648 0.29449412 0.060982652 0.072243996 -0.56785446 0.15043879 -0.14154564 -0.01795462 -0.09323577 0.04772528 -0.0024116775 0.70123804 -0.08800341 -0.18550766 -0.15840508 -0.0532446 -0.14028686 0.21726547 0.2643186 0.14195937 -0.19367972 0.2300971 -0.059247974 -0.35934573 0.21630304 -0.12151948 0.042620238 0.045402896 0.2809325 -0.1366174 -0.102211714 -0.254382 -0.15581046 -0.016424347 0.09546426 -0.24855068 0.031319607 -0.25063375 0.16995053 -0.36709175 -0.00054520695 0.11585999 -0.07535764 -0.09796575 0.2584342 -0.03822205 0.027942777 -0.24292198 0.52121866 -0.11221928 0.3910523 -0.11341294 0.12675793 -0.41082287 0.17404287 0.0050789826 0.08191941 -0.18411501 -0.2216925 -0.0033079304 -0.27129808 -0.2939801 -0.14221478 -0.07139205 -0.051953968 0.06403376 0.03300719 0.031998 -0.24393027 -0.008994306 -0.051721014 0.23731257 -0.10900426 0.2888653 -0.6108518 -0.011227287 0.25476682 -0.05174577 0.073303536 -0.038107384 0.03929328 0.28850392 0.3274567 -0.17463751 -0.066692695 -0.4100577 -0.13958563 0.43418834 0.01724941 0.12555443 -0.534833 0.22305162 0.19235377 0.17653866 -0.01639979 -0.02493272 0.26722777 0.039452154 -0.19635701 0.23845628 -0.28010422 0.35893038 -0.43792617 -0.12703317 -0.056069963 -0.22225839
711 -0.034128927 0.11719115 -0.42929953 -0.11852742 -0.04793628 -0.3773347 0.10928756 -0.24744461 0.17676632 0.051960442 -0.07818594 0.13557725 -0.020867143 0.10679283 -0.27514717 0.18226157 0.026518745 -0.045197833 0.20059809 0.09821585 -0.097093455 -0.06539339 -0.046550207 -0.056670565 0.31026152 0.2211781 0.06153384 0.3103966 -0.22077286 0.057929132 -0.34546295 -0.056600824 -0.296336 0.027001088 -0.0036739234 -0.2287767 0.03738803 -0.22792341 0.16506274 0.3424847 0.11606966 0.27290064 0.013128465 -0.56482637 0.40709358 0.1667305 0.098638535 -0.14005996 0.32649302 0.3853733 0.25122148 -0.21597414 -0.15533641 -0.5155928 -0.14846021 -0.44544283 0.006430977 -0.18492948 -0.07666448 0.098833606 0.035454556 0.08025542 -0.11073931 -0.07065003 -0.060546555 0.4198363 -0.07432321 0.13052003 0.2545678 0.14452584 0.36014715 -0.11534335 0.10802018 -0.15755978 -0.16955188 0.34268847 0.39051726 -0.27924147 -0.03175966 -0.008537244 0.20340148 0.15193032 0.06507116 -0.19485545 -0.063829795 0.0408232 0.09688083 0.268313 0.0056789005 -0.08927606 -0.2426717 -0.05424808 -0.138658 -0.0049365736 -0.24507594 0.25369287 -0.25503066 0.10308771 -0.01523216 -0.2094577 0.040958345 -0.20379056 0.10923721 -0.2794869 0.12308128 -0.17928062 -0.28706476 -0.10496637 -0.09076464 0.29421481 -0.17706941 -0.26673117 -0.70756245 0.28394344 -0.14887992 0.17775017 0.012548995 -0.2699914 0.5533381 -0.31164157 0.12100244 0.24664664 0.043586932 0.30150628 -0.08013662 0.27738646 0.06079351 0.09258643
461 -0.24356721 -0.033286188 0.07246044 -0.52214795 0.15814888 0.20919165 -0.06040119 -0.14921299 0.03568868 -0.19604042 -0.048869707 0.065423146 -0.07285873 -0.03817705 -0.28711814 0.1411848 -0.27813402 0.034867674 -0.026219416 -0.38689214 0.020631744 -0.45435715 -0.15371722 -0.100568 0.3219714 0.1652852 0.07082268 0.36351606 0.2356511 -0.14522451 -0.09110018 0.008647057 -0.20552108 0.12288375 0.21590403 -0.24315836 0.022174146 -0.08596976 0.08857193 -0.010070742 -0.08454478 0.111646384 -0.2591281 -0.33625117 -0.20535883 0.090100564 0.19284315 0.18128124 0.15419942 0.08554376 0.06647037 -0.073018566 -0.16175526 -0.36196473 0.05874574 -0.012011364 -0.13372064 0.021077648 -0.18343508 0.06987635 0.2705245 -0.37196106 -0.08761336 -0.26670775 0.13621843 -0.24712631 0.24840075 -0.076994054 0.26730585 0.08716337 0.19177257 0.104190305 0.32640895 -0.16902722 -0.000766834 -0.38736454 0.31090546 -0.08102953 -0.24851824 -0.062869035 0.20274094 -0.07985996 -0.029277908 -0.3600274 -0.1996659 -0.40194976 0.16565983 -0.24604923 0.3452771 -0.035312995 -0.1957033 -0.023830391 0.08281772 0.038241263 -0.071894825 0.027065279 -0.3054017 0.019250134 0.06758812 -0.21110652 0.3096825 -0.3361356 0.09210737 -0.36117217 0.43865603 -0.22251964 -0.4035127 0.2213076 0.12735054 0.009711686 -0.24282537 -0.054927338 -0.58571154 -0.2308415 0.07872919 -0.2918477 -0.19340289 0.07458015 0.47952253 0.08935742 -0.25900698 0.016718252 -0.032769844 0.011063286 -0.012812217 -0.02803798 -0.2787912 -0.14063972
1112 0.1764713 0.29312795 -0.09487255 -0.06478944 -0.5584688 0.043746207 -0.07098642 -0.49980125 0.027182983 0.028607456 -0.13203746 0.0028755984 0.3470494 -0.007648387 -0.5346517 0.06495858 -0.13116641 0.494436 -0.086848125 -0.34612072 -0.2421647 -0.29246366 -0.061222922 -0.031317268 -0.17567411 0.36087093 -0.19313934 0.07941585 0.26065204 0.012044078 0.2190029 -0.04514035 0.022403333 0.15216848 -0.47925407 0.17146277 0.18159035 0.21841303 0.25508463 0.18974328 -0.086351566 -0.3958017 -0.090782754 0.025191715 -0.34379223 0.2794727 0.17851147 0.31780827 0.22560346 -0.11578644 0.36054295 0.06580602 -0.117495865 0.06873705 0.17668454 -0.13959694 -0.10160082 0.00038435785 -0.2218706 -0.052756295 0.12442808 0.020618463 0.042070054 0.06860764 -0.041548163 0.05291277 0.095144056 0.04032455 -0.033620056 0.14247023 0.25046062 -0.031816054 0.19887865 -0.098813996 -0.69498265 -0.17909487 -0.04927017 -0.3626964 0.17429668 0.07307532 0.057900444 0.20504375 0.046055548 0.04273092 -0.09073428 -0.38182765 -0.21264851 0.26231524 -0.07012591 0.07164594 -0.295329 0.052349847 -0.25930497 0.24363866 0.02738684 0.065933764 -0.35851887 0.30046707 0.11141238 0.087186694 0.50476927 -0.6860301 0.18475184 -0.02880568 0.45057896 -0.12995128 0.07592016 -0.11302349 -0.081661195 -0.11496186 -0.28763214 0.115354 -0.24187489 0.2457645 -0.3115313 0.12715851 -0.27322397 -0.031300303 0.19100064 -0.31719312 -0.019759584 0.25808296 0.3928312 0.30436602 0.20849244 -0.19380932 0.1303578 -0.17644839
