1899 128
1623 0.020889593 -0.17244093 0.3413405 -0.14527503 -0.29247695 -0.10667677 -0.047431458 -0.12071396 0.24990755 0.25619695 0.03857271 0.000495658 -0.26258168 -0.32429254 -0.22046284 -0.15413587 -0.23332615 0.09399507 -0.15672413 0.15321805 -0.087709874 -0.061752073 0.27679643 0.2457551 -0.3546994 0.07411742 0.9989616 -0.36582193 0.20208925 -0.39884377 -0.25666866 -0.011696428 -0.5213481 0.59598243 0.13578525 -0.37407452 0.23093513 -0.08807341 0.30982575 -0.4043695 -0.23220748 0.30016986 0.1406284 -0.04377766 -0.21995132 0.16321751 0.022849737 0.4627878 -0.0078994 0.0045378017 -0.2718164 0.1978886 -0.02475488 -0.33289784 -0.24279453 0.12766385 0.064094596 -0.18932107 -0.13329712 -0.18503396 0.17619708 -0.15909864 0.13111931 -0.22854562 -0.13817789 -0.14889067 -0.4637389 -0.30510736 0.42439213 -0.08388601 -0.19424355 -0.012256411 0.034135833 0.19505416 0.028535878 0.3509644 -0.2114779 0.1503096 0.108357325 0.07082332 -0.026471108 0.34108016 0.021619776 -0.22108364 -0.3527368 0.5628627 0.18733113 0.12249721 -0.037820354 -0.09911486 -0.09073453 -0.43842053 -0.68556315 -0.09664811 -0.07844563 -0.35062477 -0.113744915 0.05305149 -0.27449578 -0.23804481 0.58193827 -0.06612565 0.59594285 0.039663434 0.09110924 0.45870608 -0.188538 -0.26163414 0.34728578 0.25779748 0.056278687 -0.44677415 0.16079345 0.24760492 -0.43644807 0.07907061 -0.11264996 -0.19326882 0.11763326 0.08893352 -0.07437692 0.19146243 -0.30462033 -0.45630985 -0.11917087 0.16493383 0.1065374 0.49359888
397 0.033070337 -0.13196632 0.5974678 0.049309436 -0.2961315 -0.18161558 -0.29638928 -0.16113825 0.35915062 0.6833343 -0.01417228 0.25445732 -0.22627749 -0.38893753 -0.69073635 -0.109001234 -0.06293257 0.08894278 -0.07243958 0.29087842 0.016848966 -0.13316146 0.2865626 0.18350662 -0.31054825 0.09534326 0.91665536 -0.3029904 -0.0036236688 -0.34108225 -0.19620469 -0.10813784 -0.6463407 0.44290885 0.12096929 -0.48905653 0.37734926 0.20311044 0.19211133 -0.36685038 -0.30313876 0.2974766 0.11814453 0.043248538 -0.24680117 0.050249368 -0.09521226 0.16508876 0.1557906 0.024365664 -0.34264296 0.2639033 0.08070176 -0.33959553 -0.2369496 0.0027228652 0.13486159 0.05728724 -0.3584901 -0.074955046 -0.09753409 -0.14766431 0.035045475 -0.26409966 -0.036021054 -0.058903735 -0.47428748 -0.20473035 0.32108113 -0.18093629 -0.09779818 -0.021213643 0.10417166 0.18058279 -0.018917805 0.55260134 -0.2832772 0.14758703 0.060474902 0.0031140405 0.04848525 0.3272451 0.029357659 -0.14943343 -0.39860737 0.558733 0.037637696 -0.08223611 0.08140004 -0.017150804 0.11246807 -0.42387176 -0.48230326 -0.00992267 0.084771775 -0.25613996 -0.17531525 0.23136237 -0.35632274 -0.266839 0.3367998 -0.01980832 0.30694503 0.06272483 -0.038171675 0.3279619 -0.08021265 -0.3776747 0.5420093 0.35086134 0.007275734 -0.4264182 0.29637018 0.19632307 -0.45251974 -0.048383985 -0.21471415 -0.16336681 0.097215615 0.24979834 -0.054608416 0.18262835 -0.23928426 -0.35215575 -0.03670635 0.034474753 0.11450841 0.3210381
1167 0.047412097 -0.27475417 0.7272305 -0.11653726 -0.33361572 -0.12928547 -0.12972721 -0.32381815 0.26224026 0.34714147 0.041846894 0.12172681 -0.31066394 -0.32767305 -0.41673154 -0.14695147 -0.23177487 0.12791005 -0.030403173 0.16179498 -0.10068915 -0.017816983 0.32557112 0.1983205 -0.3957499 0.09339899 1.0530771 -0.38337943 0.108335905 -0.41066536 -0.31779623 -0.04819127 -0.5049063 0.5228097 0.14361824 -0.30993953 0.28856105 -0.069514684 0.26807004 -0.3481948 -0.25779197 0.26299807 0.09951526 -0.062016048 -0.21014974 0.12935703 -0.06949762 0.42296532 0.11016755 0.094804175 -0.28433245 0.16941446 0.0069623436 -0.37508026 -0.1858409 0.12553847 0.059626047 -0.13685864 -0.13104813 -0.16174765 0.17884392 -0.18983123 0.11925241 -0.08591699 -0.1470641 -0.2035645 -0.31374258 -0.32664895 0.44479555 -0.16723071 -0.24434578 -0.040824696 0.040593605 0.15359612 0.11914538 0.3294335 -0.2883647 0.0006527904 0.17326419 0.053105477 -0.013551616 0.26354346 -0.04607474 -0.17510688 -0.3851151 0.4702052 0.10987458 0.09462199 -0.067678094 -0.061055027 -0.105405204 -0.2402907 -0.45060208 -0.061783705 0.017527537 -0.26504424 -0.15954277 0.08696134 -0.20354404 -0.2176457 0.6236615 -0.122219115 0.6240394 0.062448062 0.073111504 0.3432975 -0.13266683 -0.25178918 0.39859247 0.283868 0.06656689 -0.4224617 0.21012326 0.15519316 -0.41238728 0.1366227 -0.119488545 -0.104054414 0.018646147 0.15022871 -0.0002507885 0.15110536 -0.23045787 -0.35831925 -0.056841027 0.027580135 -0.01252319 0.39701506
94 0.08369679 -0.3981954 0.7406966 -0.06915277 -0.2722571 -0.27981952 -0.16457142 -0.083484985 0.27602255 0.3385713 -0.08189501 0.17520185 0.03524027 -0.25231847 -0.48812804 -0.17737897 -0.2136809 0.06491146 -0.15125956 0.17807035 0.031753115 -0.027320208 0.5866799 0.08681309 -0.48754045 0.07107978 1.1337656 -0.5797933 -0.08568123 -0.3869064 -0.07107513 -0.2425747 -0.6800997 0.6161422 0.42309844 -0.10156004 0.29701117 -0.105648704 0.35006648 -0.25556374 -0.48113024 0.12270676 0.05357813 0.022195457 0.2093887 0.08676659 0.18335842 0.4194373 -0.095243804 0.1055016 -0.14083374 0.243808 -0.009934014 -0.046969306 -0.24036816 0.1063796 0.092385784 -0.17593847 0.01954315 -0.31279635 0.31784058 -0.18652953 0.1249226 -0.18177198 -0.026027363 2.970572e-05 -0.23772569 -0.49589783 0.60415715 -0.13038321 -0.42703056 0.029893441 -0.10037727 0.04382504 0.026428893 0.24471056 -0.18592997 0.22539432 0.32392633 0.0462132 0.09723096 0.23824261 -0.06553061 -0.040465083 -0.32509392 0.27269655 0.15815867 0.20610696 -0.028183348 -0.006664799 -0.010511389 -0.45822594 -0.29924503 -0.14535597 0.03958311 -0.33497232 -0.29589614 0.19657072 -0.31261763 -0.31611487 0.42965722 -0.060738806 0.2559398 -0.046809804 0.022859821 0.3139169 -0.24531001 -0.2625664 0.38225654 0.23392189 -0.006758481 -0.19499591 0.36197937 0.265625 -0.6356121 0.2835427 0.049415506 -0.007970743 0.088881254 -0.010837219 0.27355245 0.28938404 -0.15879351 -0.40657532 -0.115120366 -0.027369523 0.100429356 0.66938114
1780 0.25739497 -0.31296012 0.61314595 0.04954703 -0.25063005 -0.0127537465 0.012576589 -0.27478337 0.2567404 0.5346923 -0.10631573 0.25629172 -0.4438517 -0.20866932 -0.53674895 -0.20708923 -0.21273743 0.0063929586 0.07699404 0.28185913 -0.036675304 -0.04457288 0.3586485 0.20698458 -0.45026726 -0.113274395 1.1038013 -0.3345412 0.018906876 -0.42780316 -0.030339854 0.07686138 -0.50173074 0.51667553 0.24628627 -0.29942387 0.2723631 0.045214873 0.30236137 -0.30630428 -0.3112776 0.41038182 0.1179975 0.0048902757 -0.2823523 -0.07556641 0.13524717 0.44560406 -0.03147945 -0.0186532 -0.29751873 0.12807442 -0.03608831 -0.34688795 -0.30712983 0.019685203 0.026963478 -0.10438984 -0.20735154 -0.107540235 0.078037634 -0.29186448 0.10613056 -0.12811534 -0.17594446 -0.11855452 -0.33797255 -0.31622165 0.48019084 -0.24478465 -0.21132569 -0.034326874 0.107901044 0.2683427 0.20395848 0.2736878 -0.37858388 0.14146928 0.031974804 -0.01751353 0.0049763476 0.20134872 0.14287359 -0.19018997 -0.19769004 0.5395581 0.14547412 0.08138176 -0.046845935 -0.01992576 -0.09614491 -0.41323483 -0.5565983 0.035777617 0.06127953 -0.2911286 -0.18695658 0.004787889 -0.2503055 -0.22541669 0.48904878 -0.1481463 0.57082546 -0.010671104 0.085539035 0.3732393 -0.23643553 -0.41295213 0.336714 0.12342108 -0.0077144993 -0.36355257 0.16891153 0.2997839 -0.27352178 0.025737267 -0.14701715 0.13009618 0.13885619 0.12517434 -0.10077777 0.15557691 -0.19391663 -0.30894643 -0.09708672 0.04323061 -0.089714095 0.20149505
1755 0.101276934 -0.2214038 0.5214573 -0.016399683 -0.12348108 -0.088165335 0.039246712 -0.2488821 0.33201534 0.53500146 -0.15937763 0.41508153 -0.21198566 -0.23530358 -0.48828506 -0.25133672 -0.20557393 -0.0753472 -0.15836242 0.1551979 0.15418606 0.05751813 0.33415604 0.1598689 -0.3891853 0.06486406 0.9942101 -0.5098042 0.13946645 -0.44357583 -0.027696408 -0.07988393 -0.550145 0.50831735 0.21334012 -0.25755316 0.34675264 -0.14320496 0.421077 -0.36325732 -0.31260043 0.1762673 0.27320835 -0.014158062 -0.22653486 -0.14167807 0.11156838 0.28353468 0.064323254 0.05227808 -0.3962221 0.19926603 0.053241007 -0.45217764 -0.26383194 0.013524927 0.12736948 0.09808324 -0.09195844 -0.12432977 0.40554744 -0.2098361 0.15628654 -0.28987542 -0.13799125 -0.25232083 -0.2569524 -0.38881683 0.3017588 -0.3552986 -0.23747055 0.0820718 0.11251103 0.16208477 0.1874398 0.31847894 -0.39294764 0.16799039 0.08427522 0.06296546 0.06918114 0.2402575 0.17436394 -0.30915275 -0.13251531 0.7547539 0.17047513 0.011832495 0.065073915 0.15877478 -0.08718703 -0.43563432 -0.50129193 -0.15403344 0.05108366 -0.3066676 -0.19153854 -0.03787674 -0.06855903 -0.28349847 0.54534143 -0.2784959 0.48647568 0.12306093 0.13765262 0.40727845 -0.42957166 -0.3860349 0.3559622 0.2187658 0.028878788 -0.28398445 0.25566092 0.21505266 -0.34209657 -0.019557806 -0.10093012 -0.025765778 0.13777737 0.13345236 0.0053068805 -0.10749069 -0.3010212 -0.33230698 -0.11052906 0.022571366 -0.0033607536 0.26995417
1600 0.018537693 -0.36082977 0.47643787 -0.003412005 -0.27045697 -0.17275035 0.109628595 -0.21369104 0.21196762 0.3414136 -0.22837654 0.26797208 -0.11611683 -0.3093245 -0.42064923 0.13173166 -0.2788643 0.10872351 -0.11404552 0.22356144 0.000164184 -0.23890729 0.7750798 0.2841687 -0.64465237 0.051851824 1.2041807 -0.52297723 0.081560455 -0.5284548 -0.11428115 -0.20543876 -0.29625222 0.50996864 0.22226267 -0.37195307 0.1213267 -0.21925278 -0.058554463 -0.21294184 -0.37396967 0.29100433 -0.05823663 0.05296698 -0.20258535 0.21672231 0.181102 0.61147094 -0.04282322 0.095841415 -0.2013565 0.2078489 -0.05851074 -0.16631402 -0.25426206 0.135865 0.22295895 -0.17722024 0.1520693 -0.16454847 0.2658449 -0.2427003 0.1262076 0.07723822 -0.051168635 -0.24813487 -0.25330502 -0.45927855 0.38388193 0.018156555 -0.39917195 -0.12347129 -0.08743312 0.13870578 0.32210875 0.3887428 -0.3779534 -0.0009779821 0.2000573 0.14558221 -0.2497631 0.13950096 0.032657206 -0.02117682 -0.3228338 0.38408187 0.22839661 0.02421738 -0.159569 -0.05933801 -0.060329456 -0.31710297 -0.6262755 0.07026142 -0.06685413 -0.53663534 -0.30010867 0.13974619 -0.15052135 -0.16396497 0.55893105 -0.08105951 0.48657352 0.1901526 0.07777302 0.25782263 -0.26516125 -0.3356017 0.4668032 0.19212122 -0.13741922 -0.43695757 0.10705412 0.13114977 -0.10345895 0.22932877 -0.13379715 0.06980063 0.07558069 0.28795695 -0.021708727 0.1752272 0.07828695 -0.079112284 -0.04710619 0.05268952 -0.008067195 0.22327685
1643 0.12824541 -0.3826749 0.66991836 0.10625971 -0.24314027 -0.042521723 -0.09114891 -0.2442452 0.13609704 0.47454837 -0.034072757 0.05287497 -0.17767678 -0.26629895 -0.24203756 -0.27640182 -0.17441721 -0.062134337 -0.100622885 0.14127426 -0.11151376 0.07903635 0.26601171 0.27026567 -0.41980225 -0.05430616 1.0864612 -0.4028683 0.0040208385 -0.32738784 -0.1963627 -0.2935888 -0.5592531 0.35839775 0.22099204 -0.48957536 0.17137134 0.04828204 0.2202075 -0.4830638 -0.47212794 0.31613398 0.30999163 -0.11017594 -0.15802503 0.14646594 0.051726494 0.3240576 0.022694923 0.019378299 -0.2756982 0.22342764 -0.030727228 -0.34407106 -0.34801763 -0.19233762 -0.117191486 0.003464381 -0.37337446 -0.09179804 0.2077497 -0.21851933 -0.0051340126 0.088840395 -0.24737841 -0.12733427 -0.37314174 -0.44287863 0.5719548 -0.15215737 -0.08000873 0.007883937 0.18095163 0.13751732 0.07547353 0.42100683 -0.31012064 -0.039739486 0.05946776 0.010081423 0.085154496 0.39452183 0.21641952 -0.22950014 -0.37203616 0.4904902 0.06165919 0.050599705 -0.024585703 -0.072090946 -0.17363532 -0.2337547 -0.47074932 0.06658 -0.022350252 -0.4751162 0.11811591 0.052162834 0.014540515 -0.14699933 0.61665684 -0.1913578 0.4381612 -0.024367351 -0.14863689 0.37000716 -0.20857629 -0.32475388 0.56191874 0.24104689 0.046965864 -0.37351325 0.21730444 0.18538958 -0.53833944 0.055880774 -0.085975826 0.09676078 0.023707613 -0.031566612 -0.051189326 0.29294333 -0.41000354 -0.36749616 0.058329448 0.072801396 0.040041648 0.2463339
8 0.43196872 -0.44041678 0.6822842 0.02701771 -0.25584894 0.00025936187 -0.04335621 -0.0016525307 0.19242294 0.4333755 -0.015027316 0.26774886 -0.47477862 -0.38175106 -0.46317735 -0.23033604 -0.094800994 -0.07311646 -0.09626094 0.36594096 0.09590195 -0.003254028 0.35680604 0.04423155 -0.46710852 -0.22764407 0.8355837 -0.37192103 -0.13409966 -0.24686173 0.02790853 -0.16528739 -0.66341156 0.35514858 0.26585564 -0.35785994 0.13912365 0.16670862 0.4326326 -0.32744566 -0.6241233 0.5337359 0.38529715 -0.07847776 -0.12893051 0.052408185 -0.15717243 0.1824557 0.009521082 0.15084133 -0.4702752 0.13416642 -0.13120393 -0.3588463 -0.4480243 -0.059289508 -0.19326214 -0.08935065 -0.39919946 0.09822266 0.18793468 -0.26523718 -0.15744442 0.06005906 -0.10670417 -0.15898852 -0.0889652 -0.40521055 0.6565318 -0.28955346 -0.10305359 0.20513086 0.058979135 0.14087903 0.070825696 0.3531409 -0.36379102 -0.0038228803 0.03476279 -0.0466425 0.15047906 0.27590728 0.1408695 -0.4356959 -0.4040188 0.6059377 0.054748975 0.1276721 0.014788252 -0.015834782 -0.12093809 -0.30720514 -0.36094514 0.0257242 0.22578815 -0.54618675 -0.036903426 0.19601326 -0.1284786 -0.29158834 0.67907953 -0.25773782 0.64732903 -0.11890009 -0.27776226 0.57775813 -0.3991121 -0.3559872 0.5436113 0.24133654 -0.03431488 -0.3870424 0.21339032 0.053854655 -0.45911917 -0.10449673 -0.0025960968 0.31909496 0.067486696 0.15691851 -0.14178611 0.1617489 -0.27452704 -0.33867314 -0.04931989 0.09534176 -0.120943874 0.27842033
1542 0.030680252 -0.0043979916 0.6821143 0.10509045 -0.19646615 -0.32298964 -0.14543507 -0.12584223 0.14566775 0.09829643 -0.1661919 0.2655103 0.22480087 -0.428242 -0.19999883 -0.30148107 -0.16278537 -0.15084861 0.07180302 -0.25424603 0.043514263 0.047034003 0.24512748 0.12093419 -0.44598624 -0.09541685 1.1898867 -0.27329022 -0.025633618 -0.31351188 -0.18605486 -0.11776573 -0.5409455 0.30635336 0.11904009 -0.035105065 0.72864366 0.13906245 0.40043658 -0.22263736 -0.18407506 -0.061641622 0.37750694 -0.10885681 -0.17890948 0.28433573 0.12488809 0.30372593 -0.15527748 -0.06337648 -0.28072566 0.028469423 0.077598475 -0.024038231 0.04920591 0.06241451 0.4010033 0.013033565 0.15966511 -0.0015121326 -0.0045632925 -0.09963613 0.16559838 -0.26127267 -0.2696398 -0.027006185 -0.46767685 -0.45966235 0.44469786 -0.12801588 -0.54004735 0.17142978 0.07621599 0.29562747 -0.052364215 0.3180928 -0.35068175 0.20891184 0.036196455 -0.08764504 0.45237723 0.14238955 0.3463907 -0.14313687 -0.2963564 0.2568662 0.07042986 0.17083062 -0.0021987027 -0.05469226 -0.07655737 -0.59349656 -0.37822145 0.051268093 0.13539267 -0.36271 -0.49079233 0.28175595 -0.39991862 -0.38079017 0.329912 -0.2570378 0.19433732 0.07019734 0.12485372 0.24250017 -0.25307962 -0.6485326 0.6363447 0.3992811 0.4502445 -0.07620519 0.42000192 0.14017685 -0.7727098 0.25995052 0.1337555 -0.00868004 0.28163424 0.18706703 -0.11596003 0.26475343 -0.23964433 -0.39359936 -0.36650208 0.17859669 -0.2229624 0.20322101
1835 0.3520866 0.010332135 0.5443052 0.20181231 -0.30596673 -0.14367862 -0.14432503 -0.1708972 0.17978986 0.10243776 -0.14571583 0.062359367 -0.30781612 -0.47946045 -0.3991112 -0.22048542 -0.08842305 0.12653087 -0.04051203 0.3486821 0.04152087 0.1177039 0.34827265 0.25042722 -0.4943035 0.107565105 1.0359374 -0.32686102 -0.28686696 -0.47974607 -0.26263896 -0.074774206 -0.540855 0.1615163 0.15344681 -0.2839922 0.37945044 0.2967029 0.2526228 -0.28952214 -0.28967726 0.34866232 0.29603335 0.048224043 -0.13230756 0.21033804 -0.13186154 0.35789153 0.22725506 0.16831249 -0.22215833 0.18653677 -0.0021070808 -0.44273844 -0.25726795 0.14881706 0.20534064 -0.13178615 -0.21766761 -0.12893297 -0.023577463 -0.28037146 0.074170224 -0.4724687 0.07186619 -0.07744853 -0.70165825 -0.27973023 0.5243124 -0.15884134 -0.26210463 0.042737883 0.14089742 0.19949198 0.09828467 0.6177348 -0.46977383 0.13715631 0.0035164496 -0.12890667 0.352672 0.252219 0.057992928 -0.12651986 -0.32308832 0.5533615 0.10772234 -0.12429219 0.010182392 0.04679756 0.13685562 -0.40488294 -0.47731435 0.14774396 -0.06314362 -0.22777411 -0.20312086 0.25711706 -0.40042853 -0.07281483 0.2758073 0.032588735 0.18902887 0.16859396 0.16725117 0.28696108 -0.18360335 -0.28950047 0.61284316 0.38363293 0.2986215 -0.38660088 0.37263918 0.26102376 -0.40637892 0.14823061 -0.05625871 0.0575953 0.11457958 0.104135014 -0.06452877 0.28772202 -0.21338122 -0.36789295 -0.14803265 0.010769261 0.023398397 0.25467876
560 -0.2376591 -0.39603508 0.85888326 0.18390056 -0.25887376 -0.2965026 -0.2068696 -0.20147868 0.19094077 0.16645707 -0.07004027 0.09462075 0.22268768 -0.40184003 -0.2861268 -0.006445235 -0.2518999 -0.036083702 0.11783474 0.20555565 -0.0026604417 -0.09010222 0.362462 0.10615266 -0.29786894 0.083134525 1.0231135 -0.48217916 0.042951595 -0.22215997 -0.16911012 -0.12949032 -0.666627 0.55997765 0.27105695 -0.30370647 0.551116 0.09948202 0.45050034 -0.25067508 -0.27785733 0.0028423492 0.056988142 -0.17546171 -0.10369262 0.15606639 0.19947273 0.37521112 -0.20562829 -0.080520354 -0.2154209 0.23345417 -0.034245092 -0.0032722321 -0.03194043 0.035518512 0.083794944 0.0681742 -0.13734837 -0.10914124 -0.08032111 -0.16766174 -0.02798037 -0.3224791 -0.5818805 0.04504745 -0.428697 -0.48473513 0.7018404 -0.05738231 -0.47900677 0.010883388 -0.080154784 0.22338107 0.080052376 0.31353334 -0.33179447 0.24225278 0.14509314 -0.1313561 0.015709128 0.20921089 0.19088665 -0.016117025 -0.16398205 0.2073746 0.04600916 0.11989676 -0.39844522 -0.17974381 -0.12340629 -0.6230979 -0.29483253 -0.08031447 0.19718966 -0.4489242 -0.49454764 0.3193232 -0.3033997 -0.35719466 0.60190976 -0.024954343 0.40620843 0.015121522 -0.07298617 0.26498258 0.025370948 -0.538788 0.4431232 0.33878255 0.09724516 -0.15403424 0.28044757 0.3262401 -0.5850583 0.14418422 -0.022557123 -0.25802678 0.038371824 -0.0068188626 0.097908795 -0.008326357 -0.021329882 -0.4368617 -0.25567192 0.19090915 -0.28960145 0.3844792
696 0.1821791 -0.27617353 0.6025545 -0.09218967 -0.13551946 -0.007000118 -0.16081505 0.050486356 0.33741322 0.30326408 0.11572492 0.1963724 -0.07927145 -0.14529571 -0.4468869 -0.31689578 -0.15796097 0.010497999 -0.25612906 0.1676981 -0.034684826 -0.015249223 0.33489275 0.14268315 -0.40386105 0.04462486 0.9751861 -0.49212325 -0.15245298 -0.45096862 -0.24633057 -0.102069676 -0.6782804 0.38682353 0.36203802 -0.2854773 0.44440487 0.15044795 0.40856946 -0.2979963 -0.34745857 0.037379365 0.15168376 -0.06942243 0.20126276 -0.05817115 0.013603217 0.36606812 -0.03152009 0.15859525 -0.11356502 0.123351425 0.10786936 -0.10820247 -0.25450435 0.1427959 -0.05023452 -0.28365856 -0.12293524 -0.33735 0.012371878 -0.41002083 -0.0489905 -0.1783839 -0.20400621 -0.026453847 -0.3021362 -0.2832807 0.75259656 -0.043073 -0.44060776 -0.1583225 0.0425315 -0.06160372 0.11673346 0.06382349 -0.1497549 0.25149873 0.3089488 0.004821055 0.119157754 0.4092369 -0.0052374173 -0.13096486 -0.35322616 0.36727643 0.01859151 0.16939853 -0.17412882 0.032258276 -0.06839098 -0.34486222 -0.24363288 -0.09595977 0.047314495 -0.32227844 -0.2018061 0.3102168 -0.3835358 -0.22795582 0.41485748 0.048683375 0.41981605 0.051913127 0.048945613 0.26141858 -0.15476467 -0.3645605 0.5980491 0.12037449 0.23881939 -0.23685704 0.3849474 0.21083461 -0.5633467 0.30637544 0.046008416 0.18678805 0.07287 -0.10465318 0.12621322 0.34217033 -0.292956 -0.47035566 -0.10282657 -0.06304578 0.070234254 0.6271676
31 0.012377761 -0.33223945 0.48465085 0.19682576 -0.08222572 -0.27328256 0.14022449 -0.19365683 0.2650956 0.4717615 0.13309972 0.092841215 -0.31478557 -0.16095145 -0.3782913 0.046022285 -0.20699446 0.13531682 -0.03702154 0.1727295 0.28470534 0.22598414 0.45173126 0.051203765 -0.48398024 0.0555211 0.8071243 -0.7359055 -0.028406685 -0.36565495 0.16668105 -0.15465607 -0.67694396 0.6443825 0.0882791 -0.05125251 0.30222857 -0.037378106 0.18097219 -0.47513193 -0.16681916 0.2076588 0.25943843 -0.23369029 -0.44010362 -0.074045114 0.091242455 0.68620574 0.13555333 0.0596365 0.06001654 0.21679124 0.112111375 -0.3171008 -0.31628004 -0.08610526 0.10748625 0.17876926 -0.15022619 -0.11468776 0.27428848 -0.2665687 0.278891 -0.33035251 -0.16794942 -0.092046924 -0.3151171 -0.568457 0.39275557 -0.10798367 -0.48836178 0.107322596 0.009802421 0.30479202 0.062452693 0.29387826 -0.4734536 0.034330074 0.26049483 -0.19919392 0.34485322 0.21332775 0.36840364 -0.03190519 -0.18877105 0.4614475 -0.119309366 0.30915785 0.21130095 0.09724194 0.0456106 -0.5116867 -0.38610187 -0.0816955 -0.051135525 -0.25308278 -0.12882636 0.27718362 -0.031092599 -0.18112576 0.47604257 -0.14048237 0.37389308 0.5654063 0.1036955 0.008972671 -0.26615226 -0.28734085 0.26498684 0.40245855 0.2474201 -0.35005954 0.27441028 0.18118265 -0.5947892 0.19772242 0.46209458 -0.0608181 0.22274537 0.034758892 0.08198237 0.18541513 -0.2832275 -0.42838904 -0.16932455 0.2485146 0.0071107103 0.009653145
1782 0.010132706 -0.3717386 0.70589674 -0.23850168 -0.13346526 -0.119918235 -0.34626812 0.08081061 0.40272132 0.3880659 0.16318744 0.009573514 -0.13819729 -0.2564406 -0.20405975 -0.0430581 -0.111162126 0.13309053 -0.04610497 0.02591844 0.017038293 0.15427193 0.24733713 0.04017896 -0.2768158 -0.12673943 0.957701 -0.37890407 -0.0069807796 -0.47767758 -0.12712617 -0.021078747 -0.57500094 0.4465531 -0.016708378 -0.108510725 0.36618835 0.3226026 0.39319184 -0.2781983 -0.19811988 0.025377298 0.26420653 -0.21884473 -0.2729974 0.12488879 -0.016594686 0.5484873 0.18809171 0.08374548 -0.25369155 -0.014374171 0.28254965 0.020370053 -0.17564653 0.412535 0.3356884 -0.34883687 -0.08144112 -0.1189981 0.07664498 -0.36469328 0.089250006 -0.10851715 -0.09644946 -0.044166714 -0.5330373 -0.20935048 0.7374191 -0.05890559 -0.61643195 -0.0915915 0.11542006 0.31377935 0.18601589 0.023836903 -0.2349387 0.029045783 0.1668985 -0.0055234185 0.25458384 0.32993406 0.16346271 -0.03283892 -0.46166864 0.37700325 -0.19436304 0.1778205 0.106206514 -0.13402112 0.044565536 -0.38271403 -0.32732546 0.032782413 0.21064144 -0.18593553 -0.097338036 0.21876338 -0.34576935 -0.32939467 0.5280372 0.051056944 0.43090618 0.40190393 0.0053903637 -0.016193785 -0.14783527 -0.41018003 0.82274806 0.17957592 0.36947298 -0.4260779 0.31324568 0.23511826 -0.7153084 0.3508042 0.413095 -0.06589974 0.23443191 0.03018625 0.022908539 0.45730734 -0.07200402 -0.38872406 -0.37528247 0.03152607 -0.015404981 0.35226437
809 0.10275421 -0.16475992 0.59622544 -0.09477852 -0.24238132 -0.12643345 -0.12404725 -0.19922218 0.26879087 0.3634991 0.15470545 0.13338317 -0.42587894 -0.36657363 -0.4089836 -0.22049378 -0.123608954 0.12532458 0.029232625 0.23128939 -0.1243655 -0.039650403 0.35781685 0.20025575 -0.38193485 0.040064868 1.0691218 -0.4009379 0.18239646 -0.4309478 -0.16609645 0.038500372 -0.58960646 0.7002147 0.14211774 -0.36796552 0.38249278 -0.0636761 0.28197646 -0.35576656 -0.1843973 0.20998731 0.087983124 -0.07258945 -0.14826278 0.09339707 -0.12406896 0.36079 -0.08790646 -0.002454614 -0.25574106 0.17420658 -0.024516424 -0.27386826 -0.22819653 0.029450541 0.045432076 -0.1869442 -0.14429139 -0.20655884 0.103035316 -0.22181676 0.040869594 -0.21034287 -0.18723164 -0.23497315 -0.33132452 -0.371669 0.50395596 -0.21141838 -0.23773424 -0.1029309 0.016713552 0.18103456 0.03129302 0.1970443 -0.22584896 0.19270062 0.18359315 -0.006919436 -0.060986694 0.29373682 0.051802184 -0.21825449 -0.33668163 0.5483731 0.13311574 0.23713198 -0.039225273 -0.029508656 -0.07384411 -0.3148344 -0.4853542 -0.09545719 0.071738586 -0.26789 -0.2568465 0.11879219 -0.2258664 -0.2390027 0.6190377 -0.14882806 0.7268923 -0.0042396514 0.11368246 0.46722287 -0.18303137 -0.43641025 0.3596961 0.27575806 0.045659456 -0.37623066 0.121396974 0.078653365 -0.3227056 0.052566025 -0.08655832 -0.055057734 0.07897164 0.06091878 -0.045451924 0.12717311 -0.2988541 -0.3307778 -0.091042966 0.11750153 -0.097360425 0.2936523
0 -0.33676678 -0.38463345 0.43795577 -0.23560561 -0.33725363 -0.06447949 -0.3026217 0.019468885 0.44941846 0.59900016 -0.10341042 0.15554927 -0.42507508 -0.18890394 -0.7488513 0.04240489 0.041127864 0.3638307 -0.23013836 -0.107940905 0.07786538 -0.039463826 0.23831366 0.13695078 -0.2691033 -0.05019783 0.7151937 -0.70556206 0.1769518 -0.2988798 0.0061153295 -0.42425597 -0.60268664 0.55230457 -0.036165636 0.082807615 0.078316 -0.033484653 -0.037867304 -0.47896633 -0.0941839 0.27878243 0.11341807 -0.29831603 -0.47181198 0.100716986 0.4376989 0.73318946 0.11895643 0.1440423 -0.052289862 0.07536137 0.17294733 -0.13198143 -0.14773342 -0.0015854137 0.12025468 -0.21923879 -0.163682 0.008121571 0.024136063 -0.47998574 0.24325456 -0.34827924 -0.22251001 -0.026510365 -0.4004698 -0.35045448 0.6692489 -0.018176366 -0.37430298 -0.060165886 0.12035944 0.5248146 0.10942651 -0.115282245 -0.3197858 -0.056538362 0.113984555 -0.22638102 0.23927434 0.56092215 0.112309836 -0.040661562 -0.45279652 0.420934 -0.17594305 0.314358 -0.193275 -0.27806506 -0.241394 -0.5910661 -0.471036 0.022621457 -0.081416994 -0.34167597 -0.28552422 -0.0019116955 -0.32170972 -0.36498916 0.57323295 -0.30276343 0.4804419 0.3304774 0.10586167 -0.05649853 -0.09598086 -0.3491336 0.21557367 0.33173427 0.1812974 -0.34232864 0.19850247 0.30249542 -0.80256313 0.2613069 0.12521113 -0.18712601 0.22388014 0.43850693 -0.12537426 0.38763544 -0.2758449 -0.41340128 -0.12091548 0.343222 0.07732128 0.2649269
26 0.07034873 -0.24792233 0.7874927 0.45163658 -0.24134134 -0.19068201 -0.3009718 -0.18135864 0.08811828 0.2155096 -0.1690878 -0.08430325 0.051043157 -0.29449388 -0.26061547 -0.18283154 -0.18640292 -0.14077723 0.14311987 0.272067 -0.19470106 0.36194962 0.15647632 0.27147743 -0.33379766 0.2692203 1.2370033 -0.17533791 0.020653827 -0.21910824 -0.18289317 -0.35051885 -0.72450924 0.121345386 0.22808677 -0.703409 0.52696925 0.13490997 0.062322345 -0.34234813 -0.530031 0.13818152 0.18665196 -0.16503303 -0.23342218 0.12007754 -0.02223594 0.3628499 0.13286339 -0.29246306 -0.11599454 0.030954795 -0.04006994 -0.15515989 -0.11488423 -0.15065059 -0.382071 0.22776993 -0.46929437 0.10030991 0.14400876 -0.47038206 -0.030182233 -0.35355493 -0.6484184 -0.053863358 -0.67193615 -0.4672376 0.50540155 -0.116650745 -0.19747211 -0.07867427 0.24255079 0.1918441 0.01208449 0.13366692 -0.41489148 0.2548652 0.06324086 -0.15453558 0.1893729 0.40475178 0.39174402 -0.21700121 -0.14807472 0.39299324 0.06351228 0.00043712748 -0.23134801 -0.06971415 -0.26506668 -0.5722253 -0.41836986 0.46670398 0.10916084 -0.2604724 -0.24599947 0.32545784 -0.27258778 -0.21928251 0.3171423 -0.19989738 0.24363594 -0.148333 0.08444481 0.22789106 -0.2727256 -0.324462 0.7918458 0.17815849 0.1525893 -0.26440826 0.08820166 0.30508944 -0.83675635 -0.13707079 -0.115237646 -0.11235432 0.114563264 -0.05534067 -0.0223017 0.28240415 -0.26267785 -0.31349322 -0.2805883 -0.22197565 -0.036231045 0.0074259536
1723 0.21897995 -0.0391069 0.7391191 0.17776774 -0.13446662 -0.07247911 -0.24606475 -0.11476377 0.3003968 0.07310042 -0.012031479 -0.031175237 -0.31139043 -0.20858592 -0.30079743 -0.10661603 0.05227701 0.060416576 0.013855155 0.4150331 -0.016082598 0.13030836 0.24975565 0.25068665 -0.42423314 0.116216 1.065184 -0.28228763 -0.11476429 -0.28572807 -0.06385198 -0.026281126 -0.543791 0.08769618 0.06841209 -0.32314652 0.46927705 0.18509656 -0.04252267 -0.2834287 -0.19565569 0.3458838 0.2639533 0.049084578 -0.30119354 0.1451859 -0.13502592 0.4722024 0.26770768 -0.021832729 -0.118954465 0.14418624 0.05514826 -0.24791712 -0.20515426 0.19321248 0.07165544 -0.053676955 -0.2042013 -0.066991456 -0.0642508 -0.5581329 0.122141466 -0.4137795 -0.28254348 0.027200127 -0.65826464 -0.33654734 0.5605044 -0.13559735 -0.37814185 -0.04498157 0.17886178 0.34556827 0.102173366 0.38854712 -0.4019272 0.21699682 0.030627578 -0.048073824 0.36485648 0.25458986 0.14160098 0.010047955 -0.23034202 0.48267242 -0.17030554 -0.0034126667 0.03616266 -0.0027887926 0.14344235 -0.56233704 -0.46137646 0.30565584 -0.020729251 -0.15578225 -0.24507442 0.39333132 -0.42840916 -0.26562306 0.31238434 -0.011197058 0.15404773 0.13073586 0.23217422 0.029141169 -0.2504057 -0.34323448 0.8623181 0.26520833 0.251909 -0.4979992 0.25610635 0.48676726 -0.72402817 0.1284877 0.044333648 0.007896021 0.13785066 0.06739539 -0.07819257 0.42967424 -0.12507239 -0.37964934 -0.20639648 -0.23440886 -0.015356403 0.15756002
455 0.21216865 -0.25875074 0.567794 0.04885892 -0.23210824 -0.18129987 -0.2821966 -0.34973374 0.3376177 0.4974442 -0.011314512 -0.109985314 -0.44046044 -0.5327191 -0.5570006 -0.17059678 -0.017957639 0.16288397 0.29463363 0.3607647 -0.12643655 0.011679293 0.2941059 0.05406114 -0.44975543 0.14931747 0.97422266 -0.33362475 0.055876814 -0.41512713 -0.027389636 -0.07473091 -0.67553115 0.76717865 0.07223854 -0.40112048 0.10419827 -0.12709288 0.3706433 -0.483411 -0.24421121 0.17737737 0.19639038 0.024986701 0.034642503 0.18943973 -0.09988839 0.5330071 0.05328757 0.21083735 -0.03629807 0.24085778 -0.23444849 -0.29469484 -0.18823732 0.02862774 0.19416946 0.07953744 -0.4561371 0.04864732 0.2783175 -0.048107974 0.067689985 -0.09563812 -0.18245286 -0.1236551 -0.3634983 -0.32613018 0.47943097 0.115744464 -0.31071758 0.031829856 0.16351643 0.1191975 -0.0385433 0.54288274 -0.4102187 -0.089645244 0.07651619 -0.15568177 0.15015304 0.36985195 0.08735274 -0.13963623 -0.33540058 0.35114542 0.032458104 0.25131047 0.06618042 -0.23864098 -0.14229941 -0.28298932 -0.5507387 -0.17956091 0.012634789 -0.5500517 -0.058977496 0.15939155 0.12076442 -0.20815697 0.4123837 -0.25998002 0.6041357 0.41659978 -0.123908274 0.31298923 -0.13791174 -0.29210144 0.38735342 0.4548215 0.07350233 -0.33057368 0.046704676 0.16032927 -0.36013222 0.2114354 0.1236689 -0.068416946 0.018632405 -0.060219955 -0.14288872 0.11096375 -0.40239358 -0.5462651 0.039108828 0.2237467 0.03816146 0.2570827
651 0.041539777 -0.1987683 0.7054625 0.2506804 -0.3617661 -0.03928354 -0.20493859 -0.17309271 0.01728527 0.31304067 -0.2115292 -0.13520378 0.06794507 -0.14045909 -0.29093108 -0.3074849 -0.23494701 -0.14869839 0.036300465 0.09255779 -0.26151967 0.299284 0.18546376 0.36269096 -0.3536274 0.21509337 1.2518466 -0.24786468 0.059928775 -0.26414502 -0.13607295 -0.32603183 -0.594389 0.13416305 0.3216208 -0.8040311 0.5104804 -0.0898093 0.029759502 -0.36050075 -0.5644953 0.101807915 0.14525948 -0.12502506 -0.09827495 0.06565578 -0.06021707 0.3841601 0.05437412 -0.16607474 -0.08653761 0.05087803 -0.030704742 -0.17767026 -0.19112077 -0.108993396 -0.3470039 0.13010019 -0.3869986 0.092209235 0.25359255 -0.45394322 0.047235023 -0.09297648 -0.52185667 -0.20671213 -0.54123884 -0.47112745 0.4135931 -0.08720579 -0.14006723 -0.07371101 0.24408221 0.0927369 0.022844585 0.13164794 -0.41255552 0.18199028 0.054113936 -0.058437422 0.054825008 0.5169592 0.4188715 -0.31630015 -0.16672826 0.39653265 0.0689874 0.016627774 -0.16934164 -0.053467117 -0.34767863 -0.45203692 -0.43436393 0.4230284 0.027184965 -0.26951346 -0.20475973 0.18764381 -0.21330182 -0.10775433 0.33431616 -0.2982763 0.23825456 -0.21085289 0.048237894 0.21396153 -0.3397367 -0.29295206 0.72974044 0.12124564 0.12584054 -0.2205726 0.039849404 0.14204232 -0.7567515 -0.054552138 -0.13197364 0.033928648 0.14539528 -0.053727053 -0.034934793 0.35238317 -0.33540064 -0.2549895 -0.23493683 -0.2117471 0.03199853 -0.05628992
1838 0.2980043 -0.45276985 0.6678346 0.23465599 -0.20054339 -0.22010386 -0.07956915 0.06703001 0.041658446 0.29465815 -0.19941923 0.15621811 -0.24166992 -0.64040893 -0.5307819 -0.37500903 0.0044183014 0.111845404 -0.18239625 0.2458037 0.29911587 0.09389163 0.32718274 0.028317237 -0.5376365 -0.14966825 0.8487223 -0.3658262 -0.42266285 -0.2587149 -0.14045024 -0.08690435 -0.53728545 0.33606526 0.3425937 -0.14850348 0.0890767 0.1682854 0.51473343 -0.13573249 -0.3446891 0.42556038 0.3383754 -0.07005596 -0.0008558884 0.10498324 0.0012072285 0.33514833 -0.088299446 0.20921482 -0.14909224 0.070639886 -0.074153535 -0.25975683 -0.2573634 -0.10615534 -0.07227973 -0.14437933 -0.11106236 -0.07628322 0.09512483 -0.07696862 -0.072218195 -0.31938165 -0.03813435 0.014803001 -0.59069425 -0.37284112 0.64102787 -0.16183749 -0.29672024 0.15498711 0.1073584 0.26410493 -0.12520196 0.36394778 -0.4120101 0.063278705 -0.0001648451 -0.18235756 0.41640678 0.24711062 0.21284512 -0.10430613 -0.385379 0.605206 0.056031983 0.08001899 -0.26684478 -0.055954415 -0.02404255 -0.49568072 -0.4991625 -0.07698345 -0.005416874 -0.53044593 -0.117712244 0.29765257 -0.29568484 -0.30509824 0.4257591 -0.23679093 0.14837031 0.22992124 -0.09691457 0.5899179 -0.17836434 -0.21413997 0.14300694 0.5180562 0.10946633 -0.28371233 0.47721335 0.22979112 -0.26748574 0.16929972 -0.0023800076 0.18457156 0.11458191 0.0326138 0.0721607 0.24046819 -0.3050666 -0.41585958 -0.017610224 0.2918413 0.17739365 0.48102716
1051 -0.0017104812 -0.30970109 0.601564 -0.040318497 -0.39531037 -0.12790401 -0.037602663 -0.28711006 0.24704506 0.3285915 -0.01279043 0.110068426 -0.2670908 -0.35979593 -0.49043372 -0.17299291 -0.1503008 0.3155303 -0.08337222 0.24861646 -0.035438605 -0.1522415 0.47469428 0.21993591 -0.49755466 0.23664397 1.0579481 -0.5824786 -0.041487616 -0.49383256 -0.092645474 -0.15125404 -0.50966203 0.52733296 0.32627407 -0.25899047 0.247833 -0.15118296 0.16224746 -0.28234783 -0.14679393 0.29759437 -0.13358124 0.027699713 -0.023627989 0.15395305 -0.028982677 0.60562456 -0.080266535 0.06351561 -0.010209184 0.25504702 -0.054237623 -0.22026676 -0.2824552 0.12758555 -0.046186265 -0.18767388 -0.0488127 -0.3001487 0.19278313 -0.19363062 0.123934954 -0.2335704 -0.07579843 -0.08354546 -0.3249284 -0.3358373 0.5162091 0.025696095 -0.39236486 0.003457658 -0.01932425 0.18628427 0.050117735 0.40834194 -0.3823628 0.07404564 0.20424774 -0.123633064 -0.042010844 0.3193975 0.029612115 -0.05738028 -0.35601 0.29351047 0.17297591 0.10993969 -0.17465895 -0.04739786 -0.10585555 -0.41791102 -0.41012472 -0.051455878 0.009527552 -0.42507252 -0.26617584 0.10887168 -0.23857398 -0.10572725 0.5310086 -0.13378203 0.5136387 0.066883385 0.04954223 0.37681374 -0.1447903 -0.32145402 0.3379471 0.38142264 0.087101765 -0.3399121 0.2040087 0.22206114 -0.43262595 0.18582518 -0.124158435 -0.038375363 0.06587201 0.17685686 0.029042618 0.21238162 -0.15351051 -0.26404327 0.008780255 0.09953335 -0.059012238 0.4379642
1865 0.028468592 -0.3333739 0.65780634 -0.021174248 -0.33455738 -0.19819006 -0.06381668 -0.20877023 0.2696467 0.4070781 0.015167519 0.11847866 -0.28116235 -0.42230815 -0.49277717 -0.08600733 -0.25024173 0.09418908 -0.15434644 0.23112647 -0.042041454 -0.06516992 0.42916864 0.25114805 -0.3936001 0.054283034 0.93438566 -0.42569187 0.12650475 -0.38987088 -0.22004926 -0.050502315 -0.5052759 0.49444273 0.16098595 -0.4269026 0.26755187 -0.12215463 0.19362716 -0.33673304 -0.19106966 0.17703223 0.024930995 0.002656377 -0.11175089 0.13804147 0.02032247 0.4073473 -0.055800326 0.03821561 -0.18704042 0.2116689 -0.028515104 -0.22963624 -0.1682072 0.10693758 0.025322638 -0.15910603 -0.10751676 -0.19264568 0.14824894 -0.17573622 0.11042744 -0.13582449 -0.16192268 -0.16010192 -0.36506334 -0.3049203 0.44728604 -0.10644396 -0.25322223 -0.113991275 0.043500766 0.17538472 0.079474375 0.28483242 -0.25233945 0.17607339 0.19770138 -0.0026751703 -0.0545202 0.31965697 0.06743347 -0.12624769 -0.23504212 0.48653036 0.10760666 0.04527922 -0.15311387 -0.08394426 -0.17362791 -0.43413636 -0.5559987 -0.114655934 -0.08136811 -0.3166911 -0.19784422 0.11347016 -0.3077194 -0.1795322 0.5674355 -0.021302339 0.5198797 0.12916741 0.1415242 0.37815434 -0.19041926 -0.30653498 0.3499054 0.30750668 -0.010825695 -0.40503472 0.22552514 0.21085314 -0.35086438 0.10218458 -0.20740934 -0.14351958 0.07621478 0.070844546 0.021603644 0.14084478 -0.20527425 -0.30030957 -0.1324868 0.10260365 -0.0023846314 0.36272264
1867 -0.068564825 -0.14050569 0.5000099 -0.038744424 -0.08187822 -0.20840837 0.04184807 -0.33708864 0.23151062 0.28261223 0.082866386 0.1155877 -0.03869471 -0.38238004 -0.4780111 -0.15693612 -0.0908973 0.1891768 0.061403614 0.124689855 -0.074811004 -0.020866336 0.36577618 0.14067 -0.46115267 0.04979354 1.0221663 -0.48239112 0.083511166 -0.61592203 -0.31650552 0.07630814 -0.35617357 0.6696805 0.16904415 -0.4938467 0.2595559 -0.07488982 0.30711907 -0.28667372 -0.3877584 0.35759908 -0.21565083 0.0037710054 -0.13621576 0.17991678 0.105128415 0.56370986 0.110463075 -0.1582022 -0.2650172 -0.055877753 -0.22539717 -0.299713 -0.23615532 0.063033625 -0.08748651 -0.19384716 -0.20295352 -0.19717869 0.06916041 -0.13421573 -0.11064214 -0.0534999 -0.11195733 -0.075517796 -0.2698358 -0.39590308 0.39677358 -0.2543649 -0.22261587 0.035906192 0.03144796 0.11815375 0.15962514 0.44320607 -0.44875973 0.07736542 0.14490753 0.0695106 0.08759614 0.25822997 -0.1433818 -0.16791709 -0.53837126 0.32613003 0.13868327 0.13240243 -0.06623118 -0.033407886 -0.19000149 -0.30470064 -0.7328935 0.06765861 0.11389362 -0.53902006 -0.35186547 0.2214866 -0.0976635 -0.17824556 0.622022 -0.14899911 0.4469049 0.06814237 0.038545143 0.5915443 -0.2443575 -0.27322128 0.39234743 0.25096333 0.048067976 -0.3667589 0.25063807 0.14348193 -0.34632415 0.020671526 -0.1298909 -0.11076263 0.1234537 0.19899248 -0.18567623 0.085695416 -0.15609881 -0.3384364 -0.17131214 0.20273906 0.0456964 0.4400376
1166 0.16664137 -0.16395548 0.6261724 0.40738195 -0.054679543 -0.44966412 -0.06317228 0.031369906 -0.24255508 0.07343129 0.15574521 0.14797129 -0.15939401 -0.38852093 -0.55296576 0.025327567 -0.064878896 -0.16976029 0.12041174 0.24386126 0.3614857 0.069077075 0.34506807 -0.024038184 -0.45665273 -0.17431775 0.7889897 -0.30306366 -0.19658765 0.022236424 0.039589103 0.0689756 -0.5274889 0.4558415 0.039717518 0.008064748 0.4612205 0.17843804 0.171206 -0.07060233 -0.31549197 0.16864383 0.524132 -0.11029138 -0.13344811 0.088050485 -0.14686449 0.23340763 -0.2458171 0.15950048 -0.02463211 0.27979618 0.038872276 -0.25935203 -0.01485344 -0.26249197 0.11094072 0.07717182 -0.049949765 -0.1751559 0.09424699 0.0010818787 0.009991585 -0.37667838 -0.24369739 -0.015436175 -0.5369799 -0.7203669 0.36775646 -0.2530759 -0.5444095 0.33636943 -0.16894414 0.4253675 -0.37717375 0.48153296 -0.34910724 0.3000989 0.2658098 -0.07619463 0.5605444 0.045205597 0.46553066 0.107033655 -0.20468278 0.57031786 0.032326307 0.31012735 0.050536346 0.06835314 0.27519065 -0.69982433 -0.50283253 -0.027442226 -0.10597658 -0.29619145 -0.4206246 0.5074837 -0.3867986 -0.48473036 0.4047119 -0.16158828 0.21505293 0.55926186 0.29928073 0.28469464 -0.20953932 -0.5793747 0.33203974 0.48536912 0.15975757 -0.40310216 0.49229294 0.14601691 -0.48454705 0.21334104 0.13301678 -0.096560545 0.31738472 0.10610725 0.20351176 0.38256228 -0.33980665 -0.42759758 -0.3896703 0.1882621 -0.048219163 0.13509645
491 0.1409561 -0.33536717 0.6088388 -0.13028088 -0.22789498 0.10468152 -0.2106305 -0.01864708 0.20988877 0.6145733 0.09029251 0.2046028 -0.27080655 -0.109790005 -0.53280735 -0.33153775 -0.14096715 -0.0022036533 -0.0472759 0.07121779 -0.13307945 0.1927529 0.11997109 0.19325972 -0.33853748 -0.090839006 0.9469943 -0.3845823 0.07116425 -0.36054066 -0.11350562 -0.23895381 -0.73918235 0.49994287 0.34098384 -0.6748187 0.4965197 0.16881691 0.47474942 -0.48221794 -0.4272534 0.25050658 0.23510253 -0.14074588 0.010761363 -0.14293097 -0.1351024 0.2597345 0.009097992 0.13379458 -0.28596625 0.04844167 -0.039902832 -0.30125493 -0.28794616 -0.026721492 -0.19297028 -0.095623866 -0.37734288 -0.0021012698 0.14256483 -0.41371956 -0.07717621 0.13495147 -0.27728456 -0.3033637 -0.16670889 -0.27047578 0.5700964 -0.3969031 -0.12096688 -0.07363196 0.116742894 0.017508252 0.017771518 0.079137236 -0.15986434 0.12872817 0.09234021 0.014099751 -0.0070227347 0.5331323 0.22548172 -0.32598206 -0.2905377 0.52247906 -0.021637568 0.31081906 0.081894435 0.06776832 -0.1878579 -0.14940967 -0.31194973 0.07862375 0.23893408 -0.27457094 -0.20622414 0.19525404 -0.17534423 -0.1678467 0.5648093 -0.24789163 0.58689374 -0.21383207 -0.1081389 0.40101483 -0.27085844 -0.4750318 0.5425389 0.048984736 0.03793663 -0.25234714 0.06933021 -0.083499186 -0.587366 -0.11376403 0.05060939 0.14003165 0.16506894 0.027089478 -0.10238411 0.29328373 -0.36543065 -0.20182483 -0.10091662 0.073449366 -0.046875067 0.14096816
1311 -0.046085104 -0.2572714 0.60539305 -0.16362579 -0.2466945 -0.026273783 -0.24871077 -0.21904032 0.24121103 0.6246469 -0.29155985 0.1830991 -0.09531684 -0.1988481 -0.7002593 -0.23642391 0.016878199 0.06717097 0.01948717 -0.16092382 0.045519155 -0.0071042166 0.32873905 0.117873624 -0.21536224 -0.14408273 0.93632054 -0.40237498 0.46986064 -0.2014232 -0.12774608 -0.21217665 -0.43411633 0.31912053 0.047667433 -0.0066684415 0.20601636 -0.17151582 0.102446236 -0.41938356 -0.08842165 0.13807523 0.2558936 -0.22949913 -0.13972595 0.3369361 0.60097855 0.4211725 -0.25751683 -0.0124084335 -0.20910625 0.19364563 0.041162506 -0.038079944 -0.2718878 -0.26359525 0.2527988 0.06821106 -0.14471886 -0.10647395 0.05025395 -0.2816047 0.006603238 -0.22255556 -0.32505843 -0.19541647 -0.44327167 -0.5981459 0.67305195 -0.20177335 -0.2278838 0.01632493 0.23541142 0.40342674 0.1672323 0.04514581 -0.18950509 0.07569796 0.13101791 -0.05157706 0.28319517 0.39329618 0.11328592 -0.037581377 -0.5221269 0.38102007 0.07895131 0.044935323 0.106973335 -0.2470553 -0.27977875 -0.5239099 -0.36743903 0.26703167 -0.06306578 -0.47880876 -0.14759432 -0.0050925133 -0.2210659 -0.4204429 0.3017131 -0.4794185 0.36806306 -0.19183765 0.10414644 0.032771856 -0.11028444 -0.46063757 0.44059703 -0.025223501 0.41883233 -0.2527189 0.21297912 0.22404858 -0.794436 0.26485142 -0.06149012 0.027644739 0.25136185 0.42753547 -0.31250554 0.61185294 -0.378298 -0.45098186 -0.08997118 0.18733108 -0.23192328 0.008022784
1674 0.089915715 -0.30333644 0.47056624 0.11520996 -0.14070974 -0.12133576 0.2013411 -0.26054674 0.20294565 0.44525138 -0.060531344 0.23979314 -0.14820316 -0.08372774 -0.32812583 -0.009421974 -0.4260955 -0.06443219 -0.08225859 0.14973433 0.21399319 0.062689714 0.5185651 0.15105817 -0.32671726 -0.11043383 0.9198435 -0.63594615 0.10747696 -0.3568685 0.09897383 -0.035870764 -0.5601025 0.66066504 0.2360678 -0.12603046 0.39257315 -0.13675568 0.26663452 -0.44382456 -0.35896462 0.18515152 0.2509108 -0.1598543 -0.43986908 -0.13538854 0.1284662 0.49935544 0.08409302 0.0032254672 -0.21468301 0.20875949 0.055472102 -0.2772913 -0.36506987 -0.01085777 0.08705611 -0.016913073 -0.04273502 -0.2242818 0.27092716 -0.21431847 0.34206375 -0.08801275 -0.22692138 -0.18174258 -0.22446643 -0.52395 0.30872607 -0.1912694 -0.44607767 0.1587538 -0.12749651 0.2389551 0.13311225 0.27707693 -0.39649233 0.20196356 0.15653272 -0.023645785 0.09357091 0.18099456 0.32387295 -0.1479312 -0.15902275 0.41307193 0.036132116 0.14436401 0.06391938 0.058008578 0.008143884 -0.47331366 -0.34655735 -0.073343344 0.053177565 -0.17710301 -0.1349483 0.06065965 -0.14612569 -0.16241358 0.5655535 -0.10108371 0.39625612 0.20124985 0.117910065 0.116181694 -0.32338038 -0.37076974 0.41320962 0.21198983 0.12701444 -0.30682924 0.2935943 0.16091928 -0.46479136 0.16018113 0.21643798 -0.03937772 0.19490297 0.08901669 0.023779206 0.09058794 -0.19143906 -0.29776168 -0.1624325 0.2047511 -0.15133734 0.060822256
1858 -0.009038009 -0.34693822 0.6434688 0.0063563446 -0.33681306 -0.1810826 0.008234053 -0.15319484 0.27415222 0.3589961 -0.043697644 0.102629766 -0.035210304 -0.36023974 -0.5715228 -0.1958487 -0.20317665 0.050456215 -0.13591346 0.27199116 0.008271945 -0.15744315 0.5171423 0.16439785 -0.49420857 0.1886056 1.0003037 -0.5181049 -0.030900657 -0.4098906 -0.12728412 -0.19891746 -0.5294223 0.48301876 0.37037972 -0.4263124 0.23897132 -0.09239176 0.13428219 -0.2175778 -0.2628569 0.12627412 0.013211889 0.09182622 -0.031807262 0.03019601 0.019912003 0.6063644 -0.11720865 0.108686514 -0.10102825 0.3195684 -0.05330733 -0.09037572 -0.2962193 0.18530601 -0.025927806 -0.14512707 0.06366018 -0.27356613 0.1606481 -0.17987855 0.1115758 -0.07502952 -0.19227536 -0.08605868 -0.26627487 -0.40411276 0.45141426 0.031655043 -0.44696695 -0.09266509 -0.09699641 0.12167213 0.039428074 0.34024477 -0.40349898 0.1309874 0.28585365 0.0022795794 -0.17285259 0.32112893 0.1165121 -0.014416309 -0.30974042 0.3618672 0.104010046 0.13870797 -0.22817332 -0.122605644 -0.006261251 -0.36351845 -0.47696742 -0.056667093 0.059251204 -0.51694274 -0.31253183 0.15803805 -0.18486059 -0.15815167 0.55458695 -0.051636275 0.4567153 0.2130962 0.013687741 0.28838995 -0.16177711 -0.31122094 0.4010847 0.3107384 -0.08406148 -0.3231673 0.14656776 0.1545258 -0.34493765 0.2573286 -0.054761086 -0.035405073 0.04984069 0.13356853 0.09184373 0.21607769 -0.13916439 -0.2621368 0.0060371826 0.053558264 -0.017302891 0.45424595
1830 -0.0812525 -0.42448202 0.6925098 0.057221774 -0.0042833104 -0.3711461 -0.10815139 -0.12300158 0.3753327 0.5893945 0.1722332 -0.04052648 -0.028460095 -0.44305432 -0.3158776 -0.07567709 -0.19068526 0.12595682 -0.0027823239 0.02647413 0.1446082 0.2053395 0.41762364 0.060357746 -0.35358247 -0.055977914 0.9194907 -0.46840855 0.22134513 -0.38335472 -0.1362487 0.036267065 -0.53781426 0.5144979 0.16304287 -0.25093505 0.29734036 0.054917272 0.50777155 -0.38705966 -0.17332102 -0.06562498 0.21931411 -0.25603437 -0.28586364 0.20106089 0.08375058 0.5519289 0.04626381 -0.151898 -0.16991931 0.014711193 0.07580584 0.043525573 -0.21794146 0.113886856 0.19495265 0.008282876 -0.06952216 -0.108937874 0.17776498 -0.08660762 -0.05096551 -0.1386972 -0.30979547 -0.11911569 -0.5425301 -0.4078205 0.6107333 -0.18201248 -0.508052 -0.08326408 0.091390386 0.2780929 0.16822323 0.059941355 -0.26067972 0.05861433 0.29468638 0.033872265 0.14681163 0.21854131 0.21403697 -0.0955282 -0.37454137 0.30894917 -0.19937891 0.19444096 0.15177473 -0.045101248 -0.13202953 -0.46993905 -0.32002336 0.08803848 0.19879434 -0.27571136 0.0013673046 0.21721138 -0.081565425 -0.33284992 0.43331286 -0.096725576 0.42096794 0.2770612 -0.05704211 0.164502 -0.16516142 -0.26342848 0.607736 0.14006902 0.40832028 -0.2856266 0.25788972 0.15494278 -0.7724318 0.24281217 0.43461126 -0.23437114 0.26226744 -0.04682717 -0.07722827 0.20552751 -0.109766 -0.49810296 -0.30225122 0.25426495 -0.13170683 0.11188145
502 0.21318378 -0.33974355 0.42383784 0.05506759 -0.20814998 -0.121853694 0.048672184 -0.20267953 0.2996521 0.67986065 -0.010276404 0.28221345 -0.40701315 -0.23943965 -0.6108397 -0.19787748 -0.32029894 0.021485329 0.010256852 0.23998019 0.08208491 0.061159804 0.4223333 0.22800861 -0.43088806 -0.06885855 1.0896633 -0.46338364 0.15248923 -0.43418264 -0.06903985 0.037910573 -0.63490504 0.64667565 0.26288792 -0.32525834 0.35777128 0.012362706 0.46302912 -0.4110282 -0.27525428 0.31788734 0.24255304 -0.08123468 -0.32555193 -0.216414 0.099352114 0.39302105 -0.05611715 0.10556926 -0.36590847 0.19531311 0.072887175 -0.3320455 -0.30243146 0.050138373 0.056345418 0.027813992 -0.1979895 -0.21061037 0.29516175 -0.18107243 0.11690867 -0.11966973 -0.25896838 -0.34130576 -0.33071998 -0.26587972 0.28768608 -0.43229285 -0.19437607 -0.09569902 0.049450498 0.1819064 0.1939156 0.15998322 -0.2925017 0.20768975 0.08335666 0.1735391 -0.036396105 0.20237647 0.23391643 -0.2330091 -0.20017664 0.8069322 0.15552181 0.12000951 0.15059647 0.096551135 -0.022773728 -0.34279293 -0.5182041 -0.062465016 0.109394476 -0.21214545 -0.1934675 0.105464384 -0.26445073 -0.251793 0.5079953 -0.22572124 0.692448 0.030110726 0.1589683 0.4474021 -0.2898905 -0.34014764 0.33119497 0.11109493 0.070424095 -0.3662495 0.23087353 0.17299475 -0.31119317 -0.041134965 -0.07781007 -0.03436495 0.18779743 0.11396167 -0.10260875 -0.00038081227 -0.28961632 -0.31425318 -0.14210024 0.111107804 -0.06372657 0.1605861
556 -0.07845818 -0.35356683 0.7305168 0.13300548 -0.21994056 -0.2680575 -0.097611554 -0.31486848 0.2566041 0.12898672 -0.11551401 0.15313987 -0.009271837 -0.41310072 -0.23182864 -0.0625707 -0.22560868 0.05357255 0.096029215 0.26900956 -0.074790545 -0.19064087 0.39823595 0.05145165 -0.36704725 0.17884111 1.0625924 -0.4454308 0.11078909 -0.23979817 -0.12759711 -0.21156591 -0.61226094 0.5825615 0.22028393 -0.17282324 0.3892718 -0.05621349 0.31688985 -0.28665328 -0.34380886 0.044943985 0.090024605 -0.1424111 -0.13549319 0.20440198 0.19647978 0.33958974 -0.15022163 -0.13181105 -0.27510196 0.2635707 -0.13512947 -0.10517759 -0.07971569 0.02757933 0.099138 0.07135597 -0.13382828 -0.11658167 0.0432645 -0.15782925 0.06652316 -0.4105905 -0.35279107 -0.015039173 -0.39077187 -0.4247312 0.5019655 0.048278343 -0.29312927 -0.0009485143 -0.03646919 0.12149427 0.1024491 0.3811498 -0.24198237 0.22200772 0.13281584 -0.18455961 0.0019160917 0.1898486 0.035576615 -0.10300105 -0.20842715 0.32960933 0.2069082 0.0015878661 -0.2987109 -0.15103835 -0.10081751 -0.5715612 -0.330015 -0.08618166 0.029535687 -0.4680592 -0.33056325 0.16281816 -0.24320604 -0.28363037 0.5096372 -0.06644699 0.5267266 -0.050017472 -0.026482671 0.3149169 -0.08412795 -0.45465958 0.37256104 0.3793835 0.030218743 -0.19710366 0.22791548 0.3025593 -0.42636734 0.12088025 -0.12274891 -0.2366749 -0.09081071 -0.053697854 0.037752237 -0.008601992 -0.16267475 -0.4055812 -0.04863837 0.08568101 -0.12955344 0.43173483
672 -0.055381246 -0.36080784 0.5493709 0.09747266 0.07092384 -0.17363459 -0.16259198 -0.19175872 0.32013628 0.5152227 0.170848 0.20078626 -0.239433 -0.032728184 -0.5275114 0.20097125 -0.19961108 0.16535683 0.13222821 0.323654 0.16311562 0.2559858 0.29597658 0.006558515 -0.335534 -0.08771579 0.90895736 -0.71701455 0.0034186016 -0.35093588 -0.023048352 -0.1389823 -0.7908421 0.7844128 0.0903319 -0.24648315 0.39418882 0.112315334 0.19567111 -0.5234691 -0.3652085 0.12132248 0.18379523 -0.12722082 -0.18779506 -0.146329 0.060992166 0.5744949 0.3469482 0.098475926 0.027916027 0.25036493 0.0099669825 -0.3080422 -0.19110057 -0.1306058 0.07684394 0.069489434 -0.30432302 -0.1388803 0.1240339 -0.34699032 0.12751392 -0.14394043 -0.2153988 0.013684942 -0.31674093 -0.54544353 0.47875905 -0.174073 -0.441137 0.00598182 0.03710635 0.25476652 0.020555222 0.27556455 -0.3123701 0.16688973 0.26147744 -0.15012899 0.31055644 0.32208672 0.1892079 0.14726026 -0.3353527 0.37033024 -0.17963503 0.3644811 0.25424463 -0.025389297 0.078992814 -0.38405204 -0.4059831 -0.12418721 0.015649239 -0.044889465 -0.08791649 0.27045983 -0.13200729 -0.30341297 0.515831 -0.043567847 0.38008288 0.5819861 0.07217678 -0.058649596 -0.0543687 -0.30199757 0.472541 0.2532528 0.0032869927 -0.34924164 0.2846358 0.22148027 -0.5780662 0.23128587 0.35546586 -0.2531369 0.20583107 -0.009383018 0.22867665 0.29630068 -0.28604823 -0.5103009 -0.2651524 0.113877945 0.11097993 0.13115172
104 0.11700153 -0.41495487 0.5776411 0.060005523 -0.21957186 -0.3067312 -0.09968334 -0.23793663 0.28394786 0.5234865 0.2152396 -0.18673785 -0.23926085 -0.5738968 -0.27345502 -0.10464893 -0.17603575 0.18623917 0.105481975 0.30869734 0.03162593 0.21328853 0.36833876 0.04729435 -0.45597327 0.15209416 0.7440328 -0.3845175 0.2035686 -0.36892813 -0.17042911 0.07018823 -0.6028 0.6879003 0.16079319 -0.3992753 0.08604149 0.021922156 0.46413144 -0.46695158 -0.024132222 0.050792966 0.21495278 -0.051298864 -0.25414592 0.2016137 -0.09167257 0.6394201 0.000596024 -0.032494012 -0.077482164 0.17302178 -0.1004122 -0.24659084 -0.21525496 0.117643654 0.2623965 0.091226496 -0.18574625 -0.06990042 0.2967674 -0.09019266 0.016443748 -0.18186738 -0.2029129 -0.16234878 -0.5382561 -0.30933416 0.47689435 -0.10076454 -0.35662344 -0.07133802 0.20156561 0.22878265 0.07040476 0.24751289 -0.3254298 -0.10186657 0.1491217 -0.07567009 0.1373364 0.18377508 0.18306825 -0.04131909 -0.33950806 0.38404983 -0.09536672 0.17821828 0.23880503 -0.028942028 -0.12606099 -0.38217098 -0.45608193 -0.031222047 0.179684 -0.31547895 0.041859433 0.23521675 -0.042353086 -0.22060527 0.5009112 -0.112269424 0.6120683 0.4677812 -0.061357755 0.19775666 -0.19405688 -0.22316445 0.45836422 0.37268227 0.32531872 -0.3522221 0.08054621 0.19617607 -0.5572085 0.07264842 0.30750445 -0.20776927 0.1552093 -0.05365531 -0.16652396 0.047374118 -0.15443236 -0.45634043 -0.17287028 0.23442484 -0.061227724 0.08837492
468 0.25867924 -0.27655676 0.5201941 -0.012851772 -0.13160558 0.06791336 -0.08183542 -0.27054527 0.31156144 0.5416732 0.008066453 0.47234192 -0.5225032 -0.21717565 -0.6196067 -0.37656513 -0.15006767 0.057171617 0.050029583 0.31955257 0.12353327 0.023999386 0.27108005 0.07295268 -0.36478835 -0.017079657 0.9580335 -0.34618503 0.10844822 -0.44287127 -0.102479324 0.041564975 -0.65976983 0.58595836 0.21396379 -0.23572217 0.3449132 -0.029888283 0.51636684 -0.33048093 -0.1900872 0.38915974 0.3022357 -0.08779847 -0.30781326 -0.24775036 -0.05373187 0.31409666 -0.056918245 0.07479407 -0.4125257 0.12511961 0.022184802 -0.46722847 -0.3166987 -0.05018407 0.0032624903 0.076022275 -0.12218909 -0.23667008 0.24831796 -0.28681147 0.034343492 -0.36911482 -0.122445755 -0.3499094 -0.26116896 -0.31909806 0.40136608 -0.4564386 -0.19365844 -0.07723794 0.0784046 0.2550792 0.08154377 0.07418231 -0.29591855 0.22539039 0.057376597 -0.014200417 0.072010174 0.2150501 0.16068639 -0.28240058 -0.2538219 0.81623966 0.18654367 0.13563642 0.0515772 0.117263146 -0.05969735 -0.33624357 -0.42834795 0.013092719 0.09444377 -0.35502174 -0.16821389 0.03895433 -0.18428129 -0.3333277 0.5623589 -0.378027 0.7622139 -0.024065364 0.18909246 0.44155365 -0.31139493 -0.45705038 0.27892 0.13821849 0.13159856 -0.36205924 0.16527651 0.20519309 -0.29659277 -0.013880363 -0.10959418 0.17692433 0.1205216 0.2279387 -0.15330492 0.0921113 -0.42017555 -0.21270949 0.0024844245 0.07669588 -0.11625196 0.22740754
1402 0.0675306 -0.47309887 0.75176954 0.25197148 0.01514485 -0.2285702 0.14570133 -0.15949312 0.2062479 0.36564416 0.21656543 0.17701297 -0.038380187 -0.011724255 -0.5212331 -0.030365258 -0.39968452 0.02066976 -0.027686955 0.15811232 0.3075272 0.15210031 0.53798 0.06079066 -0.4892772 0.09500364 0.90033084 -0.78514403 -0.12557067 -0.44528934 -0.12139108 -0.05608795 -0.64757985 0.6021674 0.31134948 -0.3028618 0.56164235 -0.04013573 0.28253698 -0.27283627 -0.5399907 -0.03732697 0.027328553 -0.21119751 -0.1552723 -0.16001743 -0.0380833 0.5303647 0.13880782 0.040326394 -0.0062359488 0.21575339 -0.00035544584 -0.27769914 -0.354282 -0.022731911 -0.15589581 -0.0369238 -0.0046595503 -0.28765267 0.21557249 -0.28549847 0.118275374 -0.10835604 -0.085652515 -0.13353914 -0.084289245 -0.5889363 0.35542104 -0.11211418 -0.5618146 0.028923107 -0.11451563 0.016492844 0.15334438 0.17036445 -0.39076275 0.31115222 0.4352643 -0.09735207 0.16179994 0.26907244 0.26184273 -0.05917856 -0.23317134 0.43000555 -0.060877673 0.2643362 0.023334129 0.14243652 -0.036994267 -0.43948466 -0.33738247 -0.11564603 -0.09337426 -0.21041508 -0.2869182 0.3739467 -0.13148539 -0.103721015 0.5372157 -0.019006554 0.23127289 0.4034897 0.1442002 0.071787745 -0.331294 -0.33541718 0.41114846 0.23407154 0.10039796 -0.35315388 0.3571396 0.063916095 -0.46614462 0.3072305 0.3661957 0.049177658 0.18403961 -0.15910858 0.2431988 0.291438 -0.30652058 -0.42025986 -0.2359246 0.13264577 0.047063876 0.20764561
11 0.08369554 -0.41200793 0.82875186 -0.06697344 -0.08701542 -0.26725447 -0.09843033 -0.35376057 0.31798017 0.69493127 -0.097057246 0.041191302 -0.084892884 -0.42565638 -0.38942882 -0.26375595 -0.16051652 0.05074025 -0.012821546 -0.0981946 0.03548627 -0.018416336 0.41272783 0.09179599 -0.27451882 -0.1736655 0.849775 -0.39205244 0.3038829 -0.34136644 -0.14568812 -0.06630651 -0.3418616 0.39472046 0.10336051 -0.080947444 0.02664802 -0.11611104 0.28784922 -0.39122388 -0.2622767 0.018423086 0.28676683 -0.15969992 -0.28848258 0.37062368 0.31452987 0.4328358 -0.06259222 -0.14517714 -0.31820703 0.2215172 0.060717456 -0.068662226 -0.36909053 -0.1304708 0.13102026 0.108674616 -0.031145846 -0.036522232 0.17018159 -0.036590625 -0.06827906 -0.011768906 -0.21938615 -0.17288615 -0.49494877 -0.5352525 0.54769725 -0.13901688 -0.248607 -0.05726289 0.20425041 0.2817703 0.23200214 0.21571487 -0.24571232 -0.029673647 0.23338385 0.11006298 0.11770236 0.24481508 0.08848918 -0.17146514 -0.6723127 0.42281726 0.05988789 0.06988575 0.22219327 -0.19896919 -0.22367337 -0.40377447 -0.41796318 0.16130412 0.0052583497 -0.506859 0.03778182 -0.034931075 -0.062151648 -0.37463772 0.49108732 -0.35617092 0.48272562 0.022459136 -0.11251914 0.21212491 -0.20536791 -0.32761955 0.5933227 0.086639784 0.35219598 -0.3250716 0.3252557 0.10627358 -0.6892207 0.23985447 0.17301215 -0.14749354 0.19800933 0.18700746 -0.23262683 0.44228417 -0.3573016 -0.5043168 -0.18478864 0.18186885 -0.1291987 0.09851921
1564 -0.11000114 -0.24753301 0.49815372 0.048013143 -0.07590809 0.02581646 -0.028180392 -0.24910328 0.064326815 0.50299245 -0.14629683 0.14914085 0.22404267 0.0006002118 -0.5324314 -0.35368115 -0.2758678 0.019657038 -0.07758183 -0.12466118 -0.07785397 0.33363518 0.17150109 0.27755505 -0.26341107 0.019054655 1.0630184 -0.57020706 0.2786043 -0.37610012 -0.3646019 -0.28431797 -0.5871781 0.40918854 0.43877104 -0.7451871 0.5730853 -0.0586462 0.4045095 -0.53574926 -0.4469381 0.17836677 0.078700885 -0.16840523 -0.048340894 -0.053148694 0.22206424 0.33748925 0.066781916 -0.059241362 -0.18956338 -0.011111203 -0.116748124 -0.24808097 -0.2778886 -0.2125455 -0.1377638 0.122101225 -0.27194816 -0.108610615 0.2644498 -0.34341466 -0.067065306 0.07473769 -0.3593002 -0.34193927 -0.290296 -0.5145345 0.45155 -0.5396158 -0.031119302 0.014795432 0.1397417 0.09825518 0.1139174 0.12663546 -0.24320407 0.20536758 0.04183894 0.105594516 0.14857112 0.46226 0.23677982 -0.21080883 -0.30396056 0.35287085 0.06381393 0.095027566 0.030499175 0.120102555 -0.33958378 -0.30145642 -0.40832207 0.27987072 0.13390025 -0.29818806 -0.3178244 0.18861504 -0.17889024 -0.17616093 0.4790274 -0.3639003 0.23706415 -0.26591352 0.09322606 0.30803618 -0.27158898 -0.40405524 0.51282376 -0.036891982 0.16552475 -0.14900148 0.13947317 0.016416395 -0.73536325 -0.0228487 -0.092930995 0.05248612 0.29060417 0.19210343 -0.12702507 0.24095102 -0.34425694 -0.26193103 -0.20904417 0.028575761 -0.026166877 0.012997134
66 0.064984605 -0.39325264 0.67685926 0.25743657 -0.043574445 -0.24907751 0.2760289 -0.23577802 0.19339587 0.4379047 0.07489644 0.30872253 -0.017072469 -0.08715212 -0.435826 -0.032749105 -0.39468572 -0.03321033 -0.08016543 0.07587457 0.3566501 0.25213528 0.5410627 0.1346942 -0.42211312 0.009641159 0.8679539 -0.8447092 0.053790007 -0.370153 -0.019218527 -0.10300922 -0.64811605 0.654167 0.28146678 -0.24164653 0.5722074 -0.099361755 0.3309996 -0.43230185 -0.46277347 0.0053080763 0.21326874 -0.2243409 -0.3086675 -0.11162517 0.10192207 0.5019019 0.16148163 -0.01077693 -0.035558164 0.19898601 0.03395313 -0.33965597 -0.35381672 -0.13722765 -0.013087343 0.06355683 0.015471736 -0.17401147 0.25240633 -0.31590343 0.2303657 -0.13425788 -0.2220452 -0.19259505 -0.10417025 -0.66798764 0.24330062 -0.17844455 -0.43490317 0.205861 -0.054548465 0.087957315 0.16277564 0.1818685 -0.38394314 0.2336453 0.27313456 -0.17293885 0.1927873 0.17259015 0.34912005 -0.08856952 -0.1815978 0.3989465 -0.03742207 0.21699058 0.12783262 0.16446722 -0.07010429 -0.4671091 -0.28561163 -0.06875662 0.0097000515 -0.1307133 -0.14051664 0.24800703 -0.098543055 -0.1504684 0.49464893 -0.12533395 0.32816753 0.35050473 0.12366199 0.010836384 -0.3310563 -0.32761607 0.4157259 0.18520261 0.15509398 -0.24653088 0.2927579 0.019237896 -0.50828314 0.1857547 0.4181183 -0.005754178 0.22249532 0.043807168 0.062143188 0.114486225 -0.26083374 -0.39828444 -0.21420144 0.19790375 -0.060034595 -0.038507592
1625 -0.32045144 -0.3745141 0.45269063 -0.2571383 -0.32473895 -0.22906385 -0.30094612 0.033362858 0.5163249 0.5909064 -0.008216584 0.13837105 -0.4593002 -0.27144602 -0.5905939 -0.050930273 -0.09654341 0.30793673 -0.22018924 -0.21954744 0.036255877 -0.03425452 0.19111763 0.19720522 -0.3272213 -0.04710389 0.74079245 -0.5751105 0.14975615 -0.3057649 -0.22486612 -0.31094328 -0.59347343 0.5796858 -0.005322682 0.06246538 0.14755936 0.046457935 0.09262202 -0.4354203 -0.08870962 0.18147506 0.10825494 -0.29643783 -0.45349205 0.11586006 0.37741077 0.6321657 0.13566513 0.07798767 -0.1731239 0.042989917 0.18493293 -0.17818892 -0.016971832 0.0635681 0.15024944 -0.240059 -0.07567304 0.062252957 -0.006512535 -0.3494632 0.19870625 -0.32620648 -0.23065965 -0.06594072 -0.4269804 -0.22865857 0.55894506 -0.041462876 -0.2949945 -0.11799964 0.13172655 0.39727303 0.16273929 -0.17044233 -0.26327083 -0.008789192 0.15222391 -0.14136705 0.20038123 0.5254669 0.051516116 -0.14411442 -0.4893632 0.49914402 -0.09231587 0.39494947 -0.13596821 -0.26279232 -0.22684148 -0.53491676 -0.53556126 -0.06116902 -0.060147453 -0.24494897 -0.30156547 0.050848357 -0.41064668 -0.31030834 0.5324371 -0.21327631 0.4440497 0.2372857 0.14939761 0.077294596 -0.083099544 -0.34484258 0.21392193 0.34916142 0.1660795 -0.29067162 0.19735081 0.30745786 -0.73696506 0.15673889 0.16867709 -0.32742125 0.21743181 0.30209982 -0.1270987 0.3415145 -0.28378397 -0.44253084 -0.23028754 0.30362958 0.16101544 0.3534477
311 -0.36018082 -0.41268098 0.55502266 -0.2146429 -0.41500053 -0.2410647 -0.28135115 0.06473764 0.43288866 0.6147279 0.009308193 0.16732948 -0.44503716 -0.29627723 -0.6885362 0.018745648 0.032374855 0.3038928 -0.39265925 -0.17574665 0.014575954 -0.013127649 0.3044917 0.22038022 -0.28670847 -0.120124236 0.65675825 -0.6328671 0.18910246 -0.32120016 -0.1166535 -0.41968116 -0.5767318 0.53754485 -0.054191712 0.12368052 0.07341417 -0.012309741 0.007993246 -0.47533202 -0.07437983 0.26095855 0.08700247 -0.34741104 -0.477571 0.1576488 0.41963428 0.5968334 0.08231775 0.12747295 -0.12266572 -0.011137357 0.24650957 -0.13787045 -0.12451544 -0.042136062 0.0863546 -0.31958503 -0.18047397 -0.049508497 0.04209598 -0.37662002 0.24936609 -0.32252517 -0.15835029 -0.05516074 -0.39069164 -0.33068556 0.6706988 -0.068927035 -0.30696803 -0.03274729 0.11202643 0.4902123 0.13675012 -0.19903892 -0.2369684 -0.0931366 0.15808529 -0.16460587 0.26162842 0.5284774 0.095216736 -0.11394363 -0.4570717 0.42771304 -0.16262889 0.34887522 -0.2300565 -0.21057345 -0.2986472 -0.56415206 -0.45387003 0.0041514826 -0.09618405 -0.27467525 -0.24697031 0.005539643 -0.34314486 -0.33410367 0.5638356 -0.25420466 0.456141 0.28398147 0.18336022 0.05336797 -0.15059166 -0.31728542 0.14222942 0.39975712 0.17216134 -0.3532659 0.25677067 0.2691968 -0.775251 0.19989575 0.039673947 -0.19672103 0.25223565 0.40610945 -0.09623 0.35527816 -0.25642955 -0.400864 -0.12444474 0.3206916 0.12459293 0.30972824
2 -0.23697014 -0.25336447 0.57729137 -0.14162827 -0.2679625 -0.15925975 -0.14325939 0.16215332 0.26383945 0.3944198 0.150222 0.029007662 -0.48395553 -0.050622407 -0.86766183 0.25055364 0.17397855 0.27654698 -0.2539152 0.09432005 0.23889247 -0.074255265 0.4122305 0.15410621 -0.2991738 0.03535363 0.58455956 -0.7556011 0.069291525 -0.20604362 0.2747275 -0.23359163 -0.52591026 0.5339742 0.06576903 0.13402985 0.105186835 -0.10118971 -0.045195296 -0.41698793 -0.27891305 0.50036156 0.22280511 -0.40869194 -0.50700736 -0.011044012 0.13587812 0.72043025 0.143744 0.2697575 0.09930768 0.08026273 0.23235258 -0.14943808 -0.45454314 -0.0933768 -0.024386415 -0.23601486 -0.23728867 -0.098337784 0.16941898 -0.40743724 0.22220641 -0.37469122 -0.09063585 -0.0074645216 -0.2460388 -0.7107558 0.6761933 -0.06884757 -0.5267431 0.26446694 -0.04571562 0.5059745 -0.054281186 0.15264931 -0.36031577 -0.05910537 0.2723024 -0.11737356 0.34851936 0.3832476 0.1821668 0.0063974876 -0.26763415 0.23722197 -0.32569778 0.45256063 -0.011348775 -0.03971285 -0.01489086 -0.719863 -0.36744034 0.07021667 -0.051695105 -0.34689736 -0.25202033 0.19551276 -0.19931856 -0.4527875 0.54268765 -0.24459179 0.40132946 0.5357825 0.18912533 -0.12635781 -0.18545514 -0.29723677 0.18711647 0.3691597 0.122570686 -0.46712068 0.2634262 0.036780663 -0.9291134 0.43013883 0.31159088 0.005310317 0.29516572 0.423743 0.13232917 0.4078318 -0.18702112 -0.5042592 -0.091219835 0.34701443 0.06442259 0.17636265
1126 0.19811222 -0.3931282 0.59364647 0.30816278 -0.19091815 -0.35976702 -0.043507367 -0.33033544 0.20311776 0.63325816 0.27768052 -0.20307931 -0.24121977 -0.515418 -0.37913644 -0.009306765 -0.16385335 0.18773022 0.123379156 0.40479746 0.19112837 0.30617127 0.4244073 0.01798541 -0.47444665 0.10647469 0.62021124 -0.49672437 0.08758668 -0.29769224 -0.16356312 0.057036646 -0.6451795 0.68799573 0.18793157 -0.399438 0.076005004 0.04938598 0.4151346 -0.56935 -0.08510993 0.03331399 0.29847312 -0.07936822 -0.28724477 0.12332571 -0.102595136 0.59657794 0.1276166 0.06266928 0.028471489 0.29368818 -0.10048301 -0.35870776 -0.2634095 0.008708729 0.29842263 0.24227567 -0.31307292 -0.07822176 0.23366807 -0.05650314 0.08305561 -0.19920737 -0.20307128 -0.19028538 -0.5217778 -0.41428062 0.41086027 -0.14733379 -0.35510173 -0.029682124 0.18467829 0.22615552 0.06485045 0.41868156 -0.39154714 -0.14922623 0.2054463 -0.15382424 0.18237202 0.24605286 0.21938784 -0.027748846 -0.31707463 0.4003527 -0.20486808 0.144738 0.26818588 0.024169039 -0.058338355 -0.3856308 -0.34703732 -0.04261277 0.115798965 -0.24319752 0.11182855 0.27498117 0.016235461 -0.17745379 0.41939682 -0.073378995 0.5099171 0.69213897 -0.08616956 0.032388847 -0.17555359 -0.17344093 0.46029514 0.40010247 0.31714982 -0.40363193 0.15812866 0.1353478 -0.5970959 0.08095611 0.4292955 -0.20578049 0.16506733 -0.04502163 -0.11539292 0.068188086 -0.20967469 -0.6013379 -0.10435382 0.2862988 -0.007581204 -0.052513745
430 -0.19398336 -0.22412314 0.5686711 0.204698 0.19534795 -0.24736057 -0.14972855 -0.108802564 0.37768707 0.2377899 0.0009980472 0.028367639 0.3926221 -0.25939122 -0.055722486 -0.09617666 -0.14653595 0.019598344 0.2566335 0.0823649 -0.11057092 0.15773536 0.2903098 -0.10415372 -0.3542302 0.119341485 1.0646843 -0.3730592 0.19969128 -0.31935143 -0.11609164 -0.11760147 -0.6169236 0.75168866 0.2701333 -0.37296674 0.51310843 0.07885585 0.40878713 -0.3358089 -0.49210748 -0.112988494 0.06607313 -0.25003502 -0.17528373 0.10875353 0.1871403 0.5222279 0.08029302 -0.42636868 -0.20052493 0.017269924 -0.18572657 0.019681271 -0.015399852 -0.10052225 -0.02216531 0.120657906 -0.16556954 -0.05244145 0.009254148 -0.24132033 -0.20243533 -0.37392944 -0.60170746 0.07984014 -0.5787021 -0.5024544 0.61710644 -0.14001904 -0.4245866 -0.12331189 0.056342736 0.13267155 0.091816485 0.12193418 -0.3076105 0.27242047 0.193559 -0.168376 0.20360236 0.24806099 0.20256338 -0.080589585 -0.34059462 0.27063912 0.041988563 0.23021701 0.003009294 -0.12862247 -0.13787259 -0.5350211 -0.39763764 0.10536965 0.23960102 -0.39319366 -0.25321448 0.30223206 -0.11789153 -0.39615718 0.49056894 -0.10021252 0.4519419 0.17116947 -0.020507941 0.24923508 -0.18744674 -0.47786874 0.6348125 0.24521047 0.20612983 -0.16137965 0.23161137 0.29061508 -0.80299205 0.07274454 0.20495029 -0.320219 0.084871024 -0.1321107 -0.052022036 0.083483376 -0.18888846 -0.5322379 -0.3236114 0.12978078 -0.060555864 0.27070725
142 0.1312785 -0.52414405 0.3897859 0.07246311 -0.30957893 -0.116128005 0.11171402 -0.3560718 0.04647945 0.4303349 -0.18736802 0.19177717 -0.15591113 -0.48718607 -0.46294248 -0.064792916 -0.34615454 0.039944034 -0.08871325 0.3616416 -0.085716724 0.032709718 0.45057553 0.20059891 -0.48299623 -0.07994629 1.1406301 -0.33065972 -0.052210696 -0.45480454 -0.29650304 -0.365248 -0.5352741 0.47764882 0.19902539 -0.48045552 0.022801295 0.0034749038 -0.035165165 -0.33257902 -0.22878475 0.33286327 0.10632171 0.2291602 -0.24039026 0.091017224 0.2955256 0.69924325 0.023589619 0.023147786 -0.31891882 0.3775143 -0.08773306 -0.22788452 -0.2990335 0.2103517 0.10509695 -0.08716287 -0.009590993 -0.30310625 0.33753148 -0.18362735 0.24178213 0.20313717 0.060793005 -0.091823496 -0.29315856 -0.341466 0.31510952 -0.11823267 -0.2726702 -0.056487292 0.09799895 0.2228912 0.24073684 0.4647919 -0.39559773 0.03268334 0.0830055 0.080175914 -0.051848922 0.25570557 0.131487 0.06362243 -0.37980497 0.46094933 0.21379006 0.049092013 -0.09817522 -0.08771462 0.101095 -0.18427719 -0.8004449 0.09368084 0.061656006 -0.4882743 -0.38489172 0.15109907 -0.22948653 -0.08159159 0.73630166 -0.06085216 0.373043 0.3350333 0.101862416 0.31951365 -0.22065873 -0.34874347 0.57112545 0.20774639 -0.23808089 -0.546943 0.16262686 0.26655427 -0.118082084 0.16591042 -0.08127742 -0.03729494 0.25441045 0.2828134 0.027431855 0.39588028 -0.060563207 -0.061415367 -0.10741473 -0.12665759 0.052930675 0.3318444
493 0.32841447 -0.17870109 0.42491418 0.38735595 -0.43317473 -0.026561974 -0.09065352 0.33218667 -0.7107956 0.45804846 0.51992035 -0.39007732 0.33168232 -0.110685445 -1.415488 0.49079338 0.2279256 -0.28346235 0.3317557 -0.19323514 -0.14009352 -0.49238747 0.73843825 -0.092871584 -0.09234636 0.14657725 0.5687139 -0.20271955 -0.014212435 0.21237986 -0.048489988 -0.2142924 -0.91601753 1.4132195 0.40480962 -0.4374154 -0.22893704 0.05537157 -0.10329912 -0.0916014 -1.4354414 0.027926065 0.35671914 -1.0063341 -0.4876203 0.18029192 0.23359177 0.3775474 -0.24491079 0.61962205 -0.028150765 0.28833175 0.17471448 -0.29720306 -0.22859468 -0.018202513 0.19024286 -0.14723666 -1.7124646 0.19825773 -0.048121367 -0.651821 -0.3416441 0.14451441 -0.5725286 -0.3831178 -0.37484437 -0.70028883 0.55442744 0.56719184 -0.38773566 0.3752634 0.024200361 -0.060246393 0.59261405 -0.027760956 -0.5058485 -0.16226736 0.4887934 -0.24674515 -0.20777431 0.99932945 0.161973 -0.5411335 -0.5010613 0.7268209 0.2632904 -0.026603635 -1.2361751 -0.10375065 -0.5844196 -0.8836885 -0.46119785 0.07178774 0.3554002 -0.92184097 -0.5800336 0.6333478 -0.8349112 -0.6020473 0.1917981 -0.30055156 1.0251378 0.86238563 0.06958437 -0.44698766 -0.49317688 -0.92319185 0.82947934 0.0021539903 0.06980657 -0.85850537 0.21218604 -0.47061813 -0.35502005 -0.14442982 0.3595879 0.6598881 -0.2878719 0.3170563 -0.07249253 0.81088763 0.041150715 -0.75317293 -0.5223729 -0.40714553 0.16145441 -0.22057554
1180 0.3532767 -0.34362575 0.5051362 -0.055650588 -0.13346164 0.15767336 -0.09437244 -0.030365592 0.16693765 0.47661132 0.08639353 0.33408824 -0.41305575 -0.121383406 -0.46686518 -0.331858 -0.15826774 -0.0364697 0.026310023 0.2516804 -0.031068305 0.02853261 0.20177498 0.058239467 -0.41551057 -0.12243319 0.9778851 -0.3001069 0.083862156 -0.30851278 -0.13590834 -0.09086959 -0.7477672 0.47232246 0.29498246 -0.49565345 0.34923866 0.0364255 0.4719943 -0.3208655 -0.5055164 0.42235184 0.32476458 -0.10352088 -0.10312125 -0.12046126 -0.19746868 0.29036534 -0.048048694 0.060493667 -0.514603 0.009095082 -0.12264234 -0.42287767 -0.35281053 -0.09899311 -0.224534 -0.06690344 -0.34293017 -0.07104174 0.20939365 -0.40173087 -0.06882832 -0.0017190785 -0.18208747 -0.27593827 -0.14583096 -0.34392616 0.47051278 -0.32908365 -0.14950469 0.012006143 0.10896003 0.1683002 -0.02410733 0.16134553 -0.2019242 0.08046413 0.016746791 0.0070870514 0.10702352 0.3783987 0.18357843 -0.41884702 -0.40558806 0.64076483 0.13759089 0.2258263 0.022521187 0.09218209 -0.1568942 -0.22791474 -0.39309457 0.07859639 0.2199379 -0.41914716 -0.017113753 0.13208188 -0.15092078 -0.2880977 0.6194674 -0.32663104 0.73045474 -0.20483221 -0.086207464 0.554719 -0.3733524 -0.41427115 0.53858316 0.11208811 0.09439921 -0.34767377 0.09790864 0.04135163 -0.40532425 -0.11194261 -0.07829393 0.3594771 0.0848951 0.0526554 -0.16893877 0.22911271 -0.41592422 -0.21874739 0.011719787 0.05489628 -0.04041705 0.2917346
1290 0.26395214 -0.17302981 0.6779319 0.07862007 -0.16497912 -0.09321667 -0.104971185 -0.26547056 0.19834757 0.17589822 -0.05308444 0.105177976 -0.296365 -0.42219204 -0.2955432 -0.12707902 -0.07508511 0.17059296 -0.042466186 0.3758253 -0.0049605356 0.049893737 0.28613028 0.2481382 -0.40037695 0.030331604 1.0236477 -0.35909137 -0.1145754 -0.43641338 -0.23843186 -0.024933113 -0.5031407 0.3425367 0.1357697 -0.36277807 0.2757009 0.13444276 0.2007555 -0.32467446 -0.2737778 0.29371846 0.16283546 0.084717505 -0.09988771 0.20820859 -0.043295767 0.3277551 0.16027707 0.04483787 -0.25405368 0.13233599 -0.09611881 -0.35555753 -0.15791836 0.12334831 0.15556274 -0.12995161 -0.23420376 -0.09557134 -0.007541885 -0.2766257 0.07450385 -0.26756132 -0.07297061 -0.06701008 -0.5507839 -0.25687742 0.48647618 -0.14387524 -0.16500632 0.02827576 0.2082148 0.16259287 0.15465805 0.5776908 -0.42219833 0.18273929 0.026347794 -0.13227522 0.19066814 0.30401456 0.008406379 -0.115183905 -0.33145413 0.48003334 0.04574157 -0.097942315 -0.051792063 -0.05248685 -0.007768195 -0.4346829 -0.5339716 0.076642536 -0.031338524 -0.28044635 -0.18870364 0.24103205 -0.39902622 -0.13590194 0.35854334 0.021946674 0.24435547 0.14639464 0.09225836 0.25739312 -0.18156897 -0.38505596 0.5960127 0.35468587 0.1040996 -0.38999814 0.31182867 0.2832185 -0.3365784 0.039320808 -0.10448921 -0.047390066 0.09039855 -0.001396692 -0.08238934 0.22984631 -0.18130738 -0.3022778 -0.102725446 0.0036667436 0.064445525 0.24540594
1851 0.19292076 0.04370724 0.40108266 -0.12025508 -0.16679431 0.058322385 -0.24110544 -0.03945281 0.49587965 0.37978268 -0.30889106 0.28573546 -0.3712825 -0.022810686 -0.69431996 -0.31846133 0.02931432 -0.0051240176 -0.1282158 0.20546834 0.059051953 -0.07163594 0.3641487 0.20296064 -0.30773437 -0.06903805 0.95135164 -0.28641218 0.1258343 -0.40455735 0.030772941 -0.099573985 -0.5268976 0.19159229 0.08990291 0.089443 0.26229513 -0.1514717 0.09762159 -0.3331099 -0.016995076 0.35496065 0.33394775 -0.09076661 -0.18784018 -0.0025788895 0.39112166 0.5892934 -0.002353679 0.1792465 -0.30504414 0.081674166 0.1527785 -0.12767436 -0.29895502 0.06897513 0.21323864 -0.04965945 -0.19404128 -0.16735123 -0.008348475 -0.59658533 0.21857865 -0.45898056 -0.34924114 -0.10255183 -0.46834397 -0.37095293 0.5580627 -0.14283669 -0.3868949 -0.16234747 0.19936877 0.41990831 0.17475162 0.128613 -0.25372776 0.11111814 0.013133939 0.12656312 0.26979986 0.39563307 0.07511654 -0.09596263 -0.27549577 0.49905616 0.043188006 0.059761003 -0.065978535 -0.118671894 0.0019345671 -0.57478154 -0.40194133 0.13112561 -0.011951147 -0.32686016 -0.19067529 0.09270385 -0.3200249 -0.38112682 0.24216032 -0.31456402 0.28845823 -0.15795836 0.35131064 0.12621222 -0.24590623 -0.25595975 0.48313403 0.055096205 0.35727352 -0.24154511 0.2689546 0.59316295 -0.54591703 0.2585604 -0.14040852 0.24750313 0.0949338 0.25953823 -0.25631943 0.36163473 -0.33109927 -0.45000556 -0.035932157 -0.017397467 -0.15545817 0.31879768
1859 0.32580996 -0.18929385 0.43148243 0.39439654 -0.4389999 -0.0220599 -0.09864302 0.32173067 -0.733704 0.46721795 0.512976 -0.39778772 0.34410265 -0.121019594 -1.4332894 0.4824826 0.2050391 -0.30226794 0.33344516 -0.18670923 -0.13292451 -0.49010086 0.74389684 -0.09629083 -0.08520683 0.15951118 0.57801706 -0.19585358 0.0028407418 0.22883122 -0.06587056 -0.23174933 -0.92567897 1.4185643 0.42632332 -0.45671973 -0.24584201 0.047391806 -0.10880743 -0.07979503 -1.4543182 0.031605564 0.35759428 -1.0066682 -0.47646546 0.17619193 0.2271263 0.36071166 -0.24245937 0.632593 -0.02319332 0.3061212 0.1702873 -0.31523225 -0.2195611 -0.032373462 0.1891089 -0.13278972 -1.7317822 0.19186306 -0.03707895 -0.6510696 -0.33736718 0.1382799 -0.5823796 -0.3994817 -0.39236966 -0.72702456 0.543334 0.56451696 -0.37474585 0.38866186 0.027752986 -0.056944504 0.59665287 -0.0055170567 -0.53143835 -0.17525098 0.48938134 -0.2495502 -0.21357962 1.0108725 0.16501276 -0.5499212 -0.5025917 0.73153114 0.2911235 -0.053533904 -1.2401007 -0.09245361 -0.5980178 -0.90248084 -0.4676236 0.08014738 0.3349996 -0.9327046 -0.5792247 0.62420464 -0.84293026 -0.604817 0.18533207 -0.31301218 1.0073653 0.8786227 0.08097589 -0.45713648 -0.49462533 -0.9257139 0.8237669 0.0048638512 0.060143013 -0.8648495 0.20234714 -0.47592896 -0.35400823 -0.14542678 0.33371723 0.66401213 -0.28712073 0.32673326 -0.076821566 0.81100243 0.04028908 -0.747614 -0.51622486 -0.41435316 0.17728575 -0.2338981
1539 0.281134 -0.16806951 0.67172194 0.388137 -0.16654105 -0.39959046 -0.017040482 -0.034468304 -0.060624484 0.041100226 -0.06590494 0.094814904 -0.2225118 -0.5481225 -0.3631805 -0.19900057 -0.06885537 -0.062486812 0.058065344 0.14260979 0.30698 0.12272953 0.27829263 0.09589231 -0.45282024 -0.13212796 0.8929289 -0.29243368 -0.26462498 -0.14388718 0.007739999 0.00775549 -0.5876932 0.37456307 0.07320566 -0.02266333 0.46622977 0.16302131 0.2820843 -0.14553227 -0.23592295 0.15059027 0.48318794 -0.12334342 -0.1491341 0.21218535 -0.08810991 0.25023866 -0.20936352 0.12249553 -0.08845901 0.16942774 0.00567889 -0.2503582 -0.018436365 -0.09573171 0.19479354 -0.017260084 -0.019592464 -0.08202747 0.045609377 -0.03706729 0.11006542 -0.41572168 -0.14197905 -0.033132453 -0.59044015 -0.45967078 0.37708482 -0.09219241 -0.48152113 0.30916023 0.029785065 0.3262457 -0.20151803 0.45863554 -0.44795406 0.2563879 0.042610824 -0.28409076 0.55442363 0.12891686 0.48180053 -0.031472877 -0.19214594 0.5604289 0.06214116 0.12991002 -0.06225708 -0.017282095 0.11627005 -0.6771918 -0.44655287 -0.042443287 -0.08090293 -0.29670894 -0.33556533 0.42054373 -0.38219994 -0.3001076 0.26772597 -0.185687 0.1020632 0.35511187 0.1732559 0.28720713 -0.25462082 -0.52844673 0.35856247 0.5683269 0.32188693 -0.24830222 0.47496635 0.18084998 -0.43131185 0.17102599 0.15210621 -0.0015350521 0.22966543 -0.018321035 -0.008537681 0.3014704 -0.33697903 -0.38093436 -0.27665827 0.23382491 -0.06955789 0.12423238
820 -0.16934465 -0.6927121 0.2049445 0.7332027 -0.32757664 0.045925386 0.42179725 0.20299765 -0.34752208 -0.018812347 0.21769568 -0.14689335 0.21364136 -0.33341137 -1.2953997 0.31457126 0.22119457 0.18660682 0.019216957 0.24890442 -0.48494786 -0.025363853 0.52682656 -0.2587933 -1.0132217 0.39579475 0.7267957 0.34331465 0.1394332 0.11820086 -0.057764634 -0.5803346 -0.69129866 0.6364167 0.107328065 -0.33689463 -0.11373448 -0.30957067 -0.50917196 -0.16228601 -0.79543114 -0.4277711 0.59671706 -0.6138527 -0.03196973 0.0071675084 -0.029262878 1.138903 -0.41357255 0.5717231 0.020299861 -0.33049473 -0.20210166 -0.31060946 0.39727917 0.56249934 -0.41247094 -0.5539792 -1.1860269 0.059140056 1.0664331 -1.0690796 0.116255194 -0.4525125 -0.42364618 -0.12693185 -0.14326806 -0.28504008 0.46777037 0.2841401 -0.84999436 0.31847587 0.20961736 0.086403936 0.08263532 -0.5226537 -0.6636077 -0.58951247 0.7711435 -0.3708021 0.4857044 0.6245935 0.20108858 -0.6254051 -0.40869492 0.4281063 0.67033 0.04531228 -1.107088 0.11919307 -0.81993437 -0.82999235 -0.7670182 0.5830704 0.1454169 -1.0587479 -0.30010846 0.6661727 -1.215292 0.08333957 0.08429449 0.018531715 1.4961331 1.1981368 0.46934685 -0.20199111 -0.5323956 -0.728513 0.9321214 0.55930346 0.42830768 -0.82885104 0.21411136 -0.1891327 -0.46966287 0.31214395 0.106223404 -0.110935874 -0.018604293 0.79238915 -0.17303222 0.69446385 0.031513095 -0.09748895 0.07035367 -0.06606233 0.48499122 -0.32887653
1740 0.18918943 -0.41655943 0.60399395 0.39053398 -0.38740245 -0.22027424 -0.08986235 0.030698808 -0.29394683 0.49285996 0.2852954 0.17447948 0.15494198 -0.47876078 -1.3585737 0.08671127 -0.0051315646 -0.045015965 0.08053477 0.11053162 -0.11359698 0.20400931 0.63464 -0.09912433 -0.67542535 0.24063179 1.3675874 -0.24227765 0.17836997 -0.25184742 -0.24308996 -0.494066 -1.1720638 1.1195059 0.2234848 -0.38641527 0.13148555 -0.14724654 0.17279409 -0.32308322 -0.9313803 0.21645992 0.5236847 -0.6571074 -0.20045355 0.114981435 0.16081713 0.6949073 -0.031268433 0.40971872 -0.21304227 -0.08190744 0.0074978927 -0.43358937 -0.13183525 0.1378036 0.046322364 -0.2960405 -1.1784949 -0.25538585 0.66398543 -0.670742 0.012394039 -0.44527596 -0.3401347 -0.49770755 -0.72315 -0.82770723 0.82409155 -0.07134381 -0.6333368 0.23069014 0.22004294 0.19387881 0.23951598 0.08617518 -0.7649203 -0.10996497 0.49031064 -0.3294396 0.42363882 0.82616013 0.14779988 -0.5061908 -0.7878896 1.0727069 0.503365 0.05873602 -0.58386093 0.042846717 -0.52282554 -1.0279803 -0.8083434 0.24180996 0.12097935 -1.034797 -0.61400986 0.6923827 -0.7685199 -0.5411311 0.53462374 -0.5419505 1.1002179 1.0240853 0.3014989 0.14888054 -0.71304804 -0.8689172 0.9108697 0.44823134 0.3494768 -0.896513 0.44179544 -0.117938004 -0.7393889 0.09854778 -0.043179486 0.35048863 0.12590359 0.63009334 -0.19402419 0.8368745 -0.28403932 -0.61303294 -0.30302364 -0.1614641 0.24586086 0.20591335
1049 0.14197811 -0.37604037 0.60185647 0.41031644 -0.39671358 -0.22338977 -0.095931165 0.0045819567 -0.30805647 0.44728535 0.2530275 0.15373643 0.20309025 -0.4608603 -1.3789474 0.056445975 -0.018058652 -0.0782015 0.1627169 0.11547494 -0.13286994 0.20233835 0.64386475 -0.14865725 -0.6850485 0.2615258 1.3802092 -0.19468136 0.2084167 -0.22783256 -0.25977367 -0.4463697 -1.1951607 1.1730156 0.22629362 -0.36742085 0.18211657 -0.14801899 0.17006972 -0.3244854 -0.91001976 0.18724519 0.5129861 -0.6619851 -0.22776975 0.075494856 0.2094542 0.71423787 -0.048473008 0.34212512 -0.20244658 -0.07319378 -0.0060336506 -0.3984094 -0.06428205 0.12102364 0.08753422 -0.28696904 -1.1782387 -0.24521549 0.6303011 -0.704186 -0.0032481789 -0.502166 -0.39207044 -0.47951996 -0.73872393 -0.8611372 0.83990914 -0.07828217 -0.6732369 0.24745138 0.20102204 0.21470451 0.21423481 0.05757029 -0.7921226 -0.085375406 0.4775909 -0.33020598 0.47994414 0.81749624 0.1599631 -0.49150145 -0.73748 1.0555327 0.50588256 0.086033314 -0.5928582 0.012628449 -0.5325271 -1.0555285 -0.82480085 0.24563631 0.1854273 -1.0492686 -0.6609864 0.7186487 -0.80194247 -0.59076947 0.55775887 -0.5601965 1.1033648 1.0250831 0.34883028 0.098471425 -0.71695924 -0.9170275 0.90121603 0.4215024 0.3704756 -0.8734306 0.42710114 -0.059875913 -0.7697351 0.09467487 -0.027308332 0.33780444 0.1440595 0.63601965 -0.21518213 0.82390535 -0.2565386 -0.64290744 -0.31630066 -0.18066141 0.19443478 0.16629413
620 0.011234841 -0.0627679 -0.35318 0.23556258 -0.4291172 -0.013253177 -0.08218376 0.251977 -0.91119784 0.24136052 0.6427236 0.35726896 0.62595457 -0.009311117 -1.2818271 0.45877862 -0.18936731 -0.10476061 -0.16045728 -0.046972226 -0.105194435 0.7608216 0.40262577 -0.34771082 -0.4613726 0.58226126 0.69111246 0.050362106 0.28199068 0.13505456 -0.30231547 -0.880103 -1.1104099 0.6914787 -0.047277454 -0.023058377 -0.19320995 -0.39198375 -0.211278 -0.06637006 -0.57337546 0.19374865 0.4441155 -0.8090793 0.019715132 -0.02528488 0.09076985 0.3011059 0.40785706 0.59431785 0.08130099 -0.2803864 0.35344216 -0.36674562 0.028366378 0.24141482 0.003278564 -0.48941654 -1.3031117 -0.5613039 1.1128887 -0.6907073 0.3676724 -0.4850734 0.21125434 -0.80675817 -0.6946009 -0.7214062 0.45951918 -0.026063802 -0.38672876 0.17693393 0.22419135 -0.0704676 0.20569508 -0.36362672 -0.6764076 -0.34042937 0.56933546 -0.61601907 0.47795352 0.88469267 -0.2409896 -0.468022 -0.8522421 1.3161622 0.7343331 -0.045624968 -0.2727595 0.20730494 -0.60127205 -0.77255374 -0.27601692 0.3391136 -0.101675704 -0.82609373 -0.5518839 0.719307 -0.644662 -0.4164168 0.22412193 -0.6983743 0.7594993 1.649222 0.41922128 -0.32336107 -0.95952904 -0.465286 0.660098 0.48525095 0.37558186 -0.90044224 0.42353338 -0.4472472 -0.55245245 0.07223189 -0.36589083 0.67755365 0.024681158 1.0022196 -0.27470124 1.1225076 -0.10895358 -0.22211295 -0.34838653 -0.6667637 0.57952386 0.09525368
616 -0.28231025 -0.2588504 0.55238384 0.22532192 0.21145922 -0.32296243 -0.057154406 -0.085225135 0.28418732 0.20335591 -0.036341153 0.15929273 0.4453908 -0.37756196 -0.24007584 -0.117262214 -0.120492786 0.095436856 0.33440453 -0.110867515 -0.06749843 0.17492944 0.28040296 -0.11745349 -0.35664287 -0.0034782982 1.0624778 -0.38291723 0.26242483 -0.32021803 -0.22695497 -0.074306384 -0.52163786 0.76779705 0.25237104 -0.38682234 0.5280412 0.08038064 0.38074103 -0.1990775 -0.52373946 -0.03050743 -0.087116025 -0.3244723 -0.16780262 0.19767213 0.31282815 0.532806 -0.007822074 -0.48092362 -0.27390692 -0.20012304 -0.28825706 0.022736246 0.07717472 -0.17148381 -0.056855332 -0.0027468633 -0.12998174 -0.0024216156 -0.10995289 -0.21739365 -0.33865392 -0.25590897 -0.5609902 0.009645131 -0.44474873 -0.5288268 0.5700455 -0.26284444 -0.3752142 -0.030138424 0.027047873 0.1849389 0.12122727 -0.011282389 -0.34838334 0.25229126 0.07352309 -0.20213103 0.20549679 0.2341779 0.1483216 -0.13777533 -0.49825454 0.16747628 0.09514946 0.28914756 -0.1386777 -0.07835977 -0.29814672 -0.47095326 -0.4691096 0.231698 0.34581307 -0.45452455 -0.40911558 0.318822 -0.10536775 -0.37367892 0.46110296 -0.22901754 0.40739927 0.08074715 -0.078284174 0.37713453 -0.16027278 -0.48082888 0.4701213 0.16181059 0.19447282 -0.08414379 0.17012116 0.14324865 -0.5992268 -0.022690235 0.11931146 -0.23420371 0.16191812 0.08420271 -0.19985534 0.0406957 -0.08911489 -0.3430394 -0.3772818 0.25563115 -0.12142054 0.17801192
1236 0.06307109 -0.111014225 0.77099776 0.11578489 -0.16232017 -0.20730576 -0.27552226 -0.013228854 0.025199918 -0.020079244 0.23719683 -0.19906968 -0.34972018 -0.119447164 -0.50532913 0.10704746 0.10859041 0.03977239 0.19494958 0.51378196 0.08198946 0.059450567 0.19098873 0.13249148 -0.4253358 0.2724131 1.031878 -0.2754495 -0.15440837 -0.2340097 0.0141469715 0.082404375 -0.38428068 0.15668312 0.037940312 -0.28352413 0.4683362 0.26116338 -0.057008594 -0.13997851 -0.38033402 0.44023013 0.27513304 -0.046599388 -0.22464247 0.007882307 -0.25651172 0.38692042 0.21001652 0.07981797 -0.070933454 0.28748375 0.13613543 -0.2889403 -0.3055721 0.13905653 0.021284334 -0.05680889 -0.28683627 -0.19861506 0.14118628 -0.3307525 -0.070969395 -0.49540222 -0.12143244 -0.025822924 -0.5240719 -0.6068515 0.59106547 -0.30016255 -0.40858224 0.002082351 -0.040400766 0.3701271 -0.042973354 0.5105165 -0.3990073 0.24081631 0.21068473 0.19847439 0.31275046 0.12698899 0.12313308 0.09883781 -0.12745522 0.5327823 -0.12568334 0.117157236 0.17580748 0.18256809 0.3687004 -0.5333596 -0.5679168 0.27405712 -0.14161709 -0.23181127 -0.4350101 0.37904942 -0.2970874 -0.39195374 0.4800087 0.072358966 0.2916084 0.39607108 0.31015563 0.12265563 -0.14201576 -0.39264357 0.5380867 0.20079096 -0.002869343 -0.6488119 0.16203111 0.2521902 -0.64171964 0.32668906 -0.04374969 -0.018559989 0.21100336 0.12053801 0.31110635 0.39427093 -0.034442123 -0.45807222 -0.3374988 -0.20580336 0.0696564 0.1779286
1699 0.26163742 -0.39471242 0.67155796 0.26118207 -0.28484085 -0.3613745 -0.16057213 0.075442314 -0.09356856 0.25796115 -0.042546157 0.12554896 -0.33828163 -0.64549387 -0.60479206 -0.20677896 -0.07586753 -0.03631927 -0.056850366 0.28277317 0.18904097 0.10021514 0.3069196 0.094048195 -0.45952186 -0.240618 0.81754553 -0.24640709 -0.2848509 -0.13643074 -0.14042684 -0.03425043 -0.49825448 0.3401426 0.19923575 -0.11772998 0.15886451 0.20968041 0.3165483 -0.10477215 -0.22850974 0.35081685 0.38865495 -0.014051837 0.030604811 0.12094316 -0.03818775 0.23471606 -0.25835264 0.2940875 -0.13691244 0.20797783 -0.057846967 -0.24961194 -0.051612057 -0.16032584 0.016428813 -0.08784784 -0.12048067 -0.117528915 0.11419386 0.044422265 -0.06120093 -0.24512357 -0.10778364 -0.03322385 -0.54075986 -0.4058607 0.50295436 -0.26977557 -0.2836389 0.13753271 0.026335426 0.37662783 -0.20080654 0.34418112 -0.32472232 0.19612448 0.06447632 -0.065927595 0.39501634 0.11758404 0.30049026 0.002942312 -0.25546032 0.65752494 0.092428096 0.19875245 -0.15661418 0.005060174 0.056550674 -0.49800748 -0.5786255 -0.11001985 -0.07697447 -0.33575925 -0.31907645 0.34103006 -0.36551592 -0.33937645 0.45602256 -0.17964113 0.22757995 0.23428877 0.112327956 0.57471347 -0.16407596 -0.36022505 0.0779595 0.50232154 0.0022913986 -0.32327127 0.39101106 0.2661031 -0.29658347 0.12633917 -0.09640647 0.0025517948 0.21786277 0.028549314 0.13157278 0.2896797 -0.3671979 -0.3702841 -0.25617385 0.23094043 0.051084556 0.3495866
842 -0.021228585 -0.15005621 0.7323225 0.014435059 -0.21058846 -0.18483014 -0.33057627 0.1134638 -0.045007527 -0.056772713 0.3345523 -0.17925595 -0.41067156 -0.06574162 -0.7404691 0.22305596 0.2096721 0.11719828 0.23839816 0.5037682 0.12686111 -0.022023607 0.14816408 0.0627184 -0.46751603 0.35730672 1.0142465 -0.32148495 -0.16962054 -0.19404382 0.082748495 0.085241996 -0.40075397 0.18972082 0.051108465 -0.24082845 0.43539265 0.28683442 -0.08460016 -0.062275972 -0.46095645 0.51389223 0.24660502 -0.10803227 -0.20787138 -0.03986413 -0.33037594 0.4655673 0.2109253 0.17901912 -0.04082753 0.26155993 0.13380498 -0.32293367 -0.3165489 0.19840643 0.01730147 -0.15971936 -0.34882662 -0.18868989 0.1890018 -0.36908233 -0.10876337 -0.49867436 0.00010188678 -0.031207813 -0.42340577 -0.63425803 0.6160946 -0.27349052 -0.46874255 0.117898636 -0.12135765 0.40753075 -0.11261759 0.47686684 -0.4370426 0.17121394 0.23082197 0.16873947 0.35260177 0.10835415 0.076751426 0.14339153 -0.1638847 0.515527 -0.16653927 0.19433942 0.19301341 0.25600874 0.38870454 -0.5586972 -0.5254697 0.31222633 -0.07990991 -0.2786948 -0.52791846 0.42127028 -0.32531434 -0.45203796 0.49711522 0.034400262 0.37046877 0.546812 0.27424467 0.07158471 -0.14006686 -0.4287154 0.47720686 0.21066788 -0.04019783 -0.71593773 0.10996041 0.15036851 -0.6520585 0.401693 -0.024774397 0.07341739 0.25091344 0.26158336 0.3464353 0.4379382 0.052031726 -0.44501415 -0.3517217 -0.17547402 0.08597866 0.20033711
1712 -0.28888324 -0.257082 0.59193695 0.12226185 0.10766782 -0.29922417 -0.021957384 -0.07248465 0.30338442 0.2527782 -0.0204175 0.19359148 0.37516087 -0.35890883 -0.373408 -0.23123981 -0.09767014 0.080235876 0.18436861 -0.13336305 -0.11031445 0.15540512 0.2667045 -0.015801953 -0.38484657 0.046751242 1.1308585 -0.47684538 0.23838225 -0.42448658 -0.2694961 -0.11327613 -0.5008498 0.7698155 0.36453834 -0.53092474 0.57322246 0.06676261 0.4315813 -0.28291595 -0.59725344 0.08820486 -0.11181715 -0.30931282 -0.17816426 0.121690996 0.28511348 0.4907296 -0.017060185 -0.43940952 -0.28269145 -0.1933648 -0.28010228 -0.037050117 -0.057200488 -0.18832189 -0.12272654 -0.08246483 -0.13247848 -0.06687114 -0.08427016 -0.20905167 -0.34156355 -0.19636689 -0.506358 -0.04916468 -0.4163694 -0.5378302 0.5709499 -0.35227272 -0.34252617 -0.0012950655 0.022936607 0.13910411 0.15446177 0.0065399017 -0.34823954 0.26641354 0.06634227 -0.11246589 0.15863727 0.28884035 0.11178042 -0.2058377 -0.47943974 0.21180595 0.102820076 0.3145674 -0.13624303 -0.014321794 -0.32363468 -0.46550745 -0.524277 0.20466685 0.34518492 -0.47378263 -0.49561504 0.28297013 -0.1152443 -0.35128847 0.56815475 -0.26591778 0.43633196 -0.0046541034 -0.05498785 0.50731635 -0.20570582 -0.5331602 0.4269936 0.15539277 0.10962822 -0.10939637 0.17270067 0.07847698 -0.63884646 -0.089003086 0.027994968 -0.17113666 0.19050254 0.10872384 -0.17341349 0.013538226 -0.119119346 -0.35249794 -0.30443695 0.27309772 -0.10474535 0.21902122
428 0.19231905 -0.40779975 0.646056 0.33135897 -0.24201101 -0.4174257 -0.08096844 0.093736306 -0.28818548 0.15268251 0.054509845 0.1813502 -0.29139844 -0.5628062 -0.61044246 -0.078808755 -0.1371205 -0.11331822 0.114011325 0.28552324 0.31305882 0.0029901627 0.25368476 0.010191372 -0.5057484 -0.22999936 0.92172766 -0.25286108 -0.25144026 0.034505874 -0.069198176 0.02900216 -0.51630276 0.3260178 0.18476297 -0.1407481 0.35581923 0.25634643 0.1943006 -0.009314608 -0.26587585 0.29276806 0.46220157 -0.07240302 -0.0778176 0.073824964 -0.098632 0.19089626 -0.42645448 0.24599394 -0.12909146 0.33723694 0.026533931 -0.2260874 -0.038686596 -0.21387051 -0.005377417 0.044984117 -0.029260505 -0.13197361 0.10723016 0.083116144 -0.08835433 -0.25078338 -0.17586279 -0.021971548 -0.51278496 -0.5337843 0.3813727 -0.2649341 -0.41007695 0.20228978 -0.067706905 0.45847708 -0.29683065 0.35320795 -0.3623907 0.262386 0.1390567 -0.07565649 0.3916784 0.045276485 0.48805037 0.09666893 -0.18356581 0.7405408 0.08382321 0.2286124 -0.08614656 0.036821004 0.14142807 -0.6062181 -0.5788886 -0.079539925 -0.064455494 -0.35586235 -0.45870605 0.40368295 -0.41491023 -0.4251348 0.51939845 -0.21029148 0.32214183 0.36770064 0.13856073 0.5349818 -0.15176253 -0.5317163 0.10470981 0.5228564 0.00729774 -0.4067554 0.42483765 0.16530085 -0.28737518 0.11982122 -0.10731129 -0.04455179 0.2956815 0.065501094 0.21593603 0.32985464 -0.34442633 -0.3061676 -0.35680816 0.22254819 -0.056710474 0.19988252
43 -0.1333874 -0.21037856 0.24919851 -0.12248423 -0.30892524 0.024453808 -0.23969607 0.17164364 0.52877086 0.5495136 -0.17470649 0.3662675 -0.49032092 -0.1077762 -0.7645375 0.032376442 0.06483523 0.18366228 -0.3769746 -0.008580835 0.17142756 -0.04218685 0.37747303 0.16954781 -0.32258707 -0.092194416 0.57968754 -0.5412932 0.11661661 -0.27765083 0.14012694 -0.4072798 -0.6843727 0.39001474 -0.03824659 0.33225474 0.04492971 -0.11263627 -0.03556447 -0.39507222 -0.03131757 0.32768223 0.21531972 -0.29952896 -0.43533242 0.013310718 0.4638941 0.7450634 0.14125162 0.26035398 -0.09484117 -0.011604988 0.22807153 -0.1492224 -0.15215436 -0.004239522 -0.013232757 -0.29176238 -0.32049945 -0.022380248 -0.0006604561 -0.65549177 0.4089217 -0.55031914 -0.32259324 0.049070753 -0.38109457 -0.30057254 0.62978864 0.14316781 -0.4243989 -0.0026342594 0.12505928 0.4950573 0.14483464 -0.15034261 -0.39236614 -0.03496793 0.15863357 -0.27066797 0.3383805 0.57410777 0.13443558 -0.16871893 -0.32256827 0.48993927 -0.06064984 0.23586182 -0.34976596 -0.23904769 -0.23879424 -0.7181566 -0.33466682 -0.008191789 -0.106950976 -0.32804722 -0.16119057 0.059858497 -0.38065514 -0.3014476 0.28993586 -0.21518926 0.34622142 0.25023174 0.24663639 -0.07906809 -0.23753309 -0.26971376 0.19233559 0.3650987 0.28090337 -0.32824364 0.28576553 0.48279518 -0.60712063 0.22776745 -0.0014869457 0.040918846 0.10581701 0.38714537 -0.18427944 0.33270916 -0.3133884 -0.36232397 -0.052837152 0.2972673 0.06107274 0.29328302
1788 0.0024559987 -0.21265207 0.37128493 0.024846772 -0.27335256 -0.1474046 0.027651519 -0.1306326 0.34111813 0.4108635 -0.09969331 0.19643098 -0.41504198 -0.30892155 -0.58101463 -0.07187355 -0.049253576 0.27203354 -0.17135294 0.20159252 0.19215408 0.018598014 0.3995968 0.17119978 -0.45071352 -0.016521463 0.70491236 -0.796896 -0.071422525 -0.38098302 0.163933 -0.22137238 -0.6384258 0.68546605 0.1731946 0.008157921 0.1290421 -0.21484308 0.15877837 -0.45690098 -0.059602927 0.3334518 0.20973475 -0.111812934 -0.30215943 -0.011085389 0.086870104 0.7562849 0.12311521 0.24681212 0.106786065 0.11209601 -0.04622636 -0.2822259 -0.22373798 -0.03419858 0.096337244 -0.07513478 -0.09689118 -0.046478793 0.13193668 -0.29145315 0.33512583 -0.31308213 -0.1967175 -0.0036667725 -0.29371247 -0.43705967 0.43647417 0.036562838 -0.46661493 0.1366393 -0.016979247 0.38725406 -0.05911958 0.29475504 -0.503522 -0.021315614 0.048964776 -0.3600464 0.28859735 0.35338753 0.2507688 -0.06255412 -0.2518327 0.28145036 -0.08642803 0.3253853 -0.16926777 -0.08168085 -0.109506756 -0.5474329 -0.410241 -0.20186427 0.021349113 -0.36482695 -0.185011 0.1198828 -0.15025775 -0.2109589 0.49597394 -0.25910988 0.3798337 0.45319286 0.08302188 0.11058564 -0.19510409 -0.2900823 0.13759659 0.5738733 0.15605618 -0.17589194 0.25584948 0.25189498 -0.52422494 0.22913781 0.2880021 -0.06432502 0.11882656 0.24832901 -0.060477134 0.0864968 -0.2535678 -0.3821913 -0.079325214 0.38963163 0.01659648 0.26696855
1433 0.0017563346 -0.36971268 0.6383924 -0.07242665 -0.18733586 -0.0221347 -0.27805182 -0.24033391 0.20386583 0.6649378 -0.32482478 0.21061298 -0.06768186 -0.24056935 -0.79940563 -0.27553153 0.047833852 0.10095917 0.031881735 -0.14316878 0.16853586 -0.10240175 0.3528508 0.07396657 -0.22293386 -0.18251207 0.8778932 -0.45941532 0.47555363 -0.107264556 -0.15133764 -0.23303472 -0.45848098 0.30335012 0.09807711 0.028301552 0.17946672 -0.16099814 0.13774364 -0.3783345 -0.049067743 0.06562489 0.305752 -0.24236155 -0.04221249 0.37528244 0.6586715 0.41226828 -0.3691286 0.09896707 -0.19664256 0.3472251 -0.007866163 -0.031044826 -0.24537587 -0.30599058 0.23648213 0.13643986 -0.09702153 -0.13711192 -0.018968064 -0.27225667 -0.06496647 -0.2553067 -0.41396397 -0.226975 -0.5424732 -0.6268898 0.7130332 -0.23532249 -0.25618774 -0.048154097 0.23055664 0.44676274 0.16543736 0.037991222 -0.1828198 0.1331404 0.15699284 -0.050760653 0.2747007 0.46466878 0.14465025 0.0010408012 -0.63866365 0.572175 0.09841125 0.0041341954 0.052822642 -0.23646523 -0.27736518 -0.5485082 -0.35376155 0.2678601 -0.10817029 -0.5822198 -0.16895218 0.004654715 -0.2707494 -0.48469767 0.35008886 -0.54822177 0.43798462 -0.16166133 0.055736642 0.0768797 -0.09770791 -0.48667222 0.47792873 -0.014371096 0.45362672 -0.31609616 0.35267022 0.27163213 -0.837142 0.3015041 -0.10544075 0.019736229 0.21441096 0.43881142 -0.33420402 0.6670611 -0.4748741 -0.52797747 -0.089723796 0.2467221 -0.29617465 0.03647654
846 0.1876022 -0.14503644 0.4818613 -0.012652682 -0.22389509 -0.23734295 -0.33711243 -0.50481546 0.34919915 0.46504366 0.0051294565 -0.12859364 -0.4376556 -0.50289917 -0.72137105 -0.17282721 0.100082144 0.15933043 0.63943946 0.33867377 -0.36288178 -0.014518574 0.25051844 -0.09780741 -0.44735542 0.19131087 1.0811086 -0.17578389 0.272822 -0.4849654 0.0071935314 -0.018847663 -0.7539573 1.2020307 -0.124243304 -0.31589466 0.044396292 -0.3126728 0.40667182 -0.51312 -0.25319764 0.14836854 0.14403574 -0.0052891187 0.13624483 0.22922835 0.0017257277 0.6480787 0.023253614 0.21765149 -0.0373512 0.14796035 -0.40525475 -0.28114206 0.008172432 0.11117011 0.42879635 -0.012059772 -0.7186338 0.006212825 0.46030584 -0.021666782 0.034428176 -0.08480611 -0.24006419 -0.19097123 -0.33824468 -0.3762913 0.48191878 0.10742532 -0.38255057 -0.005008546 0.1511329 0.13082902 -0.06826456 0.55833584 -0.40597728 -0.113803126 0.042768445 -0.06767453 0.21942373 0.35429224 -0.07176968 -0.12584557 -0.34438595 0.30273485 0.22254696 0.3605927 0.07487868 -0.31264123 -0.18136063 -0.2599391 -0.7684653 -0.30381146 0.035766095 -0.63568985 -0.16980523 0.14266664 0.19327435 -0.29700425 0.43174598 -0.44589585 0.8006096 0.5067564 0.0069243843 0.31529096 -0.18605451 -0.3670898 0.3288382 0.4123728 0.0010322704 -0.3186067 -0.10438126 0.19051273 -0.20722659 0.21580818 0.066040054 -0.076462716 -0.05417809 -0.05284557 -0.26473996 0.0706303 -0.4427078 -0.6125684 0.034317654 0.1769952 -0.0062066684 0.31348997
1656 0.024736937 -0.16686365 0.5704336 -0.086377166 -0.41579714 -0.09796393 0.0017557613 -0.1880299 0.3117164 0.32548845 -0.1067279 0.3530484 -0.39046827 -0.29531887 -0.39629146 0.0016497418 -0.15873723 0.15363021 -0.07888061 -0.017418483 0.091842294 -0.04619755 0.3653046 0.28254783 -0.3858731 -0.0900165 1.1284157 -0.69861704 0.029138487 -0.505179 0.12756677 -0.16818404 -0.6302817 0.6248902 -0.03074626 -0.0656185 0.4670754 -0.027320905 0.18919301 -0.3822714 -0.25753555 0.2663414 0.13282317 -0.16962667 -0.44350782 0.045570638 0.058475792 0.50601244 0.1424239 0.079196535 -0.27048886 -0.0073646507 0.118970215 -0.30673078 -0.21926875 0.1861304 0.21554781 -0.2203236 -0.06527111 0.0131765185 0.07626252 -0.31649995 0.43330553 -0.15807328 -0.044967964 -0.12505397 -0.17417286 -0.25193226 0.25579274 0.027853115 -0.3927451 0.349111 0.021127207 0.33439657 0.15365875 0.35485226 -0.4698568 0.06129257 -0.1621108 -0.24811108 0.23277532 0.22011265 0.2597757 -0.25786868 -0.30833194 0.315978 0.013623024 0.111858 -0.069478 -0.047163103 -0.09255385 -0.45600647 -0.40776044 -0.045523148 0.15128529 -0.10657575 -0.23136188 -0.04325563 -0.28109163 -0.18720892 0.5245715 -0.23062162 0.47290796 0.16488491 0.0061482205 0.17985585 -0.29485106 -0.3787204 0.46682224 0.37006226 0.1620375 -0.29074964 0.29394442 0.14440048 -0.43736595 0.10109014 0.11049439 -0.008944453 0.19040428 0.2623834 -0.16221114 -0.014198533 -0.16619618 -0.15110593 -0.14161949 0.26369452 -0.04994749 0.13389236
