1899 128
8 -0.13749968 0.12969615 -0.33852223 0.1374405 -0.3132342 0.09848524 -0.021066867 0.004277047 0.22926746 -0.16017419 -0.10280153 -0.21126747 -0.1317258 0.031071708 0.042441044 0.10041489 -0.3083721 -0.13827409 -0.1749225 -0.16229102 -0.13111305 0.21081728 0.21987881 0.18859929 -0.027143424 0.14499512 -0.4086275 0.13546403 0.26445457 0.072321065 -0.17492323 -0.15351754 -0.26203403 0.40703306 0.10269966 -0.25428692 -0.23409255 0.31396264 0.057162717 0.1553967 -0.039416548 0.1373053 -0.11444659 -0.16172245 0.1028334 0.1507557 0.050759688 0.3686608 -0.0511585 0.40523872 0.3374428 0.042866245 0.21783215 -0.53016853 -0.4453445 -0.026320808 -0.14852767 0.16958407 -0.18950123 -0.035003252 0.12971903 -0.007813651 -0.079675466 -0.34422782 -0.052434962 0.0020172165 -0.21271238 0.060466215 0.3860859 0.14110139 0.2587205 -0.42193353 0.7833217 -0.14210314 0.17972769 -0.15866925 -0.22417584 -0.29349697 0.7272583 -0.043468945 -0.36724463 0.07981032 -0.082339935 -0.0063299523 -0.024339765 0.078410596 0.03583623 -0.3249111 0.26811552 -0.093018316 -0.15636553 -0.19766219 0.051102564 -0.19407514 0.22939204 -0.17531691 -0.3113481 0.13641727 -0.33451343 0.23459502 0.12808114 -0.38309982 0.19143423 -0.00097231194 0.15652962 -0.03983374 0.015591429 -0.14348294 0.16178836 -0.20657194 -0.08733288 -0.2730453 0.13683692 0.09039044 -0.2150134 -0.21324821 -0.024329312 0.023005215 0.20825961 -0.1169917 -0.31879675 0.43826073 -0.27922672 -0.044581316 -0.4383247 0.011958733 -0.008870309 -0.25715622
40 0.10205902 0.2844374 -0.25268692 0.2529008 0.05524958 -0.13254865 0.15296301 0.058420293 0.09544471 -0.16569585 -0.07958245 -0.12078792 -0.17321047 0.054970972 -0.015985714 0.34057638 -0.3834279 -0.10764076 -0.044837914 -0.19449434 -0.020731032 0.26645076 0.34619945 -0.06888601 0.12511176 -0.028985638 -0.62897944 -0.08385736 0.1127816 0.09735581 -0.005082573 0.013995504 -0.2512834 0.38997722 0.13548806 -0.07201938 -0.41689697 0.31279406 -0.036418244 0.0920743 -0.12853721 0.21196994 -0.071062684 -0.28009197 0.07324491 0.03374035 0.044165533 0.26633704 -0.050423045 0.21432559 0.2570786 0.35089412 0.17819606 -0.3458574 -0.18231522 0.027965011 -0.107173905 0.20188214 -0.1163629 -0.17439376 0.27470917 -0.16516177 -0.13458617 -0.34203088 -0.15951309 -0.029223837 -0.13654916 -0.12618008 0.2889323 0.10665614 0.08352572 -0.35749963 0.7285226 0.103554405 0.11724615 -0.18670185 -0.06864973 -0.33449057 0.6582158 -0.20495619 -0.46962255 0.32726896 0.10806594 -0.26178047 0.3385992 0.16212432 -0.19144997 -0.08133583 0.22527134 -0.03366769 0.054600514 0.0679151 0.24585238 -0.20982811 0.31091025 -0.16715965 -0.50081027 0.072374135 -0.42521086 0.18798757 0.18027762 -0.47303924 0.14612558 0.019335015 0.4169815 -0.27416533 0.012513355 -0.26887262 0.34381762 -0.30288076 -0.046430666 0.013239626 0.012670072 0.018107018 -0.461534 -0.39744535 -0.0006348773 -0.017234059 0.23827396 -0.058304425 -0.05087754 0.4331913 0.020004833 -0.038976014 -0.79399264 0.31666324 0.024480397 -0.1589769
102 0.0075318334 -0.061911114 -0.3437174 0.023240617 -0.036788177 0.033234287 -0.07271822 -0.04741212 0.0540924 -0.2626436 0.088854626 0.11779909 -0.04455455 -0.050718687 -0.1594346 0.009172567 -0.22033419 -0.23019144 -0.039006118 -0.10243051 -0.17945482 -0.07483956 0.1547197 0.14312111 0.08866804 0.055205237 -0.3714813 -0.010578572 0.14765865 0.060217068 0.34431735 -0.14953816 -0.43980813 0.32167587 0.1255078 -0.22134057 -0.21381134 0.058086626 0.18222621 0.23375131 -0.10705555 0.19837312 -0.006495573 -0.23132242 -0.0034871104 -0.014517129 0.13117483 0.4496116 -0.041252602 0.26717117 0.29649806 0.3611756 0.07005237 -0.37199447 -0.40454623 0.052107442 -0.26415777 0.18261132 -0.10801359 -0.30853683 0.06021002 -0.02312813 -0.16403095 -0.17518404 -0.023411382 -0.08463366 -0.119503416 -0.087738164 0.22160047 0.0054730927 0.14320773 -0.4611186 0.70721936 -0.11802086 0.07058781 -0.16270679 -0.20457445 -0.40255827 0.5111783 -0.13248564 -0.36055318 0.2651846 -0.114752516 -0.104945734 -0.0051665804 0.11603927 0.03159428 -0.21545205 0.13723706 0.2730869 -0.08626358 -0.2575139 0.0069563664 -0.45916072 0.4144504 -0.13314211 -0.42634374 0.13398233 -0.30591485 0.2724087 0.1387228 -0.5717293 0.26840994 0.27028584 0.33321947 -0.31562728 -0.047648035 -0.26383877 0.10308837 -0.18484753 0.018868482 -0.355169 0.14136027 0.163613 -0.3807556 -0.42163602 -0.06844007 -0.012269416 0.5503469 -0.11756229 -0.14192012 0.50089616 -0.18718232 -0.07730864 -0.607147 0.22131185 -0.08520579 -0.017474446
31 0.1483764 0.2244465 -0.19993047 0.0304657 -0.027829304 -0.11715048 -0.19566096 -0.2743886 0.33101866 -0.1620349 -0.23828875 -0.024047889 -0.17654517 0.007894616 0.0036241075 0.10344145 -0.32076627 -0.23557417 0.0013858054 -0.17940041 0.05666833 0.25409424 0.2736519 -0.07489244 0.12943572 0.058460258 -0.22573273 0.1283096 0.2983931 0.22889963 0.09871151 0.06714639 -0.44090602 0.29336154 -0.14939691 -0.18707687 -0.061781455 0.034689803 0.03402127 0.2376622 0.0016698104 0.032293815 -0.20690657 -0.29983056 0.1023986 -0.11442575 0.1792427 0.45269552 0.26096457 0.28256336 0.10669808 0.32004222 0.20980823 -0.58090097 -0.20005552 -0.33862376 -0.2613792 0.27984846 -0.3680351 -0.51513463 0.011629326 0.033531167 0.09882617 -0.2350537 -0.22292496 0.082119994 -0.12091418 0.15795475 0.48263076 0.19386277 0.21531312 -0.32245383 0.62191033 -0.14048792 0.20695946 0.12424758 -0.3175049 -0.34544796 0.51377314 -0.26872516 -0.4117044 0.17459646 -0.08880255 -0.1284354 0.13114548 0.13823251 0.06393325 -0.10112228 0.38175225 0.059719346 -0.23368905 -0.10748043 0.038377285 -0.22025825 0.36109465 -0.20667318 -0.36513203 0.07037838 -0.40201256 0.07970163 0.32329264 -0.3055263 0.30888772 0.0011278391 0.377132 -0.07994595 -0.13586786 0.21061237 0.05331583 -0.20908232 0.020011855 -0.4303989 0.1286617 0.15445662 -0.48904294 -0.51779187 -0.08762286 -0.17874539 0.3209123 -0.055508703 0.023854272 0.48336846 -0.14289749 0.061977316 -0.6041746 -0.050055224 -0.12452304 -0.094765574
262 -0.03135115 0.03070237 -0.29770386 -0.008170687 -0.23837715 -0.058814995 -0.1259127 -0.20617759 0.14064363 -0.29929742 0.10949185 0.13467962 -0.06084616 -0.16930582 -0.07498406 0.10136738 -0.43173185 -0.24346139 -0.12584066 -0.28830025 -0.10159549 0.053699415 0.17289434 0.30052188 -0.13973358 -0.018208912 -0.57100147 0.2918086 0.239403 0.31933624 -0.21367876 -0.048562396 -0.4964221 0.32962564 0.114511415 -0.078312024 -0.12009564 0.09694602 0.21311726 -0.1342222 -0.18940642 -0.18091753 -0.223206 0.005129516 0.24164242 -0.010238486 0.31594864 0.2028809 0.22427136 0.69188905 0.27158988 0.010888768 0.17776985 -0.39746442 -0.2143767 0.040220845 -0.0447617 0.21305858 0.012315586 0.051626552 0.045877222 -0.010573951 0.008722986 -0.32583004 -0.09129195 -0.18276446 -0.20339939 0.062773496 0.24814424 0.35252377 0.3860074 -0.40232912 0.6825383 -0.083703 0.2488653 -0.027581267 -0.07810624 -0.25410616 0.59549004 -0.12949717 -0.65121233 0.2450014 -0.39298984 0.05257237 -0.07503882 0.053302668 -0.044126768 -0.11386053 0.3091655 0.113220505 0.10856791 -0.165533 -0.07239234 -0.149632 0.36210722 -0.06461304 -0.5009845 0.053301323 -0.3289974 0.16312481 -0.0690861 -0.4682119 0.20748766 0.03930527 0.1777747 -0.26753306 0.10684453 -0.25228608 0.28427488 -0.08674785 -0.18800263 -0.095159456 -0.023571989 0.13865542 -0.18196557 -0.2577253 0.10995638 0.0054514613 0.54044014 -0.2408858 -0.1515104 0.56497324 -0.10362376 -0.12866303 -0.20976014 -0.13951772 -0.18471722 -0.13697796
280 -0.053211458 0.23507203 -0.4589272 -0.15421484 0.040138718 0.06625438 -0.33259735 -0.097852394 -0.12015998 -0.21572892 0.08608166 -0.13064028 0.09986213 -0.056677002 -0.030467326 -0.1131054 -0.4676312 -0.2960241 -0.2677079 -0.11100654 -0.15672041 -0.053983334 0.09803015 0.01990269 0.07811342 -0.00022342487 -0.34619814 0.12490556 0.34413442 0.29763076 -0.27623028 0.07615948 -0.12794851 0.31984016 0.22460526 -0.028525537 -0.18594033 -0.18123777 0.34319487 0.111504056 -0.19672363 -0.3276134 -0.28534576 -0.06621421 0.32074577 -0.13995047 0.46085465 0.30802855 0.18269078 0.51289225 0.2568745 -0.042800464 0.10986268 -0.6122683 -0.33039463 -0.16057456 0.07010393 0.14457208 -0.1376296 -0.0009810353 0.040365398 -0.07170659 0.15733895 -0.13570063 -0.038890213 -0.02792252 -0.31871974 0.04934798 0.19259009 0.1744834 0.4018848 -0.5561047 0.71117795 -0.26230344 0.30324253 -0.061460786 -0.22206703 -0.5467561 0.5967009 0.008373459 -0.5912322 0.3331467 -0.5378161 -0.0888759 0.036687594 0.16998136 -0.0748103 -0.2881374 0.39197963 -0.043733086 0.20514771 -0.09719291 -0.24689402 -0.08040131 0.21837921 -0.15344527 -0.67712915 -0.103122525 -0.20085491 0.090520434 0.034794405 -0.34896094 0.0042366497 -0.19058232 0.49511954 -0.17616287 -0.03587482 -0.2867512 -0.09311196 -0.36478654 -0.13779649 -0.01965205 0.010690929 0.030771235 -0.3426866 -0.3570953 -0.056742523 -0.075656086 0.41165063 -0.28454232 -0.28855845 0.32747018 -0.07088261 -0.19445264 -0.33427992 -0.18863831 -0.13255984 -0.23154312
320 -0.047679882 0.07275214 -0.4459424 0.12985364 -0.037088756 0.19890836 -0.057308294 -0.117989786 -0.027024852 -0.44318607 -0.009874056 0.21469751 -0.013102511 0.16022792 0.20514347 0.19808276 -0.2932524 -0.13479908 -0.16690174 -0.07286935 0.038120575 -0.09149041 -0.06493848 -0.016071444 -0.21004498 0.021556111 -0.5318073 0.21377972 -0.075124376 0.22751994 -0.044412613 -0.22250225 -0.2363277 0.25665164 0.15008003 -0.183378 -0.09158448 0.037398987 0.053787168 0.02688447 -0.14893328 -0.11758666 -0.12831478 -0.03349711 -0.016962608 0.09887405 -0.033688992 0.44078252 0.17314565 0.31767264 0.19226973 -0.021476716 0.015617723 -0.5160812 -0.12215484 -0.32987398 -0.3191412 0.26162145 0.13090287 -0.22901687 0.435869 -0.15035084 -0.03099258 -0.20619911 -0.11205579 0.12241151 -0.22115934 0.174752 0.31746328 0.20932041 0.25869185 -0.52628595 0.71100867 -0.35977665 0.286268 -0.16433476 -0.12714767 -0.42338067 0.27833846 -0.20540991 -0.3030442 0.15190724 -0.19901407 -0.097297125 0.091774575 -0.054399893 0.28405327 -0.14763492 0.22481626 0.16909815 0.107559964 -0.18430512 -0.023682075 -0.19783871 0.05028859 -0.09242766 -0.58995587 0.054642614 -0.34608305 0.28053743 0.14679952 -0.76221 0.2878752 0.13826646 0.36263198 -0.3770946 0.08760173 -0.11818061 0.08751836 0.013874704 -0.16634166 -0.24650669 0.29387042 0.17990789 -0.08254345 -0.22076969 0.03707247 -0.040121496 0.5732236 -0.13193205 -0.1939715 0.48512715 0.0382936 0.015765093 -0.5472293 0.06195504 -0.09079862 -0.08333943
211 -0.115652174 0.17717628 -0.12574598 0.13903677 -0.01573509 0.17998825 -0.19929041 -0.20759794 0.05114035 -0.31316993 -0.14190692 0.13005671 0.09322258 0.03890091 0.047669936 0.18239479 -0.21592516 -0.08715129 -0.18430883 0.014290503 -0.013024227 -0.18183498 -0.2545164 0.13368133 0.19851437 -0.121965155 -0.1693205 0.5200399 -0.061276354 0.29331622 -0.07117104 -0.13902552 -0.34421054 0.5724349 -0.18961158 -0.25026992 -0.21206568 0.024767287 0.1566572 -0.14558807 -0.2136439 -0.24326596 -0.21248731 -0.07960948 0.05516576 0.07835056 0.012395162 0.27941367 -0.06803207 0.3871618 0.15546235 0.2677367 0.30803522 -0.6221492 -0.3825432 -0.33198497 -0.1505625 0.26680812 -0.019641472 -0.35925153 -0.036544695 -0.056328006 0.18698715 -0.32060695 0.12687923 -0.04523691 -0.18911077 0.14836845 0.29993635 0.1252978 0.6019055 -0.35559416 0.70188516 -0.0475008 0.38128084 -0.38985226 -0.070754156 -0.4923226 0.3308763 -0.18379237 -0.391003 0.0076225647 -0.3853954 -0.17246823 0.004294411 0.03811303 0.07297447 -0.19203049 0.20666301 -0.014794569 0.07542754 -0.19197276 0.005939825 -0.17568973 0.13895796 0.218065 -0.7292719 -0.04178151 -0.12583359 0.129713 0.044060268 -0.35029832 0.314724 0.3299396 0.17413265 -0.4531339 -0.09426124 -0.033989143 0.03492635 -0.16386823 -0.267343 -0.034818117 0.2936505 0.16393882 -0.050583154 -0.065660946 0.032642562 -0.24409421 0.026461719 -0.2609879 0.014796642 0.6378255 -0.3554565 -0.12971367 -0.31023338 0.12735121 -0.15379842 -0.02011397
5 -0.06882107 0.37380198 -0.4585935 -0.08932738 -0.1818652 0.14532344 -0.23530433 -0.1577843 0.2168139 -0.3369243 -0.14745499 0.21336596 -0.090105936 0.042669576 -0.14087152 0.17758682 -0.0755903 -0.17188402 -0.052901175 -0.07702661 0.1830719 -0.19047613 -0.1003121 0.108104676 0.18951167 0.034763757 -0.23078416 0.40899706 0.13878714 0.24831375 -0.1526047 0.095387556 -0.21843034 0.5438458 -0.2533037 -0.40266362 -0.14255862 -0.054512214 0.18947582 -0.067567915 -0.15381375 0.0076795015 -0.10738359 -0.27701387 0.14217292 -0.18122444 0.054487225 0.41724855 0.28953248 0.43300784 0.22326931 0.15361895 0.14314707 -0.67658 -0.26041976 -0.310235 0.10278306 0.03976773 -0.029648606 -0.3224796 0.09475732 -0.057323217 0.19310701 -0.23694502 -0.1251583 -0.14357375 -0.15198682 0.10632633 0.35240296 0.27620998 0.3018932 -0.49783665 0.80214 -0.0676476 0.1392196 -0.25202948 -0.08692706 -0.49873713 0.38511238 -0.22153135 -0.13939407 0.20296544 -0.39712998 0.08024623 -0.16233297 0.27104893 0.18627888 -0.2043157 0.27114785 0.1435658 0.19622937 -0.33683434 -0.10387233 -0.48013142 0.31709126 0.07542763 -0.7283691 -0.057242602 -0.15271474 0.09731204 -0.09101488 -0.2619771 0.4339049 0.29119366 0.0812248 -0.3475208 -0.18897194 -0.07391122 -0.029944362 -0.15594733 -0.222778 -0.18165071 0.058344986 0.12740801 -0.46509293 -0.23163052 0.08938529 -0.23210917 0.054614637 -0.10545712 0.13065563 0.59785295 -0.14645512 -0.10346689 -0.16364247 0.20706521 -0.23042676 -0.0820868
62 0.07808757 0.3391569 -0.25444338 0.265147 0.019895464 0.04010407 -0.5073933 -0.34197077 0.10397002 -0.36352307 -0.042727023 -0.15944971 -0.06801692 0.14947392 -0.09492895 0.16368116 -0.095389284 -0.3777314 0.05690634 -0.17110704 -0.020193642 0.24430445 0.40989423 0.23597418 0.25553805 -0.16549881 -0.54291457 0.18387027 0.16351925 -0.01929467 -0.07107441 -0.18494543 -0.15875262 0.25412023 0.11689571 -0.21136142 -0.2884572 0.20299602 0.16439903 0.22065315 -0.06898583 -0.026040012 -0.3184451 -0.15019438 -0.017080056 -0.29222453 -0.038876716 0.34009296 0.001858673 0.41855416 0.25919703 0.24326135 0.1520188 -0.466405 -0.28950757 -0.30147818 -0.066319525 0.14953081 -0.28097564 -0.055815432 0.044746894 0.11705225 -0.09893036 -0.29186872 -0.12359529 -0.06855809 -0.068595126 -0.0043212497 0.37162003 0.1602012 0.10838251 -0.35247386 0.71703154 -0.02014896 0.014746671 -0.22364572 -0.27476472 -0.4831772 0.4994304 -0.047641926 -0.27448663 0.44077072 0.051558055 -0.107110895 0.22417507 0.20892942 -0.13966332 -0.16613108 0.21732508 0.16604617 0.22510554 0.039361067 -0.14206704 -0.11150521 0.32480004 -0.1691605 -0.52060366 -0.029358014 -0.2191584 0.19141816 0.026772914 -0.27376273 0.2507198 0.15062895 0.6638653 -0.34642377 -0.12904592 -0.08901107 0.108386114 -0.1527226 -0.03726707 -0.2807365 -0.08543663 0.01696425 -0.33322105 -0.42115292 -0.2532535 -0.14705472 0.09563991 -0.025119254 -0.11413149 0.26812622 -0.026106436 0.05706849 -0.6061255 -0.057359844 0.10353973 -0.17226762
47 0.085115716 0.26471943 -0.21206835 0.12925461 0.080736876 0.065973416 -0.028916325 -0.044663835 0.066469006 -0.24974862 0.030994825 -0.07385527 -0.14789844 0.2659046 -0.07101376 0.043989968 -0.3337878 -0.21312359 -0.09697777 -0.07176562 -0.12884228 0.20227975 0.22829907 -0.09964654 0.1896424 0.16009612 -0.14058134 0.23651014 0.14024894 0.23859954 -0.049604714 -0.015345528 -0.42213872 0.44740066 -0.050421666 -0.08575797 -0.2772369 -0.047294073 0.2636688 0.08349286 -0.09915352 0.026609546 -0.15359451 -0.1754564 0.1917567 0.01063667 0.19044295 0.46643 0.17966814 0.18482208 0.2968091 0.30207312 0.11115453 -0.70094895 -0.3402352 -0.07271198 -0.20901495 0.18563756 -0.19245519 -0.36718777 0.19872569 -0.08365227 0.052006178 -0.24805854 0.0028588132 -0.00902159 -0.2386778 0.22135773 0.27948663 0.0013675543 0.36498678 -0.45901704 0.7315783 -0.14022417 0.2208025 -0.030704618 -0.12764062 -0.37651697 0.6416027 0.01322461 -0.32244742 0.16419594 -0.27120522 0.021077527 -0.07392119 0.08629536 0.33868992 -0.25461638 0.47591132 -0.12124233 -0.15950148 -0.23715238 -0.026943656 -0.15326126 0.16887015 0.05065474 -0.50962114 -0.23465665 -0.23590824 0.06393675 0.16522413 -0.28740168 0.31536832 0.21981813 -0.015029932 -0.1385546 -0.030131586 0.02325741 0.045472436 -0.326529 -0.012840225 -0.17078052 -0.05913301 0.13788645 -0.33855304 -0.45366457 -0.15226626 -0.15125735 0.3331143 -0.30446935 -0.22039632 0.4299188 -0.082309484 -0.114330254 -0.34123665 0.12152366 -0.03959373 -0.06986001
50 -0.022849033 0.11604436 -0.43336064 0.16940755 -0.15415795 0.124987766 -0.1675441 0.018936293 -0.1611952 -0.211202 0.55154675 0.1035892 -0.1616583 0.17562668 -0.25657836 0.02291126 -0.217532 -0.16985211 0.080783024 -0.06189558 -0.16083585 0.0921384 0.1916682 0.037745293 0.17567948 0.03543008 -0.47147626 0.2301031 0.07988546 -0.27270538 0.23476486 0.081139766 -0.50608426 0.41074514 -0.17412896 -0.068099566 -0.021344714 0.07119913 0.4029449 0.1746594 -0.11056427 -0.09190285 -0.09945231 -0.102682136 -0.2320553 0.01262382 0.1611087 0.38388416 0.36418977 0.17415625 0.4073154 0.056860458 -0.05285312 -0.63693833 -0.321352 -0.05846365 -0.13293633 0.19669335 -0.08692814 -0.5996316 0.30350187 -0.18074372 -0.05075419 -0.43235463 -0.042885594 -0.17670223 -0.10853483 0.041591205 0.2302327 -0.05536198 0.28292063 -0.6964455 0.73068 -0.17375936 0.24299389 -0.11960162 -0.23025233 -0.26271334 0.68303144 -0.026928209 -0.3524401 0.11467811 -0.3017369 -0.030809855 0.15361984 -0.07233686 -0.11860819 -0.019041346 0.24574094 0.17363037 0.08262853 0.030520627 0.04470605 -0.55267197 0.30500388 -0.035876725 -0.55624 -0.0050640893 -0.08125003 0.13310868 0.2493329 -0.5631198 0.30742878 0.15241303 0.38860196 -0.3775595 -0.18220098 -0.038771816 0.09014373 -0.24495059 -0.039567765 -0.0446961 -0.021621728 0.1640425 -0.09809188 -0.34362102 -0.105279915 0.015296985 0.2074178 0.06763761 -0.093130246 0.20012403 -0.30932894 -0.07730492 -0.44600493 -0.018275267 -0.26503405 0.07780644
367 0.15167172 0.41663527 -0.43501946 -0.10226638 -0.23881435 0.3167742 -0.2981122 -0.16543952 -0.1365141 -0.6460212 0.086498186 -0.08794658 0.029187601 0.35138655 0.09260611 0.14223176 -0.39394316 -0.0903082 0.007936264 -0.23653497 0.06561957 0.16739148 0.1379272 -0.012775785 0.089265354 -0.01598839 -0.5762976 0.044505123 0.15447846 -0.20973125 -0.0066141044 -0.054327346 -0.36666998 0.40623325 -0.38100013 -0.114322186 -0.04404111 0.32651177 0.025940794 -0.028507657 -0.12249955 -0.109905966 -0.28786927 -0.09714458 0.20861721 0.30446255 0.15122752 0.23014025 0.14911175 0.424313 0.15729289 -0.27130163 0.12377802 -0.61110276 -0.39863384 -0.35672474 -0.15237677 -0.05354797 0.038683638 -0.13065939 0.04957243 -0.30339786 0.18548712 -0.38630524 0.0042863907 0.28536806 -0.29743382 0.30880806 0.060363624 0.4322915 0.2895195 -0.37024227 0.58747905 -0.3157271 0.12193351 0.10812259 -0.34888434 -0.040593848 0.4754211 -0.25716454 -0.52652085 0.027892068 -0.27520433 -0.07970021 0.048997257 -0.13333528 0.062369008 -0.12162438 0.36505213 0.16851501 0.14099908 -0.08700663 -0.09184064 -0.21868162 0.16420107 -0.17355008 -0.5854208 -0.13517739 -0.0817667 0.008427069 0.103701085 -0.56748766 0.4940364 0.1425195 0.42940745 -0.48175153 -0.09210609 -0.26106626 0.109689586 0.18244433 0.11797992 -0.3230549 0.24503614 -0.031174589 -0.2351047 -0.33564463 0.09375315 0.0043306197 0.44716164 -0.07933017 -0.14763229 0.45522165 -0.050268814 0.17415027 -0.38989183 -0.056926355 -0.17088883 -0.18251824
307 -0.08146667 0.26332462 -0.5354199 -0.045713216 -0.11013395 0.07203518 -0.2598907 -0.044729162 -0.15292807 -0.21417877 0.062000833 0.0067920694 -0.120989986 -0.056757223 -0.092806764 0.11253059 -0.37777743 -0.39139798 -0.052726146 -0.2309787 -0.1416123 0.023043055 0.27026963 -0.009899909 0.01227279 -0.029705962 -0.32911187 0.17630145 0.28812596 0.2029583 -0.20290399 0.10501196 -0.21044064 0.4143092 0.12059098 -0.0023489362 -0.29522383 -0.08206394 0.4082068 -0.0010960806 -0.21691729 -0.3428876 -0.3668856 -0.09901339 0.38063815 -0.17084022 0.33810276 0.22322647 0.12077211 0.45675504 0.08461702 0.06957355 0.16121553 -0.3257412 -0.020791316 -0.018659176 0.010342497 0.21014957 0.07304117 0.094641544 -0.014026483 0.021590706 0.19452308 0.006018923 -0.095789 0.10356037 -0.22559822 0.010392811 0.13051978 0.084778786 0.3346561 -0.47904503 0.56000507 -0.18160762 0.255057 -0.15644093 -0.042501334 -0.3902518 0.5984632 -0.04319474 -0.4904822 0.4291507 -0.39478484 -0.081608206 -0.17713755 0.3055281 0.081165716 -0.082004264 0.14460878 -0.09020733 0.17497526 -0.14444372 -0.18573318 -0.30865029 0.25543112 -0.098281235 -0.67155653 0.15493172 -0.27843273 0.05182668 0.04784822 -0.4859043 0.062463924 -0.019425832 0.57722306 -0.13444006 -0.19918591 -0.15012757 0.07226401 -0.30576724 -0.09712649 -0.19566895 0.094503574 -0.03407997 -0.17846343 -0.36411414 -0.09865043 -0.08615327 0.5277009 -0.09538617 -0.13859306 0.4436935 -0.17742088 -0.2517573 -0.4459072 -0.0037820302 -0.13671698 -0.3584145
175 0.10268488 0.018122014 -0.20538093 0.0071235867 -0.058084212 0.07982348 -0.07228529 -0.11024089 0.05082008 -0.25076222 0.040946566 0.21960615 -0.30680272 0.023174282 -0.1422665 -0.034346007 -0.09833168 -0.27064276 -0.046713207 -0.06925503 0.023699133 0.3290867 0.08085299 -0.029598698 0.17669256 -0.062497728 -0.5578565 0.111465625 0.19935995 -0.06606677 -0.106837325 -0.11699097 -0.24019147 0.24960202 0.118208654 -0.14328708 -0.36359304 0.1389239 0.11102634 -0.0042823264 -0.10904443 0.06163103 0.037327632 0.008509453 0.014726752 0.0030092653 -0.09179284 0.31403595 0.2136228 0.4304874 0.26761657 0.30811882 0.2893908 -0.505941 -0.2195906 -0.10493858 -0.2867085 -0.015830362 -0.07551066 -0.17965658 0.15492305 0.16735208 -0.046012208 -0.16492501 0.09016886 -0.036574036 -0.1113562 0.021019498 0.39747962 -0.091679715 0.20816618 -0.17314328 0.5564458 0.13073707 0.0033133428 -0.1360117 0.10702113 -0.7458994 0.38495287 -0.2291325 -0.32825163 0.31310636 -0.20783845 0.15619242 0.14482917 0.27493757 -0.15188183 -0.3050456 0.091157585 0.24627455 0.050538823 -0.012591201 0.0986065 -0.16336426 0.37010053 -0.282606 -0.5485874 0.03441242 -0.3245451 0.35078987 0.16847886 -0.46964413 0.10571937 0.083705544 0.51427907 -0.19725612 -0.009378219 -0.22891413 0.30437022 -0.12322148 -0.42147192 -0.15882874 -0.046063147 0.10448457 -0.1839727 -0.33503196 -0.016249372 -0.081470124 0.44519812 -0.13536696 -0.07845026 0.53693485 -0.068893775 -0.0002546213 -0.5399823 0.11991404 -0.07645981 0.091288745
174 -0.35000196 0.1583647 -0.34924698 -0.116033845 -0.29630172 0.021539835 -0.21675318 -0.013819167 0.18081562 -0.30347106 -0.19894958 -0.046656605 -0.2101352 0.20119366 -0.120990254 0.13188043 -0.39657947 -0.23134062 -0.032750558 -0.16489379 -0.14861572 0.25038382 0.17679378 0.17227072 0.15647034 0.18177891 -0.35132742 0.39035687 0.3233 0.09252951 -0.19504097 0.008322511 -0.48211315 0.22297035 0.028667724 -0.05761488 -0.2581816 -0.011293249 0.10109822 0.23172154 -0.03716351 -0.07952971 -0.15719669 -0.32272896 0.07633877 0.09004051 0.031743947 0.3844834 0.10811275 0.343174 0.40679088 0.111877695 0.07879073 -0.68387544 -0.2724545 -0.1502931 -0.1768704 0.043752976 -0.17193669 -0.2566154 0.18561901 0.09929909 0.032371853 -0.38877615 -0.1820678 -0.21746446 -0.1977294 -0.15416837 0.4257408 0.20236643 -0.008122838 -0.47856304 0.7027937 -0.16295607 0.0020015694 0.09365909 -0.120399185 -0.17966591 0.52669406 -0.033266935 -0.36443627 0.06728781 -0.27272254 0.07739152 -0.07459941 0.07296918 0.08597084 -0.23939435 0.3066664 -0.1835191 -0.25564364 -0.2538519 -0.051747024 -0.28506455 0.3154253 -0.14637755 -0.3866967 -0.16231546 -0.2661083 0.18559693 0.07918626 -0.16406205 0.16801473 0.011299413 0.09554223 -0.052567173 0.055814233 -0.17291714 -0.09368593 -0.22265743 -0.01617686 -0.16717874 0.09964528 -0.076284766 -0.36482885 -0.42003652 -0.2534666 -0.037077922 0.40329295 -0.23606575 -0.13378145 0.7214238 -0.16395247 -0.17605785 -0.47452158 0.09469193 -0.010743437 0.018565884
371 -0.028285688 0.08096156 -0.4418925 -0.025052385 0.07828829 0.024976062 -0.098369524 -0.19614516 -0.036576826 -0.2991204 0.032695074 0.38078713 0.06453256 0.050507404 -0.067888126 0.23432955 -0.35317135 0.045598026 -0.093001164 -0.21021265 -0.14867371 -0.21207683 0.13433474 0.1502171 0.1036516 -0.029894842 -0.42183292 0.24842352 0.014009033 0.17082532 0.06401469 0.16162601 -0.35044524 0.30141154 0.21942066 -0.07609325 -0.041206937 0.11869373 0.3716799 0.06378163 -0.19067864 -0.070472024 -0.25171867 -0.17523533 0.0026006014 -0.033242065 0.13991071 0.54643106 0.15791775 0.4498307 0.13942839 0.2757322 0.21538702 -0.42361447 -0.3107146 -0.2686774 -0.26753968 0.47925466 0.049516696 -0.22970311 0.4668867 0.080478184 0.1364124 -0.3240079 -0.2259635 0.059415065 -0.21881483 0.12061836 0.38348913 0.28442806 0.15675665 -0.38446733 0.61558187 -0.2935857 0.59145427 -0.19831099 -0.15410438 -0.24513327 0.58912915 -0.3546811 -0.4977615 0.100146465 -0.38666737 -0.09329817 0.26432112 0.10207458 0.073424354 -0.33049634 0.39792314 -0.002450821 0.19554083 0.2649196 0.0443256 -0.29580706 0.2812493 0.19243897 -0.70895374 -0.07026691 -0.3114715 0.13937722 0.28169447 -0.54314023 0.28078917 0.2988811 0.2646749 -0.17924204 -0.030135313 0.014954947 0.09608806 0.16180655 -0.050408818 -0.09116878 0.26505187 0.12965149 -0.07262343 -0.44082272 0.20068347 0.037553392 0.47245687 -0.29113814 -0.025398092 0.34539223 -0.15169354 0.052031998 -0.52140725 -0.04372737 -0.104694694 0.06377532
35 -0.21077675 0.111099996 -0.17456464 0.38064682 -0.09277565 0.09115191 -0.37940663 -0.12393444 0.09055455 -0.21527314 -0.08186256 -0.29034784 -0.13073264 0.1653834 0.09936871 0.30677828 -0.011940433 -0.2322219 -0.10283407 -0.4206597 0.11989445 0.15717176 0.19182394 0.13660133 0.08316514 0.114083804 0.024742907 0.02605264 0.2441549 -0.03740255 0.013126322 -0.113286756 0.06245391 0.5058909 0.14065762 -0.012519776 -0.3134798 0.28929064 0.20534642 0.28288248 -0.08967601 -0.04857785 -0.14387749 -0.19878063 0.2528231 -0.23982655 0.07636908 0.5564741 0.23371394 0.34980655 0.28920662 0.0940487 0.3585678 -0.5730501 -0.40788695 0.0016033826 0.19279853 -0.023423329 -0.13182597 -0.22022565 0.007212026 -0.32646537 0.27586374 0.008798458 -0.04671942 -0.14785266 -0.22631542 -0.053698596 0.46375477 0.21454175 0.20618118 -0.43010685 0.590631 -0.01470655 0.21062247 -0.563727 -0.27399692 -0.07541512 0.67238456 -0.101731986 -0.19975153 0.09260914 -0.2195686 0.11997822 0.00606435 0.11017768 -0.0780432 -0.31214908 0.25500673 -0.10933102 0.24121262 -0.10922455 -0.17948325 -0.42268828 0.09648518 -0.068044186 -0.57187605 0.29391113 -0.25007874 -0.055595625 0.06116407 -0.29559502 0.1348482 0.3892852 0.60590374 -0.46810472 0.042696007 -0.14050853 -0.074163735 -0.08125632 0.030850435 -0.4051706 0.13515833 -0.039061986 -0.5274731 0.024307622 -0.14719698 -0.17160964 0.3099581 -0.16947058 -0.040842175 0.5544265 -0.20866722 -0.074254654 -0.43766958 0.06296899 0.029043354 -0.47849503
395 0.005723229 0.01806339 -0.32581785 0.11147525 -0.15250304 -0.15943615 -0.16691414 -0.21264687 0.068253756 -0.2977976 0.05417735 -0.052051585 -0.18510634 -0.0013300086 -0.09294939 0.29443902 -0.38959706 -0.19641101 -0.08722676 -0.109501824 0.11216181 0.32933113 0.060068868 0.2202505 0.13322467 0.08051373 -0.4209382 0.32970822 0.072541565 0.147316 -0.30480152 -0.05360888 -0.19460627 0.19496003 0.057142206 -0.19124624 -0.22636281 -0.07459942 0.10562353 0.3902596 0.08335971 -0.104249746 -0.1489923 -0.3136224 0.2574833 -0.17065874 0.063002385 0.4447327 0.2018648 0.28967437 0.30218282 0.20365182 0.15450518 -0.5137631 -0.24612753 -0.035933122 -0.025978336 0.2136341 -0.02557717 -0.34442422 -0.2219679 0.16938648 0.06130138 -0.29142925 -0.24391422 -0.15174662 -0.3519274 -0.048073445 0.5797629 0.3455717 0.34658036 -0.40471074 0.6375224 -0.14682062 -0.03399891 -0.1236245 -0.2591629 -0.3792396 0.36330754 -0.36023542 -0.2367991 0.2770813 -0.3908188 0.20747137 -0.022834804 0.05269036 -0.055728998 -0.38108304 0.19607301 0.10308459 0.13620675 -0.16846587 0.16539365 -0.15705979 0.46825972 -0.40752596 -0.6616786 0.33890525 -0.2428959 0.1098501 -0.07451942 -0.1532868 0.23432441 0.10109298 0.24050069 -0.3520473 0.19306064 0.10819094 0.0057488848 0.0018508972 -0.17282034 -0.38320616 0.0058434154 0.11124866 -0.49230164 -0.26174426 0.08327473 -0.21162437 0.5392731 -0.18483905 -0.043430984 0.3979941 -0.08872406 -0.12546627 -0.29513988 0.24473053 0.021310689 -0.09167396
322 -0.17790459 0.22053704 -0.1595634 -0.021429943 -0.13063766 0.07637135 -0.2816855 -0.3184385 -0.121262036 -0.40125236 -0.03447397 -0.028111577 -0.055417486 0.021231271 0.09746997 0.08170988 -0.49613687 -0.34228605 -0.040646587 -0.28479815 -0.10137268 0.022205759 0.09964798 0.18264517 -0.07965332 -0.2343511 -0.255538 0.3277779 0.34160978 0.24208632 -0.41579416 -0.09947694 -0.33469155 0.28224418 -0.02866934 -0.010056234 -0.19231848 0.009296878 0.31233674 0.19422619 -0.32459438 -0.24345398 -0.33973497 -0.12801377 0.29644355 0.011982451 0.40144324 0.09105305 0.14968668 0.37966213 0.28529114 -0.10761769 0.1018467 -0.41729262 -0.27170172 -0.23879671 -0.1502959 0.21209262 -0.14487752 -0.0641072 0.005614453 -0.0020243537 0.23751502 -0.17038809 0.018863121 -0.04932894 -0.23208466 0.21768154 0.40878087 0.39026374 0.512487 -0.6081242 0.6554237 -0.14817636 0.33995137 -0.014761687 -0.040518805 -0.3138469 0.61688536 -0.0753753 -0.53141296 0.35630682 -0.577592 -0.11612771 0.022275295 0.26053733 0.05184174 -0.22029172 0.33704022 -0.048160214 0.053995874 -0.05552641 -0.12154148 -0.1856165 0.15457296 -0.22253707 -0.62523335 0.06796803 -0.12015456 -0.072633296 -0.0014000514 -0.24101646 0.12899166 -0.23062447 0.41025895 -0.22030745 0.09923463 0.0039073136 0.005086336 -0.2649948 -0.09545534 -0.26227266 0.020203723 0.02044585 -0.29592288 -0.13536525 0.0576153 -0.23158255 0.4217521 -0.008974919 -0.25658485 0.44762924 -0.13619767 -0.05254639 -0.41851604 -0.039438248 0.009507577 -0.30087978
253 -0.06852837 0.2223053 -0.47007993 0.0360883 -0.10422068 -0.012624869 -0.32548544 -0.18538536 0.17005475 -0.3844253 0.07280253 -0.10361048 -0.19436045 -0.11216367 0.005860685 0.06588823 -0.18062197 -0.2105673 -0.14440009 -0.1920841 0.07869873 -0.014193421 0.021477513 0.010004733 0.1169033 -0.07649821 -0.40181813 0.15145314 0.28423604 0.19688416 -0.29822463 -0.045578133 -0.17302538 0.31189966 0.10640487 -0.17409317 -0.28538963 0.005241588 0.16144419 0.1469674 -0.17930679 -0.09501985 -0.18094869 -0.20666748 0.19072819 -0.163984 0.21357523 0.3417909 0.30477986 0.58542323 0.047706716 -0.010767415 0.13417903 -0.56410015 -0.21050169 -0.095684886 -0.023266979 0.14410578 0.002259515 -0.048029985 -0.060407005 0.03185209 -0.03733219 -0.12087654 -0.15801153 -0.07360604 -0.2617146 0.1522014 0.38061693 0.25415567 0.42836857 -0.4302175 0.6952989 -0.14454475 0.17432933 -0.081942745 -0.029034205 -0.56294364 0.5959648 -0.0043448876 -0.4406918 0.36513242 -0.41695073 0.08517132 0.023101166 0.2846578 -0.16128467 -0.2960339 0.20172516 0.062699035 -0.06538702 -0.043639094 0.009073952 -0.35550675 0.4049371 -0.15210947 -0.4132656 0.069513395 -0.30857688 0.11017003 0.166997 -0.3609091 0.004611065 0.042797267 0.4119499 -0.20594436 -0.01245357 -0.19290452 -0.151683 -0.20439728 -0.2044174 -0.1246902 -0.15129592 0.045754105 -0.37234825 -0.32524434 0.19928753 -0.11255417 0.52356964 -0.26002514 -0.1367844 0.55971205 -0.17990233 -0.10076145 -0.31927925 0.08553861 -0.09972403 -0.15156208
377 -0.14563416 0.23975958 -0.5260545 -0.0698935 0.0029270647 -0.078276806 -0.2306829 -0.3158148 0.17984594 -0.216143 -0.13856262 -0.21230315 -0.28324115 -0.017685171 -0.13084078 0.06437528 -0.3726611 -0.2738231 -0.008787447 -0.05496877 0.20398873 0.18804318 0.22328883 0.18875115 0.17148748 -0.068657726 -0.5769618 0.51378214 0.059475813 0.14577185 -0.20505288 0.07558753 -0.19583145 0.36312926 -0.033172235 -0.16079302 -0.37022507 -0.13529184 0.21787511 0.34601545 -0.059384312 -0.10696234 -0.17553075 -0.105579406 0.066586316 -0.09884695 0.11802314 0.4453799 0.23564222 0.5124609 0.0438381 0.21334368 0.18602486 -0.8593058 -0.21782319 -0.1083172 0.0168261 0.009690023 -0.086044654 -0.171017 -0.0071349256 -0.012054096 0.0967428 -0.15756702 -0.03165259 -0.10397121 -0.28455642 -0.08108858 0.28413147 0.23123288 0.48452204 -0.39925507 0.5919961 -0.010068643 0.096047014 -0.31967562 -0.13267909 -0.4367004 0.42104214 -0.1338961 -0.23597574 0.20179565 -0.30405575 0.23733677 0.1489407 0.10662761 -0.00035883673 -0.20475209 0.24302618 0.20605873 0.14109945 -0.15331015 0.22345926 -0.30108133 0.10602716 -0.22313882 -0.52740043 0.01874418 -0.18993056 0.20937754 0.024746846 -0.25931427 0.11608004 0.17991719 0.32564068 -0.40433767 0.018792422 -0.030339241 -0.054175 -0.10531345 -0.1231372 -0.09763579 0.043241717 0.15090422 -0.21217334 -0.3473697 0.16508871 -0.1222743 0.49180216 -0.35553825 -0.04222277 0.6401615 -0.13366368 -0.2291476 -0.16200069 0.09793092 -0.0415546 0.06939177
391 0.13481596 -0.16904654 -0.31479704 -0.03964011 -0.15938312 0.13195843 -0.21492983 -0.038537085 -0.22568156 -0.53148395 0.13832799 0.17178902 -0.2055465 0.32602063 0.070907414 0.24719352 -0.40748098 -0.30560002 -0.07261827 -0.16509482 -0.03949665 0.21398377 0.27576977 0.1031022 0.18566889 0.08081101 -0.49790192 -0.02151959 -0.16706285 0.06990934 -0.22589289 -0.17146455 -0.28923735 0.2515836 0.21535799 -0.24496448 -0.27089977 -0.10518026 0.05979399 0.21741566 -0.15603489 -0.15441445 -0.043815963 -0.17243166 -0.07992727 -0.0129559245 0.12476187 0.37070945 -0.035645515 0.11740116 0.32377166 -0.02148623 0.03189089 -0.5244527 -0.24379683 -0.29830015 -0.11730619 0.12717119 0.1247151 -0.21117388 0.24608208 0.030235479 0.103159316 -0.2315152 -0.038313393 -0.028872939 -0.34977102 0.1483701 0.3772063 0.023867434 0.30304664 -0.35864958 0.61319816 -0.16179672 0.2463459 -0.22795077 -0.2810309 -0.50086147 0.39681742 -0.2949001 -0.27259827 0.0572645 -0.2586339 0.09357398 0.17076614 -0.0729788 0.09070716 -0.16240196 0.19890507 -0.036703754 0.08106762 -0.16673493 -0.12622474 -0.20261069 0.18305977 -0.11875303 -0.86636007 0.18398337 -0.03890055 0.31136966 0.017808957 -0.5509079 0.284453 0.17072427 0.2794348 -0.45933095 -0.068520404 -0.18760277 0.044011038 0.106047235 -0.20653635 -0.1554466 0.3103483 0.31335106 -0.02431131 -0.32908243 0.0232044 0.1146898 0.6445613 -0.031504314 -0.06000508 0.3580408 0.10861836 -0.055900406 -0.46081 0.024628725 0.14674717 0.16106819
43 -0.14636204 0.26751503 -0.3088472 0.23863208 -0.11668784 0.12181556 -0.42893416 -0.34739253 0.08058402 -0.31869787 -0.21128452 -0.06952065 -0.114967346 0.3665865 0.1163117 0.28636128 -0.15836312 -0.26126698 0.01268421 -0.01742057 0.00074905495 0.25406766 0.30881247 0.09686222 0.07414025 -0.06263059 -0.28678885 0.33063543 0.12399055 -0.015102826 -0.14191666 -0.11214948 -0.3741551 0.22838038 0.1126439 0.032042768 -0.35231113 0.1726815 0.31578866 0.24033509 -0.147859 -0.28909785 -0.3371616 -0.0058063827 0.24301325 -0.21072793 0.24709715 0.2383749 0.2289689 0.14029503 0.25929534 0.52267665 0.12612674 -0.44973183 -0.38181084 -0.08723991 -0.11788495 0.2759472 -0.28729102 -0.21486022 -0.06894464 -0.25608015 0.22228518 -0.038492005 -0.15787032 -0.15710366 0.19630976 -0.044558574 0.5389987 0.2618496 0.23210165 -0.5383679 0.58047074 -0.114639595 0.33458295 -0.47501162 -0.03427355 -0.3049269 0.69180924 0.0259386 -0.20097555 0.21597373 -0.36761934 -0.09510558 -0.08451145 0.113258824 -0.14922966 -0.3489381 0.3659951 -0.00017874333 0.1812425 -0.09249587 -0.26118225 -0.13368681 0.20214032 -0.12140775 -0.46907872 0.04281821 -0.010373664 0.0050106775 0.12863135 -0.35178748 0.17758977 0.12850828 0.4873247 -0.20461196 0.105756044 0.06742824 0.09155515 -0.14418273 0.021514693 -0.23446216 0.12781316 0.11749513 -0.11046019 -0.1849634 -0.23288128 0.10280618 0.07045704 -0.2796931 -0.39677933 0.2900373 -0.019756936 0.20550571 -0.60764045 0.07181406 0.21664762 -0.41023567
18 -0.007212225 0.2906248 -0.4454273 0.30052269 -0.21472117 0.09512008 -0.10142479 -0.08222203 0.16198158 -0.6494865 0.25445658 0.3683686 -0.120110735 -0.010036366 0.018367486 -0.04070099 -0.15946345 -0.014674663 -0.21558234 -0.0690598 -0.049273573 0.13258 0.01644006 0.41493478 -0.01850045 0.17463034 -0.10738699 0.06429826 0.077186614 -0.08302981 -0.20975876 -0.04992487 -0.073632725 0.3831148 0.116177075 0.21066317 -0.21285698 0.27183834 0.27292266 0.27573866 -0.12573904 0.07177428 -0.1864076 0.0066648447 0.03541948 0.006960532 0.17506409 0.48099995 0.22492307 0.37397593 0.022665748 0.2545829 0.26522237 -0.2950189 -0.21339616 0.21232241 0.092387095 0.1392728 0.063826114 -0.35990906 0.0840924 0.091288485 0.0761882 -0.18755111 -0.24357001 -0.3930223 -0.24382639 0.05240201 0.27592263 0.14324431 0.049205363 -0.57750624 0.83638096 -0.388419 0.13570443 -0.28260556 -0.17459115 -0.4608932 0.76790535 -0.032386016 -0.08766966 0.3286888 -0.45003185 0.018475793 -0.012783469 0.06913896 0.16675892 -0.14137904 0.39083531 0.07224009 -0.09344279 0.058602683 0.017263955 -0.44321546 0.41666 -0.102139145 -0.23654336 0.026559973 -0.073821574 0.008405573 0.3195547 -0.36629152 0.23210777 0.49080935 0.023198523 -0.31465253 0.101621404 -0.19776164 0.17176469 -0.2825575 -0.21051814 -0.18315591 -0.15743288 0.004469992 -0.53328866 -0.49140513 -0.15031739 -0.05576506 0.59290963 -0.1833232 -0.16733721 0.22295411 -0.2938034 -0.1205735 -0.43663773 0.31105167 -0.11375191 0.038825974
33 -0.12131572 0.24040164 -0.18176037 0.07205314 -0.022094948 0.17716496 -0.038001463 -0.39120254 -0.26127368 -0.03726737 -0.100344405 0.1343152 -0.11266076 0.1138602 0.051719114 -0.116083585 -0.37513697 -0.35439473 -0.21510953 -0.04591568 -0.01854799 0.15397549 0.11848258 -0.036642753 -0.07440984 -0.1511624 -0.19973113 0.32374606 -0.028875142 -0.18007731 -0.095077984 0.07983104 -0.20153037 0.251843 -0.102088414 -0.20857646 -0.004539144 0.018315189 0.1315586 0.21471067 -0.111253135 0.100794554 -0.11690536 -0.17110626 0.22944029 0.20523469 0.37489378 0.2004989 0.047946062 0.554373 0.41196388 0.05872834 0.1882248 -0.32755968 -0.5579702 -0.08841013 -0.06679076 0.108041726 0.105295025 -0.2735357 0.16886084 0.024229595 0.25002095 -0.26115307 -0.018235546 -0.047351316 -0.121664904 0.18347797 0.4633386 -0.0015476911 0.3107551 -0.74168956 0.60181844 -0.19285935 0.055321783 -0.2452126 0.022841537 -0.22054502 0.565787 -0.17034954 -0.0966866 0.013596178 -0.5112095 -0.00306509 -0.26061612 0.3547472 0.17420606 -0.36302003 0.05244082 -0.073694214 0.08197182 -0.29188073 0.000957782 -0.19598511 0.36471176 -0.062518775 -0.81492954 0.054085094 -0.23144715 0.28914002 -0.14149304 -0.708012 0.32323104 0.12022749 0.284111 -0.21723017 0.025966456 -0.19837706 -0.013315919 -0.27224186 -0.21915805 -0.29241347 0.08836709 0.37395552 -0.26841122 -0.14232229 -0.039265875 -0.12697868 0.21123573 -0.09009305 -0.18674019 0.4710831 -0.32370472 0.015051926 -0.5203476 -0.1781463 0.04962468 -0.14606364
7 0.012498668 0.20266648 -0.39135686 0.118619315 -0.32996505 0.04754434 -0.0709508 -0.19925863 0.38056037 -0.25061226 -0.20178881 -0.08097756 -0.17337912 -0.003323969 -0.08456194 0.07568051 -0.4114437 -0.2708196 -0.04474855 -0.06641969 -0.10777677 0.1964982 0.24612083 0.27957323 -0.0289176 -0.010860133 -0.3615562 0.334238 0.26996773 0.29317617 -0.27135253 -0.20046975 -0.37941262 0.34296146 0.01734951 -0.21915591 -0.13666433 0.16708252 0.10962153 0.19428165 -0.06991635 -0.19967619 -0.31303415 -0.12661642 0.18265007 -0.11429293 0.1075015 0.47999552 0.017067635 0.55464566 0.08204761 -0.0023282524 0.27977467 -0.48766276 -0.24160574 -0.04045829 -0.10714294 0.054985978 -0.065670244 -0.19654027 0.09380705 -0.03511634 0.06720617 -0.31962034 -0.14225371 -0.0012318832 -0.15608771 -0.04725874 0.42638066 0.26147264 0.10691374 -0.34790525 0.67412066 -0.11434013 0.3306168 0.059723914 -0.3763607 -0.1340397 0.4834746 0.1008166 -0.047796726 0.18649673 0.00545527 0.10169034 0.10279061 -0.060860943 -0.15115719 -0.15242395 0.38726476 -0.023809476 -0.07720755 -0.099113554 -0.071153834 -0.43500483 0.36299172 -0.23129925 -0.30036238 0.16791135 -0.27378348 0.18954961 0.21086794 -0.44263524 0.275638 0.21787825 0.34239385 -0.22650458 -0.07749418 -0.054954436 0.07506077 -0.15183254 -0.09346772 -0.37964135 0.24112225 0.062014986 -0.24118595 -0.3402014 -0.00078728894 -0.24033302 0.22486727 0.012803361 -0.3972347 0.49572808 -0.05321205 -0.040097855 -0.36602935 -0.07801185 -0.1175688 -0.364546
334 0.006504473 0.4498351 -0.085571475 -0.19117607 0.00856635 0.065843254 -0.26260728 -0.35424435 -0.012338602 -0.20497379 -0.034848835 0.23024201 -0.042433448 0.021462874 0.12298502 -0.023082025 -0.24249506 -0.18474202 0.006675685 -0.28528157 -0.1042153 -0.19311267 0.23764996 0.2954962 -0.016642349 0.062995054 -0.45811912 0.29879335 0.01198177 -0.009602622 0.010057223 -0.08368723 -0.26201293 0.48745015 -0.14817463 -0.2289383 -0.25083932 0.13185537 0.41490152 0.2356499 -0.34500983 -0.030282144 -0.32605857 -0.15489556 0.1761643 -0.07835581 0.07357321 0.51993734 0.017939396 0.57953745 0.087268345 0.10946485 0.34562722 -0.50603336 -0.28618428 -0.2133346 -0.22163947 0.29761246 0.017635632 -0.302164 0.29512817 -0.09617475 0.36822122 -0.082539745 -0.2012674 0.0071463836 -0.15696278 0.24047598 0.1943269 0.3105437 0.23455448 -0.470304 0.5365449 -0.23294652 -0.01951297 -0.33195487 -0.28678536 -0.38841337 0.34930882 -0.2470761 -0.26366028 0.13112117 -0.2724939 -0.24879806 -0.02472139 0.34733683 0.09695338 -0.1042138 0.24230589 0.32816434 0.20804994 -0.23358889 -0.25202036 -0.2245589 -0.0019118853 -0.043055862 -0.73292404 0.023834145 -0.15810059 0.10719493 -0.10839469 -0.45295173 0.30963752 0.1785142 0.48930383 -0.3319953 0.062048186 -0.26712027 -0.07475913 -0.03563928 -0.021656927 -0.37371382 -0.028878933 0.06576896 -0.22297136 -0.2998791 -0.111144036 -0.10220678 0.41014558 -0.09614026 -0.17849156 0.4626568 -0.27065337 -0.006851086 -0.40792763 -0.12322095 -0.045443587 -0.22821729
315 -0.054148424 0.16065802 -0.39850438 -0.08578506 -0.39046365 0.054991867 -0.20336209 -0.1775894 0.26465315 -0.4770515 -0.022970747 0.047574807 -0.03680161 -0.1972087 -0.17567888 0.051422726 -0.55445975 -0.18416573 -0.1315769 -0.054695614 -0.17087922 -0.020650383 0.03929402 0.32707307 0.07019203 -0.016856048 -0.46947977 0.112397105 0.35702634 0.52486205 -0.2518648 -0.117753685 -0.33304578 0.48442242 0.27551597 -0.23865089 -0.098363675 -0.031853907 0.05896096 -0.13877723 -0.19035123 -0.39470214 -0.3072621 0.078664914 0.1804479 0.016660823 0.2393547 0.118822694 0.17073445 0.4230225 0.16284639 0.16170053 0.008237656 -0.41648299 -0.2416948 -0.11574002 -0.017051937 0.06633159 0.07596541 -0.039086856 0.0006180441 -0.105582364 0.19101304 -0.40302277 0.06834604 -0.22722925 -0.17848672 -0.07733774 0.15082018 0.1190006 0.32686844 -0.43295425 0.95616156 0.02151193 0.50138915 -0.05881098 -0.15988337 -0.30554587 0.583905 0.070175365 -0.7369182 0.17265697 -0.36458555 0.020338373 -0.16467279 -0.02349985 -0.04058575 -0.19206832 0.2962872 -0.07829228 0.21364172 -0.11622797 -0.10946735 -0.24918509 0.3091221 0.14046942 -0.57159585 -0.05695615 -0.41645554 0.3535122 0.02650822 -0.46155226 0.07262124 -0.02252361 0.3518177 -0.33312076 -0.13638256 -0.130845 0.1498602 -0.25403303 -0.20752577 0.07857222 0.15675166 0.10838562 -0.26517293 -0.26832578 -0.040913038 -0.19028483 0.32700026 -0.28137377 -0.0986528 0.55720276 -0.19991557 -0.28829968 -0.3975043 -0.16845235 -0.018012367 -0.16832438
203 0.12564576 0.04601498 0.024667181 0.008837578 -0.37173313 -0.01609525 -0.0818834 -0.1147071 -0.054480214 -0.3999594 0.19982578 0.0310834 -0.1293063 0.12857829 -0.064820915 0.12630624 -0.34964135 -0.31850788 -0.08609126 0.2216407 -0.021872804 0.037189633 0.25862134 0.076239005 0.20823298 0.2368348 -0.118925296 0.27280012 0.2208895 -0.15622145 0.020373514 -0.18810208 -0.6923788 0.3754872 -0.050039716 -0.27697486 -0.29088846 0.114037275 0.27265337 0.004976403 0.035032842 -0.18082778 -0.0768711 -0.087080814 -0.005179347 0.016714165 0.23056124 0.55357325 0.25715604 0.025496896 0.6003943 0.12897329 0.04887896 -0.7621504 -0.41934863 -0.28304577 -0.1367015 0.19886088 -0.1530668 -0.17501089 0.053037688 -0.15449809 9.1797425e-05 -0.39357093 -0.25934958 0.15039627 0.09316485 -0.092254035 0.28000274 0.26367745 0.07861798 -0.3578745 0.61341923 -0.15691519 0.3582722 -0.027694682 -0.13120301 -0.27174369 0.41717872 0.07855946 -0.3692293 0.3144779 -0.39119732 0.030894987 0.087593295 0.059210163 0.04983987 -0.2570647 0.124918535 0.11193471 0.22800355 -0.14914517 -0.22161023 -0.31294292 0.18433787 -0.112206936 -0.41286027 -0.13335429 0.1518947 0.05531889 0.39514455 -0.3023678 0.24274313 0.11710212 0.16737954 -0.24491277 -0.061162207 -0.18065123 0.17540047 -0.4533613 -0.08306888 -0.15458438 0.22310334 0.035078138 -0.19682504 -0.2871051 -0.020691955 -0.39050314 0.17863247 -0.12198794 0.014420341 0.41466105 -0.31318882 -0.028721519 -0.62508845 -0.08247888 -0.09476554 -0.19831638
143 0.03780693 0.069304235 0.01108197 -0.05988386 -0.23286481 0.27101138 -0.19457886 -0.15902837 -0.13889351 -0.07249133 -0.07090315 -0.13300595 -0.1700961 0.117606394 -0.072699316 0.06796352 0.0027532605 -0.10755189 -0.08934532 -0.059607908 0.03437766 0.1859343 0.11121429 0.03626574 0.13790727 -0.10009538 -0.14166532 0.32022187 0.4179454 -0.020635685 -0.47222364 -0.1712426 -0.25064507 0.22302541 0.13885324 -0.10270249 -0.3128951 0.18032698 0.488544 0.11945762 -0.221758 -0.2602586 -0.22500463 -0.27145496 0.24703076 -0.21859904 0.17153195 0.17197634 0.13672692 0.1026416 0.2361377 -0.08633708 0.18893854 -0.870447 -0.4202731 -0.27888647 -0.28476924 -0.02950353 -0.19469097 -0.09899281 0.078896485 -0.020273827 0.12652685 -0.18542692 -0.08826188 0.0072830864 0.063128285 0.17197526 0.6862046 0.24489504 0.24579318 -0.2753866 0.56275016 0.032566354 0.41474062 0.12565199 -0.26072407 -0.46092424 0.68280196 0.039207984 -0.35217524 0.22458954 -0.45623034 -0.024196085 -0.03811293 0.11009154 0.05811803 -0.4847833 0.26017854 0.18449639 -0.10649837 -0.024439976 -0.15649278 -0.38179862 0.09131259 -0.21920446 -0.3999282 -0.08210853 -0.22689387 0.053770397 0.27591452 -0.31396046 0.25817493 0.10877927 0.318714 -0.25479344 -0.0031357738 -0.18654902 0.037614424 -0.28111455 -0.11028088 -0.055106 -0.11995582 -0.1687277 -0.23128645 -0.46989208 -0.27680978 0.18366688 0.20673399 -0.045814294 -0.3395763 0.6726773 0.20130451 0.23097958 -0.3770243 0.012299148 0.04794042 -0.12094783
287 -0.1118892 0.11284637 -0.30680546 0.0279958 -0.27827057 0.27601776 -0.2569102 0.042339034 0.05065835 -0.58470654 0.06826486 -0.04999379 -0.06623104 0.1987144 -0.2646277 0.031896155 -0.5108899 -0.041383445 -0.15685807 -0.13459153 -0.15075965 0.031569052 0.0349527 -0.07255836 -0.0077394936 0.10685614 -0.48854005 0.026039697 0.38555923 -0.06684162 0.01244189 -0.055162735 -0.46353662 0.5290963 -0.048081685 -0.17533901 -0.20992291 0.107649155 0.11312479 0.14396936 -0.043588907 0.00054297707 -0.11632284 -0.27474663 -0.017366841 0.31452146 -0.18497786 0.5023876 -0.14945565 0.29498464 0.20573346 0.007736589 0.1984155 -0.7871384 -0.3954121 0.01776372 -0.12921512 0.018053915 -0.0017287014 -0.21188852 0.20004188 0.016704593 0.10800423 -0.49172303 -0.082739785 -0.018065535 -0.243413 0.049293805 0.30512118 0.050880305 0.13781476 -0.5333368 0.76511884 -0.15635462 0.1381999 0.0069373674 -0.38533336 -0.2746013 0.41283345 -0.07177153 -0.3667527 0.020366913 -0.1415647 -0.15889233 -0.052503113 -0.03641073 0.041908246 -0.2641827 0.11612035 -0.25017887 -0.16006245 -0.17156832 -0.020575369 -0.39827242 0.35270494 -0.01059462 -0.5304145 -0.066912286 -0.40321368 0.17412284 0.098381326 -0.39648795 0.21286064 0.12122042 0.21046259 -0.15613689 0.007987135 -0.26205352 0.051042076 -0.26471534 0.13783543 -0.019259524 0.30529627 -0.035608552 -0.34400186 -0.16907899 -0.17586274 0.028518088 0.36508417 -0.16006286 -0.25821602 0.46984577 -0.13067567 -0.21653835 -0.40326038 0.13971363 -0.02702248 -0.08968397
190 -0.35483304 0.38560665 -0.4086542 0.058150258 -0.18802708 -0.082936846 -0.2806414 -0.20211929 0.06707578 -0.30808955 -0.08133937 -0.13405737 -0.05546792 0.12169625 -0.111173294 0.2733599 -0.302216 -0.26505634 -0.1805643 -0.2403755 -0.06244648 0.20017873 0.13099575 0.11195681 0.039081164 0.28093433 -0.2915488 0.3940825 0.1518423 0.1331636 -0.023129052 -0.029046886 -0.24411589 0.19025564 -0.0073005385 0.005184135 -0.26645848 0.044994358 0.08951675 0.15362121 -0.13135876 -0.16476768 -0.05986323 -0.34169745 0.149 0.13678941 0.20603457 0.47815174 0.012464844 0.5365542 0.31993246 0.07411988 0.3198798 -0.4255799 -0.019840898 0.117556125 0.060874444 0.24592426 -0.11744826 -0.18270722 -0.00086565816 -0.12626188 -0.10404029 -0.1565189 -0.15479232 -0.12810655 -0.33820245 0.028690504 0.2650642 0.31255838 0.35505736 -0.4502872 0.6129982 -0.29126552 0.13383043 0.054168534 -0.23188256 -0.23735616 0.41547328 -0.20325387 -0.6038011 0.14457203 -0.3775285 0.04472348 -0.053427715 0.126249 0.17549108 -0.34776706 0.27905393 0.10299824 -0.17538446 -0.237019 -0.15126555 0.07995565 0.37358573 -0.011328472 -0.5395287 -0.09944546 -0.3476759 0.000729084 0.033789996 -0.3689842 0.33781782 0.15895 0.19718835 -0.02323649 0.00068803004 -0.27887353 0.13191208 -0.23180212 -0.1561187 -0.2057218 0.023946697 0.1699616 -0.036548793 -0.5678349 -0.06309978 0.014243525 0.5735969 -0.19861877 0.042077187 0.56624573 -0.11857926 -0.20250066 -0.35820135 0.15703385 -0.17598714 -0.010501138
404 -0.18213147 0.39054185 -0.6571062 -0.054116465 -0.23361512 -0.0099062715 -0.2659432 -0.40046313 -0.025856862 -0.6075447 -0.030234251 -0.06288891 -0.18390931 -0.029994937 -0.1767815 0.11624267 -0.4364476 -0.20708574 -0.065842524 -0.18131563 -0.051996898 0.18402404 0.04122138 0.28053203 0.017957287 0.059673164 -0.38460484 0.16582295 0.16894114 0.110985965 -0.07260035 -0.04273333 -0.3666909 0.19775264 0.09481457 -0.15980154 -0.12330972 0.10742942 0.09993427 0.08269845 -0.17330402 -0.12678495 -0.18788436 -0.11762827 0.0648147 0.13069086 0.11985868 0.29763743 0.034425966 0.49731138 0.09865188 -0.05655006 0.052204136 -0.3293506 -0.10958293 0.04304056 0.039008535 0.13080592 0.017789809 -0.095399894 0.12946722 -0.07611598 0.104246244 -0.3624378 -0.010799422 -0.17315264 -0.27590355 0.08840255 0.23357011 0.22254732 0.39607483 -0.38959357 0.6322977 -0.03860697 0.27391657 0.12547657 -0.19414058 -0.18766029 0.53209466 -0.2678609 -0.36525008 0.15320964 -0.23787425 0.14316596 -0.1226852 0.04871364 0.123693295 -0.4372943 0.36028418 0.048429 0.023014378 -0.023942377 0.018620836 -0.21701623 0.37286115 0.07743633 -0.5922945 -0.11401852 -0.4943547 0.34202504 0.011587068 -0.53543115 0.33091533 0.28927532 0.28066218 -0.2639242 0.0062069064 -0.2722557 0.16064529 -0.32066455 -0.18297656 -0.13556294 0.117908515 0.11772064 -0.33068392 -0.5884807 0.11900742 -0.11411507 0.5983172 -0.14319806 -0.20864911 0.617744 -0.03580866 -0.15595591 -0.21975605 0.012437197 -0.16419923 0.03316787
71 -0.07798066 0.22654787 -0.46694896 -0.15955803 -0.17204654 0.09866025 -0.1926732 -0.17826028 -0.0024431762 -0.17530589 -0.111723304 0.49599212 -0.037243392 0.041042313 0.005698978 -0.18381149 -0.1855458 -0.24787828 -0.15927579 -0.45697293 0.017188936 0.012122738 0.3001306 0.23840377 -0.05184434 -0.04253061 -0.4560691 0.14436509 0.22185193 0.026711076 0.1427799 -0.084319696 -0.13851728 0.2868874 0.08991118 -0.18081397 -0.17731953 -0.047581337 0.26170465 0.12789983 -0.39469317 -0.0048556114 -0.24311596 -0.20668943 -0.06558629 -0.026260355 0.16469276 0.2612594 -0.05513911 0.3852226 -0.103568114 0.22485662 0.27882862 -0.53223515 -0.20658742 -0.35048708 -0.3516064 0.19946605 0.07477144 -0.2650834 0.26237515 0.0013714331 0.28109497 -0.20075881 -0.09719584 -0.110728905 -0.077307835 0.11735978 0.14585537 0.24111572 0.32851174 -0.39760056 0.67649764 -0.35703602 0.33963796 -0.084952086 -0.19264358 -0.51909804 0.37804654 -0.443081 -0.3703344 0.10027515 -0.22906242 -0.23726916 0.021947019 0.12530613 0.057680126 -0.08549025 0.33814785 0.23426814 0.22061844 -0.100152776 -0.12686783 -0.15208778 0.1589655 -0.03774909 -0.8439276 0.10524249 -0.14086667 0.051731717 0.121038355 -0.36312765 0.37062648 0.104468316 0.42914405 -0.29285735 -0.05647352 -0.12391584 0.039863225 0.07257274 -0.059542928 -0.30950737 0.013904599 0.11357052 -0.49925354 -0.3288756 0.23810947 -0.0025534022 0.3352138 0.0010852906 0.08120702 0.29625204 -0.11846383 -0.11333001 -0.5260421 0.08469197 -0.10618111 -0.014451051
397 -0.032765325 0.34253797 -0.50661725 0.17057873 -0.19068424 -0.045170262 -0.29166234 -0.35353747 0.17752959 -0.65019774 -0.112786 0.060207333 -0.15384838 -0.1338688 -0.2502695 0.22471805 -0.29639962 -0.17520851 0.009101468 -0.16541381 0.07459878 0.0952018 0.01119269 0.3047271 0.014861809 0.01760308 -0.55559677 0.31403458 0.10971022 0.109058715 -0.18297738 0.11576891 -0.3804279 0.44061318 -0.07402089 -0.13503268 -0.13539138 0.13762721 0.052375767 0.078047864 -0.042727273 -0.14313906 -0.20888145 0.01542171 0.02971937 0.04201933 -0.14627469 0.35417253 0.16378121 0.5143923 0.031085394 0.099157654 0.06532097 -0.46676004 -0.21118383 0.012691521 0.075285725 0.14896594 -0.12245188 -0.061486468 0.17168178 -0.028052604 0.1026034 -0.4271964 -0.017783072 -0.08127193 -0.14541285 0.09791068 0.18790515 0.31959435 0.17851648 -0.28679878 0.6357337 -0.096722886 0.06155683 -0.09337063 -0.10856098 -0.41378206 0.43234408 -0.41378018 -0.3656903 0.15764578 -0.24986637 0.10656144 -0.16323602 0.13565314 -0.123715356 -0.28111157 0.35449454 0.18341424 0.11198413 -0.038893983 -0.047826435 -0.1759979 0.058798157 -0.111873366 -0.41144916 -0.08652572 -0.42218626 0.20237271 -0.11584063 -0.4105184 0.34060037 0.30829167 0.3484448 -0.36728582 0.10794142 -0.2439756 0.17238225 0.0077675004 -0.24370852 -0.31658822 0.114859365 0.018410292 -0.29411456 -0.4711745 -0.099346764 0.027356373 0.58605516 -0.1381169 -0.41214657 0.61107594 -0.22448742 -0.036793683 -0.16849741 0.11549881 -0.056301326 0.0256995
235 -0.32554805 0.35866153 -0.21134391 -0.010745105 -0.14542452 -0.27207768 -0.2280231 -0.12223686 -0.026193434 -0.41718367 0.11783373 -0.1553373 0.124193765 0.08880004 -0.08956146 0.45995876 -0.4187986 0.039250564 -0.08957922 -0.16178246 -0.21327539 0.07325069 0.15357828 0.17449108 0.20070414 0.2265996 -0.3046026 0.338241 0.10764236 -0.24217343 -0.13236281 0.09219706 -0.29365826 0.45921102 -0.059439067 0.0008431495 0.019802297 0.11515981 0.13366424 0.21113405 -0.107904516 -0.22297575 -0.17901851 -0.2867771 0.0582183 0.16402622 0.024466282 0.5169547 0.09194821 0.33343285 0.4145513 -0.009485508 0.1475998 -0.523134 -0.12541646 -0.26721957 -0.052670106 0.47403172 0.002754834 -0.13619559 0.12033968 -0.17983684 -0.15959546 -0.42575315 -0.2897863 0.06836558 -0.37940964 -0.01851974 0.39927408 0.60355675 0.16272615 -0.26912037 0.5483335 -0.1998486 0.21706732 -0.01722628 -0.39864436 0.019586004 0.56627125 -0.23714378 -0.55081856 -0.026480103 -0.36352578 0.07664141 0.28852457 0.037742417 -0.1931467 -0.4572226 0.29095435 0.06857839 0.06528598 0.13088779 0.03500044 -0.20698549 0.09162406 -0.008543356 -0.80359805 -0.04645621 -0.10013091 0.024237834 0.21647583 -0.2255647 0.3487587 0.3052426 0.27944523 -0.23392639 -0.09590642 -0.18758895 0.19321777 -0.05104614 -0.087933555 -0.077709556 0.079612054 0.24725604 -0.09963166 -0.35077748 0.12358714 -0.013865845 0.44971487 -0.13546553 0.0022649667 0.44293126 -0.05036223 -0.07489879 -0.54372567 0.14997093 0.11990112 -0.100835085
61 -0.13330771 0.05657416 -0.27508166 -0.07664654 0.026547138 -0.16949895 -0.20913814 0.22040696 0.08196765 -0.31299856 0.026454508 -0.24990556 0.06915906 0.017855586 0.00011487442 0.44605574 -0.35562444 0.041152302 -0.12735434 0.11294088 -0.088193774 0.17270291 -0.2312581 0.17321838 0.013377578 0.13914467 -0.43195567 0.06501535 -0.0072459322 0.14192824 -0.14014971 -0.060786575 -0.50178117 0.3958454 -0.03685661 -0.032940842 -0.028185135 0.077339284 0.012195546 0.16103601 -0.2841467 -0.19893092 -0.17933099 -0.042519063 0.113388315 0.00971778 -0.045312207 0.43283588 0.16489807 0.24895957 0.49251774 -0.07949654 -0.022783697 -0.23829511 -0.19334187 -0.156536 -0.20138007 0.35029352 -0.06270768 -0.2743271 -0.09980498 -0.18742014 -0.14874439 -0.30245486 -0.289054 -0.03985086 -0.42006505 0.052481893 0.23500256 0.42461634 0.0811277 -0.436209 0.69057685 -0.30496642 0.034489106 -0.17573905 -0.28512046 -0.21137084 0.60151434 -0.08557183 -0.51027113 0.06911362 -0.33451015 0.030034479 -0.031722948 -0.30397072 0.076854415 -0.13888712 0.19094062 0.2887756 -0.115982756 -0.041478124 -0.25414133 -0.57286924 0.069155 0.07063393 -0.60963506 0.022766009 -0.21251552 0.4063957 -0.02287043 -0.52113616 0.26343632 0.19816032 0.34370568 -0.48191768 -0.344222 0.063701026 0.06743871 -0.23466064 -0.33106583 -0.31547782 0.1893419 0.43238845 0.003967985 -0.2289001 -0.03922674 0.1698234 0.45967394 -0.047505908 -0.082467146 0.5965048 0.07541862 -0.13529938 -0.5347183 0.16537565 -0.03457865 -0.10723588
100 0.27694002 0.26175684 0.15150295 0.0030159433 -0.13259912 0.13247564 -0.19353783 -0.4422365 0.10864368 -0.21886969 -0.06361193 0.020833112 -0.31714314 0.06958304 -0.0025314142 -0.038942333 -0.2787868 -0.3713566 0.00833043 -0.04831459 0.11473919 0.2765751 -0.025047205 0.0858156 -0.12503608 -0.033874895 -0.5560851 0.17539813 0.18757622 -0.31225157 0.13293475 -0.19646278 -0.54692894 0.2116056 -0.056710996 0.06472887 -0.24311142 0.05533063 -0.080891155 0.27709675 0.099776685 0.065613665 -0.042988416 -0.33117667 -0.014393167 0.24385013 0.13332854 0.47882786 0.13947183 0.19994663 0.616246 0.18023707 0.34622613 -0.69703025 -0.51288027 -0.10277322 -0.24828267 0.3618022 -0.045619108 -0.15530196 0.033191994 0.053518254 0.22038771 -0.39626607 -0.14214887 0.122658476 -0.15786791 0.0049721785 0.26746783 0.1355565 0.03191244 -0.7757089 0.76104516 -0.23514841 0.0871045 0.02261136 -0.18382692 -0.5120818 0.24361467 -0.102988325 -0.5265634 0.30729383 -0.39170188 -0.028079163 0.102654144 0.059206583 0.020212373 -0.20856388 0.26545224 0.033669397 -0.0013634639 -0.3541925 -0.11604197 -0.09240587 0.2833333 -0.1505511 -0.48679614 -0.045694944 -0.1532618 0.2788252 0.0024805744 -0.32574853 -0.20542388 -0.03783831 0.1860425 -0.18901467 0.12574208 -0.21481748 0.048973925 -0.51164734 0.0029175116 0.042017404 0.20970939 0.120075144 -0.36918852 -0.2332516 -0.029458372 -0.08324136 0.38430044 -0.08944966 -0.0275317 0.31890512 -0.30458465 0.046571873 -0.48281226 0.07306938 0.100733 0.0029370415
176 -0.029488407 0.42009905 -0.3692642 0.089421876 -0.026010176 -0.06880307 -0.054358058 -0.0038157345 0.12864225 -0.1432489 -0.08232175 0.06490005 -0.20564543 0.069187574 -0.07875036 0.06391317 -0.39919496 -0.33196846 0.038854454 -0.17175214 -0.01937372 0.33639959 0.43335477 0.022886436 0.07656733 -0.11696975 -0.48256692 0.13567579 0.29027334 0.028501635 -0.13554637 0.111172676 -0.28584474 0.47718394 0.03960462 -0.18757112 -0.22923517 0.07166862 0.06960754 0.10722336 -0.016969884 0.05926929 -0.19131288 -0.2510116 0.062788114 6.2368286e-05 -0.067726105 0.34811437 0.16292496 0.32776937 0.31136173 0.25655243 0.116349086 -0.52736515 -0.32379502 -0.16979584 0.036425993 0.15290292 -0.12803453 -0.23276697 0.14635912 0.10826137 -0.026143102 -0.28360033 -0.16970012 -0.022585811 -0.19159155 -0.15156521 0.3393053 -0.050968297 0.03521595 -0.45137525 0.7010777 0.001906699 0.18047222 0.0074659223 -0.29632154 -0.29340824 0.37061176 -0.12591672 -0.33100238 0.25352678 0.084554866 -0.07962674 0.16865876 0.10862647 -0.1095734 -0.067162804 0.19518098 -0.20754988 -0.019616688 -0.013637906 -0.09599891 -0.27484453 0.26060787 -0.23121919 -0.3727214 0.020243252 -0.23974943 0.08836944 0.10464389 -0.34292743 0.16649199 -0.052000813 0.50119114 -0.08513087 -0.019407721 0.018811587 0.3733978 -0.22135973 -0.09831161 -0.21084285 0.2558743 0.047350287 -0.38836676 -0.42109087 -0.16248251 -0.0582256 0.34562904 0.013606271 -0.062442075 0.3938687 -0.03213231 -0.11444034 -0.7495338 0.15812463 -0.058372676 -0.10727834
87 0.12439604 0.21298648 -0.17548354 -0.13586862 -0.011035281 0.15856147 -0.2826726 -0.22696179 0.011659428 -0.26948133 -0.25601378 -0.089586 -0.1342505 0.10119209 -0.010136604 0.013978359 -0.40023404 -0.19883245 -0.04166916 0.009313303 -0.20836827 -0.048373293 0.19924003 0.14341067 0.17364788 -0.1405817 -0.21883145 0.12130825 0.24054073 0.23211056 -0.31228712 -0.059440244 -0.47052398 0.38059875 -0.037432462 -0.06197398 -0.31863227 0.028726334 0.34266567 0.1409309 -0.17176689 -0.17805542 -0.25630775 -0.14705351 0.339624 -0.090182394 0.3315605 0.43737638 0.18901454 0.40126738 0.31035405 0.19749321 0.3755769 -0.54284316 -0.28524506 -0.23557493 -0.07812853 0.15457489 -0.046066105 -0.17428166 0.046080854 -0.11390194 0.19876486 0.09402199 -0.085984476 0.02601105 -0.26103064 0.19604966 0.30855995 0.1130287 0.2715532 -0.6067124 0.5741798 -0.04244132 0.31655383 -0.09579081 -0.18233922 -0.35734537 0.4942883 -0.053548887 -0.29598927 0.15141197 -0.5682058 0.0019738327 0.18559714 0.2833674 0.1861955 -0.1617122 0.35676447 0.06308404 -0.05512046 -0.078132376 -0.07461852 -0.28568807 0.18425131 -0.10466327 -0.47096702 -0.09239006 -0.1439911 0.028578436 -0.062075935 -0.30480936 0.19649498 -0.006962863 0.38445917 -0.085848145 -0.033011016 0.0007673737 0.028083546 -0.3349825 -0.17166206 -0.19312565 0.13373753 0.18600427 -0.21185324 -0.36816996 -0.08402293 -0.01999717 0.29294527 -0.06702278 -0.28547698 0.5172002 0.017614944 0.100683376 -0.5046668 -0.08686807 -0.117587864 -0.1969318
193 0.032187402 0.2502144 0.20003738 -0.18320662 -0.14326866 0.12913752 -0.52978873 -0.08272618 0.2282466 -0.36499536 -0.15491088 -0.349009 -0.20458949 0.06798572 -0.1614329 0.24490969 -0.15054363 0.11156356 0.027815245 -0.14691539 -0.030338673 -0.025180476 -0.20749985 -0.08074347 0.01490981 0.011196459 -0.2933632 0.007923919 0.18745251 -0.09009736 -0.095086455 -0.21170124 -0.4430894 0.20631039 -0.090227716 0.0226131 -0.36533305 0.24493237 -0.045965225 -0.15733585 0.012193189 -0.2883255 -0.27384302 -0.034805115 0.05136641 0.029287979 -0.04980594 0.27939114 0.50550807 0.31659707 0.28184953 0.18285012 0.42326346 -0.14968565 -0.06892082 -0.29808074 -0.06564731 0.5205148 -0.022063065 -0.018802123 -0.16076882 0.067486964 0.04431764 -0.11045511 -0.28950685 0.14747159 -0.24977912 -0.04457764 0.1649239 0.2771716 0.21030115 -0.5166378 0.70199007 -0.24853475 0.36964515 -0.22551504 -0.33420524 -0.5291137 0.3340031 -0.31618193 -0.4019363 0.3025251 -0.3042846 -0.029903667 0.1423479 0.036454253 0.12504143 0.108289704 0.06439474 -0.07710142 0.095101304 -0.06827515 -0.13672006 -0.21376391 0.17011912 -0.05388136 -0.57401764 -0.12603399 -0.08402522 0.23381379 0.048848696 -0.3571578 0.1873158 0.25086936 0.5261235 -0.29961234 -0.24874648 0.2081031 0.1543162 -0.318431 0.04008646 -0.48488137 0.24723907 0.25227746 -0.37417117 -0.22070877 -0.020216849 0.117437825 0.52381927 -0.14373383 -0.32264468 0.34920356 -0.4595937 0.05320256 -0.49334562 -0.20446634 -0.15085419 -0.33397177
399 -0.09016206 0.051988732 -0.42826557 -0.033773918 0.004100272 -0.02114134 0.06991083 0.10159277 0.02261547 -0.48052767 0.039255798 0.21397232 -0.101615205 0.17719106 0.10997933 0.038271435 -0.2652338 -0.018585157 -0.064770654 -0.15373996 0.02878884 0.28329247 0.0836504 0.05442498 0.17760456 0.25963095 -0.4041809 0.2055416 0.2740965 0.042705625 -0.25269467 0.095050104 -0.1313844 0.034688413 0.103572205 -0.06675665 -0.27864772 -0.030555818 0.36188278 0.22938399 -0.13944 -0.11359453 -0.083517335 -0.0884122 0.104796804 -0.008277685 0.039519258 0.4725479 0.24434805 0.23753496 0.20405042 0.18127495 0.16156715 -0.50824594 -0.25546646 0.032986157 -0.1534373 0.28285187 -0.02262347 -0.38190463 0.2528766 0.18853591 0.06098456 0.020661844 -0.25395414 -0.13792773 -0.34050226 0.20399962 0.40222263 0.16702439 0.2615061 -0.34567422 0.5887358 -0.28476688 0.24595913 -0.09759767 -0.07973721 -0.6345945 0.5424622 -0.3545737 -0.24933457 0.25058234 -0.42173377 0.3428121 0.1957729 0.014676433 0.18102318 -0.27041245 0.36041057 0.12614436 -0.1948664 0.14697614 0.0985544 -0.23515493 0.17326777 -0.30872315 -0.49906677 -0.02202396 -0.028130595 -0.021396248 0.47435167 -0.39659497 0.2161104 0.2260783 0.55678 -0.2756238 0.1753257 0.024913503 0.07328745 0.109274246 -0.16036241 -0.527838 -0.024641396 0.2415348 -0.42685783 -0.26961255 0.014141244 0.0054913154 0.76512426 -0.31347784 -0.05040808 0.32594416 -0.05077267 -0.027276544 -0.44072735 0.18212102 -0.1627712 0.074083544
296 -0.08581113 0.29252538 -0.56657463 -0.16246165 -0.37897357 -0.10694396 -0.21569003 -0.30657157 0.21222463 -0.30773035 -0.046399694 -0.09339773 -0.19840944 -0.1951896 0.06319903 0.2587161 -0.36930683 -0.06297831 -0.01533624 0.01836217 -0.0063988385 -0.023219472 0.17952228 0.25589326 -0.0147238085 0.06377419 -0.24714631 0.37605894 0.07103028 0.21167846 -0.1132709 -0.14966331 -0.19038518 0.29034203 0.16349784 -0.24632862 -0.14088571 -0.024899399 0.015872605 -0.017964812 -0.21508816 -0.04008219 0.097395815 -0.25270015 0.10783645 -0.10459612 0.29351002 0.0305333 0.21272494 0.28033507 0.118433766 0.16072361 0.08686659 -0.678535 -0.15131041 -0.348208 -0.18895423 0.2727669 0.082448475 -0.07186848 0.060683865 -0.12908894 0.024963148 -0.4463784 -0.08722422 -0.16094209 -0.2702943 -0.06527567 0.48380092 0.16341181 0.5470688 -0.3665541 0.5947534 0.07985792 0.38509554 0.034036744 -0.42851022 -0.3843144 0.55260867 -0.102374256 -0.41560975 0.08112105 -0.28806347 0.04777998 0.03310702 0.111681476 -0.0105193285 -0.20357491 0.21677445 0.25798336 0.1120276 -0.22615053 0.036752984 -0.25903606 0.27896473 0.08363775 -0.7341366 0.099605024 -0.20325026 0.35531545 -0.090731576 -0.5460716 0.32183874 0.21875364 0.27554324 -0.37971053 -0.18692237 -0.325136 0.14868675 -0.01806512 -0.25551155 0.12853214 -0.0060015083 0.28822708 0.09922758 -0.28320286 0.2202758 0.01577207 0.40784743 -0.1668296 -0.16448453 0.48109424 -0.044264067 -0.22393352 -0.4210056 -0.26877096 -0.013983959 -0.031919926
408 -0.06912685 0.21596482 -0.5009691 0.3238175 -0.231858 0.086075 -0.16987145 -0.04171223 0.33480632 -0.4987638 0.3189669 0.12532476 -0.19099602 -0.08743016 0.06240946 0.21884568 -0.40477785 0.02979294 -0.3327541 -0.062734 -0.14139155 0.1754732 -0.03817231 0.29245576 -0.0020399604 -0.053374972 -0.28791985 0.20782372 0.19972125 -0.04416173 -0.1311813 -0.16385037 -0.15708843 0.36352438 -0.056658994 0.08196638 -0.17572294 0.3080686 0.1512397 0.019064931 -0.23972017 -0.07363196 -0.017244231 -0.28466287 0.15454435 0.08956243 0.095047645 0.4354069 0.12998399 0.42502505 0.033694517 0.17296389 0.40921247 -0.525723 -0.22049241 0.10929556 -0.065520704 0.19839887 0.18212333 -0.2844235 -0.0137666995 -0.073259346 0.06173881 -0.2555403 -0.2563674 -0.33306918 -0.19085546 -0.086510696 0.35871893 0.18972012 0.19825213 -0.60122055 0.8062644 -0.23661494 0.24880907 -0.17917185 -0.28623274 -0.2797522 0.5667888 -0.20866525 -0.17367356 0.10511255 -0.4345207 -0.15362911 0.011979736 0.0786259 0.026536671 -0.12978896 0.3433479 0.0138496235 -0.11533571 0.04127044 0.05002142 -0.41443008 0.20738661 0.057192743 -0.38610968 0.029525748 -0.09283573 0.15208654 0.16202106 -0.31041178 0.21848014 0.27431327 0.07667751 -0.2764659 0.3592907 -0.0893317 0.078778684 -0.17466472 -0.15746449 -0.28723025 -0.11104873 0.25069928 -0.5545435 -0.3939649 0.02665583 0.12846668 0.2943254 -0.22540835 -0.12504946 0.26036233 0.000494561 -0.13870493 -0.29442263 0.119276896 -0.23403333 -0.011020698
316 -0.05085322 0.10165043 -0.39118835 -0.18353535 -0.2366346 0.049088266 -0.27143416 -0.10293235 0.13639149 -0.44371402 0.16205217 -0.011042657 -0.11904213 -0.09534703 0.060967196 0.014372924 -0.49120063 -0.18142581 -0.13407473 -0.2899467 -0.045416623 0.020734796 0.28074625 -0.004401407 0.109959364 0.06555502 -0.5750444 0.29454803 0.29591787 0.32755888 -0.33787438 -0.012637015 -0.30351174 0.3039858 0.017923929 -0.13001987 -0.27631143 -0.0046658884 0.18111813 0.1131357 -0.22162272 -0.14468399 -0.27130115 -0.23189224 0.24384509 -0.076292545 0.44097647 0.20300747 0.07525307 0.5228666 0.13989231 -0.02567094 0.088488676 -0.3453229 -0.11876265 0.049796883 0.038084175 0.08872989 -0.21354814 -0.09018369 -0.030589845 -0.033162978 0.04876161 -0.09964809 -0.06557189 -0.08350219 -0.22665311 0.031487923 0.36604396 0.26981562 0.3425196 -0.4510728 0.5728571 -0.1146466 0.30231446 -0.23536645 -0.13863453 -0.3864218 0.5717626 0.10313278 -0.53127605 0.44371584 -0.33841863 -0.0020402751 -0.03382851 0.17578645 -0.01869799 -0.2750465 0.31857508 0.16415188 0.13045678 -0.13519108 -0.058849964 -0.2634027 0.36590523 -0.20608252 -0.5147903 0.102559276 -0.2797667 0.19910584 0.017843101 -0.4564059 0.0834359 -0.07615503 0.4039257 -0.2629394 -0.014147073 -0.08407313 -0.022632826 -0.21932 -0.08636101 -0.1846521 0.03450085 0.18421675 -0.37195614 -0.36175656 0.10526028 -0.07736702 0.52774745 -0.25103113 -0.0661511 0.6228955 0.0075423685 -0.19682585 -0.39861754 -0.046296403 -0.14858642 -0.29016685
323 -0.0057115904 0.13664319 -0.13489462 0.17423731 -0.25740844 0.03922914 -0.088443264 -0.012625588 -0.16006675 -0.41473597 0.22690912 0.0069875573 -0.08092528 -0.10539873 -0.18091547 0.12015171 -0.4864507 -0.16146286 0.08660166 0.022361958 -0.1193431 0.060497966 0.27271196 0.33970153 0.10041411 0.12158627 -0.23177287 0.3518952 0.06629343 -0.22665246 0.30978993 0.022231929 -0.58997166 0.4791528 0.018644357 -0.25917244 -0.21959203 0.045154884 0.48189667 0.2752564 -0.24972802 0.11602535 -0.1796186 -0.2326503 -0.05312103 -0.06391549 0.2669366 0.37039262 0.2018777 0.28985173 0.5059863 0.18327358 -0.14813833 -0.68948716 -0.57923037 -0.008167136 -0.009417135 0.3363318 -0.061223008 -0.34242916 0.23997824 -0.0092154145 -0.06127919 -0.40973437 -0.040124744 -0.13018905 -0.1309462 0.043100238 0.17126058 -0.025920205 0.42510507 -0.46772838 0.47021067 0.057576813 0.24852231 -0.14169173 -0.15133077 -0.20820302 0.75150216 -0.1138152 -0.15684961 0.24227034 -0.3763425 -0.10075478 -0.09186594 -0.064708084 -0.04537538 0.03178647 0.14675803 0.20416062 0.12088146 0.016761245 0.06461857 -0.671859 0.37994236 -0.10603078 -0.6986929 -0.050306156 0.06859542 0.23949681 0.09944675 -0.4862723 0.18118146 0.34691793 0.4073841 -0.4626846 -0.060545933 0.0083723245 -0.0020869467 -0.23610999 0.104766674 -0.16782825 -0.07769931 0.26523918 -0.07941506 -0.15455814 -0.09462749 -0.025784595 0.45034862 -0.09920639 -0.16191356 0.22564676 -0.3180198 -0.057698693 -0.5878347 0.116969116 -0.060339138 -0.07765068
259 0.10617511 -0.07476194 0.039871626 0.1600621 -0.10763304 0.08471431 -0.23790252 -0.13138169 -0.10743283 -0.51404655 0.1630184 0.009543239 -0.011186907 0.23981324 -0.30306283 0.18261029 -0.20172572 -0.25134125 -0.19618541 0.066637434 -0.06886109 0.15545912 0.16107392 0.028503241 0.24523534 0.031156408 -0.46636355 0.28293368 0.21780871 -0.12195471 0.14829685 -0.17173903 -0.40138656 0.440836 0.1441826 -0.19047382 -0.09414666 0.09761062 0.283901 0.020805772 -0.052272215 -0.24171756 -0.18543439 -0.19887239 0.011416868 -0.046782874 -0.04820782 0.34832075 -0.041249275 0.3510964 0.3941747 0.29261535 0.1663025 -0.70214397 -0.11750999 -0.14823048 -0.12230242 0.30785602 -0.1026817 -0.17931876 0.039328482 -0.17128752 -0.23749599 -0.36052588 -0.07852011 -0.18157855 -0.01815986 -0.10869265 0.4294482 0.14477208 0.167506 -0.32578102 0.49106368 -0.067943424 0.09233921 0.032139868 -0.23292305 -0.61310893 0.48037282 -0.14004044 -0.29082474 0.15857668 -0.31568378 -0.19889113 0.080675274 0.08595366 -0.1663 -0.16463101 0.20372951 0.22261336 0.10525433 -0.11969477 -0.23063786 -0.073001385 0.43752906 -0.38620284 -0.6036495 -0.27053505 0.039090116 0.1734765 0.16858146 -0.42400044 0.33685607 0.16110057 0.42247444 -0.348435 -0.04663768 -0.21805315 0.18228924 -0.29131293 -0.1621337 -0.05673564 -0.17471445 0.25594994 0.008088007 -0.27367276 -0.40046155 0.12748924 0.29261324 -0.29835722 -0.36708108 0.40998814 0.07206262 -0.057658803 -0.5747022 -0.013739337 -0.044577092 -0.06960579
11 -0.005714194 0.32329178 -0.072327755 0.058235478 0.042950425 0.16545783 -0.09099655 -0.047689714 0.18313803 -0.14634638 0.0023835464 -0.0027997312 -0.16887228 0.15422724 -0.20157143 0.031464104 -0.3940887 -0.35490775 -0.034793757 -0.07508878 -0.2082294 0.19898628 0.07915748 -0.10739427 -0.078972496 0.0007261054 -0.37750334 0.20523915 0.18121547 0.051663235 -0.03755818 -0.08055753 -0.27834505 0.3866473 0.010415319 0.041009013 -0.25378203 -0.06752058 0.026550692 0.20241095 -0.08264974 0.02524197 -0.14950109 -0.3375385 0.023440195 0.2869085 0.10218103 0.4835912 -0.10631855 0.20944573 0.22965823 0.19218397 0.1465123 -0.5660412 -0.40735745 0.032471802 -0.21438089 0.03929025 -0.008371001 -0.2562171 0.18693155 0.036126792 -0.012198388 -0.5137958 -0.013271035 0.012263448 -0.34833598 -0.074261695 0.4477665 0.21619101 0.23586084 -0.61024547 0.78831786 -0.14094193 0.10151347 0.009691568 -0.16354649 -0.2983697 0.49893326 0.02795299 -0.61346674 0.2017658 -0.21796319 -0.29374623 -0.07845439 0.08963227 0.1280665 -0.09187433 0.3203384 -0.23754717 -0.2862475 -0.3928111 0.077947505 -0.13994361 0.32900915 -0.15586857 -0.45045328 -0.13423358 -0.45289868 0.14537965 0.13213068 -0.28245336 0.043616373 -0.015443303 0.025609478 -0.058790196 0.06312291 -0.13387163 0.06572829 -0.50994647 0.10070586 -0.070540324 0.12597911 -0.16232774 -0.3026771 -0.48390764 -0.23555258 -0.023754817 0.36349705 -0.17616718 -0.16199714 0.5269998 -0.15046427 -0.22014827 -0.5608897 0.23863836 -0.0102269305 -0.097908
123 -0.23173566 0.013558477 -0.2838733 0.2587438 -0.14602913 0.1969282 -0.3885349 -0.22557285 0.13166831 -0.10398216 -0.0176076 0.0471475 0.023486843 -0.1234172 0.12513603 -0.15741573 -0.08437294 -0.24542275 0.022158379 -0.056180816 0.0013252975 0.19419022 0.3139177 0.30233636 0.13637851 0.043114144 -0.18934657 0.33446807 0.19537266 0.018447725 -0.013928415 -0.134266 0.1017546 0.11812317 0.09030747 -0.23991685 -0.33937877 -0.16194266 0.3645959 0.38485688 0.0130295195 -0.010151315 -0.13475086 -0.11733927 0.20567936 -0.08616686 0.06262722 0.4825168 0.0882351 0.40883577 0.22339016 0.36487615 0.44847247 -0.6175363 -0.2649126 0.022584904 0.08655177 -0.045533627 0.110687725 -0.104606934 0.18477622 0.18063775 0.17604508 0.047283486 -0.21922815 -0.0018203012 -0.13550007 0.20310128 0.16963448 0.27557868 0.49180642 -0.2710202 0.77862257 -0.15168616 -0.0053884597 -0.34411713 -0.21208896 -0.28027093 0.40501812 -0.11128403 -0.22784735 0.15613294 -0.37566835 0.14729548 0.18009852 0.26669174 0.2290291 -0.39169443 0.09437873 0.16096598 -0.0498244 -0.17572907 0.13907082 -0.44654652 0.35385823 -0.14415996 -0.6676704 0.0904824 -0.22735316 0.108481064 0.17451806 -0.48334873 0.10451184 0.111678675 0.5789618 -0.014513473 0.0020837018 -0.18103956 0.11610271 -0.1380746 -0.042722166 -0.43839788 0.049881864 0.11358295 -0.5235096 -0.30216935 0.13369602 -0.41374135 0.41877612 -0.27306697 -0.09784167 0.3163942 -0.34830645 -0.2637219 -0.5316979 0.2930667 0.1657992 -0.2068673
388 -0.07031536 0.29519844 -0.07717272 -0.034508977 -0.24587889 -0.3105251 -0.015126746 -0.080533944 0.003885019 -0.57031834 0.16551358 -0.06911024 0.13682257 0.024190357 0.0360937 0.21097729 -0.3589848 0.0056007495 0.020450233 -0.0059659216 -0.0123982765 0.05887131 0.045417167 0.02669839 0.27862677 0.08012386 -0.40826505 0.28154022 0.12828146 0.101629205 -0.15730976 0.17284164 -0.3138094 0.4639487 0.038314395 -0.21944325 -0.16605677 0.26494327 0.13484493 -0.015503101 -0.20976241 -0.21311724 -0.13747014 -0.13030161 0.19498022 0.1874947 -0.006266393 0.55748385 0.04917695 0.34738794 0.41503564 -0.025934972 0.14597866 -0.51770777 -0.23495378 -0.28050888 -0.018760333 0.42503667 0.0853305 -0.28822494 -0.03341144 -0.055231214 -0.16039413 -0.30459365 -0.23791347 0.061529268 -0.36057317 0.045864556 0.2631554 0.29677656 0.22244841 -0.29767755 0.6994785 -0.22209376 0.37750947 0.07035021 -0.19549377 -0.06841812 0.36286816 -0.2549766 -0.6644517 0.20009683 -0.29952535 0.16591993 0.04843629 -0.00054999045 0.015897349 -0.40387788 0.31651047 -0.094961256 0.21376535 0.1472115 0.00059332885 -0.05801027 -0.12694772 -0.090923496 -0.59462684 -0.0049480135 0.0020791565 0.053949002 0.25635716 -0.43741027 0.5206778 0.18517986 0.31346336 -0.43057728 0.02512475 -0.15783997 0.2504347 0.030192884 -0.25638834 -0.26577246 0.16760539 0.30529186 -0.13766593 -0.4095089 0.05014927 -0.23316313 0.48062083 -0.13365287 0.065052584 0.50051767 -0.13066313 -0.1271202 -0.683078 0.20283939 -0.07983028 -0.08758415
219 -0.11325304 0.24643308 -0.34850702 0.07834571 -0.025046615 -0.06193006 -0.23549092 0.016431885 -0.05858167 -0.40437713 -0.028217977 -0.036340613 -0.27562082 0.32669753 0.15518749 0.25713965 -0.31894076 -0.22286032 -0.16611215 -0.16260867 -0.14155443 0.10915 0.17345676 -0.03824168 0.19276156 0.21169691 -0.0200396 0.22301093 0.17484805 0.34586805 -0.29084492 -0.16378123 -0.26180375 0.4995586 -0.121669054 -0.04789896 -0.25503427 -0.14841296 0.2080194 0.36501873 -0.076910466 -0.060884394 -0.2671001 -0.20695062 0.24518336 -0.047237717 0.30779454 0.44613317 0.3680748 0.2686481 0.37704036 0.2137808 0.014120927 -0.533105 -0.392088 -0.25102818 -0.34131378 0.06425714 -0.12586261 -0.16777144 0.086569406 0.090215474 0.079434164 -0.35740575 -0.04063383 -0.065974504 -0.31821108 0.08427374 0.35228828 0.10751553 0.15282433 -0.40682647 0.6564624 -0.12929258 -0.0035278942 -0.23157248 -0.09642468 -0.42854497 0.67372346 0.08347043 -0.3446946 0.26491496 -0.25982457 -0.00011526226 -0.0053014387 0.23420975 0.35988674 -0.002601658 0.23263623 -0.03891886 -0.00014435506 -0.24715737 -0.03237341 -0.3169204 0.21612097 -0.0056030364 -0.41717175 -0.068451725 -0.11791103 0.05307385 0.18109426 -0.20889324 0.40780982 0.14501178 0.089365594 -0.27401403 0.104791634 -0.10923537 -0.0850715 -0.17416705 -0.02240328 -0.36594325 -0.027277939 -0.05238875 -0.49738604 -0.3117276 -0.04588087 -0.41793987 0.32384932 -0.22667024 -0.1381105 0.58869755 -0.18079488 -0.2363285 -0.550116 0.18646806 0.12147373 0.047218956
94 0.06853265 0.35277528 -0.25464448 0.15680932 0.07544731 0.007485497 -0.2012139 0.09372293 0.08490397 -0.32489794 -0.17815731 0.09888962 -0.04351125 0.3272596 0.0941238 0.0934154 -0.33359805 -0.258294 -0.09357984 -0.16433461 -0.07801088 0.19650961 0.4352505 0.18512419 0.0030662026 0.29511914 -0.16131431 0.056234997 -0.05425333 0.15545554 -0.18864056 -0.12874563 -0.34805834 0.33951113 -0.07197927 -0.01342337 -0.35866696 -0.11156754 0.15009338 0.3923155 -0.1973649 -0.08513352 -0.19701156 0.06818396 0.31865782 -0.08603866 0.36963463 0.47259384 0.13176875 0.20907024 0.36585844 0.25304967 0.15491903 -0.42590275 -0.31723043 -0.13210127 -0.26602176 0.082290806 -0.053041756 -0.20523962 0.25119716 0.15079804 0.115616135 -0.268066 -0.05891542 -0.08529759 -0.36626756 0.089402616 0.12951797 0.04633088 0.1356268 -0.5130682 0.8029545 -0.21352224 0.101125605 -0.28271207 -0.18294682 -0.4346046 0.78956574 0.120168395 -0.36096293 0.34470376 -0.3081845 -0.07093067 0.15659073 0.053512752 0.4674787 -0.029878467 0.49658534 -0.15373705 -0.08343019 -0.2527349 -0.09099723 -0.3023455 0.17020547 0.03160129 -0.40883225 -0.20323667 -0.27469862 -0.10471495 0.04878402 -0.29790366 0.45247722 0.21789862 0.18230814 -0.35118648 0.10584093 -0.06665767 0.08524101 -0.2793746 -0.049021926 -0.30309474 -0.11159262 0.09022732 -0.7410425 -0.3665622 -0.10870344 -0.2162797 0.29208466 -0.18874817 -0.04398775 0.51109344 0.041452132 -0.24754494 -0.5535747 0.2453369 0.23053275 0.14033294
364 0.070813976 0.38642275 -0.53364354 0.14338861 -0.27489388 0.07218831 -0.18613371 -0.028548913 0.120263495 -0.6677637 0.030757092 0.12229389 -0.1991476 0.22868498 0.08366559 0.07384952 -0.29072887 -0.024192745 -0.25163984 -0.07088305 -0.05848746 0.16594698 0.09611284 -0.0023305926 0.3231532 0.17932945 -0.44241044 0.15699086 0.06276236 0.13951786 -0.0799458 -0.19669326 -0.1373498 0.2557053 0.08344377 -0.26940402 -0.30005914 0.2154472 0.2802838 0.16731556 -0.16554084 0.0182028 -0.3663189 -0.19022666 0.16661173 0.114702225 0.039831504 0.32392237 0.17356397 0.29634154 0.13329487 0.26378667 0.25263932 -0.28135675 -0.58068806 0.06549479 -0.25800323 0.20403498 0.0914496 -0.18197855 0.098767176 0.0858276 0.16717319 -0.13532111 -0.28888774 -0.33043057 -0.051998843 0.08390868 0.11307832 -0.030316466 0.059690155 -0.503698 0.62327904 -0.32424858 0.22745897 -0.23040716 -0.069744915 -0.62424594 0.40088233 -0.19460954 -0.22956309 0.24124764 -0.2679498 0.05097976 -0.055009995 0.025326189 0.23316108 0.02638997 0.2034491 -0.038534205 0.097269624 -0.09102651 -0.15551764 -0.15929005 0.34887546 -0.040449146 -0.5099849 -0.05300213 0.07804206 0.15600099 0.15233064 -0.46300098 0.30634513 0.2933083 0.27718788 -0.35344368 0.20374897 -0.11187167 0.08608625 0.0076440778 -0.015087359 -0.38678867 0.056446187 0.08157316 -0.38211402 -0.359328 -0.07790037 -0.07719077 0.49168307 -0.3589195 -0.27251732 0.32441354 -0.13579051 0.05782213 -0.5020923 0.2019345 -0.026712542 -0.0034713247
73 -0.05221146 0.38284752 -0.37413925 0.18070818 0.14620237 0.16585447 -0.3842174 -0.30503958 0.29084352 -0.35424733 -0.27380368 -0.0077108773 -0.31193727 0.21471716 -0.14854248 0.28263804 0.0145503 -0.317392 0.14324993 -0.08014103 0.0053963913 0.19069378 0.21460333 0.084729314 0.16220446 -0.26134378 -0.33261818 0.26525527 -0.15718514 0.07573274 -0.082748786 -0.05345556 -0.3426685 0.473959 -0.20401114 -0.0031965228 -0.3301274 -0.124131985 0.061406355 0.18738417 0.1498059 -0.18741076 -0.23332894 0.035232596 0.17923217 -0.09609314 0.00063381594 0.24363942 0.22815888 0.15010852 0.037642714 0.3680857 0.046590332 -0.52282774 -0.13821635 -0.19544147 0.07886718 -0.020513333 -0.13148478 -0.116669625 0.14246996 -0.25413036 0.093114324 -0.08998274 -0.057488456 -0.1712961 -0.17087017 0.026573319 0.3448849 0.4299829 0.44248533 -0.38833913 0.8230748 0.082323775 0.30461884 -0.31466576 -0.025338177 -0.3771678 0.6389006 -0.107608646 -0.1101722 0.18055822 -0.17247513 0.2004554 0.15961689 0.21868786 -0.14090599 -0.36174256 0.5409736 0.1480944 0.32148343 -0.2617281 -0.021759463 -0.3117477 0.3111243 -0.07931312 -0.63335025 -0.02540947 -0.14001432 0.13178967 0.112854674 -0.4246524 0.3186359 0.3297337 0.33486605 -0.3637683 -0.0045658834 -0.027182063 0.21694204 -0.03617811 0.048373785 -0.13924925 0.10297712 0.17135112 -0.35641047 -0.49287432 0.06471705 0.055360105 0.37931785 -0.08610908 -0.37239033 0.4148755 0.1299682 0.17392151 -0.17483312 0.41272318 0.24643749 -0.07581589
57 -0.029081691 0.27338168 -0.39450917 0.08092241 -0.3980964 0.18811695 -0.09281796 -0.08930531 0.101646185 -0.38566834 -0.04645527 0.2307443 -0.025919596 0.08212277 0.11733477 -0.1705293 -0.21770939 -0.27099258 -0.05401639 -0.1058612 -0.040752873 0.29351947 0.28207672 0.31294462 0.12762977 0.07690899 -0.20809087 0.32723132 0.2854813 -0.12008514 -0.056358725 -0.07801348 -0.24202643 0.41699323 0.11947132 -0.23962285 -0.054781485 0.2968024 0.24889013 0.18433605 -0.121823974 0.040157735 -0.29948676 -0.054167178 -0.016692698 -0.04277343 0.04026472 0.29444182 -0.03435027 0.5310716 0.15655065 0.19267924 0.25714326 -0.52087873 -0.45515433 -0.08977038 -0.14770742 0.19661595 -0.15826695 -0.35474113 0.28251877 0.051759522 0.06850396 -0.3097026 -0.038810454 -0.17100094 0.012843469 0.07207757 0.35940573 -0.03233967 0.07625575 -0.39859092 0.65224653 -0.22529978 0.20450136 -0.090349786 -0.12134448 -0.38814783 0.49298215 -0.18262881 -0.08730978 0.14307742 -0.11204421 -0.05544736 0.07489982 -0.009704304 -0.09468445 -0.012986625 0.3721522 -0.049467437 -0.04299633 0.104105905 0.06330985 -0.26557028 0.37280267 -0.3140229 -0.46424454 0.14697278 -0.097294435 0.13926753 0.21422368 -0.33036155 0.12105406 0.21770021 0.34471047 -0.20578288 -0.034571443 -0.08834408 0.13302103 -0.22627771 -0.06394124 -0.27216366 0.04894212 0.058034785 -0.37289855 -0.2617511 -0.21909788 -0.19392654 0.26386863 -0.08598523 -0.21400587 0.17312537 -0.27264667 0.0758589 -0.6751769 -0.096399404 -0.06481203 -0.162304
37 0.040553443 0.24048242 -0.33217373 0.19449617 -0.18744 0.27214164 -0.18644632 -0.08733063 0.22779864 -0.59238786 0.11565515 0.021307994 -0.11633766 0.22642933 -0.10877729 0.18317533 -0.46131036 -0.30093157 -0.10152755 -0.22135444 -0.12761411 0.1403813 0.081122965 -0.009483267 -0.14588684 0.110802196 -0.4866574 0.16162558 0.2554191 -0.16597089 0.07512457 -0.016011326 -0.29023945 0.5545908 0.05818562 -0.032388218 -0.15424137 0.20119692 0.009007527 0.20140418 -0.113338515 0.1978551 -0.07953725 -0.2731994 -0.025688492 0.27345133 -0.021373432 0.5659426 -0.14293247 0.2262062 0.25469378 0.1591977 0.084784955 -0.7430666 -0.46656704 0.08181092 -0.061492927 0.116717555 0.02198112 -0.2628207 0.34574634 -0.10215552 0.052900508 -0.4372283 0.045175806 -0.042810902 -0.3395294 -0.08475158 0.20309557 0.1310098 0.034197293 -0.7094614 0.81976324 -0.0881394 0.14265433 -0.03451632 -0.39657378 -0.32055992 0.48034847 0.017311277 -0.3890191 0.05733089 -0.11903186 -0.23390308 0.02706872 -0.11832235 0.19604911 -0.08706774 0.3894222 -0.066657886 -0.05955281 -0.16275351 -0.008435307 -0.33935374 0.21260127 -0.15784697 -0.45474046 0.0108429855 -0.38521317 0.12793002 0.16891435 -0.38783002 0.16761248 0.13492127 0.20498385 -0.22482708 0.09073998 -0.26767394 0.11047779 -0.30603632 0.048555847 -0.3271585 0.18390644 -0.11847933 -0.3281472 -0.2881334 -0.17840818 0.08648882 0.42445385 -0.19651665 -0.36303487 0.324473 -0.25616705 -0.08871642 -0.3739141 0.19810103 -0.14769492 -0.04047197
51 0.07497795 0.18277091 -0.40237254 0.047259986 -0.07584995 0.06087795 -0.014634924 0.05075983 0.043751888 -0.45980924 0.012788092 0.20003271 -0.28282186 0.21266845 0.06737716 0.06254805 -0.38839093 -0.141311 -0.086602665 0.030102909 -0.16357106 0.25027856 0.12544817 0.10243168 0.32079032 0.13425551 -0.25212508 0.13890077 0.17943428 0.20435512 -0.27225152 -0.06971809 -0.32689816 0.3578263 0.017222699 -0.18172859 -0.3000811 -0.06367471 0.16730034 0.16128284 -0.015854053 0.016196342 -0.18580863 -0.21181177 0.19590724 0.031225713 0.054031793 0.33260688 0.24571261 0.19128257 0.060266577 0.26173007 0.12711811 -0.5067061 -0.45458975 -0.15694275 -0.25590843 0.062025398 -0.12420506 -0.3851449 0.19341269 0.072032765 0.12257934 -0.21986116 -0.23531917 -0.18887657 -0.11540706 0.13251792 0.29040027 0.068967484 0.15503539 -0.38891134 0.740835 -0.117111035 0.033231374 -0.0022651234 -0.1675153 -0.5012273 0.55572605 -0.12781395 -0.21936202 0.15367493 -0.37568218 0.03489567 0.023116939 0.0003032767 0.40042278 -0.005227845 0.19908425 0.02565027 -0.10842458 -0.20356093 -0.012379919 -0.3101105 0.20736861 -0.18534991 -0.38755035 -0.1569059 -0.03225928 0.14091747 0.206226 -0.32933623 0.3002089 0.17418347 0.17768832 -0.21402231 0.14351721 -0.060356665 0.09070776 -0.17419694 -0.13364238 -0.31248719 -0.05292723 0.037037052 -0.44695047 -0.40494928 -0.20540552 -0.15929118 0.4066806 -0.25724295 -0.10321393 0.5339991 -0.105523564 -0.102681324 -0.5730788 0.31341043 -0.08471427 0.12033625
310 -0.070044294 0.1089816 -0.44542408 0.027566655 -0.21076323 0.026841477 -0.21133378 0.07735129 0.13969144 -0.37572053 0.045338675 0.075931184 -0.08625154 0.034781598 0.09737638 0.16412812 -0.43509468 -0.09815919 -0.20589405 -0.111831136 0.027962059 0.086289145 0.2076274 0.040389143 0.108475424 0.2522758 -0.64431506 0.3394357 0.06115725 0.22216052 -0.29469663 -0.04054102 -0.11994828 0.19145796 0.16715468 -0.27334166 -0.3331307 0.06917461 0.29002896 0.22588949 -0.1994141 -0.11330217 -0.3093603 -0.22067672 0.16867709 -0.13143605 0.26324898 0.34552848 -0.045324996 0.23711453 0.15145767 0.05412314 0.06675127 -0.28945532 -0.30243263 0.05934976 -0.06405868 0.16233791 -0.09660588 -0.21163367 0.034664523 0.20999251 -0.0011073767 -0.14825572 -0.23084474 -0.12906297 -0.17532115 -0.06313282 0.25987276 0.15595753 0.099471234 -0.47351804 0.5970222 -0.3054199 0.22446056 -0.3017927 -0.14209364 -0.5875346 0.5040059 0.023911295 -0.39915442 0.40024877 -0.25334525 -0.13296966 -0.094656244 -0.017393941 0.035481315 -0.19508842 0.3312067 0.08441008 0.119279474 -0.07060097 -0.1503105 -0.33166072 0.28690612 -0.13153064 -0.4851978 0.028985258 -0.25070396 0.22093739 0.03493806 -0.4935839 0.16649748 0.07017505 0.4017477 -0.335763 0.07789066 -0.108381025 -0.1276818 -0.1297664 -0.15944305 -0.16596037 0.08111995 0.040965963 -0.50596255 -0.3331558 -0.048158277 0.02316074 0.42149815 -0.26581284 -0.104761474 0.553048 0.02722136 -0.19661953 -0.38145754 0.13835366 -0.10196871 -0.12806673
301 0.02190506 0.30391774 -0.26329905 0.010780824 -0.21278353 0.046704605 -0.309068 -0.33927083 0.10733478 -0.39908335 0.13117746 -0.06533654 -0.21606351 0.0017748938 -0.11224561 0.051841646 -0.17330106 -0.123610206 -0.109147035 -0.28947923 -0.015635587 0.15357146 0.03465031 0.12359659 0.16543892 -0.13620639 -0.40506637 0.26462838 0.3458089 0.2794545 -0.2573981 -0.18944074 -0.18979108 0.21051553 -0.0090628425 -0.0011207366 -0.32596728 0.17539054 0.36885852 0.11891748 -0.3200726 -0.16001171 -0.2944722 -0.29705468 0.25989187 0.028543418 0.36703464 0.3301979 0.060687117 0.47219554 0.14473793 -0.11191942 0.32972097 -0.48325124 -0.38581288 0.025319977 -0.20421259 0.034336653 -0.07327555 0.06552526 -0.17702831 0.06096498 0.012411079 -0.21071991 -0.012591331 -0.23899171 -0.092855744 0.039536595 0.35162365 0.28132507 0.26104358 -0.36769083 0.5445874 -0.27259728 0.45621905 -0.03220124 -0.047372278 -0.383525 0.64799505 0.06024282 -0.6851121 0.5181613 -0.44069535 -0.01646702 -0.08073709 0.1345306 0.012318954 -0.22068368 0.40006363 0.19263907 0.091146976 -0.024204941 0.039134543 -0.24586803 0.19044365 -0.106597275 -0.3867179 0.06837335 -0.26571292 0.04072691 0.04647369 -0.30840477 0.13419656 0.17869823 0.14012128 -0.44473204 0.20685032 -0.19010328 0.044148307 -0.36244375 -0.13621241 0.028188322 -0.04030449 -0.13643016 -0.6103522 -0.6449296 0.008928129 0.062546074 0.42741486 -0.04789667 -0.111585416 0.6271661 0.1879457 -0.106864646 -0.37038666 0.082915805 0.0013171338 0.04902787
356 -0.04070695 0.18225755 -0.48161024 0.19052947 -0.26864132 0.091285534 -0.030567473 -0.14344603 0.22713222 -0.6228487 0.18044418 0.14143191 -0.24949703 0.087504245 -0.050911054 0.2938817 -0.32220578 -0.024741745 -0.178104 -0.15668267 -0.026245812 -0.04901641 0.043055955 0.2697132 0.12222256 0.04468452 -0.2927993 0.21261427 0.14944275 0.03595899 -0.2209202 -0.03657245 -0.218603 0.46418127 0.1438682 0.06362428 -0.2038959 0.15421288 0.0066075306 0.18132636 -0.1372133 -0.058218233 -0.036251865 -0.2937125 0.022919228 0.0034209408 0.09141143 0.49392757 0.03891797 0.4865283 0.024675533 0.17950098 0.33462968 -0.5020578 -0.10550153 0.012583501 0.04452552 0.33003655 0.08721806 -0.38754472 0.15403263 -0.0973848 -0.09000164 -0.27058375 -0.196978 -0.28227967 -0.3536626 -0.02985963 0.39431134 0.2991379 0.27625355 -0.4376014 0.7155176 -0.20877348 0.36737424 -0.14262566 -0.28506348 -0.2913354 0.62547785 -0.067941576 -0.35772353 0.21527763 -0.37226856 -0.020693725 0.35132807 -0.08396649 0.04845947 -0.0154038025 0.38957796 0.03304501 0.027881665 0.001093803 0.24102533 -0.3005684 0.3587609 -0.23302774 -0.36794662 0.3522914 -0.2201731 -0.0887997 0.2746523 -0.27554253 0.20670007 0.33243397 0.121343814 -0.3726292 0.031185636 -0.15375303 0.18036741 -0.26145193 -0.2184694 -0.112301335 0.11246992 0.04359878 -0.26281703 -0.28556964 0.18562745 0.01865439 0.51350236 -0.050032273 -0.00021980991 0.40139467 -0.20220082 -0.15118472 -0.5256568 0.26968247 -0.1612406 0.019319663
276 -0.15258865 0.2156106 -0.4755316 0.22889967 -0.32867077 0.12657733 -0.37475154 -0.2774451 0.013599585 -0.24934894 0.115313545 0.19088838 0.10803719 -0.17105012 0.044738308 0.19942185 -0.37914914 -0.21634242 -0.16431515 0.13774769 0.14623232 0.052723285 0.1804664 0.09522383 -0.08569524 -0.073007226 -0.36335993 0.58729374 -0.039642163 0.0094709275 0.28280497 -0.16224965 -0.4507517 0.015172701 -0.12780991 -0.3396558 -0.3098381 0.24889387 0.1973829 -0.13352014 -0.13329908 -0.100151606 -0.0852114 -0.45152035 -0.07139844 -0.12003841 0.3401296 0.3561181 0.3254261 0.3287611 0.46994567 0.2757681 0.33908087 -0.5994223 -0.15495495 -0.14052983 -0.11162311 0.30888394 -0.033265945 -0.40675217 0.06257722 0.0015164835 0.22886464 -0.18657073 -0.37677085 -0.0059415493 -0.024605202 -0.06338056 0.034101952 0.307983 0.2482891 -0.6364548 0.67282593 -0.31825176 0.21834512 0.051488426 -0.11837358 -0.25471044 0.3434006 -0.33449453 -0.37584978 0.3038694 -0.55611163 -0.08127707 -0.021309782 0.07049489 0.030057328 -0.38937217 0.20813613 0.20992132 0.07877534 -0.29636142 -0.2594565 -0.14923242 0.35240784 0.115209244 -0.48698264 -0.054437727 -0.19774385 0.2514013 -0.09315763 -0.34920877 0.24949314 -0.07358284 0.22480421 -0.047723427 -0.07956765 -0.028023658 0.06950633 -0.37408978 -0.056377035 -0.048981346 0.28016365 0.06874888 -0.2019404 -0.45253232 0.14948821 -0.015515044 0.16686258 0.05375911 0.24490675 0.41937938 -0.045490235 -0.0103156995 -0.2977173 -0.048496943 -0.27754456 -0.15292473
96 -0.07310523 0.06082882 -0.37051773 -0.07622011 -0.07405407 -0.07307627 -0.0998946 -0.30218777 -0.060827482 -0.41133615 -0.074377336 0.08047909 -0.1298992 0.047935396 0.1449378 0.12560044 -0.43212292 -0.2555103 -0.17028838 -0.10972385 -0.22951421 0.23868784 0.24156862 0.20435332 -0.053954452 0.060886655 -0.35899833 0.3294477 0.21367183 0.35416162 -0.21018238 -0.062601894 -0.41351455 0.38065174 0.29397956 -0.0909275 -0.13472953 -0.12898335 0.42952564 0.053345457 -0.13166009 -0.15171722 -0.19232893 -0.19675489 0.047411658 0.13046359 0.090525694 0.18307848 -0.13729072 0.08955797 0.29969952 0.1256327 -0.020713516 -0.44786885 -0.36738297 -0.08598338 -0.29954526 0.23904422 -0.06006942 -0.10286907 0.29778922 -0.20498945 0.040859666 -0.36815178 -0.20110923 -0.14190093 -0.017230228 0.13361557 0.53301215 0.32388508 0.2029113 -0.4138437 0.6817384 0.07790749 0.1568721 0.18871418 -0.28305826 -0.23189847 0.47360328 -0.024351802 -0.35487065 -0.029122766 -0.2890233 0.11005934 -0.19008727 0.0002912911 0.21091051 -0.36620933 0.30037382 0.07540009 0.014015585 -0.17921756 -0.2401621 -0.18191342 0.13981764 0.089113705 -0.74447614 -0.15567707 -0.24190906 0.30540943 0.008419182 -0.48400608 0.2641704 0.08616216 0.19422174 -0.17172106 0.08143864 -0.36131436 0.11642136 0.023117281 -0.34301394 -0.17310594 -0.10565391 0.30530852 -0.05605374 -0.3284831 -0.2155919 0.08314675 0.5017794 -0.24646398 -0.34344536 0.582469 0.07447408 -0.15056859 -0.44472554 0.10632607 -0.012845012 -0.048268195
66 -0.06627134 0.2740311 -0.48222712 0.04710258 0.115885 -0.10970163 0.039341003 -0.03393115 0.16487801 0.027391022 -0.21686395 -0.041829158 -0.31823733 0.15461585 -0.02805953 0.05447573 -0.2538105 -0.18824883 -0.024048233 -0.019024516 0.11519011 0.19958355 0.32145822 0.08325372 0.122185305 -0.01838871 -0.32542545 0.23656946 0.16895588 0.20883934 -0.2380491 -0.06028702 -0.31543714 0.2940087 -0.06197745 -0.24504025 -0.33028427 -0.22101167 0.08571294 0.2421763 0.06425289 -0.08071777 -0.17738855 -0.32347715 0.2187166 -0.2158117 0.1238112 0.36771113 0.4996697 0.40974376 0.1898484 0.36411405 0.08541883 -0.6799699 -0.32616577 -0.2565532 -0.18080941 0.12628263 -0.18729271 -0.32070592 0.12209105 0.02887666 -0.007870284 -0.33699763 -0.23994823 -0.05758102 -0.20405522 -0.08912959 0.48327348 0.16873236 0.3259775 -0.39399558 0.6878252 -0.06830555 0.024424504 -0.1133747 -0.2205566 -0.29314485 0.4918845 -0.19224538 -0.15046902 0.3521111 -0.15335068 0.044615153 0.17404702 0.13241819 0.054390136 -0.06576726 0.19772166 0.015643867 -0.15976013 -0.19252428 0.117327094 -0.20579861 0.32111168 -0.27876604 -0.21792418 -0.06883755 -0.20612392 0.018659858 0.14811745 -0.23294273 0.32753786 0.03570106 0.41830948 -0.216716 0.14192069 0.11388674 0.048449196 -0.061096102 -0.027392205 -0.34480873 -0.0062759304 0.11329948 -0.49218562 -0.304684 0.12483303 -0.12524973 0.37206098 -0.17314197 0.005259957 0.5695527 -0.17906904 -0.11692527 -0.5442369 0.22310735 -0.0522605 -0.08729392
210 -0.060575854 -0.19008309 0.07713556 0.0155841485 -0.10169865 0.105843015 -0.48739114 -0.11523714 0.037009202 -0.6435421 0.041725714 -0.07199197 -0.21500127 0.25137377 -0.099981725 0.3115248 -0.18498515 -0.21621794 -0.11057183 -0.21732335 0.16658786 0.026824756 0.1637544 -0.10298759 0.1549396 0.14482896 -0.060427617 0.07525728 0.024254015 -0.2729015 -0.08814665 -0.15486111 -0.20648144 0.42133322 -0.041256223 -0.08415381 -0.26390263 -0.06198738 0.10160709 0.15148738 -0.14584155 -0.14268172 -0.015209344 -0.14162304 -0.13016815 0.12207059 0.1431786 0.31994218 0.22447975 -0.11240775 0.38791692 0.098785475 0.23157941 -0.63415605 -0.27685115 -0.054264985 -0.05907663 0.07628702 0.10103242 -0.1868429 0.14392895 -0.106392674 -0.011644941 -0.35462055 0.13522163 -0.066636674 -0.40360248 -0.06765797 0.27639914 0.08600709 0.013609107 -0.6671739 0.8455112 -0.02459575 0.17017229 -0.31679356 -0.31864318 -0.38080904 0.20356911 -0.10634838 -0.37907362 0.059344966 -0.17354852 -0.00017497403 0.20311391 0.08379427 0.17818248 -0.18817194 0.1067549 -0.0066070966 0.026762653 -0.1378071 -0.22711197 -0.20905764 0.10100464 0.053370614 -0.84710157 0.0440443 -0.19427915 0.06012323 -0.10832969 -0.14189848 0.2042585 0.38688996 0.28666845 -0.31067595 -0.19145623 -0.3315446 0.12856565 -0.19970624 -0.09898272 -0.22843987 0.12271038 0.1014939 -0.5423108 -0.097759694 -0.08972403 -0.22388658 0.28286466 -0.058858845 -0.17558417 0.36347616 -0.064260915 -0.23584063 -0.17015152 -0.044696998 -0.08202465 0.02044541
220 0.08511427 0.22406897 -0.068355024 0.18693618 0.03469001 0.06612856 -0.5921079 0.007804516 -0.2220089 -0.5550183 0.15242758 -0.06674221 -0.25123227 0.25686684 0.11886851 0.40101382 -0.36497247 -0.1663555 -0.105069794 -0.283905 0.00029212644 0.12568663 0.18407156 -0.009002458 0.055480637 0.15887666 -0.16419657 0.13085271 0.040332284 -0.10264888 -0.23886804 -0.14276502 -0.44868597 0.43403593 -0.25296208 -0.0239467 -0.31912047 0.2665513 0.13710743 0.22511427 -0.10728276 -0.10342596 -0.12773326 -0.13092285 0.04543242 -0.011185724 0.18151516 0.43664625 0.31215745 0.33361375 0.4561675 0.16251884 0.35835764 -0.59226197 -0.26265493 -0.09401335 -0.1843375 0.16892162 -0.2501546 -0.30028737 0.22662887 -0.2364487 0.1649444 -0.41333702 -0.061700273 0.14724949 -0.46223414 0.20456353 0.18889467 0.09352003 -0.009662453 -0.41620708 0.51668805 0.059678603 0.061602306 -0.3438634 -0.37186536 -0.24460746 0.34746566 0.053899366 -0.2533221 0.114278786 -0.18426205 0.1254933 0.46195984 0.06071886 0.16836032 -0.11800127 0.1537307 0.23151913 0.15670209 0.11902061 -0.22034267 -0.3192503 0.25966638 0.16433018 -0.58121693 -0.08414086 -0.3914588 0.21842964 -0.033650834 -0.12602018 0.28899375 0.2821077 0.559093 -0.2456845 -0.10751112 -0.12452765 0.11911313 -0.25880146 -0.15876944 -0.31093088 -0.057741813 0.19575414 -0.20810181 -0.08246795 0.054989137 -0.24189834 0.19958596 0.10126922 -0.039665744 0.41729942 -0.1814299 -0.06632894 -0.29153633 -0.09379631 -0.2470329 0.0045089754
412 -0.02651366 0.14877528 -0.2184107 -0.0471262 -0.08452097 0.15212946 -0.11911936 -0.30715197 0.12165454 -0.2574678 -0.0014643862 0.1129681 -0.21168347 0.049387686 -0.17058334 0.1350153 -0.18549913 -0.0094828755 -0.16970417 -0.12520152 -0.05375008 -0.13275623 0.047644574 0.23439984 0.22805074 -0.10149958 -0.34001857 0.36835113 0.08081851 0.12646091 -0.17932323 0.04836118 -0.20713405 0.62747437 -0.11813013 -0.05677751 -0.2330853 0.022750184 0.40446085 -0.04014121 -0.2218267 -0.22191027 -0.25051677 -0.09719018 0.20179461 0.04873551 0.10741757 0.42471096 0.2686571 0.43282443 0.16527314 0.19416891 0.31669533 -0.702167 -0.34540573 -0.24725257 -0.031602643 0.17820449 0.08356751 -0.3652968 0.009764178 -0.15984978 0.14906636 -0.19576202 -0.07432271 -0.13463962 -0.18009153 0.0849185 0.27478117 0.29986975 0.29054555 -0.56118214 0.7452279 -0.10711976 0.1964566 -0.37756643 0.010419128 -0.23356196 0.39007342 -0.16285342 -0.35002664 -0.07714057 -0.46565473 -0.008411481 -0.045817576 0.16248333 0.22595517 -0.1409296 0.20453256 0.03723672 0.12857759 -0.28535447 0.074159026 -0.22447215 0.06454514 0.14988223 -0.608776 0.03424918 -0.13168567 0.048454814 -0.045348067 -0.18835174 0.26111108 0.23124146 0.087268285 -0.28061298 -0.12128446 -0.06458483 0.011213804 -0.14444391 -0.18421479 -0.12544678 0.016888954 0.084827825 -0.34800982 -0.15457453 -0.027746497 -0.13796179 0.12692262 -0.18140154 0.037548278 0.5758694 -0.20373303 -0.08636581 -0.1397239 -0.027541652 -0.24960886 -0.10219158
