1899 128
1712 -0.16669096 -0.099880196 -0.06907836 -0.1492743 0.018770058 -0.38024628 -0.07190462 -0.03511475 -0.18836594 0.09527448 -0.055801243 -0.1552874 -0.030778928 -0.27407816 0.065722354 -0.36343145 0.05930764 -0.29157922 0.020637617 -0.24031089 -0.14529483 0.13795091 -0.18627271 -0.22090283 -0.16101901 0.09088747 0.1989558 -0.054391265 -0.095764205 -0.15037131 -0.1934971 -0.16755478 -0.366559 0.64962685 -0.0081946915 0.014227206 0.24780795 -0.33479396 0.17302503 0.32261747 -0.2107606 -0.24521221 -0.076911785 0.07869326 -0.11219807 -0.08332796 -0.41654906 0.28041583 -0.01792708 -0.113698035 -0.00030911167 -0.23630539 0.10321316 -0.21497005 -0.109222494 -0.3674356 -0.13789546 -0.046660915 -0.21182391 -0.21888945 0.13914077 -0.049302902 -0.14704373 -0.4559008 0.14123437 -0.20220459 -0.22042167 -0.23003629 0.11139974 -0.00021751631 0.23539352 0.17736597 0.25128746 -0.69608146 0.40993962 -0.21703403 -0.20918845 -0.19342637 0.08160331 -0.024420427 0.20532584 0.21333343 -0.23798797 -0.1926565 -0.4702883 -0.11850111 0.16919798 0.033824805 0.23959282 0.06266085 -0.28665155 0.117986105 -0.11132559 0.27754614 -0.17748989 -0.84489584 -0.31377676 0.29608905 -0.0070347846 0.04247202 0.17614461 -0.23306629 0.2861926 -0.14552347 0.08824732 0.14045064 0.032712184 -0.41957062 0.049837206 -0.071594946 -0.118326664 0.26934555 -0.32464778 0.16536994 0.15761748 -0.43987972 -0.114832714 -0.156065 0.10772299 -0.27347502 0.46408898 0.22364306 0.25804642 0.050968215 0.27771994 -0.16705745 0.051314894 0.0009392536
248 0.04351848 -0.13617411 0.012185471 0.19093919 -0.16817145 -0.06853841 -0.1383658 -0.19146715 -0.13704722 -0.23987728 0.18347475 -0.19247553 -0.14156671 -0.29775473 0.09267029 -0.1351819 -0.081114925 0.06542658 0.107294746 -0.18748486 0.16652332 -0.14003381 -0.13247511 -0.1918322 -0.04581502 0.004989624 0.07388689 -0.16436757 -0.032623015 0.059869952 -0.23205645 -0.011982559 -0.35810444 0.4692825 -0.045017112 -0.116941094 0.16356997 -0.19147165 0.23188147 0.39186314 -0.3472725 -0.12500705 -0.057787865 -0.03222061 -0.08601379 -0.08771486 -0.61407995 0.1056371 0.21833932 -0.12080809 0.086247616 -0.3846621 0.016562704 -0.5937486 -0.2307984 -0.4577426 -0.14678356 -0.28147885 -0.317574 -0.2616014 0.32933217 -0.108259015 -0.21953452 -0.5862112 -0.038837224 0.0069015175 -0.21342836 -0.4097764 0.43450168 -0.099242404 0.31855962 0.2589195 0.007907011 -0.7880965 -0.058503494 -0.055817284 0.18727441 -0.16442832 0.21504633 -0.052853577 0.13400315 0.33456066 0.012724585 -0.06831423 -0.38999528 -0.073585145 0.09610155 0.2651494 0.23178674 0.094827935 -0.16608715 0.024044456 -0.070455834 0.16060197 -0.32855952 -0.6634766 -0.021064408 0.18295392 -0.13153893 0.1592915 0.0931905 0.0032675732 0.3718374 -0.11222201 0.07255174 0.17881046 0.1822881 -0.35836157 0.19667685 0.058692172 -0.129259 0.37233254 -0.5270015 -0.21800342 -0.21710333 -0.47058436 -0.057683654 -0.0033270488 0.06999494 -0.17122664 0.45053977 0.28714657 -0.10248664 0.3275191 0.5179998 -0.27766326 0.13287775 0.00675825
2 -0.05353734 -0.11837655 -0.11889364 0.08097144 -0.18960582 -0.46137124 -0.25215313 -0.1727908 0.15839835 -0.15784794 0.09840423 -0.33383808 -0.17032634 -0.30364242 -0.12966411 -0.036796276 -0.0006777289 -0.13758925 -0.26335523 0.16325107 -0.0435271 -0.2816766 -0.32274494 -0.12190613 -0.19894995 0.07157996 0.23128684 -0.19495748 -0.038867667 -0.30486292 0.15425377 -0.04673294 -0.75127876 0.4561304 0.02210553 0.24065901 -0.039439116 -0.1848645 -0.29395983 0.0066747805 -0.024417438 0.017936016 0.12865531 -0.07150607 0.00412633 -0.21857385 -0.14827694 0.49616173 0.23126079 0.06796211 0.3166651 -0.23364554 0.3855228 -0.18685822 -0.17594776 -0.29086438 -0.098499104 -0.2770631 -0.23061633 -0.1281991 0.19728969 -0.22417067 -0.09178849 -0.57321113 0.025858838 0.06750971 -0.19312419 -0.2656427 0.1810877 0.11896986 0.077472314 0.313019 0.10219682 -0.5263563 0.27481833 0.24283132 -0.061480097 0.010491866 0.52896905 -0.09068785 0.014573069 0.4608218 0.2578723 -0.685828 -0.29137444 -0.2635552 0.027658347 0.31737748 0.3755053 -0.2164003 -0.0778103 -0.15809177 -0.060944363 0.23399384 0.04752768 -0.514572 0.03528607 0.014226585 -0.4161893 -0.083680175 0.37377995 0.22985303 0.57207125 -0.13929397 0.07338806 0.06700279 -0.24276222 -0.43749505 -0.111660555 0.023880582 0.20343038 0.04830366 -0.3990933 0.028570395 -0.2157839 -0.42636612 -0.028145367 -0.41131094 0.35432813 -0.092625156 0.58342874 0.42507726 -0.23557547 0.0964624 0.3549872 -0.22059688 0.15358903 -0.20748487
8 0.26351514 -0.13938026 -0.10123258 -0.0019119134 -0.030113522 0.05537525 -0.13733423 -0.1054262 0.100159146 0.28456736 -0.0055998173 -0.21733859 0.098988645 -0.40666634 0.11687475 -0.7398466 -0.1491952 -0.6627786 -0.2556884 -0.1112597 -0.07918228 -0.023169782 -0.18222846 -0.36600742 -0.12636991 -0.09022476 0.057703547 -0.07829621 0.15424661 0.034171134 -0.162512 -0.022096463 -0.5003195 0.41055697 -0.25195438 -0.076843776 0.109088466 -0.27304268 -0.07161548 0.26637253 -0.091001056 -0.08324796 0.052008547 0.054611925 -0.2736991 0.29021344 -0.46301755 0.12849452 -0.10418629 0.11021392 -0.13446116 -0.25312048 0.0013657082 -0.18539156 -0.22278029 -0.13074322 -0.1042405 -0.09788329 -0.43563503 -0.1431102 0.10044818 -0.25889271 -0.21180403 -0.44278485 0.09282118 -0.0881945 -0.28356543 0.13889858 0.17148636 -0.10661306 0.21744803 0.24326463 0.046264745 -0.54154927 0.2926409 0.17404518 -0.105423205 -0.2450189 0.1317752 0.050102882 0.22909608 0.4009897 -0.18797503 -0.30278093 -0.40699193 -0.018406535 0.13510482 0.19162062 0.41589496 -0.44633198 -0.12255069 -0.06364975 -0.23094875 0.090053864 -0.3553147 -0.966205 -0.10564639 0.16195685 -0.05762626 0.3693911 0.109227456 0.0066361665 0.6715332 -0.02123932 -0.15177378 0.048363697 -0.062851995 -0.21995702 -0.25283742 -0.25695512 0.13021362 0.19062051 -0.50051564 0.097986065 -0.22741087 -0.5756096 -0.17074269 -0.11552342 0.33398426 -0.110381946 0.52478594 0.026330572 0.059987284 0.2203786 0.28417146 -0.3660574 0.10171118 0.06670448
1643 -0.059516158 -0.19389409 -0.25625214 0.10548393 -0.19842614 0.13526316 0.014335942 -0.13024984 -0.05052472 0.11363867 0.2818632 -0.3073297 0.09075526 -0.3202401 0.17792857 -0.44016433 -0.054288603 -0.424004 -0.1197038 0.009483415 0.006811908 -0.13753892 -0.42207402 -0.17289011 -0.1401142 0.23444629 0.20262386 -0.08010481 0.117433056 0.03509483 -0.6397979 -0.085534185 -0.096255325 0.20365487 -0.21002023 -0.18638268 -0.01874838 -0.18590495 -0.11821595 0.066175506 -0.085368976 -0.034247544 -0.032652106 -0.13215974 -0.27945483 -0.017292496 -0.57899517 0.10270926 -0.23906288 -0.15016773 -0.02118051 -0.35883313 0.107919976 -0.51618177 -0.0332041 -0.26960543 -0.241758 -0.12170214 -0.16662392 -0.2260353 0.19047974 -0.14040072 0.012332663 -0.30479035 -0.16076405 0.12506428 -0.52806616 -0.0541135 0.35208958 -0.21443819 0.5618656 0.32862076 0.2419503 -0.9857673 0.24834882 -0.07097852 0.17984045 -0.19799745 0.38125727 0.0797336 0.046324275 0.33337992 0.17670892 -0.17570327 -0.24243352 0.026958177 0.32231846 0.14222492 0.367638 -0.10276804 -0.21353602 -0.016778562 -0.0043473975 0.021289872 -0.20017485 -0.706543 -0.0824126 0.2896824 -0.10074589 0.037210032 0.22423248 -0.06320847 0.12863453 -0.34045038 -0.11323382 0.09879126 0.12891969 -0.18227766 0.1155742 -0.06971895 0.005183684 0.1851065 -0.56402427 -0.0023510612 -0.17746656 -0.5843899 -0.14335321 -0.09919303 0.15410586 -0.45581695 0.40079737 0.50507545 -0.02445198 0.0014222873 0.46700114 -0.057554137 0.29182273 -0.030774143
11 0.020255407 -0.0853862 -0.009909328 -0.04585446 -0.12037483 -0.10621084 0.056274094 -0.3059021 -0.055338547 0.16717169 -0.1073835 -0.20701791 0.29084772 -0.43245816 0.008341512 -0.46841297 -0.04831206 -0.31265536 -0.27973115 0.02317755 -0.04160397 -0.05318181 -0.14611916 -0.36024427 -0.27564183 0.051501073 0.090825774 -0.15376711 0.24243246 0.06656162 -0.25974858 0.13559566 -0.39511222 0.5259137 -0.05111176 -0.18835622 -0.13175498 -0.12915067 -0.11489437 0.15150942 -0.32460132 -0.052980367 0.07993154 -0.19286343 -0.3515461 0.11513432 -0.29722133 0.29143253 -0.3504026 -0.03945455 0.04625663 -0.22579718 0.17667063 -0.3645665 -0.14939609 -0.18949872 -0.051877175 -0.1463009 -0.32392335 -0.20192575 0.1611247 -0.14036527 -0.193886 -0.29751924 0.022923762 0.008229217 -0.33741453 0.06285449 0.42884478 0.13236901 0.31122622 -0.03023594 0.20009424 -0.40111956 0.28495643 -0.032977913 -0.027263429 -0.06237376 0.23759024 0.20046115 -0.18057041 0.27175534 -0.09381966 -0.34896693 -0.45300034 0.005797042 0.32184657 0.03684381 0.49465936 -0.19114438 -0.3465277 -0.10733257 0.07183378 0.26628977 -0.20913358 -0.87830526 -0.23975125 0.10891331 -0.17247392 0.16828285 0.24778432 -0.26836076 0.38350633 -0.1019635 -0.1506595 0.08728588 -0.26264587 -0.36686116 0.265369 -0.33446172 -0.0675718 0.1482836 -0.70280683 -0.013439211 -0.28306857 -0.76097345 -0.0061730775 -0.18538699 0.17200902 -0.14088929 0.13960247 0.19663103 0.09720888 -0.04316886 0.54110014 -0.5150439 0.23056921 -0.19530272
1345 -0.0008235336 -0.021949481 -0.26120922 0.47609052 -0.13099226 -0.24203782 -0.21922408 -0.03038346 0.20653746 -0.048540227 0.14604777 -0.39053854 0.018874843 -0.6047765 -0.0767527 -0.40775096 -0.25411078 -0.3585502 -0.19235848 -0.18935329 0.21585716 0.029598681 -0.30715615 -0.36139914 -0.18891014 0.23471545 0.24840535 0.04133316 -0.0687892 -0.019102631 -0.64270586 0.086024165 -0.31413314 0.74732137 0.019047398 -0.29441833 0.09585059 -0.11699624 -0.06298584 0.4119391 -0.31620517 0.09335657 -0.09577155 0.05606676 0.14964963 -0.3313834 -0.55344015 0.27062485 -0.094229385 -0.19714236 0.11664802 -0.37745348 0.15678684 -0.6400388 -0.13519903 -0.14068791 -0.2603518 -0.29708892 -0.0016000596 -0.21381886 -0.061946202 0.07354282 -0.31800178 -0.53302145 -0.1841846 0.057372678 -0.21968599 0.05768325 0.27946624 -0.33591014 0.30511075 0.46311623 0.23199262 -0.69424045 0.29540858 0.16124746 -0.08781748 -0.17428005 0.09874167 0.2612979 0.17316316 0.5795194 -0.2887704 -0.08584097 -0.49654916 -0.08742643 0.2545635 0.27702114 0.42564854 -0.07432707 -0.38666347 -0.100339055 -0.14946346 0.1836219 -0.17107752 -0.6899883 -0.39500353 -0.009733683 -0.05058116 -0.10228321 -0.019059788 -0.0067477254 0.17212181 0.115233384 -0.123100355 0.22196627 0.13186766 -0.31249407 -0.18921839 -0.2905746 0.18882497 0.28875497 -0.13617553 0.03347446 -0.10734647 -0.68033046 -0.32529634 0.038169768 0.27396718 -0.09148131 0.19186468 0.022130089 0.02890145 0.2820291 0.27630907 -0.1788754 -0.09766891 0.029231083
1646 -0.07965254 0.28311253 0.010726319 0.20606862 -0.029279172 -0.5870902 0.1370436 -0.05254452 -0.3420241 -0.09358233 0.066809975 -0.33879593 0.078931026 -0.07192799 0.04147631 -0.44230315 0.08252132 -0.6891832 -0.15097952 -0.14145446 -0.071831286 0.12946726 -0.36865467 -0.2744848 0.063548975 0.12450193 0.37003532 -0.18217614 0.1402154 0.2508304 -0.34447923 0.17663467 -0.24301875 0.6349048 -0.16797654 0.103205666 0.007971817 -0.34723976 0.15658611 0.35227707 -0.06792423 0.1092148 -0.055892773 -0.1376354 -0.05349706 -0.23453712 -0.250043 0.27911347 0.08631172 0.022743076 0.10238106 -0.18567939 0.094104186 0.011046541 -0.0571511 -0.2756955 -0.33582538 0.0020573293 -0.0713381 -0.13043998 0.47979844 -0.16015068 -0.21749212 -0.11331967 0.20146304 -0.35555 -0.37795553 -0.35052598 0.09339714 -0.080818325 0.34198928 0.17608178 0.028492255 -0.58330804 0.6209357 -0.10955648 0.059277248 -0.327822 0.10308082 0.006245604 0.11857126 0.3979592 0.010331453 -0.42393547 -0.3314206 0.094476946 0.16061021 0.1400808 0.29370463 0.1799189 -0.21554594 -0.106891066 0.24017218 0.34150642 -0.2628962 -0.9239402 -0.006936019 0.12560467 -0.013514573 -0.07005733 0.04528937 -0.24778083 0.53713405 -0.1838747 0.11440577 0.20933506 0.07168316 -0.23585492 0.06711471 0.15235369 -0.08023482 0.2167119 -0.178993 0.04165203 0.054714344 -0.31443563 0.021326488 -0.16900432 0.13887474 -0.2535139 0.722101 0.20301223 0.28552958 0.3251086 0.43910217 -0.40200645 -0.16730104 -0.31985968
430 -0.11476379 -0.103749946 -0.15207393 -0.06932865 -0.12182766 -0.14489877 -0.027198922 -0.0893152 -0.12882133 0.04766522 0.31746534 -0.08640594 0.39232776 -0.27842903 -0.031983323 -0.44292983 0.048102856 -0.24701445 0.0830142 -0.13327318 -0.10358749 -0.12693544 -0.1612808 -0.29213503 -0.0010511009 0.2295165 0.37117997 0.49193203 0.05398871 0.14169967 -0.3642001 0.03140791 -0.38173276 0.4409777 0.0017080987 0.0038608627 0.15251708 -0.16967602 0.26294073 0.24293213 -0.329764 -0.35711077 0.07688974 -0.10006232 0.24862856 -0.17344293 -0.45363194 -0.12554978 -0.27432758 0.12323533 0.10589388 -0.41509393 -0.18483818 -0.27642503 0.015646385 -0.53960514 -0.11657251 -0.014769627 -0.13477638 -0.09324701 0.22604585 -0.21023817 -0.3429376 -0.53447604 -0.14127178 0.14636475 -0.74973065 -0.080873035 0.3304893 0.005699097 0.57963073 0.22763363 0.41218236 -0.6661958 0.54443455 -0.04262832 0.14778581 -0.38439938 0.27727887 -0.068563 -0.060982153 0.1318144 0.13592729 -0.22548921 -0.3457812 0.023570701 0.27280438 0.19266473 0.44687644 -0.08218263 -0.051598407 -0.0032463495 0.15985373 0.217074 -0.14263098 -0.8654001 0.015967116 0.29813913 -0.14215943 0.020514857 0.13387793 -0.3001978 0.28990576 -0.16153623 -0.011642975 0.31452298 -0.1494359 -0.1468893 -0.02814579 -0.23175238 -0.15341365 0.29867113 -0.48852748 -0.059155688 -0.12454992 -0.33818033 0.08130546 0.20232908 0.17241204 -0.38701418 0.07032831 0.20099993 -0.05718606 0.121971115 0.2560312 -0.1701331 0.11346925 -0.2453295
1342 0.039249238 -0.21801165 -0.14557074 0.19980176 -0.084758334 -0.07595431 -0.22335611 -0.2505399 0.056136183 0.25051996 -0.0421171 -0.13863492 0.24040896 -0.29512247 -0.012981735 -0.39862105 0.03296936 -0.29948738 -0.11025936 -0.028865656 0.12072498 -0.049077645 -0.06756802 -0.13435197 -0.1716146 0.2106344 0.2233648 -0.27564013 0.08705956 0.10012481 -0.2508717 0.0058143707 -0.4045105 0.42583176 -0.22657582 -0.21963276 0.088731 -0.24386118 -0.1171914 0.2253361 -0.24158771 -0.09608929 0.11600611 -0.09136365 -0.23642164 -0.020028802 -0.4055835 0.12814957 -0.11879491 -0.03539876 -0.11520293 -0.15081291 0.23431975 -0.3330171 -0.11440785 0.026574316 -0.12791613 -0.11549441 -0.17144915 -0.17044167 0.30620414 -0.22883816 0.06518576 -0.5290425 0.20902857 0.024038166 -0.30791238 0.0801799 0.3241214 -0.10542506 0.18097632 0.28077647 0.15962993 -0.6440188 0.26689395 0.07978696 -0.094614506 -0.30698597 0.3293854 0.39174685 0.167232 0.3568806 -0.106433146 -0.4204247 -0.3497982 0.026943294 0.44238484 -0.097938366 0.56445307 -0.17119317 -0.033029452 -0.16548482 -0.15291318 0.315629 -0.10970814 -1.1328951 -0.10800315 0.23718815 -0.02668451 0.32597077 0.20989642 -0.25614047 0.63129807 0.04100721 -0.006682309 0.11860818 -0.07234301 -0.5817308 0.12070475 -0.07326484 0.026457679 0.23465338 -0.41635108 0.087408334 -0.32336798 -0.34308004 -0.12711065 -0.07965671 0.18225715 -0.17002492 0.44515976 -0.0071317246 0.12309861 0.33397734 0.2941261 -0.35762528 0.2589747 -0.1470058
26 -0.01281035 0.22593494 -0.2068703 0.2184721 -0.062353563 -0.07851242 0.081947275 -0.49098888 -0.1221359 0.059250146 0.032668512 0.008058968 -0.15570556 -0.30762878 0.2948704 -0.14782856 -0.2101612 -0.46893793 -0.13527824 0.3298224 -0.06580322 0.09744732 -0.189423 -0.425276 -0.025378384 0.095332846 0.24286854 -0.11032372 0.049510594 0.107615665 -0.56970406 -0.026090726 -0.3345234 0.16414791 -0.4376696 -0.080862604 -0.13525979 -0.19628777 -0.16668123 0.009892949 -0.32084396 -0.051396385 0.00945381 0.0923509 -0.30625722 0.0042948597 -0.26406303 -0.17127626 0.024114149 -0.30086854 0.10523178 -0.39115015 -0.18563505 -0.6274498 -0.013319497 -0.42827484 -0.21316893 -0.032735147 -0.14519426 -0.24976821 0.20320527 -0.17567834 0.07415949 -0.40570453 0.16592684 0.14923741 -0.46338618 -0.102633044 0.22402655 -0.17038038 0.33469337 -0.15254429 0.21386637 -0.6047383 0.3799288 0.23170498 -0.28646678 -0.07706517 0.10982297 -0.14413542 0.43671075 0.43580472 -0.14720471 -0.19371888 -0.6035911 -0.1303968 0.42875156 0.29004538 0.27861896 0.036417548 -0.07561685 -0.19212528 -0.23823147 0.09953892 -0.086700015 -1.0082682 -0.1091878 0.0050673354 -0.026918288 0.15945491 0.042703677 -0.26804692 0.4269158 -0.22726485 0.11479465 -0.057750653 0.060635094 -0.042231392 0.21999243 -0.018800959 -0.053184457 0.17026027 -0.6200883 0.21259575 -0.31572643 -0.6909561 -0.13534716 -0.17773837 0.07930306 -0.3773823 0.3135786 0.013288492 0.007104415 0.107664995 0.60154545 -0.3706144 0.12632422 -0.037507985
1312 0.15910912 -0.15677899 -0.13195455 0.08139322 -0.087364644 -0.032206707 -0.04895799 -0.38024604 -0.057312712 0.5114703 0.077645674 -0.1788083 0.2894888 -0.35967875 0.023494398 -0.2572031 0.120947346 -0.38799447 -0.16076845 -0.022193335 -0.019403672 0.05081037 -0.17442723 -0.2979963 -0.087591074 0.23547749 0.01872056 -0.20455444 0.23021904 -0.03982697 -0.2573051 0.0428289 -0.28568736 0.43106282 -0.03207409 -0.081538744 0.033443112 -0.03751452 -0.02686715 0.13935842 -0.20264736 -0.21420659 0.089869834 -0.10998081 -0.2672859 -0.09328653 -0.33293757 0.028465793 -0.15153785 0.12002681 -0.12614048 -0.3886049 0.13677001 -0.36885205 -0.008785138 -0.3462351 -0.29327324 -0.027584748 -0.049053334 0.052928697 0.24342367 -0.15773684 -0.09308822 -0.34232146 -0.03657948 0.0072827395 -0.39769349 0.11688089 0.38391036 0.012072221 0.29951257 0.11892133 0.06464452 -0.5517562 0.41266212 0.22173965 -0.1145646 -0.2077087 0.24578159 0.07702697 0.052886654 0.34192592 -0.037462484 -0.4004289 -0.5216875 -0.07808429 0.43422955 0.13183409 0.3801937 -0.28980935 -0.087890126 -0.01179234 -0.002631065 0.004953427 -0.26251146 -0.8308264 -0.2681479 0.030934688 -0.15407017 0.22301848 0.05923215 -0.33494905 0.29695854 -0.03570432 0.057746366 0.0366816 -0.1081303 -0.48252353 0.19834632 -0.13276976 -0.06649813 0.04615689 -0.6430536 -0.027659757 -0.116685905 -0.60078776 -0.021328833 -0.14740172 -0.049801428 -0.26034686 0.32348442 0.05956005 0.23761821 0.06891466 0.43148342 -0.38522062 0.12894377 -0.20659336
31 0.0038938108 0.023312418 -0.028246118 0.23270294 -0.23631275 -0.2550409 -0.24405497 -0.28049514 -0.043992404 -0.03313729 0.33973533 -0.23253393 0.19864567 -0.40754434 0.15451452 -0.33011755 -0.07414335 -0.26443344 -0.027669065 -0.19127043 0.13116829 -0.1321022 -0.29816356 -0.2416073 0.031840395 0.1274196 0.074323446 0.043749567 0.013763088 -0.09861642 -0.24028681 0.14039408 -0.54991865 0.49359825 -0.34151128 0.040273555 -0.06248872 -0.34718016 -0.052779052 0.20506556 -0.35758632 -0.20649178 -0.0059843096 0.037514072 -0.019402612 -0.09688994 -0.5590983 0.1071252 0.084524445 0.05375899 -0.1061925 -0.22813496 0.062640086 -0.5517689 -0.020840527 -0.27107355 -0.18648073 -0.21350434 -0.3452889 -0.3401944 0.067471355 -0.32648897 -0.13180085 -0.55928856 -0.047040354 -0.016515147 -0.13712825 -0.119487144 0.17923504 0.031211983 0.17133707 0.4587789 0.05427382 -0.6706355 0.20962116 0.22118728 -0.025967425 -0.028902782 0.22411147 -0.09390257 -0.024463758 0.248499 0.08989196 -0.64690083 -0.32503697 -0.032826047 0.2754975 0.057258457 0.44327837 -0.013873154 -0.24901426 -0.05153227 -0.010105149 0.16447012 -0.12732008 -0.6261061 0.0979011 -0.11200656 -0.27604732 0.078189105 0.2203971 0.07167729 0.25392723 0.039919224 0.044218093 0.1246139 -0.058007788 -0.3161841 -0.3091752 -0.14829293 0.09120361 0.14909774 -0.24264987 0.08464197 -0.36325568 -0.39802969 0.024745554 -0.1694094 0.29861176 0.11797739 0.34229755 0.009105442 -0.10497624 0.11785716 0.10234326 -0.34210622 0.05115426 -0.13281074
560 -0.16534968 -0.15702665 -0.22337902 0.13579245 -0.33246893 -0.33748725 -0.09564679 -0.042045157 -0.1899552 -0.07338127 -0.007450903 -0.12967809 0.24638203 -0.4047905 0.11661393 -0.5852631 -0.07367408 -0.22122745 0.09784708 -0.12092921 -0.039497524 -0.030843355 -0.2312542 -0.1085978 -0.057216987 0.14091185 0.22814223 0.24089451 -0.15625258 0.25207254 -0.38518167 -0.13476181 -0.3253577 0.44651666 -0.041608077 -0.015685149 0.07220865 -0.23468938 0.24857926 0.36028692 0.023170514 -0.1737158 -0.07693515 -0.043965213 0.26377925 -0.10840068 -0.3021595 -0.15990795 -0.25065753 0.08331 0.10094 -0.118662596 -0.056636672 0.010744547 -0.02360446 -0.35174847 -0.30444387 0.018316785 -0.013452198 -0.026597502 0.40810204 0.009370949 -0.24967168 -0.42650428 -0.071092874 -0.096327275 -0.3953383 -0.16142093 0.34833047 -0.3230252 0.45735353 0.087105356 0.449423 -0.49348044 0.1230758 0.01905633 0.093189806 -0.31122708 0.38156638 -0.010322129 -0.12035443 0.3138146 -0.021214232 -0.44620532 -0.356314 -0.13368051 0.19563138 0.19990782 0.24783584 -0.115448125 -0.25860342 -0.22792928 -0.06518865 -4.1009157e-06 -0.06445967 -0.7777735 -0.21578054 0.44809806 0.07257914 0.20223002 -0.08386342 -0.41650397 0.21507064 -0.48386127 0.08452298 0.18365851 -0.010423571 -0.34635544 -0.09580192 0.009887718 -0.115556724 0.38146582 -0.43797928 0.018600376 0.04198671 -0.48953474 -0.18287958 -0.01130262 0.32764372 -0.45157543 0.3294742 0.30249125 0.020508615 0.11274254 0.29948336 -0.03680145 0.13036212 -0.12534511
104 -0.099247865 -0.018752899 -0.17280225 -0.06848078 -0.13617247 -0.12184483 0.0045733685 -0.21351795 -0.083624795 0.25381708 0.5536392 -0.2524585 0.1785532 -0.3946043 -0.007888088 -0.3993604 0.037447896 -0.27984944 -0.18324432 0.07228739 -0.05221039 -0.29369906 -0.33545953 -0.05949021 0.12269154 0.17723711 -0.026261283 0.074923985 0.17713968 -0.014981102 -0.31815505 0.22858763 -0.23938358 0.476266 -0.1378181 -0.25333798 0.24466535 -0.17001998 0.13396195 0.33668038 -0.16827549 0.044683963 -0.052185692 0.0046031065 0.03570574 -0.18649888 -0.61845535 0.04469766 -0.060833815 0.23064855 -0.036448874 -0.482876 -0.17588633 -0.33017546 -0.16783842 -0.16386311 -0.13237703 0.011632733 -0.27669898 0.0250172 0.22197148 -0.30208686 -0.19695456 -0.34972623 -0.28681904 0.05157153 -0.58849865 0.12028584 0.33975726 0.0032405006 0.4822583 0.16007577 0.10806851 -0.7369874 0.3592303 -0.12607957 0.059590258 -0.21002878 0.14043652 0.05203066 0.07819911 0.15515605 0.20201239 -0.21241389 -0.1391734 -0.014472012 0.18016309 0.11884928 0.54113585 -0.12924062 0.02630226 -0.027101181 -0.021345224 0.086444564 -0.4080069 -0.5327453 -0.050061986 0.30551097 -0.35776109 0.09066545 0.20751111 -0.11410097 0.41949955 0.091225095 0.16666771 0.37402794 0.004913368 -0.23388319 -0.025990106 -0.108407296 -0.033838335 0.2745035 -0.5106141 -0.0004395889 -0.19051747 -0.4770482 -0.15133774 -0.15528627 0.19956419 -0.49603388 0.45791605 0.17311937 0.06840252 0.3293255 0.5182298 -0.18353395 0.16349058 -0.08076611
1284 -0.07085214 0.044962 0.1317538 -0.0053348145 -0.097794145 -0.21319777 0.016185125 -0.09781181 -0.11381544 0.092893995 -0.06887217 -0.28678906 0.15983774 -0.12417493 -0.09788569 -0.3371933 -0.13932967 -0.14065176 -0.24597196 0.048481785 -0.11588938 -0.08638671 -0.07523867 -0.3269332 0.03601408 0.26213366 0.17125322 -0.14636232 0.19551183 0.2514789 -0.35252944 0.07722268 -0.43725845 0.21698968 -0.073732086 -0.027225632 0.013578104 -0.3102433 0.013622237 0.120165594 -0.28992027 0.043077853 -0.002838755 -0.012536359 -0.2907824 -0.15418516 -0.5715833 -0.047911856 -0.16280289 -0.101174854 -0.0025629315 -0.2417417 -0.2533969 -0.5249107 -0.27728844 -0.3620014 -0.18992513 -0.04527 -0.121235475 -0.06348602 0.04718408 -0.31955117 -0.076336324 -0.26322398 0.18456954 0.13712515 -0.2505478 -0.27377212 0.25978884 -0.055693243 0.5928222 0.31481752 0.26411468 -0.65564156 0.3149655 0.15693827 0.013741015 -0.32635403 0.011991996 -0.09731225 0.078024134 0.3978041 0.20161767 -0.5991872 -0.4426851 -0.13499698 0.3027627 0.28892738 0.49421483 0.14298257 -0.29918277 -0.3585697 -0.20516774 0.07787368 -0.30824533 -0.7929249 0.10108629 0.05422055 0.09054906 0.19095421 0.025034621 -0.22723737 0.5276075 -0.059544537 -0.19941355 0.1903763 -0.17926224 -0.20819956 0.08040391 -0.04106283 -0.19057569 0.05337917 -0.59253705 0.09764892 -0.19769977 -0.61916625 -0.14317788 -0.14247337 0.08059534 -0.36747798 0.25618574 0.048111472 0.097158395 0.07447425 0.5402448 -0.45707187 0.025427068 0.04410643
1311 -0.016816791 -0.10944391 -0.098444775 0.1662762 -0.14529063 0.06449129 0.15726738 -0.09931145 -0.2582397 0.20124373 0.05391225 -0.25435075 0.27629763 -0.45616272 -0.048529096 -0.47456825 0.21119027 -0.24928544 -0.157241 -0.064384736 0.05437315 0.039839786 -0.19665976 -0.2766539 -0.15817595 0.11414637 0.0593175 -0.16778411 0.29022652 -0.026180448 -0.4319978 0.15332636 -0.16074614 0.40064555 -0.17700714 0.13575566 -0.0350656 -0.013921435 -0.20174383 0.12297688 -0.19865943 -0.21801668 0.02409187 -0.1508493 -0.2848796 -0.028257716 -0.36635652 0.06055059 -0.29376402 -0.019498607 -0.25878662 -0.17674653 -0.0053298716 -0.24595128 -0.19198701 -0.30390805 -0.23290898 -0.19401655 -0.23141009 -0.1670535 0.23016994 -0.26046824 -0.29544526 -0.42043945 0.09933993 -0.029583655 -0.27441958 0.012561609 0.50201494 0.0052136793 0.1739372 0.12546784 0.06558748 -0.55592144 0.18336487 0.08871044 -0.023368247 -0.24341561 0.2735247 0.022928666 -0.10618821 0.33755443 -0.033021443 -0.41079572 -0.7786261 -0.16907907 0.34632125 0.078302495 0.42002267 -0.2817986 -0.27118877 -0.0031926036 -0.054581776 0.056843456 -0.36002946 -1.070544 -0.14655553 -0.055834427 -0.10548335 0.12986514 0.08409199 -0.21098119 0.46398917 -0.11395674 0.041787513 -0.06620489 -0.13847467 -0.44624317 0.1724105 -0.115897655 -0.043619752 0.27422738 -0.57313895 -0.07806324 -0.30619857 -0.44961113 -0.07848169 -0.13515627 -0.12632059 -0.107597716 0.29798862 0.2395074 0.12807111 0.066411175 0.4453721 -0.24353884 0.21722372 -0.16299413
1623 -0.1390463 -0.18938825 0.01249645 0.09122978 -0.25051728 -0.17155987 0.1931737 -0.024555558 -0.027238335 -0.083048016 0.1752962 -0.31212687 0.22197415 -0.5345758 -0.029394954 -0.6979117 0.03502261 -0.2761471 -0.1899145 0.14225055 -0.24296533 -0.2936592 -0.31727377 -0.26704368 0.11178871 0.076823436 0.19720066 0.23162256 0.31546938 -0.0067006503 -0.54903305 -0.012902232 -0.44628397 0.5688835 -0.21691833 -0.02778182 0.36242458 -0.10084835 0.33062705 0.24184218 -0.23102467 -0.2178434 -0.11623427 -0.08310405 0.11974508 -0.13920988 -0.464853 -0.036190618 -0.28758904 -0.006663037 -0.07357967 -0.40663448 -0.26157862 -0.36002076 -0.110480584 0.06364646 -0.25510293 -0.075822115 -0.07201016 -0.19492573 0.06958434 -0.13924077 -0.12689234 -0.26561302 -0.14969712 0.0939696 -0.5464017 0.15712756 0.18907969 0.15318239 0.28140098 0.20376316 0.23135869 -0.6124828 0.28687015 -0.047999855 0.004144511 -0.37313724 -0.022378944 0.0515339 0.2097494 0.20358662 0.2769679 -0.36630845 -0.3476995 -0.13794516 0.15333842 0.20163618 0.4548859 -0.23625948 0.098529726 -0.045823865 0.14668289 -0.132282 -0.49937758 -0.5270111 -0.24086133 0.2538681 -0.12794515 0.23700762 0.11917394 -0.16917527 0.49797234 0.0077138674 -0.074526854 0.2521783 -0.2135248 -0.17089945 0.18521723 -0.056788493 -0.12765372 0.35691398 -0.68281174 0.028415246 0.15673478 -0.4953444 -0.08297769 -0.073062226 0.2536414 -0.46351522 0.06560578 0.22465299 -0.048992544 0.19358978 0.58250904 0.07267114 0.22004044 -0.08618491
1668 -0.29539502 0.112174466 -0.04131974 0.3447123 -0.24804474 -0.35958782 -0.021577744 0.17188537 -0.08166204 -0.15343009 0.034400187 -0.31921977 0.052970786 -0.10905512 0.061590943 -0.73443574 0.005296629 -0.4849954 -0.08348196 0.026658433 -0.35951892 -0.04661605 -0.15832217 -0.15979728 -0.011170034 0.16361164 0.31320474 0.28362975 0.011519842 0.2870095 -0.44409508 0.08997599 -0.35407808 0.41057462 -0.25796002 0.06827189 0.044169553 -0.1343755 0.36309862 0.39173627 -0.048077647 -0.16226801 -0.0070182923 -0.185904 0.0707846 -0.33779618 -0.374382 0.32615548 -0.0964998 -0.058459964 0.08049539 -0.38843787 -0.04844562 -0.18279071 -0.30476806 -0.24900551 -0.2836066 0.032007676 0.2072935 0.17988576 0.38646454 0.1819869 -0.096411966 -0.07737905 -0.039548907 -0.2008401 -0.21560821 -0.17709488 0.18490113 -0.015688377 0.17569457 0.31339735 0.10184959 -0.5691907 0.42428467 -0.16973609 -0.10330633 -0.28763777 0.12296612 -0.06357255 0.19073033 0.23139612 0.1830687 -0.3667222 -0.02160297 -0.19029099 -0.055521764 0.045184027 0.38509774 0.073690414 -0.13397643 0.027785785 0.11368665 0.42259032 -0.3914926 -0.817945 -0.21022706 0.11235112 -0.046189267 -0.18808538 -0.015016746 -0.3673844 0.3586991 -0.11284375 0.09199811 0.26732385 -0.04950743 -0.258158 0.036126725 0.34071195 0.17519256 0.33875486 -0.23580833 0.0042504496 0.16689289 -0.5202249 0.092125535 -0.09882871 0.3811595 -0.3609124 0.6895263 0.24807249 0.16938014 0.46308526 0.66312766 0.02243095 -0.06797696 -0.2646015
524 -0.05754232 -0.1722087 -0.07116082 0.018225662 -0.21259253 -0.34867665 -0.26664907 -0.19022319 -0.11464857 -0.15678373 0.16233395 -0.24345848 0.0239995 -0.294817 0.13183506 -0.39338306 0.040749952 -0.31096554 -0.070593245 -0.07987324 -0.10184237 0.09457678 -0.3733732 -0.22620049 -0.17646843 0.25293326 0.10342995 -0.13076656 -0.20789875 -0.06567156 -0.40429637 0.1556257 -0.1924804 0.7935232 0.06423754 -0.0106843 0.102168776 -0.13937418 0.27217147 0.40878588 -0.23624669 -0.023004737 0.061337568 -0.030593181 -0.16302387 -0.113028444 -0.5869012 0.25679824 -0.18138765 0.040194135 -0.23463768 -0.037215024 -0.045088824 -0.17673005 -0.066288285 -0.18583958 -0.039519172 -0.3038018 -0.064797476 -0.010808758 0.18255167 -0.18560262 -0.19127 -0.3744476 -0.030708505 -0.2945557 -0.1463439 -0.008791272 0.4135089 -0.15490232 0.3677067 0.10753968 0.0301567 -1.0635037 0.35656625 -0.029264437 0.15179934 -0.15912898 0.1882204 0.17068802 0.099161096 0.1303897 -0.100346476 -0.009201304 -0.33734205 -0.027239993 0.35579687 0.23120067 0.30010372 -0.21133807 -0.37191355 0.06897469 0.07038957 0.2429494 -0.3747267 -0.6787965 -0.34461352 0.30839264 -0.072629735 0.07501579 0.012020536 -0.032131024 0.15798871 0.05574422 -0.041227646 -0.10110298 -0.12357619 -0.38306272 0.1586328 -0.102972426 -0.03940409 0.044800725 -0.6049919 -0.08292197 -0.21188971 -0.3229004 0.02909282 -0.32733843 -0.0037265345 -0.39212713 0.31354856 0.31155425 0.23154338 -0.01753295 0.5839656 -0.26457942 -0.043547705 -0.0011154619
1755 -0.28553703 -0.1465914 0.01395368 0.11326044 -0.1704269 -0.24420634 0.102452606 -0.09942845 -0.24186987 0.36379918 0.17058088 -0.31447273 0.15878943 -0.36450464 0.1775263 -0.35616463 0.19942598 -0.3176171 -0.37982407 -0.07789014 0.13615808 -0.1789575 -0.24001691 -0.43459728 -0.1861851 0.39373964 -0.27213594 -0.1627778 0.22160855 -0.08598245 -0.68986565 0.06310045 -0.19620748 0.5544582 0.02249868 -0.037643936 0.005468605 -0.1773055 -0.083055936 0.22928354 -0.16464981 -0.1979995 0.124770954 -0.29602486 -0.26046523 0.11685866 -0.5749493 -0.041397985 -0.20036837 0.016713709 -0.18452547 -0.33350605 0.10385847 -0.5282647 -0.14912412 -0.36064556 -0.1170298 -0.050273977 0.060651653 0.0042408817 0.27849558 -0.3227638 -0.2746215 -0.3839304 -0.05597455 -0.2929831 -0.5248507 0.19893566 0.2190997 -0.12761971 0.347507 -0.031840302 0.15484811 -0.7245809 0.29142812 -0.05430138 0.031361427 -0.2021826 0.42340955 0.18956432 -0.26601344 0.35298035 0.17638852 -0.27442724 -0.35429454 0.10187781 0.24297543 0.18929285 0.3978842 -0.21697995 -0.3479793 -0.044533435 -0.13671803 -0.14875257 -0.5245414 -0.6741227 -0.30457267 0.21159223 0.014686118 -0.0395393 0.031920362 -0.20412345 0.29387528 -0.042860087 -0.15639342 -0.03583514 -0.1231196 -0.37445498 0.12530857 -0.20199697 0.014030665 0.18495536 -0.5888499 0.022756752 -0.2799695 -0.4596622 -0.0844384 -0.29202142 0.023605825 -0.37511724 0.24252757 0.016330272 -0.016436702 0.13208732 0.29975918 -0.2961811 0.16740507 -0.080623515
94 -0.09796262 -0.062515214 -0.17267263 -0.059568245 -0.1985316 -0.29753342 -0.11847288 0.14999557 -0.11174685 -0.09648465 -0.093772285 -0.19257452 0.21215914 -0.075874634 0.21638854 -0.38557547 -0.25475022 -0.26281083 -0.06343901 0.11906514 -0.16160508 -0.11191673 -0.04271857 -0.06617641 -0.21200939 0.30057955 0.47635943 0.15125796 -0.026999068 0.24336304 -0.5075718 0.11563766 -0.48975244 0.58100474 0.0581538 0.19276422 -0.14447573 -0.26831895 0.13118802 0.41162667 -0.20034274 -0.26795316 0.01748444 -0.04842683 0.45692477 -0.119530655 -0.23486519 0.0054138834 -0.28514042 -0.18610583 0.17342673 -0.340244 0.09271475 -0.13882993 -0.24889922 -0.55648977 -0.33851337 -0.25511542 -0.08305571 0.056209173 0.45669556 -0.2229671 -0.24538937 -0.36653283 0.14869599 -0.14349268 -0.39026016 -0.3439145 0.12501773 -0.15212967 0.44752678 0.09491725 0.26051512 -0.71799207 0.21566652 0.044642024 0.2098727 -0.38057345 0.5257593 0.00014558199 -0.08572733 0.3036754 -0.23691788 -0.33219603 -0.27137727 -0.21715386 0.15410732 0.15272722 0.60183555 -0.11544801 -0.29052612 -0.130492 0.07964716 0.13592826 -0.09395409 -0.6310286 -0.269899 0.074225016 -0.07023051 0.1198746 -0.3159122 -0.1557985 0.25412446 -0.32742542 -0.3348674 0.2899121 0.0769502 -0.29980913 -0.064557016 -0.0069965725 -0.28067687 0.30630893 -0.23087151 0.00807275 -0.17228349 -0.45369625 -0.16946891 -0.09321723 0.3410938 -0.680244 0.34345582 0.3644836 0.2161648 -0.020834709 -0.02718889 -0.02500009 0.19917196 -0.11769456
232 0.027622797 -0.2030016 -0.031149492 -0.03739473 -0.17727791 -0.3792584 -0.0538193 -0.17779432 -0.18194862 -0.040166523 0.058665544 -0.16526929 -0.4076978 -0.53117275 -0.14003806 -0.2807235 -0.09883821 -0.35895815 -0.005971995 -0.074065104 -0.0121754715 0.030852538 -0.21036135 -0.14389698 -0.037587427 -0.03163924 0.36011648 -0.15850826 -0.24777374 0.01944599 -0.28999 0.31398395 -0.5760356 0.6775121 0.10223972 0.09230916 0.2778112 -0.47654295 0.22248411 0.43943253 -0.015953658 -0.26841697 -0.23333475 -0.21790771 0.20119806 -0.16450459 -0.42286307 0.23045997 -0.11680089 -0.04589088 -0.14942585 -0.059298087 0.0933907 -0.39734635 -0.3236519 -0.3417955 -0.15431221 -0.17422207 0.15650438 -0.3054811 0.59029955 -0.21969742 -0.1508353 -0.1783383 0.122469455 0.028741056 -0.44409963 -0.3144019 0.41447598 -0.33183515 0.2604105 0.15514946 0.023881137 -0.52976793 0.09782432 0.09805404 -0.07687648 -0.121050954 0.32050806 0.116669476 0.09194004 0.23768799 -0.34521645 -0.4770956 -0.73855376 -0.28018484 0.07345139 0.09265108 0.28332964 0.24927928 -0.2259696 0.12661216 0.0798643 0.052569747 -0.38631892 -0.7183574 -0.23785047 0.2787075 -0.14716047 -0.045911573 0.07711793 -0.039079286 0.5635414 -0.10450362 0.31696665 0.053316366 0.02622225 -0.042117517 0.076703064 -0.36113897 -0.2120518 0.23890586 -0.3571385 0.03756355 0.038196918 -0.30711177 0.07625985 -0.121594444 0.18765709 -0.38988078 0.5410572 0.39966962 0.4076601 0.1667836 0.4614884 0.07744471 0.18858679 -0.16037881
1666 -0.029656738 0.062037297 -0.32245073 0.069471344 -0.12272659 0.0004112041 0.11656481 -0.53909403 -0.04556102 0.17122653 0.27931714 -0.23518787 0.29713848 -0.16943985 0.16531633 -0.18520376 -0.16923943 -0.20212026 -0.08817547 -0.20286418 -0.081555046 0.042449776 -0.27255064 -0.052353825 -0.101573184 0.043766145 0.41922715 0.060230963 -0.19948046 0.04698816 -0.3174429 0.028900102 -0.18815099 0.5843199 -0.009738774 -0.19244859 0.2720747 -0.41677326 0.2933495 0.25273225 -0.2265147 -0.2442578 -0.0033071039 0.082859695 0.06477106 -0.2824873 -0.14208978 0.09073617 -0.06849398 0.049604718 0.15845746 -0.41539532 0.2629754 -0.3383957 0.18138996 -0.45689404 -0.119350515 -0.12619488 -0.4151507 -0.2014946 0.35394442 -0.0064609176 -0.15063295 -0.7326086 0.16523749 0.060844153 -0.5029657 -0.06551737 0.4264764 -0.15676697 0.51368654 -0.09990734 0.27909374 -0.331683 0.47632232 0.14920183 -0.16255373 -0.24280304 0.32936883 0.122380994 0.39783457 -0.19326837 -0.019197457 -0.53071094 -0.12760207 -0.033990633 0.40397796 0.2817289 0.15094678 0.30520374 -0.15571725 -0.13790041 0.11008037 0.13812028 -0.013485235 -0.56101775 -0.28630573 0.5022614 -0.17558752 0.24817172 -0.00080888544 -0.2961983 0.33027908 -0.32751498 0.36380485 0.19468649 0.044861503 -0.27741033 -0.15605792 -0.019792378 -0.1395733 0.4037996 -0.46011335 -0.053225037 -0.2477923 -0.4822341 -0.29166758 -0.10340566 0.35010546 -0.3771344 0.5323405 0.12499079 -0.0038326222 -0.017894762 0.3447507 -0.16433614 0.1135363 0.00041590765
66 0.036189876 -0.1378167 -0.09871165 0.10059829 -0.42870656 -0.21408512 -0.0620027 -0.36194617 -0.40213582 0.28739765 0.2722501 -0.29284734 -0.0140217785 -0.4216574 0.2785493 -0.6280724 -0.34427086 -0.53046644 -0.28491503 -0.15360016 -0.029195517 -0.3167863 -0.52685076 -0.48150137 0.13380809 0.25682536 -0.17071459 -0.08241788 0.15248868 0.194652 -0.38926286 -0.12236613 -0.332242 0.3383573 0.0019205263 -0.22097148 -0.015729554 -0.4184503 0.10034346 -0.16457762 -0.28016022 -0.13702264 -0.10815519 0.18506967 0.052208763 -0.04140587 -0.3171122 0.04797316 0.12664908 0.2456632 -0.004685071 -0.18917729 0.012565626 -0.5866578 -0.29656968 -0.16086306 -0.34111902 -0.14404419 -0.26730308 -0.1698554 0.46847528 -0.32418492 -0.046085667 -0.79650444 -0.13798298 -0.16272086 0.09642137 -0.14372598 0.052489694 0.09979699 0.32848546 0.40448067 0.21929944 -0.6401354 0.019011615 0.08314129 -0.03534155 -0.03241248 0.3103269 0.037909187 0.012734802 0.5514624 -0.0034752227 -0.33368427 -0.051845353 -0.07008136 0.22571418 -0.10797371 0.51660496 -0.29968444 -0.15060285 -0.025043134 -0.16272597 -0.037753593 -0.15580761 -0.8235011 0.029464018 -0.19246465 -0.18452516 0.10719204 0.33564907 -0.087477826 0.235727 -0.010641601 0.010370904 0.0035727862 0.111664854 -0.3163232 0.011682672 -0.37431562 0.067553975 0.41842023 -0.45239303 -0.120604075 -0.015525402 -0.48372704 -0.22608128 0.10207762 0.064163156 -0.07030856 0.36030436 -0.16062522 0.04290597 0.23572944 0.44089198 -0.30514166 -0.074920975 -0.11380067
808 -0.03159493 -0.13261661 -0.07032807 -0.17909898 -0.12894836 -0.24664667 -0.092397556 -0.010797524 -0.1485863 -0.3565119 0.04811581 -0.00417553 0.35819182 -0.439156 0.03346797 -0.514435 0.15423834 -0.48032433 -0.13249148 -0.13308148 0.14563169 0.008048893 -0.46502152 -0.4261948 -0.064205065 -0.05306406 0.2899491 -0.17456381 -0.0834962 0.2997204 -0.32087642 0.007992027 -0.43210068 0.6205013 -0.14613865 0.026917988 0.18554819 -0.22895412 -0.07898009 0.24031846 -0.033018827 -0.29870728 0.080655165 0.097464286 0.081831574 -0.15080129 -0.3509175 -0.118920065 -0.13784888 0.03637791 -0.007487624 -0.13656437 0.053278204 -0.4337196 -0.013493583 -0.46690485 -0.082667366 -0.3552695 -0.17257214 -0.36470392 0.2543595 0.0042606415 -0.24477026 -0.23151363 0.14725757 -0.1328429 -0.27767658 -0.20187286 0.3304656 -0.0847968 0.3798746 0.40085366 0.4661014 -0.59367824 -0.013545443 0.16372307 -0.103923306 -0.22277248 0.011338161 -0.079417616 0.1761349 0.111854345 -0.0005660734 -0.06971798 -0.4054712 -0.10955538 0.2630923 0.06947029 0.42007196 0.30154353 -0.016649267 -0.02364525 -0.08850282 -0.00090616016 -0.25660303 -0.79923636 -0.4571949 0.082361065 -0.031886857 -0.015950372 0.16828167 -0.095094584 0.12341408 -0.1908113 0.04301311 0.11534296 0.08584539 -0.71806145 0.14828856 -0.044745523 0.02444758 0.1293615 -0.33563486 -0.17947933 -0.49279112 -0.6109264 -0.15735567 0.1539531 0.3168697 -0.09727225 0.36339897 0.3874036 0.28997242 0.25937036 0.24770527 -0.114817075 0.09362569 -0.11397378
1492 0.16246118 -0.19436549 -0.1665766 0.18433025 -0.1338575 -0.2226612 -0.42220032 -0.38426468 0.24346596 -0.1377332 -0.009000632 -0.037051663 -0.2195923 -0.3021528 0.09662748 -0.45756274 -0.030872025 -0.3066051 -0.12912625 -0.070251495 0.24651948 0.024952533 -0.20799813 -0.32296354 -0.030548837 0.4369231 0.5182599 -0.08213522 0.2837578 -0.06395531 -0.15040326 -0.06020664 -0.30594823 0.6114657 -0.06590514 -0.010739981 0.114521645 -0.04192286 0.11908632 0.56134593 -0.17265728 -0.09519497 0.1291101 0.08115244 0.052105825 -0.33097926 -0.55335605 0.12387669 -0.08483412 -0.052363247 0.054905377 -0.013197737 0.14597346 -0.14605375 -0.21178527 -0.26469722 -0.2780846 -0.24095862 -0.05775786 -0.23579615 0.2379211 -0.023369597 -0.01251275 -0.6968781 0.31438732 -0.150237 -0.22636537 -0.18922442 0.168472 -0.29548365 0.38005072 0.30635515 0.27862668 -0.50714725 0.1596344 -0.24375267 -0.13091025 -0.38174 0.21640566 0.22421816 0.09594651 0.29339677 -0.21923558 -0.22903848 -0.30494794 0.07120016 0.20942381 0.12956376 0.44573194 0.11432823 -0.3591999 -0.09670678 -0.14053638 0.027813723 0.036522564 -0.9298173 -0.31156343 0.22729775 -0.036980752 0.05569896 0.043878537 -0.331352 0.33230942 -0.19621024 0.016150376 0.24822468 -0.04622451 -0.48003244 0.22745173 -0.04028902 -0.116794325 0.15618925 -0.2436585 0.1496875 -0.21527745 -0.32026264 0.121974744 -0.04386519 0.10061112 -0.094584435 0.45189893 0.16609445 0.12870282 0.08445942 0.3204855 -0.40970308 0.3006623 0.04064918
1279 0.07522827 -0.0938241 -0.06990158 0.091796234 -0.008603153 -0.33559957 -0.033702876 -0.47604933 -0.3032751 -0.25227723 0.050514974 -0.15340129 0.2433932 -0.28727964 0.023818972 -0.23480861 -0.25559077 -0.37510276 0.05829184 0.0710906 -0.07741702 -0.0500589 -0.1130623 -0.050231095 -0.02980332 0.15788296 0.10907761 -0.19522934 -0.25623855 0.25745443 -0.37422228 -0.014331319 -0.32163483 0.7731538 0.08123345 0.020653643 0.13877112 -0.2626562 0.30432716 0.34540963 -0.32358858 -0.12350712 0.026858676 0.1533453 -0.009154549 -0.032030024 -0.50618017 0.14380041 -0.31158924 0.06683414 -0.14077903 -0.21986647 0.24163978 -0.16678175 0.084571004 -0.06561313 0.057329986 -0.21055564 -0.0066547287 -0.16021624 0.4103461 -0.19344984 -0.18095593 -0.34394836 0.15167731 -0.14253798 -0.20851849 -0.12094817 0.16721736 -0.31421655 0.73709816 -0.050480776 0.07269683 -0.79758954 0.36415148 -0.057995968 0.30452606 0.016771184 0.27045065 0.37411028 0.18486439 0.10638832 0.035132144 -0.17455794 -0.4054527 -0.10123071 0.4059306 0.048042156 0.31784394 -0.033942744 -0.31218407 -0.08432937 0.11116963 0.38922822 -0.29178587 -0.59333843 0.044582013 0.26873314 -0.10125319 0.18674909 0.0060456637 0.2223285 0.23330116 -0.11228743 0.1993731 -0.12727217 -0.1771325 -0.28764954 0.14760008 -0.18728529 -0.04894527 0.33739525 -0.3550701 -0.053568434 -0.1819134 -0.054684337 -0.057894584 -0.17574576 0.16354927 -0.5285284 0.2450413 0.21361408 0.18399477 0.16036482 0.5153876 -0.14343837 0.116657734 0.114224374
1112 0.027451595 -0.27382904 -0.18274376 0.10967541 -0.2408209 -0.008193433 -0.24964043 -0.5297696 -0.05909101 0.13335057 0.036680397 -0.07241245 -0.14896311 -0.22784884 0.022213973 -0.6267429 -0.03647885 -0.23867026 -0.2886507 -0.051416125 0.09180794 -0.1396004 -0.24871747 -0.3618415 -0.16681351 0.30587208 0.37741265 0.026878078 0.3669435 0.020790325 -0.13831718 -0.19353908 -0.16618304 0.3841567 -0.12383228 -0.13469875 0.08198767 -0.14405192 0.2611916 0.44469374 -0.23724833 -0.1416797 0.09695638 0.11878637 -0.0003991093 0.015696142 -0.40090132 0.15141192 -0.11024409 -0.029535659 0.11791485 -0.08024059 0.25707927 -0.26862383 -0.12920499 -0.22407287 -0.16953886 -0.31651953 -0.23636271 -0.30442998 0.24730864 -0.04187909 0.06207428 -0.69956094 0.02873403 -0.14277172 -0.10775092 -0.021342445 0.26548338 -0.22909154 0.29890844 0.084865436 0.10030304 -0.43336675 -0.015483904 -0.13867694 -0.082812145 -0.08586613 0.3272785 0.15501507 0.068901785 0.29601204 -0.2934423 -0.15851712 -0.33992264 0.11728406 0.08791197 0.017731639 0.34808186 0.053012244 -0.4370366 0.010974206 -0.21953209 0.15946694 -0.053145543 -1.103237 -0.29075965 0.22171797 -0.11904111 0.32296985 0.14804488 -0.42324418 0.4489962 -0.3158816 0.0346099 0.36240625 -0.029058378 -0.39520195 0.2101309 -0.23889111 -0.033002496 0.32618928 -0.3104973 0.10172394 -0.28888798 -0.45630497 -0.000875903 -0.16148241 0.12154494 -0.028119609 0.30845472 0.15701078 0.14945982 0.15429178 0.48544165 -0.31365755 0.34945348 0.026189301
1740 -0.030853717 -0.052541457 -0.2886257 0.4332772 -0.17725965 -0.24260429 0.07175408 -0.34235153 -0.25852373 -0.5552334 -0.12943362 -0.063783914 0.1716226 -0.5013404 0.15047021 -0.17905638 -0.13055624 -0.4260922 -0.18031663 0.15867999 0.30427575 -0.067113176 -0.37749854 -0.10543744 0.0012904209 0.17543446 -0.0240314 -0.21838197 0.24949484 -0.009789845 -0.4014433 0.2973448 -0.31807104 0.4229219 -0.21252775 -0.0031296553 -0.09487603 -0.2424637 -0.003050792 0.5741126 -0.0030658627 -0.12412915 0.14615454 -0.30466065 -0.075330384 -0.12272155 -0.58439505 0.041672766 0.33346778 0.148187 0.2207917 -0.36276802 0.095921375 0.08530862 -0.3482703 -0.21238458 -0.08286406 0.21558766 -0.50881237 0.10193745 0.5251867 0.037626196 -0.37132686 -0.19935067 0.06197202 -0.27605522 -0.33353415 -0.33002278 -0.15950069 -0.27101266 0.26710245 0.16898024 0.2514456 -0.7280259 0.3667618 -0.28251517 0.2363177 -0.29803777 0.072456054 0.064264275 0.04805409 0.17250757 0.008956648 -0.48630112 -0.5085986 0.0944815 0.16098666 -0.10865786 0.46238187 0.36353928 -0.35084105 -0.2206561 -0.20495676 0.42788324 -0.44360223 -0.45522022 -0.06982969 0.20230371 0.24879219 0.2750238 -0.042613424 -0.39244696 0.3262057 0.12591374 0.17839645 0.27434456 0.30841094 -0.09154335 0.13694768 0.059309635 0.05688569 0.16708578 -0.16661257 0.14820702 -0.20505421 -0.43432206 -0.04011709 -0.21306469 -0.13415581 -0.26866582 0.659961 0.52095747 0.008904364 0.2291017 0.42090434 -0.45689645 0.084804215 -0.12959895
1254 0.017643675 -0.24897854 -0.17361937 0.37645814 -0.29062602 -0.1861679 -0.08078435 -0.24173912 -0.11564933 0.07699001 -0.10760809 -0.07827749 0.480059 -0.5093602 0.03004973 -0.17584519 -0.04010196 -0.24086292 0.16050312 0.11412683 0.026780816 -0.18240303 -0.06353821 -0.02030295 -0.08329808 0.023797605 0.10468232 0.047202706 0.17810605 0.06891756 -0.3228967 0.17767753 -0.72357583 0.5680112 -0.3463274 -0.19347198 -0.048699774 -0.22305922 0.23815152 0.3418893 -0.10189535 -0.3023965 -0.04126082 0.12560527 -0.23678179 0.09148206 -0.3699777 0.09884019 0.039420564 0.11209213 -0.14581937 -0.41720673 0.0105750365 -0.31125703 -0.1519786 -0.06803328 0.05522623 -0.011725931 -0.3920872 -0.31130755 0.2158031 -0.23582958 -0.10435946 -0.59032226 0.104156144 0.019072738 -0.46371156 0.039220378 0.2581941 0.019962503 0.3217821 0.31481096 -0.032087404 -0.5480751 0.3623673 -0.113292836 0.05974661 -0.23392084 0.17471102 0.34647077 0.1561694 0.1719378 -0.23957503 -0.50706476 -0.18420702 0.17451786 0.3150919 -0.13578545 0.4900202 -0.1492929 0.1090991 -0.119935006 -0.0060339463 0.3683936 -0.17261794 -0.62552553 -0.18378548 0.26990065 -0.25785482 0.5262554 0.08784532 -0.4672259 0.58503526 0.04790606 0.037832342 0.10285723 0.029637145 -0.3104675 0.076601736 -0.46042135 0.19232802 0.28328386 -0.35827574 0.14035085 -0.27558514 -0.44440463 -0.1306253 -0.024895344 0.20322159 -0.22335489 0.29632232 0.037035517 0.24984807 0.166039 0.4157339 -0.15358344 0.33844435 -0.036261067
968 0.06926523 -0.15813547 -0.008224513 -0.06332042 -0.33533666 -0.37140083 -0.19658892 -0.46489084 0.08530033 0.0019612808 0.07802568 -0.3319591 0.32159603 -0.36292833 0.122243874 -0.67716503 0.26677608 -0.338319 -0.13504118 0.040464733 -0.029593501 0.16339746 -0.52647966 -0.27893326 -0.2362598 0.19797865 0.50964916 -0.028929912 0.018423397 0.13346176 -0.16825253 -0.12851748 -0.2995926 0.6472444 -0.11432299 -0.09993831 0.28855234 -0.20152584 0.23074321 0.4554696 -0.21465766 -0.16835341 0.18312329 0.00038675917 -0.041966815 -0.28182578 -0.5418743 0.016594848 -0.050417878 0.19046381 0.14687654 -0.1877328 0.35008 -0.3334436 -0.057064522 -0.13061172 0.014552732 -0.32174674 -0.010254246 -0.13965529 0.5187417 0.05495496 -0.152209 -0.7568087 0.42510676 -0.044966653 -0.3824384 -0.18450193 0.32156867 -0.21385814 0.5257065 0.2628609 0.45925155 -0.34862503 0.034804612 0.13567178 -0.2615792 -0.5506742 0.24748439 -0.021576187 0.15926278 0.013647186 0.011928735 -0.14582522 -0.09090523 -0.06505301 0.24988298 0.16570151 0.29664806 0.37646624 -0.38137037 -0.03937363 -0.106615946 0.10353384 -0.07397164 -0.82792544 -0.51368004 0.3113214 0.21830466 0.07196161 0.050108764 -0.3780984 0.23448932 -0.46556222 0.24084154 0.021890938 -0.1629653 -0.59277904 0.14520556 0.24117321 0.030562006 0.21981712 -0.22057723 -0.21169715 -0.3625556 -0.37699416 -0.13495119 0.027909491 0.20147334 0.036854908 0.4649824 0.16200407 0.35612452 0.075696476 0.3765976 -0.12691355 0.21731353 -0.038944963
1747 0.10873843 -0.027525896 0.121874586 -0.069716476 -0.4667581 -0.4823202 0.17261976 -0.12493084 -0.17823309 0.013443768 0.2707855 -0.40030554 -0.0447731 -0.34052905 -0.13200644 -0.54958194 0.02083025 -0.5206259 -0.31681284 0.18885277 -0.117229246 0.04712607 -0.56375533 -0.24987094 0.049357604 0.10116114 0.05740288 -0.06911746 0.24396971 0.10612639 -0.40298694 -0.07003644 -0.39804974 0.42081058 -0.048230942 -0.06984308 0.072901264 -0.3734719 0.14116324 0.26828325 0.05032666 -0.12666816 -0.07890314 0.14408222 0.28203043 -0.23187426 -0.15187761 0.24862236 0.05514579 0.28055298 0.2761715 -0.47035903 0.49199057 -0.52142435 -0.06611285 -0.2530128 -0.13530757 -0.26749945 -0.36657766 -0.2690982 0.5739953 -0.30827174 -0.072841406 -0.34831828 0.5065457 0.261792 -0.23575205 -0.3087337 0.19448057 0.12915127 0.40338555 0.14575054 0.06672701 -0.21866225 0.20461255 -0.029734423 -0.2886055 -0.1719419 0.44689095 0.2998386 0.17919864 0.1196096 -0.357303 -0.39821357 -0.3461373 -0.3007956 0.20154932 -0.05346977 -0.065865956 -0.026301797 -0.38707817 -0.011087025 0.048034664 0.28827682 -0.11115088 -0.6730066 -0.37134242 0.08703826 -0.19552629 -0.06729352 0.009976287 -0.14123967 0.45342955 -0.3849722 0.51388836 0.23555207 -0.014124457 -0.385553 0.19908185 -0.3098212 0.5690157 0.22136344 -0.11909243 -0.0077169524 -0.19389454 -0.42186162 -0.23871362 -0.11836424 0.16627355 0.15613316 0.536156 0.21423133 0.4792074 0.102506354 0.5967355 -0.15697046 0.2153043 -0.015135352
556 -0.18159243 -0.10834192 -0.14412485 -0.106833026 -0.24308814 -0.38967508 -0.27162534 -0.24230173 0.067414515 -0.056860965 0.18781331 -0.37165132 -0.09614375 -0.4099207 -0.062289055 -0.38590136 0.0036517463 -0.1375922 0.048794895 0.064140305 -0.11850924 0.08351746 -0.18396696 -0.2634139 -0.12759042 0.15542671 0.033665065 -0.08177623 -0.08566904 -0.004632769 -0.67554325 0.18337983 -0.26759416 0.30456403 0.024651589 0.019225078 0.2186523 -0.41025156 0.27483884 0.5550967 -0.22077964 -0.019916436 -0.030041292 -0.064932406 -0.3327808 -0.097535826 -0.710339 0.08584319 -0.2345572 -0.07686415 0.22212681 -0.4167762 -0.12902804 -0.5685064 -0.04604942 -0.2605983 0.07274405 -0.42273095 -0.22094147 -0.061213695 -0.0041680196 -0.36778122 0.11647598 -0.33640188 -0.13506944 -0.10314909 -0.22353135 -0.22999983 0.31642592 -0.004892833 0.4516793 0.13507016 0.015054911 -0.6801943 0.4205693 0.037307505 0.3057465 -0.23771085 0.3936211 0.0914352 0.11477237 0.25033602 0.012358516 -0.0025595985 -0.24775472 -0.05931653 0.006722735 0.18601786 0.3057416 -0.0772363 -0.18491358 0.022653468 0.058801316 0.19530427 -0.31629267 -0.5689295 -0.42823508 0.19524503 -0.3460695 0.113056846 -0.010138113 0.17171142 0.21853396 -0.24633525 -0.1629522 0.16100307 0.27884528 -0.18710127 0.09263525 -0.17325014 -0.04447166 0.30475354 -0.85735273 0.05324075 -0.2914033 -0.372544 -0.117805645 -0.24733952 0.1847513 -0.39385733 0.31594813 0.24293071 -0.03491203 -0.040953804 0.6179739 -0.32980546 0.012968242 0.160079
7 0.08285503 0.010715886 -0.028779902 0.06301637 -0.11164393 0.17623031 0.017747713 -0.25423065 0.012625315 0.33994156 0.006466485 -0.21524051 0.3071741 -0.25090826 -0.04113014 -0.24270444 -0.30506864 -0.5095157 -0.31523362 0.05403819 -0.085573 0.21036634 0.07507049 -0.152247 -0.11068509 0.27240163 0.047434118 -0.005070018 0.26621383 -0.1367605 -0.4216019 0.06123006 -0.33195925 0.54008436 -0.18942474 0.047949616 -0.05881073 -0.21329112 -0.32349062 0.40033457 -0.46720454 -0.25618246 0.19594648 -0.1748277 -0.16569707 0.0982499 -0.52264476 -0.026410455 -0.2692786 -0.0021440936 -0.0889554 -0.29283088 -0.027482754 -0.46360326 0.0041603833 -0.3044261 -0.23386355 -0.27843022 -0.17629975 0.07181108 0.32024425 -0.17617571 -0.116562955 -0.806865 0.0075754537 0.08257815 -0.23058812 -0.0043229572 0.2177715 -0.19512592 0.31983912 0.27383843 0.056404762 -0.48575017 0.3915455 0.26873016 0.0268132 -0.13048111 0.34941977 0.023885055 0.1058036 0.25843486 -0.0010569169 -0.25092053 -0.5046061 -0.09336004 0.4799002 0.03189777 0.52630854 -0.5063546 -0.2412619 0.15045115 -0.10889603 0.11977411 -0.457205 -0.6317011 -0.22627932 -0.09230133 0.09014132 0.08631469 0.109695606 -0.17677028 0.39507046 0.03918098 -0.2305094 0.15775566 -0.1515241 -0.20996492 0.17493676 -0.10361085 0.03529881 0.15082768 -0.49188206 -0.02785032 -0.032657888 -0.5148678 -0.117146924 -0.14703706 -0.05127492 -0.3068879 0.39364317 0.055756036 0.13895006 -0.028324973 0.42926103 -0.35101336 0.17031765 -0.08603899
842 -0.18491864 -0.051226217 -0.07273499 -0.28219157 -0.32356158 -0.3379727 -0.28151086 -0.20432644 0.13007842 -0.13522056 0.33349645 -0.32124636 -0.11411893 -0.43315434 -0.01876653 -0.28548315 0.11629091 -0.16167018 -0.10916173 0.09980303 -0.1415837 0.0033248228 -0.25934985 -0.09889292 -0.054638036 0.14580952 0.12625808 -0.050641246 0.06223352 -0.07705886 -0.44673356 0.32201633 -0.20625812 0.38409427 -0.10372626 0.054180916 0.3952197 -0.5156486 0.053574752 0.6486167 -0.21364693 0.16182706 0.04471228 -0.12064359 -0.100012824 -0.054398265 -0.78644544 0.0067718364 -0.0772114 0.0506888 0.085595 -0.46393666 0.050082836 -0.57955676 -0.056429535 -0.19904594 0.06364305 -0.47393966 -0.265963 -0.007488287 0.055341583 -0.3482224 0.028766893 -0.34117138 0.01521193 -0.013374714 -0.36020383 -0.15788072 0.56309205 0.024190346 0.45950627 0.17400573 -0.07412458 -0.7076378 0.25423717 0.026631402 0.20539074 -0.47884157 0.37601435 0.20408913 0.18011515 0.14133729 0.05551113 -0.2054496 -0.29367742 -0.15325648 0.06633349 0.26101166 0.3681829 0.058372583 -0.14286242 0.10157447 0.094048016 0.2564753 -0.32082173 -0.5017099 -0.2663303 0.3152062 -0.28218427 0.11553305 0.08171443 0.32967865 0.43249607 -0.12649736 -0.13411906 0.21955813 0.09263581 -0.19700077 0.022851292 -0.10342465 -0.10423743 0.1078301 -0.8608781 0.08521974 -0.3747621 -0.266663 -0.08312783 -0.1353421 0.033991307 -0.32821095 0.29346034 0.42388934 -0.030117003 0.027628286 0.52914095 -0.16835837 0.1153297 0.11023968
143 -0.020980315 0.015671104 -0.19815043 0.1207274 -0.17342274 0.13715295 0.057111118 -0.17153455 0.13532896 0.20691939 0.0247023 -0.21087672 0.13665012 -0.2558653 0.111403696 -0.27993456 0.21169458 -0.29029363 -0.16129318 0.012750736 0.15073135 -0.12256663 0.020865778 -0.068788804 -0.066545 -0.07722307 -0.10499308 0.030082734 0.08655139 0.09148564 -0.34450486 0.008429816 -0.14627716 0.43144375 -0.059319116 -0.081175834 -0.21519443 -0.24192968 -0.014866886 0.14197364 -0.3464518 -0.055969216 0.15760379 -0.21718329 -0.29151723 -0.049828615 -0.42838934 0.08441695 -0.24603803 -0.12812719 0.028251965 -0.41339737 0.25744337 -0.5645985 -0.2926268 -0.4290857 -0.181316 -0.18464625 -0.20203617 -0.16120912 0.08226546 -0.14406963 0.10859162 -0.2899897 0.13510658 0.015789922 -0.30106065 0.11281447 0.28748927 -0.058802757 0.3326456 0.019677358 0.42695364 -0.614484 0.35916898 0.024723884 -0.077207185 -0.25152206 0.48780984 0.0019148242 -0.14791383 0.12567936 0.079123646 -0.5804604 -0.4024799 -0.076670215 0.4434082 -0.021000024 0.7152116 -0.19263893 -0.27200532 -0.21004443 0.10456203 0.09323615 -0.47833097 -0.8308821 -0.1880051 0.10962575 -0.19823466 0.20662935 -0.019165367 0.006151666 0.3263881 -0.1609715 -0.046639007 0.13436988 -0.10140752 -0.30066532 0.041197203 -0.15402596 0.2546901 0.36240053 -0.73752785 0.053286705 -0.2977697 -0.53847396 0.11029282 -0.23925222 -0.13265812 -0.11261428 0.19965203 0.33847567 0.00038258592 0.15343995 0.5272225 -0.31440255 0.16071126 -0.16576608
175 0.11109336 -0.10907067 -0.110779054 0.21324874 -0.26781967 -0.3458089 -0.25344375 -0.5468014 0.11296701 -0.050414924 -0.08507941 -0.0006916665 -0.17413513 -0.39506537 -0.038084462 -0.4507066 0.026347116 -0.27693814 -0.03396766 -0.0099956645 0.13574737 0.117680766 -0.23224686 -0.14545088 -0.09603251 0.38781154 0.4927872 -0.029825257 0.34268337 -0.17256877 -0.017048784 -0.23287778 -0.24598241 0.61700445 -0.03674206 -0.030746909 0.21031424 0.0038137669 0.25416294 0.578198 -0.17796332 -0.12687643 0.23849449 0.15636781 -0.0855323 -0.20503484 -0.539491 0.18761042 0.036268894 0.07447435 0.00088036864 -0.008443447 0.12562422 -0.21597193 -0.19081642 -0.32261828 -0.24926463 -0.105809316 -0.002015867 -0.20288186 0.25087836 0.054839186 -0.057090696 -0.7764797 0.2712944 -0.07686784 -0.15156962 -0.24256486 -0.070398904 -0.37099126 0.3956764 0.21747923 0.4350904 -0.44116315 0.1234863 -0.18437468 -0.097302414 -0.35928473 0.13224109 0.17291681 0.10437589 0.22976524 -0.15444234 -0.18587501 -0.47175 0.00390671 0.17608406 0.026270024 0.3298748 0.2406318 -0.40849602 -0.045852244 -0.23375295 0.07587305 -0.15082276 -0.90691394 -0.3466949 0.24339779 0.18241775 0.12760474 0.0033138038 -0.4538525 0.40337935 -0.26544493 0.18493868 0.37330183 -0.04149383 -0.41556603 0.33887523 0.09848996 -0.07010471 0.08271657 -0.16152687 0.17814045 -0.21920165 -0.2971708 0.06455802 -0.029012633 0.1349913 -0.15980726 0.45564517 0.2707522 0.11010657 0.098560885 0.27645215 -0.268017 0.34847397 0.09421449
1394 -0.113867655 -0.32003364 -0.07655708 0.014477661 -0.09422865 0.16521966 -0.2124487 -0.591903 -0.16860774 0.13615222 0.11999594 -0.19858825 -0.12512656 -0.1664064 0.21771297 -0.73463213 -0.03938213 -0.28627372 -0.40304014 0.005335954 0.089608036 -0.26478833 -0.19851631 -0.36804643 -0.14650878 0.21318921 0.32514286 -0.3704353 0.2752027 0.040250823 -0.33027646 -0.039031796 -0.15788524 0.27759495 -0.3140492 -0.13570361 0.18278925 -0.31043178 0.15172918 0.23951907 -0.3584939 -0.17697902 0.05971731 -0.09081341 0.12327995 -0.0916405 -0.5166879 0.062817425 -0.20224129 -0.2454701 0.0067814123 -0.07910418 0.3073994 -0.38575304 -0.12320921 0.026826099 -0.13941559 -0.5147625 -0.16905761 -0.40176675 0.2727824 -0.026871532 0.18588077 -0.42747024 0.15219833 -0.3163776 -0.17929837 -0.13011324 0.3349906 -0.31697577 0.314711 0.01136284 -0.084131554 -0.660407 -0.016424183 -0.08366856 -0.108221896 -0.0227595 0.16718344 0.0788399 0.2633944 0.24816988 -0.07304566 -0.18113731 -0.22435884 0.08264657 0.020711228 0.08275806 0.34234455 0.1365697 -0.33040774 0.039229646 -0.04717105 0.21829195 -0.21022113 -0.94095486 -0.16676828 0.23431572 -0.21412407 0.35379496 0.22432514 -0.24428068 0.55650157 -0.10618645 -0.18839619 0.23428941 0.035686027 -0.5737952 0.48526224 -0.020708881 -0.13525136 0.4071606 -0.42838296 -0.05994241 -0.259952 -0.46947962 -0.039469063 -0.1190799 0.08256205 -0.36867234 0.31163195 -0.02889502 -0.035351947 0.41698557 0.42211854 -0.3816439 0.34246498 0.04623843
473 0.07981014 0.16243823 -0.016861627 0.019033164 -0.14432248 -0.12129755 0.2143187 -0.114215754 -0.38055652 0.018147672 0.3559351 -0.36777592 0.16452284 -0.43319425 0.20923425 -0.58777213 -0.24121806 -0.27551454 0.08253477 -0.028361408 -0.18979296 -0.0069124224 -0.48043716 -0.16042002 -0.23879504 0.15302551 -0.11644472 -0.15583363 0.0811146 -0.004459163 -0.4948942 0.13124211 -0.20629911 0.513258 -0.2785042 0.25000614 0.0666388 -0.37645188 0.032172006 0.4013632 -0.13202344 -0.23244008 0.012721416 -0.1358275 -0.011542875 0.0277384 -0.5026384 -0.09577147 0.09047228 -0.09729578 -0.12328113 -0.3852323 -0.08976742 -0.39260185 0.048501525 -0.22330043 -0.20202716 -0.15747659 -0.328685 -0.33658737 0.40722907 -0.16452442 -0.31755137 -0.42489025 0.09430409 -0.022899125 -0.3102154 -0.17304799 0.1949817 -0.059672773 0.39600688 0.4689199 -0.0123922005 -0.83810604 0.2956987 -0.001243199 0.061608125 -0.08481901 0.13197254 -0.0847776 0.13953996 0.26339343 0.11202037 -0.32982597 -0.4726672 -0.0037949116 0.39389327 0.030455597 0.20547435 -0.24713714 -0.15195777 0.08310369 -0.12496839 0.2128442 -0.4715266 -0.53144735 0.06836359 0.16221309 -0.2113782 0.1500557 0.3454067 -0.18247157 0.42809474 -0.16277549 -0.07950787 0.30886614 0.06503001 -0.19561064 0.11656646 -0.006435971 -0.15774268 0.15732971 -0.35336292 0.08069918 0.07319959 -0.44123927 -0.09671134 -0.2891012 0.21442592 -0.26241946 0.35407546 0.20047623 -0.03752903 -0.011498284 0.36462623 -0.06728354 0.25138324 -0.17028779
1230 -0.020409673 -0.061468117 -0.095545344 0.13444456 -0.24869564 -0.1657445 -0.030334277 -0.41360646 -0.0556591 0.32212225 0.31044468 0.08018179 0.21266018 -0.39922062 0.07587008 -0.2977479 -0.04754254 -0.19794722 -0.23508649 -0.12260844 -0.26939216 -0.14324816 -0.23038538 -0.05656092 0.089101866 -0.2006216 0.40694693 0.031347543 0.021256994 -0.019218225 -0.2038234 0.06890128 -0.6984083 0.6616564 -0.47655475 -0.2115096 0.35877576 -0.19566926 0.09543887 0.3682835 -0.10565121 -0.24334817 0.11441437 0.0024462915 0.011478597 -0.3003977 -0.36022997 0.25390851 0.16968864 0.15102956 -0.17527145 -0.5570367 0.06722595 -0.30054274 0.10575041 -0.26693904 -0.060093794 -0.12681638 -0.3115155 -0.09532298 0.46798024 -0.21262378 -0.2735464 -0.55699813 0.14090045 0.07923321 -0.7205895 0.10714861 0.48809582 -0.19194189 0.5973771 0.018819802 0.16836578 -0.47198597 0.28649133 -0.005846868 0.07569017 -0.2565225 0.20914236 0.07898961 0.16554914 0.103334986 -0.053934216 -0.45655566 -0.18601562 -0.09510769 0.47800958 0.20208621 0.45575097 0.25203106 -0.09065676 -0.2302731 -0.02157955 0.39968044 -0.26333132 -0.5525093 -0.08582434 0.29433984 -0.22055441 0.21762097 0.009841632 -0.09675077 0.3446305 -0.12720913 0.2214957 -0.0811853 -0.114378884 -0.01267469 -0.17600912 -0.2619217 -0.07826593 0.37082183 -0.39018682 -0.010640247 -0.13296127 -0.117705755 -0.11819067 -0.1345585 0.50530374 -0.2835842 0.44770634 0.13483636 0.041843366 0.05640156 0.14042665 -0.0053990753 0.41216436 0.12382323
494 -0.10024413 -0.15709783 0.070367485 0.06621227 -0.3627291 -0.3515479 0.029264156 -0.085673265 -0.402698 -0.006196872 0.0569844 -0.4649405 -0.13048367 -0.41933534 -0.105785005 -0.72430724 0.09228052 -0.54030085 -0.22305565 -0.009453611 -0.19486336 0.1158859 -0.5243559 -0.19348231 0.008226098 0.17419976 0.15702899 0.08109345 -0.0010579178 -0.0315272 -0.3848148 0.17513752 -0.41038048 0.5239974 -0.048037596 0.029792175 -0.119797796 -0.4286256 0.17418958 0.21231522 0.10989468 -0.15034726 -0.013832565 0.12321386 0.05096849 -0.47189495 -0.253557 0.0746129 -0.13105798 0.18140456 -0.0021243382 -0.3025635 0.2796572 -0.2114733 -0.1681423 -0.21726419 -0.1486446 -0.17306036 -0.25929132 -0.250718 0.5166351 -0.16897444 -0.053405736 -0.05147802 0.20231861 0.054467663 -0.20804635 -0.34914228 0.2296027 0.03872597 0.30922788 0.23190129 0.100730546 -0.49191913 0.26794747 0.13537696 -0.23541503 0.03259846 0.25463116 0.17435366 0.105434746 0.21927896 -0.30599022 -0.39365155 -0.2571763 -0.26762494 0.10803923 0.10375637 0.10205643 -0.07109505 -0.537957 -0.014521431 0.07679244 0.12451927 -0.242545 -0.66103184 -0.4559842 0.13824582 -0.17503315 0.041726667 -0.03724977 -0.16853908 0.4780578 -0.07137176 0.43542978 0.04953975 0.02753343 -0.45961273 0.16243732 -0.29887968 0.25874597 0.2875937 -0.23685485 -0.10979368 -0.014083152 -0.47631347 -0.090413876 -0.10448878 0.0793983 -0.00942252 0.59162486 0.30942336 0.52250844 0.1516116 0.50494325 -0.17624956 0.084414035 0.005359645
1539 -0.07792107 0.09452577 -0.046136014 0.44888848 -0.22808066 -0.32538778 0.109355025 -0.18300954 -0.12913354 0.0025049811 0.064728685 -0.3181116 -0.20606205 -0.4227989 -0.14431404 -0.4491582 0.013894709 -0.4759256 -0.15295441 0.102551766 -0.18156046 -0.08866942 -0.13013993 -0.18182415 0.2398877 -0.0023717608 0.4194083 0.28659505 0.18289693 0.0068080104 -0.40711838 0.1599725 -0.41967094 0.5934142 -0.17177176 0.06793868 0.19350652 -0.037413597 0.29062036 0.28415138 0.07580347 -0.29303458 -0.20128061 -0.033481296 0.2799945 -0.41400382 -0.36126477 0.16892931 -0.27823114 0.055249233 -0.22680102 -0.3717403 -0.07350296 -0.48066255 -0.24848163 -0.18333569 0.034960564 -0.16710076 0.22183502 -0.31924608 0.09889118 0.002568758 -0.11381729 -0.066812985 -0.185285 0.036631845 -0.48664775 -0.14199603 0.19677532 -0.2116856 0.35728696 0.15796982 -0.042382285 -0.4706729 0.5211152 -0.11687973 -0.26779458 -0.10442849 0.13693072 -0.0048264023 0.12921056 0.40694073 0.07746919 -0.27459744 -0.40490988 -0.26490352 -0.017719138 0.18933673 0.29755017 0.06846622 -0.0064641363 -0.013247954 0.25226668 0.20207986 -0.57632387 -0.6404198 -0.18442643 0.32068184 -0.38176042 -0.15491197 0.14966756 -0.13853575 0.72968334 0.19109392 0.3756723 0.03670976 -0.1407273 -0.048146747 0.22267331 -0.29335675 0.076678336 0.34887266 -0.41502842 0.04327001 0.16161261 -0.5395241 0.024585161 0.19387886 0.3585543 -0.46524173 0.54555637 0.18543676 0.34580913 0.45162764 0.7092089 -0.037594166 0.08422528 -0.042222213
619 -0.15568066 0.2804676 -0.23283441 0.06975994 -0.16763635 -0.07482784 0.2178183 -0.45396838 -0.17826217 0.16250464 0.045349047 -0.26605228 0.14336847 -0.29203153 0.20500894 -0.16440615 -0.16997017 -0.3017549 -0.360549 0.20103975 -0.29063496 0.10878833 -0.1765184 -0.25205526 -0.09154602 0.046867006 0.52568525 -0.2691612 0.34935847 0.09501859 -0.53905 0.12267519 -0.4208563 0.2509895 -0.16112125 -0.19619946 0.1444101 -0.22861968 0.035874203 0.28442344 -0.3634656 0.04448417 -0.037261005 -0.049003195 -0.19780627 -0.16722867 -0.31741565 0.038074907 -0.099251255 -0.17829955 -0.06548143 -0.6327823 0.0822603 -0.6501067 -0.050201837 -0.31420147 -0.20113802 -0.20926577 -0.2017848 -0.031805295 -0.03810925 -0.004980462 -0.016013796 -0.29565483 0.09287958 0.19591478 -0.1952442 -0.07108122 0.56544334 -0.10339796 0.39765373 -0.1460758 -0.017477624 -0.29523674 0.43225414 0.1371802 -0.40621737 -0.20930511 0.3964462 -0.20939983 0.46255437 0.13006939 -0.059718274 -0.517953 -0.42433074 -0.10479259 0.30553964 0.40773302 0.23115078 0.40369484 -0.012823988 -0.06512206 0.045189183 0.15402691 -0.21008068 -0.79344547 -0.22551396 0.05723405 0.0051567764 0.33084318 0.20716095 -0.23394896 0.2836363 -0.09526068 0.1751421 -0.09067936 -0.3002797 -0.09482342 0.18993768 0.11743946 -0.1272229 0.023456385 -0.72001815 -0.17254038 -0.20989618 -0.7852636 -0.33744082 0.06685721 0.088999316 -0.4067844 0.29724634 0.10912736 0.052468132 0.15544489 0.5374222 -0.19387056 0.08014387 -0.09351205
707 -0.23141854 0.15815744 -0.23200043 -0.028171241 -0.34355852 -0.2918129 -0.18848303 -0.25023097 0.2436725 -0.15777458 0.21026048 -0.30553257 0.0984332 -0.3561429 -0.119791225 -0.44705436 0.14298187 -0.13163333 -0.043560423 0.20635203 -0.052000683 0.13897309 -0.089363016 -0.19705911 0.053839397 0.1318561 0.049046192 0.21754318 -0.057720896 0.027197866 -0.4425091 0.33011603 0.02412742 0.28196687 -0.19109197 -0.034578532 0.06694296 -0.42249697 0.09867743 0.46171466 -0.11970539 0.20162868 0.052033238 -0.11137779 -0.42629528 -0.23268929 -0.5177783 0.1551249 -0.25953072 0.048876736 0.15435812 -0.39137554 -0.17736627 -0.4922126 -0.17381477 -0.118782 -0.0049195634 -0.44095796 -0.11513951 0.039102692 0.0046623126 -0.2108505 0.115985885 -0.34346685 -0.024546707 -0.114797816 -0.18252742 -0.23313457 0.27782822 -0.022618497 0.43484348 0.33882305 0.0105830915 -0.6682729 0.525455 0.07943558 0.3028453 -0.46537074 0.25449944 0.1562367 0.25510702 0.16787507 0.04740524 -0.4134664 -0.28329608 -0.29675284 0.20191452 0.27193004 0.5394623 -0.078253254 -0.3685407 0.06673852 0.009159508 0.1741453 -0.34088188 -0.75071305 -0.3650261 0.23128374 -0.2854763 -0.048527665 -0.20454013 0.14834255 0.37102345 -0.1033711 -0.3827291 0.26760247 0.3287636 -0.18990767 -0.10881699 -0.13624425 0.10462886 0.27562672 -0.9249858 0.22796403 -0.36823255 -0.52656883 0.064384095 -0.30844092 0.036566377 -0.40178543 0.39953887 0.38094693 0.18930249 0.22115612 0.7540356 -0.3085089 0.092300475 0.007819024
1547 -0.008565232 0.008092594 -0.2888634 0.22238483 -0.08848794 -0.42008796 -0.19919863 -0.2315876 -0.23506074 0.08685885 0.020691037 -0.16230439 -0.032993603 -0.33594823 0.052775767 -0.5010827 0.09759121 -0.51226056 -0.11763534 -0.17422429 -0.09907396 0.0073348065 -0.30814186 -0.29885367 -0.049309842 0.027555184 0.32279557 -0.071274474 -0.04619769 -0.012507816 -0.3830422 0.22622558 -0.35197055 0.5886115 -0.13367303 0.08916452 0.15725456 -0.17564857 0.17689995 0.34091955 -0.1367735 -0.16774292 -0.07099727 -0.091098115 0.016072603 -0.26641685 -0.24201067 0.31516132 0.113788806 -0.05675141 0.05605381 -0.114618935 0.089944415 0.019030958 0.15146998 -0.42775077 -0.38188958 -0.114440426 -0.057336483 0.01653475 0.3129006 0.07022715 -0.21374138 -0.14418922 0.12894583 -0.20106858 -0.30476278 -0.07466716 0.45243454 -0.11677728 0.3247911 -0.006293825 0.12586172 -0.5943814 0.36935425 -0.02823344 0.03596483 -0.44875857 0.09007833 0.03553355 0.12349588 0.2682192 -0.24240519 -0.35266963 -0.394564 -0.0853658 0.25175107 0.17562503 0.39444038 0.14503014 -0.25554007 -0.07583774 0.01817376 0.18709968 -0.217347 -0.7851335 -0.20979398 0.18846852 -0.071089596 -0.01928384 -0.07204824 -0.19396596 0.17006885 -0.23294884 -0.05750843 0.1610906 0.059703056 -0.18158047 -0.016293414 0.015508267 -0.12760015 0.087714516 -0.2900221 0.04128493 0.13915437 -0.34451976 -0.033499785 -0.15549694 -0.03631584 -0.3694152 0.42994446 0.13085665 0.11809355 0.0068015824 0.19391975 -0.18981607 0.05431551 -0.15579036
1189 -0.051015224 -0.06410119 0.1330124 0.09296039 -0.3975257 -0.21655199 -0.017279034 -0.30722228 -0.4084539 -0.09041694 0.2914479 -0.3665744 -0.109011054 -0.33756542 0.14400144 -0.196883 -0.22939013 0.09918015 -0.22050343 -0.035130095 -0.17727974 0.026484033 -0.29864648 -0.4992584 -0.06396507 0.3835599 0.10559379 0.08926798 -0.048978064 0.032521524 -0.4326717 0.040924426 -0.50944006 0.15319298 -0.25254792 0.19466689 -0.024034547 -0.18901265 -0.05896101 0.22507972 -0.2288657 0.13137348 0.17335694 -0.06014534 -0.21028581 -0.06980922 -0.4847056 0.013891665 0.086434014 0.13522974 -0.097941875 -0.49659222 -0.2668874 -0.6483371 -0.08184976 -0.25904685 -0.25682557 -0.07646851 0.022851564 -0.055687875 0.31474352 -0.13967934 -0.17553547 -0.5996066 0.1423475 0.11504107 -0.08327429 -0.29688048 0.17375848 -0.077330865 0.5558836 0.4155473 0.029606035 -0.6868679 -0.045292728 0.08414583 0.099941604 -0.21246912 0.17229715 -0.117260195 0.35857663 0.46565676 0.22897264 -0.4336434 -0.66106707 -0.34355286 0.3673696 0.34640735 0.29831278 0.276504 -0.37152353 -0.097928464 -0.26126638 0.3049784 -0.268593 -0.928704 0.076312415 -0.06761371 -0.06340107 0.17664385 0.20918222 -0.109340586 0.532392 -0.18124877 -0.15879457 0.030242378 0.060932994 -0.12734693 -0.12997636 -0.039324798 -0.089548595 0.17170513 -0.6734421 0.09851879 -0.17325997 -0.47993776 -0.10324782 -0.037261967 0.42376447 -0.04059479 0.32232574 0.2579808 0.07048003 0.20174827 0.6000104 -0.08257966 -0.07513981 -0.11506525
41 -0.01887353 -0.14594012 -0.14257644 0.44858462 -0.29405725 -0.11747135 0.0504164 -0.15241665 -0.09300126 0.08038502 -0.09114877 -0.30956057 0.32103568 -0.4539853 -0.13345212 -0.4987174 -0.08327344 -0.20741446 0.013032619 0.18078603 -0.15021372 -0.21967046 -0.09646547 -0.0438307 0.17299221 -0.07406122 -0.05363853 0.15262666 0.14379814 0.040527064 -0.10890979 0.30071247 -0.5999315 0.35438558 -0.6452385 -0.25970978 -0.21273862 -0.3517722 0.065733954 0.31059635 -0.09144188 -0.39172354 -0.13326812 0.070600204 -0.19469972 -0.123647116 -0.55730325 0.09748242 0.056597352 0.18136139 -0.24127427 -0.49994498 -0.030695582 -0.5338762 -0.11492433 -0.051288594 0.06827825 -0.012781578 -0.26974222 -0.2608165 0.34628573 -0.13134302 -0.24571592 -0.34131333 -0.092732534 0.09570973 -0.47048345 -0.047846787 0.33386528 0.023598887 0.41088697 0.44665816 0.04462362 -0.5694016 0.27511144 -0.111786656 0.025129037 -0.08711234 -0.0045563853 0.2232234 -0.021639412 0.3795575 0.06553377 -0.64693105 -0.0012528067 -0.11332941 0.24694985 -0.085096166 0.47558817 -0.26508632 -0.0066889497 -0.15466726 -0.04936324 0.29738104 -0.4215912 -0.45258483 0.050090227 0.34073913 -0.31244728 0.28981832 0.04032566 -0.20427595 0.45516706 0.0012032301 0.21871512 0.038226385 -0.20046176 -0.26440653 0.043630723 -0.26636016 0.1309286 0.43643785 -0.37863824 0.17744745 -0.22727267 -0.507857 -0.08966768 -0.09992077 0.3955854 -0.06847253 0.51897943 -0.1435679 0.09597766 0.07462175 0.48193488 -0.14639618 0.3856647 0.14452852
311 -0.031181991 0.12305308 -0.023096828 0.30201593 -0.35622153 -0.6023806 -0.10238457 -0.32224786 0.27429172 -0.09708443 0.20000614 -0.22352585 -0.046074104 -0.4941116 -0.07558055 -0.43904856 0.04933441 -0.4361385 -0.27172 0.22275111 0.02497445 -0.383779 -0.17183964 -0.0017387096 -0.27930832 0.13229148 0.28396815 -0.17023532 0.15887721 -0.33019826 -0.05742209 -0.098885626 -0.72556514 0.6365991 -0.23437355 0.2165074 0.10204465 0.010079136 -0.12283959 0.19181015 -0.12971884 -0.0019422851 0.22726656 -0.12676622 0.06999293 0.0047821295 -0.29977584 0.47675362 0.05507525 0.1685296 0.10208961 -0.23403537 0.32862768 -0.3912387 -0.25625867 -0.39869177 -0.07161563 -0.19348037 -0.10823445 -0.0052190935 -0.005490496 -0.25820526 -0.16278876 -0.72415143 0.048592366 -0.061793838 -0.46281007 -0.10324051 0.1276293 -0.015732894 0.1509563 0.1516358 -0.014687651 -0.60086477 0.38944715 0.16198178 -0.09899434 -0.23713705 0.6765289 -0.067428075 -0.08561405 0.47955763 0.34639728 -0.54470885 -0.32417417 -0.21710622 -0.036210626 0.2363998 0.27897906 -0.33093232 0.066548854 -0.2128009 0.05518448 0.28278005 -0.16639586 -0.47230008 0.07673812 0.016151696 -0.375688 -0.0919798 0.14636041 0.25900856 0.6523767 -0.04054869 0.107931696 0.19517045 -0.29524687 -0.2377359 -0.07250673 0.2394798 0.2797796 -0.026407868 -0.27550885 0.2884099 -0.1251534 -0.26371986 0.007830177 -0.3817073 0.5056915 -0.11297372 0.45973855 0.25286406 -0.30331668 0.059965007 0.24036962 0.010199474 0.050051216 -0.12054228
1180 0.03940719 -0.031138547 -0.26988402 0.041860253 -0.16624254 0.07841408 0.116904594 -0.42533007 -0.051048804 0.34466353 0.027235823 -0.31293124 0.16469406 -0.35045624 0.096885756 -0.17261234 -0.017043969 -0.20238663 -0.22417872 0.07167143 -0.28635037 0.06765918 -0.2513607 -0.2596091 -0.17801782 0.0045611155 0.46231923 -0.24465631 0.19198336 0.014051547 -0.5194257 0.16746446 -0.395958 0.33685145 -0.046365287 -0.12968212 0.19517028 -0.21374747 0.051679187 0.21646804 -0.33152756 -0.08735514 0.010172585 -0.10568718 -0.13452016 -0.3705905 -0.36402854 0.08502078 -0.026533114 -0.013577472 -0.08141401 -0.5718968 0.22068015 -0.41791877 0.09789637 -0.37495854 -0.13731878 -0.14365682 -0.27822316 0.085202865 0.15029149 0.1443314 -0.18933684 -0.36434203 0.09657495 0.13143593 -0.21044986 0.0017831938 0.6471027 -0.08402343 0.42209622 -0.054523315 0.11147728 -0.2979004 0.5473601 0.16439277 -0.34850806 -0.34971344 0.29070127 -0.057450052 0.46381468 0.1550114 -0.027587024 -0.54010004 -0.29587668 -0.06739349 0.44774407 0.29658288 0.33333412 0.31324986 -0.18002798 -0.06011383 0.08167019 0.17711015 -0.2932824 -0.76113963 -0.2388095 0.13756937 0.058672577 0.39253828 0.13977045 -0.18533261 0.29979834 -0.10340786 0.16432759 -0.1351727 -0.21845666 -0.13684171 0.067817464 0.034484632 -0.10105828 0.062086917 -0.6241999 -0.31001663 -0.036445223 -0.7159719 -0.3189142 0.11731727 0.02535696 -0.34251323 0.3232473 0.11513299 0.02504698 0.031280693 0.48069698 -0.1688695 0.05150123 -0.06785965
1337 -0.044013448 -0.43232837 -0.08146594 -0.028132377 -0.4591912 0.019088374 -0.15462883 -0.33382386 -0.16849063 0.26001704 0.13504376 0.018608004 0.039606895 -0.33284262 0.016536716 -0.79601806 -0.16252269 -0.3217268 -0.4070835 -0.2370017 -0.06869631 -0.21145467 -0.04187608 -0.4080187 0.053585824 0.19264442 0.13384959 -0.2051504 0.26209006 0.11005588 -0.22175944 -0.046892174 -0.25813678 0.47364274 -0.25906307 -0.12777181 0.114327386 -0.288716 0.16672379 0.14876762 -0.41979715 -0.4257077 0.068786584 -0.025494384 0.52478766 -0.3219638 -0.28547966 -0.0017433161 -0.1389863 -0.035978816 0.07493029 -0.0907384 0.11593601 -0.440482 -0.15436107 -0.01732622 -0.4104692 -0.60795224 -0.28018612 -0.27789113 0.45384124 -0.40006545 -0.041949317 -0.5328598 -0.040901113 -0.22009318 -0.1734937 -0.1650563 0.1842834 -0.14455749 0.05234331 0.2358185 0.034397006 -0.72309494 0.11869921 0.0022854235 -0.069482096 -0.09097651 0.23230328 -0.0032559938 0.11899952 0.435786 -0.09510807 -0.42442638 -0.3113047 -0.18840082 0.0726679 -0.07758741 0.49349174 -0.31024358 -0.27634084 0.09422543 0.03430212 0.210555 -0.35896975 -0.7847231 -0.10795385 -0.26332894 -0.23606324 0.14285998 0.16390525 0.14451315 0.40497828 0.15019657 -0.013888289 0.21743901 -0.030775152 -0.57520795 0.16739203 -0.2638992 -0.10379963 0.49367887 -0.52611005 -0.16919236 0.03268181 -0.4735488 -0.20917647 0.025425173 0.17015818 -0.098689385 0.2554958 0.054316707 -0.10690608 0.3368667 0.3864193 -0.35172653 0.10006982 -0.2742605
1433 -0.20536573 -0.20296602 -0.11827804 -0.21629125 -0.0724701 -0.32805339 -0.04161596 -0.12731808 -0.11957803 -0.13327786 0.17439389 0.10707397 0.34172755 -0.45449448 0.01948964 -0.58545417 0.4519717 -0.46865708 -0.4033801 -0.21392202 0.16996485 -0.07764552 -0.38486353 -0.3873977 0.06762297 0.0012417022 0.19385715 -0.17947967 0.25655997 0.12098992 -0.6893692 0.1369146 -0.43909165 0.50209093 -0.043117918 0.110958256 0.157622 -0.08979955 0.087719984 0.34760526 0.25363722 -0.30182925 0.04790742 -0.16744635 0.12598212 0.100315064 -0.41904312 0.06433168 -0.17091693 0.24493198 -0.113940306 -0.36558962 -0.06520563 -0.20739739 0.0023888669 -0.5620165 -0.0063838772 -0.45226416 -0.03314384 -0.17337431 0.14150493 -0.30247688 -0.3568805 -0.14686531 0.04578272 -0.3059399 -0.38510698 -0.01769696 0.4941426 -0.024824899 0.36262083 0.25023627 -0.027395438 -0.49003214 0.01702115 -0.112051785 0.22498569 -0.2785647 0.39311004 0.24962628 -0.09676696 0.0447995 -0.15820594 -0.16901685 -0.8153907 0.011572632 0.20504354 -0.117278464 0.19203585 0.3352301 0.002288908 0.26429036 0.22827972 0.34632754 -0.18569727 -1.0374207 -0.11686496 0.31983158 -0.24804664 -0.09485242 0.08231462 -0.24667595 0.53249586 -0.3838505 -0.030522997 -0.057742115 0.19893381 -0.62944543 0.23673005 -0.37453672 0.15843573 -0.0139661785 -0.46207038 -0.05904814 -0.48727924 -0.4511291 -0.102720745 0.26351327 0.13617508 -0.11905475 0.3718266 0.5457404 0.4785908 0.2908863 0.41851938 -0.16720168 0.23255873 -0.037815902
1685 -0.1995152 -0.14498454 -0.39855793 -0.003858438 -0.09133158 -0.18295868 0.012331957 -0.33110815 -0.29879653 0.3170651 0.09320249 -0.32479373 -0.0062745903 -0.28375334 0.054504655 -0.41558895 0.09542467 -0.39915884 -0.57832503 0.12549609 0.03736706 -0.16783886 -0.2492827 -0.36074096 0.0066254386 0.2503561 0.32711384 -0.03191387 0.11423308 -0.09949693 -0.43520707 -0.009579491 -0.3402744 0.34002206 -0.17100637 -0.18792972 -0.17739639 -0.21091628 0.19618125 0.18091173 -0.24014755 0.074752 0.059551146 0.17336193 -0.22739719 0.049600046 -0.47811463 0.08490651 -0.02281836 -0.32563445 -0.108457305 -0.27281517 0.0064723683 -0.43353713 -0.30987722 -0.24429129 -0.27863112 -0.38810456 -0.056633443 -0.029627135 -0.02903678 -0.17979789 0.25042415 -0.39496425 -0.042002294 -0.056569353 -0.14993754 0.026091931 0.19235101 -0.30829588 0.51383287 0.19993804 0.05435727 -0.6721038 0.079161316 0.22541645 -0.37997586 0.12037694 0.3321249 -0.34084874 0.105475485 0.13843141 -0.3037829 -0.21651034 -0.39215666 0.13906367 0.3408778 0.19398397 0.2460861 0.06552183 -0.16837491 0.0031673603 -0.27670318 0.15111846 0.020558028 -0.91066766 0.06571631 0.17745708 -0.32037717 0.42050055 0.04465284 -0.5485706 0.2621169 -0.20302022 -0.21704759 0.029614102 0.05824259 -0.32455343 0.1849043 -0.045367505 -0.039325163 0.24881482 -0.39514545 0.022131618 -0.19746733 -0.45285374 -0.10143137 -0.21590632 0.053681266 -0.42114604 0.016772322 -0.026506973 0.26209405 0.21212153 0.5647712 -0.2883476 0.22819762 -0.007774363
1435 0.050908737 -0.08152683 -0.13187309 0.31162843 0.13063411 -0.13086627 -0.317608 -0.44140133 -0.06660671 -0.14343175 0.011793744 -0.09990204 -0.18292841 -0.1440955 0.059320994 -0.39261293 -0.38450563 -0.32749766 -0.16622072 0.19157654 0.19907783 -0.11911919 -0.30088335 -0.30313 -0.16002731 0.40347752 0.42419356 -0.22750264 0.22593303 0.044396978 -0.27534252 -0.009688271 -0.16179708 0.32965127 -0.18514061 -0.14520673 0.13499816 -0.14588487 0.08992998 0.36298057 -0.35427898 0.044517815 0.06430589 -0.043070395 -0.106180795 -0.15455902 -0.39816186 0.10731217 -0.16060095 -0.20336534 0.090767 -0.14195889 0.2861252 -0.42960143 -0.1536983 -0.1462752 -0.24329372 0.00015538603 -0.010730751 -0.19289549 0.22929402 0.13772595 0.2637143 -0.6413511 0.053311426 -0.038375497 -0.1841747 -0.105382785 0.46115348 -0.21212141 0.3932718 0.005818913 0.048573107 -0.6483932 -0.008996025 -0.13842799 -0.16373593 -0.3399361 0.12265434 0.28755924 0.19826004 0.43518323 -0.3433972 -0.11120888 -0.3584008 0.06632519 0.22615755 -0.0072155353 0.38932472 0.11753901 -0.18069108 0.025587607 -0.22793262 0.07736129 -0.092611864 -0.96769804 -0.3534752 0.16701011 -0.07981187 0.27578676 0.28673592 -0.30145606 0.35639128 -0.18116076 0.053689003 0.37741536 -0.04648485 -0.520278 0.33323756 -0.02531574 -0.11917685 0.13805753 -0.44159895 0.30550733 -0.38201708 -0.45273092 -0.03532519 -0.18848626 0.15817238 -0.22768512 0.3139993 0.005708861 0.234773 0.31533492 0.33838928 -0.3248015 0.16159177 0.06897871
1405 -0.061831847 -0.017069211 0.18399517 -0.0032804364 -0.3377525 -0.40036607 0.040784232 -0.0659153 -0.27442986 -0.0030361863 0.25929594 -0.42106995 -0.1615422 -0.34101915 -0.030806923 -0.6121666 0.17000489 -0.5114904 -0.24206595 0.101827465 -0.21062437 0.05146515 -0.52434254 -0.15407376 -0.0546666 0.18918818 0.07854261 0.12625411 0.03907666 -0.07890514 -0.50094426 0.014675161 -0.4294473 0.6393345 -0.08717041 -0.016913928 -0.03716147 -0.39420202 0.18953392 0.26044273 0.11513223 -0.14214106 0.088838644 0.11839743 0.24542381 -0.5061164 -0.44862694 0.08363245 -0.14364754 0.22640564 0.01731253 -0.48705742 0.35082006 -0.4305756 -0.22294374 -0.14695762 -0.12041072 -0.27613825 -0.34253678 -0.2972032 0.50073653 -0.1739077 -0.13719116 -0.14580835 0.26481956 0.22234109 -0.22879587 -0.29985154 0.16441727 0.0052912403 0.31949353 0.16426973 0.16236651 -0.37123364 0.33390343 0.031262808 -0.36462927 -0.037929635 0.13320497 0.23841293 0.22167367 0.100019686 -0.35004747 -0.39921263 -0.30230293 -0.29839244 0.17374952 -0.08242579 -0.09152861 -0.04824362 -0.41960856 0.08707868 0.01827926 0.22772998 -0.23332742 -0.6070756 -0.3693968 0.11424618 -0.297011 0.04935664 0.022013774 -0.11272416 0.5354535 -0.07865675 0.6252957 0.07029671 -0.051423613 -0.40718558 0.30430886 -0.32855636 0.33527112 0.28070655 -0.1403204 -0.04622025 -0.041103773 -0.3927426 -0.21957433 0.031533524 0.10220306 0.10737674 0.49347004 0.12670942 0.540744 0.2027719 0.6180654 -0.15974629 0.21356614 0.09540066
1117 0.1845596 -0.2338983 -0.29604042 0.18569964 -0.05219989 -0.22071087 -0.14973155 -0.04449965 -0.051445667 0.007642775 0.22882141 -0.16862799 -0.022423442 -0.42028698 -0.10567289 -0.14952981 -0.17278866 -0.64686966 -0.15386906 -0.14410552 0.11876751 0.0019059206 -0.3260766 -0.22647639 -0.21623026 0.06655579 0.39267877 -0.035989344 -0.05591082 -0.120990396 -0.43854362 0.043448284 -0.4530485 0.39824033 -0.1847037 -0.31921157 0.384053 -0.21861772 0.00484688 0.47618788 -0.27005196 0.062940426 0.14295208 -0.0019061168 -0.13938582 -0.1266574 -0.4946403 -0.02183739 -0.04576031 0.03954233 0.12259327 -0.40914547 0.25557786 -0.41203675 0.08244969 0.022549476 -0.16276415 -0.011056054 -0.27460888 -0.0043190825 0.28098774 -0.2489559 -0.024234269 -0.3500615 -0.015446442 0.23060264 -0.605932 0.03481476 0.16282792 -0.1677519 0.13386612 0.16031052 0.34571683 -0.41248772 0.3550155 0.2037122 -0.07770345 -0.14710182 0.20382045 0.09395912 0.01940878 0.4399069 0.012151078 -0.119383596 -0.3333896 0.09818898 0.27108213 0.10012438 0.48877108 -0.2181589 -0.102576144 -0.06680281 -0.054535378 0.2314699 -0.13729694 -0.5921413 -0.18321697 -0.12305898 -0.07140453 0.2573866 0.34350842 -0.05026289 0.43008837 0.03942084 0.2235413 0.26729518 -0.09746413 -0.19709055 -0.14672434 -0.14190823 -0.13474874 0.3148182 -0.46097106 0.011927814 -0.16465527 -0.45325488 -0.13160837 -0.12686642 0.26450437 -0.0738456 0.3765505 0.24182552 -0.17814398 0.30412748 0.24350086 -0.3922978 0.009092199 -0.21229047
18 0.015568339 -0.046776537 -0.1946555 0.18072258 -0.006621754 0.01760444 0.3858392 -0.18182655 -0.05422167 0.3455946 -0.1970825 -0.3473616 0.2343041 -0.2291199 0.08080348 -0.15659983 0.025320625 -0.38601828 -0.3422624 -0.15285495 -0.33538362 0.18698889 -0.14292052 -0.3498307 -0.2726318 0.19024369 0.25086838 -0.16881245 0.37221873 -0.20915884 -0.65439516 -0.053518243 -0.14907356 0.5112733 0.010164041 -0.014368668 0.14591782 -0.17822592 -0.010114937 0.15978016 -0.36845276 -0.21162178 -0.036540024 -0.13142884 -0.30805624 -0.013362028 -0.3514356 0.24982634 -0.18038124 -0.097713776 -0.23800448 -0.22540697 0.22703505 -0.47121456 0.045628313 -0.2296484 -0.10342519 -0.07558529 -0.3072362 0.04674647 0.21719721 -0.029710623 -0.21935509 -0.45144448 0.05258988 0.062171936 -0.31658927 0.17620933 0.6153995 0.067687176 0.2196257 -0.10973943 0.06398647 -0.2715881 0.5341886 0.19604827 -0.45205313 -0.46768534 0.21234155 0.13647695 0.40238905 0.26850808 -0.13858669 -0.43975806 -0.39635304 -0.06120379 0.34378418 0.07608721 0.23258601 -0.16744456 -0.22331744 0.09111581 0.10760818 -0.0052129715 -0.3000788 -0.76083654 -0.16329293 0.0403847 -0.07840048 0.28637302 0.22781178 -0.26131356 0.37600622 0.0051420163 -0.012805357 -0.1554296 -0.26013288 -0.36286545 0.097726256 -0.05762 -0.19588864 0.2352613 -0.6946937 0.022165013 -0.07854595 -0.7108732 -0.36496422 -0.1529199 -0.01093813 -0.31279224 0.22257096 0.020506492 -0.0006815666 -0.10979491 0.4858301 -0.16039823 -0.013920582 -0.08310655
1252 -0.3320956 -0.041317396 0.1300277 0.5345403 -0.51301056 0.068432 0.0036956302 -0.13521308 -0.2982636 0.28265858 -0.031409036 -0.06546155 0.023424802 0.03123981 0.08461613 -0.3345247 -0.27624124 -0.6078681 -0.5883027 -0.27732804 -0.33546385 0.04240493 0.2818118 -0.09579739 0.25436097 0.0059088166 0.07545773 0.34285098 0.10671244 -0.10314923 -0.38449574 -0.15667912 -0.4637138 0.85909665 -0.42738727 -0.0678875 0.00046302393 -0.22259788 0.0056548635 0.29366508 -0.11069483 -0.502835 0.21442252 -0.0074373144 0.33626464 -0.5205533 -0.44616818 0.09379002 -0.28396165 0.16420223 -0.2658865 -0.29285493 0.16929202 -0.61604714 0.10062729 -0.23821509 -0.104969576 -0.32227686 -0.21901275 -0.14756046 0.4994373 -0.13418569 -0.14175679 -0.6342912 -0.04064988 0.0035354574 -0.18246138 -0.10033599 0.03103644 -0.40723294 0.58334845 0.15323576 0.27371192 -0.48782068 0.382334 -0.03085366 -0.10077398 -0.008269351 0.11847295 0.1669717 0.17510368 0.10582412 0.21089412 -0.57429916 -0.1645247 -0.38149747 0.348613 0.022994407 0.34846163 -0.17885925 -0.35376924 -0.021533743 0.076570034 0.36742297 -0.6365444 -0.39906755 -0.3220303 0.057064075 -0.24953365 0.031606697 -0.07559059 -0.093449764 0.52492577 0.36201268 0.24413465 -0.18124911 -0.31244627 -0.21627402 0.13390349 -0.43406266 0.3348176 0.5383463 -0.6066415 0.06493253 0.024316175 -0.43963534 -0.01955507 0.14802553 0.32196164 -0.26593342 0.37144113 0.09381035 0.10131321 0.3543183 0.5420011 -0.38299108 0.06921295 -0.085472606
1126 0.038109064 -0.18374667 -0.14634198 0.20514038 -0.5803014 -0.5914997 -0.41832098 -0.13887344 -0.38409483 -0.21627381 0.25664127 -0.22128433 0.20557478 -0.21147595 0.44468978 -0.057450555 0.060745746 -0.5532819 0.2045049 0.11670704 -0.11697546 0.1178414 -0.24558279 -0.2254052 0.018612398 0.18346195 0.27374795 0.29106876 0.117984995 0.054625954 -0.3278337 -0.10127197 -0.49188882 0.5679803 0.042372037 0.027102172 0.062447608 0.20220698 0.522418 0.2918485 -0.06916221 -0.4101166 -0.10038428 0.019406581 0.13033885 -0.04387714 -0.35446823 0.15359269 -0.4292284 0.23887356 -0.42938322 -0.2260644 0.05690923 -0.28748766 -0.24846275 -0.11823887 -0.052969005 0.005854746 -0.22514139 -0.066677995 -0.036285125 -0.33772206 -0.40638793 -0.43968043 -0.20116635 -0.18422388 -0.33175227 -0.20380205 0.08101483 -0.23546554 0.4871215 -0.095407 0.36943835 -0.7130655 0.30100855 -0.055396073 -0.023524584 -0.073054135 0.5505125 -0.20567626 -0.22304575 0.123144224 0.013255739 -0.14550929 -0.4954609 -0.3134461 0.1286236 0.5093906 0.50198704 -0.31362092 -0.06109513 -0.08017379 0.11194999 0.22005992 -0.08964572 -0.721988 -0.28579 -0.09219699 -0.23549 0.24028143 0.10473244 -0.23457816 -0.15562303 0.052650735 0.0074235015 -0.3780189 -0.26416215 -0.20333365 -0.08629922 -0.19007698 -0.046185732 0.27392334 -0.80556494 -0.09798347 -0.30698395 -0.44896373 0.1868442 0.06693332 0.2958859 -0.6213621 0.11728974 0.09807027 0.26251143 0.28063178 0.4548231 -0.28207195 -0.24367087 -0.25170186
429 -0.049671505 0.034123033 -0.13356344 0.38210982 -0.33230367 0.031256095 0.25865266 -0.27252984 0.036178175 -0.11525513 -0.14569879 -0.038945686 0.014329364 -0.18560983 0.2436862 -0.14005412 -0.08650544 -0.5249332 -0.57708603 0.06368585 0.12641616 -0.1016129 0.12740275 -0.19686109 -0.12557268 0.16072412 -0.04622258 -0.001082771 0.19616622 -0.12019474 -0.3501566 -0.07114934 -0.45905057 0.7010094 -0.11846746 -0.051254004 -0.21331938 -0.14427368 -0.19214289 0.09366818 -0.09782968 -0.14096306 0.2135548 -0.09783995 -0.28035215 -0.038828943 -0.28184792 0.12970215 0.13644066 -0.07226009 0.13626903 -0.22433926 0.20913205 -0.42426747 -0.30760613 -0.5087533 -0.16442716 -0.14166586 -0.2679869 0.012273606 0.44750312 -0.19418192 0.04059162 -0.5575067 0.096207194 -0.008660957 -0.25118083 -0.00860469 -0.06207452 -0.25498992 0.25306794 -0.02869105 0.4505664 -0.6270728 0.3125793 0.08250456 -0.19315554 -0.4063759 0.5560402 -0.08618645 0.05269959 0.17183721 0.07926817 -0.4855168 -0.3031699 0.13546903 0.20094301 0.11069627 0.5046009 -0.13928865 -0.2535605 -0.22485264 -0.15111545 -0.15633829 -0.6207576 -0.3586269 -0.30139476 -0.08539869 0.005055664 0.19504549 -0.035583932 -0.107238665 0.39559895 0.25313586 -0.10290004 -0.034665074 -0.2585409 -0.010010855 0.19746737 -0.24288872 0.30773538 0.22379778 -0.39157853 0.21260817 -0.13225313 -0.47067377 -0.019172996 -0.22850965 -0.08976656 -0.25395307 0.32383895 0.513713 0.04564446 0.11649226 0.46989074 -0.36244205 0.028437596 -0.26000074
345 -0.08591981 0.11791549 -0.24024723 0.27092034 0.010764438 -0.124460645 -0.16035104 -0.0596845 0.052619725 0.0029374205 0.23054853 -0.45073462 -0.027978724 -0.55636287 0.044867836 -0.51592153 -0.30681846 -0.44757298 -0.23573475 0.08840387 0.0037148925 -0.17099379 -0.5160716 -0.29445225 -0.061028093 0.17623986 0.13221359 0.0753272 0.10060265 -0.036743626 -0.69892806 0.061669186 -0.14978655 0.43696007 -0.01908477 -0.11066796 0.045789827 -0.1547911 0.05310395 0.28233543 -0.28542542 0.06709642 -0.02975713 -0.124313034 0.014382237 -0.069694795 -0.40578184 0.19514517 -0.25723338 -0.12577498 -0.008694109 -0.39929932 0.072235435 -0.53706175 -0.39122579 -0.3737268 -0.36072117 0.022979986 0.16780028 -0.110533275 0.033252522 0.20338947 -0.15841089 -0.88047516 -0.28339812 -0.02968433 -0.11071396 0.050063644 0.28712445 -0.093913585 0.4690328 0.23232824 0.20932457 -0.6240331 0.11583643 -0.015719531 -0.05417033 -0.18575211 0.16185714 0.3259836 0.11796376 0.3874452 -0.22413099 -0.09573571 -0.39008158 -0.027513944 0.20405328 -0.041679908 0.32114828 -0.3128408 -0.13469039 0.14008033 -0.067011625 0.028916923 -0.35791728 -0.7254726 -0.31658196 0.04284412 -0.03161332 0.016833408 0.00085270865 -0.036634594 0.14851859 -0.012501518 -0.13225827 0.29537147 0.2179499 -0.27408427 -0.07931285 -0.111582495 0.15569638 0.30043444 -0.36770153 0.206169 -0.2553735 -0.5826623 -0.27762908 -0.14023374 0.2016428 -0.311089 0.1684667 0.023877924 0.20603552 0.44587865 0.16569448 0.002533682 0.059349127 0.052172102
1519 -0.11115944 0.21351947 -0.17892572 0.21889147 -0.42820567 -0.3301461 0.27119213 -0.28738874 -0.18575037 -0.06960335 0.10076879 -0.31845412 -0.06979951 -0.43256098 0.11574942 -0.28722712 0.106808774 -0.5308561 -0.2058822 0.30045858 -0.19781183 0.0481787 -0.1895842 -0.21678911 0.21883093 0.027672624 0.41858768 0.06499815 0.43978485 0.038811427 -0.6461392 0.28338927 -0.6658814 0.40526345 -0.11524726 -0.05593772 0.28674498 -0.2266128 0.3359589 0.51003844 0.08252779 -0.3545137 -0.19919729 -0.17368007 0.13938417 -0.1097639 -0.34673822 0.15769728 -0.12439471 0.1607535 -0.23592275 -0.6247604 0.15105969 -0.69926006 -0.23665725 -0.038957674 0.05633471 -0.31024864 -0.079367004 -0.2785721 0.13569547 -0.035684824 -0.046821002 -0.13211425 -0.05478433 0.09647456 -0.23547995 -0.076485716 0.29886463 -0.2082769 0.2689477 0.05457082 -0.00030251656 -0.22306569 0.449184 -0.06969254 -0.30064687 -0.2616924 0.59585 -0.12083895 0.29157594 0.085002005 -0.17816204 -0.34376326 -0.4725126 -0.20116572 0.047117066 0.18520048 0.3075028 0.35785902 0.08410686 0.09682597 0.3048 0.22810769 -0.31907168 -0.67775047 -0.4982454 0.02857368 -0.4227979 0.18195496 0.38335657 -0.3733499 0.284075 0.07266404 0.2756817 -0.09683651 -0.37816706 0.12792344 0.33273783 -0.4330647 0.1723646 0.14928278 -0.5185149 -0.03990215 0.006232089 -0.7258977 0.028063728 0.2900802 0.24780172 -0.38027716 0.5521088 0.19625932 0.6570117 0.41944113 0.92318666 0.15498479 0.1470118 -0.28745168
1736 0.030123461 -0.026037283 -0.40374407 0.41470313 -0.62552625 -0.22609644 0.0014207548 -0.27618507 -0.13289551 -0.12745251 0.0017908327 -0.24241702 0.014324486 -0.18902652 0.21448877 -0.035869043 0.1198101 -0.49322447 -0.10945256 0.27151507 -0.11302072 -0.012932962 -0.034415904 -0.17518452 0.25338358 0.010497503 0.22475891 0.30321628 0.57269734 0.119350955 -0.32519174 0.10376072 -0.6226121 0.35328624 -0.2777838 -0.044527 -0.003161273 -0.0040414794 0.25935644 0.430531 0.047014285 -0.39412305 -0.21010657 -0.041281074 0.05167576 -0.029303266 -0.4166595 0.22954448 -0.028874582 0.20703393 -0.2174812 -0.42894983 0.16721037 -0.42190152 -0.26891816 0.018584011 0.099028945 -0.22487281 -0.36211815 -0.19886084 0.20519583 -0.2623358 -0.10963066 -0.34719852 -0.025398502 -0.01597218 -0.2287345 -0.023644825 0.13679019 -0.31168115 0.29252577 0.037718836 0.27297607 -0.4305265 0.2638167 -0.23970354 -0.19126232 -0.25512135 0.54640025 -0.12556076 0.07257186 -0.015508423 -0.052112967 -0.37220407 -0.279693 -0.018801684 0.03252971 0.30289894 0.6461746 0.035017055 0.06105448 0.04694733 0.083474256 0.23742563 -0.38388738 -0.6076084 -0.30398542 -0.084629826 -0.35636297 0.4288291 0.23738599 -0.44483706 0.13580959 0.2195614 -0.03658662 -0.10339943 -0.27136624 0.11503257 0.090109155 -0.51508987 0.283425 0.14924933 -0.54107255 0.05163458 -0.17297612 -0.57803416 0.12765244 0.25980157 0.119798526 -0.4206971 0.22427058 0.00248005 0.4509644 0.38838017 0.71257156 -0.10730293 0.14951296 -0.3354642
1386 -0.0606189 -0.10013627 -0.10497332 -0.03893097 -0.35405126 -0.2727578 -0.20895515 -0.20947774 -0.061079577 0.0025151304 0.045115713 -0.0842345 0.1576305 -0.36292055 0.10085542 -0.4275863 -0.024395244 -0.2275732 -0.12662111 0.0019049714 -0.09718647 0.10242979 0.07413625 -0.16661751 -0.09570144 0.30257773 0.20834845 0.16104168 -0.019203555 0.06026141 -0.42231876 0.074198455 -0.37206602 0.44474754 -0.100259714 0.055703104 -0.079725854 -0.24406812 0.009452371 0.32457066 -0.18965708 -0.06884257 0.07591343 -0.0056929993 0.0077701574 0.06731354 -0.29293367 -0.14135063 -0.10526686 -0.0060786335 0.06035617 -0.09552196 -0.09678383 -0.1675889 -0.0037088867 -0.26072413 -0.3195068 -0.3131138 -0.07901931 0.0069874483 0.49128416 -0.3120917 -0.051489647 -0.60335886 0.124383345 -0.00671451 -0.38673252 -0.22851712 0.48523346 -0.097412474 0.334407 0.17712088 0.07772613 -0.6360124 0.18111405 0.26201558 0.05485833 -0.43399814 0.4305144 0.03065935 0.13305016 0.39171013 -0.2403931 -0.378127 -0.40972212 -0.14217186 0.29171818 0.13193323 0.3267773 -0.23315787 -0.20427239 -0.072533086 -0.10469225 0.19565302 -0.02125472 -0.9145026 -0.1846237 0.11591192 -0.034202226 0.11190057 -0.08961248 -0.21041 0.4327307 -0.1711621 -0.20043717 0.20626739 0.037098084 -0.3905896 0.11251192 -0.11725496 -0.18403184 0.26998922 -0.43476775 0.09367496 -0.09242554 -0.29730833 -0.13975742 -0.13539144 0.097702116 -0.36558175 0.3574115 0.2178949 0.22449934 -0.024764573 0.29914552 -0.18873216 0.031755283 -0.20442085
1487 -0.10844397 0.18753332 -0.14700322 0.19645967 -0.1619951 -0.19658841 -0.15198901 -0.24467844 0.0026579977 -0.18252966 0.39816913 -0.36469576 -0.06939006 -0.44007123 0.11110167 -0.38291827 -0.10137075 -0.048326995 -0.10225508 -0.17132145 0.14501339 -0.14007565 -0.42874414 -0.17836122 -0.19697684 0.31733477 0.048532587 0.045925044 -0.11125309 -0.05911707 -0.42139745 0.13188416 -0.31953174 0.45550272 -0.020123843 0.08091598 -0.054650784 -0.14365537 -0.041290324 0.23146653 -0.086219065 -0.03912634 0.086603455 0.069879696 0.052976817 -0.13749589 -0.43356234 0.09499896 0.15044153 0.026703065 -0.2126165 -0.54201597 -0.031517256 -0.6920521 -0.114118546 -0.20139553 -0.11168464 -0.202887 -0.0021371562 -0.29130712 0.014791206 0.11811249 -0.23119834 -0.7856615 0.14222006 -0.12283593 -0.20652218 -0.15742925 0.25113812 -0.16046803 0.39781636 0.5923475 0.2103348 -0.6691043 0.23631375 -0.048999317 -0.15306795 -0.10513419 0.01204462 0.055571526 0.301919 0.20554389 0.1735847 -0.5108516 -0.3732944 -0.10503991 0.52198094 0.3529371 0.35053053 0.08816746 -0.12693071 -0.103272386 -0.105877526 0.25854906 -0.31162423 -0.74949306 0.057549637 0.09932355 -0.086476885 -0.019671667 0.043880288 0.07256709 0.43695614 0.10273117 -0.1734067 0.060017064 0.041271 -0.46247068 -0.12245621 -0.15293197 0.12727429 0.2250909 -0.3654082 0.030420214 -0.1632773 -0.43038985 -0.18393001 -0.08815676 0.265891 0.021601899 0.29283172 0.05007127 -0.12527795 0.40110832 0.22425292 -0.066352725 -0.024142157 -0.060922407
0 0.003389671 0.1984526 -0.03445006 0.36441416 -0.37085405 -0.5652738 -0.050521363 -0.3010894 0.24001275 -0.103707306 0.1811433 -0.27743775 -0.0737023 -0.41977847 -0.045469176 -0.40849146 0.035387643 -0.39567655 -0.20858777 0.18334556 0.113319844 -0.3561003 -0.19932562 -0.076089315 -0.16867687 0.13364658 0.34798187 -0.17885171 0.212032 -0.25365594 -0.034029614 -0.14427443 -0.7098304 0.5809622 -0.2180331 0.17378473 0.092289336 0.038081154 -0.146023 0.17869376 -0.14707462 0.0556159 0.17333366 -0.120373756 0.09478677 -0.032241844 -0.3074424 0.44703263 0.080517955 0.16799703 0.12374116 -0.2561039 0.31636566 -0.48710647 -0.29238272 -0.3887971 -0.1943862 -0.17909154 -0.08762694 0.03910462 -0.017674308 -0.23787035 -0.16577598 -0.5877059 0.05248579 -0.010759249 -0.3043337 -0.08199725 0.12880346 -0.03234743 0.09188931 0.11851022 0.043851558 -0.553666 0.31665394 0.13226269 -0.20794839 -0.29770732 0.7359933 -0.10606996 -0.07187843 0.43137866 0.3250779 -0.57931596 -0.3729803 -0.305766 -0.030921118 0.3770545 0.3453111 -0.19360125 0.047180627 -0.2657713 0.05497693 0.21632266 -0.20068975 -0.48851886 -0.04176117 0.0014419132 -0.32142553 -0.14180763 0.20901167 0.10889629 0.5937561 0.035213888 0.18360837 0.16231573 -0.3331504 -0.2291792 -0.084872924 0.21806183 0.38966775 -0.14424926 -0.29453465 0.2219364 -0.18613942 -0.37189 -0.0028590588 -0.18142878 0.39474636 -0.13120222 0.46775833 0.17275478 -0.24690717 0.1640657 0.31889808 0.023544475 0.0034114239 -0.12946448
126 -0.12923089 0.11088181 0.10735605 -0.16301543 -0.17932267 -0.19673954 -0.114750646 0.028252983 -0.14594288 -0.04086208 0.17725642 -0.06846926 -0.10582688 -0.28864193 0.10961208 -0.6856783 0.44000092 -0.38571498 -0.026572008 -0.036427654 -0.07074605 0.070122756 -0.4551632 -0.28369018 -0.20880182 -0.03907746 -0.032592777 -0.22476237 -0.093030706 0.13242176 -0.36374876 0.14792676 -0.25775403 0.5909618 0.063816 0.11752542 0.020398395 -0.4497 0.12421959 0.21834727 0.023837944 -0.43268582 -0.08489905 -0.059412394 0.11248841 -0.3845568 -0.4499438 -0.10176029 -0.043471627 -0.051609788 -0.0830088 -0.28595832 0.20995088 -0.24534102 -0.20368388 -0.16397601 0.05089972 -0.23057722 -0.2934408 -0.42312828 0.35903794 -0.00641123 -0.2477679 0.019864203 -0.03186226 -0.04953612 -0.2265103 -0.27212068 0.32140535 0.14071669 0.12567112 0.22555847 0.22941579 -0.7972394 0.2523414 0.11812155 -0.14559631 -0.2031641 0.051467117 0.037639257 0.12408398 0.27995875 -0.24272618 -0.30230537 -0.4328378 -0.34587198 0.12134603 -0.006773905 0.089281425 -0.069171056 -0.3408888 -0.08741725 0.14736359 0.03750704 -0.28688252 -0.79172933 -0.5119256 0.0955433 -0.16761088 0.12116202 0.139485 -0.13902955 0.36378857 0.14191377 0.22072156 -0.079154536 -0.052633733 -0.6045693 0.4956096 -0.29559258 0.08409343 0.4329499 -0.40092182 -0.27465144 -0.13465697 -0.74623513 -0.10560494 0.025241716 -0.12490938 -0.22402292 0.5034325 0.266409 0.569705 0.41034257 0.30070373 -0.19035996 0.115373075 -0.25669506
